svm_type epsilon_svr
kernel_type rbf
gamma 0.015625
nr_class 2
total_sv 1014
rho 15.6245
SV
-256 1:0.19698845 2:0.66137645 3:0.60222828 4:0.50878425 5:0.64285714 6:0.5 7:0.28571429 8:0.33333333 9:0.71428571 10:0.25 11:0.16666667 12:0.2 13:0.33333333 14:0.27272727 15:0.28571429 16:0.14285714 18:0.16666667 20:0.5 22:0.5 23:0.16666667 25:0.33333333 26:0.33333333 28:0.16666667 29:0.16666667 34:0.25 36:0.25 37:0.16666667 39:0.25 40:0.4 41:0.22222222 42:0.2 45:0.25 48:0.33333333 58:0.6 61:0.4 62:0.2 66:0.33333333 70:0.5 71:1 73:1 78:1 81:1 82:1 86:1 89:1 90:1 97:1 98:0.99656025 99:0.50453077 100:0.59406232 101:0.65837961 102:0.37098904 103:0.67398533 104:0.63163044 105:0.6871778 106:0.55453694 107:0.43248225 108:0.66910307 109:0.43214244 110:0.53722792 111:0.41927657 112:0.52900712 113:0.50004376 114:0.60432545 115:0.47017414 116:0.36282661 117:0.39320584 118:0.46990368 119:0.51010751 120:0.63510428 121:0.59329989 122:0.33586055 123:0.80393858 124:0.61440634 125:0.75725031 126:0.52898926 127:0.31512853 128:0.54943345 129:0.46449195 130:0.47086918 131:0.36515097 132:0.49406898 133:0.44834334 134:0.52677301 135:0.5314758 136:0.46563998 137:0.2842693 138:0.44634898 
256 1:0.19698845 2:0.97087874 3:0.50033308 4:0.57760686 5:0.5 6:0.5 7:0.35714286 8:0.4 9:0.57142857 10:0.25 12:0.2 13:0.22222222 14:0.27272727 15:0.28571429 16:0.42857143 18:0.5 19:0.28571429 21:0.2 22:0.125 23:0.16666667 24:0.22222222 25:0.33333333 30:0.25 31:0.33333333 35:0.33333333 36:0.25 39:0.25 40:0.4 41:0.11111111 42:0.2 43:0.25 46:0.33333333 48:0.33333333 49:0.33333333 54:0.5 61:0.2 67:0.25 70:0.55555556 72:1 78:1 81:1 86:1 89:1 98:0.49230359 99:0.73680348 100:0.76875561 101:0.83724646 102:0.68724744 103:0.64076684 104:0.29429956 105:0.75755092 106:0.63768438 107:0.38833849 108:0.57637726 109:0.58007177 110:0.58277057 111:0.45357647 112:0.44299442 113:0.44366558 114:0.4005803 115:0.25520615 116:0.26051047 117:0.30655987 118:0.45551985 119:0.58770637 120:0.68722525 121:0.7215428 122:0.27565175 123:0.58376329 124:0.23887098 125:0.56632523 126:0.53356579 127:0.27580187 128:0.41716297 129:0.65839212 130:0.38018328 131:0.24717783 132:0.35043724 133:0.40241957 134:0.28468342 135:0.26962296 136:0.23999731 137:0.22455028 138:0.28625492 
256 1:0.19698845 2:0.63925366 3:0.42214227 4:0.3793382 5:0.85714286 6:0.375 7:0.28571429 8:0.26666667 9:0.85714286 10:0.75 13:0.55555556 15:0.28571429 16:0.14285714 18:0.16666667 20:0.33333333 22:0.125 23:0.33333333 24:0.11111111 25:1 28:0.33333333 29:0.33333333 30:0.5 36:0.75 37:0.33333333 40:0.4 45:0.25 48:0.33333333 60:0.25 65:0.33333333 66:0.33333333 67:0.25 70:0.38888889 71:1 75:1 78:1 79:1 81:1 85:1 95:1 98:0.87665182 99:0.48398604 100:0.48106522 101:0.67085915 102:0.9245152 103:0.50715399 104:0.62611581 105:0.52205357 106:0.73883353 107:0.31575342 108:0.34748606 109:0.30262371 110:0.50038559 111:0.45881689 112:0.47696108 113:0.33675705 114:0.60699098 115:0.33160767 116:0.27848913 117:0.52537303 118:0.43870605 119:0.52988172 120:0.51111592 121:0.72578976 122:0.70179238 123:0.47274355 124:0.69284291 125:0.69096428 126:0.72695424 127:0.30085202 128:0.26490037 129:0.30363361 130:0.40290286 131:0.48693111 132:0.29312894 133:0.36336053 134:0.39893579 135:0.30350541 136:0.3120452 137:0.44482876 138:0.24867622 
256 1:0.35251497 2:0.069357192 3:0.45557556 4:0.23731094 5:0.92857143 6:0.125 7:0.35714286 8:0.4 9:0.85714286 10:0.125 11:0.33333333 12:0.8 13:0.22222222 15:0.14285714 16:0.14285714 17:0.5 20:0.16666667 21:0.2 22:0.375 23:0.33333333 26:0.33333333 27:1 28:0.16666667 32:0.25 36:0.25 39:0.25 40:0.2 42:0.2 44:0.25 48:0.33333333 50:0.5 52:0.25 58:0.2 61:0.4 63:0.25 64:0.33333333 66:0.33333333 70:0.22222222 71:1 74:1 80:1 84:1 87:1 98:0.36552888 99:0.68678876 100:0.71838877 101:0.5310711 102:0.54646195 103:0.63773856 104:0.44158765 105:0.31984425 106:0.66042758 107:0.37218026 108:0.46147235 109:0.57662259 110:0.46464532 111:0.49248031 112:0.50624654 113:0.47799978 114:0.48204808 115:0.37115456 116:0.39967019 117:0.39949451 118:0.29920127 119:0.56402221 120:0.55644797 121:0.50940804 122:0.50352214 123:0.79872355 124:0.52623157 125:0.24080394 126:0.62967571 127:0.38324077 128:0.51304002 129:0.47984764 130:0.47837431 131:0.40063003 132:0.55118837 133:0.46122299 134:0.55300136 135:0.33798481 136:0.38746353 137:0.456438 138:0.20638381 
256 1:0.35251497 2:0.35925814 3:0.44527437 4:0.32429886 5:0.78571429 6:0.3125 7:0.28571429 8:0.4 9:0.57142857 10:0.375 11:0.5 12:0.2 13:0.44444444 14:0.090909091 15:0.14285714 16:0.14285714 17:0.16666667 20:0.33333333 21:0.2 22:0.375 24:0.22222222 25:0.33333333 26:0.33333333 28:0.16666667 29:0.16666667 30:0.25 32:0.25 34:0.25 36:0.5 38:0.25 39:0.25 40:0.4 41:0.11111111 45:0.25 47:0.2 51:0.2 60:0.25 61:0.2 63:0.25 67:0.25 70:0.33333333 71:1 75:1 87:1 88:1 94:1 98:0.039866882 99:0.74485446 100:0.6853778 101:0.6962716 102:0.61696745 103:0.65230292 104:0.54740942 105:0.44134469 106:0.57896388 107:0.43364863 108:0.59831695 109:0.56218255 110:0.38010024 111:0.54226892 112:0.45284403 113:0.57001907 114:0.27402083 115:0.41827611 116:0.18083274 117:0.33080316 118:0.25956985 119:0.58210068 120:0.61403856 121:0.84694042 122:0.61581657 123:0.64410977 124:0.74557231 125:0.52267277 126:0.43311622 127:0.34198448 128:0.55139814 129:0.63309346 130:0.23074699 131:0.51386791 132:0.44480848 133:0.5358266 134:0.44617208 135:0.38383756 136:0.32055859 137:0.42301594 138:0.15941807 
-256 1:0.31371627 2:0.59497616 3:0.34118031 4:0.43259848 5:0.92857143 6:0.5 7:0.21428571 8:0.13333333 9:0.85714286 10:0.75 11:0.16666667 13:0.44444444 14:0.18181818 15:0.28571429 16:0.14285714 17:0.16666667 18:0.16666667 20:0.16666667 21:0.2 22:0.125 25:0.66666667 26:0.33333333 28:0.16666667 29:0.66666667 30:0.25 34:0.25 36:0.5 37:0.33333333 40:0.6 44:0.25 46:0.33333333 51:0.2 58:0.2 59:0.5 62:0.2 70:0.44444444 71:1 79:1 82:1 85:1 90:1 96:1 98:0.90730674 99:0.41733409 100:0.52975428 101:0.65606126 102:0.71288789 103:0.66050421 104:0.69336045 105:0.56183378 106:0.67110175 107:0.52916457 108:0.60871331 109:0.35662991 110:0.60319318 111:0.6876856 112:0.58533158 113:0.49557587 114:0.64680091 115:0.54174977 116:0.40074417 117:0.45199754 118:0.36300799 119:0.24434367 120:0.28212546 121:0.60409988 122:0.54931251 123:0.69019192 124:0.61116496 125:0.38414925 126:0.70554171 127:0.34623606 128:0.50996459 129:0.34452209 130:0.45503737 131:0.46676497 132:0.50582588 133:0.43109942 134:0.62016951 135:0.465495 136:0.37269069 137:0.3949199 138:0.23495234 
-256 1:0.33522084 2:0.51683228 3:0.66315036 4:0.50953768 5:0.57142857 6:0.4375 7:0.42857143 8:0.33333333 9:0.28571429 10:0.375 11:0.5 13:0.44444444 14:0.27272727 15:0.14285714 16:0.14285714 17:0.16666667 19:0.28571429 20:0.5 21:0.2 22:0.25 24:0.11111111 26:0.33333333 28:0.33333333 29:0.16666667 32:0.25 34:0.25 36:0.25 37:0.16666667 38:0.5 40:0.4 41:0.22222222 42:0.2 45:0.25 49:0.33333333 51:0.2 57:0.25 58:0.4 61:0.4 70:0.55555556 72:1 74:1 78:1 86:1 98:0.070243194 99:0.58144598 100:0.58765307 101:0.65729251 102:0.78438894 103:0.76206592 104:0.76899523 105:0.6222988 106:0.54392661 107:0.49613379 108:0.63236266 109:0.54094794 110:0.50761828 111:0.55033429 112:0.43928377 113:0.5971307 114:0.64089673 115:0.44789879 116:0.28588378 117:0.5960713 118:0.46179844 119:0.45937277 120:0.47487513 121:0.6050105 122:0.7367053 123:0.8082813 124:1 125:0.83935303 126:0.57013177 127:0.49158401 128:0.68495796 129:0.68654881 130:0.47547715 131:0.60911893 132:0.38227658 133:0.58373904 134:0.7246586 135:0.62982802 136:0.37257713 137:0.57991564 138:0.4877742 
64.11923802234223 1:0.33522084 2:0.57695035 3:0.57906094 4:0.48778178 5:0.71428571 6:0.3125 7:0.5 8:0.26666667 9:0.28571429 10:0.75 11:0.16666667 12:0.2 13:0.44444444 15:0.42857143 17:0.66666667 19:0.14285714 20:0.33333333 22:0.125 23:0.16666667 24:0.11111111 26:0.33333333 28:0.33333333 29:0.33333333 30:0.5 32:0.25 36:0.25 37:0.5 40:0.2 42:0.2 45:0.5 51:0.6 53:0.33333333 56:0.33333333 58:0.2 60:0.25 64:0.33333333 70:0.5 73:1 78:1 82:1 84:1 85:1 89:1 93:1 99:0.50554929 100:0.48734078 101:0.62874595 102:0.82940497 103:0.88894209 104:0.25549598 105:0.73105037 106:0.42329151 107:0.40770442 108:0.50008419 109:0.47174149 110:0.54652103 111:0.33007063 112:0.43021164 113:0.31968989 114:0.42042538 115:0.30643455 116:0.40961222 117:0.56371626 118:0.42691559 119:0.65505314 120:0.58873949 121:0.68237341 122:0.87202674 123:0.90172425 124:0.46607423 125:0.60644389 126:0.48747616 127:0.4794114 128:0.51593464 129:0.5196742 130:0.51943456 131:0.37865511 132:0.29879321 133:0.44978707 134:0.44276709 135:0.35875953 136:0.38623347 137:0.60253298 138:0.33968661 
-256 1:0.44212522 2:0.31388939 3:0.42214227 4:0.57349211 5:0.57142857 6:0.125 7:0.85714286 8:0.26666667 9:0.42857143 10:0.125 11:0.33333333 12:0.4 13:0.11111111 14:0.090909091 15:0.28571429 17:0.66666667 18:0.16666667 19:0.57142857 20:0.33333333 23:0.66666667 25:0.33333333 26:0.33333333 29:0.16666667 36:0.25 40:0.2 41:0.11111111 42:0.2 44:0.25 50:0.25 52:0.25 53:0.66666667 54:0.25 56:0.66666667 57:0.25 64:0.33333333 66:0.66666667 70:0.61111111 72:1 76:1 84:1 86:1 98:0.69477864 99:0.69863043 100:0.73860643 101:0.41057691 102:0.64782449 103:0.68913049 104:0.18152989 105:0.37474496 106:0.27524857 107:0.20388111 108:0.40191115 109:0.45914436 110:0.29955178 111:0.19459536 112:0.34696175 113:0.40587841 114:0.23734344 115:0.30622929 116:0.34896501 117:0.41986704 118:0.27279758 119:0.8168223 120:0.74524836 121:0.4873341 122:0.70866942 123:0.70365314 124:0.43361392 125:0.47538148 126:0.44131045 127:0.072043466 128:0.3942638 129:0.51009076 130:0.24303111 131:0.26616442 132:0.24757755 133:0.57713647 134:0.34913869 135:0.44190598 136:0.53419283 137:0.48213188 138:0.24415371 
-256 1:0.44212522 2:0.34627988 3:0.30530944 4:0.5200876 5:0.57142857 6:0.3125 7:0.57142857 8:0.33333333 9:0.42857143 10:0.25 11:0.33333333 12:0.2 13:0.33333333 14:0.27272727 15:0.14285714 17:0.16666667 18:0.16666667 19:0.42857143 20:0.5 21:0.2 22:0.125 23:0.16666667 24:0.11111111 26:0.66666667 28:0.16666667 29:0.16666667 32:0.25 35:0.33333333 36:0.5 37:0.16666667 40:0.4 41:0.22222222 42:0.2 45:0.25 53:0.33333333 54:0.25 57:0.25 61:0.2 67:0.25 70:0.55555556 74:1 76:1 81:1 86:1 88:1 98:0.062452979 99:0.68978855 100:0.78581583 101:0.56157075 102:0.55250751 103:0.72924288 104:0.064696719 105:0.48708166 106:0.39985877 107:0.21383412 108:0.41578709 109:0.43634357 110:0.4982889 111:0.20711961 112:0.4728694 113:0.45039643 114:0.53898824 115:0.37304913 116:0.24245634 117:0.43733482 118:0.44585046 119:0.65090013 120:0.56941161 121:0.35373043 122:0.64111245 123:0.6395399 124:0.29368006 125:0.44847839 126:0.43884857 127:0.18799191 128:0.34179742 129:0.44002108 130:0.5104691 131:0.35527908 132:0.47227086 133:0.52269731 134:0.61760949 135:0.32918039 136:0.23099077 137:0.51825064 138:0.42563146 
-256 1:0.28947959 2:0.71593769 3:0.3431175 4:0.40833574 5:0.5 6:0.3125 7:0.28571429 8:0.66666667 9:0.57142857 10:0.125 11:0.16666667 13:0.22222222 14:0.090909091 15:0.14285714 16:0.42857143 19:0.28571429 20:0.33333333 22:0.625 24:0.55555556 26:0.33333333 31:0.33333333 34:0.25 36:0.5 40:0.4 43:0.25 49:1 57:0.25 58:0.4 61:0.6 62:0.2 63:0.25 67:0.75 69:0.4 70:0.33333333 71:1 78:1 79:1 87:1 98:0.94688996 99:0.70206794 100:0.67311878 101:0.82229001 102:0.65924746 103:0.57384444 104:0.52614781 105:0.79011223 106:0.57958232 107:0.41937592 108:0.36626761 109:0.66079259 110:0.40781192 111:0.66401412 112:0.45998419 113:0.39573242 114:0.48652863 115:0.36043146 116:0.13807253 117:0.61620755 118:0.43195031 119:0.68580214 120:0.60441615 121:0.8324086 122:0.62569725 123:0.46177043 124:0.61956411 125:0.70800213 126:0.57515496 127:0.38841149 128:0.45398958 129:0.59129597 130:0.43895508 131:0.69036168 132:0.38227658 133:0.46870301 134:0.54399198 135:0.49872084 136:0.33918883 137:0.67401978 138:0.40726261 
256 1:0.26651318 2:0.63184531 3:0.4359805 4:0.61454429 5:0.5 6:0.3125 7:0.64285714 8:0.33333333 9:0.42857143 10:0.375 12:0.2 13:0.22222222 15:0.71428571 17:0.33333333 18:0.33333333 19:0.14285714 20:0.5 22:0.25 23:0.33333333 24:0.11111111 25:0.33333333 27:0.5 28:0.16666667 30:0.5 36:0.25 37:0.16666667 40:0.2 42:0.2 45:0.25 50:0.25 51:0.2 54:0.25 55:0.33333333 56:0.33333333 58:0.4 61:0.2 62:0.2 64:0.33333333 66:0.33333333 68:0.33333333 70:0.61111111 74:1 76:1 78:1 83:1 87:1 98:0.92346398 99:0.5337025 100:0.68390586 101:0.90028757 102:0.50404852 103:0.65044085 104:0.46776234 105:0.43337627 106:0.36754358 107:0.1933283 108:0.23201794 109:0.26962537 110:0.48541113 111:0.36708821 112:0.47160926 113:0.32562796 114:0.41882578 115:0.27072111 116:0.25006923 117:0.26621557 118:0.41792593 119:0.51739762 120:0.49670101 121:0.89992331 122:0.57206161 123:0.70470465 124:0.46607423 125:0.3548285 126:0.42431453 127:0.30775229 128:0.40947038 129:0.3973958 130:0.37686463 131:0.44682036 132:0.36503421 133:0.31059339 134:0.48473656 135:0.35061172 136:0.2915227 137:0.31827458 138:0.40147751 
-246.9170637296899 1:0.26651318 2:0.52854586 3:0.53701896 4:0.48199682 5:0.78571429 6:0.8125 8:0.13333333 9:0.42857143 10:0.875 12:0.2 13:0.77777778 14:0.54545455 16:0.14285714 22:0.25 25:0.66666667 28:0.16666667 29:1 36:0.5 37:0.66666667 39:0.25 40:1 41:0.11111111 43:0.25 47:0.2 60:0.25 61:0.2 70:0.55555556 71:1 78:1 85:1 90:1 91:1 98:0.070367527 99:0.70244901 100:0.83239855 101:0.77546978 102:0.44748117 103:0.73219617 104:0.67904072 105:0.70806024 106:0.59485375 107:0.73899933 108:0.63629369 109:0.86670474 110:0.65119971 111:0.76541749 112:0.74995176 113:0.71872715 114:0.55198384 115:0.61638716 116:0.63275035 117:0.6684045 118:0.78306789 119:0.64701525 120:0.77802746 121:0.836398 122:0.66718334 123:0.74999535 124:0.7399569 125:0.70009379 126:0.50176051 127:0.73520362 128:0.50602278 129:1 130:0.63243999 131:0.81135856 132:0.72069505 133:0.73396028 134:0.58099272 135:0.7397393 136:0.66628385 137:0.70090892 138:0.78837445 
256 1:0.26651318 2:0.53519556 3:0.50033308 4:0.48450462 5:0.5 6:0.5625 7:0.21428571 8:0.46666667 9:0.28571429 10:0.625 13:0.55555556 14:0.090909091 15:0.28571429 16:0.42857143 19:0.14285714 20:0.33333333 22:0.5 24:0.22222222 25:0.33333333 28:0.33333333 29:0.16666667 31:0.66666667 36:0.25 37:0.66666667 40:0.4 43:0.25 45:0.25 47:0.2 49:0.33333333 58:0.2 60:0.25 61:0.4 62:0.2 67:0.5 70:0.5 72:1 78:1 79:1 87:1 98:0.9853489 99:0.4132182 100:0.6799321 101:0.84078124 102:0.69827231 103:0.48950293 104:0.66201506 105:0.56636478 106:0.54975921 107:0.52675138 108:0.3004137 109:0.65502354 110:0.46480693 111:0.72873361 112:0.83457519 113:0.65655825 114:0.54431467 115:0.54537916 116:0.3570022 117:0.82125184 118:0.7054065 119:0.56232647 120:0.72936818 121:0.92148212 122:0.68208716 123:0.54407273 124:0.6727652 125:0.67467568 126:0.49109386 127:0.53330498 128:0.43638513 129:0.75346026 130:0.52880976 131:0.56212462 132:0.70960599 133:0.60675669 134:0.46596313 135:0.48112194 136:0.38109052 137:0.83561595 138:0.60745057 
-90.12218297180324 1:0.5066435 2:0.48533466 3:0.5316808 4:0.39368316 5:0.92857143 6:0.4375 7:0.21428571 8:0.2 9:0.85714286 10:0.75 13:0.22222222 14:0.18181818 15:0.42857143 16:0.28571429 17:0.5 21:0.4 24:0.11111111 25:1 28:0.16666667 29:0.5 30:0.5 36:0.25 37:0.16666667 40:0.2 41:0.11111111 42:0.2 43:0.25 44:0.75 46:0.33333333 49:0.33333333 50:0.5 51:0.2 70:0.38888889 72:1 74:1 75:1 82:1 85:1 89:1 98:0.97983251 99:0.54300722 100:0.58472828 101:0.42365163 102:0.48027965 103:0.70782328 104:0.52725915 105:0.36925123 106:0.53648118 107:0.32488878 108:0.64289523 109:0.30746788 110:0.5115144 111:0.5389537 112:0.40030061 113:0.36630729 114:0.44512665 115:0.4435306 116:0.41288363 117:0.44263843 118:0.36895148 119:0.66383879 120:0.57037529 121:0.47987045 122:0.55942667 123:0.75575343 124:0.74157803 125:0.30539689 126:0.46334239 127:0.38105677 128:0.61266785 129:0.34112973 130:0.49316728 131:0.55024313 132:0.28831132 133:0.57215691 134:0.61442432 135:0.41682796 136:0.43489153 137:0.52446842 138:0.34576035 
68.33824096670475 1:0.5066435 2:0.75135356 3:0.36591927 4:0.59013591 5:0.71428571 6:0.625 7:0.21428571 8:0.2 9:0.42857143 10:0.625 12:0.4 13:0.44444444 14:0.45454545 15:0.42857143 17:0.5 22:0.25 25:0.66666667 29:0.5 30:0.5 36:0.25 37:0.16666667 39:0.5 40:0.8 41:0.22222222 42:0.2 44:0.75 50:0.25 51:0.4 61:0.4 70:0.55555556 81:1 83:1 87:1 88:1 91:1 93:1 98:0.88227739 99:0.54521538 100:0.76709173 101:0.54711788 102:0.40807085 103:0.62133783 104:0.27856449 105:0.42280113 106:0.41085023 107:0.47670585 108:0.70248358 109:0.67187341 110:0.44936747 111:0.58609121 112:0.5262305 113:0.47946757 114:0.35040168 115:0.60446523 116:0.48880743 117:0.53382444 118:0.50992522 119:0.56866862 120:0.87352763 121:0.77478326 122:0.553836 123:0.7789187 124:0.49827821 125:0.48281791 126:0.36061735 127:0.47380103 128:0.736749 129:0.58723862 130:0.46358134 131:0.64833352 132:0.42409647 133:0.63845206 134:0.53577111 135:0.4837008 136:0.54798373 137:0.50438924 138:0.5117952 
-211.6838395903551 1:0.28947959 2:0.50955945 3:0.4359805 4:0.39530451 5:0.57142857 6:0.25 7:0.42857143 8:0.53333333 9:0.42857143 10:0.25 11:0.16666667 12:0.4 13:0.22222222 15:0.28571429 16:0.28571429 17:0.33333333 20:0.5 22:0.5 23:0.5 24:0.11111111 25:0.33333333 27:0.5 30:0.25 31:0.33333333 34:0.25 36:0.25 37:0.16666667 40:0.4 45:0.25 47:0.4 50:0.25 52:0.25 58:0.2 61:0.4 62:0.2 63:0.25 64:0.66666667 66:0.33333333 68:0.33333333 70:0.38888889 71:1 74:1 78:1 87:1 98:0.94417166 99:0.51424147 100:0.64423219 101:0.8321472 102:0.87949917 103:0.76738272 104:0.68199176 105:0.44604002 106:0.34710589 107:0.15343583 108:0.1606615 109:0.14901817 110:0.39122 111:0.40186116 112:0.34222855 113:0.32981321 114:0.44004673 115:0.30367313 116:0.13342699 117:0.2529892 118:0.30520719 119:0.67747105 120:0.49670101 121:0.93764287 122:0.78327068 123:0.75286856 124:0.59089586 125:0.46598816 126:0.26158609 127:0.23352482 128:0.32197369 129:0.22628903 130:0.32764871 131:0.45346166 132:0.30030769 133:0.3702039 134:0.58099272 135:0.32576913 136:0.26407478 137:0.31130608 138:0.27686789 
-247.0553905917296 1:0.15230324 2:0.24231845 3:0.36591927 4:0.30723581 5:0.64285714 6:0.3125 7:0.28571429 8:0.53333333 9:0.57142857 10:0.25 11:0.16666667 12:0.4 13:0.22222222 14:0.090909091 15:0.14285714 16:0.28571429 17:0.16666667 18:0.16666667 19:0.14285714 20:0.16666667 21:0.4 22:0.375 24:0.33333333 25:0.33333333 27:0.5 29:0.33333333 35:0.66666667 36:0.5 40:0.4 42:0.2 45:0.25 46:0.33333333 49:0.33333333 52:0.25 54:0.25 58:0.2 63:0.5 67:0.5 70:0.33333333 73:1 76:1 78:1 85:1 89:1 90:1 97:1 98:0.8402082 99:0.60146861 100:0.7215975 101:0.3552921 102:0.75379586 103:0.5772392 104:0.46600881 105:0.45009816 106:0.54188887 107:0.33662865 108:0.48368046 109:0.59706718 110:0.41131563 111:0.61613252 112:0.42592606 113:0.47878775 114:0.320507 115:0.50149528 116:0.26517022 117:0.53243464 118:0.42667977 119:0.46544679 120:0.66117751 121:0.35281981 122:0.43400018 123:0.64659788 124:0.47865905 125:0.37428402 126:0.46017135 127:0.29851915 128:0.39526135 129:0.58575786 130:0.21134606 131:0.44236342 132:0.32625559 133:0.38808447 134:0.28529651 135:0.48411203 136:0.20231278 137:0.5530803 138:0.21682923 
256 1:0.33522084 2:0.18757401 3:0.11236237 4:0.13942881 5:0.85714286 6:0.0625 7:0.28571429 8:0.6 9:0.57142857 11:0.33333333 12:1 13:0.22222222 15:0.14285714 17:0.66666667 21:0.4 22:0.25 23:0.16666667 24:0.44444444 26:0.66666667 27:0.5 32:0.5 35:1 36:0.25 39:0.25 40:0.2 42:0.2 44:0.25 50:0.5 53:0.66666667 59:0.5 61:0.4 64:0.33333333 67:0.25 69:0.2 70:0.11111111 72:1 73:1 80:1 83:1 87:1 99:0.67137676 100:0.64593782 101:0.59648474 102:0.16191779 103:0.56430208 104:0.24653117 105:0.35648492 106:0.3751856 107:0.31125592 108:0.58849137 109:0.37642957 110:0.2648226 111:0.13547115 112:0.45227961 113:0.32390581 114:0.42250943 115:0.19731382 116:0.14563994 117:0.098685719 118:0.20531636 119:0.52988172 120:0.49025372 121:0.70371582 122:0.23240816 123:0.48267475 124:0.29415176 125:0.57571854 126:0.26747924 127:0.27108561 128:0.49099701 129:0.25653214 130:0.19381519 131:0.17158802 132:0.37965358 133:0.30165793 134:0.38211007 135:0.14318061 136:0.13203739 137:0.10549208 138:0.14599332 
-256 1:0.48229319 2:0.33930036 3:0.49126314 4:0.6193443 5:0.85714286 6:0.4375 7:0.5 9:0.57142857 10:0.375 11:0.83333333 13:0.33333333 14:0.36363636 15:0.14285714 17:0.66666667 18:0.33333333 19:0.14285714 26:0.66666667 28:0.33333333 29:0.16666667 32:1 33:0.5 36:0.25 37:0.33333333 40:0.2 41:0.44444444 42:0.2 50:0.25 51:0.2 52:0.5 54:0.25 70:0.61111111 71:1 86:1 90:1 98:0.98577996 99:0.52384979 100:0.54201804 101:0.51830016 102:0.6890437 103:0.67920981 104:0.52194799 106:0.35278238 107:0.4804293 108:0.62265773 109:0.27078826 110:0.36038177 111:0.50975245 112:0.40021941 113:0.51619359 114:0.6060343 115:0.40569759 116:0.39246969 117:0.55449329 118:0.34881723 119:0.61843031 120:0.5460514 121:0.6863628 122:0.70612265 123:0.79543233 124:0.61560696 125:0.14957171 126:0.34449139 127:0.51262284 128:0.71260546 129:0.39483123 130:0.31495486 131:0.55626658 132:0.54070649 133:0.50528295 134:0.54879857 135:0.42305351 136:0.47524888 137:0.4214498 138:0.34245687 
-256 1:0.44513165 2:0.45502976 3:0.11236237 4:0.44443521 5:0.64285714 6:0.25 7:0.57142857 8:0.33333333 9:0.28571429 10:0.375 11:0.5 12:0.2 13:0.33333333 14:0.090909091 15:0.28571429 17:0.33333333 18:0.16666667 19:0.28571429 20:0.33333333 21:0.4 22:0.125 24:0.22222222 25:0.33333333 26:0.33333333 28:0.16666667 29:0.16666667 30:0.25 32:0.5 33:0.5 35:0.33333333 36:0.5 37:0.16666667 40:0.2 41:0.11111111 42:0.2 51:0.2 53:0.33333333 54:0.25 58:0.2 60:0.25 69:0.2 70:0.5 74:1 79:1 83:1 88:1 98:0.78203846 99:0.49349171 100:0.5956992 101:0.53624604 102:0.15481296 103:0.58866285 104:0.45587025 105:0.42079745 106:0.59439927 107:0.62708324 108:0.54139514 109:0.53690403 110:0.48598313 111:0.47632783 112:0.52280675 113:0.37386221 114:0.57813811 115:0.23829061 116:0.37802852 117:0.46045772 118:0.38379828 119:0.2670548 120:0.5125672 121:0.56257003 122:0.30094762 123:0.62592072 124:0.58872404 125:0.53588835 126:0.51531149 127:0.61280479 128:0.45971748 129:0.27719181 130:0.39061875 131:0.49217131 132:0.55508639 133:0.37045353 134:0.49837711 135:0.18820096 136:0.29647114 137:0.57160424 138:0.32626186 
-93.56827770915723 1:0.44513165 2:0.2103039 3:0.30343437 4:0.26012754 5:0.64285714 6:0.25 7:0.28571429 8:0.6 9:0.28571429 10:0.25 11:0.33333333 12:0.6 13:0.22222222 14:0.18181818 16:0.14285714 17:0.5 18:0.16666667 21:0.4 22:0.125 23:0.33333333 24:0.44444444 26:0.33333333 27:0.5 29:0.33333333 32:0.5 35:0.66666667 36:0.5 40:0.4 43:0.25 47:0.2 51:0.4 53:0.33333333 54:0.25 61:0.2 64:0.33333333 65:0.33333333 68:0.33333333 69:0.4 70:0.27777778 73:1 76:1 78:1 83:1 85:1 90:1 92:1 94:1 98:0.75486788 99:0.44062224 100:0.52149271 101:0.72076299 102:0.32949744 103:0.67355367 104:0.47844379 105:0.44529577 106:0.67897964 107:0.44809131 108:0.27283108 109:0.51989769 110:0.3856236 111:0.46722585 112:0.48422113 113:0.4151896 114:0.47456247 115:0.26621364 116:0.28897692 117:0.33259248 118:0.34781138 119:0.32684331 120:0.34685445 121:0.69335249 122:0.44284221 123:0.72186344 124:0.6160655 125:0.56614179 126:0.64051511 127:0.42333382 128:0.40596176 129:0.27379945 130:0.31829493 131:0.47941757 132:0.49602413 133:0.39454083 134:0.38993769 135:0.27668092 136:0.30295772 137:0.349963 138:0.26843994 
-95.02401526338794 1:0.44513165 2:0.71827165 3:0.47790352 4:0.66958763 5:0.57142857 6:0.3125 7:0.71428571 8:0.2 9:0.28571429 10:0.5 11:0.33333333 13:0.11111111 14:0.18181818 15:0.57142857 17:0.66666667 19:0.28571429 20:0.5 22:0.125 23:0.33333333 26:0.66666667 29:0.5 30:0.25 32:0.5 36:0.25 40:0.2 41:0.11111111 42:0.4 44:0.25 45:0.5 50:0.25 51:0.6 56:0.33333333 57:0.25 58:0.2 62:0.2 66:0.33333333 70:0.66666667 71:1 78:1 79:1 83:1 86:1 89:1 92:1 98:0.99161363 99:0.46755966 100:0.53147201 101:0.42321607 102:0.64605246 103:0.55010603 104:0.59636228 105:0.35048644 106:0.44385025 107:0.45805277 108:0.34556541 109:0.37177549 110:0.64071151 111:0.49742747 112:0.29309933 113:0.33440962 114:0.555004 115:0.51227395 116:0.44653783 117:0.37984858 118:0.3696776 119:0.33707034 120:0.22931338 121:0.4685965 122:0.67148762 123:0.58479355 124:0.63449809 125:0.51643284 126:0.51805922 127:0.44619997 128:0.3310294 129:0.37202581 130:0.60908162 131:0.50279359 132:0.54528464 133:0.53082569 134:0.69703993 135:0.52697468 136:0.51121465 137:0.56387606 138:0.43437735 
104.3084665357372 1:0.44513165 2:0.60704896 3:0.38712304 4:0.59926902 5:0.57142857 6:0.5625 7:0.28571429 8:0.33333333 9:0.28571429 10:0.25 11:0.33333333 12:0.2 13:0.44444444 14:0.36363636 15:0.28571429 16:0.14285714 17:0.33333333 18:0.16666667 20:0.16666667 22:0.5 24:0.11111111 26:0.66666667 28:0.16666667 29:0.16666667 32:0.5 36:0.5 39:0.25 40:0.4 41:0.22222222 42:0.4 45:0.25 47:0.2 51:0.4 58:0.2 61:0.6 63:0.25 67:0.25 70:0.55555556 74:1 78:1 81:1 86:1 92:1 98:0.77907223 99:0.42618128 100:0.71925238 101:0.48991265 102:0.53244336 103:0.69008147 104:0.49387923 105:0.30936092 106:0.55177004 107:0.39105747 108:0.44381989 109:0.32336222 110:0.57359396 111:0.58935817 112:0.5358106 113:0.38756444 114:0.71079655 115:0.58703134 116:0.55064494 117:0.66622736 118:0.60855359 119:0.27897756 120:0.61105296 121:0.66127535 122:0.62139297 123:0.76072965 124:0.54632243 125:0.47007423 126:0.59530824 127:0.48412767 128:0.45720641 129:0.40226893 130:0.48275323 131:0.58948164 132:0.57756464 133:0.54975334 134:0.75784981 135:0.6913077 136:0.55661137 137:0.67326906 138:0.62136011 
256 1:0.29286845 2:0.53058082 3:0.61358266 4:0.60726385 5:0.42857143 6:0.4375 7:0.5 8:0.4 9:0.14285714 10:0.125 11:0.16666667 12:0.4 13:0.33333333 14:0.36363636 15:0.14285714 16:0.14285714 17:0.16666667 19:0.42857143 20:0.5 22:0.5 23:0.33333333 26:0.33333333 28:0.16666667 32:0.25 36:0.25 39:0.25 40:0.4 41:0.44444444 47:0.2 53:0.33333333 57:0.25 58:0.4 61:0.4 62:0.2 63:0.25 66:0.33333333 70:0.61111111 71:1 75:1 79:1 82:1 84:1 86:1 88:1 98:0.94749539 99:0.3770097 100:0.36380239 101:0.43154589 102:0.7366506 103:0.57216308 104:0.33171541 105:0.59324961 106:0.42876158 107:0.25687929 108:0.44124732 109:0.27085343 110:0.42781327 111:0.18777862 112:0.3784754 113:0.2569768 114:0.63527578 115:0.36734915 116:0.41853155 117:0.53280946 118:0.40323878 119:0.35465541 120:0.22681537 121:0.36499116 122:0.79260983 123:0.61268665 124:0.47703791 125:0.54788277 126:0.330404 127:0.35600662 128:0.44937243 129:0.31279822 130:0.46877006 131:0.28532577 132:0.41429472 133:0.38535573 134:0.62280934 135:0.41682796 136:0.49429697 137:0.39110428 138:0.51952375 
-177.7628199541902 1:0.29286845 2:0.49715226 3:0.61321882 4:0.44719461 5:0.57142857 6:0.3125 7:0.35714286 8:0.53333333 9:0.28571429 11:0.33333333 12:0.6 13:0.22222222 14:0.18181818 15:0.14285714 16:0.28571429 17:0.5 18:0.16666667 20:0.16666667 22:0.5 23:0.33333333 24:0.22222222 26:0.33333333 27:0.5 32:0.5 35:0.33333333 36:0.25 38:0.25 40:0.4 42:0.2 43:0.25 44:0.25 47:0.2 48:0.33333333 50:0.25 53:0.33333333 54:0.25 58:0.2 61:0.6 63:0.25 65:0.33333333 66:0.33333333 67:0.25 69:0.2 70:0.38888889 71:1 74:1 81:1 83:1 84:1 87:1 98:0.018155131 99:0.67231294 100:0.56689169 101:0.16417405 102:0.60344596 103:0.62738223 104:0.25119301 105:0.33483663 106:0.67310596 107:0.45839821 108:0.57471918 109:0.67471918 110:0.46608386 111:0.45364898 112:0.6006275 113:0.62078883 114:0.60627767 115:0.56123708 116:0.67037955 117:0.53671362 118:0.49671307 119:0.52769258 120:0.33569771 121:0.32582177 122:0.53717467 123:0.56804111 124:0.2957729 125:0.32001708 126:0.54307664 127:0.41497315 128:0.53773549 129:0.62261089 130:0.33225668 131:0.44299264 132:0.54266164 133:0.7228281 134:0.62723196 135:0.58331866 136:0.61758214 137:0.5530803 138:0.44803249 
-256 1:0.42929489 2:0.5113585 3:0.39926016 4:0.48630216 5:0.71428571 6:0.3125 7:0.5 8:0.26666667 9:0.28571429 10:0.5 11:0.5 12:0.2 13:0.44444444 14:0.090909091 15:0.28571429 17:0.5 19:0.14285714 20:0.33333333 22:0.25 23:0.16666667 24:0.11111111 25:0.33333333 26:0.33333333 28:0.5 29:0.16666667 34:0.25 36:0.5 37:0.16666667 39:0.25 40:0.2 41:0.11111111 42:0.2 44:0.5 51:0.2 52:0.5 56:0.33333333 61:0.2 62:0.2 66:0.33333333 67:0.25 70:0.5 71:1 75:1 86:1 94:1 98:0.6486802 99:0.78758446 100:0.8009465 101:0.50006466 102:0.91283571 103:0.79491271 104:0.41207085 105:0.50952316 106:0.28685399 107:0.46842791 108:0.46621788 109:0.45669771 110:0.44600622 111:0.43064253 112:0.56489257 113:0.70931069 114:0.44457107 115:0.56831554 116:0.46613216 117:0.39890393 118:0.35271016 119:0.82364409 120:0.7284045 121:0.52249001 122:0.96206918 123:0.76673613 124:0.58901839 125:0.66601808 126:0.34634354 127:0.35966967 128:0.56352928 129:0.60279103 130:0.38124355 131:0.59519777 132:0.70327389 133:0.75644591 134:0.52577595 135:0.54475931 136:0.59128336 137:0.39169646 138:0.33210521 
-252.1812956405245 1:0.42929489 2:0.24727824 3:0.32680274 4:0.16404529 5:1 6:0.25 7:0.21428571 8:0.33333333 9:0.85714286 10:0.625 11:0.16666667 12:0.2 13:0.44444444 16:0.28571429 17:0.16666667 19:0.14285714 20:0.16666667 21:0.6 22:0.125 24:0.11111111 26:0.33333333 27:0.5 28:0.16666667 29:0.33333333 31:0.66666667 36:0.75 37:0.16666667 40:0.4 46:0.66666667 51:0.2 56:0.33333333 60:0.25 70:0.22222222 74:1 78:1 85:1 98:0.0060296239 99:0.63851 100:0.74203998 101:0.58931195 102:0.68524739 103:0.70639406 104:0.19634038 105:0.46127282 106:0.41118187 107:0.42862027 108:0.51027664 109:0.42627041 110:0.49163751 111:0.41964345 112:0.52451057 113:0.56688601 114:0.48693467 115:0.46230563 116:0.3681414 117:0.52150689 118:0.49424625 119:0.61087206 120:0.63386802 121:0.54666685 122:0.51059241 123:0.69044032 124:0.1770144 125:0.5678102 126:0.17181598 127:0.24244157 128:0.54523705 129:0.44002108 130:0.42520096 131:0.30063868 132:0.50648362 133:0.42297104 134:0.31950534 135:0.32361144 136:0.29524108 137:0.47268992 138:0.30818165 
-60.62898459558239 1:0.53506864 2:0.39362024 3:0.76078885 4:0.53781514 5:0.28571429 6:0.25 7:0.57142857 8:0.66666667 9:0.14285714 11:0.33333333 12:0.2 13:0.11111111 14:0.090909091 15:0.14285714 16:0.42857143 17:0.16666667 18:0.16666667 19:0.57142857 20:0.33333333 21:0.2 22:0.5 23:0.16666667 24:0.33333333 26:0.33333333 36:0.25 40:0.2 42:0.2 43:0.25 45:0.25 47:0.4 49:0.33333333 52:0.25 56:0.33333333 57:0.5 61:0.6 63:0.25 65:0.33333333 67:0.25 69:0.2 70:0.5 74:1 79:1 82:1 87:1 89:1 98:0.95008214 99:0.56395817 100:0.46253754 101:0.39659131 102:0.7227755 103:0.56139495 104:0.40416531 105:0.59620614 106:0.23957638 107:0.31891478 108:0.60485702 109:0.42958407 110:0.30037198 111:0.27603756 112:0.21208231 113:0.2564485 114:0.43717631 115:0.45635037 116:0.21650072 117:0.44631947 118:0.20349039 119:0.49694357 120:0.39870284 121:0.35419118 122:0.61483408 123:0.62943909 124:0.30183604 125:0.60477549 126:0.27268886 127:0.2061418 128:0.36033181 129:0.40441467 130:0.22945767 131:0.14500212 132:0.15819044 133:0.17180808 134:0.47316638 135:0.38790542 136:0.27436067 137:0.29932596 138:0.076909653 
256 1:0.3840179 2:0.428959 3:0.58121897 4:0.55708493 5:0.64285714 6:0.5 7:0.35714286 8:0.26666667 9:0.28571429 10:0.375 11:0.33333333 12:0.2 13:0.55555556 14:0.36363636 15:0.14285714 17:0.16666667 19:0.28571429 20:0.33333333 22:0.375 24:0.11111111 26:0.33333333 28:0.16666667 29:0.16666667 30:0.25 34:0.25 35:0.33333333 36:0.5 37:0.33333333 38:0.25 40:0.4 41:0.44444444 53:0.33333333 56:0.33333333 58:0.4 60:0.5 61:0.2 67:0.25 70:0.55555556 71:1 78:1 84:1 87:1 88:1 91:1 98:0.94660275 99:0.56415027 100:0.43000529 101:0.39821985 102:0.82031249 103:0.70872519 104:0.53016141 105:0.5047948 106:0.50775629 107:0.36612777 108:0.38646939 109:0.55844966 110:0.49202106 111:0.55756136 112:0.43647896 113:0.47242661 114:0.76718532 115:0.41574489 116:0.50882049 117:0.71275691 118:0.52132278 119:0.59307548 120:0.48603187 121:0.69172356 122:0.87811451 123:0.80208397 124:0.55932777 125:0.67514759 126:0.4199116 127:0.37471258 128:0.49764242 129:0.65391593 130:0.41291684 131:0.53273651 132:0.5014872 133:0.57465736 134:0.77825394 135:0.56619064 136:0.59932528 137:0.75868196 138:0.49054446 
-256 1:0.3840179 2:0.55397952 3:0.50033308 4:0.53104882 5:0.35714286 6:0.4375 7:0.5 8:0.46666667 9:0.28571429 10:0.125 11:0.33333333 13:0.33333333 14:0.18181818 16:0.42857143 19:0.42857143 20:0.66666667 22:0.625 23:0.33333333 25:0.33333333 26:0.33333333 29:0.16666667 36:0.5 38:0.25 40:0.2 41:0.11111111 43:0.25 47:0.4 48:0.33333333 58:0.6 60:0.25 61:0.4 63:0.5 66:0.33333333 70:0.61111111 72:1 73:1 75:1 78:1 79:1 82:1 84:1 87:1 90:1 98:0.69769655 99:0.41738254 100:0.3960012 101:0.2777131 102:0.95250283 103:0.57559332 104:0.09199994 105:0.71952617 106:0.44764649 107:0.2238971 108:0.4196212 109:0.52799465 110:0.46309559 111:0.36893888 112:0.31911052 113:0.33735592 114:0.37159275 115:0.34720551 116:0.32004483 117:0.4812651 118:0.26929756 119:0.48691674 120:0.22210592 121:0.42261651 122:0.99420185 123:0.62984544 124:0.097237893 125:0.59806364 126:0.49719679 127:0.34312907 128:0.46193676 129:0.57254791 130:0.38601078 131:0.29056596 132:0.34390394 133:0.29166574 134:0.49877037 135:0.50106426 136:0.49216657 137:0.5207888 138:0.37245417 
-256 1:0.52761317 2:0.44674087 3:0.7877595 4:0.57368283 5:0.71428571 6:0.375 7:0.5 8:0.2 9:0.71428571 10:0.25 11:0.33333333 13:0.44444444 14:0.090909091 15:0.28571429 16:0.14285714 17:0.16666667 18:0.33333333 19:0.28571429 20:0.33333333 22:0.375 25:0.33333333 26:0.66666667 28:0.16666667 30:0.25 33:0.5 34:0.25 36:0.5 37:0.16666667 40:0.4 43:0.25 44:0.25 47:0.2 50:0.25 54:0.25 57:0.25 58:0.4 61:0.4 62:0.2 70:0.55555556 80:1 83:1 84:1 87:1 93:1 96:1 98:0.78140284 99:0.61340364 100:0.59755642 101:0.75865602 102:0.38967888 103:0.56154355 104:0.12164408 105:0.64772138 106:0.49268203 107:0.54177136 108:0.8369789 109:0.52529444 110:0.56958348 111:0.47103116 112:0.40154759 113:0.34356393 114:0.44370422 115:0.46126345 116:0.36675695 117:0.46471257 118:0.39225933 119:0.55135167 120:0.47659898 121:0.75242767 122:0.19721734 123:0.39459312 124:0.3524726 125:0.41775304 126:0.45426538 127:0.49975552 128:0.66336057 129:0.37417156 130:0.46213276 131:0.40891469 132:0.39858924 133:0.31205848 134:0.3776754 135:0.39539663 136:0.32357114 137:0.44923656 138:0.3196346 
-256 1:0.21544854 2:0.80563183 3:0.3836975 4:0.38469083 5:0.42857143 6:0.125 7:0.64285714 8:0.6 9:0.14285714 10:0.25 11:0.33333333 12:0.2 13:0.11111111 15:0.14285714 16:0.28571429 17:0.16666667 18:0.33333333 19:0.28571429 20:0.5 21:0.6 23:0.66666667 24:0.22222222 26:0.33333333 29:0.33333333 34:0.5 35:0.33333333 36:0.25 40:0.2 43:0.25 46:0.33333333 49:0.33333333 51:0.2 55:0.33333333 56:0.33333333 65:0.33333333 66:0.33333333 68:0.66666667 70:0.44444444 85:1 89:1 98:0.021634728 99:0.85439947 100:0.78833929 101:0.67972718 102:0.42204893 103:0.49758825 104:0.076245663 105:0.78638888 106:0.4445575 107:0.42107724 108:0.74106612 109:0.55151944 110:0.46995986 111:0.24773443 112:0.36297169 113:0.49149859 114:0.28587195 115:0.24929768 116:0.19016725 117:0.26309559 118:0.42248606 119:0.71362556 120:0.45899495 121:0.45779651 122:0.19319095 123:0.49734543 124:0.093523921 125:0.49985576 126:0.26291551 127:0.29061293 128:0.55048063 129:0.40335275 130:0.35578606 131:0.05909734 132:0.22840242 133:0.53017733 134:0.24768268 135:0.20598559 136:0.19839991 137:0.18087084 138:0.34400811 
-65.59954294572091 1:0.41962372 2:0.55397952 3:0.55606605 4:0.53628201 5:0.57142857 6:0.1875 7:0.71428571 8:0.33333333 9:0.14285714 10:0.375 11:0.66666667 13:0.22222222 15:0.14285714 16:0.14285714 17:0.83333333 18:0.16666667 19:0.28571429 20:0.33333333 22:0.125 23:0.5 24:0.11111111 26:0.33333333 28:0.16666667 29:0.33333333 32:0.5 34:0.25 36:0.25 38:0.25 40:0.2 42:0.2 45:0.25 48:0.33333333 51:0.6 52:0.5 56:0.66666667 58:0.2 64:0.33333333 65:0.33333333 68:0.33333333 70:0.55555556 74:1 78:1 79:1 80:1 82:1 85:1 89:1 90:1 97:1 98:0.89920869 99:0.45091978 100:0.51186212 101:0.53482431 102:0.87867104 103:0.5218621 104:0.1472625 105:0.79221579 106:0.37062671 107:0.25816031 108:0.53617856 109:0.43496512 110:0.67621821 111:0.35906907 112:0.15519276 113:0.23787762 114:0.31458698 115:0.35587107 116:0.260825 117:0.30328468 118:0.18013443 119:0.53621011 120:0.32779914 121:0.49932636 122:0.77720889 123:0.58728166 124:0.020525425 125:0.55748419 126:0.51224302 127:0.28534059 128:0.54568267 129:0.4702642 130:0.54256388 131:0.27180092 132:0.1351173 133:0.40427167 134:0.29110945 135:0.40719114 136:0.42287244 137:0.44908966 138:0.22290297 
-256 1:0.44513165 2:0.78706523 3:0.21840861 4:0.5513182 5:0.64285714 6:0.5 7:0.42857143 8:0.2 9:0.28571429 10:0.5 11:0.33333333 12:0.2 13:0.55555556 14:0.18181818 15:0.42857143 17:0.16666667 18:0.33333333 20:0.33333333 21:0.2 22:0.125 23:0.16666667 25:0.33333333 26:0.33333333 29:0.33333333 30:0.5 33:0.5 34:0.25 36:0.25 37:0.5 38:0.25 40:0.6 41:0.11111111 45:0.25 50:0.25 54:0.25 55:0.33333333 58:0.2 60:0.25 64:0.33333333 70:0.61111111 72:1 73:1 81:1 83:1 85:1 98:0.053798978 99:0.59734887 100:0.67122666 101:0.5200054 102:0.18806251 103:0.53407178 104:0.31814382 105:0.53514553 106:0.57129063 107:0.49356261 108:0.93646025 109:0.62743405 110:0.62656127 111:0.48404928 112:0.39880723 113:0.35371655 114:0.40924102 115:0.55035407 116:0.46268054 117:0.34185832 118:0.55279339 119:0.66602793 120:0.47909698 121:0.61837413 122:0.23063639 123:0.49405421 124:0.2997432 125:0.42735447 126:0.53787983 127:0.45150575 128:0.82553503 129:0.58278433 130:0.52987003 131:0.48069749 132:0.3183967 133:0.38873283 134:0.51056038 135:0.40503345 136:0.53879335 137:0.24829818 138:0.52812316 
9.946379122657563 1:0.44513165 2:0.34174167 3:0.69503483 4:0.50909944 5:0.57142857 6:0.5625 7:0.21428571 8:0.4 9:0.42857143 10:0.25 11:0.16666667 12:0.2 13:0.44444444 14:0.45454545 15:0.14285714 16:0.14285714 20:0.5 22:0.5 23:0.16666667 24:0.11111111 25:0.33333333 26:0.33333333 28:0.16666667 29:0.16666667 34:0.25 35:0.33333333 36:0.5 37:0.16666667 39:0.25 40:0.6 41:0.44444444 45:0.25 47:0.2 58:0.6 61:0.4 62:0.2 63:0.25 66:0.33333333 68:0.33333333 70:0.5 71:1 73:1 78:1 86:1 88:1 92:1 96:1 98:0.89771892 99:0.58670963 100:0.6684249 101:0.70877264 102:0.70901011 103:0.61474113 104:0.68259029 105:0.68717714 106:0.68258158 107:0.45411019 108:0.56079827 109:0.55555348 110:0.43965923 111:0.66247417 112:0.62417844 113:0.60158497 114:0.75203848 115:0.61007323 116:0.52155017 117:0.66461602 118:0.65747708 119:0.53546234 120:0.7284045 121:0.69408402 122:0.75191301 123:0.71857222 124:0.64291039 125:0.65662476 126:0.61400921 127:0.46898772 128:0.70632563 129:0.63029475 130:0.47565783 131:0.70234393 132:0.61677164 133:0.62556069 134:0.79640223 135:0.67760302 136:0.51961449 137:0.59415614 138:0.60981006 
256 1:0.44513165 2:0.37042237 3:0.67433756 4:0.54320771 5:0.5 6:0.625 7:0.21428571 8:0.4 9:0.28571429 10:0.25 11:0.16666667 12:0.4 13:0.22222222 14:0.45454545 15:0.28571429 16:0.28571429 17:0.16666667 20:0.33333333 21:0.2 22:0.625 26:0.33333333 27:0.5 29:0.16666667 30:0.25 34:0.25 36:0.25 37:0.16666667 40:0.4 41:0.22222222 42:0.2 43:0.25 44:0.25 45:0.25 47:0.4 51:0.2 58:0.2 59:0.5 61:0.8 63:0.25 70:0.55555556 71:1 74:1 78:1 80:1 85:1 90:1 92:1 95:1 98:0.17455176 99:0.80742798 100:0.6201859 101:0.81140777 102:0.97182595 103:0.50325059 104:0.59348093 105:0.62236386 106:0.75064036 107:0.57894647 108:0.42914393 109:0.63335999 110:0.75149542 111:0.71881738 112:0.47137485 113:0.48938104 114:0.60152843 115:0.63166779 116:0.47111405 117:0.44305524 118:0.47458426 119:0.76584452 120:0.50517022 121:0.65682521 122:0.88183701 123:0.68073627 124:0.56594159 125:0.69634518 126:0.65515172 127:0.57216023 128:0.36581755 129:0.7328126 130:0.67932774 131:0.78789782 132:0.46289749 133:0.69820878 134:0.61800274 135:0.70783876 136:0.56402994 137:0.48948022 138:0.44803249 
256 1:0.44513165 2:0.41127456 3:0.3836975 4:0.51707065 5:0.5 6:0.4375 7:0.35714286 8:0.46666667 9:0.42857143 10:0.125 11:0.16666667 12:0.4 13:0.22222222 14:0.27272727 15:0.28571429 16:0.28571429 17:0.33333333 19:0.14285714 20:0.33333333 22:0.5 23:0.16666667 24:0.11111111 25:0.33333333 26:0.33333333 29:0.16666667 34:0.25 35:0.33333333 36:0.25 39:0.25 40:0.4 41:0.11111111 42:0.2 43:0.25 44:0.25 47:0.2 48:0.33333333 50:0.25 53:0.33333333 58:0.4 61:0.6 63:0.25 64:0.33333333 67:0.25 70:0.5 72:1 86:1 95:1 98:0.1868906 99:0.7367004 100:0.71834661 101:0.46967191 102:0.45609219 103:0.77829178 104:0.48484154 105:0.54474706 106:0.67682745 107:0.55054188 108:0.53106022 109:0.49919687 110:0.61216549 111:0.56356738 112:0.58245049 113:0.56938189 114:0.67077321 115:0.52984819 116:0.48615942 117:0.5329812 118:0.51691995 119:0.78437756 120:0.72964076 121:0.59282593 122:0.61807119 123:0.7228937 124:0.45396111 125:0.61724181 126:0.63858963 127:0.58285378 128:0.56063466 129:0.58130357 130:0.6532895 131:0.65469142 132:0.57358138 133:0.56649512 134:0.62280934 135:0.52034998 136:0.65066615 137:0.42473868 138:0.48358566 
-56.75390884992883 1:0.28947959 2:0.45360694 3:0.23619655 4:0.30084237 5:0.64285714 6:0.125 7:0.42857143 8:0.6 9:0.42857143 10:0.125 11:0.5 12:0.4 13:0.33333333 16:0.14285714 17:0.33333333 18:0.16666667 19:0.14285714 20:0.33333333 21:0.2 22:0.25 23:0.33333333 24:0.33333333 25:0.33333333 26:0.66666667 31:0.33333333 32:0.25 33:0.5 34:0.25 35:0.33333333 36:0.25 38:0.25 39:0.25 40:0.4 46:0.33333333 50:0.5 54:0.25 60:0.25 61:0.2 64:0.33333333 68:0.33333333 69:0.2 70:0.27777778 75:1 76:1 83:1 87:1 89:1 98:0.90422655 99:0.59974581 100:0.62452137 101:0.46758038 102:0.51217946 103:0.78603163 104:0.22892976 105:0.38540799 106:0.2817893 107:0.29805278 108:0.47403579 109:0.39895215 110:0.33095159 111:0.39571356 112:0.2995208 113:0.27244875 114:0.35258736 115:0.26417463 116:0.23338764 117:0.35249984 118:0.26351235 119:0.62552022 120:0.82611611 121:0.67791005 122:0.59207071 123:0.80313548 124:0.53092991 125:0.53058111 126:0.30475437 127:0.23089094 128:0.46544538 129:0.37393742 130:0.32870898 131:0.4708256 132:0.24757755 133:0.42110723 134:0.42934637 135:0.20406334 136:0.31877612 137:0.3360369 138:0.24848502 
-256 1:0.26651318 2:0.46501119 3:0.34123233 4:0.49368416 5:0.57142857 6:0.4375 7:0.42857143 8:0.33333333 9:0.28571429 10:0.5 11:0.33333333 13:0.33333333 14:0.090909091 15:0.28571429 16:0.42857143 17:0.33333333 19:0.14285714 20:0.33333333 21:0.2 22:0.375 23:0.16666667 25:0.33333333 26:0.33333333 28:0.33333333 29:0.16666667 31:0.33333333 32:0.25 34:0.25 36:0.5 37:0.16666667 40:0.2 41:0.11111111 43:0.25 47:0.4 48:0.33333333 51:0.4 56:0.33333333 58:0.2 61:0.2 62:0.2 63:0.25 66:0.33333333 70:0.55555556 72:1 81:1 86:1 98:0.89029395 99:0.77266119 100:0.57178514 101:0.72073157 102:0.49928965 103:0.38309512 104:0.5158596 105:0.55215039 106:0.51334591 107:0.40672852 108:0.5205871 109:0.54184654 110:0.46057947 111:0.2191816 112:0.48208998 113:0.45224737 114:0.64165913 115:0.39409081 116:0.35378634 117:0.33603688 118:0.44352092 119:0.87956149 120:0.59989622 121:0.85022237 122:0.553836 123:0.41878865 124:0.66362398 125:0.54835468 126:0.42219987 127:0.31737398 128:0.48877773 129:0.57211706 130:0.39287713 131:0.32543652 132:0.43500673 133:0.51729768 134:0.72834481 135:0.51434778 136:0.56550435 137:0.44445788 138:0.46654134 
256 1:0.26651318 2:0.3829907 3:0.59184905 4:0.46287548 5:0.71428571 6:0.6875 7:0.071428571 8:0.26666667 9:0.57142857 10:0.5 11:0.16666667 12:0.2 13:0.55555556 14:0.45454545 16:0.28571429 20:0.16666667 22:0.5 25:0.66666667 26:0.33333333 28:0.33333333 29:0.33333333 34:0.25 36:0.75 37:0.33333333 40:0.4 41:0.33333333 43:0.25 47:0.4 58:0.2 60:0.25 61:0.4 63:0.25 70:0.5 71:1 74:1 78:1 86:1 90:1 95:1 96:1 98:0.82857216 99:0.76173009 100:0.57475029 101:0.8633475 102:0.82229244 103:0.55098521 104:0.65037972 105:0.51856207 106:0.70662181 107:0.59373521 108:0.55705908 109:0.54706599 110:0.53864561 111:0.62058227 112:0.66439869 113:0.76022524 114:0.74891481 115:0.55213493 116:0.54753706 117:0.60959531 118:0.56653239 119:0.67605476 120:0.58201962 121:0.72271099 122:0.60845415 123:0.71857222 124:0.64943207 125:0.65206678 126:0.79419304 127:0.60281619 128:0.57190965 129:0.70381611 130:0.48713215 131:0.62342704 132:0.71900176 133:0.82742199 134:0.69127632 135:0.73632805 136:0.56199866 137:0.5336864 138:0.51294549 
256 1:0.26651318 2:0.21716455 3:0.48614155 4:0.17018909 5:0.5 6:0.1875 7:0.21428571 8:0.86666667 9:0.28571429 10:0.375 12:0.4 13:0.33333333 16:0.28571429 17:0.16666667 19:0.14285714 20:0.16666667 21:0.2 22:0.25 23:0.16666667 24:0.88888889 25:0.33333333 27:0.5 28:0.16666667 29:0.16666667 31:0.33333333 35:0.33333333 36:0.5 37:0.16666667 40:0.2 43:0.25 49:0.66666667 51:0.2 56:0.33333333 60:0.25 61:0.2 67:0.5 68:0.33333333 69:0.8 70:0.16666667 74:1 85:1 89:1 94:1 98:0.7013813 99:0.58611418 100:0.60198589 101:0.76923322 102:0.41760318 103:0.65301841 104:0.53127448 105:0.52584672 106:0.44034528 107:0.45296967 108:0.57711081 109:0.27134904 110:0.26962788 111:0.23482852 112:0.74860749 113:0.5921937 114:0.64864279 115:0.26249201 116:0.46967832 117:0.44268706 118:0.51074365 119:0.70066182 120:0.50363589 121:0.59492882 122:0.41350569 123:0.62326301 124:0.24423006 125:0.45256447 126:0.26087693 127:0.3763405 128:0.77245465 129:0.27999053 130:0.19381519 131:0.35184766 132:0.57907913 133:0.55095708 134:0.45182656 135:0.38982768 136:0.35736098 137:0.32426912 138:0.33308771 
-256 1:0.41962372 2:0.42955997 3:0.52319537 4:0.63778716 5:0.57142857 6:0.3125 7:0.71428571 8:0.2 9:0.28571429 10:0.375 11:0.33333333 12:0.2 13:0.33333333 15:0.42857143 17:0.5 18:0.33333333 19:0.42857143 20:0.33333333 22:0.25 23:0.16666667 25:0.33333333 27:0.5 28:0.16666667 29:0.16666667 30:0.25 32:0.25 36:0.25 38:0.5 40:0.2 42:0.2 44:0.25 45:0.25 50:0.25 51:0.4 54:0.25 55:0.33333333 56:0.33333333 57:0.25 58:0.4 60:0.25 70:0.66666667 79:1 82:1 84:1 89:1 90:1 97:1 98:0.78162983 99:0.3302679 100:0.32541965 101:0.24645436 102:0.62780037 103:0.48538889 104:0.29374286 105:0.38177693 106:0.49632095 107:0.14935075 108:0.61682882 109:0.18296342 110:0.37794773 111:0.30439446 112:0.43593827 113:0.33153416 114:0.59879377 115:0.30083829 116:0.4451775 117:0.53871208 118:0.32874707 119:0.31047434 120:0.24365923 121:0.41116346 122:0.63227041 123:0.59200949 124:0.44509026 125:0.40453746 126:0.43084076 127:0.14571486 128:0.7440084 129:0.29511208 130:0.5046416 131:0.5325036 132:0.36418757 133:0.36046135 134:0.63332611 135:0.29793646 136:0.48835282 137:0.60366354 138:0.46565628 
-256 1:0.41962372 2:0.51287194 3:0.42622728 4:0.47804013 5:0.85714286 6:0.3125 7:0.5 8:0.13333333 9:0.28571429 10:0.625 11:0.5 12:0.2 13:0.44444444 14:0.090909091 15:0.14285714 16:0.14285714 17:1 18:0.16666667 23:0.33333333 25:0.33333333 28:0.33333333 29:0.16666667 30:0.25 31:0.33333333 32:0.75 36:0.5 37:0.16666667 38:0.25 40:0.4 41:0.11111111 44:0.25 48:0.33333333 51:0.6 52:0.5 53:0.33333333 54:0.25 64:0.33333333 65:0.33333333 70:0.5 73:1 83:1 88:1 93:1 98:0.93213 99:0.75065313 100:0.59374702 101:0.60254468 102:0.54239883 103:0.48936799 104:0.029548585 105:0.2463823 106:0.40487202 107:0.37499129 108:0.6037555 109:0.49826909 110:0.51391202 111:0.45063222 112:0.44604569 113:0.53219185 114:0.5368723 115:0.29714874 116:0.37638693 117:0.46654531 118:0.33181502 119:0.88562175 120:0.65174462 121:0.64863003 122:0.63453929 123:0.52483218 124:0.29368006 125:0.25643719 126:0.56880234 127:0.4048459 128:0.71888996 129:0.58171253 130:0.38874868 131:0.44519772 132:0.46465144 133:0.50320257 134:0.55909551 135:0.30840567 136:0.56234659 137:0.4801859 138:0.46565628 
256 1:0.41962372 2:0.62574397 3:0.69503483 4:0.62075856 5:0.64285714 6:0.625 7:0.28571429 8:0.2 9:0.28571429 10:0.5 11:0.16666667 12:0.2 13:0.33333333 14:0.54545455 15:0.28571429 16:0.14285714 17:0.5 19:0.14285714 21:0.2 22:0.25 25:0.66666667 28:0.16666667 29:0.33333333 30:0.25 36:0.25 38:0.25 40:0.4 41:0.44444444 42:0.2 43:0.25 44:0.5 47:0.2 50:0.25 51:0.4 56:0.33333333 61:0.4 70:0.61111111 73:1 81:1 87:1 88:1 96:1 98:0.67933273 99:0.63863781 100:0.91925161 101:0.69894542 102:0.64548903 103:0.75428891 104:0.52307698 105:0.7126198 106:0.5138666 107:0.51831578 108:0.66648535 109:0.44034752 110:0.66801687 111:0.46460716 112:0.67389382 113:0.7083131 114:0.92283671 115:0.61682737 116:0.74808993 117:0.65935388 118:0.59696458 119:0.67406582 120:0.81842106 121:0.69081294 122:0.66542583 123:0.79710775 124:0.55489892 125:0.66650353 126:0.67584141 127:0.50768783 128:0.61532032 129:0.54056801 130:0.52526207 131:0.43331623 132:0.55660088 133:0.59897294 134:0.90054739 135:0.70909233 136:0.792735 137:0.65581024 138:0.52878867 
256 1:0.41962372 2:0.58206408 3:0.50033308 4:0.65533949 5:0.5 6:0.625 7:0.35714286 8:0.26666667 9:0.28571429 10:0.5 11:0.16666667 13:0.33333333 14:0.36363636 15:0.42857143 16:0.14285714 18:0.33333333 19:0.14285714 20:0.33333333 21:0.2 22:0.25 24:0.11111111 25:0.66666667 28:0.16666667 29:0.33333333 30:0.25 36:0.25 37:0.16666667 38:0.25 40:0.4 42:0.4 43:0.25 45:0.5 49:0.33333333 54:0.5 58:0.2 59:0.5 61:0.4 67:0.25 70:0.66666667 71:1 79:1 82:1 87:1 90:1 98:0.72823281 99:0.44618759 100:0.51997174 101:0.63195723 102:0.59545399 103:0.51285173 104:0.6756408 105:0.47942979 106:0.59406764 107:0.4646292 108:0.57112491 109:0.4064863 110:0.55797645 111:0.55415096 112:0.69262043 113:0.51485381 114:0.63501827 115:0.5971998 116:0.35295807 117:0.77753713 118:0.51554724 119:0.55304741 120:0.54777525 121:0.5961211 122:0.51341708 123:0.41878865 124:0.59858014 125:0.52509043 126:0.48245297 127:0.37598382 128:0.53508303 129:0.39185769 130:0.41227806 131:0.3895318 132:0.575776 133:0.32639358 134:0.55031725 135:0.54624832 136:0.41649943 137:0.72871628 138:0.30906671 
-256 1:0.41962372 2:0.38489302 3:0.42509053 4:0.37778958 5:0.78571429 6:0.625 7:0.071428571 8:0.26666667 9:0.14285714 10:0.75 11:0.16666667 12:0.6 13:1 14:0.18181818 18:0.16666667 22:0.375 24:0.11111111 25:0.33333333 28:0.33333333 29:0.66666667 33:0.5 35:0.33333333 36:0.25 37:0.83333333 38:0.25 39:0.5 40:0.6 60:0.75 67:0.25 70:0.44444444 71:1 74:1 78:1 80:1 85:1 90:1 95:1 98:0.83136069 99:0.6835484 100:0.80752716 101:0.71442352 102:0.55759433 103:0.69791444 104:0.58944992 105:0.7448976 106:0.77797805 107:0.60811788 108:0.74468452 109:0.67011739 110:0.8018823 111:0.67764745 112:0.60779827 113:0.72960182 114:0.73731222 115:0.72691925 116:0.61380341 117:0.65392919 118:0.4945456 119:0.80074653 120:0.64951919 121:0.63363747 122:0.53186191 123:0.64410977 124:0.54648662 125:0.62377023 126:0.6449189 127:0.51803312 128:0.79296616 129:0.70125153 130:0.70808245 131:0.6109277 132:0.47597997 133:0.74292961 134:0.6178907 135:0.72903465 136:0.69664894 137:0.51556484 138:0.42234586 
256 1:0.41962372 2:0.44936926 3:0.24057058 4:0.48323518 5:0.5 6:0.5625 7:0.28571429 8:0.4 9:0.14285714 10:0.5 11:0.16666667 12:0.2 13:0.55555556 14:0.18181818 15:0.14285714 16:0.28571429 18:0.5 20:0.16666667 21:0.2 22:0.125 23:0.33333333 24:0.22222222 25:0.33333333 28:0.33333333 29:0.16666667 31:0.33333333 34:0.25 36:0.25 37:0.5 38:0.25 40:0.4 41:0.11111111 43:0.25 48:0.33333333 49:0.33333333 54:0.25 58:0.2 61:0.2 65:0.66666667 69:0.2 70:0.55555556 72:1 81:1 86:1 90:1 98:0.8775138 99:0.85617191 100:0.62585512 101:0.64441525 102:0.47486577 103:0.32356188 104:0.24776074 105:0.44147253 106:0.68106617 107:0.38598989 108:0.68419984 109:0.64029277 110:0.53571023 111:0.26734995 112:0.44957943 113:0.42168222 114:0.49578281 115:0.39291662 116:0.36628511 117:0.30369118 118:0.42071501 119:0.82052075 120:0.51729064 121:0.68425991 122:0.46734882 123:0.36605487 124:0.26291899 125:0.21679043 126:0.48563454 127:0.27529632 128:0.72349689 129:0.6716734 130:0.44501163 131:0.50569616 132:0.49406898 133:0.32243768 134:0.54567479 135:0.3804263 136:0.54834232 137:0.36346442 138:0.47348226 
-256 1:0.38120216 2:0.28318225 3:0.40717527 4:0.38322243 5:0.71428571 6:0.5 7:0.21428571 8:0.33333333 9:0.42857143 10:0.5 11:0.16666667 12:0.4 13:0.44444444 14:0.27272727 16:0.42857143 18:0.16666667 19:0.14285714 21:0.4 22:0.25 23:0.16666667 25:0.33333333 27:1 28:0.16666667 29:0.5 33:0.5 36:0.25 37:0.5 40:0.4 43:0.75 46:0.33333333 47:0.2 48:0.33333333 59:1 61:0.4 70:0.44444444 71:1 78:1 87:1 92:1 96:1 98:0.94223809 99:0.62868346 100:0.87072414 101:0.67052669 102:0.56206546 103:0.76857543 104:0.62255236 105:0.58617619 106:0.6548056 107:0.59191262 108:0.65756458 109:0.60346933 110:0.61569015 111:0.75378915 112:0.68181162 113:0.61295664 114:0.73975425 115:0.58971171 116:0.51573795 117:0.67314217 118:0.61495263 119:0.54350022 120:0.60683111 121:0.50140517 122:0.49116509 123:0.72081193 124:0.6596297 125:0.61297231 126:0.53259326 127:0.4506043 128:0.7903137 129:0.47513732 130:0.46838175 131:0.61322927 132:0.55990401 133:0.58609328 134:0.63927985 135:0.57175959 136:0.51708443 137:0.56905444 138:0.48001176 
-256 1:0.38120216 2:0.77684717 3:0.6978734 4:0.87760529 5:0.35714286 6:0.9375 7:0.28571429 8:0.13333333 9:0.14285714 10:0.375 11:0.16666667 13:0.33333333 14:0.81818182 15:0.28571429 16:0.28571429 18:0.5 19:0.14285714 22:0.25 25:0.33333333 28:0.16666667 29:0.33333333 36:0.25 37:0.33333333 40:0.4 41:0.44444444 42:0.4 43:0.5 47:0.4 54:0.75 61:0.4 70:0.88888889 71:1 78:1 90:1 92:1 96:1 98:0.91051208 99:0.69251527 100:0.84714322 101:0.70706921 102:0.63782691 103:0.61754114 104:0.72271545 105:0.72203508 106:0.81557157 107:0.84947118 108:0.69441964 109:0.89708345 110:0.8219226 111:1 112:0.9381584 113:0.9441493 114:0.95823702 115:0.86314841 116:0.91517161 117:1 118:0.90802852 119:0.60084523 120:0.60414357 121:0.60902398 122:0.35888755 123:0.7042983 124:0.5955161 125:0.7418944 126:0.81188443 127:0.75520235 128:0.55320688 129:0.86912874 130:0.70914272 131:0.99487271 132:0.79699967 133:0.87710987 134:0.89736223 135:0.96645613 136:0.91202015 137:1 138:0.85805488 
-256 1:0.38120216 2:0.56065756 3:0.6978734 4:0.66068915 5:0.57142857 6:0.9375 7:0.071428571 8:0.13333333 9:0.14285714 10:0.875 13:0.55555556 14:0.72727273 15:0.14285714 16:0.28571429 17:0.16666667 22:0.25 25:0.33333333 28:0.16666667 29:0.83333333 30:0.25 36:0.25 37:0.66666667 40:0.8 41:0.33333333 43:0.5 44:0.25 47:0.4 51:0.2 61:0.4 70:0.72222222 71:1 78:1 80:1 85:1 90:1 92:1 96:1 98:0.42108814 99:0.7537189 100:0.88744749 101:0.7170765 102:0.71766325 103:0.54642225 104:0.55693586 105:0.79171649 106:0.88213209 107:0.81122686 108:0.92514422 109:0.95734139 110:0.84657991 111:0.91437602 112:0.99819986 113:1 114:0.90916744 115:0.95168965 116:0.87095932 117:0.97933087 118:0.88170677 119:0.62184686 120:0.68349099 121:0.59848156 122:0.42183635 123:0.70678641 124:0.56169098 125:0.80071933 126:0.86570884 127:0.79439106 128:0.82229122 129:0.96587435 130:0.82293653 131:0.86682686 132:0.90643094 133:0.98066399 134:0.83973752 135:0.96645613 136:0.83689544 137:0.9719803 138:0.89950075 
-90.6549257818704 1:0.22243322 2:0.61447195 3:0.45557556 4:0.45763044 5:0.85714286 6:0.4375 7:0.35714286 8:0.13333333 9:0.71428571 10:0.625 11:0.16666667 12:0.2 13:0.55555556 14:0.090909091 15:0.14285714 16:0.14285714 17:0.33333333 18:0.33333333 19:0.14285714 22:0.125 23:0.16666667 25:1 26:0.33333333 28:0.16666667 29:0.33333333 30:0.25 32:0.25 36:0.75 37:0.16666667 39:0.25 40:0.6 47:0.2 50:0.25 51:0.2 54:0.25 60:0.25 64:0.33333333 70:0.5 79:1 80:1 83:1 85:1 90:1 91:1 98:0.28679627 99:0.54774569 100:0.53051633 101:0.51549755 102:0.46544841 103:0.57742472 104:0.61043302 105:0.54869042 106:0.51147996 107:0.47007996 108:0.63108327 109:0.48716413 110:0.50792979 111:0.49062946 112:0.63405202 113:0.53298753 114:0.69788281 115:0.42728121 116:0.48327393 117:0.55823203 118:0.39722552 119:0.41198666 120:0.23645178 121:0.51222924 122:0.53413079 123:0.58728166 124:0.35293115 125:0.18580127 126:0.48220328 127:0.40518394 128:0.6639125 129:0.41465109 130:0.46940885 131:0.48450449 132:0.69306616 133:0.57649982 134:0.71175949 135:0.43269033 136:0.58039076 137:0.50319398 138:0.39380235 
-256 1:0.49750355 2:0.77684717 3:0.43855123 4:0.59085723 5:0.57142857 6:0.4375 7:0.42857143 8:0.33333333 9:0.57142857 10:0.375 11:0.16666667 13:0.22222222 14:0.27272727 15:0.28571429 16:0.28571429 17:0.33333333 18:0.16666667 19:0.14285714 20:0.33333333 22:0.25 23:0.33333333 25:0.33333333 26:0.33333333 29:0.16666667 30:0.25 31:0.33333333 36:0.25 37:0.16666667 40:0.4 41:0.22222222 43:0.25 44:0.5 48:0.33333333 50:0.25 51:0.2 55:0.33333333 58:0.4 61:0.4 65:0.33333333 66:0.33333333 70:0.55555556 78:1 87:1 98:0.81379279 99:0.59587668 100:0.69557556 101:0.43925689 102:0.66340262 103:0.63646956 104:0.50678152 105:0.63846253 106:0.49787033 107:0.29727659 108:0.44810642 109:0.42771598 110:0.64308389 111:0.54125624 112:0.416221 113:0.56787284 114:0.62666979 115:0.43847478 116:0.39408889 117:0.3890532 118:0.46762149 119:0.54813287 120:0.62693314 121:0.26609353 122:0.60393065 123:0.63793368 124:0.39445369 125:0.44465613 126:0.47903224 127:0.23879716 128:0.52319404 129:0.33858705 130:0.52445227 131:0.47864646 132:0.58101189 133:0.56529218 134:0.46255813 135:0.43226916 136:0.46323978 137:0.3710251 138:0.26102471 
256 1:0.70617897 2:0.73800596 3:0.48614155 4:0.77939933 5:0.21428571 6:0.625 7:0.5 8:0.4 9:0.14285714 10:0.25 13:0.11111111 14:0.36363636 15:0.57142857 16:0.42857143 17:0.16666667 18:0.66666667 20:0.16666667 22:0.25 23:0.33333333 24:0.22222222 25:0.33333333 29:0.16666667 30:0.25 36:0.25 40:0.2 42:0.4 43:0.75 44:0.25 45:0.25 47:0.2 48:0.33333333 49:0.33333333 51:0.2 54:1 61:0.2 62:0.2 65:0.33333333 67:0.25 69:0.2 70:0.77777778 78:1 81:1 82:1 89:1 91:1 92:1 98:0.87614325 99:0.55020592 100:0.46733735 101:0.63870033 102:0.48733273 103:0.60684106 104:0.61767618 105:0.64072184 106:0.6465496 107:0.54648718 108:0.60642783 109:0.42462873 110:0.52646225 111:0.49874474 112:0.72309946 113:0.53036066 114:0.79445349 115:0.60892646 116:0.56588825 117:0.70263199 118:0.68941321 119:0.62818901 120:0.35185046 121:0.58202594 122:0.3100533 123:0.48267475 124:0.53654532 125:0.61825488 126:0.42880218 127:0.47433846 128:0.56087682 129:0.2105145 130:0.40873036 131:0.30439813 132:0.43282439 133:0.48345819 134:0.51816816 135:0.6694552 136:0.5120114 137:0.7057191 138:0.53574747 
-256 1:0.45434541 2:0.84353316 3:0.71411512 4:0.62516092 5:0.35714286 6:0.5625 7:0.35714286 8:0.46666667 9:0.14285714 10:0.375 11:0.16666667 13:0.33333333 14:0.18181818 15:0.28571429 16:0.57142857 17:0.16666667 18:0.5 20:0.16666667 22:0.375 23:0.16666667 24:0.22222222 25:0.33333333 29:0.16666667 30:0.25 31:0.33333333 33:0.5 36:0.25 37:0.16666667 38:0.25 40:0.4 42:0.2 43:0.25 45:0.25 47:0.6 49:0.33333333 51:0.2 54:0.25 61:0.4 63:0.25 65:0.33333333 69:0.2 70:0.61111111 73:1 79:1 81:1 85:1 89:1 95:1 98:0.76081375 99:0.66451499 100:0.59330378 101:0.57362236 102:0.88166555 103:0.46634173 104:0.61749896 105:0.89956811 106:0.66818997 107:0.46571165 108:0.56216799 109:0.56528211 110:0.57175403 111:0.4522916 112:0.57239045 113:0.52206325 114:0.737968 115:0.68325234 116:0.48467892 117:0.7206114 118:0.60548551 119:0.63139404 120:0.5180508 121:0.4852312 122:0.66992334 123:0.45189678 124:0.52886105 125:0.75436073 126:0.5678435 127:0.45076736 128:0.37948019 129:0.53676669 130:0.4460719 131:0.3647433 132:0.52786347 133:0.44929665 134:0.52918094 135:0.69969095 136:0.47881383 137:0.6790423 138:0.37639813 
256 1:0.45434541 2:0.88150321 3:0.42509053 4:0.69220444 5:0.35714286 6:0.5625 7:0.5 8:0.33333333 9:0.14285714 10:0.25 11:0.16666667 12:0.2 13:0.22222222 14:0.36363636 15:0.57142857 16:0.14285714 17:0.33333333 18:0.16666667 20:0.5 22:0.375 23:0.33333333 25:0.33333333 29:0.16666667 30:0.25 32:0.25 36:0.25 38:0.25 40:0.2 41:0.22222222 42:0.4 43:0.25 45:0.75 48:0.33333333 51:0.2 53:0.33333333 54:0.25 58:0.4 61:0.4 62:0.2 64:0.33333333 70:0.72222222 72:1 73:1 78:1 81:1 82:1 86:1 89:1 98:0.6329499 99:0.45976171 100:0.49070559 101:0.69901423 102:0.75477861 103:0.61760919 104:0.44556179 105:0.85902722 106:0.55642256 107:0.23583257 108:0.72437811 109:0.27259576 110:0.57383562 111:0.39573302 112:0.54016129 113:0.38960536 114:0.73091831 115:0.56144248 116:0.53733491 117:0.58427321 118:0.56308182 119:0.62988474 120:0.46149296 121:0.71425824 122:0.5366633 123:0.5568888 124:0.43877079 125:0.82833346 126:0.53152721 127:0.27762919 128:0.57246158 129:0.38929311 130:0.58717183 131:0.24717783 132:0.6140266 133:0.4358507 134:0.71061351 135:0.58845437 136:0.52837223 137:0.55129286 138:0.40634205 
256 1:0.45434541 2:0.5443725 3:0.42214227 4:0.43426122 5:0.5 6:0.375 7:0.35714286 8:0.53333333 9:0.28571429 10:0.375 11:0.16666667 12:0.2 13:0.11111111 14:0.18181818 15:0.28571429 16:0.42857143 17:0.33333333 18:0.16666667 20:0.33333333 21:0.4 22:0.25 23:0.16666667 24:0.22222222 25:0.66666667 29:0.16666667 30:0.25 31:0.33333333 33:0.5 36:0.25 40:0.2 41:0.22222222 43:0.25 45:0.5 47:0.2 48:0.33333333 50:0.25 53:0.33333333 61:0.2 62:0.2 64:0.33333333 67:0.25 69:0.2 70:0.44444444 73:1 79:1 82:1 87:1 88:1 98:0.63909296 99:0.5035497 100:0.32133951 101:0.3083569 102:0.88661083 103:0.60383726 104:0.44692633 105:0.66541835 106:0.44607058 107:0.26953694 108:0.66102462 109:0.39285845 110:0.49392498 111:0.39393508 112:0.44309571 113:0.33238878 114:0.6369142 115:0.40447172 116:0.41967691 117:0.59075142 118:0.37653286 119:0.63697466 120:0.34935245 121:0.44207242 122:0.63707181 123:0.59552786 124:0.53745159 125:0.75462454 126:0.3958539 127:0.23189689 128:0.53575838 129:0.43531076 130:0.45333832 131:0.1548533 132:0.31230407 133:0.30073449 134:0.60922448 135:0.40526889 136:0.27471858 137:0.62801452 138:0.21608451 
256 1:0.59848466 2:0.64484089 3:0.4359805 4:0.6743375 5:0.35714286 6:0.75 7:0.21428571 8:0.4 9:0.28571429 10:0.125 12:0.4 13:0.22222222 14:0.72727273 15:0.28571429 16:0.28571429 17:0.16666667 18:0.16666667 20:0.16666667 22:0.375 23:0.16666667 24:0.11111111 25:0.33333333 27:0.5 29:0.16666667 36:0.5 40:0.4 41:0.55555556 42:0.2 43:0.5 44:0.25 49:0.33333333 53:0.33333333 54:0.25 58:0.2 61:0.4 62:0.2 66:0.33333333 67:0.25 70:0.66666667 72:1 81:1 82:1 86:1 88:1 98:0.94833166 99:0.51326926 100:0.59569214 101:0.7092016 102:0.74014938 103:0.63003363 104:0.33689659 105:0.52757881 106:0.42186374 107:0.37448693 108:0.72292136 109:0.35091161 110:0.38979023 111:0.39905717 112:0.80144516 113:0.66802654 114:0.40468034 115:0.68684196 116:0.62386229 117:0.56870992 118:0.49998572 119:0.48445948 120:0.618762 121:0.55792758 122:0.51618308 123:0.52940205 124:0.48915103 125:0.48188522 126:0.42880218 127:0.31499059 128:0.69167098 129:0.49776791 130:0.30557966 131:0.32925489 132:0.76088851 133:0.67953364 134:0.35891402 135:0.60623899 136:0.70872796 137:0.4284183 138:0.37362787 
-244.2548449405903 1:0.49690053 2:0.80563183 3:0.21971719 4:0.54370033 5:0.5 6:0.4375 7:0.35714286 8:0.46666667 9:0.14285714 10:0.25 11:0.5 12:0.2 13:0.33333333 14:0.27272727 15:0.28571429 16:0.14285714 17:0.33333333 18:0.33333333 22:0.25 24:0.55555556 25:0.33333333 28:0.16666667 29:0.16666667 32:0.25 33:0.5 36:0.25 37:0.16666667 38:0.25 40:0.4 41:0.11111111 42:0.4 44:0.25 49:0.33333333 52:0.25 53:0.33333333 54:0.25 61:0.4 67:0.25 69:0.8 70:0.5 71:1 75:1 79:1 81:1 82:1 87:1 98:0.80095746 99:0.37493319 100:0.37961997 101:0.62698438 102:0.087990771 103:0.47447094 104:0.50427713 105:0.65978775 106:0.74116365 107:0.4433947 108:0.79402167 109:0.36806433 110:0.46304184 111:0.4899021 112:0.70958293 113:0.41363974 114:0.55397356 115:0.49936222 116:0.33328954 117:0.5323321 118:0.56937516 119:0.35901993 120:0.33473402 121:0.55484881 122:0.1436521 123:0.51201611 124:0.41453139 125:0.5826942 126:0.7340032 127:0.28797447 128:0.74444159 129:0.25718512 130:0.39561503 131:0.41876586 132:0.43958488 133:0.50923885 134:0.37233474 135:0.57798515 136:0.29188061 137:0.4284183 138:0.45419285 
-8.253821458500799 1:0.49690053 2:0.55994764 3:0.73404041 4:0.59021222 5:0.28571429 6:0.625 7:0.28571429 8:0.53333333 9:0.14285714 10:0.125 11:0.16666667 12:0.2 13:0.22222222 14:0.36363636 15:0.14285714 16:0.57142857 17:0.16666667 18:0.16666667 19:0.14285714 20:0.16666667 22:0.75 24:0.22222222 25:0.33333333 29:0.16666667 34:0.25 36:0.25 39:0.25 40:0.4 41:0.11111111 42:0.2 43:0.5 47:0.6 49:0.33333333 52:0.25 54:0.25 58:0.2 61:0.6 63:0.5 67:0.25 69:0.2 70:0.61111111 73:1 83:1 87:1 89:1 90:1 97:1 98:0.63072635 99:0.53566706 100:0.6612007 101:0.57970183 102:0.25634246 103:0.59945436 104:0.35360807 105:0.66346847 106:0.549568 107:0.61962016 108:0.75714949 109:0.6714133 110:0.56184135 111:0.4926244 112:0.82297741 113:0.68192046 114:0.60851946 115:0.79992153 116:0.78428667 117:0.78974623 118:0.80194431 119:0.40346913 120:0.39448099 121:0.52767168 122:0.127184 123:0.60610421 124:0.52741814 125:0.60214972 126:0.55516161 127:0.44712295 128:0.48663223 129:0.6070705 130:0.4352267 131:0.50800987 132:0.69195765 133:0.65961882 134:0.48736433 135:0.91136571 136:0.69553243 137:0.68158046 138:0.67215173 
256 1:0.3840179 2:0.51683228 3:0.4525872 4:0.58170954 5:0.42857143 6:0.4375 7:0.5 8:0.4 9:0.14285714 10:0.25 11:0.16666667 12:0.2 13:0.22222222 14:0.36363636 15:0.28571429 16:0.14285714 17:0.33333333 19:0.28571429 20:0.5 21:0.2 22:0.375 23:0.16666667 24:0.11111111 25:0.33333333 29:0.33333333 36:0.25 38:0.25 40:0.2 41:0.33333333 42:0.2 43:0.25 44:0.25 45:0.25 47:0.2 51:0.2 57:0.25 60:0.25 61:0.2 62:0.2 66:0.33333333 67:0.25 70:0.61111111 73:1 78:1 79:1 87:1 88:1 98:0.69771479 99:0.41690702 100:0.38765657 101:0.59682976 102:0.65531218 103:0.41611678 104:0.67659186 105:0.67950764 106:0.43674042 107:0.3645615 108:0.39361344 109:0.46041881 110:0.23875915 111:0.55715436 112:0.38687029 113:0.43626635 114:0.50602199 115:0.38936051 116:0.11017499 117:0.56974379 118:0.34647527 119:0.31122211 120:0.26847072 121:0.57547291 122:0.70483627 123:0.48804773 124:0.64246267 125:0.88162555 126:0.30036426 127:0.37887277 128:0.45706502 129:0.478589 130:0.34163188 131:0.62122196 132:0.29050595 133:0.47429444 134:0.54399198 135:0.45005379 136:0.23772169 137:0.57796966 138:0.31304618 
-256 1:0.3840179 2:0.93151944 3:0.50033308 4:0.74938531 5:0.5 6:0.6875 7:0.35714286 8:0.2 9:0.28571429 10:0.375 11:0.16666667 13:0.22222222 14:0.45454545 15:0.57142857 16:0.28571429 17:0.5 18:0.16666667 20:0.16666667 22:0.375 25:0.33333333 29:0.5 32:0.25 36:0.25 38:0.25 40:0.4 41:0.22222222 42:0.4 43:0.25 44:0.5 45:0.25 47:0.4 50:0.25 51:0.4 55:0.33333333 58:0.2 61:0.4 62:0.2 70:0.72222222 72:1 74:1 78:1 79:1 83:1 85:1 98:0.8879651 99:0.41202444 100:0.50761971 101:0.56201673 102:0.61494004 103:0.63963555 104:0.65416484 105:0.73798035 106:0.69398671 107:0.48957628 108:0.44170845 109:0.74554069 110:0.63787847 111:0.84777315 112:0.62996936 113:0.53596908 114:0.58091512 115:0.49789141 116:0.55769253 117:0.7912167 118:0.60266336 119:0.46496715 120:0.52525826 121:0.45124348 122:0.50656603 123:0.56123152 124:0.72105261 125:0.59639523 126:0.64060487 127:0.42714575 128:0.41004496 129:0.65606168 130:0.5953275 131:0.90256032 132:0.55050824 133:0.47596646 134:0.60139686 135:0.61545464 136:0.62222631 137:0.7770275 138:0.56683151 
256 1:0.44513165 2:0.76928461 3:0.39926016 4:0.62200735 5:0.64285714 6:0.4375 7:0.5 8:0.2 9:0.28571429 10:0.625 11:0.16666667 12:0.2 13:0.44444444 15:0.42857143 16:0.28571429 17:0.5 18:0.33333333 19:0.28571429 22:0.25 25:0.33333333 26:0.33333333 28:0.33333333 29:0.16666667 30:0.25 31:0.33333333 33:0.5 36:0.5 37:0.33333333 40:0.2 42:0.2 44:0.5 47:0.4 51:0.4 53:0.33333333 54:0.25 56:0.33333333 57:0.25 60:0.25 62:0.2 70:0.61111111 98:0.91536715 99:0.65504294 100:0.790295 101:0.23974884 102:0.54334962 103:0.66559097 104:0.55999489 105:0.51717627 106:0.55562135 107:0.54780607 108:0.76738619 109:0.5806346 110:0.62439722 111:0.80302069 112:0.70308162 113:0.69883243 114:0.49330134 115:0.68968518 116:0.72836909 117:0.66471015 118:0.57602861 119:0.74019648 120:0.77082001 121:0.41352392 122:0.57639188 123:0.56266813 124:0.55165754 125:0.43794428 126:0.56538161 127:0.49767771 128:0.72098582 129:0.57063631 130:0.6140779 131:0.84137081 132:0.72898231 133:0.67895483 134:0.5239811 135:0.85139706 136:0.78016247 137:0.66128894 138:0.56547148 
256 1:0.28947959 2:0.30389234 3:0.40604948 4:0.22167653 5:0.64285714 6:0.25 7:0.28571429 8:0.6 9:0.42857143 10:0.25 11:0.16666667 12:0.6 13:0.33333333 14:0.090909091 16:0.28571429 17:0.16666667 20:0.33333333 21:0.4 22:0.375 23:0.5 24:0.11111111 25:0.33333333 27:1 28:0.16666667 31:0.33333333 34:0.25 36:0.5 39:0.25 40:0.4 41:0.11111111 47:0.2 49:0.33333333 52:0.25 58:0.2 59:0.5 61:0.4 63:0.25 64:0.33333333 66:0.33333333 68:0.33333333 70:0.27777778 73:1 75:1 80:1 86:1 89:1 98:0.99579696 99:0.66002075 100:0.78711836 101:0.82517109 102:0.43664828 103:0.77173421 104:0.38959178 105:0.92765456 106:0.39480968 107:0.27229415 108:0.5791588 109:0.50363537 110:0.5295188 111:0.53447919 112:0.51683629 113:0.4598206 114:0.61620593 115:0.41696205 116:0.31204597 117:0.42065082 118:0.3894812 119:0.44273567 120:0.68349099 121:0.75880161 122:0.51313919 123:0.58728166 124:0.42592964 125:0.8671888 126:0.30201945 127:0.14759785 128:0.56993253 129:0.54122098 130:0.51652565 131:0.41786969 132:0.51890837 133:0.49424575 134:0.65840848 135:0.41748456 136:0.32090652 137:0.3934301 138:0.39399355 
26.54307242288512 1:0.28947959 2:0.65332499 3:0.83174277 4:0.54029166 5:0.35714286 6:0.4375 7:0.42857143 8:0.53333333 9:0.28571429 10:0.125 11:0.16666667 12:0.2 13:0.22222222 14:0.090909091 15:0.57142857 16:0.28571429 18:0.16666667 20:0.66666667 21:0.2 22:0.625 23:0.16666667 24:0.11111111 25:0.33333333 27:0.5 31:0.33333333 36:0.5 40:0.2 41:0.11111111 43:0.25 45:0.75 46:0.33333333 49:0.33333333 55:0.33333333 58:0.8 61:0.4 62:0.6 66:0.33333333 68:0.33333333 70:0.55555556 72:1 73:1 75:1 79:1 86:1 98:0.69718921 99:0.51617246 100:0.58525033 101:0.49339895 102:0.7753662 103:0.50538928 104:0.58088949 105:0.78330596 106:0.58595085 107:0.40374275 108:0.59924194 109:0.62448501 110:0.56979061 111:0.56063395 112:0.54130764 113:0.59760264 114:0.66435012 115:0.49908973 116:0.35612844 117:0.75524437 118:0.56882618 119:0.32779128 120:0.63164259 121:0.48896303 122:0.66413945 123:0.47563801 124:0.79685881 125:0.71330937 126:0.52150418 127:0.31737398 128:0.47184863 129:0.52164513 130:0.48298228 131:0.54157152 132:0.51391195 133:0.49019485 134:0.64182316 135:0.61246455 136:0.38897058 137:0.75689452 138:0.54191497 
-256 1:0.28947959 2:0.90433619 3:0.55943067 4:0.7022138 5:0.42857143 6:0.375 7:0.64285714 8:0.33333333 9:0.14285714 10:0.125 11:0.33333333 12:0.2 13:0.22222222 14:0.18181818 15:0.42857143 16:0.14285714 17:0.5 18:0.5 19:0.28571429 20:0.16666667 22:0.25 23:0.16666667 24:0.22222222 25:0.33333333 31:0.33333333 32:0.5 36:0.25 38:0.25 40:0.4 41:0.11111111 42:0.2 45:0.25 49:0.33333333 52:0.25 53:0.33333333 54:0.25 55:0.66666667 56:0.33333333 58:0.2 61:0.4 65:0.33333333 68:0.33333333 69:0.2 70:0.66666667 79:1 82:1 87:1 98:0.20155797 99:0.65573217 100:0.47407506 101:0.39680852 102:0.59230069 103:0.50906669 104:0.50391012 105:0.79753173 106:0.40373522 107:0.35505441 108:0.61016702 109:0.55523558 110:0.69789568 111:0.45318264 112:0.34357726 113:0.32636398 114:0.66219498 115:0.43509005 116:0.54678348 117:0.44103855 118:0.48352772 119:0.48890569 120:0.50439606 121:0.19786051 122:0.47469699 123:0.399163 124:0.50805532 125:0.69868919 126:0.42219987 127:0.3068293 128:0.61058997 129:0.51866172 130:0.49858505 131:0.43460442 132:0.38215453 133:0.29166574 134:0.58340066 135:0.30840567 136:0.53062721 137:0.501248 138:0.43224824 
256 1:0.26988853 2:0.59011384 3:0.53701896 4:0.51725933 5:0.35714286 6:0.3125 7:0.57142857 8:0.53333333 9:0.14285714 10:0.25 11:0.16666667 12:0.2 13:0.22222222 14:0.090909091 15:0.28571429 16:0.28571429 17:0.33333333 18:0.16666667 19:0.14285714 20:0.5 22:0.375 23:0.5 24:0.22222222 27:0.5 28:0.16666667 31:0.33333333 33:0.5 36:0.25 37:0.16666667 40:0.2 42:0.2 43:0.25 45:0.5 47:0.2 48:0.33333333 51:0.2 52:0.25 54:0.25 56:0.33333333 58:0.2 61:0.4 62:0.2 64:0.33333333 67:0.25 69:0.2 70:0.55555556 74:1 78:1 81:1 82:1 84:1 89:1 98:0.99267402 99:0.50952131 100:0.46259515 101:0.33255743 102:0.60564221 103:0.39770708 104:0.51978473 105:0.69638013 106:0.47501155 107:0.25674271 108:0.60002986 109:0.59144436 110:0.3611277 111:0.36056593 112:0.47605162 113:0.46137762 114:0.53550845 115:0.54931147 116:0.45179695 117:0.32335389 118:0.36261089 119:0.4527625 120:0.35330173 121:0.24192992 122:0.72102647 123:0.53623288 124:0.57985319 125:0.71619895 126:0.3060838 127:0.33785674 128:0.67794072 129:0.65904509 130:0.51256822 131:0.47263437 132:0.48164423 133:0.55160544 134:0.54780151 135:0.66454286 136:0.57365984 137:0.31963734 138:0.50915789 
-256 1:0.26988853 2:0.56242758 3:0.77120049 4:0.5461458 5:0.57142857 6:0.375 7:0.42857143 8:0.4 9:0.28571429 10:0.375 11:0.33333333 12:0.2 13:0.33333333 14:0.090909091 15:0.42857143 16:0.14285714 17:0.33333333 19:0.14285714 20:0.5 22:0.5 24:0.11111111 25:0.33333333 27:0.5 29:0.16666667 30:0.25 31:0.33333333 32:0.25 36:0.25 37:0.16666667 38:0.25 40:0.4 42:0.2 44:0.25 45:0.5 47:0.2 51:0.2 52:0.25 58:0.4 60:0.25 61:0.4 62:0.2 70:0.5 71:1 73:1 79:1 85:1 89:1 98:0.74640582 99:0.59273135 100:0.70922407 101:0.78035611 102:0.62665241 103:0.59036824 104:0.45151288 105:0.93105873 106:0.38131195 107:0.37513586 108:0.50039623 109:0.63679282 110:0.45008404 111:0.54718289 112:0.62063137 113:0.51420299 114:0.47521592 115:0.36568194 116:0.42800044 117:0.42741164 118:0.43176201 119:0.59989727 120:0.69196019 121:0.80051055 122:0.84242658 123:0.70221654 124:0.59670267 125:0.91919211 126:0.42360537 127:0.42471126 128:0.50029488 129:0.70976317 130:0.55193908 131:0.59482726 132:0.54417613 133:0.6039525 134:0.57579287 135:0.47406398 136:0.52291502 137:0.52581132 138:0.48140201 
256 1:0.26988853 2:0.64935651 3:0.30530944 4:0.48129997 5:0.64285714 6:0.5625 7:0.21428571 8:0.33333333 9:0.42857143 10:0.5 12:0.4 13:0.44444444 14:0.18181818 15:0.42857143 16:0.14285714 17:0.33333333 20:0.16666667 22:0.5 24:0.11111111 25:0.66666667 27:0.5 28:0.16666667 29:0.16666667 30:0.25 36:0.5 37:0.16666667 39:0.25 40:0.2 41:0.22222222 42:0.2 44:0.5 45:0.25 49:0.33333333 50:0.25 51:0.2 58:0.2 60:0.25 61:0.2 62:0.2 63:0.25 67:0.25 70:0.5 72:1 73:1 75:1 78:1 82:1 86:1 90:1 98:0.85637713 99:0.3535729 100:0.41904549 101:0.67765771 102:0.29752094 103:0.45899173 104:0.47703125 105:0.55271302 106:0.48813802 107:0.31780865 108:0.54330549 109:0.30333761 110:0.36019842 111:0.49030597 112:0.50988912 113:0.29725009 114:0.52107389 115:0.34049514 116:0.18076417 117:0.52152857 118:0.44909157 119:0.46005261 120:0.46939152 121:0.67345992 122:0.59707959 123:0.59057288 124:0.65992405 125:0.45545405 126:0.55109726 127:0.45091624 128:0.46150357 129:0.50711723 130:0.36539031 131:0.52765036 132:0.48231208 133:0.48280983 134:0.52840372 135:0.41318126 136:0.3331201 137:0.50340632 138:0.39919204 
-256 1:0.50996688 2:0.52154414 3:0.36570358 4:0.45696675 5:0.5 6:0.375 7:0.35714286 8:0.53333333 9:0.14285714 10:0.375 11:0.16666667 12:0.4 13:0.33333333 14:0.090909091 15:0.14285714 16:0.42857143 17:0.16666667 18:0.16666667 19:0.28571429 20:0.16666667 21:0.2 22:0.375 23:0.16666667 24:0.22222222 27:0.5 28:0.16666667 29:0.16666667 31:0.33333333 34:0.25 36:0.25 38:0.25 39:0.25 40:0.2 41:0.11111111 43:0.25 46:0.33333333 47:0.2 49:0.33333333 51:0.2 56:0.33333333 57:0.25 60:0.25 61:0.2 62:0.2 67:0.25 70:0.44444444 71:1 78:1 83:1 87:1 88:1 89:1 95:1 98:0.20017024 99:0.4342749 100:0.39893474 101:0.46124559 102:0.58986672 103:0.64023838 104:0.48829 105:0.49273108 106:0.44557825 107:0.45660616 108:0.45548798 109:0.59951915 110:0.50779775 111:0.54347772 112:0.35005127 113:0.59218929 114:0.423884 115:0.56302974 116:0.38754852 117:0.48777304 118:0.36354615 119:0.4683837 120:0.50141046 121:0.35162754 122:0.82396749 123:0.59680652 124:0.48290965 125:0.39038918 126:0.34722631 127:0.49066102 128:0.56618175 129:0.62432579 130:0.51588687 131:0.56111982 132:0.2950841 133:0.63309481 134:0.42973962 135:0.57883957 136:0.51383375 137:0.50648286 138:0.28969068 
-256 1:0.40697802 2:0.35799403 3:0.34510107 4:0.32919185 5:0.85714286 6:0.625 8:0.26666667 9:0.42857143 10:0.75 12:0.6 13:0.88888889 14:0.18181818 16:0.14285714 22:0.5 25:0.33333333 27:0.5 28:0.5 29:0.33333333 31:0.33333333 36:0.5 37:0.83333333 39:0.25 40:0.6 41:0.11111111 47:0.2 60:0.5 61:0.2 70:0.38888889 71:1 74:1 80:1 86:1 89:1 90:1 95:1 97:1 98:0.30976237 99:0.59368557 100:0.80725806 101:0.50233086 102:0.42224708 103:0.62049013 104:0.44009897 105:0.72556563 106:0.58895356 107:0.54560444 108:0.66701355 109:0.53976234 110:0.68203953 111:0.75296534 112:0.57771846 113:0.51926844 114:0.56742728 115:0.7222363 116:0.59176356 117:0.40788924 118:0.46057527 119:0.69725658 120:0.780715 121:0.59728928 122:0.47696587 123:0.71295084 124:0.65668178 125:0.74403472 126:0.63038486 127:0.59557789 128:0.64154729 129:0.63879438 130:0.59241858 131:0.73489221 132:0.54899375 133:0.48573036 134:0.5975986 135:0.73244591 136:0.59776548 137:0.35498552 138:0.46916077 
256 1:0.40697802 2:0.40113129 3:0.521522 4:0.43890802 5:0.42857143 6:0.375 7:0.35714286 8:0.6 9:0.42857143 10:0.25 12:0.2 13:0.22222222 14:0.27272727 15:0.14285714 16:0.28571429 17:0.16666667 19:0.14285714 20:0.5 22:0.375 23:0.33333333 24:0.33333333 25:0.33333333 27:0.5 29:0.16666667 31:0.33333333 36:0.25 37:0.16666667 40:0.4 41:0.11111111 42:0.2 43:0.25 45:0.25 49:0.33333333 50:0.25 61:0.6 66:0.33333333 67:0.5 69:0.2 70:0.44444444 73:1 75:1 79:1 87:1 98:0.85620503 99:0.51808569 100:0.56203742 101:0.48918074 102:0.75105178 103:0.5803963 104:0.4051055 105:0.63921996 106:0.52818114 107:0.35486402 108:0.53528649 109:0.60982872 110:0.23785193 111:0.47167971 112:0.68067282 113:0.63318364 114:0.28869304 115:0.62020512 116:0.33951011 117:0.59069942 118:0.37425901 119:0.52591515 120:0.44660196 121:0.28947358 122:0.7177751 123:0.81218478 124:0.52767448 125:0.61343309 126:0.47267962 127:0.39794564 128:0.67129532 129:0.72812418 130:0.25491516 131:0.46112847 132:0.65774489 133:0.69965252 134:0.32392796 135:0.67484836 136:0.47916176 137:0.53142602 138:0.39170808 
-33.74999891668591 1:0.40697802 2:0.2103039 3:0.44123508 4:0.31843168 5:0.85714286 6:0.3125 7:0.28571429 8:0.33333333 9:0.85714286 10:0.25 11:0.16666667 12:0.4 13:0.33333333 14:0.18181818 15:0.14285714 16:0.14285714 17:0.16666667 19:0.28571429 20:0.16666667 21:0.4 22:0.25 24:0.11111111 26:0.33333333 27:0.5 29:0.16666667 31:0.33333333 36:0.5 39:0.25 40:0.6 41:0.11111111 49:0.33333333 51:0.2 56:0.33333333 58:0.2 59:0.5 61:0.4 70:0.33333333 72:1 78:1 80:1 83:1 85:1 92:1 98:0.84133432 99:0.30688243 100:0.5386755 101:0.70883555 102:0.36299708 103:0.63536332 104:0.48599459 105:0.43229558 106:0.2815096 107:0.28228255 108:0.49785704 109:0.39497835 110:0.44386894 111:0.46531933 112:0.47159152 113:0.23858908 114:0.49813706 115:0.55156974 116:0.33393314 117:0.4425523 118:0.3744864 119:0.21605193 120:0.34685445 121:0.59185005 122:0.5136363 123:0.72515466 124:0.58646702 125:0.50537111 126:0.16908106 127:0.25237965 128:0.59702809 129:0.61326158 130:0.4686108 131:0.57196365 132:0.37442998 133:0.35111752 134:0.51458974 135:0.69753326 136:0.45765799 137:0.45276928 138:0.41916484 
-256 1:0.290768 2:0.49122203 3:0.57906094 4:0.36346063 5:0.78571429 6:0.25 7:0.42857143 8:0.33333333 9:0.42857143 10:0.5 11:0.5 12:0.2 13:0.44444444 15:0.14285714 16:0.14285714 17:0.5 19:0.14285714 20:0.16666667 21:0.2 22:0.25 23:0.16666667 24:0.11111111 25:0.33333333 26:0.33333333 27:0.5 28:0.16666667 29:0.33333333 30:0.25 32:0.25 34:0.25 35:0.33333333 36:0.5 37:0.16666667 38:0.25 40:0.4 44:0.25 46:0.33333333 50:0.25 51:0.2 52:0.25 56:0.33333333 58:0.2 60:0.25 63:0.25 68:0.33333333 70:0.38888889 81:1 84:1 85:1 98:0.71700341 99:0.59071546 100:0.59695966 101:0.29427902 102:0.72074707 103:0.72655553 104:0.2961047 105:0.6539567 106:0.33236286 107:0.24859807 108:0.46169411 109:0.50420722 110:0.42850545 111:0.35739406 112:0.46034668 113:0.49837559 114:0.50836807 115:0.49412227 116:0.457923 117:0.46264464 118:0.34743388 119:0.69384003 120:0.54508772 121:0.28175237 122:0.7951566 123:0.67079341 124:0.3702143 125:0.58216658 126:0.41496448 127:0.19306486 128:0.42005759 129:0.45382468 130:0.51652565 131:0.46839898 132:0.38160874 133:0.55781217 134:0.49256418 135:0.40245458 136:0.48499235 137:0.35303954 138:0.25494116 
256 1:0.31694513 2:0.25140606 3:0.358556 4:0.2880883 5:0.78571429 6:0.25 7:0.28571429 8:0.46666667 9:0.71428571 10:0.125 11:0.16666667 12:0.6 13:0.44444444 15:0.28571429 18:0.33333333 20:0.33333333 21:0.4 22:0.25 23:0.16666667 24:0.22222222 26:0.33333333 27:1 28:0.16666667 34:0.25 35:0.66666667 36:0.5 37:0.16666667 40:0.4 45:0.25 54:0.25 58:0.2 59:0.5 61:0.2 62:0.2 65:0.33333333 67:0.25 70:0.27777778 72:1 76:1 87:1 98:0.64965728 99:0.5892346 100:0.52399011 101:0.34505847 102:0.77758618 103:0.6558369 104:0.40437179 105:0.46915509 106:0.61124659 107:0.17254816 108:0.30371432 109:0.44330091 110:0.46116047 111:0.45922726 112:0.29253323 113:0.26676574 114:0.29498326 115:0.40154936 116:0.29203292 117:0.26053205 118:0.28019189 119:0.49667544 120:0.40147342 121:0.23583763 122:0.73013214 123:0.5661865 124:0.2227744 125:0.44632454 126:0.30862175 127:0.15068619 128:0.28694338 129:0.18813994 130:0.34785944 131:0.26718994 132:0.14272443 133:0.36376889 134:0.058017964 135:0.31248562 136:0.20814337 137:0.091186141 138:0.080756174 
-256 1:0.31694513 2:0.44605938 3:0.44123508 4:0.35121313 5:0.42857143 6:0.4375 7:0.21428571 8:0.66666667 9:0.14285714 10:0.25 11:0.16666667 12:0.4 13:0.44444444 14:0.090909091 16:0.42857143 17:0.16666667 18:0.16666667 20:0.16666667 22:0.5 23:0.33333333 24:0.44444444 27:0.5 31:0.66666667 33:0.5 35:0.66666667 36:0.25 37:0.16666667 38:0.25 39:0.25 40:0.6 48:0.66666667 49:0.33333333 51:0.2 58:0.2 61:0.6 63:0.25 64:0.33333333 66:0.33333333 67:0.75 69:0.2 70:0.38888889 72:1 73:1 78:1 87:1 90:1 92:1 98:0.041983516 99:0.46726492 100:0.58040809 101:0.55694509 102:0.59292061 103:0.6219309 104:0.7536706 105:0.61899743 106:0.58873759 107:0.28933561 108:0.41634672 109:0.63927858 110:0.40866291 111:0.64661907 112:0.66671243 113:0.63684033 114:0.57554249 115:0.64610159 116:0.44248531 117:0.60662441 118:0.52683134 119:0.53791961 120:0.65346847 121:0.65446475 122:0.89301833 123:0.69003397 124:0.61812031 125:0.65253869 126:0.42722307 127:0.3860281 128:0.4535564 129:0.69399853 130:0.48211445 131:0.7171519 132:0.6536074 133:0.83331206 134:0.7370617 135:0.76955388 136:0.56189954 137:0.57955565 138:0.56968067 
256 1:0.33522084 2:0.91094522 3:0.4441937 4:0.56178194 5:0.78571429 6:0.3125 7:0.5 8:0.2 9:0.42857143 10:0.25 11:0.5 12:0.4 13:0.44444444 14:0.090909091 15:0.28571429 17:0.5 18:0.33333333 19:0.28571429 22:0.25 24:0.11111111 26:0.33333333 29:0.16666667 30:0.25 32:0.5 33:0.5 35:0.33333333 36:0.25 37:0.33333333 38:0.25 40:0.4 41:0.11111111 50:0.25 52:0.25 53:0.33333333 55:0.33333333 56:0.33333333 60:0.25 61:0.2 67:0.25 70:0.5 71:1 74:1 83:1 84:1 87:1 88:1 98:0.99161152 99:0.49051806 100:0.6311244 101:0.5296024 102:0.27272721 103:0.75761559 104:0.26722719 105:0.39555508 106:0.5812292 107:0.26395646 108:0.48696397 109:0.25211995 110:0.50520236 111:0.17772994 112:0.61256809 113:0.46941455 114:0.43396583 115:0.34880491 116:0.37206155 117:0.47317572 118:0.52263253 119:0.24728058 120:0.47735915 121:0.47913892 122:0.10846128 123:0.52010435 124:0.15674531 125:0.37428402 126:0.41471479 127:0.28797447 128:0.35017778 129:0.30254979 130:0.57406825 131:0.31151537 132:0.47817459 133:0.60267921 134:0.32711313 135:0.33756364 136:0.32920723 137:0.44542094 138:0.51281321 
-256 1:0.33522084 2:0.52507508 3:0.46490125 4:0.48533678 5:0.78571429 6:0.6875 7:0.14285714 8:0.13333333 9:0.71428571 10:0.5 11:0.33333333 13:0.55555556 14:0.54545455 16:0.14285714 17:0.16666667 20:0.16666667 22:0.25 25:0.66666667 26:0.33333333 28:0.33333333 29:0.16666667 32:0.25 34:0.25 36:0.5 37:0.33333333 38:0.25 40:0.6 41:0.55555556 47:0.2 50:0.25 58:0.2 61:0.4 70:0.55555556 72:1 74:1 78:1 81:1 87:1 88:1 90:1 98:0.99035409 99:0.55746905 100:0.8652967 101:0.6966464 102:0.71463306 103:0.68082873 104:0.51978495 105:0.44342688 106:0.69719439 107:0.45306196 108:0.3998708 109:0.46032206 110:0.66528082 111:0.58245778 112:0.67870344 113:0.5724568 114:0.53213955 115:0.47947841 116:0.52128034 117:0.39510579 118:0.49234058 119:0.43054478 120:0.92537602 121:0.62964808 122:0.47696587 123:0.68322438 124:0.45929622 125:0.59397757 126:0.60810324 127:0.47195507 128:0.41699459 129:0.44680581 130:0.66661247 131:0.72048256 132:0.66078615 133:0.68226238 134:0.49054949 135:0.54668157 136:0.53714544 137:0.51749992 138:0.48392768 
-256 1:0.48229319 2:0.53713649 3:0.33943843 4:0.32202135 5:0.78571429 6:0.25 7:0.28571429 8:0.46666667 9:0.42857143 10:0.375 11:0.33333333 12:0.4 13:0.22222222 14:0.18181818 15:0.14285714 16:0.14285714 17:0.66666667 21:0.2 22:0.125 23:0.16666667 24:0.44444444 25:0.33333333 26:0.33333333 29:0.33333333 31:0.33333333 32:0.5 38:0.25 39:0.25 40:0.4 41:0.11111111 42:0.2 44:0.25 49:0.33333333 50:0.25 51:0.4 53:0.33333333 61:0.2 64:0.33333333 68:0.33333333 69:0.6 70:0.27777778 71:1 73:1 75:1 85:1 89:1 98:0.78174664 99:0.7042597 100:0.84663781 101:0.87271913 102:0.31176856 103:0.39369784 104:0.27556265 105:0.37537478 106:0.68803805 107:0.544772 108:0.62743136 109:0.66302558 110:0.54764619 111:0.39345792 112:0.55660167 113:0.52907923 114:0.30908516 115:0.31209121 116:0.16788885 117:0.38526195 118:0.42371398 119:0.65724228 120:0.87325505 121:0.79441827 122:0.30927829 123:0.39459312 124:0.22602983 125:0.23000602 126:0.68423262 127:0.51422119 128:0.72922479 129:0.59129597 130:0.47441688 131:0.5026517 132:0.4755617 133:0.43058434 134:0.24629237 135:0.38234855 136:0.35253711 137:0.4144922 138:0.45983795 
109.7759856706762 1:0.44513165 2:0.36521781 3:0.53701896 4:0.51506788 5:0.71428571 6:0.3125 7:0.57142857 8:0.2 9:0.42857143 10:0.625 11:0.33333333 13:0.33333333 14:0.090909091 16:0.28571429 17:0.66666667 18:0.16666667 19:0.42857143 23:0.5 25:0.66666667 28:0.16666667 29:0.33333333 31:0.66666667 32:0.25 33:0.5 37:0.33333333 38:0.25 40:0.4 48:0.66666667 50:0.5 51:0.2 52:0.25 54:0.25 56:1 70:0.55555556 80:1 84:1 90:1 93:1 98:0.97153619 99:0.87321927 100:0.72049529 101:0.5894129 102:0.58575895 103:0.38850345 104:0.088524963 105:0.35352961 106:0.38613736 107:0.55523718 108:0.48213418 109:0.80216288 110:0.58978807 111:0.29204827 112:0.40479941 113:0.23752046 114:0.38798569 115:0.36561146 116:0.37572787 117:0.22037083 118:0.38279728 119:0.65478501 120:0.63808988 121:0.48149938 122:0.57002621 123:0.45269989 124:0.11685705 125:0.46216589 126:0.40581053 127:0.46653386 128:0.59592977 129:0.73297541 130:0.72916102 131:0.36051927 132:0.45047274 133:0.32847396 134:0.4511521 135:0.31529992 136:0.43187899 137:0.38030852 138:0.51873613 
-256 1:0.44513165 2:0.38313067 3:0.64755591 4:0.57493249 5:0.35714286 6:0.5 7:0.42857143 8:0.46666667 9:0.14285714 10:0.25 11:0.33333333 13:0.22222222 14:0.27272727 15:0.14285714 16:0.42857143 17:0.16666667 18:0.5 19:0.14285714 20:0.16666667 21:0.2 22:0.25 23:0.16666667 24:0.33333333 25:0.33333333 29:0.16666667 31:0.33333333 32:0.25 33:0.5 37:0.16666667 38:0.25 40:0.4 43:0.5 47:0.2 49:0.66666667 50:0.25 54:0.5 55:0.33333333 61:0.4 66:0.33333333 67:0.25 68:0.33333333 70:0.61111111 84:1 90:1 91:1 98:0.10313163 99:0.59450367 100:0.67024844 101:0.56860319 102:0.78515245 103:0.52726064 104:0.41020358 105:0.46224768 106:0.7999019 107:0.51396579 108:0.39447458 109:0.66174853 110:0.61740617 111:0.47731474 112:0.5977013 113:0.55517016 114:0.42348011 115:0.54261216 116:0.3351527 117:0.4028863 118:0.47214188 119:0.30243645 120:0.3905317 121:0.54829578 122:0.327226 123:0.5008638 124:0.47332394 125:0.51369729 126:0.81911983 127:0.42347177 128:0.41212284 129:0.52651826 130:0.44670101 131:0.42424831 132:0.44767094 133:0.43951981 134:0.30391708 135:0.45221149 136:0.37910289 137:0.38144998 138:0.33475335 
256 1:0.44513165 2:0.54827405 3:0.53613833 4:0.49142461 5:0.35714286 6:0.4375 7:0.35714286 8:0.6 9:0.14285714 10:0.375 11:0.16666667 13:0.11111111 14:0.27272727 15:0.14285714 16:0.42857143 17:0.33333333 18:0.16666667 19:0.14285714 20:0.16666667 21:0.2 22:0.25 23:0.33333333 24:0.44444444 25:0.33333333 29:0.33333333 31:0.33333333 32:0.25 38:0.25 40:0.2 41:0.11111111 42:0.2 43:0.5 45:0.25 46:0.33333333 47:0.2 49:0.33333333 50:0.25 51:0.2 54:0.25 61:0.2 64:0.33333333 67:0.25 68:0.66666667 69:0.2 70:0.5 74:1 79:1 87:1 88:1 89:1 90:1 97:1 99:0.48968397 100:0.60250901 101:0.51510595 102:0.6123492 103:0.41497363 104:0.28583996 105:0.44305252 106:0.732128 107:0.49227812 108:0.50723896 109:0.63550372 110:0.50178025 111:0.43160567 112:0.55877862 113:0.42072985 114:0.44846065 115:0.49296932 116:0.23026323 117:0.56623602 118:0.5319317 119:0.20801405 120:0.51334136 121:0.37390466 122:0.37379137 123:0.39459312 124:0.44789797 125:0.42231103 126:0.56643713 127:0.43839537 128:0.49364948 129:0.47513732 130:0.50319302 131:0.46665206 132:0.4391565 133:0.38558401 134:0.33253281 135:0.35409471 136:0.30689159 137:0.5642559 138:0.39082302 
256 1:0.5737647 2:0.71593769 3:0.53277974 4:0.66175187 5:0.42857143 6:0.5 7:0.5 8:0.33333333 9:0.14285714 10:0.25 11:0.33333333 13:0.22222222 14:0.36363636 15:0.28571429 16:0.28571429 17:0.33333333 18:0.16666667 19:0.42857143 20:0.16666667 21:0.2 22:0.25 24:0.22222222 25:0.33333333 29:0.33333333 32:0.25 36:0.25 38:0.25 40:0.2 41:0.11111111 42:0.4 43:0.5 47:0.2 49:0.33333333 51:0.2 52:0.25 54:0.25 56:0.33333333 57:0.25 61:0.4 67:0.25 70:0.66666667 72:1 73:1 75:1 81:1 83:1 89:1 96:1 98:0.97358488 99:0.46093862 100:0.82299637 101:0.61157198 102:0.26989991 103:0.69476775 104:0.54876395 105:0.5756 106:0.50382917 107:0.57787069 108:0.56577451 109:0.54036099 110:0.46861298 111:0.41434965 112:0.60153666 113:0.54605664 114:0.63874626 115:0.59357962 116:0.52880433 117:0.65283668 118:0.56717746 119:0.27168744 120:0.66317393 121:0.591197 122:0.21621795 123:0.67287518 124:0.5225176 125:0.55459462 126:0.58810989 127:0.60454189 128:0.62941615 129:0.46943641 130:0.54344347 131:0.60738338 132:0.53109365 133:0.67291855 134:0.66779906 135:0.66305385 136:0.50749182 137:0.68847262 138:0.63787927 
256 1:0.5737647 2:0.51411416 3:0.6443844 4:0.65651911 5:0.42857143 6:0.5625 7:0.35714286 8:0.4 9:0.14285714 10:0.25 11:0.33333333 13:0.22222222 14:0.27272727 15:0.14285714 16:0.71428571 17:0.33333333 18:0.16666667 19:0.28571429 22:0.625 24:0.11111111 25:0.33333333 28:0.16666667 29:0.16666667 32:0.25 36:0.25 38:0.25 40:0.2 42:0.2 43:0.75 47:0.8 49:0.33333333 52:0.25 56:0.33333333 61:0.8 63:0.25 67:0.25 70:0.61111111 71:1 75:1 78:1 87:1 94:1 96:1 98:0.047309356 99:0.62686132 100:0.87805551 101:0.7468551 102:0.81123674 103:0.75398579 104:0.64235511 105:0.63721773 106:0.7100658 107:0.68430828 108:0.47789826 109:0.8849207 110:0.55416813 111:0.69509875 112:0.77951722 113:0.832818 114:0.53206153 115:0.80229179 116:0.56336728 117:0.87193546 118:0.69471809 119:0.42372299 120:0.63712619 121:0.6373693 122:0.42586274 123:0.60981343 124:0.4742302 125:0.5315138 126:0.62696413 127:0.61488717 128:0.27660855 129:0.84467977 130:0.61449939 131:0.78253217 132:0.74773917 133:0.9569637 134:0.54555494 135:0.83899565 136:0.53142841 137:0.8486612 138:0.75989449 
-256 1:0.42831999 2:0.53674612 3:0.30343437 4:0.5077276 5:0.57142857 6:0.375 7:0.42857143 8:0.4 9:0.14285714 10:0.25 11:0.5 12:0.2 13:0.55555556 14:0.18181818 16:0.14285714 17:0.33333333 18:0.33333333 19:0.14285714 20:0.16666667 22:0.25 23:0.33333333 24:0.22222222 26:0.33333333 28:0.16666667 29:0.16666667 32:0.5 34:0.25 35:0.33333333 36:0.25 37:0.16666667 38:0.25 39:0.25 40:0.6 41:0.11111111 48:0.33333333 51:0.2 52:0.25 54:0.5 58:0.2 60:0.25 63:0.25 65:0.33333333 68:0.33333333 69:0.2 70:0.5 76:1 78:1 79:1 80:1 82:1 98:1 99:0.38867342 100:0.55062615 101:0.79791341 102:0.5585698 103:0.6596884 104:0.47646986 105:0.83437054 106:0.54875743 107:0.43266339 108:0.4415714 109:0.53772222 110:0.55061685 111:0.42692031 112:0.53275172 113:0.27669248 114:0.42395778 115:0.33753656 116:0.19165664 117:0.39407227 118:0.34044533 119:0.40640605 120:0.53094538 121:0.82087709 122:0.47724377 123:0.73364925 124:0.32679031 125:0.65904243 126:0.54449495 127:0.46196646 128:0.55086418 129:0.32600817 130:0.55071955 131:0.52856297 132:0.56415892 133:0.42691523 134:0.43555255 135:0.56470164 136:0.35609208 137:0.3443483 138:0.34366608 
256 1:0.42831999 2:0.60161107 3:0.6443844 4:0.68560592 5:0.35714286 6:0.75 7:0.28571429 8:0.33333333 9:0.14285714 10:0.125 11:0.33333333 12:0.2 13:0.22222222 14:0.63636364 15:0.28571429 16:0.28571429 17:0.33333333 20:0.33333333 22:0.625 27:0.5 29:0.16666667 32:0.25 34:0.25 37:0.16666667 38:0.25 40:0.4 41:0.44444444 42:0.4 43:0.25 44:0.25 45:0.25 47:0.4 50:0.25 52:0.25 58:0.4 61:0.6 63:0.25 70:0.72222222 72:1 78:1 79:1 80:1 82:1 87:1 89:1 90:1 91:1 97:1 98:0.99664016 99:0.33621018 100:0.57287333 101:0.57065645 102:0.81027418 103:0.59747679 104:0.64293086 105:0.74968203 106:0.59234102 107:0.52355948 108:0.62458727 109:0.57050157 110:0.54857547 111:0.5520814 112:0.63439036 113:0.42976316 114:0.57206623 115:0.67140778 116:0.37059093 117:0.76033486 118:0.46844613 119:0.36883525 120:0.4751477 121:0.53585364 122:0.55715779 123:0.51224326 124:0.6181993 125:0.69311814 126:0.55991177 127:0.53021665 128:0.49014085 129:0.53057561 130:0.45713648 131:0.64983818 132:0.65401338 133:0.54048618 134:0.55439168 135:0.80702338 136:0.42446042 137:0.72002504 138:0.43380929 
-67.66606534298042 1:0.63479026 2:0.69878904 3:0.52267638 4:0.63267216 5:0.5 6:0.5625 7:0.35714286 8:0.33333333 10:0.5 11:0.16666667 12:0.2 13:0.22222222 14:0.27272727 15:0.42857143 16:0.42857143 17:0.5 18:0.16666667 20:0.16666667 21:0.2 22:0.375 23:0.16666667 29:0.33333333 30:0.25 31:0.33333333 32:0.25 37:0.16666667 38:0.25 40:0.2 42:0.4 43:0.5 44:0.25 45:0.25 47:0.4 48:0.33333333 51:0.4 53:0.33333333 54:0.25 60:0.25 61:0.4 64:0.33333333 70:0.61111111 71:1 85:1 89:1 91:1 98:0.12620107 99:0.52001176 100:0.90211196 101:0.73336073 102:0.58022298 103:0.59189453 104:0.48322551 105:0.42035555 106:0.67659979 107:0.59461111 108:0.61330474 109:0.68693997 110:0.577768 111:0.63613001 112:0.73020213 113:0.72535691 114:0.35052652 115:0.65230584 116:0.44497347 117:0.66355765 118:0.58688141 119:0.46544679 120:0.92510345 121:0.58557867 122:0.52224486 123:0.62863599 124:0.46093051 125:0.25710607 126:0.4885559 127:0.64812013 128:0.69863304 129:0.66672894 130:0.58134433 131:0.75660018 132:0.65512189 133:0.79725242 134:0.43338501 135:0.61378985 136:0.53199183 137:0.68871646 138:0.69320422 
-256 1:0.53694314 2:0.39165412 3:0.21542841 4:0.30346476 5:0.78571429 6:0.3125 7:0.35714286 8:0.33333333 9:0.71428571 10:0.5 11:0.16666667 12:0.2 13:0.33333333 14:0.27272727 17:0.16666667 19:0.14285714 20:0.5 21:0.4 23:0.5 25:0.66666667 27:0.5 29:0.66666667 32:0.25 36:0.25 37:0.16666667 38:0.25 40:0.6 41:0.11111111 51:0.2 59:1 66:0.66666667 70:0.38888889 73:1 75:1 78:1 83:1 85:1 90:1 92:1 98:0.88122485 99:0.3548947 100:0.63059638 101:0.47028607 102:0.28414564 103:0.8143618 104:0.53476466 105:0.38819318 106:0.54481944 107:0.19638015 108:0.49347241 109:0.5198547 110:0.26897217 111:0.47347322 112:0.45366751 113:0.40128238 114:0.29936762 115:0.44631494 116:0.33991989 117:0.28185709 118:0.36271659 119:0.32853905 120:0.44756564 121:0.55575943 122:0.13052004 123:0.8529056 124:0.55426304 125:0.38630311 126:0.42722307 127:0.24569742 128:0.42998189 129:0.47513732 130:0.35707538 131:0.47496063 132:0.46027449 133:0.49651793 134:0.35891402 135:0.50770105 136:0.44118361 137:0.3387336 138:0.45795275 
-256 1:0.53694314 2:0.70469119 3:0.55697137 4:0.79239975 5:0.5 6:0.625 7:0.57142857 8:0.066666667 10:0.375 11:0.66666667 13:0.55555556 14:0.54545455 15:0.14285714 17:0.33333333 18:0.5 19:0.28571429 23:0.16666667 28:0.16666667 29:0.16666667 30:0.25 32:0.25 33:0.5 37:0.33333333 38:0.75 40:0.6 41:0.55555556 51:0.2 52:0.25 54:0.5 56:0.33333333 57:0.25 65:0.33333333 70:0.83333333 78:1 79:1 82:1 86:1 88:1 92:1 95:1 98:0.96777581 99:0.42325458 100:0.56692387 101:0.66690264 102:0.86801873 103:0.72404396 104:0.68051721 105:0.7448976 106:0.52699031 107:0.56677791 108:0.42442517 109:0.47525041 110:0.63577435 111:0.64450599 112:0.51607729 113:0.43692798 114:0.41957584 115:0.53325379 116:0.30101551 117:0.36344307 118:0.27866856 119:0.40225304 120:0.26279758 121:0.63218763 122:0.65021812 123:0.80145047 124:0.45468914 125:0.74150728 126:0.39269567 127:0.58938257 128:0.5225187 129:0.56592598 130:0.63785776 131:0.70845957 132:0.23102542 133:0.52728986 134:0.50917006 135:0.61313324 136:0.41483052 137:0.39979552 138:0.34744387 
92.56710591125731 1:0.42831999 2:0.40980888 3:0.38416511 4:0.40186925 5:0.57142857 6:0.25 7:0.5 8:0.46666667 9:0.28571429 10:0.125 11:0.66666667 12:0.2 13:0.33333333 14:0.090909091 16:0.28571429 17:0.5 18:0.16666667 20:0.33333333 22:0.25 23:0.5 24:0.22222222 26:0.66666667 31:0.33333333 32:0.75 34:0.25 36:0.25 38:0.25 39:0.25 40:0.4 43:0.25 47:0.2 48:0.33333333 50:0.25 51:0.2 52:0.25 54:0.25 60:0.25 61:0.2 65:0.33333333 66:0.33333333 67:0.25 68:0.33333333 70:0.44444444 72:1 76:1 78:1 79:1 80:1 87:1 89:1 98:0.96759387 99:0.28404052 100:0.67280977 101:0.96414684 102:0.34068399 103:0.66481063 104:0.58047951 105:0.70183413 106:0.27315448 107:0.38514939 108:0.25976415 109:0.34681831 110:0.37829803 111:0.33321815 112:0.36334812 113:0.19555624 114:0.38741055 115:0.31413365 116:0.07845128 117:0.35734671 118:0.34059853 119:0.34000725 120:0.66712322 121:1 122:0.36850459 123:0.71214774 124:0.37580574 125:0.59444948 126:0.31427803 127:0.35819062 128:0.38742737 129:0.25099403 130:0.48880978 131:0.46191173 132:0.11618165 133:0.26944226 134:0.40413563 135:0.44382824 136:0.27134812 137:0.24581382 138:0.32173935 
256 1:0.42831999 2:0.59660963 3:0.69503483 4:0.60689847 5:0.5 6:0.6875 7:0.28571429 8:0.26666667 9:0.14285714 10:0.625 11:0.16666667 13:0.55555556 14:0.18181818 15:0.28571429 16:0.42857143 17:0.16666667 18:0.16666667 19:0.14285714 20:0.16666667 22:0.5 25:0.33333333 28:0.16666667 29:0.5 31:0.33333333 32:0.25 36:0.25 37:0.5 38:0.25 40:0.2 43:0.5 47:0.6 51:0.2 55:0.33333333 58:0.2 60:0.5 61:0.2 62:0.2 70:0.66666667 72:1 73:1 78:1 81:1 83:1 84:1 85:1 90:1 98:0.94455186 99:0.28698034 100:0.61239222 101:0.73886199 102:0.54922724 103:0.67562954 104:0.47046998 105:0.70873275 106:0.65893809 107:0.45001601 108:0.42323197 109:0.55793215 110:0.48873803 111:0.45871373 112:0.68706477 113:0.50497288 114:0.63349089 115:0.57632056 116:0.54717455 117:0.68540185 118:0.65750452 119:0.39637922 120:0.47985715 121:0.75923827 122:0.56825444 123:0.49797893 124:0.43578485 125:0.50563492 126:0.38538421 127:0.50101654 128:0.39604989 129:0.42977265 130:0.52799996 131:0.43510428 132:0.52524048 133:0.54428415 134:0.60396893 135:0.63066041 136:0.52218373 137:0.52581132 138:0.61826637 
-256 1:0.21880087 2:0.72728321 3:0.61370245 4:0.55981643 5:0.64285714 6:0.3125 7:0.57142857 8:0.26666667 9:0.14285714 10:0.375 11:0.33333333 12:0.6 13:0.22222222 14:0.090909091 15:0.42857143 16:0.14285714 17:0.66666667 18:0.16666667 19:0.28571429 21:0.2 22:0.25 23:0.16666667 25:0.33333333 29:0.33333333 30:0.25 32:0.25 38:0.25 39:0.25 40:0.2 42:0.2 43:0.25 44:0.25 47:0.2 50:0.25 51:0.4 53:0.33333333 56:0.33333333 61:0.2 62:0.2 64:0.33333333 70:0.55555556 71:1 74:1 83:1 85:1 98:0.93034894 99:0.56359461 100:0.77291128 101:0.61662257 102:0.39382589 103:0.6187464 104:0.48200656 105:0.50163069 106:0.35641278 107:0.51208642 108:0.51160179 109:0.7481107 110:0.63888534 111:0.38629454 112:0.41213975 113:0.36515585 114:0.33302793 115:0.4894886 116:0.41544606 117:0.42675573 118:0.52817385 119:0.50377912 120:0.536415 121:0.5940182 122:0.44713223 123:0.44981502 124:0.37789857 125:0.44606073 126:0.1322654 127:0.5724937 128:0.30523561 129:0.60772347 130:0.76416472 131:0.48886924 132:0.45789096 133:0.45935918 134:0.40073064 135:0.54283706 136:0.43740529 137:0.48888804 138:0.62531893 
256 1:0.42293091 2:0.39695509 3:0.56389849 4:0.61477374 5:0.5 6:0.1875 7:0.78571429 8:0.33333333 9:0.14285714 10:0.25 11:0.5 12:0.2 13:0.22222222 15:0.28571429 17:0.5 18:0.5 19:0.42857143 20:0.33333333 23:0.5 24:0.22222222 26:0.33333333 29:0.16666667 30:0.25 32:0.25 33:0.5 37:0.16666667 38:0.25 40:0.2 42:0.2 45:0.25 50:0.25 51:0.2 53:0.33333333 54:0.25 57:0.25 64:0.66666667 66:0.33333333 68:0.66666667 70:0.61111111 71:1 90:1 94:1 98:0.011382927 99:0.56967569 100:0.78161123 101:0.51068689 102:0.78033971 103:0.56285956 104:0.41174563 105:0.42075476 106:0.40451007 107:0.17620525 108:0.28988751 109:0.3805648 110:0.3315326 111:0.31970049 112:0.1811876 113:0.36734943 115:0.44969109 116:0.15601993 117:0.097464941 118:0.073138779 119:0.53471457 120:0.74676869 121:0.60173942 122:0.57737438 123:0.64682504 124:0.38467658 125:0.29433516 126:0.25269551 127:0.11777577 128:0.50731212 129:0.3189893 130:0.40708934 131:0.52624926 132:0.35303784 133:0.66729063 135:0.48135738 136:0.24869522 137:0.39499624 138:0.028734705 
