svm_type c_svc
kernel_type rbf
gamma 0.03125
nr_class 2
total_sv 1600
rho 1.10228
label 1 0
probA -1.94329
probB 0.120615
nr_sv 894 706
SV
2 1:0.57813359 2:0.28431885 3:0.26025669 4:0.36856367 5:0.41176471 6:0.35294118 7:0.35294118 8:0.5 9:0.22222222 11:0.5 12:0.14285714 14:0.27272727 15:0.11111111 16:0.42857143 17:0.14285714 18:0.25 19:0.11111111 20:0.22222222 21:0.57142857 22:0.125 23:0.11111111 24:0.3 28:0.33333333 33:0.25 42:0.2 43:0.5 47:0.25 48:0.66666667 51:0.25 55:0.5 60:0.5 62:1 67:0.16666667 68:0.25 69:0.33333333 70:0.25 72:0.36842105 73:1 79:1 87:1 92:1 96:1 98:1 104:1 106:1 118:1 125:1 
0.005283225389088548 1:0.59488403 2:0.30962343 3:0.45892564 4:0.57658143 5:0.35294118 6:0.52941176 7:0.35294118 8:0.38888889 9:0.11111111 10:0.3 11:0.33333333 13:0.3 14:0.27272727 15:0.33333333 16:0.14285714 17:0.14285714 18:0.375 20:0.22222222 21:0.14285714 22:0.125 23:0.11111111 24:0.3 26:0.16666667 29:0.28571429 31:0.2 34:0.25 37:0.25 38:0.125 39:0.25 42:0.4 43:0.25 44:0.25 45:0.16666667 47:0.25 48:0.33333333 52:0.25 55:0.5 60:0.5 62:0.33333333 64:0.25 69:0.33333333 71:0.14285714 72:0.52631579 75:1 81:1 82:1 89:1 97:1 105:1 107:1 109:1 115:1 116:1 124:1 127:1 151:1 
2 1:0.24057058 2:0.33128241 3:0.53570905 4:0.41690273 5:0.41176471 6:0.17647059 7:0.52941176 8:0.5 11:0.33333333 12:0.57142857 13:0.1 15:0.22222222 16:0.14285714 17:0.71428571 19:0.22222222 20:0.22222222 21:0.14285714 22:0.5 23:0.33333333 24:0.1 33:0.25 35:0.25 36:0.33333333 39:0.25 42:0.2 46:0.25 47:0.25 49:0.25 53:0.25 54:0.75 56:0.5 59:0.25 63:0.25 64:0.25 65:0.25 67:0.16666667 70:0.25 72:0.36842105 75:1 78:1 79:1 81:1 82:1 93:1 99:1 102:1 111:1 115:1 117:1 121:1 124:1 126:1 131:1 152:1 156:1 158:1 
2 1:0.32709496 2:0.50508207 3:0.42214227 4:0.35894519 5:0.58823529 6:0.17647059 7:0.52941176 8:0.33333333 9:0.33333333 10:0.3 11:0.33333333 12:0.14285714 13:0.3 15:0.11111111 17:0.42857143 19:0.33333333 20:0.33333333 21:0.14285714 22:0.125 23:0.22222222 24:0.2 25:0.2 26:0.16666667 28:0.33333333 29:0.28571429 30:0.2 33:0.25 37:0.25 38:0.125 39:0.25 41:0.2 46:0.25 52:0.25 58:0.6 59:0.25 60:0.5 62:0.33333333 65:0.25 66:0.2 68:0.25 70:0.25 72:0.36842105 74:1 76:1 77:1 80:1 82:1 85:1 90:1 92:1 99:1 104:1 108:1 110:1 112:1 117:1 122:1 126:1 141:1 
0.04466025245896728 1:0.59184905 2:0.36890756 3:0.61358266 4:0.47924029 5:0.17647059 6:0.23529412 7:0.64705882 8:0.55555556 10:0.2 11:0.16666667 13:0.1 14:0.090909091 15:0.22222222 19:0.55555556 20:0.66666667 21:0.28571429 22:0.25 23:0.33333333 24:0.3 30:0.2 31:0.2 38:0.125 41:0.2 42:0.2 46:0.25 47:0.25 57:0.4 58:0.6 59:0.5 60:0.25 61:0.33333333 62:0.33333333 64:0.25 66:0.2 67:0.33333333 70:0.5 71:0.14285714 72:0.52631579 75:1 84:1 86:1 90:1 98:1 101:1 104:1 113:1 117:1 124:1 127:1 128:1 133:1 137:1 152:1 
2 1:0.23619655 2:0.54405297 3:0.30343437 4:0.37798506 5:0.47058824 6:0.29411765 7:0.41176471 8:0.44444444 9:0.22222222 10:0.1 11:0.33333333 12:0.42857143 14:0.18181818 15:0.22222222 16:0.14285714 17:0.57142857 18:0.125 19:0.11111111 20:0.11111111 21:0.28571429 22:0.25 23:0.11111111 24:0.3 25:0.2 28:0.33333333 33:0.25 34:0.25 35:0.25 36:0.66666667 42:0.4 44:0.5 48:0.33333333 52:0.25 53:0.25 54:0.25 55:0.25 56:0.25 60:0.25 62:0.33333333 64:0.25 68:0.25 69:0.33333333 70:0.25 72:0.36842105 74:1 77:1 79:1 80:1 84:1 85:1 88:1 102:1 106:1 115:1 118:1 120:1 124:1 125:1 128:1 136:1 146:1 161:1 167:1 
2 1:0.59203639 2:0.49410608 3:0.76730194 4:0.56248006 5:0.23529412 6:0.47058824 7:0.41176471 8:0.5 10:0.1 11:0.16666667 12:0.14285714 13:0.2 14:0.18181818 15:0.33333333 16:0.28571429 17:0.28571429 18:0.125 19:0.11111111 20:0.33333333 22:0.625 23:0.11111111 24:0.3 31:0.2 33:0.25 35:0.25 39:0.25 40:0.33333333 41:0.4 43:0.25 44:0.25 45:0.16666667 47:0.25 49:0.25 51:0.25 52:0.25 55:0.25 58:0.2 59:0.25 60:0.5 64:0.5 65:0.5 67:0.16666667 69:0.66666667 70:0.25 72:0.52631579 74:1 79:1 80:1 84:1 88:1 89:1 93:1 99:1 101:1 105:1 107:1 113:1 116:1 121:1 122:1 126:1 136:1 141:1 144:1 163:1 
0.869606861996407 1:0.42141644 2:0.65019467 3:0.86128727 4:0.68210595 5:0.29411765 6:0.58823529 7:0.47058824 8:0.27777778 10:0.3 12:0.28571429 13:0.3 14:0.18181818 15:0.55555556 16:0.14285714 17:0.28571429 18:0.125 19:0.33333333 20:0.11111111 22:0.5 24:0.1 30:0.4 31:0.2 35:0.25 36:0.33333333 38:0.25 40:0.33333333 42:0.4 44:0.5 45:0.16666667 46:0.5 49:0.25 52:0.25 54:0.25 57:0.2 58:0.2 59:0.25 63:0.5 65:0.25 69:0.33333333 72:0.68421053 73:1 76:1 84:1 92:1 95:1 100:1 104:1 108:1 109:1 112:1 113:1 118:1 123:1 126:1 129:1 130:1 155:1 169:1 
0.3879258299511064 1:0.45557556 2:0.59126001 3:0.86128727 4:0.62366483 5:0.35294118 6:0.41176471 7:0.52941176 8:0.33333333 9:0.33333333 10:0.1 11:0.33333333 13:0.2 14:0.18181818 15:0.44444444 17:0.14285714 18:0.125 19:0.33333333 20:0.44444444 22:0.375 24:0.2 25:0.2 27:0.5 30:0.2 34:0.5 37:0.5 42:0.4 44:0.25 45:0.16666667 46:0.5 52:0.25 57:0.2 58:0.4 59:0.25 60:0.5 63:0.25 64:0.25 65:0.25 69:0.66666667 72:0.57894737 73:1 76:1 77:1 81:1 84:1 87:1 100:1 105:1 107:1 114:1 116:1 120:1 124:1 126:1 130:1 132:1 159:1 165:1 
1.118839721746884 1:0.86189425 2:0.65305077 3:0.42509053 4:0.70278314 5:0.29411765 6:0.52941176 7:0.52941176 8:0.27777778 9:0.11111111 10:0.2 11:0.16666667 12:0.14285714 13:0.1 14:0.36363636 15:0.44444444 16:0.14285714 17:0.42857143 18:0.125 19:0.22222222 20:0.33333333 22:0.375 23:0.11111111 26:0.16666667 30:0.2 32:0.25 34:0.25 35:0.25 38:0.125 42:0.6 44:0.25 45:0.16666667 46:0.25 47:0.25 49:0.25 53:0.25 54:0.25 55:0.25 57:0.2 58:0.2 59:0.25 63:0.25 64:0.25 65:0.25 72:0.68421053 74:1 76:1 77:1 83:1 88:1 89:1 91:1 94:1 99:1 100:1 104:1 108:1 111:1 115:1 117:1 123:1 126:1 156:1 158:1 
2 1:0.52546165 2:0.63499812 3:0.480906 4:0.48356197 5:0.41176471 6:0.17647059 7:0.70588235 8:0.33333333 9:0.22222222 10:0.1 11:0.5 12:0.14285714 13:0.2 15:0.11111111 16:0.14285714 17:0.42857143 18:0.125 19:0.33333333 20:0.44444444 22:0.25 23:0.44444444 27:0.5 30:0.2 34:0.25 37:0.25 40:0.33333333 41:0.2 44:0.25 50:0.33333333 52:0.25 53:0.25 56:0.5 59:0.5 63:0.25 65:0.25 66:0.4 67:0.33333333 72:0.52631579 74:1 87:1 94:1 98:1 100:1 103:1 108:1 114:1 118:1 122:1 125:1 129:1 145:1 169:1 
1.181069819100468 1:0.61552358 2:0.28710897 3:0.5128194 4:0.40373405 5:0.47058824 6:0.35294118 7:0.41176471 8:0.38888889 9:0.11111111 10:0.3 11:0.16666667 12:0.28571429 13:0.5 15:0.22222222 17:0.28571429 19:0.11111111 20:0.44444444 22:0.375 23:0.33333333 24:0.1 28:0.33333333 29:0.28571429 30:0.2 34:0.25 37:0.25 38:0.25 39:0.25 40:0.33333333 42:0.2 46:0.25 47:0.25 52:0.25 56:0.25 59:0.5 60:0.25 63:0.5 65:0.25 67:0.33333333 69:0.33333333 72:0.42105263 73:1 76:1 77:1 79:1 81:1 84:1 88:1 91:1 93:1 97:1 101:1 102:1 110:1 112:1 115:1 117:1 124:1 126:1 130:1 132:1 136:1 
2 1:0.59203639 2:0.5085311 3:0.32709496 4:0.50206681 5:0.47058824 6:0.23529412 7:0.64705882 8:0.27777778 9:0.22222222 10:0.2 11:0.16666667 12:0.42857143 13:0.3 15:0.22222222 17:0.42857143 18:0.25 19:0.44444444 20:0.11111111 23:0.44444444 24:0.1 26:0.16666667 28:0.33333333 29:0.14285714 31:0.2 36:0.33333333 37:0.25 40:0.66666667 42:0.2 44:0.25 46:0.25 52:0.25 53:0.25 55:0.25 56:0.25 57:0.2 58:0.2 66:0.4 70:0.25 72:0.52631579 73:1 76:1 82:1 88:1 89:1 98:1 100:1 101:1 102:1 106:1 110:1 112:1 114:1 119:1 124:1 126:1 129:1 130:1 146:1 160:1 166:1 
2 1:0.52319537 2:0.63015045 3:0.402202 4:0.47577814 5:0.35294118 6:0.35294118 7:0.47058824 8:0.44444444 9:0.11111111 10:0.3 12:0.14285714 13:0.2 14:0.090909091 15:0.22222222 16:0.28571429 17:0.42857143 19:0.22222222 20:0.33333333 22:0.375 23:0.33333333 24:0.2 26:0.16666667 30:0.4 31:0.2 40:0.33333333 41:0.2 43:0.25 44:0.5 49:0.25 51:0.25 52:0.5 57:0.2 58:0.2 59:0.25 60:0.25 63:0.25 65:0.25 66:0.2 67:0.16666667 69:0.33333333 70:0.25 72:0.47368421 74:1 78:1 79:1 86:1 88:1 89:1 92:1 97:1 100:1 103:1 107:1 114:1 116:1 135:1 136:1 148:1 165:1 168:1 
2 1:0.30530944 2:0.39515241 3:0.48614155 4:0.39372945 5:0.52941176 6:0.47058824 7:0.23529412 8:0.38888889 10:0.4 11:0.5 12:0.28571429 13:0.5 15:0.11111111 16:0.28571429 17:0.42857143 18:0.125 22:0.5 24:0.3 29:0.42857143 32:0.25 33:0.75 35:0.5 38:0.25 39:0.25 40:0.66666667 41:0.2 45:0.16666667 51:0.5 52:0.5 53:0.25 55:0.25 63:0.25 65:0.25 69:0.66666667 71:0.14285714 72:0.36842105 77:1 83:1 85:1 92:1 97:1 101:1 102:1 107:1 110:1 115:1 117:1 122:1 127:1 128:1 157:1 161:1 
2 1:0.5438914 2:0.33865604 3:0.4651083 4:0.37656306 5:0.41176471 6:0.29411765 7:0.41176471 8:0.5 9:0.33333333 11:0.33333333 12:0.14285714 13:0.1 14:0.18181818 16:0.42857143 17:0.42857143 20:0.44444444 22:0.5 23:0.44444444 24:0.1 25:0.2 27:0.5 33:0.25 34:0.25 41:0.2 49:0.25 50:0.33333333 51:0.25 54:0.25 59:0.5 64:0.25 67:0.5 69:0.33333333 72:0.36842105 74:1 76:1 77:1 81:1 84:1 86:1 95:1 97:1 104:1 108:1 109:1 113:1 119:1 121:1 123:1 132:1 164:1 
2 1:0.55606605 2:0.55696842 3:0.5438914 4:0.63826258 5:0.47058824 6:0.52941176 7:0.41176471 8:0.22222222 9:0.11111111 10:0.5 11:0.16666667 13:0.1 14:0.27272727 15:0.44444444 16:0.28571429 17:0.71428571 19:0.11111111 20:0.11111111 22:0.25 23:0.11111111 24:0.1 26:0.16666667 30:0.4 31:0.6 33:0.25 38:0.125 41:0.2 42:0.2 43:0.25 44:0.5 46:0.25 47:0.25 49:0.25 51:0.25 52:0.5 53:0.25 56:0.25 64:0.25 69:0.33333333 72:0.57894737 78:1 82:1 87:1 89:1 92:1 97:1 100:1 103:1 110:1 112:1 118:1 123:1 126:1 149:1 169:1 
0.2087948313174304 1:0.59203639 2:0.50278585 3:0.52319537 4:0.62353636 5:0.23529412 6:0.35294118 7:0.64705882 8:0.38888889 9:0.11111111 10:0.1 11:0.33333333 13:0.1 15:0.44444444 16:0.14285714 17:0.28571429 19:0.44444444 20:0.55555556 22:0.625 23:0.11111111 24:0.1 27:0.25 31:0.2 33:0.25 38:0.125 42:0.2 46:0.25 47:0.75 49:0.25 53:0.25 56:0.25 57:0.2 58:0.4 59:0.75 60:0.25 63:0.25 64:0.25 65:0.25 66:0.2 69:0.33333333 72:0.63157895 73:1 78:1 83:1 87:1 89:1 99:1 100:1 102:1 112:1 114:1 119:1 121:1 124:1 127:1 128:1 140:1 154:1 160:1 166:1 
2 1:0.53701896 2:0.53598533 3:0.63638963 4:0.57004355 5:0.29411765 6:0.47058824 7:0.47058824 8:0.38888889 10:0.2 11:0.33333333 12:0.14285714 13:0.2 14:0.18181818 15:0.33333333 16:0.28571429 17:0.42857143 18:0.125 19:0.11111111 20:0.22222222 22:0.375 23:0.22222222 24:0.2 30:0.2 32:0.25 33:0.25 34:0.25 36:0.33333333 38:0.125 40:0.33333333 42:0.2 44:0.25 47:0.25 50:0.33333333 51:0.25 52:0.25 53:0.5 56:0.25 59:0.5 65:0.5 66:0.2 69:0.33333333 70:0.25 72:0.57894737 73:1 76:1 79:1 80:1 87:1 90:1 93:1 96:1 102:1 107:1 110:1 114:1 117:1 123:1 129:1 130:1 137:1 157:1 
2 1:0.78507348 2:0.41115224 3:0.36290256 4:0.32521949 5:0.29411765 6:0.35294118 7:0.35294118 8:0.61111111 11:0.33333333 12:0.42857143 13:0.1 14:0.18181818 15:0.11111111 16:0.42857143 18:0.125 19:0.11111111 20:0.44444444 21:0.57142857 22:0.375 23:0.22222222 24:0.1 34:0.25 35:0.25 39:0.25 41:0.2 42:0.2 43:0.25 46:0.25 48:0.66666667 49:0.25 55:0.25 58:0.2 59:0.25 60:0.25 62:0.33333333 64:0.5 67:0.33333333 70:0.25 72:0.36842105 73:1 77:1 79:1 81:1 84:1 85:1 88:1 89:1 94:1 100:1 105:1 110:1 111:1 115:1 117:1 121:1 125:1 132:1 142:1 158:1 
2 1:0.5438914 2:0.58943634 3:0.43855123 4:0.50281586 5:0.23529412 6:0.29411765 7:0.52941176 8:0.55555556 9:0.22222222 11:0.16666667 12:0.14285714 13:0.2 15:0.33333333 16:0.14285714 18:0.125 19:0.22222222 20:0.66666667 22:0.625 23:0.22222222 24:0.2 25:0.2 27:0.25 35:0.25 37:0.25 40:0.33333333 42:0.2 45:0.16666667 46:0.25 47:0.25 50:0.33333333 58:0.4 59:0.75 60:0.5 63:0.25 64:0.25 65:0.5 67:0.33333333 69:0.33333333 70:0.25 72:0.47368421 74:1 84:1 91:1 94:1 95:1 99:1 100:1 103:1 106:1 111:1 114:1 118:1 121:1 124:1 126:1 133:1 142:1 147:1 170:1 
1.219040614233691 1:0.26435576 2:0.65305077 3:0.40604948 4:0.45713632 5:0.52941176 6:0.23529412 7:0.58823529 8:0.27777778 9:0.11111111 10:0.2 11:0.66666667 12:0.28571429 13:0.1 14:0.090909091 15:0.22222222 17:0.85714286 19:0.22222222 20:0.22222222 21:0.14285714 22:0.25 23:0.11111111 24:0.1 27:0.25 31:0.2 33:0.5 34:0.5 36:0.33333333 39:0.25 42:0.2 44:0.25 46:0.25 52:0.5 53:0.25 54:0.5 56:0.25 57:0.2 59:0.5 62:0.33333333 63:0.25 64:0.25 68:0.25 72:0.47368421 74:1 76:1 82:1 86:1 94:1 98:1 100:1 104:1 108:1 109:1 111:1 114:1 119:1 120:1 124:1 125:1 128:1 166:1 
1.13677412158393 1:0.42709758 2:0.17418993 3:0.32709496 4:0.29047671 5:0.70588235 6:0.35294118 7:0.29411765 8:0.27777778 9:0.55555556 10:0.3 11:0.33333333 12:0.28571429 13:0.4 14:0.27272727 17:0.14285714 19:0.22222222 20:0.11111111 21:0.28571429 22:0.125 23:0.11111111 24:0.1 25:0.4 26:0.33333333 27:0.25 29:0.28571429 30:0.2 36:0.33333333 37:0.25 38:0.125 39:0.25 40:0.33333333 41:0.4 54:0.25 56:0.25 58:0.2 59:0.25 64:0.25 66:0.2 68:0.25 72:0.31578947 75:1 76:1 77:1 80:1 83:1 85:1 90:1 95:1 97:1 103:1 106:1 110:1 112:1 114:1 119:1 120:1 123:1 125:1 129:1 147:1 160:1 166:1 
0.5439842292806216 1:0.30530944 2:0.61660229 3:0.38712304 4:0.48341791 5:0.47058824 6:0.29411765 7:0.47058824 8:0.38888889 9:0.11111111 10:0.1 11:0.5 12:0.42857143 13:0.2 15:0.33333333 16:0.14285714 17:0.57142857 18:0.25 20:0.11111111 22:0.375 23:0.22222222 24:0.2 27:0.25 29:0.14285714 33:0.5 35:0.25 36:0.66666667 39:0.25 40:0.33333333 42:0.2 44:0.25 45:0.16666667 47:0.25 50:0.33333333 52:0.25 53:0.25 54:0.25 55:0.25 65:0.5 69:0.66666667 72:0.42105263 85:1 92:1 99:1 104:1 106:1 109:1 111:1 115:1 117:1 124:1 125:1 129:1 140:1 150:1 158:1 
2 1:0.34510107 2:0.48197427 3:0.53277974 4:0.45145117 5:0.058823529 6:0.41176471 7:0.35294118 8:0.77777778 10:0.1 13:0.1 14:0.27272727 15:0.11111111 16:0.42857143 19:0.11111111 20:0.55555556 22:0.5 23:0.44444444 24:0.5 30:0.2 38:0.125 42:0.2 43:0.5 47:0.25 49:0.25 50:0.33333333 51:0.25 58:0.2 59:0.25 60:0.5 63:0.25 64:0.5 66:0.2 67:0.5 69:0.66666667 70:0.5 71:0.14285714 72:0.42105263 75:1 83:1 88:1 90:1 92:1 99:1 105:1 115:1 117:1 123:1 126:1 136:1 138:1 152:1 161:1 
0.2649806859837705 1:0.38416511 2:0.45158004 3:0.5038825 4:0.42298152 5:0.35294118 6:0.47058824 7:0.29411765 8:0.5 9:0.11111111 10:0.3 12:0.28571429 13:0.3 14:0.18181818 15:0.22222222 16:0.28571429 17:0.14285714 20:0.33333333 22:0.5 23:0.33333333 24:0.2 28:0.33333333 29:0.14285714 30:0.4 36:0.33333333 37:0.25 38:0.125 40:0.33333333 41:0.2 43:0.5 44:0.25 49:0.5 52:0.25 59:0.25 60:0.25 63:0.25 64:0.25 65:0.5 67:0.5 69:0.33333333 70:0.25 72:0.42105263 84:1 86:1 92:1 94:1 98:1 105:1 108:1 109:1 111:1 113:1 117:1 121:1 129:1 
0.4826671516003564 1:0.61321882 2:0.65577336 3:0.40670149 4:0.68766265 5:0.41176471 6:0.58823529 7:0.41176471 8:0.22222222 9:0.33333333 10:0.2 11:0.33333333 13:0.2 14:0.45454545 15:0.33333333 16:0.14285714 17:0.28571429 18:0.125 19:0.22222222 20:0.22222222 22:0.375 26:0.33333333 27:0.25 30:0.4 34:0.25 37:0.25 39:0.25 41:0.2 42:0.4 43:0.25 44:0.25 46:0.5 49:0.25 55:0.25 56:0.25 58:0.2 59:0.25 63:0.25 64:0.25 65:0.25 72:0.63157895 75:1 78:1 82:1 87:1 94:1 104:1 108:1 109:1 116:1 120:1 124:1 126:1 131:1 162:1 
0.9075431119492402 1:0.44527437 2:0.49647197 3:0.64478638 4:0.54900723 5:0.47058824 6:0.52941176 7:0.29411765 8:0.33333333 9:0.22222222 10:0.1 11:0.33333333 12:0.28571429 13:0.3 14:0.27272727 15:0.22222222 16:0.28571429 17:0.42857143 18:0.125 19:0.11111111 22:0.625 24:0.1 26:0.16666667 27:0.25 30:0.2 33:0.25 35:0.25 36:0.33333333 39:0.25 40:0.33333333 42:0.2 43:0.5 44:0.25 46:0.25 49:0.5 54:0.25 55:0.25 56:0.25 63:0.75 64:0.25 65:0.25 69:0.33333333 72:0.47368421 75:1 79:1 80:1 82:1 87:1 90:1 98:1 103:1 107:1 111:1 118:1 120:1 131:1 148:1 156:1 
1.827596534667997 1:0.5989845 2:0.5536151 3:0.69772966 4:0.66454551 5:0.17647059 6:0.41176471 7:0.64705882 8:0.38888889 9:0.11111111 10:0.1 11:0.16666667 13:0.1 14:0.090909091 15:0.33333333 16:0.42857143 17:0.14285714 18:0.125 19:0.55555556 20:0.33333333 22:0.5 23:0.22222222 24:0.1 26:0.16666667 32:0.25 34:0.25 37:0.25 42:0.2 43:0.25 46:0.75 49:0.5 50:0.33333333 53:0.25 55:0.25 56:0.25 57:0.4 58:0.2 59:0.5 60:0.25 63:0.25 64:0.25 65:0.5 67:0.16666667 70:0.25 72:0.68421053 73:1 83:1 88:1 89:1 92:1 97:1 104:1 108:1 109:1 112:1 114:1 118:1 121:1 124:1 126:1 129:1 155:1 160:1 170:1 
0.5535155712638106 1:0.53570905 2:0.82289536 3:0.60477371 4:0.79261895 5:0.35294118 6:0.52941176 7:0.58823529 8:0.16666667 9:0.11111111 10:0.2 12:0.42857143 13:0.1 14:0.27272727 15:0.66666667 17:0.57142857 18:0.25 19:0.44444444 22:0.25 28:0.33333333 31:0.4 35:0.5 37:0.25 41:0.2 42:0.6 44:0.5 45:0.16666667 46:0.75 52:0.5 54:0.5 55:0.25 56:0.5 57:0.2 64:0.5 72:0.73684211 73:1 78:1 80:1 86:1 89:1 91:1 94:1 98:1 101:1 104:1 109:1 116:1 121:1 124:1 125:1 162:1 
1.247683031621971 1:0.86189425 2:0.63064072 3:0.61115751 4:0.71903517 5:0.29411765 6:0.47058824 7:0.58823529 8:0.27777778 9:0.11111111 10:0.1 12:0.42857143 13:0.1 14:0.27272727 15:0.44444444 16:0.14285714 17:0.42857143 18:0.25 19:0.44444444 20:0.11111111 22:0.375 23:0.11111111 28:0.33333333 31:0.2 35:0.75 37:0.25 41:0.2 42:0.4 43:0.25 44:0.25 45:0.16666667 46:0.5 50:0.33333333 52:0.25 54:0.5 55:0.25 56:0.5 57:0.2 64:0.75 67:0.16666667 72:0.68421053 74:1 77:1 79:1 80:1 83:1 86:1 87:1 90:1 93:1 98:1 102:1 108:1 109:1 114:1 116:1 121:1 126:1 137:1 159:1 165:1 
1.808915189274764 1:0.86189425 2:0.4287384 3:0.76730194 4:0.67524436 5:0.47058824 6:0.41176471 7:0.58823529 8:0.16666667 9:0.22222222 10:0.3 11:0.16666667 12:0.14285714 13:0.2 14:0.090909091 15:0.33333333 16:0.28571429 17:0.28571429 18:0.375 19:0.55555556 21:0.14285714 22:0.125 23:0.11111111 26:0.16666667 27:0.25 29:0.14285714 30:0.2 31:0.2 40:0.33333333 42:0.2 43:0.25 44:0.25 46:0.5 48:0.33333333 49:0.25 52:0.5 55:0.25 56:0.25 57:0.2 63:0.25 66:0.2 72:0.63157895 76:1 78:1 83:1 86:1 88:1 89:1 94:1 99:1 101:1 102:1 108:1 112:1 113:1 118:1 135:1 138:1 169:1 
1.868106984268263 1:0.61552358 2:0.70534732 3:0.63259524 4:0.6656565 5:0.058823529 6:0.52941176 7:0.52941176 8:0.5 11:0.16666667 14:0.36363636 15:0.33333333 16:0.28571429 18:0.25 19:0.33333333 20:0.44444444 21:0.14285714 22:0.5 23:0.11111111 24:0.3 42:0.4 43:0.25 46:0.5 47:0.25 49:0.25 50:0.33333333 55:0.25 58:0.4 59:0.25 60:0.75 62:0.33333333 64:0.75 65:0.25 67:0.16666667 68:0.25 69:0.66666667 72:0.68421053 74:1 79:1 80:1 83:1 86:1 89:1 94:1 100:1 105:1 106:1 115:1 118:1 121:1 128:1 142:1 167:1 170:1 
0.001374834210194553 1:0.68762033 2:0.61532384 3:0.78769822 4:0.86218373 5:0.23529412 6:0.82352941 7:0.47058824 8:0.11111111 11:0.33333333 12:0.28571429 13:0.4 14:0.63636364 15:0.33333333 18:0.625 19:0.33333333 22:0.25 35:0.5 39:0.5 40:0.66666667 41:0.4 42:0.4 45:0.33333333 46:0.25 55:0.5 57:0.2 64:0.5 72:0.89473684 73:1 76:1 80:1 83:1 86:1 88:1 89:1 100:1 104:1 107:1 112:1 113:1 118:1 120:1 123:1 126:1 128:1 130:1 135:1 154:1 
1.193353453224159 1:0.42214227 2:0.55858693 3:0.55697137 4:0.70007852 5:0.23529412 6:0.64705882 7:0.47058824 8:0.27777778 10:0.4 13:0.2 14:0.36363636 15:0.44444444 16:0.14285714 17:0.28571429 18:0.25 19:0.11111111 20:0.33333333 22:0.25 23:0.22222222 24:0.1 30:0.4 31:0.4 38:0.25 41:0.4 42:0.2 43:0.25 45:0.16666667 46:0.25 47:0.5 49:0.25 52:0.5 55:0.25 58:0.2 59:0.25 60:0.25 64:0.25 70:0.25 72:0.73684211 74:1 78:1 80:1 91:1 94:1 96:1 101:1 103:1 106:1 109:1 112:1 115:1 118:1 123:1 127:1 128:1 147:1 150:1 155:1 167:1 169:1 
2 1:0.6443844 2:0.35359197 3:0.49911361 4:0.69477622 5:0.23529412 6:0.35294118 7:0.64705882 8:0.38888889 9:0.11111111 11:0.16666667 12:0.14285714 13:0.1 14:0.18181818 15:0.33333333 16:0.14285714 17:0.28571429 18:0.25 19:0.55555556 20:0.22222222 22:0.375 23:0.22222222 24:0.2 28:0.33333333 35:0.25 37:0.25 42:0.4 46:0.75 49:0.25 53:0.25 55:0.5 56:0.5 58:0.2 60:0.5 63:0.25 65:0.25 66:0.2 67:0.16666667 69:0.33333333 70:0.25 72:0.63157895 75:1 78:1 80:1 83:1 86:1 88:1 90:1 99:1 103:1 106:1 113:1 118:1 124:1 126:1 135:1 137:1 141:1 147:1 
2 1:0.42214227 2:0.52612391 3:0.62300177 4:0.59572889 5:0.47058824 6:0.41176471 7:0.52941176 8:0.22222222 9:0.22222222 10:0.1 11:0.16666667 12:0.42857143 13:0.3 14:0.18181818 15:0.22222222 16:0.14285714 17:0.42857143 18:0.25 19:0.44444444 22:0.25 23:0.22222222 25:0.2 28:0.33333333 29:0.14285714 33:0.25 35:0.5 37:0.25 40:0.66666667 42:0.2 43:0.25 46:0.5 50:0.33333333 52:0.25 53:0.25 55:0.25 56:0.5 64:0.25 65:0.25 66:0.4 72:0.57894737 73:1 76:1 81:1 82:1 86:1 93:1 98:1 105:1 107:1 109:1 114:1 118:1 120:1 124:1 126:1 130:1 151:1 
0.2523142505075159 1:0.56389849 2:0.75303242 3:0.59203639 4:0.70943308 5:0.41176471 6:0.58823529 7:0.41176471 8:0.22222222 9:0.22222222 10:0.4 11:0.16666667 13:0.2 14:0.18181818 15:0.55555556 16:0.28571429 17:0.42857143 18:0.25 19:0.11111111 20:0.11111111 22:0.375 26:0.16666667 27:0.25 30:0.4 31:0.2 32:0.25 37:0.25 38:0.125 41:0.2 42:0.4 44:0.5 45:0.16666667 46:0.25 47:0.25 49:0.25 52:0.5 55:0.25 56:0.25 59:0.25 63:0.25 65:0.5 72:0.63157895 75:1 78:1 80:1 83:1 86:1 88:1 98:1 103:1 107:1 113:1 116:1 122:1 131:1 135:1 145:1 148:1 163:1 168:1 
1.215472977762068 1:0.6443844 2:0.54747531 3:0.71411512 4:0.72086668 5:0.41176471 6:0.35294118 7:0.70588235 8:0.16666667 9:0.11111111 10:0.1 11:0.66666667 13:0.2 14:0.18181818 15:0.22222222 16:0.14285714 17:0.42857143 18:0.25 19:0.55555556 20:0.22222222 22:0.25 23:0.11111111 27:0.25 31:0.2 34:0.25 39:0.5 41:0.2 42:0.2 43:0.25 46:0.25 47:0.25 50:0.33333333 52:0.25 53:0.25 55:0.5 56:0.5 57:0.2 59:0.5 63:0.25 64:0.25 72:0.68421053 76:1 78:1 79:1 80:1 83:1 86:1 88:1 90:1 94:1 98:1 104:1 109:1 118:1 126:1 135:1 137:1 
2 1:0.86189425 2:0.2883447 3:0.75625742 4:0.77310089 5:0.29411765 6:0.64705882 7:0.52941176 8:0.16666667 9:0.11111111 10:0.2 11:0.16666667 12:0.14285714 13:0.2 14:0.45454545 15:0.44444444 16:0.14285714 17:0.28571429 18:0.375 19:0.22222222 20:0.11111111 22:0.25 23:0.11111111 26:0.16666667 29:0.28571429 35:0.25 37:0.25 40:0.33333333 42:0.4 43:0.25 45:0.16666667 46:0.25 47:0.25 50:0.33333333 52:0.25 53:0.25 55:0.5 56:0.25 59:0.25 64:0.25 65:0.25 66:0.2 72:0.78947368 74:1 76:1 78:1 80:1 84:1 86:1 88:1 90:1 93:1 95:1 97:1 103:1 109:1 114:1 119:1 120:1 123:1 129:1 135:1 137:1 149:1 159:1 166:1 
0.9262756022836659 1:0.38667873 2:0.56348231 3:0.50282817 4:0.53722866 5:0.41176471 6:0.52941176 7:0.41176471 8:0.27777778 9:0.11111111 10:0.4 11:0.33333333 13:0.2 14:0.27272727 15:0.22222222 16:0.28571429 17:0.42857143 18:0.125 19:0.11111111 20:0.22222222 21:0.14285714 22:0.25 23:0.11111111 24:0.1 26:0.16666667 30:0.4 32:0.25 37:0.25 38:0.125 41:0.2 42:0.4 43:0.25 44:0.25 47:0.25 48:0.33333333 51:0.25 52:0.5 53:0.25 56:0.25 59:0.25 62:0.33333333 64:0.5 69:0.33333333 72:0.57894737 74:1 78:1 81:1 83:1 85:1 87:1 92:1 99:1 102:1 107:1 110:1 111:1 114:1 118:1 124:1 125:1 128:1 134:1 169:1 
2 1:0.43316515 2:0.35212137 3:0.5038825 4:0.40082772 5:0.058823529 6:0.17647059 7:0.64705882 8:0.72222222 10:0.1 14:0.18181818 16:0.14285714 17:0.14285714 19:0.33333333 20:0.77777778 22:0.125 23:0.77777778 24:0.5 30:0.2 43:0.25 49:0.25 52:0.25 56:0.25 58:0.4 60:0.75 64:0.25 66:0.6 67:0.66666667 70:0.75 71:0.28571429 72:0.47368421 74:1 79:1 81:1 84:1 86:1 94:1 99:1 100:1 104:1 110:1 112:1 114:1 116:1 120:1 128:1 132:1 141:1 142:1 160:1 165:1 
2 1:0.46632369 2:0.67042541 3:0.42214227 4:0.55809427 5:0.35294118 6:0.52941176 7:0.47058824 8:0.27777778 10:0.4 11:0.33333333 13:0.4 14:0.27272727 16:0.42857143 17:0.28571429 18:0.125 19:0.33333333 20:0.11111111 22:0.25 23:0.22222222 24:0.1 29:0.14285714 30:0.4 32:0.25 38:0.25 39:0.5 41:0.4 43:0.25 49:0.25 50:0.66666667 52:0.5 56:0.25 60:0.25 63:0.25 64:0.25 66:0.2 67:0.16666667 69:0.33333333 72:0.63157895 74:1 76:1 81:1 85:1 87:1 91:1 101:1 103:1 108:1 115:1 117:1 122:1 126:1 129:1 134:1 161:1 
2 1:0.36591927 2:0.34392851 3:0.6443844 4:0.62305851 5:0.52941176 6:0.41176471 7:0.58823529 8:0.11111111 9:0.22222222 10:0.3 11:0.33333333 12:0.14285714 13:0.2 14:0.27272727 15:0.22222222 16:0.14285714 17:0.57142857 18:0.125 19:0.55555556 21:0.14285714 23:0.11111111 25:0.2 26:0.16666667 29:0.14285714 30:0.4 33:0.25 38:0.125 39:0.25 41:0.2 42:0.4 43:0.25 46:0.5 50:0.33333333 53:0.25 54:0.25 55:0.25 56:0.75 57:0.2 61:0.33333333 66:0.2 72:0.63157895 73:1 81:1 82:1 85:1 89:1 97:1 101:1 103:1 111:1 114:1 118:1 124:1 126:1 149:1 152:1 156:1 
0.0398968404665306 1:0.55697137 2:0.627192 3:0.32296893 4:0.45619231 5:0.52941176 6:0.35294118 7:0.35294118 8:0.38888889 9:0.22222222 10:0.3 11:0.16666667 12:0.42857143 13:0.2 15:0.44444444 16:0.14285714 17:0.57142857 20:0.22222222 22:0.5 23:0.11111111 24:0.1 25:0.2 26:0.16666667 30:0.2 31:0.2 32:0.25 34:0.25 35:0.25 37:0.25 38:0.125 42:0.2 44:0.75 47:0.25 49:0.25 52:0.25 53:0.25 54:0.5 59:0.25 60:0.25 63:0.5 65:0.5 69:0.33333333 72:0.36842105 78:1 80:1 84:1 90:1 92:1 95:1 99:1 100:1 104:1 108:1 110:1 116:1 124:1 125:1 162:1 168:1 
2 1:0.42141644 2:0.64496164 3:0.42214227 4:0.43019985 5:0.17647059 6:0.35294118 7:0.41176471 8:0.66666667 10:0.1 12:0.28571429 13:0.2 14:0.090909091 15:0.22222222 16:0.28571429 17:0.14285714 18:0.125 20:0.44444444 22:0.5 23:0.55555556 24:0.3 30:0.2 35:0.5 38:0.125 40:0.33333333 43:0.25 45:0.16666667 47:0.25 50:0.66666667 54:0.25 59:0.5 60:0.5 63:0.5 65:0.25 67:0.5 70:0.5 71:0.14285714 72:0.42105263 75:1 84:1 92:1 98:1 104:1 108:1 110:1 112:1 115:1 117:1 123:1 127:1 129:1 
1.404372944535453 1:0.38416511 2:0.56333625 3:0.77120049 4:0.61714 5:0.11764706 6:0.47058824 7:0.52941176 8:0.5 10:0.2 13:0.1 14:0.18181818 15:0.44444444 16:0.14285714 17:0.14285714 18:0.25 19:0.11111111 20:0.55555556 22:0.375 23:0.33333333 24:0.3 30:0.2 38:0.125 42:0.2 43:0.25 44:0.25 47:0.75 50:0.33333333 52:0.25 59:0.75 60:0.5 63:0.25 64:0.25 65:0.25 66:0.2 67:0.33333333 70:0.5 71:0.14285714 72:0.63157895 74:1 78:1 79:1 84:1 86:1 90:1 92:1 104:1 107:1 113:1 118:1 121:1 124:1 125:1 128:1 133:1 170:1 
1.50444999123555 1:0.64478638 2:0.35722175 3:0.41846411 4:0.53649263 5:0.35294118 6:0.41176471 7:0.47058824 8:0.38888889 9:0.22222222 10:0.2 11:0.33333333 13:0.1 14:0.18181818 15:0.22222222 16:0.42857143 17:0.14285714 18:0.25 19:0.33333333 20:0.22222222 21:0.28571429 22:0.25 24:0.2 26:0.16666667 27:0.25 30:0.2 32:0.25 34:0.25 37:0.25 41:0.2 42:0.2 44:0.25 45:0.16666667 48:0.33333333 51:0.25 53:0.25 57:0.2 58:0.2 59:0.25 60:0.25 61:0.33333333 64:0.25 65:0.25 68:0.25 69:0.33333333 72:0.52631579 74:1 79:1 82:1 89:1 93:1 98:1 103:1 107:1 111:1 114:1 119:1 120:1 124:1 148:1 166:1 
0.0877500440715278 1:0.57813359 2:0.57723111 3:0.61370245 4:0.47551433 5:0.41176471 6:0.35294118 7:0.47058824 8:0.38888889 9:0.22222222 10:0.4 13:0.2 15:0.22222222 16:0.42857143 17:0.28571429 18:0.25 19:0.22222222 20:0.22222222 21:0.14285714 22:0.125 23:0.33333333 24:0.2 26:0.16666667 29:0.14285714 30:0.2 31:0.2 32:0.25 37:0.25 38:0.125 43:0.25 44:0.25 46:0.25 48:0.33333333 50:0.33333333 51:0.25 52:0.5 58:0.2 60:0.25 65:0.25 66:0.2 69:0.33333333 70:0.25 72:0.47368421 74:1 78:1 82:1 88:1 92:1 94:1 99:1 100:1 101:1 105:1 108:1 109:1 112:1 117:1 125:1 138:1 140:1 144:1 155:1 
1.266450405193772 1:0.5038825 2:0.17503531 3:0.51437189 4:0.34444285 5:0.35294118 6:0.47058824 7:0.23529412 8:0.55555556 9:0.11111111 10:0.2 11:0.16666667 12:0.14285714 13:0.4 14:0.18181818 16:0.42857143 19:0.11111111 20:0.33333333 21:0.14285714 22:0.5 23:0.22222222 24:0.3 28:0.33333333 29:0.14285714 32:0.25 34:0.25 36:0.33333333 37:0.25 38:0.25 43:0.5 49:0.25 50:0.33333333 51:0.25 58:0.2 59:0.5 60:0.25 62:0.33333333 63:0.5 64:0.5 66:0.2 67:0.16666667 68:0.25 69:0.33333333 70:0.25 72:0.36842105 73:1 76:1 80:1 84:1 86:1 88:1 89:1 93:1 96:1 98:1 104:1 108:1 109:1 113:1 119:1 121:1 130:1 135:1 136:1 164:1 
2 1:0.26435576 2:0.29583477 3:0.45756604 4:0.17044885 5:0.64705882 6:0.35294118 7:0.11764706 8:0.5 9:0.22222222 10:0.2 12:0.85714286 13:0.4 14:0.18181818 15:0.11111111 17:0.14285714 20:0.11111111 21:0.42857143 22:0.375 23:0.11111111 24:0.2 28:0.66666667 30:0.2 31:0.2 35:0.75 37:0.25 38:0.125 40:0.66666667 41:0.6 47:0.25 60:0.25 61:0.33333333 63:0.25 64:0.5 68:0.25 71:0.14285714 72:0.15789474 77:1 81:1 84:1 91:1 95:1 99:1 105:1 111:1 115:1 117:1 122:1 127:1 132:1 158:1 
2 1:0.55697137 2:0.71873253 3:0.40670149 4:0.68533113 5:0.41176471 6:0.58823529 7:0.47058824 8:0.16666667 9:0.44444444 10:0.3 13:0.3 14:0.27272727 15:0.44444444 16:0.14285714 18:0.25 19:0.44444444 20:0.11111111 22:0.25 24:0.1 25:0.4 26:0.33333333 29:0.14285714 30:0.2 31:0.2 37:0.5 38:0.125 41:0.2 42:0.4 46:1 49:0.25 58:0.2 60:0.25 64:0.5 69:0.33333333 72:0.68421053 73:1 78:1 82:1 85:1 87:1 89:1 94:1 96:1 100:1 105:1 108:1 109:1 116:1 123:1 126:1 129:1 134:1 162:1 168:1 
2 1:0.61054367 2:0.41115224 3:0.480906 4:0.63121206 5:0.17647059 6:0.29411765 7:0.70588235 8:0.44444444 9:0.11111111 11:0.33333333 14:0.18181818 15:0.22222222 16:0.28571429 17:0.28571429 18:0.25 19:0.33333333 20:0.55555556 22:0.25 23:0.44444444 24:0.1 27:0.25 34:0.25 42:0.2 43:0.25 44:0.25 47:0.25 50:0.33333333 51:0.25 53:0.25 55:0.5 57:0.2 58:0.2 59:0.5 65:0.25 66:0.2 67:0.33333333 72:0.63157895 74:1 85:1 88:1 89:1 93:1 98:1 100:1 103:1 108:1 114:1 118:1 123:1 127:1 136:1 142:1 
1.463534644314341 1:0.39310349 2:0.27292129 3:0.45756604 4:0.33514936 5:0.41176471 6:0.29411765 7:0.35294118 8:0.55555556 9:0.22222222 10:0.2 12:0.42857143 13:0.1 14:0.090909091 15:0.11111111 16:0.28571429 17:0.42857143 18:0.125 19:0.11111111 20:0.11111111 21:0.14285714 22:0.25 23:0.44444444 24:0.3 26:0.16666667 28:0.33333333 30:0.2 35:0.25 40:0.33333333 41:0.2 42:0.2 44:0.25 48:0.33333333 49:0.25 52:0.25 54:0.25 64:0.25 66:0.2 67:0.16666667 70:0.25 71:0.28571429 72:0.31578947 75:1 79:1 81:1 91:1 96:1 98:1 105:1 111:1 115:1 117:1 121:1 124:1 125:1 128:1 158:1 
0.5102302524126791 1:0.42622728 2:0.49530931 3:0.59203639 4:0.43318076 5:0.52941176 6:0.23529412 7:0.52941176 8:0.33333333 9:0.33333333 10:0.2 11:0.5 13:0.2 15:0.22222222 16:0.14285714 17:0.42857143 18:0.125 19:0.11111111 20:0.44444444 21:0.14285714 22:0.25 23:0.22222222 24:0.1 25:0.2 27:0.5 29:0.14285714 30:0.2 33:0.25 34:0.5 37:0.5 42:0.2 46:0.25 47:0.25 49:0.25 52:0.25 53:0.25 56:0.25 59:0.25 60:0.25 61:0.33333333 63:0.25 65:0.25 68:0.25 72:0.42105263 74:1 80:1 82:1 85:1 88:1 90:1 92:1 94:1 96:1 104:1 108:1 109:1 112:1 115:1 118:1 124:1 126:1 155:1 167:1 169:1 
2 1:0.68585655 2:0.18905107 3:0.53701896 4:0.41494697 5:0.47058824 6:0.29411765 7:0.41176471 8:0.44444444 9:0.22222222 10:0.1 11:0.33333333 12:0.28571429 13:0.3 14:0.090909091 15:0.11111111 16:0.14285714 17:0.14285714 18:0.25 19:0.22222222 20:0.22222222 21:0.14285714 22:0.25 23:0.22222222 24:0.3 25:0.2 28:0.33333333 29:0.14285714 34:0.25 35:0.25 36:0.33333333 38:0.125 39:0.25 41:0.2 43:0.25 47:0.25 51:0.25 53:0.25 55:0.25 57:0.2 60:0.25 63:0.25 64:0.25 69:0.33333333 70:0.5 72:0.36842105 76:1 77:1 79:1 80:1 83:1 89:1 96:1 99:1 105:1 108:1 109:1 111:1 114:1 118:1 122:1 139:1 140:1 
0.395704898857108 1:0.50195615 2:0.35855076 3:0.70626748 4:0.6584049 5:0.17647059 6:0.29411765 7:0.76470588 8:0.38888889 9:0.11111111 10:0.2 14:0.18181818 15:0.22222222 16:0.14285714 17:0.14285714 18:0.25 19:0.77777778 20:0.33333333 21:0.14285714 23:0.44444444 24:0.2 26:0.16666667 30:0.4 42:0.2 43:0.25 44:0.25 46:0.25 50:0.33333333 57:0.6 58:0.6 60:0.25 61:0.33333333 66:0.6 70:0.5 72:0.68421053 75:1 78:1 81:1 90:1 100:1 105:1 109:1 112:1 116:1 120:1 124:1 126:1 128:1 137:1 155:1 162:1 
0.1002272683313765 1:0.34415133 2:0.33128241 3:0.64440919 4:0.47896178 5:0.35294118 6:0.52941176 7:0.29411765 8:0.44444444 9:0.11111111 11:0.33333333 12:0.42857143 13:0.3 14:0.36363636 15:0.11111111 16:0.28571429 17:0.14285714 18:0.125 19:0.11111111 20:0.11111111 21:0.14285714 22:0.625 23:0.11111111 24:0.1 27:0.25 34:0.25 35:0.5 39:0.25 40:0.66666667 41:0.2 43:0.25 45:0.16666667 49:0.25 51:0.25 54:0.25 55:0.25 56:0.25 59:0.25 63:0.5 64:0.25 65:0.25 70:0.25 72:0.47368421 75:1 80:1 82:1 86:1 88:1 93:1 96:1 101:1 102:1 108:1 109:1 113:1 118:1 120:1 127:1 129:1 131:1 135:1 143:1 
2 1:0.38667873 2:0.35359197 3:0.56389849 4:0.29992121 5:0.64705882 6:0.058823529 7:0.52941176 8:0.38888889 9:0.55555556 11:0.83333333 12:0.14285714 16:0.14285714 17:0.57142857 19:0.22222222 20:0.33333333 21:0.14285714 22:0.25 23:0.22222222 24:0.2 25:0.2 27:1 33:0.75 43:0.25 51:0.25 53:0.25 58:0.4 59:0.25 60:0.25 64:0.25 67:0.16666667 69:0.33333333 70:0.25 72:0.26315789 77:1 85:1 90:1 92:1 94:1 96:1 98:1 102:1 111:1 114:1 118:1 121:1 127:1 128:1 170:1 
0.7136894151605275 1:0.4651083 2:0.45601813 3:0.4359805 4:0.37342907 5:0.47058824 6:0.29411765 7:0.35294118 8:0.5 9:0.33333333 10:0.1 11:0.5 12:0.14285714 13:0.2 14:0.090909091 16:0.42857143 17:0.42857143 19:0.11111111 20:0.22222222 22:0.5 23:0.22222222 24:0.2 27:0.5 28:0.33333333 32:0.25 33:0.5 35:0.25 37:0.25 38:0.125 41:0.2 43:0.25 49:0.25 51:0.25 53:0.25 58:0.2 59:0.25 60:0.25 63:0.25 64:0.5 67:0.16666667 69:0.33333333 70:0.25 72:0.31578947 75:1 79:1 81:1 82:1 85:1 88:1 90:1 93:1 99:1 105:1 107:1 111:1 115:1 117:1 121:1 122:1 158:1 
2 1:0.61358266 2:0.26992101 3:0.50033308 4:0.40208452 5:0.41176471 6:0.41176471 7:0.29411765 8:0.5 9:0.22222222 10:0.1 11:0.5 12:0.14285714 13:0.2 14:0.18181818 16:0.57142857 17:0.28571429 19:0.11111111 20:0.11111111 22:0.625 23:0.11111111 24:0.3 27:0.25 28:0.33333333 32:0.25 33:0.5 35:0.25 37:0.25 38:0.125 41:0.2 43:0.5 49:0.25 51:0.75 53:0.25 58:0.2 59:0.25 63:0.25 64:0.75 69:0.66666667 70:0.25 72:0.36842105 77:1 82:1 86:1 88:1 89:1 91:1 97:1 101:1 105:1 107:1 109:1 111:1 113:1 119:1 121:1 127:1 129:1 135:1 136:1 143:1 144:1 151:1 164:1 
2 1:0.38667873 2:0.4596084 3:0.67433756 4:0.50993156 5:0.47058824 6:0.23529412 7:0.64705882 8:0.27777778 9:0.11111111 10:0.4 11:0.5 13:0.1 15:0.22222222 16:0.14285714 17:0.57142857 19:0.44444444 20:0.33333333 21:0.14285714 22:0.125 23:0.22222222 24:0.1 27:0.25 30:0.2 31:0.4 33:0.25 39:0.25 43:0.25 46:0.5 48:0.33333333 52:0.5 53:0.25 56:0.25 58:0.6 60:0.25 61:0.33333333 63:0.25 69:0.33333333 72:0.52631579 78:1 85:1 88:1 92:1 98:1 102:1 107:1 112:1 115:1 118:1 125:1 128:1 167:1 169:1 
2 1:0.52479099 2:0.4346799 3:0.34415133 4:0.46519645 5:0.23529412 6:0.41176471 7:0.41176471 8:0.55555556 9:0.11111111 11:0.16666667 12:0.28571429 13:0.2 14:0.18181818 15:0.11111111 16:0.28571429 18:0.375 19:0.22222222 20:0.22222222 21:0.14285714 22:0.375 23:0.22222222 24:0.4 27:0.25 35:0.5 37:0.25 40:0.33333333 41:0.2 42:0.2 43:0.25 45:0.16666667 50:0.33333333 51:0.25 55:0.5 58:0.4 60:0.5 64:0.25 66:0.2 68:0.25 69:0.33333333 70:0.25 71:0.14285714 72:0.47368421 74:1 77:1 81:1 90:1 91:1 98:1 101:1 105:1 108:1 113:1 117:1 122:1 127:1 128:1 143:1 144:1 
2 1:0.24243179 2:0.78942846 3:0.35681947 4:0.64512456 5:0.41176471 6:0.64705882 7:0.35294118 8:0.22222222 9:0.22222222 10:0.3 12:0.28571429 13:0.2 14:0.27272727 15:0.55555556 16:0.14285714 17:0.28571429 18:0.5 21:0.14285714 22:0.125 23:0.11111111 24:0.1 25:0.2 26:0.16666667 29:0.28571429 30:0.2 35:0.25 36:0.33333333 38:0.125 40:0.33333333 42:0.2 43:0.25 44:0.5 45:0.5 48:0.33333333 54:0.25 55:0.25 61:0.33333333 65:0.25 70:0.25 72:0.63157895 73:1 82:1 85:1 87:1 92:1 94:1 97:1 103:1 107:1 110:1 111:1 113:1 116:1 120:1 123:1 126:1 128:1 134:1 145:1 148:1 163:1 
1.526657540771967 1:0.93095184 2:0.2102515 3:0.61841691 4:0.46791738 5:0.47058824 6:0.47058824 7:0.29411765 8:0.38888889 9:0.22222222 10:0.3 12:0.42857143 13:0.2 14:0.090909091 15:0.44444444 16:0.14285714 17:0.28571429 18:0.375 21:0.28571429 22:0.25 23:0.11111111 24:0.2 25:0.2 26:0.16666667 29:0.14285714 30:0.2 35:0.25 36:0.66666667 40:0.66666667 42:0.2 43:0.25 44:0.5 45:0.33333333 48:0.33333333 54:0.25 55:0.25 61:0.66666667 63:0.25 65:0.25 68:0.25 70:0.25 72:0.42105263 75:1 77:1 79:1 82:1 87:1 89:1 93:1 95:1 104:1 107:1 111:1 115:1 117:1 125:1 128:1 131:1 156:1 158:1 
2 1:0.45557556 2:0.45717478 3:0.49221141 4:0.55184188 5:0.29411765 6:0.58823529 7:0.35294118 8:0.38888889 9:0.22222222 10:0.1 11:0.16666667 12:0.14285714 13:0.3 14:0.36363636 15:0.22222222 16:0.14285714 18:0.25 20:0.44444444 22:0.5 23:0.22222222 24:0.1 26:0.16666667 27:0.25 29:0.14285714 34:0.25 37:0.5 40:0.33333333 41:0.2 42:0.2 43:0.25 45:0.16666667 47:0.25 49:0.25 55:0.5 59:0.75 60:0.25 63:0.25 64:0.25 65:0.25 67:0.16666667 70:0.25 72:0.57894737 74:1 80:1 83:1 95:1 98:1 103:1 107:1 109:1 111:1 115:1 118:1 121:1 124:1 127:1 128:1 145:1 148:1 151:1 158:1 167:1 170:1 
0.5018940050205271 1:0.57417768 2:0.59674231 3:0.50033308 4:0.63851063 5:0.23529412 6:0.52941176 7:0.52941176 8:0.33333333 10:0.1 11:0.16666667 12:0.28571429 13:0.3 14:0.27272727 15:0.44444444 18:0.25 19:0.22222222 20:0.44444444 21:0.14285714 22:0.375 23:0.22222222 31:0.2 34:0.25 35:0.25 38:0.125 39:0.25 40:0.33333333 41:0.4 42:0.2 45:0.16666667 47:0.5 55:0.25 57:0.2 59:0.5 63:0.25 64:0.25 65:0.25 66:0.2 67:0.16666667 72:0.68421053 73:1 87:1 90:1 92:1 98:1 103:1 106:1 114:1 118:1 122:1 129:1 147:1 
1.327604108565266 1:0.3836975 2:0.44777444 3:0.47440926 4:0.55325721 5:0.17647059 6:0.47058824 7:0.47058824 8:0.5 11:0.16666667 12:0.28571429 14:0.27272727 15:0.11111111 16:0.71428571 17:0.14285714 18:0.25 19:0.44444444 21:0.28571429 22:0.5 23:0.11111111 24:0.2 33:0.25 35:0.25 36:0.33333333 43:0.75 48:0.66666667 49:0.5 51:0.25 54:0.25 55:0.5 57:0.4 62:0.33333333 64:0.25 65:0.25 66:0.2 69:0.33333333 70:0.25 72:0.57894737 74:1 78:1 80:1 84:1 85:1 90:1 94:1 99:1 100:1 105:1 107:1 110:1 113:1 119:1 120:1 129:1 137:1 138:1 157:1 164:1 
2 1:0.61054367 2:0.82289536 3:0.53701896 4:0.74484446 5:0.17647059 6:0.64705882 7:0.47058824 8:0.33333333 10:0.2 11:0.16666667 13:0.1 14:0.36363636 15:0.33333333 16:0.57142857 17:0.28571429 18:0.25 19:0.22222222 20:0.11111111 22:0.5 23:0.22222222 30:0.2 31:0.2 33:0.25 39:0.25 43:1 45:0.33333333 46:0.25 49:0.5 50:0.66666667 52:0.5 55:0.25 58:0.2 59:0.25 63:0.25 64:0.5 65:0.25 66:0.2 72:0.73684211 75:1 83:1 85:1 88:1 89:1 99:1 100:1 101:1 103:1 108:1 109:1 115:1 118:1 126:1 129:1 131:1 167:1 169:1 
0.9660707914539119 1:0.69503483 2:0.35597644 3:0.61054367 4:0.64474349 5:0.41176471 6:0.58823529 7:0.41176471 8:0.22222222 10:0.3 11:0.5 13:0.2 14:0.36363636 15:0.44444444 16:0.14285714 17:0.57142857 18:0.125 20:0.22222222 21:0.14285714 22:0.25 24:0.1 30:0.2 31:0.4 33:0.5 34:0.25 39:0.25 41:0.2 42:0.2 43:0.25 44:0.5 45:0.16666667 47:0.25 49:0.25 52:0.75 53:0.25 55:0.25 59:0.25 60:0.25 62:0.33333333 63:0.25 64:0.25 68:0.25 72:0.63157895 73:1 80:1 82:1 86:1 89:1 93:1 99:1 102:1 107:1 111:1 114:1 119:1 120:1 141:1 156:1 166:1 
0.9882914442404875 1:0.61358266 2:0.44612346 3:0.50033308 4:0.50661847 5:0.41176471 6:0.41176471 7:0.47058824 8:0.33333333 10:0.3 11:0.33333333 12:0.28571429 13:0.2 14:0.27272727 15:0.11111111 16:0.28571429 17:0.57142857 18:0.125 19:0.22222222 20:0.11111111 21:0.14285714 22:0.125 23:0.22222222 24:0.1 29:0.14285714 30:0.2 32:0.25 34:0.25 38:0.125 40:0.33333333 41:0.2 42:0.2 43:0.25 44:0.25 48:0.33333333 51:0.25 52:0.5 53:0.25 54:0.25 55:0.25 56:0.25 57:0.2 62:0.33333333 64:0.25 66:0.2 69:0.33333333 72:0.52631579 74:1 76:1 86:1 88:1 89:1 91:1 99:1 103:1 107:1 109:1 111:1 113:1 119:1 121:1 124:1 125:1 135:1 140:1 145:1 148:1 151:1 164:1 
2 1:0.83174277 2:0.61483244 3:0.42214227 4:0.593045 5:0.52941176 6:0.58823529 7:0.41176471 8:0.11111111 9:0.33333333 10:0.6 13:0.4 14:0.18181818 15:0.33333333 16:0.14285714 17:0.28571429 18:0.125 19:0.33333333 20:0.11111111 22:0.125 23:0.11111111 26:0.5 29:0.28571429 30:0.6 31:0.2 37:0.5 38:0.25 41:0.2 42:0.2 45:0.16666667 46:0.5 49:0.25 52:0.25 56:0.5 58:0.2 63:0.25 66:0.2 72:0.63157895 73:1 83:1 85:1 87:1 89:1 94:1 98:1 101:1 104:1 111:1 113:1 116:1 122:1 128:1 134:1 163:1 168:1 
0.8474540379284113 1:0.480906 2:0.39227449 3:0.61358266 4:0.57049358 5:0.17647059 6:0.35294118 7:0.58823529 8:0.5 10:0.1 12:0.28571429 13:0.2 14:0.18181818 15:0.33333333 18:0.125 19:0.33333333 20:0.55555556 22:0.375 23:0.44444444 24:0.2 30:0.2 35:0.25 38:0.125 40:0.33333333 41:0.2 42:0.4 45:0.16666667 46:0.25 58:0.6 59:0.25 60:0.5 63:0.25 64:0.5 66:0.4 67:0.33333333 69:0.33333333 70:0.25 72:0.57894737 88:1 94:1 96:1 98:1 101:1 103:1 113:1 117:1 124:1 129:1 143:1 149:1 152:1 
0.2651763242605374 1:0.51486649 2:0.43256137 3:0.43316515 4:0.32039984 5:1 6:0.41176471 7:0.17647059 8:0.055555556 9:0.88888889 10:0.4 11:0.5 12:0.14285714 13:0.6 14:0.18181818 17:0.28571429 18:0.125 22:0.125 25:0.8 26:0.33333333 27:0.25 28:0.33333333 29:0.28571429 30:0.4 33:0.5 35:0.25 37:0.5 38:0.25 39:0.25 41:0.4 53:0.25 63:0.25 72:0.26315789 76:1 77:1 83:1 85:1 88:1 94:1 97:1 101:1 103:1 107:1 111:1 117:1 122:1 148:1 
2 1:0.68751143 2:0.14485647 3:0.61321882 4:0.27913932 5:0.64705882 6:0.29411765 7:0.29411765 8:0.38888889 9:0.33333333 10:0.2 11:0.16666667 12:0.71428571 13:0.2 14:0.090909091 15:0.22222222 16:0.14285714 17:0.28571429 18:0.125 19:0.11111111 21:0.42857143 22:0.25 23:0.11111111 24:0.1 25:0.2 26:0.16666667 27:0.25 29:0.14285714 30:0.2 35:0.25 36:0.33333333 37:0.25 40:0.33333333 41:0.2 42:0.2 44:0.25 46:0.25 49:0.25 54:0.25 56:0.25 61:0.33333333 64:0.25 70:0.25 72:0.26315789 77:1 84:1 88:1 90:1 96:1 97:1 103:1 107:1 112:1 116:1 122:1 125:1 129:1 148:1 162:1 168:1 
2 1:0.43895028 2:0.13351981 3:0.28178205 4:0.1498617 5:0.76470588 6:0.23529412 7:0.23529412 8:0.38888889 9:0.44444444 10:0.2 11:0.16666667 12:0.71428571 13:0.3 15:0.11111111 16:0.14285714 17:0.28571429 18:0.125 20:0.11111111 21:0.57142857 22:0.25 23:0.11111111 25:0.2 26:0.33333333 28:0.33333333 29:0.14285714 30:0.2 33:0.25 35:0.25 37:0.5 43:0.25 45:0.16666667 49:0.25 53:0.25 54:0.25 63:0.25 65:0.25 67:0.16666667 72:0.15789474 74:1 76:1 78:1 82:1 89:1 95:1 99:1 105:1 106:1 116:1 140:1 153:1 162:1 168:1 
2 1:0.61321882 2:0.28524345 3:0.50282817 4:0.36049141 5:0.76470588 6:0.41176471 7:0.23529412 8:0.22222222 9:0.77777778 10:0.5 11:0.16666667 13:0.3 14:0.18181818 15:0.11111111 16:0.28571429 17:0.14285714 19:0.22222222 20:0.11111111 21:0.14285714 22:0.125 24:0.1 25:0.6 26:0.66666667 29:0.42857143 30:0.2 31:0.2 37:0.5 38:0.125 43:0.5 46:0.25 48:0.33333333 51:0.25 56:0.25 58:0.2 59:0.25 62:0.33333333 64:0.25 72:0.31578947 76:1 77:1 82:1 88:1 93:1 95:1 103:1 107:1 110:1 111:1 114:1 118:1 121:1 123:1 127:1 148:1 170:1 
2 1:0.48798757 2:0.49644387 3:0.67433756 4:0.50885853 5:0.35294118 6:0.52941176 7:0.29411765 8:0.44444444 9:0.22222222 10:0.3 13:0.1 14:0.27272727 15:0.33333333 16:0.42857143 17:0.14285714 20:0.44444444 21:0.14285714 22:0.5 23:0.22222222 24:0.1 25:0.2 26:0.16666667 30:0.2 31:0.2 32:0.25 38:0.125 41:0.2 42:0.2 43:0.25 44:0.25 47:0.5 49:0.75 52:0.25 59:0.25 60:0.25 64:0.5 65:0.25 67:0.33333333 70:0.25 72:0.47368421 76:1 77:1 83:1 87:1 92:1 94:1 99:1 101:1 105:1 107:1 109:1 111:1 113:1 118:1 124:1 127:1 144:1 151:1 169:1 
2 1:0.42622728 2:0.35473634 3:0.42709758 4:0.38147343 5:0.70588235 6:0.35294118 7:0.29411765 8:0.27777778 9:0.44444444 10:0.3 11:0.5 12:0.14285714 13:0.4 14:0.090909091 15:0.11111111 16:0.14285714 17:0.42857143 19:0.11111111 20:0.11111111 22:0.375 24:0.2 26:0.16666667 27:0.25 28:0.33333333 29:0.28571429 31:0.2 33:0.25 34:0.25 35:0.25 37:0.75 38:0.125 41:0.2 44:0.25 49:0.25 53:0.5 56:0.25 60:0.25 63:0.25 64:0.25 69:0.33333333 71:0.14285714 72:0.31578947 77:1 80:1 85:1 88:1 90:1 92:1 99:1 101:1 102:1 106:1 112:1 116:1 121:1 123:1 125:1 138:1 146:1 162:1 
2 1:0.59203639 2:0.53918403 3:0.49057405 4:0.55315664 5:0.23529412 6:0.23529412 7:0.70588235 8:0.44444444 10:0.3 12:0.14285714 14:0.090909091 15:0.33333333 16:0.14285714 17:0.57142857 19:0.44444444 20:0.33333333 22:0.125 23:0.44444444 24:0.3 30:0.2 31:0.4 36:0.33333333 42:0.2 43:0.25 44:0.25 47:0.5 51:0.25 52:0.75 54:0.25 56:0.5 57:0.2 58:0.2 60:0.25 64:0.25 66:0.4 69:0.33333333 70:0.5 72:0.57894737 74:1 77:1 81:1 82:1 88:1 90:1 99:1 100:1 105:1 112:1 119:1 121:1 127:1 129:1 136:1 140:1 142:1 152:1 
0.4313786988651344 1:0.22375955 2:0.5536151 3:0.55697137 4:0.44775196 5:0.47058824 6:0.41176471 7:0.41176471 8:0.33333333 9:0.11111111 10:0.5 12:0.28571429 13:0.1 14:0.27272727 15:0.33333333 16:0.14285714 17:0.42857143 19:0.11111111 20:0.22222222 21:0.28571429 23:0.33333333 24:0.1 28:0.33333333 30:0.6 31:0.4 37:0.25 41:0.2 42:0.2 43:0.25 44:0.25 47:0.5 51:0.25 52:0.75 56:0.25 61:0.66666667 66:0.2 70:0.25 72:0.47368421 77:1 80:1 83:1 85:1 91:1 96:1 98:1 101:1 104:1 106:1 109:1 112:1 115:1 118:1 124:1 127:1 129:1 150:1 155:1 167:1 169:1 
0.1126710286230986 1:0.45557556 2:0.47954101 3:0.77120049 4:0.63573018 5:0.29411765 6:0.41176471 7:0.52941176 8:0.38888889 9:0.11111111 10:0.1 11:0.5 13:0.2 14:0.090909091 15:0.33333333 16:0.28571429 17:0.14285714 18:0.25 19:0.22222222 20:0.44444444 22:0.5 23:0.11111111 24:0.1 27:0.25 29:0.14285714 33:0.25 34:0.25 37:0.25 39:0.25 42:0.2 43:0.25 47:0.75 49:0.25 52:0.25 55:0.25 57:0.2 59:0.75 60:0.25 63:0.25 64:0.25 65:0.25 66:0.2 70:0.25 72:0.57894737 81:1 84:1 90:1 99:1 100:1 104:1 107:1 113:1 118:1 121:1 132:1 141:1 170:1 
0.048174977097869 1:0.53613833 2:0.34335579 3:0.42214227 4:0.46839733 5:0.70588235 6:0.47058824 7:0.29411765 8:0.16666667 9:0.66666667 10:0.6 13:0.2 14:0.18181818 15:0.44444444 17:0.28571429 18:0.125 19:0.11111111 20:0.11111111 21:0.14285714 24:0.2 25:0.2 26:0.83333333 29:0.14285714 30:0.6 31:0.2 37:0.5 42:0.6 44:0.25 45:0.16666667 46:0.25 47:0.25 52:0.25 56:0.25 60:0.25 68:0.25 71:0.14285714 72:0.42105263 76:1 80:1 82:1 85:1 87:1 90:1 92:1 95:1 97:1 101:1 104:1 111:1 113:1 116:1 124:1 125:1 128:1 134:1 163:1 168:1 
2 1:0.80673839 2:0.54411474 3:0.51111903 4:0.69818982 5:0.35294118 6:0.29411765 7:0.76470588 8:0.22222222 9:0.11111111 10:0.1 11:0.5 12:0.14285714 13:0.1 14:0.090909091 15:0.22222222 16:0.14285714 17:0.42857143 18:0.5 19:0.55555556 20:0.11111111 23:0.33333333 24:0.1 26:0.16666667 29:0.14285714 40:0.33333333 42:0.2 44:0.25 45:0.16666667 50:0.33333333 53:0.75 55:0.5 56:0.25 57:0.2 58:0.2 60:0.25 66:0.4 70:0.25 72:0.68421053 76:1 86:1 87:1 97:1 100:1 102:1 115:1 118:1 124:1 128:1 152:1 161:1 167:1 
0.1589349498189344 1:0.60752713 2:0.95623265 3:0.38667873 4:0.6905816 5:0.23529412 6:0.64705882 7:0.41176471 8:0.33333333 9:0.11111111 10:0.2 13:0.2 14:0.36363636 15:0.22222222 16:0.57142857 17:0.14285714 18:0.375 19:0.22222222 20:0.11111111 22:0.375 23:0.22222222 24:0.1 26:0.16666667 30:0.2 32:0.25 37:0.25 41:0.2 42:0.2 43:0.5 46:0.5 49:0.75 50:0.33333333 52:0.25 55:0.5 60:0.25 63:0.25 64:0.25 67:0.16666667 70:0.25 72:0.68421053 74:1 76:1 79:1 80:1 84:1 86:1 90:1 91:1 100:1 101:1 103:1 106:1 113:1 119:1 120:1 147:1 153:1 164:1 
0.3624340777444663 1:0.78011255 2:0.47909798 3:0.93095184 4:0.71319696 5:0.23529412 6:0.58823529 7:0.52941176 8:0.27777778 9:0.11111111 10:0.3 13:0.2 14:0.18181818 15:0.33333333 16:0.42857143 17:0.14285714 18:0.625 19:0.22222222 20:0.11111111 22:0.125 23:0.33333333 24:0.1 26:0.16666667 32:0.5 37:0.25 38:0.125 41:0.4 42:0.2 44:0.25 46:0.5 49:0.25 50:0.66666667 52:0.25 55:0.75 60:0.25 67:0.16666667 70:0.25 72:0.73684211 74:1 80:1 84:1 86:1 87:1 91:1 96:1 98:1 103:1 107:1 112:1 113:1 118:1 122:1 125:1 128:1 145:1 148:1 
1.598643966318816 1:0.60477371 2:0.56873145 3:0.52267638 4:0.73496962 5:0.41176471 6:0.52941176 7:0.58823529 8:0.11111111 9:0.11111111 10:0.2 11:0.5 13:0.5 14:0.18181818 15:0.33333333 17:0.14285714 18:0.625 19:0.22222222 20:0.22222222 22:0.125 23:0.11111111 26:0.16666667 29:0.28571429 33:0.25 34:0.5 37:0.25 38:0.125 39:0.5 41:0.2 42:0.4 45:0.33333333 46:0.25 53:0.25 55:0.75 59:0.25 65:0.25 66:0.2 72:0.73684211 74:1 80:1 83:1 86:1 88:1 97:1 101:1 104:1 107:1 112:1 115:1 118:1 122:1 135:1 143:1 154:1 167:1 
2 1:0.32024583 2:0.50208581 3:0.52267638 4:0.48641057 5:0.23529412 6:0.47058824 7:0.35294118 8:0.55555556 10:0.2 12:0.28571429 13:0.3 14:0.27272727 15:0.11111111 16:0.28571429 18:0.25 19:0.22222222 20:0.22222222 21:0.14285714 22:0.25 23:0.33333333 24:0.3 30:0.2 32:0.25 36:0.33333333 38:0.25 40:0.33333333 41:0.4 42:0.2 47:0.25 50:0.33333333 55:0.25 59:0.25 64:0.25 66:0.4 67:0.16666667 69:0.33333333 70:0.25 71:0.14285714 72:0.47368421 75:1 78:1 80:1 82:1 87:1 96:1 105:1 107:1 110:1 112:1 115:1 118:1 122:1 167:1 
2 1:0.37999556 2:0.28354832 3:0.46632369 4:0.48295813 5:0.23529412 6:0.47058824 7:0.41176471 8:0.5 10:0.2 11:0.33333333 13:0.2 14:0.27272727 15:0.22222222 16:0.28571429 17:0.14285714 19:0.11111111 20:0.44444444 21:0.14285714 22:0.375 23:0.22222222 24:0.3 31:0.2 32:0.25 34:0.5 38:0.125 39:0.25 41:0.2 42:0.2 44:0.25 48:0.33333333 51:0.25 52:0.25 58:0.2 59:0.5 60:0.25 62:0.33333333 63:0.25 64:0.25 66:0.2 67:0.16666667 69:0.33333333 70:0.25 71:0.14285714 72:0.52631579 73:1 83:1 91:1 93:1 96:1 99:1 105:1 110:1 112:1 114:1 119:1 120:1 122:1 129:1 139:1 160:1 166:1 
1.484013313143328 1:0.4651083 2:0.36965847 3:0.45756604 4:0.32752942 5:0.52941176 6:0.23529412 7:0.35294118 8:0.5 9:0.22222222 11:0.83333333 12:0.28571429 13:0.1 16:0.42857143 17:0.71428571 20:0.11111111 22:0.625 23:0.11111111 24:0.3 27:0.5 33:1 34:0.25 35:0.25 36:0.33333333 40:0.33333333 41:0.2 49:0.5 51:0.25 53:0.5 54:0.25 60:0.25 64:0.25 69:0.66666667 70:0.25 72:0.26315789 77:1 81:1 82:1 85:1 88:1 90:1 94:1 96:1 105:1 115:1 117:1 121:1 122:1 127:1 128:1 161:1 
2 1:0.41423286 2:0.45601813 3:0.50033308 4:0.53603954 5:0.35294118 6:0.35294118 7:0.52941176 8:0.38888889 9:0.11111111 10:0.1 11:0.33333333 12:0.14285714 13:0.2 14:0.18181818 15:0.11111111 16:0.28571429 17:0.42857143 18:0.125 19:0.33333333 20:0.22222222 22:0.375 23:0.22222222 24:0.2 28:0.33333333 30:0.2 37:0.25 39:0.25 42:0.2 43:0.25 46:0.25 49:0.25 51:0.25 52:0.25 53:0.25 56:0.25 58:0.2 60:0.25 63:0.25 64:0.25 69:0.66666667 72:0.52631579 74:1 78:1 81:1 93:1 105:1 107:1 112:1 114:1 119:1 121:1 124:1 126:1 154:1 160:1 166:1 
0.04322287668951427 1:0.66315036 2:0.37964759 3:0.39926016 4:0.47361004 5:0.58823529 6:0.47058824 7:0.35294118 8:0.22222222 9:0.22222222 10:0.5 11:0.16666667 12:0.28571429 13:0.5 14:0.18181818 15:0.22222222 17:0.14285714 19:0.33333333 20:0.22222222 21:0.14285714 22:0.25 26:0.33333333 29:0.42857143 30:0.4 35:0.25 37:0.5 38:0.25 40:0.33333333 41:0.2 42:0.4 44:0.25 46:0.25 54:0.25 57:0.2 58:0.4 59:0.25 61:0.33333333 63:0.25 64:0.25 72:0.47368421 78:1 82:1 87:1 90:1 92:1 96:1 101:1 102:1 107:1 111:1 113:1 116:1 124:1 125:1 163:1 168:1 
2 1:0.57417768 2:0.499214 3:0.44123508 4:0.43392802 5:0.76470588 6:0.29411765 7:0.41176471 8:0.16666667 9:0.77777778 10:0.3 11:0.16666667 12:0.14285714 13:0.2 14:0.090909091 15:0.22222222 16:0.14285714 17:0.28571429 18:0.25 19:0.22222222 20:0.11111111 21:0.14285714 23:0.22222222 25:0.6 26:0.33333333 28:0.33333333 30:0.2 31:0.2 32:0.25 37:0.5 41:0.4 46:0.5 48:0.33333333 55:0.25 56:0.5 61:0.33333333 67:0.16666667 72:0.36842105 82:1 85:1 87:1 90:1 93:1 96:1 98:1 100:1 101:1 104:1 111:1 113:1 119:1 122:1 125:1 134:1 164:1 
2 1:0.38580469 2:0.45090663 3:0.43316515 4:0.39919737 5:0.35294118 6:0.41176471 7:0.35294118 8:0.5 9:0.22222222 10:0.3 13:0.3 14:0.27272727 15:0.11111111 16:0.14285714 17:0.14285714 20:0.55555556 22:0.25 23:0.44444444 24:0.3 25:0.2 26:0.16666667 29:0.14285714 30:0.2 31:0.2 37:0.25 38:0.125 41:0.4 47:0.25 50:0.33333333 52:0.25 59:0.25 60:0.5 64:0.25 67:0.5 69:0.33333333 70:0.25 71:0.14285714 72:0.42105263 74:1 83:1 88:1 90:1 96:1 98:1 103:1 107:1 111:1 117:1 123:1 136:1 148:1 
2 1:0.51111903 2:0.38369962 3:0.49372418 4:0.35114985 5:0.41176471 6:0.35294118 7:0.35294118 8:0.5 9:0.33333333 10:0.1 12:0.42857143 13:0.2 14:0.18181818 15:0.11111111 16:0.28571429 17:0.14285714 18:0.125 19:0.11111111 20:0.22222222 21:0.14285714 22:0.375 23:0.33333333 24:0.2 26:0.16666667 28:0.66666667 30:0.2 35:0.25 37:0.5 41:0.2 43:0.25 49:0.5 54:0.25 58:0.2 60:0.5 64:0.25 65:0.25 66:0.2 67:0.16666667 70:0.5 72:0.36842105 74:1 76:1 84:1 86:1 90:1 103:1 108:1 109:1 113:1 116:1 129:1 137:1 163:1 168:1 
2 1:0.68751143 2:0.39119325 3:0.5989845 4:0.49641654 5:0.17647059 6:0.41176471 7:0.41176471 8:0.61111111 9:0.11111111 10:0.1 12:0.14285714 13:0.2 14:0.090909091 15:0.33333333 16:0.14285714 18:0.375 19:0.11111111 20:0.33333333 22:0.25 23:0.33333333 24:0.6 26:0.16666667 36:0.33333333 37:0.25 40:0.33333333 41:0.2 43:0.25 45:0.16666667 46:0.25 47:0.25 50:0.33333333 55:0.5 58:0.2 60:0.75 65:0.5 67:0.16666667 69:0.66666667 70:0.5 71:0.28571429 72:0.47368421 73:1 78:1 79:1 84:1 87:1 89:1 99:1 105:1 108:1 113:1 119:1 122:1 125:1 128:1 133:1 141:1 164:1 
0.5623287511095445 1:0.50033308 2:0.40349867 3:0.6443844 4:0.4429066 5:0.29411765 6:0.17647059 7:0.64705882 8:0.5 10:0.2 11:0.33333333 15:0.22222222 16:0.28571429 17:0.28571429 19:0.55555556 20:0.44444444 21:0.42857143 22:0.125 23:0.22222222 24:0.3 30:0.2 31:0.2 42:0.2 46:0.25 47:0.25 51:0.5 52:0.25 53:0.25 56:0.5 57:0.2 58:0.4 60:0.25 61:0.33333333 62:0.33333333 66:0.2 67:0.16666667 68:0.25 69:0.33333333 70:0.25 72:0.47368421 73:1 84:1 85:1 88:1 98:1 101:1 104:1 112:1 114:1 118:1 124:1 127:1 133:1 154:1 160:1 169:1 
2 1:0.45557556 2:0.35183565 3:0.44123508 4:0.39055314 5:0.47058824 6:0.41176471 7:0.29411765 8:0.44444444 9:0.22222222 10:0.3 11:0.33333333 12:0.14285714 13:0.1 14:0.18181818 15:0.11111111 16:0.42857143 17:0.71428571 22:0.375 23:0.11111111 24:0.4 26:0.16666667 28:0.33333333 30:0.2 32:0.25 33:0.5 36:0.33333333 39:0.25 42:0.2 43:0.25 44:0.25 50:0.33333333 51:0.5 52:0.5 53:0.25 63:0.25 64:0.25 69:1 71:0.14285714 72:0.36842105 74:1 76:1 78:1 84:1 93:1 101:1 102:1 115:1 119:1 120:1 124:1 125:1 128:1 143:1 153:1 
2 1:0.44221371 2:0.55356327 3:0.42141644 4:0.42340598 5:0.47058824 6:0.41176471 7:0.35294118 8:0.38888889 9:0.22222222 10:0.2 11:0.33333333 12:0.28571429 13:0.4 14:0.090909091 15:0.22222222 17:0.28571429 18:0.125 19:0.11111111 20:0.22222222 22:0.375 23:0.11111111 24:0.3 26:0.16666667 28:0.33333333 29:0.14285714 30:0.2 33:0.25 35:0.25 36:0.33333333 37:0.5 39:0.25 40:0.33333333 42:0.4 46:0.25 47:0.25 52:0.25 53:0.25 58:0.2 59:0.25 60:0.25 63:0.25 64:0.25 69:0.33333333 70:0.25 71:0.14285714 72:0.42105263 73:1 76:1 77:1 82:1 89:1 91:1 94:1 96:1 99:1 103:1 106:1 110:1 118:1 124:1 127:1 128:1 130:1 139:1 140:1 145:1 147:1 169:1 
2 1:0.46632369 2:0.37088423 3:0.28479522 4:0.3750318 5:0.64705882 6:0.47058824 7:0.23529412 8:0.27777778 9:0.33333333 10:0.4 12:0.42857143 13:0.5 14:0.18181818 15:0.11111111 16:0.14285714 17:0.42857143 19:0.11111111 22:0.375 23:0.11111111 24:0.1 25:0.2 26:0.33333333 29:0.28571429 30:0.2 31:0.2 35:0.5 36:0.33333333 37:0.5 38:0.25 41:0.4 43:0.25 44:0.25 49:0.25 54:0.75 56:0.25 63:0.25 64:0.5 70:0.25 72:0.36842105 74:1 77:1 79:1 80:1 83:1 85:1 87:1 91:1 93:1 97:1 101:1 104:1 106:1 110:1 114:1 116:1 121:1 134:1 157:1 165:1 
2 1:0.28178205 2:0.47996439 3:0.53701896 4:0.3669936 5:0.29411765 6:0.23529412 7:0.47058824 8:0.61111111 9:0.22222222 10:0.1 12:0.28571429 13:0.1 14:0.090909091 15:0.11111111 16:0.14285714 17:0.14285714 19:0.22222222 20:0.55555556 22:0.375 23:0.55555556 24:0.3 26:0.16666667 28:0.33333333 35:0.5 37:0.25 41:0.2 43:0.25 47:0.25 50:0.33333333 54:0.25 56:0.25 58:0.2 59:0.25 60:0.5 64:0.5 65:0.25 66:0.4 67:0.5 70:0.5 71:0.14285714 72:0.36842105 76:1 81:1 84:1 92:1 94:1 98:1 100:1 102:1 108:1 109:1 115:1 118:1 121:1 122:1 125:1 128:1 132:1 167:1 170:1 
2 1:0.55606605 2:0.33865604 3:0.23619655 4:0.35405113 5:0.47058824 6:0.47058824 7:0.17647059 8:0.5 9:0.33333333 10:0.2 11:0.16666667 12:0.14285714 13:0.2 14:0.27272727 16:0.57142857 17:0.28571429 20:0.11111111 21:0.14285714 22:0.5 23:0.22222222 24:0.2 26:0.16666667 27:0.25 28:0.33333333 30:0.4 34:0.25 35:0.25 37:0.25 38:0.125 41:0.2 43:0.75 49:0.5 50:0.66666667 60:0.25 63:0.25 64:0.5 68:0.25 69:0.33333333 72:0.31578947 75:1 83:1 89:1 92:1 97:1 101:1 102:1 106:1 115:1 116:1 126:1 143:1 146:1 161:1 168:1 
0.5424590828259666 1:0.37999556 2:0.47288926 3:0.6443844 4:0.45959844 5:0.64705882 6:0.23529412 7:0.52941176 8:0.22222222 9:0.44444444 10:0.2 11:0.5 12:0.14285714 13:0.2 14:0.090909091 15:0.11111111 16:0.14285714 17:0.57142857 19:0.44444444 20:0.11111111 21:0.14285714 22:0.25 23:0.11111111 25:0.4 26:0.16666667 31:0.2 32:0.25 33:0.25 37:0.25 39:0.25 41:0.4 46:0.25 49:0.25 53:0.5 54:0.25 56:0.5 57:0.2 58:0.2 59:0.25 61:0.33333333 64:0.5 72:0.42105263 75:1 77:1 81:1 82:1 91:1 97:1 101:1 104:1 112:1 114:1 118:1 121:1 122:1 125:1 154:1 160:1 170:1 
1.098475106873242 1:0.44123508 2:0.39439853 3:0.59184905 4:0.32483128 5:0.58823529 6:0.17647059 7:0.47058824 8:0.38888889 9:0.33333333 10:0.2 11:0.33333333 12:0.28571429 13:0.2 15:0.11111111 16:0.14285714 17:0.42857143 19:0.22222222 20:0.33333333 21:0.28571429 22:0.25 23:0.33333333 26:0.16666667 27:0.25 29:0.14285714 31:0.2 33:0.25 38:0.125 39:0.25 43:0.25 44:0.25 48:0.33333333 54:0.25 57:0.2 58:0.2 59:0.5 63:0.25 64:0.25 67:0.33333333 72:0.31578947 75:1 76:1 83:1 85:1 88:1 91:1 93:1 97:1 100:1 102:1 112:1 115:1 118:1 121:1 125:1 152:1 167:1 170:1 
1.081377048607219 1:0.38712304 2:0.2743936 3:0.5438914 4:0.313757 5:0.41176471 6:0.47058824 7:0.23529412 8:0.5 10:0.5 12:0.28571429 13:0.2 14:0.18181818 16:0.57142857 17:0.42857143 20:0.11111111 21:0.28571429 22:0.25 23:0.44444444 24:0.1 29:0.14285714 30:0.4 32:0.5 38:0.125 40:0.33333333 41:0.2 43:0.25 49:0.25 50:1 52:0.5 54:0.25 60:0.25 61:0.66666667 64:0.25 67:0.16666667 69:0.33333333 72:0.36842105 75:1 79:1 80:1 84:1 86:1 92:1 93:1 99:1 102:1 107:1 110:1 112:1 117:1 121:1 122:1 128:1 138:1 140:1 
2 1:0.72397299 2:0.82289536 3:0.42214227 4:0.65748576 5:0.35294118 6:0.52941176 7:0.47058824 8:0.27777778 9:0.22222222 10:0.2 11:0.16666667 13:0.1 14:0.27272727 15:0.55555556 16:0.14285714 17:0.28571429 18:0.25 20:0.44444444 21:0.14285714 22:0.375 23:0.11111111 25:0.2 26:0.16666667 29:0.14285714 30:0.2 37:0.25 42:0.6 44:0.5 45:0.16666667 47:0.5 49:0.25 52:0.25 53:0.25 59:0.5 64:0.5 67:0.16666667 72:0.63157895 74:1 78:1 79:1 80:1 84:1 87:1 98:1 101:1 103:1 116:1 124:1 127:1 149:1 153:1 162:1 168:1 
2 1:0.42214227 2:0.29329838 3:0.37650896 4:0.40054331 5:0.35294118 6:0.29411765 7:0.41176471 8:0.55555556 9:0.22222222 10:0.2 11:0.16666667 12:0.14285714 14:0.090909091 15:0.33333333 16:0.28571429 17:0.28571429 19:0.22222222 20:0.33333333 21:0.28571429 22:0.25 23:0.11111111 24:0.4 25:0.2 26:0.16666667 30:0.2 32:0.25 34:0.25 36:0.33333333 42:0.2 43:0.25 44:0.25 46:0.5 48:0.66666667 52:0.25 54:0.25 56:0.25 58:0.2 60:0.5 62:0.33333333 64:0.25 65:0.25 67:0.16666667 69:0.66666667 70:0.25 71:0.14285714 72:0.36842105 73:1 78:1 84:1 88:1 91:1 94:1 99:1 100:1 105:1 107:1 109:1 116:1 124:1 126:1 133:1 136:1 138:1 142:1 151:1 162:1 168:1 
0.6227600226020206 1:0.75625742 2:0.027259519 3:0.24243179 4:0.26446134 5:0.58823529 6:0.35294118 7:0.17647059 8:0.5 9:0.44444444 10:0.3 12:0.28571429 13:0.2 14:0.090909091 15:0.22222222 16:0.28571429 17:0.14285714 18:0.125 20:0.11111111 21:0.42857143 22:0.25 23:0.11111111 24:0.3 26:0.33333333 28:0.33333333 29:0.28571429 30:0.2 36:0.33333333 37:0.25 38:0.125 42:0.2 43:0.25 44:0.25 45:0.16666667 48:0.33333333 51:0.25 64:0.25 65:0.25 67:0.16666667 69:0.33333333 70:0.25 71:0.14285714 72:0.21052632 75:1 78:1 83:1 85:1 87:1 90:1 91:1 96:1 98:1 102:1 106:1 109:1 111:1 119:1 121:1 125:1 131:1 134:1 146:1 150:1 
2 1:0.69772966 2:0.4380214 3:0.56980027 4:0.54785151 5:0.29411765 6:0.64705882 7:0.17647059 8:0.5 9:0.22222222 11:0.16666667 12:0.14285714 13:0.1 14:0.45454545 15:0.22222222 16:0.57142857 17:0.14285714 18:0.125 20:0.11111111 21:0.14285714 22:0.75 24:0.2 25:0.2 36:0.33333333 37:0.25 41:0.2 42:0.4 43:0.25 44:0.25 47:0.25 49:0.75 51:0.25 54:0.25 62:0.33333333 64:1 69:0.66666667 72:0.47368421 75:1 79:1 83:1 87:1 89:1 93:1 96:1 101:1 103:1 110:1 111:1 114:1 117:1 121:1 122:1 125:1 131:1 149:1 
2 1:0.58121897 2:0.49410608 3:0.4669952 4:0.46511757 5:0.41176471 6:0.35294118 7:0.47058824 8:0.38888889 9:0.11111111 10:0.4 12:0.28571429 13:0.2 15:0.22222222 16:0.28571429 17:0.42857143 19:0.44444444 20:0.11111111 21:0.14285714 22:0.375 23:0.22222222 24:0.1 26:0.16666667 30:0.2 31:0.2 32:0.25 35:0.25 37:0.25 38:0.125 41:0.2 46:0.5 48:0.33333333 50:0.33333333 52:0.5 54:0.25 56:0.5 57:0.2 58:0.2 60:0.25 63:0.25 65:0.25 66:0.2 69:0.33333333 72:0.47368421 75:1 77:1 85:1 90:1 93:1 98:1 101:1 105:1 106:1 110:1 112:1 114:1 118:1 122:1 125:1 128:1 131:1 137:1 143:1 144:1 160:1 169:1 
0.5004692826939677 1:0.51111903 2:0.36818797 3:0.57813359 4:0.53431273 5:0.41176471 6:0.35294118 7:0.52941176 8:0.33333333 9:0.11111111 10:0.2 11:0.33333333 12:0.28571429 13:0.1 14:0.27272727 15:0.33333333 17:0.57142857 19:0.22222222 20:0.33333333 21:0.14285714 22:0.25 23:0.11111111 24:0.1 26:0.16666667 30:0.2 31:0.2 33:0.5 40:0.33333333 41:0.2 42:0.4 44:0.25 46:0.25 47:0.25 52:0.25 53:0.25 54:0.25 58:0.4 59:0.5 60:0.25 62:0.33333333 64:0.5 66:0.2 70:0.25 72:0.52631579 74:1 76:1 78:1 80:1 86:1 90:1 104:1 106:1 113:1 118:1 121:1 124:1 125:1 137:1 153:1 170:1 
0.9335378441149045 1:0.32024583 2:0.47446658 3:0.56494924 4:0.53337445 5:0.29411765 6:0.58823529 7:0.35294118 8:0.38888889 9:0.11111111 10:0.3 12:0.14285714 13:0.2 14:0.27272727 15:0.22222222 16:0.42857143 17:0.14285714 19:0.33333333 20:0.22222222 21:0.14285714 22:0.5 23:0.11111111 24:0.1 26:0.16666667 30:0.6 37:0.25 38:0.125 41:0.2 42:0.2 43:0.25 46:0.25 47:0.25 48:0.33333333 49:0.5 52:0.25 56:0.25 57:0.2 58:0.2 59:0.25 60:0.25 63:0.25 64:0.25 66:0.2 69:0.33333333 72:0.57894737 73:1 78:1 79:1 83:1 90:1 94:1 101:1 103:1 110:1 115:1 117:1 128:1 137:1 149:1 
2 1:0.56494924 2:0.75020631 3:0.58121897 4:0.61085969 5:0.17647059 6:0.41176471 7:0.47058824 8:0.55555556 10:0.1 11:0.16666667 12:0.14285714 14:0.27272727 15:0.44444444 16:0.14285714 17:0.42857143 18:0.125 19:0.11111111 20:0.33333333 22:0.375 23:0.22222222 24:0.4 31:0.2 34:0.25 36:0.33333333 42:0.2 43:0.25 44:0.5 45:0.16666667 46:0.25 52:0.25 53:0.25 54:0.25 58:0.2 59:0.5 60:0.25 64:0.5 65:0.25 67:0.16666667 69:0.33333333 70:0.5 71:0.14285714 72:0.52631579 75:1 84:1 86:1 91:1 94:1 97:1 100:1 105:1 107:1 109:1 112:1 119:1 121:1 123:1 133:1 151:1 155:1 
2 1:0.3431175 2:0.49556677 3:0.36377161 4:0.49718818 5:0.47058824 6:0.47058824 7:0.35294118 8:0.33333333 9:0.22222222 10:0.2 11:0.33333333 12:0.28571429 13:0.4 14:0.18181818 15:0.22222222 16:0.14285714 17:0.28571429 18:0.25 20:0.11111111 22:0.375 23:0.22222222 24:0.1 25:0.2 27:0.25 30:0.2 31:0.2 33:0.25 36:0.33333333 37:0.25 38:0.25 40:0.33333333 41:0.4 42:0.2 44:0.25 45:0.16666667 49:0.25 53:0.25 54:0.25 55:0.25 63:0.25 64:0.25 67:0.16666667 69:0.33333333 72:0.47368421 75:1 80:1 83:1 85:1 90:1 99:1 101:1 104:1 107:1 114:1 119:1 124:1 125:1 129:1 131:1 138:1 166:1 
2 1:0.48798757 2:0.36657721 3:0.30530944 4:0.36859638 5:0.35294118 6:0.23529412 7:0.35294118 8:0.66666667 9:0.22222222 11:0.16666667 12:0.28571429 14:0.090909091 15:0.22222222 16:0.28571429 17:0.42857143 19:0.22222222 20:0.11111111 21:0.14285714 22:0.5 23:0.11111111 24:0.6 27:0.25 28:0.33333333 35:0.25 42:0.2 44:0.25 47:0.25 51:0.5 54:0.25 56:0.5 60:0.25 64:0.25 65:0.25 66:0.2 69:1 70:0.25 71:0.28571429 72:0.26315789 75:1 79:1 80:1 84:1 87:1 92:1 94:1 95:1 99:1 104:1 106:1 113:1 119:1 121:1 123:1 126:1 164:1 
2 1:0.36377161 2:0.56671845 3:0.30530944 4:0.44426171 5:0.41176471 6:0.35294118 7:0.41176471 8:0.44444444 9:0.11111111 10:0.1 11:0.16666667 12:0.42857143 13:0.2 14:0.18181818 15:0.22222222 16:0.14285714 17:0.42857143 19:0.33333333 20:0.11111111 21:0.14285714 22:0.375 23:0.11111111 24:0.3 27:0.25 29:0.14285714 33:0.25 35:0.25 36:0.33333333 40:0.66666667 42:0.2 43:0.25 46:0.5 51:0.25 52:0.25 54:0.25 56:0.5 57:0.2 60:0.25 63:0.25 64:0.25 65:0.25 67:0.16666667 68:0.25 69:0.66666667 72:0.42105263 73:1 81:1 82:1 90:1 92:1 95:1 99:1 100:1 104:1 106:1 112:1 119:1 121:1 127:1 154:1 
0.9430521171084865 1:0.29706882 2:0.055258236 3:0.36162238 4:0.18172659 5:0.64705882 6:0.23529412 7:0.23529412 8:0.5 9:0.55555556 10:0.2 11:0.33333333 12:0.28571429 14:0.27272727 16:0.28571429 17:0.28571429 19:0.11111111 20:0.11111111 21:0.57142857 23:0.11111111 24:0.3 25:0.4 26:0.16666667 27:0.25 28:0.33333333 30:0.4 33:0.25 36:0.66666667 43:0.5 48:0.33333333 51:0.25 52:0.25 56:0.25 62:0.33333333 67:0.16666667 68:0.25 70:0.25 72:0.15789474 75:1 76:1 77:1 80:1 83:1 93:1 96:1 99:1 105:1 108:1 112:1 114:1 116:1 120:1 123:1 127:1 139:1 140:1 154:1 160:1 165:1 
2 1:0.26150233 2:0.29885716 3:0.38667873 4:0.21823453 5:0.58823529 6:0.29411765 7:0.23529412 8:0.5 9:0.44444444 10:0.2 11:0.33333333 12:0.14285714 13:0.2 14:0.18181818 16:0.28571429 17:0.14285714 19:0.22222222 20:0.11111111 21:0.42857143 22:0.125 24:0.5 25:0.2 26:0.33333333 29:0.14285714 30:0.2 37:0.5 41:0.2 43:0.25 51:0.5 56:0.25 58:0.2 60:0.25 62:0.66666667 64:0.25 68:0.5 69:0.33333333 71:0.28571429 72:0.21052632 73:1 79:1 86:1 98:1 101:1 102:1 106:1 109:1 115:1 119:1 120:1 122:1 125:1 146:1 150:1 
2 1:0.59505313 2:0.4197398 3:0.38983471 4:0.43787432 5:0.58823529 6:0.17647059 7:0.58823529 8:0.27777778 9:0.11111111 10:0.2 11:0.66666667 12:0.42857143 13:0.1 14:0.090909091 15:0.22222222 17:0.71428571 19:0.44444444 21:0.28571429 22:0.125 24:0.2 27:0.25 30:0.2 31:0.2 33:0.5 35:0.25 36:0.33333333 37:0.25 41:0.2 42:0.2 44:0.25 46:0.25 53:0.75 54:0.5 56:0.5 57:0.2 61:0.66666667 64:0.25 68:0.25 71:0.14285714 72:0.42105263 79:1 83:1 86:1 93:1 104:1 106:1 112:1 119:1 124:1 126:1 129:1 
2 1:0.43600961 2:0.35478644 3:0.57432306 4:0.33046537 5:0.47058824 6:0.41176471 7:0.17647059 8:0.55555556 9:0.33333333 10:0.1 11:0.16666667 12:0.28571429 13:0.1 15:0.11111111 16:0.85714286 17:0.14285714 18:0.125 20:0.11111111 21:0.28571429 22:0.75 23:0.11111111 24:0.1 25:0.2 28:0.33333333 30:0.2 33:0.25 35:0.5 39:0.25 43:0.25 47:0.25 48:0.33333333 49:1 51:0.25 52:0.25 63:0.25 65:0.25 70:0.25 72:0.26315789 79:1 80:1 84:1 88:1 93:1 99:1 104:1 107:1 110:1 118:1 125:1 136:1 138:1 169:1 
2 1:0.480906 2:0.51131516 3:0.59203639 4:0.64983426 5:0.11764706 6:0.52941176 7:0.47058824 8:0.5 10:0.2 13:0.1 14:0.18181818 15:0.33333333 16:0.42857143 18:0.375 19:0.22222222 20:0.33333333 22:0.375 23:0.33333333 24:0.3 30:0.2 31:0.2 38:0.125 42:0.2 43:0.25 45:0.16666667 46:0.25 47:0.25 49:0.25 51:0.5 55:0.5 58:0.2 60:0.25 63:0.25 65:0.25 66:0.2 67:0.16666667 69:0.66666667 70:0.25 72:0.63157895 79:1 88:1 98:1 101:1 105:1 108:1 109:1 111:1 113:1 118:1 124:1 128:1 143:1 144:1 
2 1:0.38667873 2:0.17503531 3:0.5038825 4:0.28573165 5:0.41176471 6:0.23529412 7:0.35294118 8:0.61111111 9:0.11111111 10:0.3 11:0.33333333 12:0.14285714 13:0.3 16:0.28571429 17:0.14285714 19:0.22222222 20:0.33333333 21:0.14285714 22:0.25 23:0.22222222 24:0.5 28:0.33333333 29:0.28571429 30:0.2 34:0.25 36:0.33333333 37:0.25 38:0.125 39:0.25 43:0.25 48:0.33333333 51:0.25 53:0.25 58:0.4 59:0.25 60:0.25 61:0.33333333 63:0.25 66:0.2 69:0.33333333 70:0.25 71:0.28571429 72:0.26315789 77:1 85:1 88:1 92:1 95:1 105:1 108:1 112:1 115:1 117:1 127:1 
0.4323612644411697 1:0.57813359 2:0.42474705 3:0.68585655 4:0.47383502 5:0.52941176 6:0.47058824 7:0.35294118 8:0.27777778 9:0.33333333 10:0.4 12:0.28571429 13:0.4 14:0.18181818 15:0.22222222 17:0.14285714 18:0.375 20:0.22222222 23:0.44444444 24:0.1 26:0.5 29:0.28571429 30:0.2 37:0.25 38:0.125 40:0.66666667 41:0.2 42:0.2 45:0.16666667 47:0.25 55:0.25 60:0.25 67:0.16666667 70:0.25 72:0.47368421 76:1 85:1 89:1 97:1 104:1 108:1 110:1 112:1 113:1 118:1 120:1 122:1 125:1 128:1 
2 1:0.38667873 2:0.47446658 3:0.3431175 4:0.47411639 5:0.52941176 6:0.35294118 7:0.47058824 8:0.27777778 9:0.44444444 10:0.2 11:0.5 13:0.2 14:0.27272727 15:0.11111111 16:0.14285714 17:0.28571429 18:0.125 19:0.22222222 20:0.22222222 21:0.14285714 22:0.125 23:0.22222222 24:0.1 25:0.2 26:0.33333333 27:0.25 30:0.4 33:0.25 34:0.25 37:0.25 39:0.25 41:0.2 42:0.2 43:0.25 46:0.25 50:0.33333333 55:0.25 56:0.25 59:0.25 62:0.33333333 63:0.25 66:0.2 67:0.16666667 68:0.25 72:0.47368421 75:1 77:1 83:1 85:1 89:1 92:1 94:1 98:1 101:1 103:1 106:1 111:1 116:1 123:1 126:1 129:1 147:1 156:1 162:1 
0.6860220329535471 1:0.59203639 2:0.23362553 3:0.49911361 4:0.36378913 5:0.58823529 6:0.29411765 7:0.41176471 8:0.33333333 9:0.33333333 10:0.3 11:0.16666667 12:0.28571429 13:0.3 15:0.33333333 17:0.28571429 19:0.11111111 20:0.44444444 21:0.28571429 22:0.375 23:0.11111111 26:0.16666667 27:0.25 28:0.33333333 29:0.42857143 34:0.25 35:0.25 37:0.25 38:0.125 40:0.33333333 42:0.2 44:0.25 47:0.5 52:0.25 56:0.25 59:0.5 64:0.25 65:0.5 67:0.16666667 72:0.36842105 74:1 77:1 81:1 84:1 88:1 89:1 96:1 97:1 103:1 106:1 113:1 118:1 121:1 124:1 127:1 132:1 147:1 170:1 
1.112012379866045 1:0.11236237 2:0.66900904 3:0.61759707 4:0.59028948 5:0.35294118 6:0.52941176 7:0.47058824 8:0.27777778 9:0.22222222 11:0.33333333 12:0.28571429 13:0.1 14:0.45454545 15:0.22222222 16:0.28571429 18:0.5 19:0.22222222 20:0.11111111 21:0.42857143 22:0.125 23:0.11111111 25:0.2 28:0.33333333 35:0.25 39:0.25 41:0.2 42:0.2 43:0.25 47:0.25 48:0.33333333 50:0.33333333 55:0.5 57:0.2 62:0.33333333 64:0.25 72:0.63157895 74:1 80:1 83:1 92:1 93:1 104:1 109:1 112:1 115:1 116:1 121:1 123:1 129:1 155:1 
1.994130357799268 1:0.69503483 2:0.34489887 3:0.61841691 4:0.57614571 5:0.41176471 6:0.23529412 7:0.70588235 8:0.27777778 9:0.11111111 10:0.2 11:0.5 12:0.14285714 13:0.1 15:0.33333333 16:0.14285714 17:0.71428571 18:0.125 19:0.33333333 20:0.22222222 22:0.25 23:0.22222222 24:0.1 27:0.25 30:0.2 31:0.2 34:0.25 35:0.25 37:0.25 41:0.2 44:0.25 46:0.5 50:0.33333333 52:0.5 53:0.5 54:0.25 56:0.5 59:0.25 60:0.25 65:0.25 67:0.16666667 70:0.25 72:0.57894737 74:1 76:1 78:1 80:1 86:1 90:1 93:1 96:1 100:1 105:1 113:1 118:1 122:1 125:1 129:1 137:1 142:1 169:1 
2 1:0.44527437 2:0.61752908 3:0.50282817 4:0.45920587 5:0.52941176 6:0.47058824 7:0.29411765 8:0.33333333 9:0.33333333 10:0.2 11:0.5 13:0.3 14:0.18181818 15:0.11111111 16:0.42857143 17:0.14285714 18:0.25 19:0.11111111 20:0.11111111 21:0.28571429 22:0.375 24:0.1 25:0.2 26:0.16666667 31:0.2 32:0.25 33:0.25 34:0.25 37:0.5 39:0.25 41:0.4 43:0.25 45:0.16666667 48:0.33333333 49:0.5 52:0.25 55:0.25 59:0.25 62:0.66666667 63:0.25 64:0.5 68:0.25 72:0.42105263 75:1 77:1 81:1 83:1 87:1 90:1 101:1 105:1 107:1 109:1 118:1 121:1 122:1 125:1 144:1 151:1 170:1 
0.03767373819694701 1:0.32680274 2:0.45721419 3:0.61463488 4:0.45686644 5:0.23529412 6:0.29411765 7:0.47058824 8:0.61111111 11:0.33333333 12:0.28571429 14:0.18181818 15:0.22222222 16:0.14285714 17:0.28571429 18:0.25 19:0.11111111 20:0.33333333 21:0.14285714 22:0.25 23:0.33333333 24:0.5 33:0.25 34:0.25 36:0.33333333 42:0.4 44:0.25 47:0.25 50:0.33333333 54:0.5 55:0.25 58:0.2 59:0.25 60:0.5 62:0.33333333 64:0.25 66:0.2 68:0.25 69:0.33333333 70:0.25 71:0.28571429 72:0.42105263 79:1 85:1 91:1 95:1 99:1 100:1 105:1 108:1 115:1 118:1 120:1 124:1 127:1 128:1 140:1 142:1 167:1 
2 1:0.42141644 2:0.58081916 3:0.27826239 4:0.33614158 5:0.47058824 6:0.47058824 7:0.17647059 8:0.5 9:0.22222222 10:0.3 11:0.16666667 12:0.28571429 13:0.2 14:0.18181818 16:0.71428571 17:0.28571429 19:0.11111111 21:0.28571429 22:0.5 23:0.11111111 24:0.1 25:0.2 26:0.16666667 30:0.4 32:0.25 35:0.25 39:0.25 40:0.33333333 43:0.5 48:0.66666667 49:0.5 50:0.33333333 52:0.5 56:0.25 63:0.5 69:0.33333333 72:0.31578947 75:1 79:1 81:1 82:1 92:1 98:1 101:1 103:1 108:1 109:1 116:1 125:1 162:1 168:1 
2 1:0.36162238 2:0.4197398 3:0.38580469 4:0.30169743 5:0.41176471 6:0.29411765 7:0.29411765 8:0.61111111 9:0.22222222 10:0.2 11:0.16666667 12:0.28571429 13:0.2 14:0.18181818 15:0.11111111 16:0.14285714 17:0.14285714 19:0.22222222 20:0.22222222 21:0.28571429 22:0.25 23:0.11111111 24:0.5 26:0.16666667 28:0.33333333 30:0.4 35:0.25 36:0.33333333 37:0.25 40:0.33333333 41:0.2 42:0.2 46:0.25 51:0.25 52:0.25 56:0.25 58:0.2 59:0.25 62:0.33333333 63:0.25 67:0.16666667 68:0.5 70:0.25 71:0.28571429 72:0.26315789 75:1 84:1 90:1 97:1 105:1 108:1 113:1 116:1 124:1 126:1 163:1 168:1 
2 1:0.38712304 2:0.15254377 3:0.24057058 4:0.13566858 5:0.58823529 6:0.29411765 7:0.17647059 8:0.55555556 9:0.22222222 10:0.1 12:1 13:0.2 14:0.090909091 15:0.11111111 16:0.28571429 17:0.28571429 20:0.11111111 21:0.57142857 22:0.375 23:0.22222222 28:0.66666667 30:0.2 35:0.5 38:0.125 40:0.33333333 41:0.2 43:0.25 44:0.25 48:0.33333333 49:0.25 54:0.5 63:0.25 64:0.25 65:0.25 67:0.16666667 72:0.15789474 73:1 84:1 86:1 90:1 92:1 93:1 95:1 97:1 103:1 107:1 116:1 121:1 125:1 148:1 162:1 
0.784352742116435 1:0.78011255 2:0.34392851 3:0.76730194 4:0.76041116 5:0.17647059 6:0.58823529 7:0.52941176 8:0.33333333 11:0.33333333 12:0.14285714 13:0.2 14:0.36363636 15:0.44444444 16:0.14285714 18:0.5 19:0.33333333 20:0.22222222 21:0.14285714 22:0.25 24:0.2 39:0.25 40:0.33333333 41:0.2 42:0.4 43:0.25 45:0.33333333 46:0.25 47:0.25 51:0.25 55:0.5 57:0.4 58:0.2 59:0.5 62:0.33333333 64:0.25 65:0.25 71:0.14285714 72:0.73684211 73:1 81:1 86:1 90:1 91:1 94:1 104:1 107:1 109:1 112:1 113:1 116:1 127:1 151:1 155:1 163:1 
0.3789718397958976 1:0.44123508 2:0.081855283 3:0.45557556 4:0.19723805 5:0.58823529 6:0.41176471 7:0.058823529 8:0.55555556 9:0.44444444 10:0.4 12:0.14285714 13:0.3 14:0.090909091 15:0.11111111 16:0.42857143 20:0.11111111 21:0.42857143 22:0.375 24:0.4 25:0.2 26:0.5 29:0.14285714 30:0.2 32:0.5 37:0.5 40:0.33333333 42:0.2 43:0.25 47:0.25 48:0.33333333 51:0.5 61:0.33333333 63:0.5 64:0.25 69:1 71:0.14285714 72:0.15789474 75:1 80:1 84:1 85:1 87:1 91:1 93:1 97:1 102:1 107:1 110:1 113:1 116:1 124:1 127:1 134:1 157:1 163:1 168:1 
2 1:0.23619655 2:0.41837763 3:0.41846411 4:0.26738365 5:0.70588235 6:0.17647059 7:0.41176471 8:0.33333333 9:0.55555556 10:0.3 11:0.5 12:0.14285714 13:0.2 14:0.090909091 16:0.14285714 17:0.42857143 19:0.11111111 20:0.22222222 21:0.14285714 23:0.33333333 24:0.2 25:0.2 26:0.33333333 27:0.5 30:0.4 32:0.25 34:0.25 37:0.5 41:0.4 51:0.25 52:0.25 56:0.25 60:0.25 62:0.33333333 67:0.16666667 70:0.5 72:0.26315789 78:1 79:1 85:1 94:1 95:1 97:1 101:1 102:1 106:1 109:1 115:1 118:1 122:1 125:1 129:1 146:1 150:1 161:1 167:1 169:1 
1.761270013590247 1:0.4441937 2:0.59501401 3:0.36162238 4:0.4304734 5:0.35294118 6:0.47058824 7:0.35294118 8:0.44444444 10:0.3 11:0.33333333 12:0.14285714 13:0.2 14:0.18181818 15:0.22222222 16:0.28571429 17:0.28571429 19:0.11111111 20:0.33333333 21:0.28571429 22:0.5 24:0.2 29:0.14285714 30:0.2 32:0.25 33:0.25 35:0.25 39:0.5 42:0.2 43:0.25 47:0.5 48:0.33333333 49:0.25 52:0.25 54:0.25 56:0.25 59:0.5 60:0.25 61:0.66666667 63:0.25 64:0.25 65:0.25 68:0.25 71:0.14285714 72:0.47368421 74:1 79:1 83:1 85:1 88:1 91:1 93:1 97:1 101:1 104:1 108:1 109:1 115:1 116:1 120:1 124:1 127:1 128:1 143:1 
2 1:0.78507348 2:0.31271494 3:0.69772966 4:0.5463827 5:0.29411765 6:0.29411765 7:0.58823529 8:0.44444444 9:0.11111111 11:0.33333333 12:0.28571429 13:0.1 15:0.33333333 16:0.14285714 17:0.14285714 18:0.25 19:0.33333333 20:0.44444444 21:0.14285714 22:0.5 23:0.22222222 24:0.1 27:0.25 40:0.33333333 42:0.2 46:0.5 47:0.25 51:0.25 54:0.25 56:0.25 57:0.2 58:0.2 59:1 62:0.33333333 64:0.25 65:0.25 67:0.33333333 70:0.25 72:0.52631579 76:1 78:1 84:1 85:1 88:1 90:1 93:1 99:1 104:1 108:1 109:1 112:1 114:1 118:1 121:1 124:1 127:1 128:1 137:1 155:1 160:1 170:1 
2 1:0.49372418 2:0.63499812 3:0.41846411 4:0.55003101 5:0.41176471 6:0.35294118 7:0.58823529 8:0.27777778 9:0.22222222 10:0.1 11:0.5 13:0.3 14:0.18181818 16:0.28571429 17:0.28571429 18:0.125 19:0.44444444 20:0.33333333 22:0.25 23:0.33333333 27:0.25 32:0.25 34:0.25 37:0.5 38:0.125 41:0.2 43:0.25 49:0.25 50:0.33333333 53:0.5 56:0.5 57:0.2 58:0.2 59:0.25 63:0.25 64:0.25 66:0.2 67:0.16666667 72:0.57894737 73:1 83:1 88:1 90:1 94:1 95:1 98:1 103:1 106:1 112:1 115:1 118:1 121:1 123:1 125:1 145:1 147:1 154:1 167:1 170:1 
2 1:0.61370245 2:0.35473634 3:0.43600961 4:0.3653846 5:0.41176471 6:0.35294118 7:0.35294118 8:0.5 9:0.11111111 10:0.3 12:0.42857143 13:0.1 15:0.33333333 16:0.42857143 17:0.28571429 19:0.22222222 20:0.22222222 21:0.42857143 22:0.375 23:0.11111111 24:0.1 28:0.33333333 30:0.2 31:0.2 32:0.25 35:0.25 36:0.33333333 37:0.25 43:0.25 44:0.25 46:0.25 47:0.25 48:0.33333333 49:0.25 50:0.33333333 52:0.5 57:0.2 58:0.2 59:0.25 61:0.33333333 63:0.25 65:0.25 68:0.25 72:0.36842105 73:1 78:1 82:1 87:1 91:1 95:1 102:1 108:1 110:1 111:1 113:1 118:1 125:1 169:1 
0.8696329904665181 1:0.46632369 2:0.31127483 3:0.61054367 4:0.41024574 5:0.64705882 6:0.35294118 7:0.35294118 8:0.27777778 9:0.33333333 10:0.4 11:0.16666667 12:0.28571429 13:0.3 14:0.090909091 15:0.33333333 17:0.42857143 18:0.125 19:0.11111111 20:0.11111111 21:0.28571429 22:0.125 23:0.11111111 24:0.1 28:0.66666667 30:0.4 31:0.4 33:0.25 37:0.5 38:0.125 41:0.2 42:0.2 44:0.5 46:0.25 52:0.5 58:0.2 60:0.25 61:0.33333333 62:0.33333333 63:0.25 69:0.33333333 72:0.36842105 75:1 84:1 85:1 87:1 91:1 94:1 96:1 99:1 105:1 106:1 111:1 113:1 118:1 124:1 125:1 134:1 139:1 156:1 169:1 
1.815218951210966 1:0.61054367 2:0.71873253 3:0.20233963 4:0.62675777 5:0.23529412 6:0.47058824 7:0.47058824 8:0.44444444 10:0.1 11:0.16666667 12:0.28571429 13:0.1 14:0.090909091 15:0.33333333 16:0.57142857 17:0.14285714 18:0.375 19:0.22222222 20:0.22222222 21:0.14285714 22:0.5 23:0.22222222 30:0.2 34:0.25 40:0.33333333 42:0.2 43:0.25 45:0.16666667 46:0.25 47:0.25 49:0.75 53:0.25 55:0.25 56:0.25 57:0.2 59:0.25 63:0.25 65:0.25 72:0.57894737 80:1 84:1 90:1 92:1 94:1 98:1 105:1 107:1 119:1 
1.78195043753528 1:0.48798757 2:0.57433735 3:0.15924309 4:0.32160029 5:0.41176471 6:0.47058824 7:0.23529412 8:0.5 10:0.3 12:0.57142857 13:0.2 14:0.27272727 15:0.22222222 16:0.14285714 18:0.125 19:0.22222222 20:0.11111111 21:0.71428571 22:0.25 24:0.2 29:0.28571429 30:0.2 35:0.25 36:0.33333333 38:0.125 40:0.33333333 46:0.25 47:0.25 48:0.33333333 57:0.2 60:0.25 61:0.66666667 65:0.5 68:0.25 69:0.33333333 72:0.36842105 75:1 76:1 80:1 82:1 90:1 92:1 96:1 100:1 103:1 108:1 117:1 123:1 128:1 145:1 
2 1:0.40140961 2:0.41115224 3:0.72397299 4:0.49206552 5:0.52941176 6:0.41176471 7:0.41176471 8:0.27777778 9:0.33333333 10:0.3 11:0.16666667 12:0.28571429 13:0.1 14:0.18181818 15:0.33333333 16:0.14285714 17:0.42857143 19:0.22222222 20:0.22222222 21:0.14285714 22:0.375 23:0.11111111 25:0.2 26:0.16666667 28:0.33333333 30:0.4 31:0.2 37:0.25 42:0.4 43:0.25 44:0.5 47:0.25 49:0.25 52:0.25 53:0.25 56:0.25 58:0.2 59:0.5 61:0.33333333 63:0.25 64:0.25 66:0.2 72:0.47368421 78:1 82:1 85:1 89:1 93:1 99:1 103:1 107:1 111:1 114:1 118:1 121:1 124:1 127:1 128:1 138:1 148:1 156:1 170:1 
2 1:0.51404301 2:0.55537639 3:0.42214227 4:0.62328055 5:0.35294118 6:0.17647059 7:0.82352941 8:0.27777778 10:0.3 11:0.33333333 12:0.14285714 14:0.090909091 15:0.33333333 17:0.71428571 19:0.55555556 20:0.33333333 23:0.44444444 24:0.1 30:0.2 31:0.4 33:0.25 42:0.2 44:0.25 46:0.25 47:0.25 52:0.5 53:0.5 54:0.25 56:0.5 57:0.2 58:0.4 60:0.25 66:0.6 70:0.25 72:0.63157895 78:1 86:1 90:1 93:1 95:1 104:1 110:1 114:1 116:1 120:1 124:1 125:1 129:1 137:1 157:1 165:1 
1.718916254313726 1:0.40604948 2:0.64548745 3:0.66315036 4:0.56552403 5:0.52941176 6:0.41176471 7:0.52941176 8:0.16666667 9:0.22222222 10:0.4 11:0.33333333 12:0.14285714 13:0.2 14:0.090909091 15:0.44444444 16:0.14285714 17:0.57142857 18:0.125 19:0.22222222 20:0.11111111 21:0.14285714 22:0.125 23:0.11111111 25:0.2 27:0.25 29:0.14285714 30:0.2 31:0.4 33:0.5 38:0.125 40:0.33333333 41:0.2 43:0.25 44:0.5 46:0.25 48:0.33333333 52:0.5 53:0.25 57:0.2 58:0.2 59:0.25 61:0.33333333 64:0.25 72:0.57894737 73:1 77:1 85:1 88:1 89:1 98:1 101:1 105:1 106:1 109:1 112:1 114:1 118:1 121:1 122:1 129:1 144:1 150:1 155:1 160:1 170:1 
0.1269550144065232 1:0.52319537 2:0.64425136 3:0.57906094 4:0.53683012 5:0.47058824 6:0.52941176 7:0.35294118 8:0.27777778 9:0.11111111 10:0.5 12:0.28571429 13:0.4 14:0.18181818 15:0.33333333 16:0.14285714 17:0.14285714 18:0.125 19:0.22222222 20:0.22222222 21:0.14285714 22:0.25 23:0.11111111 28:0.33333333 29:0.14285714 30:0.4 31:0.4 37:0.25 38:0.25 40:0.33333333 41:0.4 43:0.25 44:0.25 46:0.25 47:0.25 48:0.33333333 52:0.25 57:0.2 58:0.2 59:0.5 61:0.33333333 63:0.25 64:0.25 72:0.52631579 77:1 79:1 81:1 83:1 86:1 89:1 92:1 93:1 98:1 101:1 103:1 106:1 109:1 112:1 115:1 117:1 122:1 125:1 143:1 147:1 150:1 155:1 
2 1:0.57417768 2:0.044684074 3:0.57432306 4:0.30614636 5:0.35294118 6:0.41176471 7:0.23529412 8:0.61111111 9:0.11111111 10:0.1 11:0.33333333 12:0.14285714 13:0.1 14:0.18181818 15:0.22222222 16:0.42857143 20:0.44444444 21:0.57142857 22:0.5 24:0.3 32:0.25 34:0.5 36:0.33333333 39:0.25 42:0.4 43:0.25 47:0.5 48:0.33333333 49:0.5 59:0.25 60:0.5 61:0.33333333 62:0.33333333 63:0.25 64:0.5 68:0.5 69:0.33333333 72:0.31578947 73:1 78:1 79:1 83:1 87:1 90:1 92:1 96:1 99:1 100:1 105:1 107:1 110:1 118:1 121:1 125:1 139:1 142:1 170:1 
2 1:0.69503483 2:0.29270228 3:0.44527437 4:0.36698966 5:0.58823529 6:0.17647059 7:0.52941176 8:0.33333333 9:0.33333333 10:0.1 11:0.5 12:0.28571429 13:0.3 15:0.11111111 17:0.42857143 19:0.33333333 20:0.33333333 21:0.14285714 22:0.25 23:0.22222222 24:0.1 26:0.16666667 28:0.66666667 30:0.2 33:0.5 36:0.33333333 37:0.25 39:0.5 41:0.2 46:0.25 56:0.25 58:0.4 59:0.5 62:0.33333333 63:0.25 65:0.25 66:0.2 67:0.16666667 70:0.25 72:0.36842105 73:1 76:1 77:1 79:1 86:1 90:1 93:1 96:1 99:1 100:1 104:1 108:1 109:1 111:1 114:1 116:1 122:1 126:1 130:1 137:1 139:1 140:1 142:1 165:1 168:1 
2 1:0.53701896 2:0.35473634 3:0.3836975 4:0.44813334 5:0.41176471 6:0.35294118 7:0.47058824 8:0.38888889 9:0.22222222 10:0.3 11:0.16666667 12:0.14285714 13:0.2 14:0.090909091 15:0.11111111 16:0.28571429 17:0.42857143 19:0.33333333 20:0.22222222 22:0.375 23:0.22222222 24:0.2 27:0.25 28:0.33333333 29:0.14285714 30:0.2 36:0.33333333 37:0.25 38:0.125 41:0.2 42:0.2 44:0.25 50:0.66666667 52:0.5 57:0.2 58:0.4 59:0.25 60:0.25 64:0.25 66:0.2 69:0.66666667 72:0.47368421 74:1 76:1 77:1 81:1 87:1 90:1 99:1 101:1 102:1 107:1 109:1 111:1 119:1 121:1 124:1 125:1 128:1 137:1 138:1 140:1 151:1 
0.720161150142988 1:0.52319537 2:0.76047615 3:0.52546165 4:0.67934439 5:0.41176471 6:0.64705882 7:0.35294118 8:0.22222222 9:0.22222222 10:0.2 11:0.33333333 12:0.14285714 13:0.1 14:0.54545455 15:0.44444444 16:0.14285714 17:0.42857143 18:0.125 20:0.11111111 22:0.375 24:0.1 26:0.16666667 28:0.33333333 30:0.4 33:0.5 35:0.25 39:0.25 41:0.2 42:0.4 43:0.25 44:0.25 45:0.16666667 47:0.25 51:0.25 52:0.25 55:0.25 59:0.25 64:0.25 65:0.5 69:0.33333333 72:0.63157895 77:1 80:1 83:1 85:1 88:1 89:1 91:1 96:1 101:1 104:1 108:1 109:1 112:1 116:1 121:1 123:1 129:1 155:1 162:1 
0.07022583195619367 1:0.38667873 2:0.53503323 3:0.61115751 4:0.50122184 5:0.47058824 6:0.58823529 7:0.23529412 8:0.33333333 9:0.33333333 10:0.3 12:0.14285714 13:0.3 14:0.27272727 15:0.22222222 16:0.42857143 17:0.28571429 19:0.11111111 20:0.11111111 22:0.625 24:0.1 26:0.5 29:0.14285714 30:0.4 35:0.25 37:0.25 40:0.33333333 42:0.2 43:0.75 44:0.25 47:0.25 49:0.5 51:0.25 56:0.25 59:0.25 63:0.5 64:0.5 65:0.25 69:0.33333333 72:0.47368421 74:1 77:1 80:1 82:1 85:1 87:1 92:1 96:1 101:1 103:1 108:1 109:1 114:1 116:1 134:1 143:1 159:1 165:1 168:1 
1.738911466368087 1:0.37999556 2:0.43900782 3:0.59777282 4:0.3941955 5:0.47058824 6:0.47058824 7:0.23529412 8:0.44444444 9:0.22222222 10:0.3 12:0.28571429 13:0.3 14:0.18181818 15:0.22222222 16:0.28571429 17:0.28571429 19:0.11111111 20:0.11111111 21:0.14285714 22:0.5 24:0.3 26:0.16666667 29:0.28571429 30:0.2 35:0.25 36:0.33333333 37:0.25 38:0.125 40:0.33333333 41:0.2 42:0.2 43:0.25 44:0.25 47:0.25 48:0.33333333 49:0.25 54:0.25 56:0.25 59:0.25 61:0.33333333 64:0.5 65:0.25 69:0.33333333 71:0.28571429 72:0.36842105 74:1 77:1 79:1 84:1 87:1 91:1 93:1 101:1 102:1 107:1 113:1 118:1 121:1 124:1 125:1 133:1 170:1 
2 1:0.45557556 2:0.33444434 3:0.72397299 4:0.40045445 5:0.70588235 6:0.52941176 7:0.23529412 8:0.16666667 9:0.44444444 10:0.5 11:0.33333333 12:0.14285714 13:0.5 14:0.27272727 15:0.11111111 17:0.42857143 19:0.11111111 22:0.125 24:0.2 26:0.5 28:0.33333333 29:0.28571429 30:0.4 33:0.5 36:0.33333333 37:0.75 38:0.125 39:0.25 41:0.4 42:0.2 46:0.25 52:0.25 53:0.25 56:0.25 63:0.25 69:0.33333333 71:0.14285714 72:0.42105263 73:1 77:1 82:1 96:1 101:1 103:1 107:1 112:1 118:1 122:1 125:1 128:1 148:1 169:1 
0.1865283409351889 1:0.32158135 2:0.096296929 3:0.49110261 4:0.36050771 5:0.41176471 6:0.52941176 7:0.17647059 8:0.5 10:0.2 12:0.71428571 13:0.2 14:0.36363636 15:0.22222222 16:0.28571429 17:0.28571429 19:0.11111111 21:0.42857143 22:0.375 24:0.2 29:0.14285714 31:0.2 35:0.25 36:0.66666667 38:0.125 40:0.33333333 41:0.2 43:0.25 44:0.25 46:0.25 48:0.33333333 54:0.5 56:0.25 61:0.33333333 64:0.25 65:0.25 69:0.66666667 72:0.36842105 73:1 77:1 79:1 83:1 91:1 94:1 95:1 99:1 105:1 108:1 109:1 112:1 119:1 120:1 123:1 155:1 
1.46183583815738 1:0.53277974 2:0.39119325 3:0.47790352 4:0.411021 5:0.41176471 6:0.29411765 7:0.41176471 8:0.5 9:0.33333333 10:0.3 11:0.16666667 13:0.2 15:0.22222222 16:0.28571429 17:0.28571429 18:0.125 19:0.11111111 20:0.22222222 22:0.25 23:0.33333333 24:0.4 25:0.2 26:0.33333333 30:0.2 31:0.4 33:0.25 37:0.25 38:0.125 43:0.25 46:0.25 47:0.25 51:0.5 53:0.25 58:0.2 60:0.5 63:0.25 69:0.66666667 70:0.5 72:0.36842105 75:1 83:1 86:1 88:1 91:1 97:1 100:1 105:1 112:1 116:1 127:1 129:1 135:1 136:1 142:1 154:1 162:1 168:1 
1.956874774420172 1:0.3431175 2:0.31468251 3:0.38580469 4:0.3653844 5:0.47058824 6:0.41176471 7:0.23529412 8:0.5 9:0.22222222 10:0.3 12:0.28571429 13:0.2 14:0.18181818 15:0.11111111 16:0.42857143 17:0.42857143 18:0.125 21:0.14285714 22:0.25 23:0.33333333 24:0.3 28:0.33333333 29:0.28571429 30:0.2 37:0.25 38:0.125 42:0.2 43:0.25 45:0.16666667 48:0.33333333 50:0.33333333 51:0.25 52:0.5 54:0.25 64:0.25 69:0.66666667 71:0.14285714 72:0.31578947 75:1 81:1 83:1 89:1 92:1 94:1 96:1 98:1 102:1 108:1 111:1 113:1 116:1 120:1 125:1 156:1 163:1 
1.837151146067825 1:0.68762033 2:0.49703236 3:0.36906296 4:0.52240866 5:0.23529412 6:0.47058824 7:0.35294118 8:0.55555556 9:0.11111111 10:0.1 11:0.16666667 12:0.14285714 13:0.2 14:0.36363636 15:0.11111111 16:0.28571429 17:0.14285714 18:0.125 19:0.22222222 20:0.22222222 22:0.375 23:0.22222222 24:0.4 27:0.25 30:0.2 35:0.25 37:0.25 38:0.125 41:0.4 42:0.2 43:0.25 47:0.25 49:0.25 54:0.25 55:0.25 56:0.25 59:0.25 60:0.25 64:0.5 66:0.2 67:0.16666667 70:0.25 71:0.42857143 72:0.47368421 75:1 79:1 84:1 88:1 89:1 91:1 94:1 104:1 106:1 110:1 113:1 116:1 120:1 133:1 163:1 
2 1:0.61358266 2:0.53820913 3:0.28178205 4:0.54217976 5:0.58823529 6:0.35294118 7:0.47058824 8:0.22222222 9:0.55555556 10:0.4 13:0.3 14:0.090909091 15:0.33333333 17:0.28571429 18:0.125 19:0.44444444 20:0.11111111 22:0.125 23:0.11111111 24:0.2 25:0.4 26:0.5 29:0.14285714 30:0.4 31:0.2 37:0.75 41:0.2 42:0.2 46:0.75 52:0.25 56:0.5 57:0.2 59:0.25 65:0.25 67:0.16666667 70:0.25 71:0.14285714 72:0.47368421 75:1 83:1 86:1 88:1 91:1 94:1 97:1 101:1 103:1 106:1 111:1 113:1 116:1 124:1 126:1 135:1 147:1 163:1 168:1 
1.199954549090107 1:0.52479099 2:0.31610325 3:0.69772966 4:0.54388918 5:0.76470588 6:0.47058824 7:0.41176471 9:0.77777778 10:0.5 13:0.4 14:0.27272727 15:0.22222222 17:0.28571429 18:0.125 19:0.44444444 25:0.4 26:0.66666667 29:0.14285714 30:0.6 31:0.2 37:1 41:0.4 42:0.2 46:0.5 52:0.25 56:0.5 57:0.2 72:0.52631579 74:1 78:1 80:1 86:1 87:1 95:1 97:1 102:1 107:1 109:1 112:1 114:1 116:1 123:1 125:1 151:1 155:1 160:1 165:1 168:1 
0.7524311681637678 1:0.49269995 2:0.36873089 3:0.6443844 4:0.54630458 5:0.35294118 6:0.17647059 7:0.76470588 8:0.33333333 9:0.11111111 10:0.2 11:0.33333333 12:0.14285714 13:0.1 15:0.22222222 16:0.14285714 17:0.42857143 18:0.125 19:0.66666667 20:0.22222222 21:0.14285714 22:0.125 23:0.22222222 24:0.2 27:0.25 30:0.2 32:0.25 36:0.33333333 40:0.33333333 42:0.2 45:0.16666667 46:0.25 51:0.25 52:0.5 53:0.25 56:0.5 57:0.4 58:0.2 59:0.25 65:0.25 66:0.2 68:0.25 70:0.25 72:0.57894737 74:1 78:1 83:1 86:1 87:1 92:1 93:1 98:1 105:1 112:1 114:1 118:1 124:1 126:1 129:1 154:1 160:1 169:1 
1.820957105415928 1:0.34510107 2:0.38401897 3:0.44123508 4:0.48013715 5:0.11764706 6:0.41176471 7:0.41176471 8:0.66666667 11:0.16666667 14:0.18181818 15:0.22222222 16:0.57142857 17:0.14285714 19:0.11111111 20:0.55555556 21:0.14285714 22:0.625 23:0.33333333 24:0.3 34:0.25 42:0.2 43:0.25 46:0.25 47:0.25 48:0.33333333 49:0.25 50:0.66666667 56:0.25 59:0.5 60:0.5 62:0.33333333 64:0.5 67:0.5 69:0.66666667 71:0.14285714 72:0.47368421 73:1 79:1 83:1 88:1 90:1 92:1 96:1 98:1 102:1 110:1 113:1 119:1 120:1 124:1 126:1 136:1 157:1 164:1 
0.8233208408805336 1:0.480906 2:0.45601813 3:0.53701896 4:0.51143329 5:0.23529412 6:0.41176471 7:0.41176471 8:0.55555556 9:0.11111111 10:0.1 11:0.33333333 13:0.1 14:0.18181818 16:0.71428571 17:0.28571429 18:0.125 19:0.22222222 20:0.22222222 22:0.5 23:0.33333333 24:0.2 26:0.16666667 30:0.2 39:0.25 43:0.75 49:0.75 51:0.25 53:0.25 55:0.25 56:0.5 60:0.25 63:0.25 64:0.25 66:0.2 67:0.33333333 69:0.33333333 70:0.25 72:0.47368421 75:1 79:1 80:1 84:1 88:1 90:1 93:1 97:1 101:1 105:1 107:1 109:1 113:1 116:1 136:1 137:1 144:1 151:1 163:1 
2 1:0.42214227 2:0.41844954 3:0.53277974 4:0.43091596 5:0.29411765 6:0.35294118 7:0.41176471 8:0.55555556 9:0.11111111 10:0.2 11:0.16666667 13:0.2 14:0.090909091 15:0.11111111 16:0.42857143 17:0.28571429 19:0.22222222 20:0.33333333 22:0.375 23:0.33333333 24:0.4 26:0.16666667 30:0.2 31:0.2 38:0.125 43:0.5 47:0.25 49:0.5 51:0.25 53:0.25 56:0.5 60:0.5 63:0.25 64:0.25 66:0.2 67:0.33333333 69:0.33333333 70:0.5 71:0.14285714 72:0.42105263 73:1 76:1 84:1 88:1 91:1 99:1 100:1 104:1 111:1 113:1 117:1 121:1 130:1 133:1 136:1 140:1 
1.502160715142243 1:0.41846411 2:0.37088423 3:0.59203639 4:0.48663244 5:0.52941176 6:0.58823529 7:0.23529412 8:0.27777778 9:0.44444444 10:0.4 11:0.16666667 13:0.3 14:0.27272727 15:0.22222222 16:0.28571429 17:0.28571429 20:0.22222222 22:0.5 23:0.11111111 25:0.2 26:0.33333333 27:0.25 29:0.28571429 31:0.4 33:0.25 37:0.5 38:0.125 41:0.2 43:0.5 47:0.5 49:0.5 52:0.25 59:0.25 64:1 72:0.47368421 75:1 79:1 80:1 83:1 85:1 87:1 93:1 97:1 101:1 104:1 108:1 111:1 113:1 118:1 121:1 128:1 131:1 134:1 156:1 170:1 
0.3164883588862651 1:0.61321882 2:0.335578 3:0.69503483 4:0.54297384 5:0.70588235 6:0.52941176 7:0.35294118 8:0.055555556 9:0.44444444 10:0.6 11:0.33333333 13:0.3 14:0.27272727 15:0.33333333 17:0.57142857 19:0.11111111 20:0.11111111 22:0.125 26:0.5 27:0.25 29:0.28571429 30:0.4 31:0.2 33:0.25 37:0.5 39:0.25 41:0.2 42:0.4 44:0.5 47:0.25 52:0.5 56:0.25 59:0.25 64:0.25 72:0.52631579 81:1 82:1 87:1 95:1 100:1 102:1 111:1 113:1 118:1 121:1 122:1 125:1 128:1 152:1 156:1 170:1 
0.483875436723965 1:0.61054367 2:0.084967166 3:0.50195615 4:0.35887 5:0.58823529 6:0.23529412 7:0.41176471 8:0.38888889 9:0.44444444 10:0.2 11:0.16666667 12:0.28571429 13:0.1 14:0.18181818 15:0.22222222 17:0.42857143 19:0.22222222 20:0.22222222 21:0.28571429 22:0.125 23:0.22222222 24:0.2 25:0.2 26:0.33333333 30:0.4 34:0.25 36:0.33333333 37:0.25 41:0.2 42:0.2 44:0.5 54:0.25 57:0.2 58:0.2 59:0.25 60:0.25 62:0.33333333 65:0.25 66:0.2 68:0.5 72:0.31578947 75:1 78:1 84:1 85:1 88:1 89:1 93:1 96:1 97:1 100:1 102:1 107:1 109:1 116:1 124:1 125:1 133:1 136:1 151:1 162:1 168:1 
2 1:0.50195615 2:0.41515286 3:0.67427251 4:0.40033669 5:0.47058824 6:0.41176471 7:0.29411765 8:0.44444444 9:0.33333333 10:0.3 11:0.16666667 13:0.2 14:0.27272727 15:0.33333333 17:0.14285714 18:0.125 20:0.33333333 21:0.28571429 22:0.125 24:0.5 25:0.2 26:0.33333333 29:0.14285714 30:0.4 33:0.25 37:0.25 39:0.25 41:0.2 42:0.4 45:0.16666667 47:0.5 60:0.5 61:0.33333333 64:0.25 68:0.25 69:0.33333333 71:0.42857143 72:0.36842105 74:1 79:1 82:1 87:1 97:1 101:1 103:1 109:1 112:1 115:1 119:1 121:1 124:1 127:1 149:1 155:1 
0.1584356059436178 1:0.68556354 2:0.57723111 3:0.68762033 4:0.77977787 5:0.23529412 6:0.52941176 7:0.64705882 8:0.22222222 10:0.2 11:0.16666667 13:0.2 14:0.27272727 15:0.22222222 16:0.42857143 17:0.28571429 18:0.5 19:0.55555556 23:0.33333333 24:0.1 29:0.14285714 32:0.25 38:0.125 39:0.25 41:0.2 42:0.4 44:0.25 45:0.16666667 50:0.66666667 51:0.25 52:0.25 55:0.75 56:0.25 57:0.4 66:0.6 70:0.25 72:0.78947368 73:1 81:1 86:1 87:1 91:1 93:1 99:1 100:1 103:1 108:1 112:1 113:1 117:1 123:1 126:1 138:1 140:1 
1.461715664823198 1:0.48614155 2:0.39533169 3:0.57813359 4:0.4687905 5:0.52941176 6:0.29411765 7:0.47058824 8:0.33333333 9:0.44444444 10:0.1 11:0.33333333 12:0.28571429 13:0.2 14:0.090909091 15:0.22222222 17:0.28571429 18:0.125 19:0.33333333 20:0.22222222 22:0.375 23:0.11111111 24:0.2 25:0.2 26:0.16666667 27:0.25 28:0.33333333 30:0.2 33:0.25 36:0.33333333 37:0.25 39:0.25 42:0.4 46:0.25 47:0.25 54:0.25 56:0.25 57:0.2 59:0.25 60:0.25 63:0.5 64:0.25 67:0.16666667 69:0.66666667 72:0.42105263 76:1 79:1 80:1 82:1 86:1 94:1 95:1 99:1 103:1 106:1 113:1 118:1 121:1 124:1 126:1 128:1 140:1 147:1 153:1 170:1 
0.4251841797638208 1:0.55943067 2:0.47133563 3:0.69503483 4:0.52794972 5:0.47058824 6:0.35294118 7:0.52941176 8:0.27777778 9:0.11111111 10:0.3 11:0.5 13:0.3 14:0.090909091 15:0.22222222 16:0.14285714 17:0.57142857 19:0.22222222 20:0.33333333 22:0.375 23:0.11111111 24:0.1 27:0.25 29:0.14285714 30:0.2 31:0.2 33:0.25 38:0.25 41:0.2 42:0.2 47:0.5 51:0.25 52:0.25 53:0.5 56:0.5 59:0.5 63:0.25 64:0.25 67:0.16666667 69:0.33333333 72:0.52631579 74:1 76:1 78:1 82:1 86:1 88:1 90:1 96:1 98:1 105:1 107:1 109:1 112:1 115:1 117:1 122:1 135:1 151:1 155:1 
1.180360832579353 1:0.44946022 2:0.86725831 3:0.42509053 4:0.73338301 5:0.35294118 6:0.58823529 7:0.52941176 8:0.16666667 9:0.22222222 10:0.2 11:0.16666667 12:0.14285714 13:0.1 14:0.45454545 15:0.44444444 16:0.14285714 17:0.42857143 18:0.25 19:0.22222222 20:0.11111111 22:0.25 23:0.11111111 26:0.16666667 27:0.25 30:0.2 31:0.2 37:0.25 41:0.2 42:0.6 44:0.5 46:0.25 47:0.25 49:0.25 52:0.25 54:0.25 55:0.25 57:0.2 59:0.25 64:0.5 72:0.73684211 74:1 80:1 85:1 90:1 92:1 98:1 101:1 103:1 114:1 116:1 120:1 122:1 125:1 129:1 149:1 165:1 
0.4627168381261675 1:0.86189425 2:0.69987844 3:0.61115751 4:0.7565979 5:0.17647059 6:0.41176471 7:0.70588235 8:0.33333333 10:0.1 11:0.16666667 12:0.14285714 13:0.1 14:0.18181818 15:0.44444444 16:0.14285714 17:0.28571429 18:0.25 19:0.55555556 20:0.33333333 22:0.375 23:0.11111111 24:0.1 31:0.2 35:0.25 40:0.33333333 42:0.2 43:0.25 46:0.75 47:0.25 50:0.33333333 52:0.25 53:0.25 55:0.5 56:0.5 57:0.2 58:0.2 59:0.25 60:0.25 63:0.25 65:0.5 67:0.16666667 69:0.33333333 72:0.73684211 74:1 84:1 88:1 90:1 91:1 98:1 105:1 108:1 109:1 112:1 114:1 116:1 126:1 155:1 160:1 165:1 
1.566601747917486 1:0.77885235 2:0.35478644 3:0.66315036 4:0.68972686 5:0.29411765 6:0.47058824 7:0.58823529 8:0.27777778 9:0.33333333 11:0.16666667 12:0.14285714 13:0.1 14:0.18181818 15:0.33333333 16:0.28571429 17:0.14285714 18:0.375 19:0.44444444 20:0.22222222 22:0.5 23:0.11111111 25:0.2 27:0.25 28:0.33333333 34:0.25 35:0.25 37:0.25 42:0.4 45:0.16666667 46:0.5 49:0.5 55:0.5 57:0.4 58:0.2 59:0.25 63:0.25 64:0.25 65:0.25 72:0.68421053 74:1 76:1 77:1 81:1 84:1 87:1 90:1 99:1 105:1 107:1 112:1 114:1 119:1 124:1 128:1 132:1 137:1 138:1 160:1 166:1 
1.29301133636639 1:0.49221141 2:0.53682686 3:0.52319537 4:0.56203542 5:0.47058824 6:0.41176471 7:0.52941176 8:0.22222222 9:0.11111111 10:0.1 11:0.5 12:0.28571429 13:0.5 14:0.18181818 15:0.11111111 17:0.14285714 18:0.375 19:0.44444444 20:0.11111111 21:0.14285714 22:0.125 23:0.11111111 24:0.1 26:0.16666667 29:0.14285714 37:0.25 39:0.25 40:0.66666667 41:0.4 42:0.2 45:0.16666667 53:0.25 55:0.5 56:0.25 57:0.2 58:0.2 60:0.25 62:0.33333333 64:0.25 66:0.2 69:0.33333333 72:0.57894737 73:1 76:1 81:1 83:1 90:1 94:1 97:1 104:1 112:1 114:1 119:1 121:1 124:1 130:1 137:1 154:1 160:1 166:1 
0.7517441522268458 1:0.78507348 2:0.44355372 3:0.5128194 4:0.76196262 5:0.17647059 6:0.52941176 7:0.58823529 8:0.33333333 10:0.1 11:0.16666667 12:0.14285714 13:0.2 14:0.090909091 15:0.66666667 16:0.14285714 17:0.14285714 18:0.625 19:0.11111111 20:0.22222222 22:0.375 23:0.11111111 24:0.2 31:0.2 36:0.33333333 38:0.125 40:0.33333333 41:0.2 42:0.2 44:0.25 45:0.5 46:0.25 47:0.25 49:0.25 53:0.25 55:0.25 59:0.5 63:0.25 64:0.25 65:0.25 70:0.25 71:0.14285714 72:0.73684211 74:1 80:1 88:1 89:1 92:1 95:1 99:1 103:1 110:1 117:1 124:1 125:1 129:1 141:1 145:1 149:1 
2 1:0.53701896 2:0.36884977 3:0.93095184 4:0.68828721 5:0.35294118 6:0.70588235 7:0.41176471 8:0.16666667 9:0.11111111 10:0.3 11:0.16666667 12:0.14285714 13:0.4 14:0.45454545 15:0.22222222 16:0.28571429 17:0.14285714 18:0.375 19:0.22222222 22:0.125 23:0.22222222 26:0.16666667 29:0.14285714 30:0.4 33:0.25 37:0.25 38:0.125 39:0.25 40:0.33333333 41:0.4 42:0.2 43:0.25 45:0.16666667 46:0.25 49:0.25 50:0.33333333 52:0.25 55:0.25 64:0.25 66:0.2 72:0.73684211 73:1 76:1 81:1 83:1 87:1 93:1 95:1 103:1 107:1 109:1 112:1 113:1 118:1 123:1 127:1 129:1 130:1 148:1 151:1 155:1 
2 1:0.38712304 2:0.074336461 3:0.42214227 4:0.17332018 5:0.82352941 6:0.23529412 7:0.23529412 8:0.33333333 9:0.77777778 10:0.3 12:0.42857143 13:0.5 17:0.14285714 19:0.22222222 20:0.11111111 21:0.14285714 22:0.25 23:0.11111111 24:0.2 25:0.4 26:0.33333333 28:0.66666667 29:0.28571429 30:0.2 35:0.25 36:0.33333333 37:1 40:0.33333333 41:0.2 52:0.25 56:0.25 58:0.2 60:0.25 63:0.5 66:0.2 68:0.25 69:0.33333333 72:0.15789474 74:1 77:1 82:1 85:1 87:1 91:1 93:1 96:1 99:1 104:1 110:1 113:1 116:1 122:1 125:1 134:1 139:1 157:1 163:1 168:1 
0.6752574309392489 1:0.61358266 2:0.46538055 3:0.50033308 4:0.47524056 5:0.41176471 6:0.47058824 7:0.35294118 8:0.38888889 10:0.3 11:0.16666667 12:0.42857143 13:0.3 14:0.27272727 15:0.11111111 16:0.28571429 17:0.28571429 18:0.25 19:0.22222222 21:0.28571429 22:0.125 23:0.22222222 24:0.1 29:0.14285714 30:0.4 35:0.25 38:0.125 39:0.25 40:0.33333333 41:0.2 43:0.5 44:0.25 48:0.33333333 51:0.25 52:0.5 55:0.25 56:0.25 63:0.25 66:0.2 70:0.25 72:0.47368421 75:1 76:1 81:1 83:1 86:1 89:1 91:1 103:1 106:1 109:1 111:1 114:1 118:1 125:1 147:1 150:1 169:1 
2 1:0.44123508 2:0.41572804 3:0.480906 4:0.28206749 5:0.58823529 6:0.11764706 7:0.47058824 8:0.44444444 9:0.22222222 10:0.2 11:0.33333333 12:0.42857143 13:0.3 17:0.42857143 19:0.33333333 20:0.22222222 21:0.14285714 22:0.125 23:0.33333333 24:0.3 26:0.16666667 27:0.25 29:0.28571429 33:0.25 36:0.66666667 38:0.125 39:0.25 40:0.33333333 41:0.2 54:0.25 56:0.25 57:0.2 58:0.2 59:0.25 64:0.25 66:0.2 67:0.16666667 70:0.5 71:0.14285714 72:0.26315789 79:1 81:1 82:1 85:1 88:1 91:1 93:1 95:1 98:1 100:1 105:1 108:1 114:1 118:1 121:1 122:1 127:1 170:1 
0.723938324087271 1:0.40604948 2:0.37203172 3:0.27826239 4:0.33712844 5:0.58823529 6:0.23529412 7:0.47058824 8:0.33333333 9:0.22222222 10:0.2 11:0.66666667 12:0.28571429 13:0.2 15:0.11111111 16:0.14285714 17:0.57142857 18:0.125 19:0.11111111 20:0.22222222 21:0.28571429 22:0.125 23:0.22222222 24:0.1 26:0.16666667 27:0.25 29:0.14285714 33:0.5 37:0.25 39:0.25 41:0.2 44:0.25 48:0.33333333 52:0.25 53:0.25 54:0.5 55:0.25 58:0.2 60:0.25 62:0.33333333 67:0.16666667 69:0.33333333 72:0.36842105 73:1 77:1 79:1 85:1 88:1 89:1 94:1 96:1 98:1 105:1 108:1 109:1 116:1 122:1 125:1 128:1 162:1 
1.152928736584997 1:0.402202 2:0.45601813 3:0.41407232 4:0.29415008 5:0.64705882 6:0.35294118 7:0.23529412 8:0.38888889 9:0.33333333 10:0.2 11:0.5 12:0.28571429 13:0.2 14:0.18181818 16:0.42857143 17:0.42857143 20:0.11111111 21:0.28571429 22:0.375 23:0.11111111 24:0.1 26:0.16666667 27:0.25 29:0.14285714 30:0.2 33:0.5 34:0.25 35:0.25 37:0.25 40:0.33333333 43:0.5 48:0.33333333 49:0.25 51:0.25 53:0.25 54:0.25 59:0.25 62:0.33333333 63:0.25 64:0.25 68:0.25 72:0.26315789 77:1 81:1 82:1 87:1 93:1 101:1 105:1 108:1 112:1 118:1 121:1 125:1 143:1 144:1 154:1 170:1 
1.986414729305108 1:0.35681947 2:0.19375736 3:0.60477371 4:0.26512073 5:0.64705882 6:0.29411765 7:0.35294118 8:0.33333333 9:0.33333333 10:0.2 11:0.66666667 12:0.28571429 13:0.2 16:0.42857143 17:0.28571429 18:0.25 19:0.11111111 20:0.11111111 21:0.57142857 22:0.125 23:0.11111111 25:0.2 27:0.25 28:0.33333333 32:0.25 33:0.5 34:0.25 35:0.25 37:0.25 39:0.25 43:0.25 48:0.66666667 50:0.33333333 54:0.25 55:0.25 61:0.66666667 62:0.66666667 63:0.25 66:0.2 72:0.31578947 73:1 77:1 84:1 94:1 95:1 97:1 101:1 105:1 116:1 125:1 128:1 144:1 152:1 162:1 
2 1:0.60222828 2:0.20615534 3:0.42214227 4:0.32894592 5:0.41176471 6:0.29411765 7:0.41176471 8:0.5 9:0.11111111 10:0.2 11:0.5 12:0.14285714 13:0.3 14:0.090909091 16:0.14285714 17:0.14285714 18:0.25 20:0.44444444 21:0.28571429 22:0.125 23:0.44444444 24:0.2 26:0.16666667 30:0.2 32:0.25 33:0.25 34:0.25 36:0.33333333 37:0.25 39:0.5 41:0.2 50:0.33333333 54:0.25 59:0.25 60:0.25 61:0.33333333 62:0.33333333 63:0.25 67:0.5 68:0.25 70:0.25 72:0.36842105 75:1 79:1 81:1 84:1 85:1 87:1 90:1 91:1 93:1 95:1 99:1 105:1 110:1 116:1 120:1 122:1 126:1 128:1 132:1 134:1 141:1 162:1 
1.06973674679646 1:0.43316515 2:0.2769399 3:0.46632369 4:0.37015171 5:0.35294118 6:0.41176471 7:0.29411765 8:0.55555556 10:0.3 11:0.16666667 12:0.28571429 13:0.4 14:0.090909091 15:0.22222222 16:0.14285714 17:0.14285714 18:0.125 20:0.33333333 21:0.14285714 22:0.25 23:0.22222222 24:0.4 29:0.28571429 30:0.2 33:0.25 35:0.25 36:0.33333333 38:0.25 40:0.66666667 41:0.2 42:0.2 45:0.16666667 47:0.25 49:0.25 52:0.25 55:0.25 60:0.5 62:0.33333333 65:0.25 67:0.33333333 68:0.25 70:0.25 71:0.14285714 72:0.36842105 73:1 76:1 83:1 86:1 96:1 99:1 100:1 103:1 106:1 109:1 111:1 113:1 117:1 122:1 127:1 130:1 139:1 147:1 150:1 
0.225266287207195 1:0.69503483 2:0.39515241 3:0.42214227 4:0.56400099 5:0.58823529 6:0.52941176 7:0.41176471 8:0.11111111 9:0.22222222 10:0.4 11:0.5 13:0.6 14:0.18181818 15:0.22222222 17:0.28571429 18:0.25 19:0.11111111 20:0.22222222 22:0.125 23:0.11111111 26:0.16666667 29:0.28571429 30:0.2 31:0.2 33:0.25 34:0.25 37:0.25 38:0.375 39:0.5 41:0.2 45:0.33333333 53:0.25 58:0.2 59:0.25 65:0.25 72:0.57894737 73:1 76:1 80:1 82:1 86:1 88:1 89:1 97:1 102:1 111:1 113:1 116:1 120:1 123:1 125:1 130:1 135:1 136:1 163:1 
0.5675487310251186 1:0.31994093 2:0.48692782 3:0.37388971 4:0.24672128 5:0.70588235 6:0.41176471 7:0.17647059 8:0.33333333 9:0.22222222 10:0.3 11:0.33333333 12:0.57142857 13:0.5 14:0.18181818 16:0.14285714 17:0.14285714 18:0.125 20:0.11111111 21:0.42857143 22:0.25 23:0.11111111 26:0.16666667 28:0.33333333 29:0.28571429 30:0.2 34:0.25 35:0.25 37:0.25 38:0.125 40:1 41:0.4 43:0.25 48:0.33333333 53:0.25 55:0.25 59:0.25 62:0.33333333 63:0.25 64:0.25 72:0.26315789 77:1 79:1 80:1 82:1 85:1 87:1 93:1 97:1 101:1 102:1 107:1 118:1 121:1 122:1 127:1 134:1 170:1 
