svm_type epsilon_svr
kernel_type rbf
gamma 0.125
nr_class 2
total_sv 2727
rho -0.327743
SV
0.04515117920802206 1:0.5438914 2:0.56467915 3:0.53701896 4:0.47596859 5:0.3 6:0.26315789 7:0.55555556 8:0.4375 9:0.30769231 11:0.33333333 13:0.14285714 14:0.076923077 15:0.22222222 16:0.28571429 19:0.36363636 20:0.625 22:0.625 23:0.33333333 25:0.33333333 34:0.4 40:0.33333333 43:0.125 44:0.16666667 47:0.16666667 48:0.16666667 50:0.16666667 51:0.33333333 62:0.6 63:0.66666667 64:0.2 68:0.25 69:0.16666667 70:0.16666667 71:0.5 74:0.25 75:0.25 79:0.47826087 80:1 82:1 85:1 92:1 96:1 100:1 101:1 105:1 109:1 115:0.051215724 
0.125 1:0.59505313 2:0.48252746 3:0.56389849 4:0.41061206 5:0.4 6:0.42105263 7:0.27777778 8:0.4375 9:0.23076923 10:0.5 11:0.16666667 13:0.14285714 14:0.076923077 15:0.22222222 16:0.57142857 17:0.375 19:0.090909091 20:0.125 22:0.5 23:0.16666667 24:0.2 25:0.22222222 29:0.2 31:0.75 32:0.25 39:0.2 42:0.2 44:0.16666667 46:0.16666667 48:0.16666667 50:0.33333333 52:0.66666667 53:0.5 59:0.2 63:0.16666667 69:0.16666667 70:0.16666667 71:0.25 74:0.25 76:0.2 77:0.25 79:0.39130435 80:1 82:1 84:1 88:1 89:1 98:1 99:1 102:1 103:1 108:1 110:1 115:0.59943173 
-0.125 1:0.53701896 2:0.53620357 3:0.50033308 4:0.4939864 5:0.25 6:0.26315789 7:0.55555556 8:0.5 9:0.23076923 11:0.33333333 13:0.14285714 14:0.076923077 15:0.22222222 16:0.28571429 19:0.36363636 20:0.75 22:0.625 23:0.33333333 25:0.22222222 34:0.4 40:0.33333333 43:0.125 44:0.16666667 47:0.16666667 48:0.16666667 50:0.16666667 51:0.33333333 62:0.8 63:0.66666667 64:0.2 68:0.25 69:0.16666667 70:0.16666667 71:0.5 74:0.25 75:0.25 79:0.47826087 80:1 82:1 84:1 85:1 86:1 87:1 97:1 115:0.051283035 
0.09339673715954697 1:0.6443844 2:0.44178122 3:0.48798757 4:0.44861398 5:0.65 6:0.21052632 7:0.5 8:0.125 9:0.38461538 10:0.25 11:0.5 12:0.28571429 14:0.15384615 15:0.33333333 17:0.75 19:0.27272727 21:0.2 22:0.125 25:0.11111111 26:0.4 27:0.25 29:0.2 30:0.2 34:0.6 36:0.33333333 37:0.25 43:0.125 44:0.33333333 46:0.5 54:0.5 55:0.25 59:0.6 69:0.16666667 79:0.39130435 80:1 82:1 84:1 87:1 90:1 91:1 94:1 101:1 114:1 115:0.30366296 
-0.125 1:0.52319537 2:0.81029024 3:0.59505313 4:0.53126068 5:0.45 6:0.36842105 7:0.5 8:0.1875 9:0.23076923 10:0.125 11:0.83333333 13:0.28571429 14:0.23076923 15:0.22222222 16:0.14285714 17:0.375 18:0.11111111 19:0.18181818 20:0.25 22:0.375 25:0.11111111 29:0.2 32:0.25 33:0.33333333 35:0.66666667 38:0.16666667 39:0.2 42:0.2 43:0.125 44:0.16666667 45:0.16666667 47:0.33333333 50:0.16666667 54:0.75 57:0.14285714 59:0.4 63:0.33333333 68:0.25 69:0.16666667 70:0.16666667 79:0.52173913 80:1 82:1 86:1 88:1 89:1 93:1 95:1 97:1 100:1 115:0.27588981 
0.125 1:0.3836975 2:0.55310284 3:0.6978734 4:0.56074214 5:0.25 6:0.47368421 7:0.44444444 8:0.375 9:0.15384615 10:0.125 11:0.16666667 12:0.14285714 13:0.14285714 14:0.38461538 15:0.22222222 16:0.28571429 17:0.125 19:0.36363636 20:0.25 22:0.5 23:0.16666667 24:0.1 25:0.11111111 29:0.2 35:0.33333333 41:0.25 42:0.2 43:0.375 44:0.16666667 45:0.16666667 47:0.16666667 50:0.16666667 51:0.33333333 53:0.16666667 59:0.2 61:0.375 63:0.33333333 69:0.33333333 70:0.16666667 71:0.25 75:0.25 76:0.2 79:0.56521739 80:1 82:1 86:1 87:1 88:1 91:1 92:1 95:1 97:1 100:1 101:1 109:1 115:0.16552806 
0.125 1:0.86189425 2:0.57699058 3:0.5989845 4:0.54622279 5:0.35 6:0.36842105 7:0.55555556 8:0.25 9:0.15384615 10:0.375 11:0.33333333 13:0.28571429 14:0.076923077 15:0.33333333 16:0.14285714 17:0.125 18:0.33333333 19:0.27272727 20:0.375 21:0.2 22:0.125 23:0.33333333 25:0.11111111 26:0.2 29:0.2 30:0.4 33:0.66666667 39:0.2 40:0.33333333 42:0.2 44:0.16666667 46:0.16666667 47:0.33333333 49:0.33333333 54:0.25 57:0.14285714 58:0.33333333 60:0.16666667 62:0.4 63:0.16666667 64:0.4 66:0.33333333 68:0.25 74:0.25 75:0.25 79:0.56521739 80:1 82:1 84:1 86:1 91:1 92:1 93:1 97:1 98:1 103:1 115:0.16123648 
-0.125 1:0.60222828 2:0.55859452 3:0.71411512 4:0.5771874 5:0.25 6:0.47368421 7:0.44444444 8:0.375 9:0.15384615 10:0.25 11:0.16666667 14:0.23076923 15:0.44444444 16:0.42857143 17:0.125 18:0.33333333 19:0.090909091 20:0.25 21:0.2 22:0.25 23:0.33333333 24:0.1 25:0.11111111 26:0.2 30:0.2 31:0.25 33:0.33333333 43:0.125 44:0.33333333 45:0.16666667 46:0.16666667 47:0.16666667 48:0.16666667 49:0.33333333 51:0.33333333 52:0.33333333 54:0.25 57:0.14285714 58:0.33333333 63:0.16666667 64:0.2 66:0.33333333 69:0.33333333 73:0.33333333 75:0.25 76:0.2 79:0.56521739 80:1 82:1 84:1 90:1 95:1 96:1 100:1 101:1 115:0.26747583 
0.004630144967976185 1:0.35681947 2:0.59013955 3:0.86189425 4:0.51071297 5:0.4 6:0.36842105 7:0.44444444 8:0.3125 9:0.30769231 10:0.25 11:0.33333333 14:0.23076923 15:0.33333333 16:0.28571429 17:0.25 18:0.22222222 19:0.090909091 20:0.375 21:0.2 22:0.125 23:0.33333333 25:0.22222222 26:0.4 30:0.2 31:0.25 33:0.66666667 43:0.25 44:0.16666667 45:0.16666667 46:0.33333333 47:0.16666667 51:0.33333333 54:0.25 57:0.14285714 62:0.2 63:0.16666667 64:0.2 67:0.33333333 69:0.16666667 75:0.5 79:0.47826087 80:1 82:1 85:1 95:1 96:1 100:1 101:1 115:0.978642 
-0.125 1:0.5128194 2:0.6037518 3:0.66315036 4:0.55500641 5:0.3 6:0.52631579 7:0.38888889 8:0.3125 9:0.15384615 10:0.25 11:0.16666667 12:0.14285714 13:0.14285714 14:0.38461538 15:0.33333333 16:0.28571429 17:0.125 18:0.11111111 19:0.18181818 20:0.25 21:0.2 22:0.375 23:0.16666667 25:0.11111111 27:0.25 30:0.2 31:0.25 34:0.2 36:0.33333333 39:0.2 43:0.5 44:0.33333333 47:0.16666667 50:0.33333333 53:0.16666667 56:0.33333333 62:0.4 63:0.16666667 64:0.2 67:0.33333333 69:0.33333333 71:0.25 72:0.25 79:0.56521739 80:1 82:1 85:1 89:1 91:1 92:1 96:1 97:1 101:1 109:1 115:0.076055516 
0.125 1:0.53701896 2:0.36889422 3:0.52505164 4:0.39203178 5:0.5 6:0.052631579 7:0.66666667 8:0.3125 9:0.30769231 10:0.25 11:0.33333333 12:0.28571429 13:0.14285714 15:0.11111111 17:0.5 19:0.54545455 20:0.125 23:0.5 24:0.2 25:0.22222222 26:0.2 27:0.25 28:0.2 29:0.2 32:0.5 41:0.25 44:0.16666667 47:0.16666667 53:0.16666667 54:0.5 59:0.4 61:0.375 65:0.2 74:0.5 75:0.25 77:0.5 79:0.39130435 80:1 82:1 84:1 90:1 91:1 92:1 93:1 95:1 97:1 115:0.65029693 
-0.125 1:0.42214227 2:0.52801566 3:0.47077004 4:0.47725174 5:0.4 6:0.26315789 7:0.55555556 8:0.3125 9:0.23076923 11:0.66666667 12:0.14285714 13:0.28571429 14:0.076923077 15:0.11111111 16:0.14285714 17:0.125 18:0.33333333 19:0.36363636 20:0.25 21:0.2 22:0.25 23:0.16666667 24:0.1 25:0.11111111 32:0.25 33:0.33333333 34:0.4 38:0.16666667 41:0.25 43:0.125 45:0.16666667 48:0.16666667 50:0.16666667 54:0.25 56:0.33333333 57:0.14285714 60:0.33333333 61:0.125 62:0.2 63:0.16666667 67:0.33333333 68:0.25 74:0.25 77:0.25 79:0.47826087 80:1 84:1 90:1 92:1 95:1 100:1 101:1 102:1 103:1 107:1 115:0.28442606 
0.125 1:0.38580469 2:0.52523248 3:0.57391642 4:0.51283017 5:0.3 6:0.36842105 7:0.5 8:0.375 9:0.076923077 10:0.25 11:0.33333333 12:0.14285714 13:0.42857143 14:0.076923077 15:0.22222222 16:0.28571429 17:0.125 19:0.45454545 20:0.25 22:0.625 24:0.1 28:0.2 30:0.2 32:0.25 34:0.2 37:0.25 39:0.2 40:0.33333333 41:0.25 44:0.16666667 45:0.16666667 47:0.16666667 48:0.16666667 50:0.33333333 53:0.16666667 61:0.375 62:0.2 63:0.16666667 65:0.2 68:0.5 69:0.33333333 71:0.25 76:0.2 79:0.52173913 80:1 85:1 86:1 87:1 91:1 95:1 97:1 113:1 115:0.60309535 
-0.125 1:0.52319537 2:0.6950012 3:0.6443844 4:0.59368783 5:0.2 6:0.52631579 7:0.38888889 8:0.4375 9:0.076923077 10:0.125 11:0.16666667 14:0.46153846 15:0.22222222 16:0.42857143 17:0.25 19:0.27272727 20:0.25 22:0.5 23:0.16666667 24:0.2 29:0.2 34:0.2 43:0.375 44:0.33333333 45:0.33333333 46:0.16666667 47:0.16666667 50:0.33333333 52:0.33333333 53:0.16666667 59:0.2 62:0.4 63:0.16666667 65:0.2 69:0.5 71:0.25 74:0.25 76:0.2 77:0.25 79:0.56521739 80:1 91:1 96:1 98:1 99:1 114:1 115:0.31357367 
-0.125 1:0.42622728 2:0.59420581 3:0.52267638 4:0.37844004 5:0.45 6:0.26315789 7:0.38888889 8:0.4375 9:0.30769231 10:0.125 11:0.5 12:0.14285714 13:0.42857143 16:0.42857143 17:0.125 18:0.33333333 19:0.090909091 20:0.25 22:0.25 23:0.5 24:0.1 25:0.11111111 27:0.25 31:0.25 32:0.25 33:0.66666667 38:0.33333333 40:0.33333333 42:0.2 50:0.16666667 51:0.33333333 52:0.33333333 53:0.16666667 56:0.33333333 58:0.66666667 60:0.16666667 63:0.16666667 64:0.2 68:0.25 69:0.16666667 74:0.25 75:0.5 77:0.25 79:0.34782609 80:1 87:1 91:1 93:1 97:1 100:1 115:0.62575227 
0.125 1:0.24243179 2:0.075121269 3:0.6443844 4:0.14487922 5:0.55 6:0.15789474 7:0.27777778 8:0.5625 9:0.076923077 10:0.25 11:0.5 12:0.57142857 13:0.28571429 16:0.28571429 17:0.25 19:0.18181818 20:0.125 21:1 22:0.25 24:0.2 28:0.2 29:0.2 34:0.4 35:0.33333333 36:0.66666667 37:0.25 41:0.25 45:0.16666667 49:0.33333333 50:0.16666667 53:0.16666667 54:0.25 59:0.4 66:0.33333333 67:0.33333333 68:0.25 71:0.25 78:0.2 79:0.17391304 80:1 86:1 87:1 88:1 92:1 95:1 100:1 115:0.55256165 
-0.125 1:0.4359805 2:0.61356641 3:0.61102148 4:0.57999995 5:0.2 6:0.47368421 7:0.44444444 8:0.4375 9:0.076923077 10:0.125 11:0.16666667 12:0.14285714 13:0.14285714 14:0.38461538 15:0.22222222 16:0.28571429 17:0.125 19:0.36363636 20:0.375 22:0.5 23:0.16666667 24:0.1 29:0.2 35:0.33333333 41:0.25 42:0.2 43:0.375 44:0.16666667 45:0.16666667 47:0.16666667 48:0.16666667 50:0.16666667 51:0.33333333 53:0.16666667 59:0.2 61:0.375 63:0.33333333 69:0.33333333 70:0.16666667 71:0.25 75:0.25 76:0.2 79:0.56521739 80:1 88:1 89:1 93:1 95:1 97:1 101:1 115:0.16528444 
0.08025064102670953 1:0.50033308 2:0.52167696 3:0.16910392 4:0.32292091 5:0.3 6:0.47368421 7:0.16666667 8:0.625 9:0.076923077 10:0.375 11:0.16666667 12:0.14285714 13:0.14285714 14:0.30769231 16:0.71428571 18:0.11111111 20:0.25 21:0.6 22:0.25 23:0.33333333 24:0.2 29:0.2 31:0.5 35:0.33333333 39:0.2 42:0.2 43:0.375 45:0.16666667 49:1 51:0.33333333 52:0.33333333 58:0.33333333 63:0.16666667 65:0.2 66:0.66666667 69:0.16666667 71:0.25 73:0.33333333 75:0.25 76:0.2 77:0.25 79:0.34782609 80:1 86:1 87:1 115:0.014059832 
-0.125 1:0.5128194 2:0.48769272 3:0.67433756 4:0.38756 5:0.4 6:0.36842105 7:0.38888889 8:0.375 9:0.076923077 10:0.625 11:0.33333333 13:0.28571429 14:0.15384615 15:0.22222222 16:0.28571429 17:0.25 19:0.090909091 20:0.375 21:0.4 22:0.125 23:0.33333333 24:0.1 28:0.2 29:0.6 31:0.25 35:0.33333333 39:0.4 44:0.33333333 45:0.16666667 46:0.16666667 48:0.16666667 49:0.66666667 53:0.33333333 62:0.2 63:0.16666667 64:0.2 65:0.2 66:0.33333333 67:0.33333333 68:0.25 72:0.25 74:0.25 77:0.25 79:0.43478261 80:1 85:1 89:1 90:1 92:1 96:1 97:1 100:1 115:0.1901341 
0.125 1:0.61759707 2:0.6814107 3:0.64440919 4:0.53232877 5:0.3 6:0.47368421 7:0.38888889 8:0.375 9:0.076923077 10:0.375 11:0.33333333 13:0.14285714 14:0.15384615 15:0.44444444 16:0.42857143 17:0.25 18:0.11111111 19:0.090909091 20:0.25 21:0.2 22:0.5 24:0.1 29:0.2 30:0.4 35:0.66666667 39:0.2 42:0.2 43:0.125 44:0.16666667 46:0.16666667 47:0.16666667 49:0.33333333 50:0.33333333 53:0.16666667 54:0.25 57:0.14285714 59:0.2 63:0.16666667 65:0.2 66:0.33333333 70:0.16666667 71:0.75 76:0.2 79:0.52173913 80:1 89:1 92:1 96:1 98:1 100:1 107:1 109:1 115:0.24692406 
0.125 1:0.58784235 2:0.385641 3:0.4254219 4:0.32701686 5:0.35 6:0.21052632 7:0.44444444 8:0.5625 9:0.15384615 10:0.25 11:0.33333333 12:0.14285714 13:0.14285714 14:0.076923077 16:0.42857143 17:0.25 19:0.27272727 20:0.25 21:0.2 22:0.25 23:0.5 24:0.3 26:0.2 28:0.2 31:0.25 35:0.66666667 37:0.25 38:0.16666667 45:0.33333333 52:1 53:0.16666667 55:0.25 59:0.2 61:0.25 63:0.16666667 64:0.2 67:0.33333333 69:0.33333333 72:0.25 74:0.25 77:0.5 79:0.34782609 80:1 83:1 85:1 90:1 92:1 100:1 102:1 109:1 110:1 115:0.01587724 
0.125 1:0.30530944 2:0.35010423 3:0.40670149 4:0.28640822 5:0.55 6:0.36842105 7:0.22222222 8:0.375 9:0.30769231 10:0.625 11:0.16666667 12:0.14285714 13:0.28571429 14:0.23076923 16:0.28571429 17:0.375 19:0.090909091 21:0.2 23:0.33333333 24:0.3 26:0.6 27:0.25 28:0.4 29:0.2 31:0.5 32:0.25 38:0.16666667 40:0.33333333 43:0.375 49:0.33333333 52:0.33333333 53:0.16666667 59:0.2 66:0.33333333 72:0.25 74:0.25 77:0.5 78:0.2 79:0.30434783 80:1 83:1 87:1 91:1 97:1 101:1 103:1 115:0.17429853 
-0.125 1:0.56494924 2:0.42572085 3:0.69503483 4:0.48860245 5:0.65 6:0.36842105 7:0.44444444 9:0.23076923 10:0.75 11:0.5 13:0.57142857 14:0.15384615 15:0.22222222 17:0.625 19:0.27272727 25:0.11111111 26:0.4 28:0.2 29:0.6 30:0.4 32:0.5 34:0.2 38:0.16666667 39:0.2 40:0.66666667 42:0.6 46:0.16666667 47:0.16666667 53:0.5 54:0.25 59:0.4 61:0.125 79:0.47826087 80:1 83:1 84:1 85:1 89:1 91:1 95:1 100:1 114:1 115:0.70682874 
-0.125 1:0.32296893 2:0.63164971 3:0.86189425 4:0.56377271 5:0.5 6:0.47368421 7:0.38888889 8:0.125 9:0.30769231 10:0.125 11:0.66666667 13:0.57142857 14:0.23076923 15:0.22222222 16:0.14285714 17:0.125 18:0.44444444 19:0.090909091 20:0.125 22:0.25 25:0.22222222 26:0.2 28:0.2 32:0.25 33:0.66666667 34:0.2 38:0.16666667 40:1 42:0.4 44:0.33333333 50:0.16666667 57:0.42857143 58:0.33333333 62:0.2 63:0.16666667 68:0.25 69:0.16666667 79:0.52173913 80:1 83:1 84:1 85:1 86:1 87:1 90:1 93:1 96:1 97:1 98:1 99:1 114:1 115:0.21398605 
0.125 1:0.5438914 2:0.49319185 3:0.61358266 4:0.48661276 5:0.45 6:0.47368421 7:0.38888889 8:0.1875 9:0.076923077 10:0.625 11:0.33333333 12:0.14285714 13:0.57142857 14:0.15384615 15:0.22222222 16:0.14285714 17:0.25 18:0.11111111 19:0.27272727 20:0.125 21:0.2 22:0.25 26:0.2 28:0.6 29:0.2 31:0.25 32:0.5 37:0.25 39:0.6 40:0.33333333 42:0.2 43:0.125 44:0.16666667 47:0.33333333 49:0.33333333 53:0.16666667 55:0.25 60:0.16666667 61:0.125 62:0.2 63:0.16666667 67:0.33333333 69:0.16666667 70:0.16666667 79:0.52173913 80:1 83:1 89:1 93:1 95:1 98:1 99:1 103:1 106:1 115:0.57533256 
-0.125 1:0.55606605 2:0.59172031 3:0.39926016 4:0.39716355 5:0.3 6:0.47368421 7:0.27777778 8:0.5 9:0.076923077 10:0.5 11:0.16666667 13:0.28571429 14:0.23076923 15:0.11111111 16:0.42857143 17:0.125 19:0.090909091 20:0.375 21:0.2 22:0.375 23:0.33333333 24:0.2 26:0.2 28:0.2 29:0.4 34:0.2 39:0.2 40:0.33333333 43:0.25 45:0.33333333 48:0.16666667 49:0.33333333 50:0.33333333 53:0.16666667 62:0.2 63:0.16666667 65:0.4 66:0.33333333 68:0.25 70:0.16666667 71:0.25 72:0.25 75:0.25 77:0.5 79:0.43478261 80:1 83:1 86:1 100:1 103:1 107:1 111:1 115:0.72720163 
-0.03893837455417719 1:0.61054367 2:0.59318221 3:0.48744926 4:0.49616779 5:0.35 6:0.31578947 7:0.5 8:0.375 9:0.076923077 10:0.25 11:0.33333333 12:0.14285714 13:0.14285714 14:0.15384615 15:0.33333333 16:0.14285714 17:0.375 18:0.11111111 19:0.18181818 20:0.375 21:0.2 22:0.25 23:0.33333333 24:0.1 26:0.2 29:0.2 30:0.2 33:0.33333333 34:0.2 36:0.33333333 41:0.25 42:0.2 43:0.125 44:0.16666667 46:0.33333333 48:0.16666667 50:0.16666667 53:0.16666667 54:0.5 58:0.33333333 61:0.125 62:0.2 64:0.4 65:0.2 69:0.16666667 70:0.16666667 72:0.25 75:0.25 76:0.2 79:0.47826087 80:1 83:1 85:1 95:1 97:1 102:1 106:1 115:0.65440268 
0.125 1:0.34510107 2:0.64631637 3:0.47077004 4:0.46392426 5:0.45 6:0.47368421 7:0.38888889 8:0.1875 9:0.076923077 10:0.75 11:0.33333333 13:0.57142857 14:0.23076923 15:0.22222222 17:0.25 19:0.18181818 20:0.375 21:0.2 22:0.125 23:0.16666667 26:0.2 28:0.6 29:0.4 30:0.2 34:0.2 35:0.33333333 39:0.6 40:0.33333333 42:0.2 43:0.125 44:0.16666667 46:0.16666667 47:0.16666667 53:0.33333333 62:0.4 63:0.16666667 64:0.2 67:0.33333333 69:0.16666667 72:0.25 79:0.52173913 80:1 83:1 86:1 87:1 93:1 95:1 100:1 103:1 106:1 115:0.23087551 
0.0006420773031277464 1:0.23619655 2:0.5604352 3:0.69503483 4:0.50680496 5:0.45 6:0.21052632 7:0.66666667 8:0.1875 9:0.15384615 10:0.375 11:0.66666667 14:0.15384615 15:0.33333333 17:0.625 19:0.27272727 20:0.375 21:0.2 23:0.33333333 26:0.2 29:0.2 30:0.4 32:0.25 34:0.2 35:0.33333333 43:0.25 44:0.16666667 46:0.16666667 47:0.16666667 48:0.16666667 53:0.33333333 54:0.5 59:0.2 61:0.125 62:0.2 64:0.4 67:0.33333333 72:0.5 79:0.52173913 80:1 83:1 85:1 88:1 97:1 99:1 107:1 112:1 115:0.28925049 
0.009817048269105351 1:0.57906094 2:0.3352692 3:0.40604948 4:0.28396651 5:0.65 6:0.42105263 7:0.16666667 8:0.25 9:0.30769231 10:0.625 11:0.33333333 12:0.28571429 13:0.71428571 14:0.15384615 15:0.11111111 17:0.25 20:0.125 21:0.2 22:0.25 24:0.1 25:0.11111111 26:0.6 28:0.4 29:0.2 30:0.2 32:0.25 35:0.33333333 37:0.5 38:0.33333333 39:0.2 40:0.66666667 42:0.6 46:0.16666667 53:0.16666667 55:0.25 65:0.2 69:0.33333333 79:0.30434783 80:1 83:1 86:1 89:1 90:1 94:1 96:1 103:1 115:0.95818145 
0.125 1:0.42214227 2:0.55412677 3:0.59203639 4:0.45963033 5:0.45 6:0.31578947 7:0.44444444 8:0.3125 9:0.23076923 10:0.25 11:0.5 12:0.14285714 13:0.28571429 14:0.15384615 15:0.22222222 16:0.14285714 17:0.375 19:0.18181818 20:0.375 22:0.375 23:0.16666667 26:0.2 28:0.2 29:0.2 32:0.5 34:0.2 38:0.16666667 41:0.25 42:0.2 43:0.125 44:0.16666667 46:0.16666667 48:0.16666667 51:0.33333333 53:0.16666667 54:0.25 61:0.125 62:0.2 63:0.5 69:0.16666667 70:0.16666667 71:0.25 75:0.25 79:0.43478261 80:1 83:1 84:1 92:1 98:1 100:1 101:1 109:1 115:0.97775319 
-0.125 1:0.57906094 2:0.62811791 3:0.61552358 4:0.52557711 5:0.25 6:0.42105263 7:0.38888889 8:0.5 9:0.076923077 10:0.375 11:0.16666667 14:0.076923077 15:0.44444444 16:0.57142857 17:0.375 19:0.090909091 20:0.375 22:0.625 23:0.16666667 24:0.1 26:0.2 29:0.4 31:0.25 35:0.33333333 44:0.16666667 45:0.16666667 46:0.33333333 47:0.16666667 48:0.16666667 50:0.33333333 51:0.33333333 53:0.33333333 54:0.25 59:0.2 63:0.33333333 65:0.2 70:0.5 71:0.5 75:0.25 76:0.2 79:0.47826087 80:1 83:1 84:1 95:1 98:1 100:1 110:1 115:0.62328659 
0.09441439560270125 1:0.5038825 2:0.62951077 3:0.55943067 4:0.50574304 5:0.35 6:0.57894737 7:0.22222222 8:0.375 9:0.15384615 10:0.375 11:0.16666667 12:0.14285714 13:0.28571429 14:0.30769231 15:0.22222222 16:0.57142857 17:0.25 19:0.090909091 20:0.125 22:0.625 26:0.2 27:0.25 29:0.6 32:0.25 38:0.16666667 39:0.2 42:0.2 44:0.16666667 45:0.5 46:0.16666667 47:0.16666667 50:0.66666667 53:0.16666667 54:0.25 62:0.2 63:0.16666667 68:0.25 69:0.33333333 70:0.16666667 71:0.25 79:0.47826087 80:1 83:1 84:1 85:1 86:1 87:1 89:1 96:1 98:1 99:1 106:1 115:0.65776049 
0.125 1:0.40670149 2:0.64631637 3:0.4547451 4:0.47895326 5:0.5 6:0.57894737 7:0.22222222 8:0.1875 9:0.30769231 10:0.625 12:0.14285714 13:0.42857143 14:0.30769231 15:0.33333333 16:0.14285714 17:0.25 19:0.090909091 20:0.125 22:0.375 25:0.11111111 26:0.6 28:0.2 29:0.4 30:0.2 31:0.25 37:0.25 38:0.16666667 39:0.2 41:0.25 42:0.4 43:0.125 44:0.33333333 46:0.33333333 47:0.16666667 50:0.16666667 53:0.16666667 62:0.2 63:0.16666667 69:0.33333333 79:0.47826087 80:1 83:1 84:1 85:1 86:1 91:1 95:1 99:1 102:1 103:1 115:0.85214392 
-0.0236941491280357 1:0.53701896 2:0.40139621 3:0.43316515 4:0.27410885 5:0.4 6:0.21052632 7:0.33333333 8:0.625 9:0.15384615 10:0.25 11:0.33333333 12:0.28571429 13:0.14285714 14:0.076923077 16:0.42857143 17:0.375 19:0.090909091 20:0.25 21:0.2 22:0.25 23:0.5 24:0.3 26:0.2 29:0.4 32:0.25 35:0.33333333 40:0.33333333 45:0.33333333 49:0.33333333 51:0.33333333 52:0.33333333 53:0.16666667 55:0.25 59:0.2 63:0.16666667 65:0.2 68:0.25 71:0.25 72:0.25 74:0.25 75:0.25 76:0.2 77:0.25 78:0.2 79:0.26086957 80:1 83:1 90:1 91:1 95:1 100:1 110:1 111:1 115:0.57322869 
-0.0842466792847674 1:0.61358266 2:0.60785803 3:0.77885235 4:0.61958858 5:0.2 6:0.47368421 7:0.5 8:0.375 9:0.076923077 10:0.25 11:0.16666667 13:0.14285714 14:0.30769231 15:0.33333333 16:0.28571429 17:0.125 19:0.36363636 20:0.5 22:0.5 23:0.16666667 26:0.2 29:0.2 31:0.25 34:0.2 39:0.2 43:0.25 44:0.33333333 45:0.16666667 47:0.16666667 48:0.33333333 50:0.16666667 51:0.33333333 54:0.25 61:0.25 62:0.4 63:0.5 68:0.25 69:0.33333333 70:0.16666667 72:0.25 79:0.60869565 80:1 83:1 84:1 88:1 89:1 90:1 92:1 96:1 97:1 100:1 101:1 109:1 115:0.66437148 
-0.125 1:0.56980027 2:0.53148588 3:0.66315036 4:0.52199206 5:0.35 6:0.42105263 7:0.44444444 8:0.3125 9:0.23076923 10:0.25 11:0.33333333 14:0.23076923 15:0.33333333 16:0.28571429 17:0.25 18:0.22222222 19:0.090909091 20:0.375 21:0.2 22:0.25 23:0.33333333 25:0.11111111 26:0.4 30:0.2 31:0.25 33:0.66666667 43:0.25 44:0.16666667 45:0.16666667 46:0.33333333 47:0.16666667 50:0.16666667 51:0.33333333 54:0.25 57:0.14285714 62:0.2 63:0.16666667 64:0.2 67:0.33333333 69:0.16666667 75:0.5 79:0.52173913 80:1 83:1 84:1 87:1 89:1 93:1 96:1 97:1 101:1 102:1 103:1 115:0.97865098 
0.1093343720969949 1:0.69503483 2:0.75721248 3:0.66315036 4:0.52060968 5:0.3 6:0.57894737 7:0.27777778 8:0.375 9:0.15384615 10:0.375 14:0.46153846 15:0.33333333 16:0.42857143 17:0.125 18:0.11111111 20:0.375 21:0.4 22:0.25 23:0.33333333 26:0.2 29:0.4 31:0.25 43:0.375 44:0.5 45:0.16666667 46:0.16666667 48:0.16666667 49:0.66666667 51:0.33333333 53:0.16666667 58:0.33333333 63:0.33333333 64:0.2 66:0.33333333 69:0.33333333 75:0.5 79:0.52173913 80:1 83:1 84:1 90:1 91:1 94:1 96:1 98:1 100:1 115:0.8684205 
0.125 1:0.46632369 2:0.482383 3:0.50282817 4:0.44283404 5:0.45 6:0.57894737 7:0.22222222 8:0.25 9:0.076923077 10:0.75 11:0.33333333 13:0.42857143 14:0.23076923 15:0.11111111 16:0.57142857 17:0.375 18:0.11111111 21:0.2 22:0.25 23:0.16666667 26:0.2 29:0.6 31:0.75 32:0.25 33:0.33333333 39:0.4 40:0.33333333 42:0.4 45:0.16666667 46:0.16666667 49:0.33333333 50:0.33333333 51:0.33333333 53:0.5 57:0.14285714 67:0.33333333 68:0.25 70:0.16666667 72:0.25 79:0.47826087 80:1 83:1 85:1 86:1 89:1 91:1 93:1 96:1 100:1 103:1 115:0.010290393 
-0.125 1:0.69503483 2:0.38594396 3:0.6443844 4:0.55346321 5:0.4 6:0.47368421 7:0.44444444 8:0.1875 9:0.076923077 10:0.625 11:0.16666667 12:0.14285714 13:0.42857143 14:0.15384615 15:0.33333333 16:0.28571429 17:0.375 18:0.11111111 19:0.27272727 22:0.25 23:0.16666667 26:0.2 28:0.4 29:0.2 31:0.5 32:0.25 39:0.4 41:0.25 42:0.2 43:0.125 44:0.16666667 47:0.33333333 50:0.33333333 53:0.33333333 54:0.25 59:0.2 61:0.125 69:0.16666667 70:0.16666667 72:0.25 79:0.56521739 80:1 83:1 85:1 89:1 90:1 98:1 99:1 115:0.75663014 
0.125 1:0.5038825 2:0.36757183 3:0.44527437 4:0.41238733 5:0.4 6:0.31578947 7:0.38888889 8:0.4375 9:0.23076923 10:0.375 12:0.14285714 14:0.15384615 15:0.11111111 16:0.57142857 17:0.5 19:0.18181818 20:0.125 22:0.25 23:0.66666667 24:0.1 26:0.4 27:0.25 29:0.2 31:0.5 43:0.125 44:0.16666667 45:0.16666667 48:0.16666667 50:0.33333333 51:0.66666667 53:0.16666667 59:0.4 64:0.2 69:0.16666667 71:0.25 72:0.5 74:0.5 77:0.25 79:0.39130435 80:1 83:1 90:1 96:1 114:1 115:0.59663581 
0.125 1:0.11236237 2:0.50158197 3:0.44527437 4:0.17253837 5:0.45 6:0.21052632 7:0.22222222 8:0.6875 9:0.15384615 10:0.125 11:0.16666667 12:0.71428571 13:0.14285714 15:0.11111111 16:0.28571429 17:0.25 19:0.090909091 20:0.125 21:0.6 22:0.5 23:0.16666667 24:0.3 27:0.5 32:0.25 36:0.33333333 37:0.5 41:0.25 45:0.16666667 46:0.16666667 49:0.33333333 50:0.16666667 55:0.5 62:0.2 65:0.2 66:0.33333333 67:0.33333333 68:0.25 69:0.16666667 70:0.16666667 71:0.25 74:0.25 76:0.2 78:0.2 79:0.17391304 80:1 84:1 87:1 92:1 96:1 98:1 103:1 115:0.92341019 
0.125 1:0.61358266 2:0.57100117 3:0.56389849 4:0.46697158 5:0.35 6:0.26315789 7:0.55555556 8:0.375 9:0.23076923 10:0.125 11:0.33333333 12:0.14285714 13:0.14285714 14:0.15384615 15:0.22222222 16:0.14285714 17:0.25 19:0.27272727 20:0.5 22:0.375 23:0.5 27:0.25 30:0.2 35:0.33333333 37:0.25 38:0.16666667 42:0.2 44:0.16666667 45:0.16666667 47:0.16666667 48:0.16666667 51:0.33333333 53:0.16666667 59:0.2 62:0.4 63:0.33333333 64:0.4 69:0.5 72:0.25 74:0.5 79:0.47826087 80:1 89:1 95:1 100:1 106:1 108:1 115:0.59947993 
-0.125 1:0.37999556 2:0.46717077 3:0.3431175 4:0.28294328 5:0.55 6:0.15789474 7:0.38888889 8:0.4375 9:0.30769231 10:0.25 11:0.33333333 12:0.42857143 15:0.11111111 16:0.28571429 17:0.625 19:0.18181818 21:0.2 22:0.25 23:0.33333333 24:0.2 25:0.11111111 27:0.5 31:0.25 32:0.5 37:0.5 44:0.16666667 46:0.16666667 49:0.33333333 52:0.33333333 53:0.33333333 54:0.25 55:0.25 59:0.2 61:0.125 69:0.16666667 71:0.25 72:0.25 74:0.25 77:0.5 79:0.26086957 80:1 84:1 88:1 90:1 93:1 94:1 103:1 108:1 115:0.55074812 
-0.125 1:0.78507348 2:0.51454911 3:0.78816598 4:0.60199419 5:0.4 6:0.21052632 7:0.72222222 8:0.1875 9:0.23076923 10:0.25 11:0.5 13:0.14285714 15:0.33333333 16:0.14285714 17:0.375 18:0.22222222 19:0.54545455 20:0.25 22:0.125 23:0.16666667 26:0.2 28:0.2 30:0.2 32:0.5 33:0.33333333 38:0.16666667 44:0.16666667 47:0.33333333 48:0.16666667 50:0.16666667 53:0.16666667 58:0.33333333 59:0.2 60:0.16666667 61:0.375 62:0.2 64:0.2 69:0.16666667 74:0.25 79:0.56521739 80:1 82:1 90:1 92:1 93:1 95:1 97:1 99:1 106:1 115:0.28043921 
-0.09812033490389918 1:0.49110261 2:0.71088387 3:0.58121897 4:0.53049008 5:0.45 6:0.42105263 7:0.44444444 8:0.1875 9:0.076923077 10:0.5 11:0.33333333 12:0.28571429 13:0.42857143 14:0.076923077 15:0.44444444 17:0.5 18:0.11111111 19:0.18181818 20:0.125 22:0.375 26:0.2 28:0.4 29:0.2 32:0.5 37:0.5 38:0.16666667 41:0.5 42:0.2 44:0.16666667 46:0.33333333 47:0.16666667 48:0.16666667 53:0.5 54:0.25 57:0.14285714 60:0.16666667 61:0.125 63:0.16666667 70:0.5 79:0.52173913 80:1 82:1 94:1 100:1 103:1 115:0.31464576 
-0.125 1:0.40604948 2:0.6950012 3:0.4359805 4:0.46774983 5:0.35 6:0.42105263 7:0.33333333 8:0.4375 9:0.15384615 10:0.125 11:0.33333333 12:0.28571429 13:0.28571429 14:0.30769231 15:0.33333333 17:0.25 20:0.5 22:0.5 23:0.16666667 24:0.1 25:0.11111111 28:0.2 32:0.25 35:0.33333333 37:0.25 38:0.16666667 41:0.25 43:0.25 44:0.5 46:0.16666667 48:0.33333333 53:0.16666667 55:0.25 63:0.5 68:0.25 69:0.5 75:0.25 77:0.25 79:0.43478261 80:1 82:1 91:1 95:1 100:1 101:1 111:1 115:0.1496925 
0.125 1:0.52319537 2:0.62951077 3:0.4246293 4:0.44704122 5:0.35 6:0.52631579 7:0.22222222 8:0.4375 9:0.076923077 10:0.5 11:0.33333333 13:0.28571429 14:0.23076923 15:0.22222222 16:0.57142857 17:0.25 20:0.25 21:0.2 22:0.5 24:0.1 28:0.2 29:0.2 30:0.2 31:0.25 32:0.25 35:0.33333333 38:0.16666667 39:0.2 42:0.2 43:0.125 45:0.33333333 46:0.16666667 48:0.16666667 49:0.33333333 50:0.16666667 52:0.33333333 53:0.33333333 63:0.33333333 66:0.33333333 69:0.33333333 70:0.16666667 71:0.25 76:0.2 79:0.43478261 80:1 82:1 115:0.26736296 
0.08064774285658116 1:0.50033308 2:0.62572014 3:0.61358266 4:0.60646268 5:0.3 6:0.42105263 7:0.55555556 8:0.25 10:0.5 11:0.16666667 12:0.14285714 13:0.28571429 14:0.30769231 15:0.22222222 16:0.14285714 17:0.375 19:0.54545455 20:0.125 22:0.125 23:0.16666667 24:0.1 28:0.2 29:0.6 32:0.25 37:0.25 39:0.2 41:0.25 43:0.25 44:0.33333333 45:0.16666667 47:0.33333333 52:0.33333333 53:0.5 59:0.4 61:0.375 62:0.2 68:0.25 74:0.25 77:0.25 79:0.60869565 80:1 82:1 95:1 97:1 99:1 107:1 112:1 115:0.66089385 
0.125 1:0.40604948 2:0.6950012 3:0.61370245 4:0.63845004 5:0.4 6:0.26315789 7:0.72222222 8:0.125 10:0.375 11:0.66666667 14:0.15384615 15:0.44444444 17:0.875 19:0.36363636 20:0.25 22:0.125 23:0.16666667 29:0.2 30:0.4 32:0.5 34:0.2 35:0.33333333 43:0.25 44:0.16666667 46:0.33333333 47:0.33333333 53:0.5 54:0.75 59:0.4 61:0.125 62:0.2 63:0.16666667 64:0.2 70:0.16666667 72:0.25 79:0.60869565 80:1 82:1 84:1 85:1 91:1 95:1 101:1 108:1 114:1 115:0.0018764687 
0.125 1:0.61321882 2:0.55899895 3:0.5038825 4:0.48928595 5:0.4 6:0.52631579 7:0.27777778 8:0.3125 10:0.5 11:0.33333333 12:0.14285714 13:0.42857143 14:0.30769231 15:0.22222222 16:0.28571429 17:0.5 20:0.125 22:0.375 23:0.16666667 24:0.1 29:0.6 31:0.25 32:0.5 39:0.2 40:0.33333333 41:0.25 42:0.4 43:0.125 44:0.16666667 45:0.16666667 46:0.16666667 48:0.16666667 50:0.16666667 51:0.33333333 53:0.5 63:0.16666667 68:0.25 69:0.16666667 70:0.16666667 72:0.25 76:0.2 79:0.47826087 80:1 82:1 95:1 98:1 106:1 114:1 115:0.20889316 
-0.125 1:0.71411512 2:0.51684731 3:0.77120049 4:0.53673953 5:0.4 6:0.47368421 7:0.44444444 8:0.1875 10:0.5 11:0.5 12:0.14285714 13:0.42857143 14:0.30769231 15:0.22222222 16:0.14285714 17:0.5 18:0.11111111 19:0.090909091 20:0.125 22:0.125 23:0.33333333 28:0.2 29:0.4 30:0.2 32:0.5 39:0.2 40:0.66666667 42:0.4 43:0.25 44:0.16666667 46:0.33333333 51:0.33333333 53:0.5 55:0.25 57:0.14285714 60:0.16666667 63:0.16666667 71:0.25 74:0.25 75:0.25 79:0.56521739 80:1 82:1 84:1 89:1 98:1 100:1 101:1 115:0.66431645 
-0.125 1:0.19591328 2:0.385641 3:0.76730194 4:0.3230477 5:0.3 6:0.31578947 7:0.33333333 8:0.625 10:0.125 11:0.33333333 12:0.42857143 13:0.14285714 14:0.15384615 15:0.11111111 16:0.28571429 17:0.125 18:0.22222222 19:0.090909091 20:0.25 21:0.6 22:0.25 23:0.33333333 24:0.3 32:0.25 35:0.33333333 36:0.33333333 39:0.2 42:0.2 43:0.125 44:0.16666667 47:0.16666667 51:0.66666667 55:0.25 57:0.28571429 60:0.16666667 63:0.16666667 67:0.33333333 71:0.5 73:0.33333333 75:0.25 76:0.2 78:0.2 79:0.34782609 80:1 82:1 87:1 90:1 91:1 92:1 98:1 100:1 101:1 103:1 109:1 115:0.67747962 
0.04906055189735822 1:0.59203639 2:0.42401538 3:0.71411512 4:0.48583388 5:0.45 6:0.31578947 7:0.5 8:0.25 9:0.15384615 10:0.125 11:0.83333333 12:0.14285714 13:0.42857143 15:0.11111111 16:0.28571429 17:0.375 18:0.22222222 19:0.27272727 20:0.125 22:0.5 30:0.2 32:0.25 33:0.33333333 34:0.4 35:0.33333333 37:0.25 39:0.2 40:0.66666667 42:0.2 47:0.16666667 50:0.33333333 55:0.25 58:0.33333333 59:0.4 60:0.16666667 63:0.16666667 68:0.5 69:0.16666667 71:0.25 79:0.47826087 80:1 85:1 86:1 87:1 97:1 99:1 103:1 105:1 115:0.23681392 
0.06198386532327222 1:0.40670149 2:0.35692076 3:0.67427251 4:0.38357134 5:0.55 6:0.26315789 7:0.38888889 8:0.3125 9:0.38461538 10:0.25 11:0.5 12:0.14285714 13:0.28571429 14:0.076923077 15:0.11111111 16:0.28571429 17:0.25 18:0.11111111 19:0.27272727 20:0.125 21:0.2 22:0.25 24:0.1 25:0.22222222 26:0.4 27:0.25 30:0.2 31:0.25 34:0.6 38:0.16666667 40:0.33333333 42:0.4 49:0.33333333 50:0.16666667 54:0.25 58:0.33333333 59:0.4 62:0.2 65:0.2 69:0.33333333 76:0.2 79:0.34782609 80:1 84:1 85:1 92:1 94:1 99:1 115:0.28291843 
-0.125 1:0.30530944 2:0.60560633 3:0.24243179 4:0.34453347 5:0.35 6:0.15789474 7:0.44444444 8:0.625 9:0.076923077 10:0.125 11:0.5 12:0.28571429 13:0.14285714 15:0.22222222 16:0.14285714 17:0.375 19:0.18181818 20:0.375 21:0.2 22:0.375 23:0.16666667 24:0.4 31:0.25 32:0.25 34:0.2 35:0.33333333 37:0.25 41:0.25 44:0.16666667 47:0.16666667 48:0.16666667 49:0.33333333 53:0.16666667 54:0.25 55:0.25 59:0.4 65:0.6 68:0.25 69:0.16666667 70:0.16666667 75:0.25 76:0.4 77:0.25 79:0.30434783 80:1 92:1 94:1 102:1 106:1 109:1 110:1 113:1 115:0.29659786 
0.125 1:0.5438914 2:0.46575702 3:0.52319537 4:0.41045332 5:0.35 6:0.47368421 7:0.27777778 8:0.4375 9:0.076923077 10:0.25 11:0.33333333 12:0.28571429 13:0.42857143 14:0.15384615 15:0.11111111 16:0.42857143 17:0.125 19:0.18181818 20:0.25 21:0.2 22:0.75 27:0.25 28:0.2 31:0.25 34:0.4 36:0.33333333 37:0.25 38:0.16666667 39:0.2 40:0.33333333 42:0.2 44:0.16666667 45:0.16666667 48:0.16666667 50:0.5 55:0.25 59:0.2 62:0.2 63:0.33333333 66:0.33333333 68:0.25 69:0.5 71:0.25 79:0.43478261 80:1 88:1 89:1 91:1 92:1 94:1 97:1 99:1 102:1 103:1 109:1 115:0.36376115 
-0.125 1:0.32158135 2:0.6153897 3:0.50033308 4:0.4926051 5:0.45 6:0.21052632 7:0.66666667 8:0.1875 9:0.15384615 10:0.375 11:0.5 12:0.14285714 13:0.14285714 14:0.15384615 15:0.22222222 17:0.5 19:0.45454545 20:0.25 21:0.2 23:0.33333333 26:0.4 29:0.6 32:0.5 34:0.2 40:0.33333333 42:0.2 44:0.33333333 47:0.33333333 53:0.16666667 55:0.25 59:0.4 61:0.125 62:0.2 64:0.2 67:0.33333333 74:0.25 75:0.25 79:0.52173913 80:1 85:1 88:1 91:1 94:1 96:1 100:1 108:1 115:0.66031538 
-0.125 1:0.51111903 2:0.44253828 3:0.56389849 4:0.43700663 5:0.5 6:0.10526316 7:0.66666667 8:0.25 9:0.23076923 10:0.25 11:0.66666667 12:0.14285714 13:0.42857143 17:0.375 19:0.63636364 20:0.25 22:0.125 23:0.16666667 24:0.1 26:0.2 27:0.25 28:0.4 34:0.4 35:0.66666667 38:0.33333333 40:0.33333333 42:0.2 53:0.16666667 54:0.25 59:0.6 61:0.5 63:0.16666667 65:0.2 69:0.16666667 74:0.25 77:0.25 79:0.43478261 80:1 84:1 90:1 93:1 95:1 100:1 115:0.32271998 
-0.005250699761835956 1:0.54258312 2:0.44253828 3:0.61115751 4:0.45035069 5:0.4 6:0.21052632 7:0.61111111 8:0.3125 9:0.15384615 10:0.375 11:0.33333333 12:0.14285714 13:0.28571429 14:0.076923077 15:0.11111111 16:0.14285714 17:0.375 19:0.45454545 20:0.25 22:0.125 23:0.5 24:0.1 26:0.2 28:0.2 29:0.4 34:0.4 38:0.16666667 41:0.25 42:0.2 45:0.16666667 47:0.16666667 51:0.33333333 53:0.33333333 59:0.6 61:0.25 63:0.16666667 65:0.2 70:0.16666667 75:0.5 77:0.25 79:0.47826087 80:1 84:1 87:1 90:1 92:1 93:1 96:1 97:1 102:1 115:0.60574666 
0.04148934200809521 1:0.77885235 2:0.46585217 3:0.46141643 4:0.55726227 5:0.3 6:0.36842105 7:0.55555556 8:0.3125 9:0.076923077 10:0.25 11:0.16666667 12:0.28571429 13:0.28571429 14:0.23076923 15:0.22222222 17:0.25 18:0.11111111 19:0.54545455 20:0.125 22:0.25 23:0.16666667 24:0.2 27:0.25 29:0.4 34:0.2 37:0.25 39:0.2 41:0.25 42:0.2 43:0.125 44:0.16666667 47:0.33333333 53:0.16666667 56:0.33333333 59:0.4 61:0.375 62:0.2 65:0.2 69:0.16666667 70:0.16666667 73:0.33333333 76:0.2 77:0.25 79:0.56521739 80:1 84:1 86:1 103:1 115:0.66687134 
-0.125 1:0.38580469 2:0.61508337 3:0.67433756 4:0.56941916 5:0.3 6:0.47368421 7:0.5 8:0.25 10:0.5 11:0.16666667 12:0.14285714 13:0.14285714 14:0.38461538 15:0.22222222 16:0.14285714 17:0.5 19:0.27272727 20:0.25 22:0.125 23:0.5 29:0.6 34:0.2 39:0.2 43:0.375 44:0.33333333 45:0.16666667 46:0.16666667 48:0.16666667 50:0.16666667 53:0.5 55:0.25 59:0.2 61:0.25 64:0.4 68:0.25 72:0.5 75:0.25 79:0.60869565 80:1 84:1 96:1 97:1 100:1 103:1 115:0.70917544 
-0.006340963982816604 1:0.78769822 2:0.77698138 3:0.66315036 4:0.81281576 5:0.15 6:0.31578947 7:0.94444444 8:0.125 10:0.125 11:0.33333333 13:0.14285714 14:0.15384615 15:0.44444444 17:0.125 18:0.33333333 19:0.90909091 20:0.25 22:0.125 23:0.16666667 29:0.2 34:0.4 40:0.33333333 44:0.5 47:0.5 53:0.16666667 56:0.33333333 57:0.14285714 60:0.33333333 61:0.625 62:0.4 63:0.16666667 64:0.2 69:0.16666667 72:0.25 79:0.82608696 80:1 84:1 92:1 93:1 94:1 96:1 100:1 105:1 115:0.21841678 
0.1133451864442768 1:0.69503483 2:0.81676467 3:0.61358266 4:0.72779909 5:0.1 6:0.42105263 7:0.72222222 8:0.3125 10:0.125 11:0.16666667 14:0.23076923 15:0.44444444 16:0.28571429 17:0.125 18:0.33333333 19:0.45454545 20:0.375 22:0.25 23:0.5 31:0.25 34:0.2 43:0.125 44:0.5 47:0.16666667 48:0.33333333 50:0.16666667 51:0.33333333 53:0.16666667 57:0.14285714 58:0.33333333 59:0.2 60:0.16666667 61:0.25 62:0.2 63:0.16666667 64:0.4 69:0.33333333 73:0.33333333 74:0.25 79:0.73913043 80:1 88:1 89:1 95:1 97:1 99:1 102:1 115:0.2280297 
0.125 1:0.043865236 2:0.74653743 3:0.45756604 4:0.4176089 5:0.35 6:0.26315789 7:0.5 8:0.4375 9:0.076923077 10:0.25 11:0.33333333 12:0.28571429 13:0.14285714 14:0.076923077 15:0.11111111 16:0.42857143 17:0.25 18:0.22222222 19:0.36363636 21:0.4 22:0.125 23:0.33333333 24:0.2 27:0.25 29:0.2 30:0.2 32:0.25 34:0.2 36:0.33333333 39:0.2 45:0.33333333 47:0.16666667 49:0.33333333 51:0.33333333 52:0.33333333 54:0.25 55:0.25 57:0.14285714 58:0.33333333 60:0.33333333 61:0.25 66:0.33333333 68:0.25 72:0.25 76:0.2 77:0.25 79:0.43478261 80:1 87:1 88:1 95:1 99:1 102:1 107:1 111:1 115:0.513151 
-0.125 1:0.55943067 2:0.66591848 3:0.59184905 4:0.59099076 5:0.3 6:0.26315789 7:0.72222222 8:0.25 10:0.25 11:0.5 13:0.14285714 14:0.15384615 15:0.11111111 16:0.28571429 17:0.375 18:0.11111111 19:0.63636364 20:0.25 21:0.2 22:0.125 23:0.33333333 29:0.2 30:0.2 32:0.25 34:0.4 43:0.125 45:0.33333333 47:0.16666667 50:0.16666667 51:0.33333333 53:0.33333333 54:0.25 57:0.14285714 59:0.2 60:0.16666667 61:0.375 62:0.4 64:0.2 67:0.33333333 68:0.25 72:0.25 74:0.25 79:0.60869565 80:1 87:1 93:1 95:1 97:1 100:1 115:0.71032893 
-0.125 1:0.57432306 2:0.91788044 3:0.67433756 4:0.80666524 5:0.1 6:0.52631579 7:0.72222222 8:0.1875 10:0.125 11:0.16666667 13:0.14285714 14:0.30769231 15:0.33333333 16:0.28571429 18:0.55555556 19:0.63636364 20:0.125 22:0.125 23:0.33333333 34:0.2 39:0.2 42:0.2 43:0.25 44:0.33333333 47:0.5 50:0.16666667 51:0.33333333 57:0.42857143 58:0.33333333 60:0.66666667 61:0.25 62:0.2 64:0.2 71:0.25 73:0.33333333 74:0.25 79:0.82608696 80:1 84:1 85:1 88:1 91:1 97:1 100:1 101:1 103:1 105:1 108:1 115:0.086846 
0.125 1:0.71411512 2:0.4789617 3:0.67433756 4:0.67364895 5:0.25 6:0.47368421 7:0.61111111 8:0.1875 10:0.375 11:0.33333333 13:0.28571429 14:0.15384615 15:0.44444444 16:0.14285714 17:0.125 18:0.55555556 19:0.27272727 20:0.25 21:0.2 23:0.33333333 28:0.2 29:0.4 33:0.33333333 34:0.2 39:0.4 42:0.2 44:0.33333333 47:0.16666667 48:0.16666667 51:0.33333333 53:0.16666667 57:0.14285714 58:0.33333333 60:0.33333333 62:0.2 64:0.2 67:0.33333333 72:0.25 74:0.25 79:0.69565217 80:1 84:1 86:1 91:1 96:1 97:1 100:1 103:1 115:0.16223092 
0.125 1:0.42509053 2:0.61356641 3:0.64440919 4:0.60898303 5:0.25 6:0.47368421 7:0.44444444 8:0.375 10:0.125 11:0.33333333 12:0.28571429 13:0.28571429 14:0.15384615 15:0.44444444 16:0.28571429 17:0.25 18:0.22222222 19:0.18181818 20:0.25 22:0.625 31:0.25 34:0.2 35:0.33333333 37:0.5 41:0.5 42:0.2 44:0.33333333 46:0.33333333 47:0.16666667 50:0.33333333 53:0.16666667 54:0.25 58:0.33333333 60:0.16666667 62:0.2 63:0.16666667 68:0.25 69:0.5 70:0.16666667 79:0.56521739 80:1 84:1 86:1 87:1 88:1 89:1 91:1 96:1 97:1 100:1 115:0.37119882 
-0.125 1:0.67433756 2:0.5604352 3:0.36162238 4:0.6082645 5:0.2 6:0.68421053 7:0.33333333 8:0.3125 10:0.25 11:0.33333333 13:0.28571429 14:0.53846154 15:0.11111111 16:0.42857143 18:0.11111111 19:0.27272727 20:0.25 21:0.2 22:0.5 29:0.4 34:0.4 39:0.2 40:0.33333333 42:0.2 43:0.375 44:0.16666667 45:0.33333333 48:0.16666667 49:0.33333333 50:0.33333333 57:0.14285714 60:0.16666667 61:0.125 62:0.2 63:0.33333333 66:0.33333333 68:0.25 69:0.33333333 71:0.25 79:0.65217391 80:1 92:1 96:1 103:1 109:1 115:0.70938658 
-0.125 1:0.67433756 2:0.77698138 3:0.77885235 4:0.83292221 5:0.2 6:0.57894737 7:0.66666667 8:0.0625 10:0.125 11:0.33333333 13:0.28571429 14:0.53846154 15:0.33333333 17:0.125 18:0.44444444 19:0.54545455 20:0.125 23:0.16666667 29:0.2 32:0.25 34:0.2 39:0.2 40:0.33333333 42:0.2 43:0.5 44:0.5 47:0.33333333 48:0.16666667 56:0.33333333 57:0.42857143 60:0.66666667 61:0.25 64:0.2 74:0.25 79:0.82608696 80:1 93:1 96:1 100:1 105:1 114:1 115:0.085673122 
-0.125 1:0.63259524 2:0.71936034 3:0.77885235 4:0.7865604 5:0.1 6:0.68421053 7:0.5 8:0.25 11:0.33333333 13:0.14285714 14:0.46153846 15:0.33333333 16:0.42857143 18:0.66666667 19:0.27272727 22:0.25 23:0.16666667 24:0.1 33:0.33333333 34:0.2 40:0.33333333 42:0.2 43:0.375 44:0.5 47:0.33333333 50:0.33333333 52:0.33333333 57:0.42857143 58:0.66666667 60:0.5 69:0.16666667 71:0.25 73:0.33333333 77:0.25 79:0.7826087 80:1 93:1 96:1 98:1 100:1 103:1 115:0.24012872 
0.125 1:0.5438914 2:0.24448331 3:0.61102148 4:0.33656462 5:0.45 6:0.15789474 7:0.5 8:0.4375 9:0.15384615 10:0.125 11:0.33333333 12:0.42857143 13:0.28571429 15:0.11111111 16:0.14285714 17:0.25 19:0.36363636 20:0.375 21:0.4 22:0.375 23:0.33333333 25:0.11111111 31:0.25 34:0.4 36:0.33333333 37:0.25 39:0.2 41:0.25 42:0.2 46:0.16666667 51:0.33333333 55:0.5 59:0.2 61:0.25 62:0.2 63:0.33333333 68:0.25 69:0.16666667 70:0.16666667 75:0.5 79:0.34782609 80:1 88:1 89:1 95:1 97:1 102:1 115:0.60426516 
0.125 1:0.51437189 2:0.72041874 3:0.4547451 4:0.54452871 5:0.45 6:0.36842105 7:0.55555556 8:0.125 9:0.15384615 10:0.5 11:0.33333333 12:0.14285714 13:0.42857143 14:0.15384615 15:0.22222222 17:0.375 19:0.54545455 20:0.125 22:0.25 25:0.11111111 26:0.2 28:0.2 29:0.4 30:0.2 34:0.4 37:0.25 39:0.4 40:0.33333333 42:0.4 46:0.16666667 47:0.16666667 53:0.16666667 55:0.25 59:0.4 61:0.375 62:0.2 63:0.16666667 69:0.16666667 70:0.16666667 79:0.56521739 80:1 93:1 95:1 99:1 103:1 108:1 115:0.12411196 
0.125 1:0.4441937 2:0.58446507 3:0.57906094 4:0.47823054 5:0.45 6:0.42105263 7:0.38888889 8:0.25 10:0.5 11:0.5 12:0.14285714 13:0.57142857 14:0.15384615 15:0.22222222 16:0.14285714 17:0.5 19:0.090909091 20:0.25 22:0.375 23:0.16666667 28:0.6 30:0.2 32:0.5 34:0.2 37:0.25 39:0.6 42:0.2 43:0.25 46:0.16666667 48:0.16666667 51:0.33333333 53:0.16666667 54:0.5 55:0.25 62:0.2 63:0.33333333 69:0.16666667 70:0.16666667 71:0.25 72:0.25 79:0.47826087 80:1 94:1 96:1 97:1 99:1 112:1 115:0.031022304 
0.125 2:0.69367197 3:0.5038825 4:0.3896747 5:0.3 6:0.57894737 7:0.16666667 8:0.5 10:0.375 11:0.16666667 12:0.28571429 13:0.42857143 14:0.38461538 15:0.11111111 16:0.28571429 19:0.090909091 20:0.25 21:0.4 22:0.5 24:0.2 28:0.2 29:0.4 34:0.2 36:0.66666667 39:0.4 41:0.25 42:0.2 43:0.25 44:0.16666667 45:0.33333333 48:0.16666667 50:0.16666667 52:0.33333333 62:0.2 63:0.16666667 65:0.2 66:0.33333333 68:0.25 69:0.33333333 76:0.4 79:0.43478261 80:1 87:1 88:1 96:1 99:1 101:1 102:1 103:1 115:0.66290646 
-0.125 1:0.52319537 2:0.48246345 3:0.71411512 4:0.57940225 5:0.45 6:0.52631579 7:0.38888889 8:0.125 9:0.30769231 10:0.125 11:0.66666667 13:0.57142857 14:0.23076923 15:0.22222222 16:0.14285714 18:0.55555556 19:0.090909091 20:0.125 22:0.25 25:0.22222222 26:0.2 28:0.2 33:1 34:0.2 38:0.33333333 40:0.66666667 42:0.2 44:0.33333333 50:0.16666667 56:0.33333333 57:0.42857143 58:0.33333333 62:0.2 63:0.16666667 68:0.25 69:0.16666667 79:0.56521739 80:1 83:1 88:1 89:1 90:1 92:1 97:1 98:1 99:1 103:1 109:1 115:0.21328233 
0.125 1:0.49372418 2:0.59172031 3:0.59184905 4:0.56621232 5:0.2 6:0.15789474 7:0.77777778 8:0.4375 9:0.076923077 10:0.125 11:0.33333333 13:0.14285714 15:0.22222222 16:0.14285714 17:0.125 18:0.11111111 19:0.63636364 20:0.625 22:0.25 23:0.5 24:0.1 26:0.2 31:0.25 33:0.33333333 35:0.33333333 40:0.33333333 44:0.16666667 47:0.33333333 50:0.16666667 56:0.33333333 59:0.2 61:0.25 62:0.8 63:0.16666667 64:0.4 65:0.2 69:0.16666667 70:0.16666667 74:0.75 77:0.25 79:0.56521739 80:1 83:1 84:1 90:1 91:1 92:1 93:1 95:1 97:1 100:1 115:0.27907763 
0.125 1:0.59203639 2:0.79490313 3:0.72397299 4:0.76181685 5:0.05 6:0.68421053 7:0.44444444 8:0.375 11:0.16666667 14:0.38461538 15:0.55555556 16:0.42857143 18:0.55555556 19:0.090909091 20:0.25 22:0.5 23:0.16666667 24:0.1 33:0.33333333 43:0.25 44:0.16666667 45:0.33333333 47:0.16666667 48:0.33333333 50:0.33333333 52:0.33333333 57:0.28571429 58:0.33333333 60:0.16666667 63:0.16666667 64:0.2 69:0.33333333 70:0.33333333 73:0.33333333 76:0.2 79:0.73913043 80:1 83:1 86:1 88:1 91:1 93:1 96:1 98:1 100:1 103:1 115:0.26366381 
-0.09461942090489191 1:0.76730194 2:0.79205049 3:0.59184905 4:0.64446442 5:0.3 6:0.63157895 7:0.38888889 8:0.1875 10:0.5 11:0.16666667 12:0.14285714 13:0.42857143 14:0.46153846 15:0.33333333 16:0.14285714 17:0.125 18:0.33333333 19:0.18181818 20:0.125 21:0.2 23:0.16666667 29:0.6 31:0.25 33:0.33333333 39:0.6 42:0.6 43:0.375 44:0.16666667 47:0.16666667 48:0.16666667 53:0.16666667 57:0.14285714 59:0.2 61:0.125 73:0.33333333 79:0.65217391 80:1 83:1 91:1 96:1 98:1 99:1 105:1 115:0.75547816 
0.125 1:0.53701896 2:0.44545041 3:0.38416511 4:0.50042121 5:0.25 6:0.21052632 7:0.66666667 8:0.4375 11:0.66666667 12:0.14285714 13:0.14285714 14:0.076923077 15:0.11111111 16:0.14285714 17:0.375 18:0.22222222 19:0.27272727 20:0.5 22:0.25 23:0.66666667 24:0.1 32:0.25 33:0.66666667 34:0.2 40:0.33333333 42:0.2 43:0.125 48:0.16666667 51:0.33333333 54:0.5 55:0.25 59:0.2 62:0.4 63:0.33333333 64:0.2 65:0.2 69:0.16666667 71:0.25 72:0.25 74:0.5 75:0.25 77:0.25 79:0.52173913 80:1 83:1 90:1 92:1 93:1 95:1 103:1 106:1 110:1 115:0.29498867 
-0.1068695180973863 1:0.23619655 2:0.50886515 3:0.6443844 4:0.49213453 5:0.2 6:0.42105263 7:0.38888889 8:0.5625 9:0.076923077 10:0.125 11:0.33333333 14:0.23076923 15:0.22222222 16:0.42857143 17:0.125 18:0.22222222 19:0.18181818 20:0.25 21:0.2 22:0.375 23:0.16666667 24:0.4 26:0.2 29:0.2 33:0.33333333 35:0.33333333 44:0.16666667 45:0.5 47:0.16666667 48:0.16666667 50:0.33333333 51:0.33333333 59:0.2 60:0.16666667 65:0.4 67:0.33333333 69:0.5 74:0.25 76:0.2 78:0.4 79:0.47826087 80:1 83:1 88:1 96:1 98:1 99:1 103:1 115:0.28234888 
-0.125 1:0.069892321 2:0.59916365 3:0.63561719 4:0.57441138 5:0.3 6:0.42105263 7:0.5 8:0.3125 9:0.076923077 11:0.5 12:0.28571429 13:0.42857143 14:0.15384615 15:0.33333333 16:0.14285714 18:0.44444444 19:0.27272727 20:0.125 21:0.2 22:0.375 24:0.1 33:1 37:0.25 38:0.16666667 40:0.33333333 41:0.25 43:0.125 44:0.33333333 47:0.33333333 50:0.16666667 56:0.33333333 57:0.28571429 58:0.33333333 61:0.125 62:0.2 63:0.16666667 68:0.5 70:0.16666667 79:0.56521739 80:1 83:1 84:1 95:1 96:1 98:1 101:1 107:1 115:0.34389388 
0.125 1:0.4441937 2:0.54342857 3:0.56389849 4:0.43042232 5:0.25 6:0.47368421 7:0.27777778 8:0.5625 10:0.25 11:0.33333333 12:0.14285714 14:0.23076923 15:0.11111111 16:0.71428571 17:0.375 18:0.11111111 20:0.125 21:0.2 22:0.5 23:0.33333333 24:0.2 31:0.25 32:0.25 33:0.33333333 37:0.25 44:0.16666667 45:0.5 48:0.16666667 49:0.33333333 50:0.16666667 51:0.33333333 52:0.66666667 53:0.16666667 54:0.25 55:0.25 57:0.14285714 64:0.2 66:0.33333333 69:0.5 71:0.25 72:0.5 76:0.4 79:0.43478261 80:1 83:1 85:1 87:1 88:1 89:1 91:1 98:1 99:1 103:1 110:1 115:0.23399634 
-0.125 1:0.53570905 2:0.7469344 3:0.66315036 4:0.78896202 5:0.15 6:0.42105263 7:0.77777778 8:0.1875 10:0.125 11:0.16666667 12:0.14285714 14:0.23076923 15:0.55555556 16:0.14285714 17:0.25 18:0.44444444 19:0.54545455 20:0.125 22:0.125 23:0.33333333 30:0.2 33:0.33333333 37:0.25 44:0.5 45:0.16666667 46:0.16666667 47:0.33333333 51:0.33333333 53:0.16666667 55:0.25 57:0.42857143 59:0.2 60:0.16666667 61:0.375 62:0.2 64:0.2 69:0.16666667 73:0.33333333 74:0.25 79:0.7826087 80:1 83:1 85:1 89:1 93:1 96:1 97:1 108:1 115:0.11963573 
-0.05689490058798621 1:0.44123508 2:0.74172358 3:0.41407232 4:0.50506772 5:0.25 6:0.31578947 7:0.5 8:0.5 10:0.125 11:0.5 12:0.14285714 13:0.14285714 14:0.076923077 15:0.22222222 16:0.42857143 17:0.25 18:0.33333333 19:0.18181818 20:0.25 21:0.2 22:0.25 23:0.33333333 24:0.2 29:0.2 32:0.25 33:0.66666667 41:0.25 42:0.2 43:0.125 47:0.16666667 48:0.16666667 49:0.33333333 51:0.33333333 52:0.33333333 53:0.16666667 54:0.25 58:0.33333333 61:0.125 62:0.2 63:0.16666667 65:0.2 67:0.33333333 71:0.5 72:0.25 73:0.33333333 76:0.2 77:0.25 79:0.47826087 80:1 83:1 84:1 88:1 91:1 96:1 100:1 101:1 108:1 115:0.62102908 
0.03762198234687266 1:0.36591927 2:0.40507953 3:0.62300177 4:0.49482261 5:0.1 6:0.31578947 7:0.55555556 8:0.625 10:0.125 11:0.16666667 14:0.15384615 15:0.22222222 16:0.28571429 17:0.125 18:0.22222222 19:0.090909091 20:0.75 22:0.25 23:1 24:0.2 29:0.2 33:0.33333333 43:0.125 44:0.16666667 45:0.16666667 48:0.33333333 50:0.16666667 51:0.33333333 53:0.16666667 57:0.14285714 58:0.33333333 62:0.2 63:0.16666667 64:0.6 65:0.4 70:0.16666667 72:0.25 73:0.33333333 74:0.25 75:0.75 77:0.5 79:0.52173913 80:1 83:1 85:1 92:1 93:1 96:1 100:1 102:1 103:1 115:0.64783158 
0.03332058898114516 1:0.59184905 2:0.67333056 3:0.64440919 4:0.57779454 5:0.35 6:0.42105263 7:0.55555556 8:0.1875 10:0.375 11:0.66666667 14:0.38461538 15:0.22222222 16:0.14285714 17:0.625 19:0.27272727 20:0.25 21:0.2 22:0.125 23:0.16666667 29:0.4 30:0.2 32:0.5 34:0.2 35:0.33333333 43:0.375 44:0.16666667 45:0.16666667 46:0.16666667 47:0.16666667 50:0.16666667 53:0.5 54:0.5 59:0.2 61:0.125 62:0.2 64:0.2 67:0.33333333 69:0.16666667 72:0.25 79:0.60869565 80:1 84:1 88:1 90:1 103:1 107:1 115:0.28948501 
0.125 1:0.68556354 2:0.63105612 3:0.41846411 4:0.44456067 5:0.4 6:0.31578947 7:0.44444444 8:0.375 9:0.15384615 10:0.125 11:0.5 12:0.14285714 13:0.28571429 14:0.15384615 15:0.22222222 16:0.14285714 17:0.125 18:0.11111111 19:0.27272727 20:0.375 21:0.4 22:0.375 24:0.1 30:0.2 34:0.2 35:0.66666667 37:0.25 38:0.16666667 39:0.2 42:0.4 45:0.16666667 47:0.16666667 49:0.33333333 54:0.25 57:0.14285714 59:0.2 61:0.125 62:0.2 63:0.16666667 65:0.2 69:0.33333333 70:0.16666667 76:0.2 79:0.43478261 80:1 86:1 89:1 92:1 106:1 109:1 113:1 115:0.36610636 
-0.08968651131715179 1:0.44123508 2:0.3219285 3:0.46490125 4:0.1658575 5:0.45 6:0.15789474 7:0.27777778 8:0.6875 9:0.15384615 10:0.125 11:0.5 12:0.28571429 13:0.28571429 16:0.28571429 17:0.125 20:0.5 21:0.6 22:0.375 23:0.33333333 24:0.3 31:0.25 35:1 37:0.25 39:0.2 40:0.33333333 45:0.16666667 49:0.33333333 52:0.33333333 63:0.33333333 68:0.5 69:0.16666667 72:0.25 75:0.25 77:0.5 78:0.2 79:0.17391304 80:1 87:1 100:1 110:1 111:1 115:0.67897892 
-0.125 1:0.69503483 2:0.38293129 3:0.32709496 4:0.35283483 5:0.25 6:0.36842105 7:0.27777778 8:0.6875 10:0.125 11:0.16666667 12:0.42857143 13:0.28571429 14:0.15384615 15:0.11111111 16:0.42857143 17:0.125 19:0.090909091 20:0.375 21:0.2 22:0.625 23:0.33333333 24:0.2 31:0.25 35:0.33333333 37:0.5 39:0.2 41:0.25 42:0.4 45:0.16666667 48:0.16666667 50:0.16666667 52:0.33333333 55:0.25 62:0.2 63:0.16666667 64:0.2 65:0.2 69:0.5 70:0.16666667 71:0.25 72:0.25 74:0.25 76:0.2 79:0.34782609 80:1 89:1 90:1 91:1 92:1 94:1 97:1 113:1 115:0.64184029 
-0.01570757781534305 1:0.80673839 2:0.66591848 3:0.52319537 4:0.63234216 5:0.25 6:0.26315789 7:0.77777778 8:0.25 10:0.25 11:0.5 14:0.076923077 15:0.33333333 16:0.28571429 17:0.375 18:0.22222222 19:0.54545455 20:0.25 21:0.2 22:0.125 23:0.33333333 29:0.4 33:0.66666667 35:0.33333333 44:0.16666667 45:0.16666667 46:0.16666667 47:0.33333333 49:0.33333333 50:0.16666667 53:0.16666667 54:0.5 58:0.33333333 59:0.4 61:0.25 62:0.2 64:0.4 66:0.33333333 70:0.16666667 74:0.5 79:0.65217391 80:1 84:1 86:1 92:1 93:1 95:1 98:1 115:0.23157923 
-0.125 1:0.46632369 2:0.46219842 3:0.57391642 4:0.57437288 5:0.35 6:0.42105263 7:0.55555556 8:0.1875 9:0.076923077 10:0.375 11:0.33333333 12:0.14285714 13:0.42857143 14:0.30769231 15:0.22222222 17:0.25 18:0.11111111 19:0.36363636 20:0.25 22:0.125 23:0.33333333 26:0.2 28:0.2 29:0.2 30:0.2 34:0.2 35:0.33333333 38:0.16666667 39:0.2 40:0.33333333 42:0.2 43:0.375 44:0.16666667 47:0.16666667 53:0.16666667 55:0.25 56:0.33333333 59:0.2 61:0.25 62:0.2 63:0.16666667 64:0.2 69:0.16666667 72:0.25 73:0.33333333 79:0.60869565 80:1 86:1 89:1 90:1 95:1 97:1 101:1 106:1 115:0.16406632 
0.02723282834256215 1:0.32296893 2:0.2607694 3:0.59777282 4:0.27988798 5:0.5 6:0.31578947 7:0.27777778 8:0.4375 9:0.30769231 10:0.25 11:0.16666667 12:0.42857143 13:0.42857143 14:0.15384615 15:0.11111111 16:0.14285714 17:0.125 20:0.375 21:0.2 22:0.375 23:0.5 25:0.22222222 27:0.5 28:0.2 29:0.2 35:0.33333333 36:0.33333333 37:0.5 38:0.16666667 39:0.2 41:0.25 42:0.2 43:0.125 45:0.16666667 46:0.16666667 51:0.33333333 53:0.16666667 63:0.16666667 64:0.4 68:0.25 69:0.16666667 70:0.16666667 75:0.5 79:0.30434783 80:1 85:1 86:1 87:1 98:1 100:1 101:1 102:1 115:0.77726856 
0.125 1:0.41846411 2:0.61920596 3:0.69503483 4:0.56121165 5:0.25 6:0.47368421 7:0.44444444 8:0.375 9:0.076923077 10:0.25 11:0.33333333 13:0.28571429 14:0.23076923 15:0.33333333 16:0.28571429 17:0.125 18:0.22222222 19:0.090909091 20:0.375 22:0.375 23:0.33333333 24:0.1 29:0.2 30:0.2 35:0.66666667 38:0.16666667 39:0.2 42:0.4 44:0.16666667 45:0.16666667 46:0.16666667 50:0.16666667 52:0.33333333 53:0.16666667 57:0.14285714 58:0.33333333 60:0.16666667 63:0.16666667 64:0.4 69:0.33333333 70:0.16666667 74:0.25 75:0.25 76:0.2 79:0.56521739 80:1 87:1 98:1 99:1 115:0.74680089 
-0.125 1:0.67228916 2:0.6638732 3:0.86189425 4:0.64501744 5:0.3 6:0.52631579 7:0.5 8:0.1875 9:0.076923077 10:0.25 11:0.33333333 12:0.14285714 13:0.14285714 14:0.38461538 15:0.44444444 17:0.25 18:0.33333333 19:0.18181818 20:0.25 21:0.2 22:0.125 23:0.16666667 29:0.4 33:0.33333333 35:0.33333333 39:0.2 42:0.2 43:0.375 44:0.16666667 46:0.16666667 47:0.16666667 48:0.16666667 53:0.16666667 57:0.14285714 59:0.2 61:0.125 63:0.16666667 70:0.16666667 73:0.33333333 79:0.65217391 80:1 84:1 90:1 91:1 96:1 99:1 103:1 108:1 112:1 115:0.75527714 
-0.125 1:0.30530944 2:0.66591848 3:0.61358266 4:0.59090486 5:0.15 6:0.52631579 7:0.44444444 8:0.4375 10:0.125 11:0.16666667 12:0.14285714 13:0.14285714 14:0.38461538 15:0.22222222 16:0.28571429 17:0.125 19:0.36363636 20:0.375 22:0.625 23:0.16666667 24:0.1 29:0.2 35:0.33333333 41:0.25 42:0.2 43:0.375 44:0.16666667 45:0.16666667 47:0.16666667 48:0.16666667 50:0.16666667 51:0.33333333 53:0.16666667 59:0.2 61:0.375 63:0.5 69:0.33333333 70:0.16666667 71:0.25 75:0.25 76:0.2 79:0.60869565 80:1 93:1 95:1 97:1 99:1 102:1 103:1 112:1 115:0.16504082 
0.125 1:0.34510107 2:0.37070096 3:0.39926016 4:0.33244186 5:0.35 6:0.31578947 7:0.33333333 8:0.5625 9:0.15384615 10:0.375 11:0.16666667 12:0.14285714 13:0.28571429 14:0.15384615 16:0.42857143 17:0.25 20:0.5 22:0.25 23:0.83333333 24:0.1 26:0.2 27:0.25 28:0.2 29:0.4 35:0.33333333 38:0.16666667 39:0.2 42:0.2 43:0.125 45:0.16666667 50:0.16666667 51:0.33333333 53:0.16666667 63:0.16666667 64:0.4 65:0.2 71:0.5 72:0.5 75:0.75 77:0.25 79:0.34782609 80:1 85:1 98:1 115:0.57432747 
0.125 1:0.40140961 2:0.64944651 3:0.60763745 4:0.51342733 5:0.4 6:0.15789474 7:0.72222222 8:0.25 10:0.25 11:0.83333333 12:0.14285714 15:0.33333333 17:0.625 18:0.11111111 19:0.45454545 20:0.25 21:0.4 22:0.125 24:0.1 29:0.2 30:0.2 32:0.5 34:0.4 35:0.33333333 36:0.33333333 44:0.16666667 46:0.16666667 47:0.16666667 48:0.16666667 53:0.16666667 54:0.75 55:0.25 59:0.4 60:0.16666667 61:0.25 63:0.16666667 65:0.2 66:0.33333333 67:0.33333333 70:0.16666667 79:0.52173913 80:1 85:1 87:1 93:1 94:1 97:1 100:1 103:1 106:1 115:0.97870484 
-0.125 1:0.4441937 2:0.46002668 3:0.6562654 4:0.31650081 5:0.25 6:0.26315789 7:0.33333333 8:0.75 10:0.125 11:0.5 12:0.14285714 15:0.11111111 16:0.57142857 17:0.25 18:0.11111111 19:0.090909091 20:0.25 21:0.4 22:0.5 23:0.16666667 24:0.5 32:0.25 34:0.2 35:0.33333333 37:0.25 45:0.16666667 48:0.16666667 49:0.33333333 50:0.16666667 52:0.66666667 54:0.25 55:0.25 58:0.33333333 59:0.2 65:0.4 66:0.33333333 67:0.33333333 69:0.16666667 70:0.16666667 71:0.5 73:0.33333333 76:0.4 77:0.25 78:0.2 79:0.30434783 80:1 85:1 92:1 95:1 96:1 99:1 103:1 111:1 115:0.53402236 
-0.125 1:0.45557556 2:0.50378048 3:0.5038825 4:0.41295127 5:0.15 6:0.31578947 7:0.44444444 8:0.6875 11:0.5 14:0.23076923 15:0.11111111 16:0.42857143 17:0.125 19:0.090909091 20:0.625 21:0.2 22:0.5 23:0.5 24:0.3 35:1 43:0.25 44:0.16666667 45:0.16666667 50:0.16666667 52:0.66666667 54:0.25 62:0.2 63:0.5 64:0.2 65:0.2 67:0.33333333 69:0.33333333 71:0.5 72:0.25 74:0.25 75:0.25 77:0.5 79:0.43478261 80:1 85:1 86:1 88:1 93:1 97:1 99:1 101:1 115:0.85154694 
-0.1043143321846751 1:0.45341124 2:0.55115486 3:0.53613833 4:0.43839801 5:0.3 6:0.31578947 7:0.44444444 8:0.5 9:0.15384615 10:0.125 11:0.16666667 12:0.14285714 13:0.28571429 14:0.30769231 15:0.11111111 17:0.125 19:0.27272727 20:0.5 22:0.25 23:0.5 24:0.3 26:0.2 30:0.2 35:0.33333333 38:0.33333333 42:0.4 43:0.375 47:0.16666667 55:0.25 61:0.125 62:0.4 63:0.16666667 65:0.6 69:0.33333333 72:0.25 74:0.25 75:0.25 76:0.2 77:0.5 79:0.43478261 80:1 84:1 91:1 94:1 96:1 97:1 101:1 113:1 115:0.96220353 
-0.111099406124661 1:0.71411512 2:0.49456197 3:0.56494924 4:0.53016257 5:0.2 6:0.42105263 7:0.38888889 8:0.5625 10:0.125 11:0.5 13:0.14285714 14:0.15384615 15:0.33333333 16:0.42857143 17:0.25 18:0.11111111 19:0.090909091 20:0.375 22:0.625 24:0.3 31:0.25 32:0.25 34:0.2 35:0.33333333 40:0.33333333 42:0.2 43:0.125 44:0.16666667 46:0.16666667 48:0.33333333 50:0.33333333 52:0.33333333 53:0.16666667 54:0.25 60:0.16666667 63:0.16666667 65:0.4 69:0.33333333 70:0.16666667 71:0.5 76:0.4 79:0.47826087 80:1 89:1 92:1 95:1 99:1 102:1 106:1 109:1 115:0.89806533 
0.125 1:0.23619655 2:0.38814562 3:0.77885235 4:0.41203147 5:0.3 6:0.26315789 7:0.5 8:0.5 9:0.076923077 10:0.125 11:0.5 12:0.14285714 13:0.14285714 14:0.23076923 15:0.11111111 16:0.14285714 18:0.11111111 19:0.36363636 20:0.5 21:0.6 22:0.125 23:0.16666667 24:0.2 29:0.2 35:1 41:0.25 42:0.2 43:0.25 44:0.16666667 47:0.16666667 49:0.33333333 57:0.14285714 60:0.16666667 61:0.25 62:0.2 64:0.2 65:0.4 66:0.33333333 67:0.33333333 71:0.25 74:0.25 76:0.2 79:0.43478261 80:1 88:1 90:1 96:1 97:1 100:1 101:1 115:0.8210895 
-0.001999421585616582 1:0.51404301 2:0.35616919 3:0.52319537 4:0.39734122 5:0.45 6:0.21052632 7:0.55555556 8:0.3125 9:0.15384615 10:0.125 11:0.83333333 12:0.14285714 13:0.42857143 14:0.076923077 16:0.14285714 17:0.25 19:0.36363636 20:0.375 21:0.2 22:0.375 23:0.16666667 28:0.2 32:0.25 34:0.8 38:0.33333333 40:0.33333333 42:0.2 43:0.125 50:0.16666667 54:0.25 55:0.25 59:0.2 62:0.4 63:0.33333333 67:0.33333333 68:0.25 69:0.16666667 71:0.25 75:0.25 79:0.43478261 80:1 82:1 84:1 87:1 88:1 95:1 98:1 107:1 115:0.38738076 
0.125 1:0.32680274 2:0.35106478 3:0.40670149 4:0.30786119 5:0.5 6:0.36842105 7:0.22222222 8:0.4375 9:0.23076923 10:0.625 11:0.16666667 12:0.14285714 13:0.28571429 14:0.23076923 16:0.42857143 17:0.375 19:0.090909091 21:0.2 23:0.33333333 24:0.3 26:0.4 27:0.25 28:0.4 29:0.2 31:0.5 32:0.25 38:0.16666667 40:0.33333333 43:0.375 45:0.16666667 49:0.33333333 52:0.33333333 53:0.16666667 59:0.2 66:0.33333333 72:0.25 74:0.25 77:0.5 78:0.2 79:0.30434783 80:1 82:1 87:1 88:1 92:1 97:1 101:1 115:0.17405491 
-0.125 1:0.45557556 2:0.45174902 3:0.69503483 4:0.49652821 5:0.45 6:0.26315789 7:0.61111111 8:0.1875 9:0.15384615 10:0.5 11:0.5 13:0.14285714 14:0.15384615 15:0.33333333 17:0.5 19:0.27272727 20:0.375 21:0.2 23:0.33333333 26:0.2 28:0.2 29:0.2 30:0.4 32:0.25 34:0.2 35:0.33333333 38:0.16666667 43:0.25 44:0.16666667 47:0.16666667 48:0.16666667 53:0.33333333 54:0.25 59:0.2 61:0.125 62:0.2 64:0.4 67:0.33333333 72:0.5 79:0.52173913 80:1 82:1 85:1 87:1 95:1 100:1 101:1 106:1 108:1 115:0.28918349 
0.09053329068372062 1:0.42509053 2:0.45943519 3:0.4669952 4:0.45186871 5:0.35 6:0.26315789 7:0.55555556 8:0.375 9:0.15384615 10:0.25 11:0.16666667 12:0.28571429 13:0.14285714 14:0.15384615 15:0.11111111 16:0.28571429 17:0.375 18:0.11111111 19:0.27272727 20:0.25 22:0.125 23:0.83333333 26:0.2 28:0.2 31:0.25 35:0.33333333 38:0.16666667 43:0.25 44:0.16666667 47:0.16666667 51:0.66666667 55:0.5 57:0.14285714 60:0.16666667 61:0.125 63:0.16666667 64:0.2 71:0.25 72:0.75 74:0.25 75:0.25 79:0.47826087 80:1 82:1 90:1 91:1 92:1 93:1 94:1 97:1 100:1 101:1 115:0.82115235 
-0.0267109049795262 1:0.34123233 2:0.56881159 3:0.52319537 4:0.51955899 5:0.35 6:0.52631579 7:0.38888889 8:0.25 10:0.5 11:0.5 13:0.42857143 14:0.30769231 15:0.11111111 16:0.42857143 17:0.25 19:0.27272727 20:0.125 21:0.2 22:0.375 28:0.2 29:0.2 30:0.2 31:0.25 32:0.25 34:0.4 40:1 42:0.2 43:0.375 45:0.16666667 48:0.16666667 49:0.33333333 50:0.33333333 53:0.33333333 59:0.2 61:0.125 63:0.16666667 66:0.33333333 68:0.25 69:0.16666667 71:0.25 79:0.56521739 80:1 82:1 84:1 85:1 86:1 89:1 92:1 94:1 98:1 99:1 109:1 112:1 115:0.25372001 
0.125 1:0.39926016 2:0.27827392 3:0.61358266 4:0.35797208 5:0.5 6:0.31578947 7:0.38888889 8:0.3125 9:0.23076923 10:0.5 11:0.33333333 12:0.14285714 13:0.57142857 15:0.11111111 16:0.28571429 17:0.125 19:0.27272727 20:0.25 21:0.2 22:0.375 23:0.16666667 25:0.11111111 26:0.4 28:0.4 29:0.2 31:0.25 34:0.4 36:0.33333333 38:0.16666667 39:0.2 40:0.33333333 41:0.25 45:0.16666667 50:0.16666667 51:0.33333333 54:0.25 61:0.125 62:0.4 63:0.33333333 68:0.5 70:0.16666667 72:0.25 79:0.39130435 80:1 82:1 84:1 87:1 95:1 97:1 99:1 115:0.66132199 
0.125 1:0.57906094 2:0.42282771 3:0.52319537 4:0.46584969 5:0.45 6:0.36842105 7:0.44444444 8:0.25 10:0.625 11:0.5 13:0.71428571 15:0.22222222 16:0.14285714 17:0.375 18:0.11111111 19:0.090909091 20:0.375 22:0.25 23:0.33333333 28:0.8 30:0.2 34:0.2 35:0.66666667 39:0.4 40:0.66666667 45:0.16666667 46:0.16666667 48:0.16666667 50:0.16666667 53:0.33333333 54:0.25 57:0.14285714 59:0.2 63:0.16666667 64:0.4 68:0.25 70:0.16666667 72:0.25 73:0.33333333 79:0.47826087 80:1 82:1 85:1 86:1 88:1 89:1 95:1 115:0.51563023 
-0.125 1:0.38667873 2:0.20586717 3:0.67433756 4:0.37594001 5:0.45 6:0.31578947 7:0.38888889 8:0.375 10:0.625 11:0.33333333 12:0.14285714 13:0.28571429 14:0.15384615 15:0.22222222 16:0.14285714 17:0.5 19:0.090909091 20:0.25 21:0.4 23:0.33333333 24:0.2 28:0.4 29:0.6 32:0.25 35:0.33333333 36:0.33333333 40:0.33333333 41:0.25 44:0.33333333 45:0.16666667 47:0.16666667 48:0.16666667 52:0.33333333 53:0.5 59:0.2 64:0.4 66:0.33333333 67:0.33333333 72:0.5 78:0.2 79:0.39130435 80:1 82:1 85:1 86:1 88:1 96:1 97:1 100:1 114:1 115:0.60397786 
-0.125 1:0.480906 2:0.67725958 3:0.49126314 4:0.46027227 5:0.5 6:0.42105263 7:0.38888889 8:0.1875 9:0.15384615 10:0.75 11:0.33333333 13:0.57142857 14:0.076923077 15:0.33333333 16:0.14285714 17:0.375 18:0.11111111 20:0.25 22:0.125 23:0.33333333 26:0.4 28:0.6 29:0.4 30:0.2 33:0.33333333 38:0.33333333 39:0.4 42:0.2 44:0.16666667 46:0.33333333 48:0.16666667 50:0.16666667 53:0.16666667 54:0.5 58:0.33333333 64:0.4 70:0.16666667 72:0.25 75:0.25 79:0.47826087 80:1 82:1 90:1 92:1 95:1 97:1 100:1 106:1 109:1 115:0.65247001 
0.06829050607704469 1:0.52319537 2:0.60785803 3:0.44527437 4:0.49660814 5:0.4 6:0.57894737 7:0.27777778 8:0.25 10:0.625 11:0.33333333 13:0.57142857 14:0.30769231 15:0.11111111 16:0.42857143 17:0.25 19:0.18181818 20:0.125 21:0.2 22:0.375 28:0.4 29:0.2 30:0.2 31:0.25 32:0.25 34:0.2 39:0.2 40:0.66666667 42:0.2 43:0.375 45:0.16666667 48:0.16666667 49:0.33333333 50:0.33333333 53:0.33333333 59:0.2 61:0.125 63:0.16666667 66:0.33333333 68:0.25 69:0.16666667 71:0.25 79:0.52173913 80:1 82:1 85:1 87:1 90:1 96:1 101:1 115:0.25420726 
0.1043733401663062 1:0.27826239 2:0.44545041 3:0.58784235 4:0.4290413 5:0.4 6:0.31578947 7:0.5 8:0.3125 10:0.625 11:0.33333333 12:0.14285714 13:0.57142857 14:0.076923077 15:0.11111111 16:0.14285714 17:0.25 19:0.45454545 20:0.125 21:0.2 22:0.125 23:0.16666667 24:0.2 28:0.6 29:0.4 32:0.25 35:0.33333333 37:0.25 39:0.4 40:0.33333333 41:0.25 44:0.16666667 45:0.16666667 47:0.16666667 52:0.33333333 53:0.33333333 59:0.2 61:0.375 65:0.2 67:0.33333333 68:0.25 74:0.25 77:0.25 79:0.47826087 80:1 82:1 85:1 87:1 91:1 97:1 100:1 115:0.66127949 
-0.125 1:0.17982662 2:0.39271487 3:0.61358266 4:0.28270696 5:0.5 6:0.31578947 7:0.27777778 8:0.4375 9:0.15384615 10:0.375 11:0.5 12:0.28571429 13:0.57142857 14:0.076923077 16:0.28571429 17:0.25 19:0.090909091 20:0.125 21:0.2 22:0.375 23:0.16666667 24:0.2 25:0.11111111 27:0.25 28:0.6 32:0.25 34:0.2 38:0.16666667 39:0.4 40:0.33333333 45:0.33333333 49:0.33333333 50:0.16666667 54:0.25 55:0.25 62:0.2 63:0.16666667 67:0.33333333 68:0.25 69:0.33333333 72:0.25 76:0.2 77:0.25 79:0.30434783 80:1 82:1 87:1 88:1 95:1 98:1 99:1 106:1 115:0.55259756 
-0.004090062058584245 1:0.80673839 2:0.36422927 3:0.49126314 4:0.47729134 5:0.2 6:0.26315789 7:0.55555556 8:0.5625 10:0.25 11:0.16666667 13:0.14285714 14:0.076923077 15:0.22222222 16:0.28571429 17:0.25 18:0.22222222 19:0.090909091 20:0.625 22:0.125 23:1 24:0.2 28:0.2 30:0.2 33:0.33333333 39:0.2 43:0.125 45:0.16666667 46:0.16666667 48:0.16666667 50:0.16666667 51:0.33333333 54:0.25 57:0.14285714 58:0.33333333 62:0.2 64:0.6 65:0.4 70:0.16666667 72:0.25 73:0.33333333 74:0.25 75:0.75 77:0.5 79:0.47826087 80:1 82:1 84:1 86:1 92:1 95:1 97:1 100:1 107:1 114:1 115:0.64879792 
0.125 1:0.42141644 2:0.64631637 3:0.56494924 4:0.53597859 5:0.35 6:0.57894737 7:0.27777778 8:0.3125 10:0.625 12:0.14285714 13:0.42857143 14:0.15384615 15:0.44444444 16:0.42857143 17:0.25 18:0.22222222 20:0.125 21:0.2 22:0.375 23:0.16666667 28:0.2 30:0.6 31:0.25 37:0.25 39:0.4 42:0.2 43:0.125 44:0.16666667 46:0.33333333 48:0.16666667 50:0.33333333 51:0.33333333 53:0.33333333 56:0.33333333 57:0.14285714 69:0.16666667 71:0.5 73:0.33333333 79:0.52173913 80:1 82:1 84:1 88:1 95:1 99:1 115:0.76000453 
-0.125 1:0.6443844 2:0.5017594 3:0.51404301 4:0.43179224 5:0.3 6:0.21052632 7:0.55555556 8:0.5 10:0.375 11:0.33333333 12:0.14285714 13:0.14285714 14:0.076923077 15:0.11111111 16:0.28571429 17:0.5 19:0.27272727 20:0.375 22:0.125 23:0.66666667 24:0.2 28:0.2 29:0.2 30:0.2 35:0.66666667 39:0.2 45:0.33333333 48:0.16666667 51:0.33333333 52:0.33333333 53:0.16666667 54:0.5 55:0.25 59:0.4 61:0.125 63:0.16666667 64:0.4 69:0.16666667 72:0.5 74:0.5 78:0.2 79:0.43478261 80:1 82:1 84:1 95:1 100:1 102:1 115:0.72971436 
-0.02975254468223686 1:0.47790352 2:0.49863343 3:0.6443844 4:0.52087539 5:0.2 6:0.63157895 7:0.22222222 8:0.5 10:0.375 11:0.16666667 13:0.14285714 14:0.38461538 15:0.22222222 16:0.71428571 17:0.25 20:0.125 22:0.625 23:0.16666667 24:0.2 28:0.2 30:0.2 31:0.25 32:0.25 39:0.2 43:0.5 45:0.33333333 48:0.16666667 50:0.5 51:0.33333333 52:0.33333333 53:0.16666667 54:0.25 65:0.2 69:0.33333333 70:0.16666667 71:0.5 72:0.25 76:0.4 79:0.52173913 80:1 82:1 84:1 86:1 88:1 89:1 92:1 98:1 99:1 109:1 112:1 115:0.23398645 
0.125 1:0.44123508 2:0.58446507 3:0.22662396 4:0.37614619 5:0.3 6:0.57894737 7:0.11111111 8:0.5625 10:0.375 11:0.16666667 12:0.28571429 13:0.42857143 14:0.30769231 15:0.11111111 16:0.57142857 20:0.25 21:0.4 22:0.625 24:0.1 28:0.2 29:0.2 30:0.2 35:0.33333333 36:0.33333333 37:0.25 39:0.4 41:0.25 42:0.2 43:0.25 45:0.33333333 48:0.16666667 49:0.33333333 50:0.33333333 63:0.16666667 65:0.2 67:0.33333333 68:0.25 69:0.33333333 71:0.5 76:0.2 79:0.39130435 80:1 82:1 88:1 89:1 92:1 94:1 99:1 101:1 109:1 115:0.14189652 
0.125 1:0.5438914 2:0.56160559 3:0.52319537 4:0.40344616 5:0.35 6:0.57894737 7:0.16666667 8:0.4375 9:0.076923077 10:0.5 11:0.16666667 12:0.14285714 13:0.42857143 14:0.23076923 15:0.11111111 16:0.71428571 17:0.125 20:0.125 21:0.2 22:0.625 23:0.16666667 26:0.2 28:0.2 29:0.4 31:0.25 37:0.25 39:0.4 41:0.25 42:0.2 45:0.5 46:0.16666667 49:0.33333333 50:0.5 51:0.33333333 63:0.16666667 67:0.33333333 68:0.25 69:0.33333333 70:0.16666667 71:0.25 75:0.25 79:0.43478261 80:1 82:1 88:1 89:1 90:1 91:1 94:1 96:1 98:1 99:1 115:0.8526826 
0.09518518928561928 1:0.11236237 2:0.64879258 3:0.56389849 4:0.37678392 5:0.45 6:0.15789474 7:0.5 8:0.4375 9:0.15384615 10:0.125 11:0.33333333 12:0.42857143 13:0.28571429 15:0.22222222 17:0.375 18:0.11111111 19:0.27272727 20:0.25 21:0.2 22:0.25 23:0.33333333 24:0.2 27:0.25 28:0.2 33:0.33333333 34:0.2 37:0.25 40:0.33333333 41:0.25 44:0.16666667 47:0.33333333 55:0.25 59:0.2 62:0.4 63:0.16666667 65:0.2 68:0.25 69:0.16666667 72:0.5 77:0.25 79:0.34782609 80:1 82:1 84:1 87:1 91:1 92:1 95:1 100:1 114:1 115:0.52102421 
-0.125 1:0.60763745 2:0.53814537 3:0.5438914 4:0.5844857 5:0.2 6:0.42105263 7:0.55555556 8:0.375 10:0.25 11:0.16666667 12:0.14285714 13:0.14285714 14:0.30769231 15:0.22222222 16:0.28571429 17:0.25 18:0.11111111 19:0.36363636 20:0.25 22:0.25 23:0.5 24:0.1 28:0.2 29:0.2 32:0.25 41:0.25 43:0.375 44:0.16666667 45:0.16666667 47:0.16666667 48:0.16666667 50:0.16666667 52:0.33333333 53:0.16666667 54:0.25 57:0.14285714 61:0.25 62:0.2 63:0.16666667 64:0.2 70:0.16666667 71:0.25 72:0.25 73:0.33333333 74:0.25 77:0.25 79:0.60869565 80:1 82:1 84:1 86:1 92:1 95:1 97:1 100:1 109:1 115:0.052090772 
-0.125 1:0.36570358 2:0.35692076 3:0.37388971 4:0.30960211 5:0.45 6:0.31578947 7:0.33333333 8:0.4375 10:0.625 11:0.33333333 12:0.28571429 13:0.42857143 14:0.076923077 15:0.22222222 16:0.14285714 17:0.375 20:0.25 21:0.4 22:0.125 23:0.33333333 24:0.2 28:0.6 29:0.4 32:0.25 35:0.33333333 36:0.33333333 37:0.25 40:0.33333333 41:0.5 44:0.16666667 45:0.16666667 46:0.16666667 48:0.16666667 52:0.33333333 53:0.5 64:0.4 66:0.33333333 67:0.33333333 70:0.16666667 72:0.25 78:0.2 79:0.34782609 80:1 82:1 85:1 86:1 87:1 91:1 92:1 100:1 102:1 115:0.60403173 
0.125 1:0.61370245 2:0.52590081 3:0.57432306 4:0.41506774 5:0.3 6:0.31578947 7:0.38888889 8:0.5625 10:0.375 11:0.16666667 12:0.28571429 13:0.28571429 15:0.22222222 16:0.42857143 17:0.375 18:0.11111111 19:0.090909091 20:0.25 22:0.375 23:0.5 24:0.2 28:0.2 29:0.2 31:0.25 32:0.25 37:0.25 41:0.5 42:0.2 46:0.16666667 48:0.16666667 51:0.66666667 52:0.33333333 53:0.33333333 54:0.25 58:0.33333333 60:0.16666667 63:0.33333333 70:0.33333333 71:0.25 72:0.25 74:0.25 75:0.25 77:0.25 79:0.39130435 80:1 82:1 85:1 86:1 89:1 97:1 100:1 102:1 107:1 115:0.22083075 
-0.125 1:0.19672822 2:0.35061678 3:0.48798757 4:0.17782528 5:0.75 6:0.10526316 7:0.27777778 8:0.375 9:0.46153846 10:0.375 11:0.5 12:0.28571429 13:0.14285714 15:0.22222222 17:0.5 20:0.125 21:0.6 24:0.3 25:0.22222222 26:0.4 28:0.2 29:0.2 30:0.2 32:0.75 36:0.33333333 41:0.25 44:0.16666667 46:0.16666667 48:0.16666667 67:0.33333333 78:0.4 79:0.13043478 80:1 82:1 90:1 93:1 94:1 102:1 115:0.73774801 
-0.03821333955239947 1:0.78769822 2:0.61780246 3:0.39926016 4:0.51120827 5:0.2 6:0.31578947 7:0.5 8:0.5625 10:0.375 12:0.14285714 15:0.33333333 16:0.57142857 17:0.25 18:0.44444444 19:0.18181818 20:0.125 21:0.2 23:0.66666667 24:0.3 29:0.2 30:0.4 45:0.16666667 46:0.16666667 49:0.33333333 51:0.33333333 52:0.66666667 53:0.33333333 58:1 60:0.16666667 61:0.125 65:0.2 72:0.25 73:0.33333333 74:0.25 75:0.25 77:0.75 79:0.47826087 80:1 85:1 100:1 111:1 115:0.24096226 
0.125 1:0.5128194 2:0.51684731 3:0.86189425 4:0.60941982 5:0.25 6:0.52631579 7:0.44444444 8:0.3125 10:0.375 11:0.16666667 12:0.14285714 13:0.42857143 14:0.30769231 15:0.33333333 16:0.14285714 17:0.125 18:0.11111111 19:0.27272727 20:0.375 22:0.375 23:0.16666667 29:0.4 30:0.2 35:0.33333333 39:0.4 40:0.33333333 42:0.2 43:0.25 44:0.16666667 45:0.16666667 46:0.16666667 47:0.16666667 55:0.25 61:0.125 62:0.4 63:0.5 68:0.5 69:0.16666667 74:0.25 79:0.60869565 80:1 85:1 89:1 95:1 96:1 97:1 100:1 101:1 115:0.37910552 
0.125 1:0.42214227 2:0.55412677 3:0.402202 4:0.50078629 5:0.5 6:0.31578947 7:0.5 8:0.1875 9:0.15384615 10:0.375 11:0.5 12:0.14285714 13:0.42857143 14:0.15384615 15:0.22222222 17:0.5 18:0.11111111 19:0.27272727 20:0.125 22:0.125 23:0.16666667 24:0.1 26:0.2 29:0.4 30:0.2 34:0.4 35:0.33333333 37:0.25 39:0.2 41:0.25 42:0.2 43:0.125 44:0.16666667 47:0.16666667 54:0.5 56:0.33333333 59:0.6 65:0.2 68:0.25 72:0.25 77:0.25 79:0.47826087 80:1 98:1 115:0.67276311 
-0.125 1:0.17982662 2:0.47225757 3:0.51748371 4:0.43130091 5:0.45 6:0.31578947 7:0.44444444 8:0.3125 9:0.15384615 10:0.5 12:0.42857143 13:0.28571429 14:0.15384615 15:0.33333333 17:0.375 19:0.36363636 21:0.2 22:0.125 23:0.16666667 24:0.2 25:0.11111111 27:0.25 28:0.2 29:0.2 30:0.4 36:0.33333333 38:0.16666667 41:0.25 42:0.2 43:0.125 44:0.16666667 47:0.5 53:0.33333333 55:0.25 59:0.6 66:0.33333333 69:0.16666667 74:0.25 76:0.2 78:0.2 79:0.43478261 80:1 87:1 88:1 100:1 101:1 108:1 115:0.007328692 
-0.125 1:0.40604948 2:0.48252746 3:0.53701896 4:0.48388985 5:0.3 6:0.42105263 7:0.38888889 8:0.4375 10:0.375 11:0.16666667 12:0.14285714 13:0.14285714 14:0.30769231 15:0.11111111 16:0.42857143 17:0.5 19:0.18181818 20:0.125 22:0.25 23:0.5 24:0.2 29:0.2 30:0.2 31:0.25 32:0.25 40:0.33333333 42:0.2 43:0.375 45:0.16666667 47:0.16666667 50:0.16666667 51:0.33333333 52:0.33333333 53:0.33333333 55:0.25 59:0.2 61:0.125 63:0.16666667 69:0.16666667 71:0.25 72:0.5 75:0.25 77:0.25 78:0.2 79:0.47826087 80:1 84:1 87:1 96:1 114:1 115:0.1557831 
-0.125 1:0.66315036 2:0.87810873 3:0.83174277 4:0.81752342 5:0.15 6:0.47368421 7:0.72222222 8:0.1875 10:0.375 14:0.30769231 15:0.55555556 16:0.14285714 17:0.25 18:0.22222222 19:0.72727273 20:0.125 22:0.125 24:0.1 29:0.2 30:0.4 43:0.25 44:0.33333333 45:0.16666667 47:0.5 48:0.16666667 52:0.33333333 53:0.33333333 57:0.14285714 59:0.4 60:0.16666667 61:0.625 63:0.16666667 69:0.16666667 79:0.7826087 80:1 84:1 85:1 86:1 91:1 93:1 94:1 96:1 97:1 98:1 100:1 101:1 102:1 105:1 115:0.19140116 
0.1170750095709632 1:0.61054367 2:0.50119655 3:0.4525872 4:0.59488692 5:0.2 6:0.26315789 7:0.66666667 8:0.4375 10:0.25 12:0.14285714 13:0.14285714 15:0.44444444 16:0.14285714 17:0.25 18:0.11111111 19:0.54545455 20:0.375 22:0.375 23:0.33333333 24:0.2 30:0.2 31:0.25 37:0.25 39:0.2 44:0.16666667 47:0.5 48:0.16666667 50:0.16666667 55:0.25 56:0.33333333 59:0.4 60:0.16666667 61:0.125 62:0.4 64:0.2 65:0.4 69:0.16666667 70:0.33333333 74:0.5 76:0.2 77:0.25 79:0.56521739 80:1 84:1 86:1 93:1 94:1 105:1 113:1 114:1 115:0.82938504 
-0.0325756769409165 1:0.5438914 2:0.80969581 3:0.67433756 4:0.81890333 5:0.15 6:0.73684211 7:0.5 8:0.125 10:0.375 14:0.61538462 15:0.55555556 16:0.14285714 17:0.25 18:0.44444444 19:0.18181818 20:0.125 23:0.33333333 29:0.2 30:0.2 31:0.25 43:0.625 44:0.66666667 46:0.16666667 47:0.33333333 51:0.33333333 53:0.33333333 57:0.42857143 60:0.16666667 62:0.2 64:0.2 72:0.25 73:0.33333333 79:0.82608696 80:1 88:1 90:1 91:1 97:1 100:1 101:1 103:1 115:0.14946894 
-0.1215775999711552 1:0.36570358 2:0.54389843 3:0.34118031 4:0.53173873 5:0.4 6:0.47368421 7:0.38888889 8:0.25 10:0.5 11:0.33333333 12:0.14285714 13:0.42857143 14:0.23076923 15:0.33333333 16:0.14285714 17:0.375 18:0.11111111 19:0.18181818 20:0.125 21:0.2 22:0.25 24:0.1 28:0.2 29:0.2 30:0.2 31:0.25 32:0.25 34:0.2 37:0.25 39:0.2 40:0.66666667 42:0.2 43:0.25 44:0.16666667 46:0.16666667 47:0.16666667 50:0.16666667 53:0.33333333 59:0.2 62:0.2 65:0.2 68:0.25 69:0.16666667 79:0.52173913 80:1 84:1 85:1 86:1 87:1 95:1 101:1 106:1 111:1 114:1 115:0.57315487 
-0.125 1:0.28178205 2:0.71185252 3:0.5438914 4:0.51148078 5:0.25 6:0.42105263 7:0.44444444 8:0.4375 9:0.076923077 10:0.375 11:0.16666667 13:0.28571429 14:0.15384615 15:0.33333333 16:0.14285714 17:0.125 18:0.22222222 19:0.090909091 20:0.5 22:0.25 23:0.5 24:0.2 26:0.2 30:0.2 31:0.25 32:0.25 38:0.16666667 40:0.33333333 42:0.4 44:0.16666667 47:0.16666667 48:0.16666667 51:0.33333333 53:0.16666667 57:0.28571429 62:0.2 63:0.33333333 64:0.2 65:0.2 69:0.16666667 70:0.16666667 73:0.33333333 75:0.5 77:0.25 78:0.2 79:0.52173913 80:1 85:1 95:1 100:1 103:1 115:0.41986592 
0.125 1:0.42509053 2:0.60047439 3:0.73404041 4:0.57337062 5:0.2 6:0.52631579 7:0.38888889 8:0.4375 10:0.125 11:0.16666667 12:0.28571429 13:0.14285714 14:0.23076923 15:0.22222222 16:0.57142857 17:0.25 18:0.33333333 19:0.18181818 22:0.5 23:0.33333333 24:0.1 30:0.2 33:0.33333333 37:0.5 41:0.25 45:0.5 46:0.16666667 50:0.33333333 51:0.33333333 52:0.33333333 54:0.25 55:0.25 57:0.28571429 60:0.16666667 61:0.125 68:0.25 69:0.33333333 71:0.25 72:0.25 74:0.25 77:0.25 79:0.56521739 80:1 87:1 88:1 89:1 90:1 95:1 97:1 98:1 99:1 103:1 108:1 115:0.44393382 
0.125 1:0.76730194 2:0.53279429 3:0.38580469 4:0.46194735 5:0.35 6:0.52631579 7:0.27777778 8:0.375 9:0.076923077 10:0.5 11:0.16666667 12:0.14285714 13:0.42857143 14:0.15384615 15:0.33333333 16:0.42857143 17:0.125 18:0.11111111 20:0.25 21:0.2 22:0.5 23:0.16666667 26:0.2 28:0.2 29:0.4 30:0.2 32:0.25 37:0.25 39:0.2 40:0.33333333 41:0.25 44:0.16666667 45:0.33333333 48:0.16666667 50:0.33333333 51:0.33333333 53:0.16666667 56:0.33333333 63:0.16666667 68:0.25 69:0.16666667 70:0.16666667 71:0.25 75:0.25 79:0.47826087 80:1 86:1 92:1 98:1 109:1 115:0.85257486 
-0.125 1:0.47790352 2:0.57456486 3:0.4441937 4:0.34962836 5:0.65 6:0.21052632 7:0.38888889 8:0.25 9:0.38461538 10:0.25 11:0.66666667 12:0.14285714 13:0.14285714 15:0.22222222 16:0.28571429 17:0.5 18:0.11111111 19:0.090909091 20:0.125 21:0.4 22:0.25 25:0.11111111 26:0.2 30:0.4 32:0.5 33:0.33333333 34:0.2 37:0.25 38:0.16666667 45:0.16666667 46:0.16666667 48:0.16666667 49:0.33333333 50:0.16666667 54:0.25 55:0.25 56:0.33333333 59:0.2 67:0.33333333 69:0.16666667 71:0.25 79:0.30434783 80:1 85:1 94:1 99:1 115:0.53411214 
-0.125 1:0.5038825 2:0.46888475 3:0.61552358 4:0.43408586 5:0.4 6:0.47368421 7:0.27777778 8:0.375 10:0.5 11:0.16666667 12:0.28571429 13:0.71428571 14:0.15384615 15:0.22222222 16:0.14285714 17:0.25 19:0.090909091 20:0.25 22:0.5 23:0.16666667 24:0.1 28:0.2 29:0.2 30:0.4 32:0.25 37:0.25 39:0.4 40:0.33333333 41:0.25 42:0.6 48:0.33333333 50:0.16666667 53:0.16666667 55:0.25 59:0.2 63:0.16666667 65:0.2 68:0.25 69:0.33333333 71:0.25 74:0.25 76:0.2 79:0.43478261 80:1 89:1 99:1 106:1 111:1 115:0.68196466 
0.125 1:0.61370245 2:0.48762129 3:0.50033308 4:0.51031985 5:0.4 6:0.31578947 7:0.5 8:0.3125 9:0.23076923 10:0.375 11:0.33333333 13:0.28571429 15:0.33333333 16:0.28571429 17:0.25 19:0.36363636 20:0.375 22:0.5 25:0.11111111 26:0.2 28:0.4 30:0.2 34:0.4 38:0.16666667 40:0.33333333 45:0.16666667 46:0.16666667 47:0.16666667 48:0.16666667 50:0.16666667 53:0.16666667 59:0.2 61:0.125 62:0.4 63:0.5 69:0.16666667 70:0.33333333 71:0.25 79:0.47826087 80:1 85:1 94:1 96:1 100:1 115:0.96179953 
-0.125 1:0.55697137 2:0.4233624 3:0.5438914 4:0.53812797 5:0.35 6:0.52631579 7:0.38888889 8:0.25 10:0.625 11:0.16666667 12:0.14285714 13:0.71428571 14:0.15384615 15:0.44444444 17:0.125 18:0.11111111 19:0.090909091 20:0.375 22:0.375 23:0.16666667 28:0.2 29:0.4 30:0.4 35:0.33333333 39:0.8 40:0.33333333 42:0.4 44:0.16666667 46:0.16666667 48:0.16666667 55:0.25 62:0.2 63:0.5 68:0.5 69:0.16666667 74:0.25 79:0.56521739 80:1 86:1 87:1 90:1 97:1 99:1 107:1 115:0.37937355 
0.125 1:0.4669952 2:0.37505115 3:0.57813359 4:0.4812383 5:0.35 6:0.31578947 7:0.5 8:0.375 9:0.076923077 10:0.375 11:0.33333333 12:0.14285714 13:0.14285714 14:0.15384615 15:0.33333333 16:0.14285714 17:0.25 18:0.11111111 19:0.27272727 20:0.375 21:0.4 22:0.125 23:0.16666667 24:0.1 29:0.4 30:0.2 32:0.25 35:0.33333333 41:0.25 42:0.2 44:0.33333333 48:0.33333333 54:0.25 58:0.33333333 59:0.2 61:0.25 63:0.16666667 65:0.2 66:0.66666667 69:0.16666667 74:0.25 79:0.47826087 80:1 92:1 96:1 97:1 105:1 106:1 115:0.60351999 
0.125 1:0.23619655 2:0.69569769 3:0.59203639 4:0.51313495 5:0.3 6:0.47368421 7:0.38888889 8:0.375 9:0.076923077 10:0.625 13:0.14285714 14:0.15384615 15:0.55555556 16:0.14285714 17:0.25 18:0.11111111 20:0.5 21:0.2 22:0.25 23:0.33333333 24:0.1 26:0.2 29:0.4 30:0.4 31:0.25 38:0.16666667 43:0.125 44:0.33333333 48:0.66666667 49:0.33333333 53:0.33333333 63:0.16666667 64:0.4 65:0.2 66:0.33333333 68:0.25 70:0.16666667 72:0.5 76:0.2 79:0.52173913 80:1 88:1 93:1 96:1 97:1 100:1 101:1 103:1 115:0.57586861 
-0.125 1:0.57432306 2:0.51272952 3:0.55943067 4:0.46691838 5:0.5 6:0.21052632 7:0.61111111 8:0.1875 9:0.076923077 10:0.25 11:0.83333333 12:0.14285714 13:0.28571429 14:0.15384615 16:0.14285714 17:0.625 19:0.45454545 20:0.125 21:0.2 22:0.125 23:0.16666667 27:0.25 29:0.4 32:0.5 34:0.6 37:0.25 38:0.16666667 40:0.33333333 42:0.2 43:0.125 45:0.16666667 51:0.33333333 53:0.16666667 54:0.75 59:0.4 61:0.25 62:0.2 67:0.33333333 68:0.25 72:0.25 79:0.47826087 80:1 83:1 92:1 95:1 105:1 114:1 115:0.70945389 
0.1060001561784781 1:0.68762033 2:0.57983775 3:0.41407232 4:0.51036194 5:0.35 6:0.42105263 7:0.44444444 8:0.3125 9:0.15384615 10:0.25 11:0.16666667 12:0.28571429 13:0.14285714 14:0.30769231 15:0.22222222 16:0.14285714 17:0.25 18:0.22222222 19:0.27272727 20:0.125 21:0.2 22:0.125 23:0.33333333 24:0.1 26:0.2 27:0.25 29:0.4 32:0.25 38:0.16666667 42:0.2 43:0.25 44:0.33333333 46:0.16666667 49:0.33333333 55:0.25 57:0.14285714 60:0.16666667 61:0.125 62:0.2 63:0.16666667 67:0.33333333 71:0.25 74:0.5 77:0.25 79:0.52173913 80:1 83:1 89:1 101:1 103:1 108:1 115:0.62099189 
0.1217934779973985 1:0.60752713 2:0.64631637 3:0.64440919 4:0.53864352 5:0.4 6:0.52631579 7:0.33333333 8:0.25 9:0.076923077 10:0.5 11:0.5 13:0.42857143 14:0.23076923 15:0.22222222 16:0.42857143 17:0.375 18:0.11111111 19:0.090909091 20:0.125 22:0.375 26:0.2 29:0.8 32:0.5 33:0.33333333 38:0.16666667 39:0.2 40:0.33333333 42:0.2 44:0.16666667 45:0.33333333 46:0.16666667 47:0.16666667 50:0.33333333 53:0.16666667 54:0.5 56:0.33333333 62:0.2 63:0.16666667 68:0.25 70:0.16666667 71:0.25 79:0.52173913 80:1 83:1 84:1 86:1 87:1 89:1 96:1 97:1 100:1 115:0.65737484 
0.125 1:0.32296893 2:0.49352357 3:0.49372418 4:0.4125691 5:0.5 6:0.21052632 7:0.5 8:0.3125 9:0.30769231 10:0.5 11:0.33333333 13:0.28571429 14:0.076923077 15:0.22222222 17:0.375 19:0.27272727 20:0.375 23:0.33333333 24:0.2 25:0.11111111 26:0.4 28:0.2 29:0.4 30:0.2 32:0.25 34:0.2 38:0.16666667 40:0.33333333 42:0.2 44:0.16666667 48:0.33333333 53:0.16666667 59:0.2 61:0.125 62:0.2 64:0.2 65:0.4 72:0.25 74:0.25 77:0.25 79:0.39130435 80:1 83:1 84:1 85:1 87:1 97:1 102:1 115:0.96214967 
0.125 1:0.57432306 2:0.5113657 3:0.32296893 4:0.37015446 5:0.3 6:0.42105263 7:0.27777778 8:0.5625 10:0.25 11:0.33333333 12:0.28571429 13:0.28571429 14:0.30769231 15:0.11111111 16:0.28571429 17:0.25 20:0.25 21:0.2 22:0.375 23:0.33333333 24:0.3 29:0.4 32:0.25 35:0.33333333 37:0.25 39:0.2 41:0.25 42:0.2 43:0.125 44:0.16666667 45:0.33333333 48:0.16666667 51:0.33333333 52:0.33333333 54:0.25 55:0.25 63:0.16666667 67:0.33333333 68:0.25 69:0.33333333 72:0.25 76:0.2 77:0.25 78:0.2 79:0.39130435 80:1 83:1 98:1 102:1 110:1 115:0.20402068 
0.125 1:0.35681947 2:0.61508337 3:0.69772966 4:0.54118582 5:0.3 6:0.68421053 7:0.27777778 8:0.25 10:0.75 13:0.42857143 14:0.46153846 15:0.11111111 16:0.42857143 17:0.125 19:0.27272727 20:0.125 21:0.2 22:0.25 23:0.16666667 29:0.6 31:0.75 39:0.6 42:0.4 43:0.375 44:0.16666667 47:0.16666667 49:0.33333333 50:0.16666667 51:0.33333333 53:0.16666667 59:0.2 61:0.125 62:0.2 63:0.16666667 66:0.33333333 68:0.25 69:0.16666667 74:0.25 79:0.60869565 80:1 83:1 88:1 97:1 103:1 107:1 115:0.055725587 
0.08763433180592511 1:0.54258312 2:0.68324268 3:0.40717527 4:0.50466854 5:0.3 6:0.63157895 7:0.22222222 8:0.375 10:0.5 12:0.28571429 13:0.42857143 14:0.46153846 15:0.22222222 16:0.28571429 17:0.25 19:0.090909091 22:0.375 23:0.16666667 24:0.2 29:0.4 30:0.2 31:0.25 37:0.25 39:0.6 42:0.6 43:0.25 44:0.16666667 45:0.16666667 47:0.16666667 50:0.16666667 52:0.33333333 55:0.5 59:0.2 69:0.5 72:0.25 76:0.2 77:0.25 79:0.52173913 80:1 83:1 86:1 88:1 90:1 91:1 93:1 94:1 98:1 99:1 110:1 115:0.67835602 
-0.125 1:0.4525872 2:0.62951077 3:0.57417768 4:0.57247496 5:0.25 6:0.47368421 7:0.44444444 8:0.375 10:0.25 11:0.16666667 12:0.28571429 13:0.28571429 14:0.23076923 15:0.44444444 16:0.14285714 17:0.25 19:0.27272727 20:0.25 22:0.625 24:0.1 29:0.2 31:0.25 32:0.25 37:0.5 41:0.5 42:0.2 43:0.25 44:0.16666667 47:0.5 48:0.16666667 50:0.16666667 53:0.16666667 54:0.25 59:0.2 62:0.2 63:0.16666667 65:0.2 68:0.25 69:0.16666667 70:0.5 76:0.2 79:0.56521739 80:1 83:1 96:1 97:1 101:1 107:1 115:0.81491069 
-0.125 1:0.61102148 2:0.482383 3:0.78816598 4:0.58098583 5:0.3 6:0.42105263 7:0.55555556 8:0.25 10:0.25 11:0.33333333 12:0.28571429 13:0.28571429 14:0.30769231 15:0.22222222 17:0.375 18:0.11111111 19:0.36363636 20:0.25 22:0.25 23:0.33333333 29:0.4 34:0.2 35:0.33333333 37:0.25 39:0.2 41:0.25 42:0.4 43:0.25 44:0.16666667 47:0.16666667 48:0.16666667 54:0.5 55:0.25 57:0.14285714 59:0.2 60:0.16666667 61:0.25 63:0.16666667 64:0.2 70:0.16666667 72:0.5 79:0.60869565 80:1 83:1 93:1 95:1 96:1 98:1 99:1 102:1 103:1 115:0.71053087 
-0.125 1:0.19591328 2:0.34472025 3:0.402202 4:0.30388088 5:0.4 6:0.21052632 7:0.38888889 8:0.5625 10:0.375 11:0.16666667 12:0.57142857 13:0.14285714 14:0.076923077 15:0.22222222 16:0.14285714 17:0.5 19:0.090909091 20:0.25 21:0.4 22:0.125 23:0.5 24:0.2 29:0.4 31:0.25 32:0.25 36:0.33333333 41:0.25 44:0.33333333 46:0.16666667 48:0.16666667 49:0.33333333 53:0.33333333 54:0.25 55:0.25 62:0.2 63:0.16666667 65:0.2 68:0.25 72:0.5 74:0.25 77:0.25 79:0.30434783 80:1 83:1 85:1 86:1 90:1 100:1 102:1 107:1 115:0.86671499 
-0.125 1:0.68556354 2:0.55310284 3:0.69772966 4:0.60809332 5:0.3 6:0.47368421 7:0.5 8:0.25 10:0.5 11:0.33333333 13:0.14285714 14:0.23076923 15:0.44444444 16:0.14285714 17:0.5 18:0.11111111 19:0.18181818 20:0.25 22:0.25 23:0.16666667 24:0.1 29:0.4 30:0.4 34:0.2 35:0.33333333 39:0.2 42:0.2 44:0.33333333 45:0.16666667 46:0.33333333 47:0.16666667 52:0.33333333 53:0.33333333 54:0.5 57:0.14285714 59:0.2 62:0.2 63:0.16666667 64:0.2 69:0.16666667 72:0.25 76:0.2 79:0.60869565 80:1 83:1 86:1 89:1 93:1 96:1 100:1 102:1 103:1 115:0.52125873 
-0.03885859195804187 1:0.50033308 2:0.68590955 3:0.77885235 4:0.700988 5:0.3 6:0.57894737 7:0.5 8:0.125 9:0.076923077 10:0.375 11:0.16666667 13:0.28571429 14:0.53846154 15:0.33333333 17:0.25 19:0.45454545 20:0.25 22:0.25 26:0.2 29:0.6 32:0.25 40:0.33333333 42:0.4 43:0.375 44:0.5 47:0.5 53:0.16666667 59:0.2 61:0.25 62:0.4 63:0.33333333 69:0.33333333 79:0.69565217 80:1 83:1 84:1 86:1 90:1 96:1 100:1 101:1 108:1 115:0.66094206 
0.07189457024084264 1:0.57391642 2:0.46230795 3:0.71411512 4:0.57713846 5:0.3 6:0.31578947 7:0.66666667 8:0.25 10:0.5 11:0.33333333 13:0.28571429 14:0.076923077 15:0.22222222 16:0.14285714 17:0.375 18:0.11111111 19:0.54545455 20:0.25 22:0.125 23:0.33333333 24:0.1 28:0.2 29:0.4 34:0.2 35:0.33333333 39:0.2 40:0.33333333 44:0.33333333 46:0.16666667 47:0.16666667 51:0.33333333 53:0.33333333 54:0.25 56:0.33333333 59:0.4 60:0.16666667 61:0.25 62:0.2 63:0.16666667 65:0.2 71:0.25 74:0.5 77:0.25 79:0.60869565 80:1 83:1 84:1 97:1 99:1 103:1 106:1 115:0.41972131 
-0.125 1:0.61552358 2:0.51727261 3:0.38712304 4:0.52333652 5:0.35 6:0.47368421 7:0.38888889 8:0.3125 9:0.076923077 10:0.375 11:0.33333333 12:0.14285714 13:0.14285714 14:0.23076923 15:0.33333333 16:0.28571429 17:0.375 18:0.22222222 19:0.090909091 20:0.125 21:0.2 22:0.25 23:0.16666667 24:0.1 26:0.2 29:0.2 30:0.2 31:0.25 32:0.25 33:0.33333333 40:0.33333333 42:0.2 43:0.125 44:0.33333333 46:0.16666667 47:0.16666667 49:0.33333333 50:0.16666667 53:0.16666667 55:0.25 58:0.33333333 59:0.2 65:0.2 67:0.33333333 69:0.33333333 75:0.25 76:0.2 79:0.52173913 80:1 83:1 84:1 87:1 89:1 91:1 95:1 101:1 103:1 113:1 115:0.3239596 
0.125 1:0.78816598 2:0.77062466 3:0.521522 4:0.7041301 5:0.15 6:0.57894737 7:0.5 8:0.3125 10:0.25 12:0.14285714 13:0.14285714 14:0.38461538 15:0.44444444 16:0.14285714 17:0.125 18:0.22222222 19:0.45454545 20:0.125 22:0.375 24:0.2 29:0.2 30:0.2 37:0.25 41:0.25 42:0.2 43:0.25 44:0.33333333 45:0.16666667 47:0.33333333 48:0.16666667 52:0.33333333 53:0.16666667 57:0.14285714 59:0.2 60:0.16666667 61:0.375 63:0.16666667 69:0.33333333 76:0.2 78:0.2 79:0.69565217 80:1 83:1 84:1 85:1 89:1 91:1 96:1 102:1 103:1 113:1 115:0.1923956 
-0.125 1:0.59203639 2:0.3943846 3:0.52319537 4:0.57819687 5:0.2 6:0.31578947 7:0.66666667 8:0.375 10:0.25 11:0.33333333 13:0.14285714 14:0.15384615 15:0.33333333 16:0.14285714 17:0.125 18:0.11111111 19:0.45454545 20:0.5 21:0.2 22:0.25 23:0.33333333 24:0.1 29:0.2 30:0.2 34:0.4 39:0.2 43:0.125 44:0.33333333 46:0.16666667 47:0.16666667 48:0.16666667 50:0.16666667 54:0.25 56:0.33333333 60:0.16666667 61:0.25 62:0.4 63:0.16666667 64:0.4 65:0.2 67:0.33333333 69:0.16666667 71:0.25 75:0.25 79:0.60869565 80:1 83:1 84:1 85:1 92:1 95:1 98:1 102:1 115:0.63221153 
-0.06195708945630663 1:0.70613726 2:0.5813792 3:0.69772966 4:0.76084838 5:0.2 6:0.89473684 7:0.27777778 8:0.125 10:0.25 11:0.33333333 13:0.28571429 14:0.84615385 15:0.22222222 16:0.28571429 17:0.125 18:0.33333333 19:0.090909091 22:0.25 29:0.4 33:0.66666667 39:0.2 40:0.33333333 42:0.4 43:0.625 44:0.33333333 45:0.33333333 47:0.16666667 50:0.33333333 54:0.25 57:0.42857143 59:0.2 69:0.33333333 79:0.7826087 80:1 83:1 89:1 91:1 96:1 97:1 101:1 103:1 115:0.28064022 
0.125 1:0.45557556 2:0.54905269 3:0.40604948 4:0.51434983 5:0.4 6:0.52631579 7:0.33333333 8:0.25 9:0.076923077 10:0.75 11:0.16666667 13:0.57142857 14:0.23076923 15:0.33333333 16:0.14285714 17:0.25 19:0.090909091 20:0.375 22:0.25 23:0.16666667 26:0.2 28:0.6 29:0.4 30:0.2 35:0.33333333 38:0.16666667 39:0.4 40:0.33333333 43:0.125 44:0.33333333 45:0.16666667 46:0.16666667 47:0.16666667 48:0.16666667 50:0.16666667 53:0.33333333 62:0.2 63:0.16666667 64:0.2 68:0.25 69:0.16666667 72:0.25 79:0.52173913 80:1 83:1 91:1 94:1 115:0.22876432 
-0.125 1:0.36906296 2:0.50278295 3:0.58403118 4:0.52881509 5:0.3 6:0.36842105 7:0.55555556 8:0.3125 10:0.375 11:0.16666667 12:0.28571429 13:0.28571429 14:0.23076923 15:0.22222222 16:0.14285714 17:0.375 18:0.11111111 19:0.27272727 20:0.25 22:0.125 23:0.66666667 29:0.4 31:0.25 35:0.33333333 37:0.25 39:0.4 42:0.2 43:0.25 44:0.16666667 46:0.16666667 47:0.16666667 51:0.33333333 54:0.25 55:0.5 56:0.33333333 59:0.2 61:0.125 64:0.4 70:0.16666667 72:0.25 73:0.33333333 74:0.25 75:0.25 79:0.56521739 80:1 83:1 95:1 97:1 98:1 115:0.2617596 
0.125 1:0.56389849 2:0.52086146 3:0.78769822 4:0.63285895 5:0.25 6:0.78947368 7:0.22222222 8:0.25 10:0.5 11:0.16666667 13:0.57142857 14:0.53846154 15:0.33333333 16:0.28571429 18:0.22222222 20:0.125 22:0.375 24:0.1 28:0.2 29:0.4 30:0.2 33:0.33333333 39:0.6 40:0.33333333 42:0.4 43:0.375 44:0.16666667 45:0.33333333 48:0.16666667 50:0.16666667 52:0.33333333 57:0.14285714 63:0.16666667 68:0.25 69:0.33333333 76:0.2 79:0.65217391 80:1 83:1 84:1 86:1 88:1 89:1 97:1 98:1 100:1 115:0.66097378 
-0.125 1:0.50282817 2:0.59013955 3:0.52267638 4:0.56255991 5:0.3 6:0.52631579 7:0.38888889 8:0.3125 9:0.15384615 10:0.375 11:0.16666667 14:0.30769231 15:0.44444444 16:0.28571429 17:0.25 18:0.22222222 20:0.375 21:0.2 22:0.25 23:0.33333333 25:0.11111111 26:0.2 29:0.2 31:0.25 33:0.33333333 43:0.25 44:0.33333333 45:0.16666667 46:0.33333333 48:0.16666667 49:0.33333333 51:0.33333333 53:0.16666667 57:0.14285714 63:0.33333333 64:0.2 67:0.33333333 69:0.16666667 70:0.16666667 75:0.5 79:0.56521739 80:1 83:1 85:1 86:1 91:1 97:1 100:1 103:1 115:0.86905274 
-0.007983179817087654 1:0.44123508 2:0.50278295 3:0.61358266 4:0.62074715 5:0.25 6:0.68421053 7:0.27777778 8:0.3125 10:0.375 11:0.16666667 12:0.14285714 13:0.42857143 14:0.53846154 15:0.33333333 16:0.14285714 17:0.125 18:0.11111111 19:0.090909091 20:0.25 22:0.375 24:0.1 28:0.2 29:0.2 31:0.25 34:0.2 37:0.25 39:0.2 40:0.33333333 41:0.25 42:0.2 43:0.5 44:0.5 46:0.16666667 48:0.16666667 52:0.33333333 53:0.16666667 57:0.14285714 62:0.2 63:0.16666667 68:0.25 69:0.33333333 76:0.2 79:0.60869565 80:1 83:1 86:1 88:1 89:1 91:1 95:1 98:1 99:1 101:1 115:0.29501301 
0.125 1:0.32296893 2:0.46295878 3:0.4359805 4:0.40100526 5:0.4 6:0.52631579 7:0.16666667 8:0.4375 9:0.30769231 10:0.25 11:0.16666667 12:0.14285714 13:0.28571429 14:0.46153846 16:0.42857143 17:0.125 20:0.25 22:0.375 23:0.33333333 24:0.1 25:0.22222222 26:0.2 28:0.2 29:0.2 35:0.33333333 38:0.16666667 41:0.25 42:0.2 43:0.5 45:0.33333333 50:0.16666667 51:0.66666667 63:0.16666667 69:0.33333333 71:0.25 72:0.25 75:0.25 76:0.2 79:0.39130435 80:1 83:1 87:1 99:1 111:1 115:0.16845155 
0.125 1:0.49372418 2:0.38926997 3:0.61054367 4:0.44592877 5:0.5 6:0.63157895 7:0.11111111 8:0.25 9:0.23076923 10:0.5 12:0.28571429 13:0.42857143 14:0.46153846 15:0.22222222 16:0.28571429 17:0.25 21:0.2 22:0.375 25:0.11111111 26:0.4 28:0.2 29:0.4 31:0.25 37:0.5 38:0.33333333 41:0.25 42:0.4 43:0.375 44:0.16666667 45:0.16666667 46:0.33333333 49:0.33333333 50:0.16666667 53:0.16666667 69:0.33333333 70:0.16666667 79:0.43478261 80:1 83:1 86:1 94:1 96:1 98:1 100:1 101:1 114:1 115:0.01251167 
0.125 1:0.69503483 2:0.58446507 3:0.69503483 4:0.57565336 5:0.3 6:0.42105263 7:0.5 8:0.3125 10:0.375 11:0.33333333 13:0.42857143 14:0.076923077 15:0.33333333 16:0.28571429 17:0.25 19:0.36363636 20:0.375 22:0.625 29:0.2 30:0.4 32:0.25 34:0.2 40:0.66666667 45:0.33333333 47:0.5 50:0.33333333 53:0.33333333 59:0.2 62:0.6 63:0.5 68:0.75 69:0.16666667 70:0.16666667 79:0.56521739 80:1 83:1 87:1 93:1 95:1 100:1 105:1 115:0.63140383 
0.125 1:0.62300177 2:0.38926997 3:0.61102148 4:0.46199645 5:0.3 6:0.42105263 7:0.38888889 8:0.4375 9:0.076923077 10:0.375 11:0.16666667 12:0.14285714 13:0.28571429 14:0.30769231 16:0.42857143 17:0.25 19:0.27272727 20:0.25 22:0.25 23:0.5 24:0.1 29:0.6 34:0.2 37:0.25 38:0.16666667 39:0.2 42:0.2 43:0.125 45:0.5 50:0.16666667 51:0.66666667 53:0.16666667 55:0.25 59:0.2 61:0.25 65:0.2 68:0.25 69:0.16666667 72:0.25 75:0.5 77:0.25 79:0.47826087 80:1 83:1 86:1 88:1 95:1 97:1 106:1 115:0.84559009 
-0.125 1:0.68751143 2:0.50578931 3:0.57813359 4:0.46638296 5:0.35 6:0.47368421 7:0.33333333 8:0.375 9:0.15384615 10:0.625 13:0.28571429 14:0.076923077 15:0.33333333 16:0.42857143 17:0.125 18:0.22222222 19:0.090909091 20:0.25 21:0.2 22:0.25 23:0.33333333 24:0.1 25:0.11111111 26:0.2 29:0.4 30:0.2 31:0.25 38:0.16666667 39:0.2 45:0.33333333 47:0.16666667 48:0.16666667 49:0.33333333 50:0.16666667 52:0.33333333 53:0.16666667 56:0.66666667 59:0.2 63:0.16666667 64:0.2 66:0.33333333 70:0.33333333 73:0.33333333 75:0.25 77:0.25 79:0.47826087 80:1 83:1 85:1 86:1 94:1 100:1 103:1 115:0.25189626 
-0.125 1:0.69772966 2:0.77698138 3:0.56389849 4:0.68947208 5:0.1 6:0.89473684 7:0.16666667 8:0.375 10:0.25 13:0.14285714 14:0.69230769 15:0.22222222 16:0.71428571 18:0.22222222 19:0.090909091 22:0.625 24:0.1 29:0.4 39:0.2 43:0.25 44:0.33333333 45:0.83333333 47:0.16666667 50:0.66666667 52:0.33333333 56:0.33333333 57:0.14285714 60:0.16666667 69:0.83333333 76:0.2 79:0.69565217 80:1 83:1 86:1 91:1 98:1 99:1 103:1 110:1 115:0.28174582 
0.125 1:0.29890715 2:0.47012626 3:0.57906094 4:0.41149017 5:0.35 6:0.47368421 7:0.27777778 8:0.4375 9:0.076923077 10:0.5 11:0.16666667 12:0.14285714 13:0.28571429 14:0.15384615 15:0.33333333 16:0.28571429 17:0.125 19:0.090909091 20:0.375 21:0.4 22:0.5 24:0.1 27:0.25 29:0.6 30:0.2 34:0.2 36:0.33333333 38:0.16666667 39:0.2 42:0.2 44:0.16666667 45:0.16666667 46:0.16666667 48:0.33333333 49:0.33333333 52:0.33333333 53:0.16666667 62:0.2 63:0.5 66:0.33333333 67:0.33333333 68:0.25 70:0.16666667 71:0.25 76:0.2 79:0.43478261 80:1 83:1 90:1 93:1 94:1 96:1 97:1 99:1 102:1 103:1 115:0.61913236 
-0.125 1:0.54258312 2:0.40818177 3:0.77120049 4:0.34996198 5:0.55 6:0.26315789 7:0.33333333 8:0.375 9:0.38461538 10:0.25 11:0.16666667 12:0.28571429 13:0.14285714 14:0.076923077 15:0.22222222 16:0.28571429 17:0.375 19:0.18181818 20:0.125 21:0.2 22:0.375 23:0.16666667 24:0.1 25:0.22222222 27:0.25 30:0.2 31:0.25 32:0.25 37:0.5 38:0.16666667 42:0.2 44:0.16666667 46:0.16666667 48:0.16666667 49:0.33333333 52:0.33333333 53:0.16666667 55:0.25 59:0.2 61:0.125 63:0.16666667 69:0.33333333 71:0.25 74:0.25 77:0.25 79:0.30434783 80:1 92:1 98:1 100:1 105:1 109:1 115:0.55068528 
0.125 1:0.42622728 2:0.50028064 3:0.43316515 4:0.35680358 5:0.55 6:0.42105263 7:0.27777778 8:0.25 9:0.23076923 10:0.5 11:0.5 12:0.14285714 13:0.28571429 14:0.23076923 16:0.42857143 17:0.375 19:0.18181818 21:0.4 22:0.25 25:0.11111111 26:0.4 29:0.2 31:0.5 32:0.25 34:0.4 37:0.25 38:0.33333333 42:0.4 43:0.25 49:0.66666667 50:0.16666667 53:0.16666667 54:0.25 55:0.25 59:0.4 67:0.66666667 69:0.16666667 71:0.25 79:0.39130435 80:1 84:1 85:1 86:1 90:1 92:1 99:1 103:1 106:1 109:1 112:1 115:0.96153019 
-0.01659017619331615 1:0.61358266 2:0.7469344 3:0.50033308 4:0.64798811 5:0.2 6:0.73684211 7:0.33333333 8:0.25 10:0.5 13:0.14285714 14:0.69230769 15:0.22222222 16:0.42857143 17:0.125 19:0.27272727 20:0.125 21:0.2 22:0.25 23:0.16666667 29:0.4 31:0.5 39:0.2 42:0.2 43:0.75 44:0.33333333 45:0.16666667 47:0.16666667 49:0.33333333 50:0.16666667 51:0.33333333 53:0.16666667 59:0.2 61:0.125 62:0.2 63:0.16666667 66:0.33333333 69:0.33333333 74:0.25 79:0.69565217 80:1 89:1 98:1 101:1 107:1 115:0.055254407 
-0.1214014274937521 1:0.38712304 2:0.64794155 3:0.63638963 4:0.43637791 5:0.4 6:0.63157895 7:0.16666667 8:0.3125 10:0.625 11:0.16666667 12:0.28571429 13:0.71428571 14:0.30769231 15:0.11111111 16:0.28571429 17:0.125 18:0.22222222 21:0.2 22:0.25 23:0.16666667 24:0.1 28:0.2 29:0.2 30:0.2 31:0.5 32:0.25 37:0.5 39:0.6 40:0.33333333 41:0.25 42:0.2 43:0.375 49:0.33333333 52:0.33333333 53:0.16666667 56:0.66666667 68:0.25 69:0.16666667 73:0.33333333 77:0.25 79:0.47826087 80:1 86:1 87:1 88:1 89:1 99:1 101:1 103:1 106:1 110:1 115:0.29420894 
-0.125 1:0.5038825 2:0.6814107 3:0.66315036 4:0.61958858 5:0.15 6:0.47368421 7:0.5 8:0.4375 10:0.25 11:0.16666667 13:0.14285714 14:0.30769231 15:0.33333333 16:0.28571429 17:0.125 19:0.36363636 20:0.5 22:0.5 23:0.16666667 24:0.1 29:0.2 31:0.25 34:0.2 39:0.2 43:0.25 44:0.33333333 45:0.16666667 47:0.16666667 48:0.33333333 50:0.16666667 51:0.33333333 54:0.25 61:0.25 62:0.4 63:0.5 65:0.2 68:0.25 69:0.33333333 70:0.16666667 72:0.25 79:0.60869565 80:1 85:1 91:1 97:1 102:1 115:0.66460605 
0.09286279536937243 1:0.43600961 2:0.59318221 3:0.402202 4:0.43286641 5:0.45 6:0.36842105 7:0.38888889 8:0.3125 10:0.625 11:0.33333333 12:0.14285714 13:0.57142857 15:0.22222222 16:0.28571429 17:0.375 18:0.11111111 19:0.18181818 20:0.125 21:0.2 22:0.25 23:0.16666667 24:0.1 28:0.4 30:0.4 31:0.25 33:0.33333333 34:0.2 37:0.25 39:0.2 40:0.33333333 41:0.25 45:0.16666667 46:0.16666667 48:0.16666667 50:0.16666667 51:0.33333333 53:0.5 57:0.14285714 59:0.4 65:0.2 67:0.33333333 68:0.5 74:0.25 79:0.43478261 80:1 84:1 88:1 91:1 98:1 115:0.67120985 
-0.01706646414513361 1:0.49372418 2:0.58145295 3:0.59203639 4:0.54384716 5:0.25 6:0.26315789 7:0.61111111 8:0.4375 10:0.25 12:0.28571429 13:0.28571429 15:0.33333333 16:0.14285714 17:0.25 18:0.22222222 19:0.45454545 20:0.25 22:0.25 23:0.5 24:0.2 30:0.2 31:0.25 37:0.5 39:0.2 41:0.25 44:0.16666667 47:0.33333333 48:0.16666667 51:0.33333333 55:0.25 56:0.33333333 57:0.14285714 59:0.4 60:0.16666667 61:0.125 62:0.2 65:0.4 68:0.25 70:0.16666667 73:0.33333333 74:0.5 77:0.5 79:0.52173913 80:1 84:1 96:1 98:1 100:1 114:1 115:0.31558385 
0.03746905716659994 1:0.59203639 2:0.42744841 3:0.76730194 4:0.44240682 5:0.4 6:0.47368421 7:0.27777778 8:0.375 9:0.23076923 10:0.375 11:0.16666667 13:0.28571429 14:0.23076923 15:0.22222222 16:0.42857143 17:0.125 18:0.11111111 20:0.375 21:0.2 22:0.375 23:0.33333333 25:0.11111111 26:0.2 29:0.2 31:0.5 35:0.33333333 38:0.33333333 42:0.2 43:0.25 44:0.16666667 48:0.16666667 49:0.33333333 50:0.16666667 51:0.33333333 53:0.16666667 56:0.33333333 63:0.33333333 64:0.2 67:0.33333333 69:0.16666667 70:0.16666667 71:0.25 72:0.25 75:0.25 79:0.43478261 80:1 86:1 88:1 90:1 96:1 97:1 98:1 115:0.95797496 
-0.125 1:0.3836975 2:0.56005102 3:0.39926016 4:0.36749747 5:0.3 6:0.42105263 7:0.27777778 8:0.5625 9:0.076923077 10:0.375 11:0.16666667 12:0.14285714 13:0.28571429 14:0.23076923 16:0.42857143 17:0.25 19:0.090909091 20:0.25 22:0.375 23:0.5 24:0.3 26:0.2 31:0.5 32:0.25 38:0.16666667 40:0.33333333 42:0.2 43:0.25 45:0.16666667 50:0.16666667 51:0.33333333 52:0.33333333 53:0.16666667 55:0.25 59:0.2 63:0.16666667 65:0.2 68:0.25 69:0.33333333 74:0.25 75:0.5 76:0.2 77:0.5 79:0.39130435 80:1 85:1 90:1 100:1 103:1 111:1 115:0.32251897 
-0.125 1:0.35681947 2:0.7469344 3:0.61358266 4:0.5515503 5:0.25 6:0.68421053 7:0.27777778 8:0.3125 10:0.625 13:0.28571429 14:0.46153846 15:0.11111111 16:0.57142857 17:0.125 19:0.27272727 20:0.125 21:0.2 22:0.375 23:0.16666667 29:0.4 31:0.75 39:0.4 42:0.2 43:0.375 44:0.16666667 45:0.16666667 47:0.16666667 49:0.33333333 50:0.33333333 51:0.33333333 53:0.16666667 59:0.2 61:0.125 62:0.2 63:0.16666667 66:0.33333333 68:0.25 69:0.33333333 74:0.25 79:0.60869565 80:1 88:1 91:1 93:1 95:1 98:1 99:1 103:1 105:1 115:0.055523653 
-0.125 1:0.42214227 2:0.56797871 3:0.48798757 4:0.48588553 5:0.45 6:0.47368421 7:0.33333333 8:0.25 9:0.15384615 10:0.5 11:0.16666667 12:0.28571429 13:0.28571429 14:0.15384615 15:0.44444444 16:0.14285714 17:0.375 18:0.11111111 19:0.090909091 20:0.125 21:0.2 22:0.375 26:0.2 27:0.25 28:0.2 29:0.2 30:0.2 31:0.25 35:0.33333333 36:0.33333333 37:0.25 38:0.16666667 39:0.2 42:0.2 44:0.16666667 46:0.33333333 47:0.16666667 50:0.16666667 53:0.16666667 55:0.25 59:0.2 63:0.16666667 67:0.33333333 69:0.33333333 70:0.16666667 79:0.47826087 80:1 84:1 93:1 94:1 103:1 115:0.82936709 
-0.04857221211717091 1:0.34123233 2:0.64356975 3:0.71411512 4:0.57147583 5:0.35 6:0.63157895 7:0.27777778 8:0.25 9:0.076923077 10:0.5 11:0.16666667 12:0.14285714 13:0.42857143 14:0.30769231 15:0.33333333 16:0.42857143 18:0.44444444 19:0.090909091 21:0.4 22:0.125 26:0.2 28:0.2 30:0.2 31:0.5 34:0.2 36:0.33333333 38:0.16666667 40:0.33333333 41:0.25 42:0.2 43:0.25 44:0.16666667 45:0.16666667 49:0.33333333 50:0.16666667 56:0.33333333 57:0.28571429 60:0.16666667 66:0.66666667 69:0.16666667 79:0.56521739 80:1 86:1 89:1 92:1 97:1 99:1 101:1 115:0.28603871 
0.125 1:0.77885235 2:0.66196521 3:0.66315036 4:0.77032694 5:0.15 6:0.78947368 7:0.38888889 8:0.1875 10:0.375 13:0.14285714 14:0.61538462 15:0.44444444 16:0.28571429 17:0.125 18:0.33333333 19:0.18181818 20:0.125 22:0.25 23:0.16666667 29:0.4 31:0.25 39:0.2 43:0.5 44:0.66666667 45:0.16666667 47:0.33333333 50:0.16666667 51:0.33333333 53:0.16666667 57:0.28571429 59:0.2 62:0.2 63:0.16666667 68:0.25 69:0.16666667 73:0.33333333 79:0.7826087 80:1 85:1 86:1 91:1 92:1 94:1 96:1 98:1 100:1 103:1 105:1 109:1 115:0.21758808 
-0.125 1:0.75625742 2:0.65553904 3:0.61358266 4:0.73848878 5:0.15 6:0.68421053 7:0.44444444 8:0.25 10:0.25 12:0.14285714 13:0.14285714 14:0.46153846 15:0.44444444 16:0.28571429 17:0.125 18:0.22222222 19:0.36363636 20:0.125 22:0.5 29:0.2 31:0.25 37:0.25 41:0.25 42:0.2 43:0.5 44:0.16666667 47:0.33333333 50:0.33333333 53:0.16666667 57:0.14285714 59:0.2 61:0.25 62:0.2 63:0.16666667 69:0.16666667 70:0.33333333 71:0.25 79:0.73913043 80:1 86:1 93:1 95:1 98:1 99:1 101:1 103:1 108:1 115:0.1725068 
-0.125 1:0.5038825 2:0.62811791 3:0.35681947 4:0.47703892 5:0.3 6:0.52631579 7:0.27777778 8:0.4375 10:0.375 11:0.33333333 13:0.57142857 14:0.15384615 15:0.22222222 16:0.42857143 18:0.22222222 20:0.375 21:0.2 22:0.5 23:0.16666667 24:0.1 28:0.2 30:0.2 31:0.25 33:0.33333333 35:0.33333333 39:0.4 40:0.33333333 42:0.4 45:0.16666667 48:0.33333333 50:0.33333333 52:0.33333333 57:0.14285714 63:0.33333333 67:0.33333333 68:0.25 69:0.33333333 71:0.25 73:0.33333333 77:0.25 79:0.47826087 80:1 84:1 91:1 97:1 115:0.06259135 
-0.125 1:0.86128727 2:0.52167696 3:0.79606493 4:0.60555021 5:0.3 6:0.47368421 7:0.44444444 8:0.3125 10:0.375 11:0.33333333 13:0.57142857 15:0.44444444 16:0.28571429 17:0.125 18:0.66666667 20:0.125 22:0.125 23:0.33333333 24:0.2 28:0.2 30:0.2 31:0.25 32:0.25 33:0.33333333 39:0.2 40:0.66666667 42:0.2 48:0.16666667 50:0.16666667 52:0.33333333 53:0.16666667 56:0.66666667 57:0.14285714 58:0.33333333 65:0.2 70:0.16666667 73:0.66666667 77:0.5 79:0.56521739 80:1 84:1 86:1 91:1 95:1 96:1 99:1 115:0.10256258 
0.125 1:0.77120049 2:0.7469344 3:0.58784235 4:0.68485011 5:0.2 6:0.68421053 7:0.38888889 8:0.25 10:0.375 11:0.16666667 13:0.14285714 14:0.53846154 15:0.33333333 16:0.28571429 17:0.25 18:0.22222222 19:0.18181818 20:0.125 22:0.25 23:0.16666667 24:0.1 29:0.2 30:0.2 31:0.25 33:0.33333333 40:0.33333333 42:0.2 43:0.5 44:0.16666667 45:0.16666667 46:0.16666667 47:0.33333333 50:0.16666667 52:0.33333333 53:0.33333333 57:0.28571429 59:0.2 60:0.16666667 63:0.16666667 69:0.16666667 70:0.16666667 75:0.25 77:0.25 79:0.69565217 80:1 84:1 87:1 91:1 93:1 96:1 98:1 103:1 105:1 115:0.75846195 
