svm_type epsilon_svr
kernel_type rbf
gamma 0.015625
nr_class 2
total_sv 1014
rho -7.27596
SV
-256 1:0.19698845 2:0.66137645 3:0.60222828 4:0.50878425 5:0.64285714 6:0.5 7:0.28571429 8:0.33333333 9:0.71428571 10:0.25 11:0.16666667 12:0.2 13:0.33333333 14:0.27272727 15:0.28571429 16:0.14285714 18:0.16666667 20:0.5 22:0.5 23:0.16666667 25:0.33333333 26:0.33333333 28:0.16666667 29:0.16666667 34:0.25 35:0.33333333 37:0.25 38:0.16666667 40:0.25 41:0.4 42:0.22222222 43:0.2 46:0.2 48:0.25 50:0.33333333 59:0.6 65:0.4 66:0.2 71:0.33333333 76:0.5 77:1 79:1 91:1 92:1 95:1 98:1 99:1 105:1 
256 1:0.19698845 2:0.97087874 3:0.50033308 4:0.57760686 5:0.5 6:0.5 7:0.35714286 8:0.4 9:0.57142857 10:0.25 12:0.2 13:0.22222222 14:0.27272727 15:0.28571429 16:0.42857143 18:0.5 19:0.28571429 21:0.2 22:0.125 23:0.16666667 24:0.22222222 25:0.33333333 30:0.25 31:0.33333333 36:0.33333333 37:0.25 40:0.25 41:0.4 42:0.11111111 43:0.2 44:0.25 46:0.2 47:0.33333333 50:0.33333333 55:0.5 65:0.2 70:0.25 73:0.25 76:0.55555556 78:1 82:1 89:1 91:1 95:1 98:1 
256 1:0.19698845 2:0.63925366 3:0.42214227 4:0.3793382 5:0.85714286 6:0.375 7:0.28571429 8:0.26666667 9:0.85714286 10:0.75 13:0.55555556 15:0.28571429 16:0.14285714 18:0.16666667 20:0.33333333 22:0.125 23:0.33333333 24:0.11111111 25:1 28:0.33333333 29:0.33333333 30:0.5 37:0.75 38:0.33333333 41:0.4 48:0.25 50:0.33333333 60:0.25 61:0.5 64:0.25 69:0.33333333 71:0.33333333 73:0.25 76:0.38888889 77:1 81:1 91:1 
256 1:0.35251497 2:0.069357192 3:0.45557556 4:0.23731094 5:0.92857143 6:0.125 7:0.35714286 8:0.4 9:0.85714286 10:0.125 11:0.33333333 12:0.8 13:0.22222222 15:0.14285714 16:0.14285714 17:0.5 20:0.16666667 21:0.2 22:0.375 23:0.33333333 26:0.33333333 27:1 28:0.16666667 32:0.25 35:0.66666667 37:0.25 40:0.25 41:0.2 43:0.2 45:0.25 50:0.33333333 51:0.5 53:0.25 59:0.2 65:0.4 67:0.25 68:0.33333333 71:0.33333333 76:0.22222222 77:1 80:1 88:1 90:1 94:1 
102.6754838615037 1:0.35251497 2:0.35925814 3:0.44527437 4:0.32429886 5:0.78571429 6:0.3125 7:0.28571429 8:0.4 9:0.57142857 10:0.375 11:0.5 12:0.2 13:0.44444444 14:0.090909091 15:0.14285714 16:0.14285714 17:0.16666667 20:0.33333333 21:0.2 22:0.375 24:0.22222222 25:0.33333333 26:0.33333333 28:0.16666667 29:0.16666667 30:0.25 32:0.25 34:0.25 35:0.33333333 37:0.5 39:0.25 40:0.25 41:0.4 42:0.11111111 48:0.25 49:0.2 52:0.2 61:1 63:0.5 64:0.25 65:0.2 67:0.25 72:0.33333333 73:0.25 76:0.33333333 77:1 81:1 88:1 89:1 90:1 97:1 
-256 1:0.31371627 2:0.59497616 3:0.34118031 4:0.43259848 5:0.92857143 6:0.5 7:0.21428571 8:0.13333333 9:0.85714286 10:0.75 11:0.16666667 13:0.44444444 14:0.18181818 15:0.28571429 16:0.14285714 17:0.16666667 18:0.16666667 20:0.16666667 21:0.2 22:0.125 25:0.66666667 26:0.33333333 28:0.16666667 29:0.66666667 30:0.25 34:0.25 37:0.5 38:0.33333333 41:0.6 45:0.25 46:0.2 52:0.2 59:0.2 62:0.5 66:0.2 76:0.44444444 77:1 88:1 92:1 99:1 103:1 
-256 1:0.33522084 2:0.51683228 3:0.66315036 4:0.50953768 5:0.57142857 6:0.4375 7:0.42857143 8:0.33333333 9:0.28571429 10:0.375 11:0.5 13:0.44444444 14:0.27272727 15:0.14285714 16:0.14285714 17:0.16666667 19:0.28571429 20:0.5 21:0.2 22:0.25 24:0.11111111 26:0.33333333 28:0.33333333 29:0.16666667 32:0.25 34:0.25 37:0.25 38:0.16666667 39:0.5 41:0.4 42:0.22222222 43:0.2 48:0.25 52:0.2 57:0.25 58:0.33333333 59:0.4 65:0.4 72:0.33333333 76:0.55555556 78:1 80:1 82:1 87:1 95:1 
-256 1:0.33522084 2:0.57695035 3:0.57906094 4:0.48778178 5:0.71428571 6:0.3125 7:0.5 8:0.26666667 9:0.28571429 10:0.75 11:0.16666667 12:0.2 13:0.44444444 15:0.42857143 17:0.66666667 19:0.14285714 20:0.33333333 22:0.125 23:0.16666667 24:0.11111111 26:0.33333333 28:0.33333333 29:0.33333333 30:0.5 32:0.25 37:0.25 38:0.5 41:0.2 43:0.2 47:0.33333333 48:0.5 52:0.6 54:0.33333333 56:0.33333333 59:0.2 61:0.5 64:0.25 68:0.33333333 76:0.5 79:1 87:1 89:1 92:1 94:1 98:1 
-256 1:0.44212522 2:0.31388939 3:0.42214227 4:0.57349211 5:0.57142857 6:0.125 7:0.85714286 8:0.26666667 9:0.42857143 10:0.125 11:0.33333333 12:0.4 13:0.11111111 14:0.090909091 15:0.28571429 17:0.66666667 18:0.16666667 19:0.57142857 20:0.33333333 23:0.66666667 25:0.33333333 26:0.33333333 29:0.16666667 37:0.25 41:0.2 42:0.11111111 43:0.2 45:0.25 47:0.33333333 51:0.25 53:0.25 54:0.66666667 55:0.25 56:0.66666667 57:0.25 60:0.5 68:0.33333333 70:0.25 71:0.66666667 76:0.61111111 78:1 87:1 88:1 89:1 90:1 94:1 95:1 102:1 
-256 1:0.44212522 2:0.34627988 3:0.30530944 4:0.5200876 5:0.57142857 6:0.3125 7:0.57142857 8:0.33333333 9:0.42857143 10:0.25 11:0.33333333 12:0.2 13:0.33333333 14:0.27272727 15:0.14285714 17:0.16666667 18:0.16666667 19:0.42857143 20:0.5 21:0.2 22:0.125 23:0.16666667 24:0.11111111 26:0.66666667 28:0.16666667 29:0.16666667 32:0.25 36:0.33333333 37:0.5 38:0.16666667 41:0.4 42:0.22222222 43:0.2 48:0.25 54:0.33333333 55:0.25 57:0.25 58:0.33333333 60:0.25 65:0.2 70:0.25 73:0.25 76:0.55555556 80:1 87:1 91:1 95:1 97:1 
-256 1:0.28947959 2:0.71593769 3:0.3431175 4:0.40833574 5:0.5 6:0.3125 7:0.28571429 8:0.66666667 9:0.57142857 10:0.125 11:0.16666667 13:0.22222222 14:0.090909091 15:0.14285714 16:0.42857143 19:0.28571429 20:0.33333333 22:0.625 24:0.55555556 26:0.33333333 31:0.33333333 34:0.25 37:0.5 41:0.4 44:0.25 47:0.33333333 57:0.25 58:0.33333333 59:0.4 65:0.6 66:0.2 67:0.25 73:0.75 75:0.4 76:0.33333333 77:1 82:1 87:1 89:1 
-256 1:0.26651318 2:0.63184531 3:0.4359805 4:0.61454429 5:0.5 6:0.3125 7:0.64285714 8:0.33333333 9:0.42857143 10:0.375 12:0.2 13:0.22222222 15:0.71428571 17:0.33333333 18:0.33333333 19:0.14285714 20:0.5 22:0.25 23:0.33333333 24:0.11111111 25:0.33333333 27:0.5 28:0.16666667 30:0.5 37:0.25 38:0.16666667 41:0.2 43:0.2 46:0.4 47:0.33333333 48:0.25 51:0.25 52:0.2 55:0.25 56:0.33333333 59:0.4 61:0.5 65:0.2 66:0.2 68:0.33333333 71:0.33333333 74:0.33333333 76:0.61111111 80:1 90:1 93:1 
-256 1:0.26651318 2:0.52854586 3:0.53701896 4:0.48199682 5:0.78571429 6:0.8125 8:0.13333333 9:0.42857143 10:0.875 12:0.2 13:0.77777778 14:0.54545455 16:0.14285714 22:0.25 25:0.66666667 28:0.16666667 29:1 35:0.33333333 37:0.5 38:0.66666667 40:0.25 41:1 42:0.11111111 44:0.25 49:0.2 64:0.25 65:0.2 76:0.55555556 77:1 99:1 100:1 
256 1:0.26651318 2:0.53519556 3:0.50033308 4:0.48450462 5:0.5 6:0.5625 7:0.21428571 8:0.46666667 9:0.28571429 10:0.625 13:0.55555556 14:0.090909091 15:0.28571429 16:0.42857143 19:0.14285714 20:0.33333333 22:0.5 24:0.22222222 25:0.33333333 28:0.33333333 29:0.16666667 31:0.66666667 37:0.25 38:0.66666667 41:0.4 44:0.25 47:0.33333333 48:0.25 49:0.2 58:0.33333333 59:0.2 61:0.5 64:0.25 65:0.4 66:0.2 73:0.5 76:0.5 78:1 
238.1419441002415 1:0.5066435 2:0.48533466 3:0.5316808 4:0.39368316 5:0.92857143 6:0.4375 7:0.21428571 8:0.2 9:0.85714286 10:0.75 13:0.22222222 14:0.18181818 15:0.42857143 16:0.28571429 17:0.5 21:0.4 24:0.11111111 25:1 28:0.16666667 29:0.5 30:0.5 37:0.25 38:0.16666667 41:0.2 42:0.11111111 43:0.2 44:0.25 45:0.75 51:0.5 52:0.2 72:0.33333333 76:0.38888889 78:1 80:1 81:1 83:1 88:1 92:1 98:1 
-256 1:0.5066435 2:0.75135356 3:0.36591927 4:0.59013591 5:0.71428571 6:0.625 7:0.21428571 8:0.2 9:0.42857143 10:0.625 12:0.4 13:0.44444444 14:0.45454545 15:0.42857143 17:0.5 22:0.25 25:0.66666667 29:0.5 30:0.5 35:0.33333333 37:0.25 38:0.16666667 40:0.5 41:0.8 42:0.22222222 43:0.2 45:0.75 51:0.25 52:0.4 65:0.4 76:0.55555556 88:1 89:1 91:1 93:1 97:1 100:1 
-256 1:0.28947959 2:0.50955945 3:0.4359805 4:0.39530451 5:0.57142857 6:0.25 7:0.42857143 8:0.53333333 9:0.42857143 10:0.25 11:0.16666667 12:0.4 13:0.22222222 15:0.28571429 16:0.28571429 17:0.33333333 20:0.5 22:0.5 23:0.5 24:0.11111111 25:0.33333333 27:0.5 30:0.25 31:0.33333333 34:0.25 35:0.33333333 37:0.25 38:0.16666667 41:0.4 48:0.25 49:0.4 51:0.25 53:0.25 59:0.2 60:0.25 61:0.5 65:0.4 66:0.2 67:0.25 68:0.66666667 71:0.33333333 74:0.33333333 76:0.38888889 77:1 80:1 90:1 102:1 
-256 1:0.15230324 2:0.24231845 3:0.36591927 4:0.30723581 5:0.64285714 6:0.3125 7:0.28571429 8:0.53333333 9:0.57142857 10:0.25 11:0.16666667 12:0.4 13:0.22222222 14:0.090909091 15:0.14285714 16:0.28571429 17:0.16666667 18:0.16666667 19:0.14285714 20:0.16666667 21:0.4 22:0.375 24:0.33333333 25:0.33333333 27:0.5 29:0.33333333 36:0.66666667 37:0.5 41:0.4 43:0.2 48:0.25 53:0.25 55:0.25 59:0.2 67:0.5 72:0.33333333 73:0.5 76:0.33333333 79:1 98:1 99:1 105:1 
256 1:0.33522084 2:0.18757401 3:0.11236237 4:0.13942881 5:0.85714286 6:0.0625 7:0.28571429 8:0.6 9:0.57142857 11:0.33333333 12:1 13:0.22222222 15:0.14285714 17:0.66666667 21:0.4 22:0.25 23:0.16666667 24:0.44444444 26:0.66666667 27:0.5 32:0.5 35:0.33333333 36:1 37:0.25 40:0.25 41:0.2 43:0.2 45:0.25 51:0.5 54:0.66666667 62:0.5 65:0.4 68:0.33333333 72:0.66666667 73:0.25 75:0.2 76:0.11111111 78:1 79:1 82:1 90:1 93:1 
-256 1:0.48229319 2:0.33930036 3:0.49126314 4:0.6193443 5:0.85714286 6:0.4375 7:0.5 9:0.57142857 10:0.375 11:0.83333333 13:0.33333333 14:0.36363636 15:0.14285714 17:0.66666667 18:0.33333333 19:0.14285714 26:0.66666667 28:0.33333333 29:0.16666667 32:1 33:0.5 37:0.25 38:0.33333333 41:0.2 42:0.44444444 43:0.2 47:0.33333333 51:0.25 52:0.2 53:0.5 55:0.25 76:0.61111111 77:1 83:1 88:1 95:1 99:1 
91.14299294143404 1:0.44513165 2:0.45502976 3:0.11236237 4:0.44443521 5:0.64285714 6:0.25 7:0.57142857 8:0.33333333 9:0.28571429 10:0.375 11:0.5 12:0.2 13:0.33333333 14:0.090909091 15:0.28571429 17:0.33333333 18:0.16666667 19:0.28571429 20:0.33333333 21:0.4 22:0.125 24:0.22222222 25:0.33333333 26:0.33333333 28:0.16666667 29:0.16666667 30:0.25 32:0.5 33:0.5 36:0.33333333 37:0.5 38:0.16666667 41:0.2 42:0.11111111 43:0.2 47:0.66666667 52:0.2 54:0.33333333 55:0.25 58:0.33333333 59:0.2 63:1 64:0.25 72:0.33333333 75:0.2 76:0.5 80:1 88:1 93:1 96:1 97:1 
-256 1:0.44513165 2:0.2103039 3:0.30343437 4:0.26012754 5:0.64285714 6:0.25 7:0.28571429 8:0.6 9:0.28571429 10:0.25 11:0.33333333 12:0.6 13:0.22222222 14:0.18181818 16:0.14285714 17:0.5 18:0.16666667 21:0.4 22:0.125 23:0.33333333 24:0.44444444 26:0.33333333 27:0.5 29:0.33333333 32:0.5 36:0.66666667 37:0.5 41:0.4 44:0.25 49:0.2 52:0.4 54:0.33333333 55:0.25 63:0.5 65:0.2 68:0.33333333 69:0.33333333 72:0.33333333 74:0.33333333 75:0.4 76:0.27777778 79:1 82:1 90:1 93:1 99:1 101:1 
256 1:0.44513165 2:0.71827165 3:0.47790352 4:0.66958763 5:0.57142857 6:0.3125 7:0.71428571 8:0.2 9:0.28571429 10:0.5 11:0.33333333 13:0.11111111 14:0.18181818 15:0.57142857 17:0.66666667 19:0.28571429 20:0.5 22:0.125 23:0.33333333 26:0.66666667 29:0.5 30:0.25 32:0.5 37:0.25 41:0.2 42:0.11111111 43:0.4 45:0.25 47:0.33333333 48:0.5 51:0.25 52:0.6 56:0.33333333 57:0.25 59:0.2 60:0.5 66:0.2 71:0.33333333 76:0.66666667 77:1 93:1 95:1 98:1 101:1 
240.8214345598441 1:0.44513165 2:0.60704896 3:0.38712304 4:0.59926902 5:0.57142857 6:0.5625 7:0.28571429 8:0.33333333 9:0.28571429 10:0.25 11:0.33333333 12:0.2 13:0.44444444 14:0.36363636 15:0.28571429 16:0.14285714 17:0.33333333 18:0.16666667 20:0.16666667 22:0.5 24:0.11111111 26:0.66666667 28:0.16666667 29:0.16666667 32:0.5 35:0.33333333 37:0.5 40:0.25 41:0.4 42:0.22222222 43:0.4 46:0.2 48:0.25 49:0.2 52:0.4 59:0.2 65:0.6 67:0.25 73:0.25 76:0.55555556 80:1 91:1 95:1 101:1 104:1 
256 1:0.29286845 2:0.53058082 3:0.61358266 4:0.60726385 5:0.42857143 6:0.4375 7:0.5 8:0.4 9:0.14285714 10:0.125 11:0.16666667 12:0.4 13:0.33333333 14:0.36363636 15:0.14285714 16:0.14285714 17:0.16666667 19:0.42857143 20:0.5 22:0.5 23:0.33333333 26:0.33333333 28:0.16666667 32:0.25 35:0.33333333 37:0.25 40:0.25 41:0.4 42:0.44444444 47:0.33333333 49:0.2 54:0.33333333 57:0.25 58:0.66666667 59:0.4 60:0.25 65:0.4 66:0.2 67:0.25 70:0.25 71:0.33333333 76:0.61111111 77:1 81:1 92:1 94:1 95:1 97:1 104:1 
256 1:0.29286845 2:0.49715226 3:0.61321882 4:0.44719461 5:0.57142857 6:0.3125 7:0.35714286 8:0.53333333 9:0.28571429 11:0.33333333 12:0.6 13:0.22222222 14:0.18181818 15:0.14285714 16:0.28571429 17:0.5 18:0.16666667 20:0.16666667 22:0.5 23:0.33333333 24:0.22222222 26:0.33333333 27:0.5 32:0.5 35:0.33333333 36:0.33333333 37:0.25 39:0.25 41:0.4 43:0.2 44:0.25 45:0.25 49:0.2 50:0.33333333 51:0.25 54:0.33333333 55:0.25 59:0.2 65:0.6 67:0.25 69:0.33333333 71:0.33333333 73:0.25 75:0.2 76:0.38888889 77:1 80:1 90:1 91:1 93:1 94:1 
-256 1:0.42929489 2:0.5113585 3:0.39926016 4:0.48630216 5:0.71428571 6:0.3125 7:0.5 8:0.26666667 9:0.28571429 10:0.5 11:0.5 12:0.2 13:0.44444444 14:0.090909091 15:0.28571429 17:0.5 19:0.14285714 20:0.33333333 22:0.25 23:0.16666667 24:0.11111111 25:0.33333333 26:0.33333333 28:0.5 29:0.16666667 34:0.25 35:0.33333333 37:0.5 38:0.16666667 40:0.25 41:0.2 42:0.11111111 43:0.2 45:0.5 52:0.2 53:0.5 56:0.33333333 60:0.25 61:0.5 65:0.2 66:0.2 71:0.33333333 73:0.25 76:0.5 77:1 81:1 87:1 89:1 90:1 95:1 
-256 1:0.42929489 2:0.24727824 3:0.32680274 4:0.16404529 5:1 6:0.25 7:0.21428571 8:0.33333333 9:0.85714286 10:0.625 11:0.16666667 12:0.2 13:0.44444444 16:0.28571429 17:0.16666667 19:0.14285714 20:0.16666667 21:0.6 22:0.125 24:0.11111111 26:0.33333333 27:0.5 28:0.16666667 29:0.33333333 31:0.66666667 35:0.33333333 37:0.75 38:0.16666667 41:0.4 52:0.2 56:0.33333333 61:0.5 64:0.25 72:0.33333333 76:0.22222222 80:1 82:1 87:1 
-256 1:0.53506864 2:0.39362024 3:0.76078885 4:0.53781514 5:0.28571429 6:0.25 7:0.57142857 8:0.66666667 9:0.14285714 11:0.33333333 12:0.2 13:0.11111111 14:0.090909091 15:0.14285714 16:0.42857143 17:0.16666667 18:0.16666667 19:0.57142857 20:0.33333333 21:0.2 22:0.5 23:0.16666667 24:0.33333333 26:0.33333333 35:0.33333333 37:0.25 41:0.2 43:0.2 44:0.25 48:0.25 49:0.4 53:0.25 56:0.33333333 57:0.5 58:0.33333333 60:0.25 65:0.6 67:0.25 69:0.33333333 73:0.25 75:0.2 76:0.5 80:1 87:1 89:1 92:1 98:1 
256 1:0.3840179 2:0.428959 3:0.58121897 4:0.55708493 5:0.64285714 6:0.5 7:0.35714286 8:0.26666667 9:0.28571429 10:0.375 11:0.33333333 12:0.2 13:0.55555556 14:0.36363636 15:0.14285714 17:0.16666667 19:0.28571429 20:0.33333333 22:0.375 24:0.11111111 26:0.33333333 28:0.16666667 29:0.16666667 30:0.25 34:0.25 36:0.33333333 37:0.5 38:0.33333333 39:0.25 41:0.4 42:0.44444444 47:0.33333333 54:0.33333333 56:0.33333333 58:0.33333333 59:0.4 64:0.5 65:0.2 73:0.25 76:0.55555556 77:1 83:1 87:1 94:1 97:1 100:1 
-256 1:0.3840179 2:0.55397952 3:0.50033308 4:0.53104882 5:0.35714286 6:0.4375 7:0.5 8:0.46666667 9:0.28571429 10:0.125 11:0.33333333 13:0.33333333 14:0.18181818 16:0.42857143 19:0.42857143 20:0.66666667 22:0.625 23:0.33333333 25:0.33333333 26:0.33333333 29:0.16666667 37:0.5 39:0.25 41:0.2 42:0.11111111 44:0.25 49:0.4 50:0.33333333 58:1 59:0.6 60:0.25 64:0.25 65:0.4 67:0.5 70:0.25 71:0.33333333 76:0.61111111 78:1 79:1 81:1 83:1 87:1 89:1 92:1 94:1 99:1 
-256 1:0.52761317 2:0.44674087 3:0.7877595 4:0.57368283 5:0.71428571 6:0.375 7:0.5 8:0.2 9:0.71428571 10:0.25 11:0.33333333 13:0.44444444 14:0.090909091 15:0.28571429 16:0.14285714 17:0.16666667 18:0.33333333 19:0.28571429 20:0.33333333 22:0.375 25:0.33333333 26:0.66666667 28:0.16666667 30:0.25 33:0.5 34:0.25 37:0.5 38:0.16666667 41:0.4 44:0.25 45:0.25 46:0.2 49:0.2 51:0.25 55:0.25 57:0.25 58:0.33333333 59:0.4 65:0.4 66:0.2 76:0.55555556 88:1 89:1 93:1 94:1 103:1 104:1 
-256 1:0.21544854 2:0.80563183 3:0.3836975 4:0.38469083 5:0.42857143 6:0.125 7:0.64285714 8:0.6 9:0.14285714 10:0.25 11:0.33333333 12:0.2 13:0.11111111 15:0.14285714 16:0.28571429 17:0.16666667 18:0.33333333 19:0.28571429 20:0.5 21:0.6 23:0.66666667 24:0.22222222 26:0.33333333 29:0.33333333 34:0.5 36:0.33333333 37:0.25 41:0.2 44:0.25 47:0.33333333 52:0.2 56:0.33333333 60:0.25 63:0.5 69:0.33333333 70:0.25 71:0.33333333 74:0.66666667 76:0.44444444 82:1 89:1 98:1 
22.36497216400619 1:0.41962372 2:0.55397952 3:0.55606605 4:0.53628201 5:0.57142857 6:0.1875 7:0.71428571 8:0.33333333 9:0.14285714 10:0.375 11:0.66666667 13:0.22222222 15:0.14285714 16:0.14285714 17:0.83333333 18:0.16666667 19:0.28571429 20:0.33333333 22:0.125 23:0.5 24:0.11111111 26:0.33333333 28:0.16666667 29:0.33333333 32:0.5 34:0.25 37:0.25 39:0.25 41:0.2 43:0.2 48:0.25 50:0.33333333 52:0.6 53:0.5 56:0.66666667 59:0.2 60:0.25 68:0.33333333 69:0.33333333 70:0.25 74:0.33333333 76:0.55555556 80:1 89:1 92:1 98:1 99:1 105:1 
-256 1:0.44513165 2:0.78706523 3:0.21840861 4:0.5513182 5:0.64285714 6:0.5 7:0.42857143 8:0.2 9:0.28571429 10:0.5 11:0.33333333 12:0.2 13:0.55555556 14:0.18181818 15:0.42857143 17:0.16666667 18:0.33333333 20:0.33333333 21:0.2 22:0.125 23:0.16666667 25:0.33333333 26:0.33333333 29:0.33333333 30:0.5 33:0.5 34:0.25 37:0.25 38:0.5 39:0.25 41:0.6 42:0.11111111 46:0.2 48:0.25 51:0.25 55:0.25 59:0.2 64:0.25 68:0.33333333 76:0.61111111 78:1 79:1 83:1 88:1 91:1 93:1 
-178.6652402268929 1:0.44513165 2:0.34174167 3:0.69503483 4:0.50909944 5:0.57142857 6:0.5625 7:0.21428571 8:0.4 9:0.42857143 10:0.25 11:0.16666667 12:0.2 13:0.44444444 14:0.45454545 15:0.14285714 16:0.14285714 20:0.5 22:0.5 23:0.16666667 24:0.11111111 25:0.33333333 26:0.33333333 28:0.16666667 29:0.16666667 34:0.25 36:0.33333333 37:0.5 38:0.16666667 40:0.25 41:0.6 42:0.44444444 48:0.25 49:0.2 59:0.6 65:0.4 66:0.2 67:0.25 71:0.33333333 74:0.33333333 76:0.5 77:1 79:1 90:1 95:1 97:1 101:1 103:1 
256 1:0.44513165 2:0.37042237 3:0.67433756 4:0.54320771 5:0.5 6:0.625 7:0.21428571 8:0.4 9:0.28571429 10:0.25 11:0.16666667 12:0.4 13:0.22222222 14:0.45454545 15:0.28571429 16:0.28571429 17:0.16666667 20:0.33333333 21:0.2 22:0.625 26:0.33333333 27:0.5 29:0.16666667 30:0.25 34:0.25 35:0.66666667 37:0.25 38:0.16666667 41:0.4 42:0.22222222 43:0.2 44:0.25 45:0.25 48:0.25 49:0.4 52:0.2 59:0.2 62:0.5 65:0.8 67:0.25 76:0.55555556 77:1 80:1 83:1 99:1 101:1 
256 1:0.44513165 2:0.41127456 3:0.3836975 4:0.51707065 5:0.5 6:0.4375 7:0.35714286 8:0.46666667 9:0.42857143 10:0.125 11:0.16666667 12:0.4 13:0.22222222 14:0.27272727 15:0.28571429 16:0.28571429 17:0.33333333 19:0.14285714 20:0.33333333 22:0.5 23:0.16666667 24:0.11111111 25:0.33333333 26:0.33333333 29:0.16666667 34:0.25 36:0.33333333 37:0.25 40:0.25 41:0.4 42:0.11111111 43:0.2 44:0.25 45:0.25 47:0.33333333 49:0.2 50:0.33333333 51:0.25 54:0.33333333 58:0.33333333 59:0.4 65:0.6 67:0.25 68:0.33333333 73:0.25 76:0.5 78:1 90:1 95:1 
-256 1:0.28947959 2:0.45360694 3:0.23619655 4:0.30084237 5:0.64285714 6:0.125 7:0.42857143 8:0.6 9:0.42857143 10:0.125 11:0.5 12:0.4 13:0.33333333 16:0.14285714 17:0.33333333 18:0.16666667 19:0.14285714 20:0.33333333 21:0.2 22:0.25 23:0.33333333 24:0.33333333 25:0.33333333 26:0.66666667 31:0.33333333 32:0.25 33:0.5 34:0.25 35:0.33333333 36:0.33333333 37:0.25 39:0.25 40:0.25 41:0.4 51:0.5 55:0.25 58:0.33333333 60:0.25 61:0.5 64:0.25 65:0.2 68:0.33333333 70:0.25 74:0.33333333 75:0.2 76:0.27777778 81:1 89:1 90:1 93:1 98:1 
-256 1:0.26651318 2:0.46501119 3:0.34123233 4:0.49368416 5:0.57142857 6:0.4375 7:0.42857143 8:0.33333333 9:0.28571429 10:0.5 11:0.33333333 13:0.33333333 14:0.090909091 15:0.28571429 16:0.42857143 17:0.33333333 19:0.14285714 20:0.33333333 21:0.2 22:0.375 23:0.16666667 25:0.33333333 26:0.33333333 28:0.33333333 29:0.16666667 31:0.33333333 32:0.25 34:0.25 37:0.5 38:0.16666667 41:0.2 42:0.11111111 44:0.25 47:0.33333333 49:0.4 50:0.33333333 52:0.4 56:0.33333333 59:0.2 63:0.5 65:0.2 66:0.2 67:0.25 71:0.33333333 76:0.55555556 78:1 91:1 95:1 102:1 
256 1:0.26651318 2:0.3829907 3:0.59184905 4:0.46287548 5:0.71428571 6:0.6875 7:0.071428571 8:0.26666667 9:0.57142857 10:0.5 11:0.16666667 12:0.2 13:0.55555556 14:0.45454545 16:0.28571429 20:0.16666667 22:0.5 25:0.66666667 26:0.33333333 28:0.33333333 29:0.33333333 34:0.25 35:0.33333333 37:0.75 38:0.33333333 41:0.4 42:0.33333333 44:0.25 49:0.4 59:0.2 64:0.25 65:0.4 67:0.25 76:0.5 77:1 80:1 95:1 99:1 103:1 
256 1:0.26651318 2:0.21716455 3:0.48614155 4:0.17018909 5:0.5 6:0.1875 7:0.21428571 8:0.86666667 9:0.28571429 10:0.375 12:0.4 13:0.33333333 16:0.28571429 17:0.16666667 19:0.14285714 20:0.16666667 21:0.2 22:0.25 23:0.16666667 24:0.88888889 25:0.33333333 27:0.5 28:0.16666667 29:0.16666667 31:0.33333333 36:0.33333333 37:0.5 38:0.16666667 41:0.2 44:0.25 52:0.2 56:0.33333333 61:0.5 64:0.25 65:0.2 70:0.25 73:0.5 74:0.33333333 75:0.8 76:0.16666667 80:1 82:1 90:1 98:1 
-256 1:0.41962372 2:0.42955997 3:0.52319537 4:0.63778716 5:0.57142857 6:0.3125 7:0.71428571 8:0.2 9:0.28571429 10:0.375 11:0.33333333 12:0.2 13:0.33333333 15:0.42857143 17:0.5 18:0.33333333 19:0.42857143 20:0.33333333 22:0.25 23:0.16666667 25:0.33333333 27:0.5 28:0.16666667 29:0.16666667 30:0.25 32:0.25 37:0.25 39:0.5 41:0.2 43:0.2 45:0.25 46:0.2 48:0.25 51:0.25 52:0.4 55:0.25 56:0.33333333 57:0.25 58:0.33333333 59:0.4 64:0.25 70:0.25 76:0.66666667 88:1 92:1 94:1 96:1 98:1 99:1 105:1 
-256 1:0.41962372 2:0.51287194 3:0.42622728 4:0.47804013 5:0.85714286 6:0.3125 7:0.5 8:0.13333333 9:0.28571429 10:0.625 11:0.5 12:0.2 13:0.44444444 14:0.090909091 15:0.14285714 16:0.14285714 17:1 18:0.16666667 23:0.33333333 25:0.33333333 28:0.33333333 29:0.16666667 30:0.25 31:0.33333333 32:0.75 37:0.5 38:0.16666667 39:0.25 41:0.4 42:0.11111111 45:0.25 50:0.33333333 52:0.6 53:0.5 54:0.33333333 55:0.25 68:0.33333333 69:0.33333333 76:0.5 79:1 88:1 89:1 93:1 96:1 97:1 
256 1:0.41962372 2:0.62574397 3:0.69503483 4:0.62075856 5:0.64285714 6:0.625 7:0.28571429 8:0.2 9:0.28571429 10:0.5 11:0.16666667 12:0.2 13:0.33333333 14:0.54545455 15:0.28571429 16:0.14285714 17:0.5 19:0.14285714 21:0.2 22:0.25 25:0.66666667 28:0.16666667 29:0.33333333 30:0.25 35:0.33333333 37:0.25 39:0.25 41:0.4 42:0.44444444 43:0.2 44:0.25 45:0.5 49:0.2 51:0.25 52:0.4 56:0.33333333 65:0.4 76:0.61111111 79:1 82:1 83:1 91:1 97:1 103:1 104:1 
256 1:0.41962372 2:0.58206408 3:0.50033308 4:0.65533949 5:0.5 6:0.625 7:0.35714286 8:0.26666667 9:0.28571429 10:0.5 11:0.16666667 13:0.33333333 14:0.36363636 15:0.42857143 16:0.14285714 18:0.33333333 19:0.14285714 20:0.33333333 21:0.2 22:0.25 24:0.11111111 25:0.66666667 28:0.16666667 29:0.33333333 30:0.25 37:0.25 38:0.16666667 39:0.25 41:0.4 43:0.4 44:0.25 46:0.2 48:0.5 55:0.5 59:0.2 62:0.5 65:0.4 73:0.25 76:0.66666667 77:1 92:1 99:1 
-256 1:0.41962372 2:0.38489302 3:0.42509053 4:0.37778958 5:0.78571429 6:0.625 7:0.071428571 8:0.26666667 9:0.14285714 10:0.75 11:0.16666667 12:0.6 13:1 14:0.18181818 18:0.16666667 22:0.375 24:0.11111111 25:0.33333333 28:0.33333333 29:0.66666667 33:0.5 35:0.66666667 36:0.33333333 37:0.25 38:0.83333333 39:0.25 40:0.5 41:0.6 64:0.75 73:0.25 76:0.44444444 77:1 80:1 99:1 
67.12675721429508 1:0.41962372 2:0.44936926 3:0.24057058 4:0.48323518 5:0.5 6:0.5625 7:0.28571429 8:0.4 9:0.14285714 10:0.5 11:0.16666667 12:0.2 13:0.55555556 14:0.18181818 15:0.14285714 16:0.28571429 18:0.5 20:0.16666667 21:0.2 22:0.125 23:0.33333333 24:0.22222222 25:0.33333333 28:0.33333333 29:0.16666667 31:0.33333333 34:0.25 37:0.25 38:0.5 39:0.25 41:0.4 42:0.11111111 44:0.25 46:0.2 50:0.33333333 55:0.25 59:0.2 65:0.2 69:0.66666667 72:0.33333333 75:0.2 76:0.55555556 78:1 91:1 95:1 99:1 
-256 1:0.38120216 2:0.28318225 3:0.40717527 4:0.38322243 5:0.71428571 6:0.5 7:0.21428571 8:0.33333333 9:0.42857143 10:0.5 11:0.16666667 12:0.4 13:0.44444444 14:0.27272727 16:0.42857143 18:0.16666667 19:0.14285714 21:0.4 22:0.25 23:0.16666667 25:0.33333333 27:1 28:0.16666667 29:0.5 33:0.5 35:0.33333333 37:0.25 38:0.5 41:0.4 44:0.75 49:0.2 50:0.33333333 62:1 65:0.4 70:0.25 76:0.44444444 77:1 101:1 103:1 
-256 1:0.38120216 2:0.77684717 3:0.6978734 4:0.87760529 5:0.35714286 6:0.9375 7:0.28571429 8:0.13333333 9:0.14285714 10:0.375 11:0.16666667 13:0.33333333 14:0.81818182 15:0.28571429 16:0.28571429 18:0.5 19:0.14285714 22:0.25 25:0.33333333 28:0.16666667 29:0.33333333 37:0.25 38:0.33333333 41:0.4 42:0.44444444 43:0.4 44:0.5 46:0.4 49:0.4 55:0.75 65:0.4 76:0.88888889 77:1 83:1 96:1 99:1 101:1 103:1 
-256 1:0.38120216 2:0.56065756 3:0.6978734 4:0.66068915 5:0.57142857 6:0.9375 7:0.071428571 8:0.13333333 9:0.14285714 10:0.875 13:0.55555556 14:0.72727273 15:0.14285714 16:0.28571429 17:0.16666667 22:0.25 25:0.33333333 28:0.16666667 29:0.83333333 30:0.25 37:0.25 38:0.66666667 41:0.8 42:0.33333333 44:0.5 45:0.25 49:0.4 52:0.2 65:0.4 76:0.72222222 77:1 99:1 101:1 103:1 
256 1:0.22243322 2:0.61447195 3:0.45557556 4:0.45763044 5:0.85714286 6:0.4375 7:0.35714286 8:0.13333333 9:0.71428571 10:0.625 11:0.16666667 12:0.2 13:0.55555556 14:0.090909091 15:0.14285714 16:0.14285714 17:0.33333333 18:0.33333333 19:0.14285714 22:0.125 23:0.16666667 25:1 26:0.33333333 28:0.16666667 29:0.33333333 30:0.25 32:0.25 37:0.75 38:0.16666667 40:0.25 41:0.6 47:0.33333333 49:0.2 51:0.25 52:0.2 55:0.25 64:0.25 68:0.33333333 76:0.5 93:1 99:1 100:1 
-256 1:0.49750355 2:0.77684717 3:0.43855123 4:0.59085723 5:0.57142857 6:0.4375 7:0.42857143 8:0.33333333 9:0.57142857 10:0.375 11:0.16666667 13:0.22222222 14:0.27272727 15:0.28571429 16:0.28571429 17:0.33333333 18:0.16666667 19:0.14285714 20:0.33333333 22:0.25 23:0.33333333 25:0.33333333 26:0.33333333 29:0.16666667 30:0.25 31:0.33333333 37:0.25 38:0.16666667 41:0.4 42:0.22222222 44:0.25 45:0.5 50:0.33333333 51:0.25 52:0.2 58:0.33333333 59:0.4 65:0.4 69:0.33333333 71:0.33333333 76:0.55555556 82:1 83:1 87:1 90:1 
256 1:0.70617897 2:0.73800596 3:0.48614155 4:0.77939933 5:0.21428571 6:0.625 7:0.5 8:0.4 9:0.14285714 10:0.25 13:0.11111111 14:0.36363636 15:0.57142857 16:0.42857143 17:0.16666667 18:0.66666667 20:0.16666667 22:0.25 23:0.33333333 24:0.22222222 25:0.33333333 29:0.16666667 30:0.25 37:0.25 41:0.2 43:0.4 44:0.75 45:0.25 46:0.4 48:0.25 49:0.2 50:0.33333333 52:0.2 55:1 60:0.25 65:0.2 66:0.2 69:0.33333333 73:0.25 75:0.2 76:0.77777778 87:1 91:1 92:1 96:1 98:1 100:1 101:1 
-256 1:0.45434541 2:0.84353316 3:0.71411512 4:0.62516092 5:0.35714286 6:0.5625 7:0.35714286 8:0.46666667 9:0.14285714 10:0.375 11:0.16666667 13:0.33333333 14:0.18181818 15:0.28571429 16:0.57142857 17:0.16666667 18:0.5 20:0.16666667 22:0.375 23:0.16666667 24:0.22222222 25:0.33333333 29:0.16666667 30:0.25 31:0.33333333 33:0.5 37:0.25 38:0.16666667 39:0.25 41:0.4 43:0.2 44:0.25 46:0.2 48:0.25 49:0.6 52:0.2 55:0.25 60:0.25 65:0.4 67:0.25 69:0.33333333 75:0.2 76:0.61111111 79:1 87:1 91:1 98:1 
256 1:0.45434541 2:0.88150321 3:0.42509053 4:0.69220444 5:0.35714286 6:0.5625 7:0.5 8:0.33333333 9:0.14285714 10:0.25 11:0.16666667 12:0.2 13:0.22222222 14:0.36363636 15:0.57142857 16:0.14285714 17:0.33333333 18:0.16666667 20:0.5 22:0.375 23:0.33333333 25:0.33333333 29:0.16666667 30:0.25 32:0.25 35:0.33333333 37:0.25 39:0.25 41:0.2 42:0.22222222 43:0.4 44:0.25 46:0.2 48:0.75 50:0.33333333 52:0.2 54:0.33333333 55:0.25 59:0.4 60:0.25 65:0.4 66:0.2 68:0.33333333 76:0.72222222 78:1 79:1 87:1 91:1 92:1 95:1 98:1 
256 1:0.45434541 2:0.5443725 3:0.42214227 4:0.43426122 5:0.5 6:0.375 7:0.35714286 8:0.53333333 9:0.28571429 10:0.375 11:0.16666667 12:0.2 13:0.11111111 14:0.18181818 15:0.28571429 16:0.42857143 17:0.33333333 18:0.16666667 20:0.33333333 21:0.4 22:0.25 23:0.16666667 24:0.22222222 25:0.66666667 29:0.16666667 30:0.25 31:0.33333333 33:0.5 37:0.25 41:0.2 42:0.22222222 44:0.25 48:0.5 49:0.2 50:0.33333333 51:0.25 54:0.33333333 61:0.5 63:0.5 65:0.2 66:0.2 68:0.33333333 73:0.25 75:0.2 76:0.44444444 79:1 82:1 87:1 92:1 97:1 
55.72955415258956 1:0.36076326 2:0.49374217 3:0.36162238 4:0.32225657 5:0.57142857 6:0.5625 7:0.14285714 8:0.46666667 9:0.28571429 10:0.625 12:0.2 13:0.44444444 14:0.27272727 16:0.42857143 20:0.33333333 21:0.4 22:0.25 23:0.33333333 24:0.11111111 25:0.66666667 29:0.5 31:0.33333333 36:0.33333333 37:0.25 38:0.33333333 40:0.25 41:0.6 44:0.5 50:0.33333333 59:0.2 60:0.25 62:0.5 65:0.4 71:0.66666667 73:0.25 76:0.44444444 78:1 79:1 82:1 93:1 99:1 
256 1:0.59848466 2:0.64484089 3:0.4359805 4:0.6743375 5:0.35714286 6:0.75 7:0.21428571 8:0.4 9:0.28571429 10:0.125 12:0.4 13:0.22222222 14:0.72727273 15:0.28571429 16:0.28571429 17:0.16666667 18:0.16666667 20:0.16666667 22:0.375 23:0.16666667 24:0.11111111 25:0.33333333 27:0.5 29:0.16666667 35:0.33333333 37:0.5 41:0.4 42:0.55555556 43:0.2 44:0.5 45:0.25 46:0.2 54:0.33333333 55:0.25 59:0.2 65:0.4 66:0.2 71:0.33333333 73:0.25 76:0.66666667 78:1 82:1 88:1 89:1 90:1 91:1 92:1 95:1 97:1 
-256 1:0.49690053 2:0.80563183 3:0.21971719 4:0.54370033 5:0.5 6:0.4375 7:0.35714286 8:0.46666667 9:0.14285714 10:0.25 11:0.5 12:0.2 13:0.33333333 14:0.27272727 15:0.28571429 16:0.14285714 17:0.33333333 18:0.33333333 22:0.25 24:0.55555556 25:0.33333333 28:0.16666667 29:0.16666667 32:0.25 33:0.5 35:0.33333333 37:0.25 38:0.16666667 39:0.25 41:0.4 42:0.11111111 43:0.4 45:0.25 46:0.2 53:0.25 54:0.33333333 55:0.25 65:0.4 73:0.25 75:0.8 76:0.5 77:1 81:1 88:1 91:1 92:1 
256 1:0.49690053 2:0.55994764 3:0.73404041 4:0.59021222 5:0.28571429 6:0.625 7:0.28571429 8:0.53333333 9:0.14285714 10:0.125 11:0.16666667 12:0.2 13:0.22222222 14:0.36363636 15:0.14285714 16:0.57142857 17:0.16666667 18:0.16666667 19:0.14285714 20:0.16666667 22:0.75 24:0.22222222 25:0.33333333 29:0.16666667 34:0.25 35:0.33333333 37:0.25 40:0.25 41:0.4 42:0.11111111 43:0.2 44:0.5 47:0.33333333 49:0.6 53:0.25 55:0.25 59:0.2 65:0.6 67:0.5 73:0.25 75:0.2 76:0.61111111 79:1 93:1 98:1 99:1 105:1 
256 1:0.3840179 2:0.51683228 3:0.4525872 4:0.58170954 5:0.42857143 6:0.4375 7:0.5 8:0.4 9:0.14285714 10:0.25 11:0.16666667 12:0.2 13:0.22222222 14:0.36363636 15:0.28571429 16:0.14285714 17:0.33333333 19:0.28571429 20:0.5 21:0.2 22:0.375 23:0.16666667 24:0.11111111 25:0.33333333 29:0.33333333 35:0.33333333 37:0.25 39:0.25 41:0.2 42:0.33333333 43:0.2 44:0.25 45:0.25 48:0.25 49:0.2 52:0.2 57:0.25 58:0.33333333 60:0.25 61:0.5 64:0.25 65:0.2 66:0.2 71:0.33333333 73:0.25 76:0.61111111 79:1 83:1 89:1 97:1 
-256 1:0.3840179 2:0.93151944 3:0.50033308 4:0.74938531 5:0.5 6:0.6875 7:0.35714286 8:0.2 9:0.28571429 10:0.375 11:0.16666667 13:0.22222222 14:0.45454545 15:0.57142857 16:0.28571429 17:0.5 18:0.16666667 20:0.16666667 22:0.375 25:0.33333333 29:0.5 32:0.25 37:0.25 39:0.25 41:0.4 42:0.22222222 43:0.4 44:0.25 45:0.5 46:0.2 48:0.25 49:0.4 51:0.25 52:0.4 59:0.2 65:0.4 66:0.2 76:0.72222222 78:1 80:1 83:1 93:1 
256 1:0.44513165 2:0.76928461 3:0.39926016 4:0.62200735 5:0.64285714 6:0.4375 7:0.5 8:0.2 9:0.28571429 10:0.625 11:0.16666667 12:0.2 13:0.44444444 15:0.42857143 16:0.28571429 17:0.5 18:0.33333333 19:0.28571429 22:0.25 25:0.33333333 26:0.33333333 28:0.33333333 29:0.16666667 30:0.25 31:0.33333333 33:0.5 37:0.5 38:0.33333333 41:0.2 43:0.2 45:0.5 46:0.2 49:0.4 52:0.4 54:0.33333333 55:0.25 56:0.33333333 57:0.25 64:0.25 66:0.2 76:0.61111111 88:1 89:1 96:1 
256 1:0.28947959 2:0.30389234 3:0.40604948 4:0.22167653 5:0.64285714 6:0.25 7:0.28571429 8:0.6 9:0.42857143 10:0.25 11:0.16666667 12:0.6 13:0.33333333 14:0.090909091 16:0.28571429 17:0.16666667 20:0.33333333 21:0.4 22:0.375 23:0.5 24:0.11111111 25:0.33333333 27:1 28:0.16666667 31:0.33333333 34:0.25 35:0.33333333 37:0.5 40:0.25 41:0.4 42:0.11111111 49:0.2 53:0.25 59:0.2 62:0.5 65:0.4 67:0.25 68:0.33333333 71:0.33333333 74:0.33333333 76:0.27777778 79:1 81:1 89:1 90:1 95:1 98:1 
256 1:0.28947959 2:0.65332499 3:0.83174277 4:0.54029166 5:0.35714286 6:0.4375 7:0.42857143 8:0.53333333 9:0.28571429 10:0.125 11:0.16666667 12:0.2 13:0.22222222 14:0.090909091 15:0.57142857 16:0.28571429 18:0.16666667 20:0.66666667 21:0.2 22:0.625 23:0.16666667 24:0.11111111 25:0.33333333 27:0.5 31:0.33333333 35:0.33333333 37:0.5 41:0.2 42:0.11111111 44:0.25 46:0.2 48:0.75 59:0.8 63:0.5 65:0.4 66:0.6 71:0.33333333 74:0.33333333 76:0.55555556 78:1 79:1 81:1 95:1 
-256 1:0.28947959 2:0.90433619 3:0.55943067 4:0.7022138 5:0.42857143 6:0.375 7:0.64285714 8:0.33333333 9:0.14285714 10:0.125 11:0.33333333 12:0.2 13:0.22222222 14:0.18181818 15:0.42857143 16:0.14285714 17:0.5 18:0.5 19:0.28571429 20:0.16666667 22:0.25 23:0.16666667 24:0.22222222 25:0.33333333 31:0.33333333 32:0.5 35:0.33333333 37:0.25 39:0.25 41:0.4 42:0.11111111 43:0.2 47:0.66666667 48:0.25 53:0.25 54:0.33333333 55:0.25 56:0.33333333 59:0.2 65:0.4 69:0.33333333 74:0.33333333 75:0.2 76:0.66666667 92:1 
256 1:0.26988853 2:0.59011384 3:0.53701896 4:0.51725933 5:0.35714286 6:0.3125 7:0.57142857 8:0.53333333 9:0.14285714 10:0.25 11:0.16666667 12:0.2 13:0.22222222 14:0.090909091 15:0.28571429 16:0.28571429 17:0.33333333 18:0.16666667 19:0.14285714 20:0.5 22:0.375 23:0.5 24:0.22222222 27:0.5 28:0.16666667 31:0.33333333 33:0.5 37:0.25 38:0.16666667 41:0.2 43:0.2 44:0.25 48:0.5 49:0.2 50:0.33333333 52:0.2 53:0.25 55:0.25 56:0.33333333 59:0.2 60:0.25 61:0.5 65:0.4 66:0.2 68:0.33333333 70:0.25 73:0.25 75:0.2 76:0.55555556 80:1 82:1 86:1 87:1 90:1 91:1 92:1 94:1 96:1 98:1 
-256 1:0.26988853 2:0.56242758 3:0.77120049 4:0.5461458 5:0.57142857 6:0.375 7:0.42857143 8:0.4 9:0.28571429 10:0.375 11:0.33333333 12:0.2 13:0.33333333 14:0.090909091 15:0.42857143 16:0.14285714 17:0.33333333 19:0.14285714 20:0.5 22:0.5 24:0.11111111 25:0.33333333 27:0.5 29:0.16666667 30:0.25 31:0.33333333 32:0.25 35:0.33333333 37:0.25 38:0.16666667 39:0.25 41:0.4 43:0.2 45:0.25 48:0.5 49:0.2 52:0.2 53:0.25 58:0.33333333 59:0.4 61:0.5 64:0.25 65:0.4 66:0.2 76:0.5 77:1 79:1 86:1 89:1 98:1 
256 1:0.26988853 2:0.64935651 3:0.30530944 4:0.48129997 5:0.64285714 6:0.5625 7:0.21428571 8:0.33333333 9:0.42857143 10:0.5 12:0.4 13:0.44444444 14:0.18181818 15:0.42857143 16:0.14285714 17:0.33333333 20:0.16666667 22:0.5 24:0.11111111 25:0.66666667 27:0.5 28:0.16666667 29:0.16666667 30:0.25 35:0.66666667 37:0.5 38:0.16666667 40:0.25 41:0.2 42:0.22222222 43:0.2 45:0.5 48:0.25 51:0.25 52:0.2 59:0.2 64:0.25 65:0.2 66:0.2 67:0.25 73:0.25 76:0.5 78:1 79:1 81:1 83:1 86:1 92:1 95:1 99:1 
-256 1:0.50996688 2:0.52154414 3:0.36570358 4:0.45696675 5:0.5 6:0.375 7:0.35714286 8:0.53333333 9:0.14285714 10:0.375 11:0.16666667 12:0.4 13:0.33333333 14:0.090909091 15:0.14285714 16:0.42857143 17:0.16666667 18:0.16666667 19:0.28571429 20:0.16666667 21:0.2 22:0.375 23:0.16666667 24:0.22222222 27:0.5 28:0.16666667 29:0.16666667 31:0.33333333 34:0.25 35:0.33333333 37:0.25 39:0.25 40:0.25 41:0.2 42:0.11111111 44:0.25 46:0.2 49:0.2 52:0.2 56:0.33333333 57:0.25 61:0.5 64:0.25 65:0.2 66:0.2 70:0.25 73:0.25 76:0.44444444 77:1 82:1 86:1 93:1 97:1 98:1 
-256 1:0.40697802 2:0.35799403 3:0.34510107 4:0.32919185 5:0.85714286 6:0.625 8:0.26666667 9:0.42857143 10:0.75 12:0.6 13:0.88888889 14:0.18181818 16:0.14285714 22:0.5 25:0.33333333 27:0.5 28:0.5 29:0.33333333 31:0.33333333 35:1 37:0.5 38:0.83333333 40:0.25 41:0.6 42:0.11111111 49:0.2 64:0.5 65:0.2 76:0.38888889 77:1 80:1 86:1 88:1 95:1 98:1 99:1 105:1 
256 1:0.40697802 2:0.40113129 3:0.521522 4:0.43890802 5:0.42857143 6:0.375 7:0.35714286 8:0.6 9:0.42857143 10:0.25 12:0.2 13:0.22222222 14:0.27272727 15:0.14285714 16:0.28571429 17:0.16666667 19:0.14285714 20:0.5 22:0.375 23:0.33333333 24:0.33333333 25:0.33333333 27:0.5 29:0.16666667 31:0.33333333 35:0.33333333 37:0.25 38:0.16666667 41:0.4 42:0.11111111 43:0.2 44:0.25 48:0.25 51:0.25 58:0.33333333 60:0.5 61:0.5 65:0.6 70:0.25 71:0.33333333 73:0.5 75:0.2 76:0.44444444 79:1 81:1 86:1 89:1 
-256 1:0.290768 2:0.49122203 3:0.57906094 4:0.36346063 5:0.78571429 6:0.25 7:0.42857143 8:0.33333333 9:0.42857143 10:0.5 11:0.5 12:0.2 13:0.44444444 15:0.14285714 16:0.14285714 17:0.5 19:0.14285714 20:0.16666667 21:0.2 22:0.25 23:0.16666667 24:0.11111111 25:0.33333333 26:0.33333333 27:0.5 28:0.16666667 29:0.33333333 30:0.25 32:0.25 34:0.25 36:0.33333333 37:0.5 38:0.16666667 39:0.25 41:0.4 45:0.25 51:0.25 52:0.2 53:0.25 56:0.33333333 59:0.2 64:0.25 67:0.25 70:0.25 74:0.33333333 76:0.38888889 82:1 86:1 89:1 90:1 91:1 94:1 
256 1:0.31694513 2:0.25140606 3:0.358556 4:0.2880883 5:0.78571429 6:0.25 7:0.28571429 8:0.46666667 9:0.71428571 10:0.125 11:0.16666667 12:0.6 13:0.44444444 15:0.28571429 18:0.33333333 20:0.33333333 21:0.4 22:0.25 23:0.16666667 24:0.22222222 26:0.33333333 27:1 28:0.16666667 34:0.25 36:0.66666667 37:0.5 38:0.16666667 41:0.4 46:0.2 48:0.25 55:0.25 59:0.2 60:0.25 62:0.5 65:0.2 66:0.2 69:0.33333333 72:0.33333333 73:0.25 76:0.27777778 78:1 82:1 86:1 104:1 
-256 1:0.31694513 2:0.44605938 3:0.44123508 4:0.35121313 5:0.42857143 6:0.4375 7:0.21428571 8:0.66666667 9:0.14285714 10:0.25 11:0.16666667 12:0.4 13:0.44444444 14:0.090909091 16:0.42857143 17:0.16666667 18:0.16666667 20:0.16666667 22:0.5 23:0.33333333 24:0.44444444 27:0.5 31:0.66666667 33:0.5 36:0.66666667 37:0.25 38:0.16666667 39:0.25 40:0.25 41:0.6 50:0.66666667 52:0.2 59:0.2 65:0.6 67:0.25 68:0.33333333 71:0.33333333 73:0.75 75:0.2 76:0.38888889 78:1 79:1 82:1 86:1 90:1 99:1 101:1 102:1 
256 1:0.33522084 2:0.91094522 3:0.4441937 4:0.56178194 5:0.78571429 6:0.3125 7:0.5 8:0.2 9:0.42857143 10:0.25 11:0.5 12:0.4 13:0.44444444 14:0.090909091 15:0.28571429 17:0.5 18:0.33333333 19:0.28571429 22:0.25 24:0.11111111 26:0.33333333 29:0.16666667 30:0.25 32:0.5 33:0.5 35:0.33333333 36:0.33333333 37:0.25 38:0.33333333 39:0.25 41:0.4 42:0.11111111 47:0.66666667 51:0.25 53:0.25 54:0.33333333 56:0.33333333 64:0.25 65:0.2 73:0.25 76:0.5 77:1 80:1 93:1 94:1 97:1 
-256 1:0.33522084 2:0.52507508 3:0.46490125 4:0.48533678 5:0.78571429 6:0.6875 7:0.14285714 8:0.13333333 9:0.71428571 10:0.5 11:0.33333333 13:0.55555556 14:0.54545455 16:0.14285714 17:0.16666667 20:0.16666667 22:0.25 25:0.66666667 26:0.33333333 28:0.33333333 29:0.16666667 32:0.25 34:0.25 37:0.5 38:0.33333333 39:0.25 41:0.6 42:0.55555556 49:0.2 51:0.25 59:0.2 65:0.4 76:0.55555556 78:1 80:1 83:1 91:1 97:1 99:1 
-256 1:0.48229319 2:0.53713649 3:0.33943843 4:0.32202135 5:0.78571429 6:0.25 7:0.28571429 8:0.46666667 9:0.42857143 10:0.375 11:0.33333333 12:0.4 13:0.22222222 14:0.18181818 15:0.14285714 16:0.14285714 17:0.66666667 21:0.2 22:0.125 23:0.16666667 24:0.44444444 25:0.33333333 26:0.33333333 29:0.33333333 31:0.33333333 32:0.5 35:0.33333333 39:0.25 40:0.25 41:0.4 42:0.11111111 43:0.2 45:0.25 51:0.25 52:0.4 54:0.33333333 65:0.2 68:0.33333333 74:0.33333333 75:0.6 76:0.27777778 77:1 79:1 81:1 83:1 88:1 98:1 
44.18820231789033 1:0.44513165 2:0.36521781 3:0.53701896 4:0.51506788 5:0.71428571 6:0.3125 7:0.57142857 8:0.2 9:0.42857143 10:0.625 11:0.33333333 13:0.33333333 14:0.090909091 16:0.28571429 17:0.66666667 18:0.16666667 19:0.42857143 23:0.5 25:0.66666667 28:0.16666667 29:0.33333333 31:0.66666667 32:0.25 33:0.5 38:0.33333333 39:0.25 41:0.4 50:0.66666667 51:0.5 52:0.2 53:0.25 55:0.25 56:1 70:0.75 76:0.55555556 89:1 94:1 96:1 99:1 
-256 1:0.44513165 2:0.38313067 3:0.64755591 4:0.57493249 5:0.35714286 6:0.5 7:0.42857143 8:0.46666667 9:0.14285714 10:0.25 11:0.33333333 13:0.22222222 14:0.27272727 15:0.14285714 16:0.42857143 17:0.16666667 18:0.5 19:0.14285714 20:0.16666667 21:0.2 22:0.25 23:0.16666667 24:0.33333333 25:0.33333333 29:0.16666667 31:0.33333333 32:0.25 33:0.5 38:0.16666667 39:0.25 41:0.4 44:0.5 47:0.33333333 49:0.2 51:0.25 55:0.5 61:0.5 63:0.5 65:0.4 71:0.33333333 72:0.33333333 73:0.25 74:0.33333333 76:0.61111111 94:1 96:1 99:1 100:1 
256 1:0.44513165 2:0.54827405 3:0.53613833 4:0.49142461 5:0.35714286 6:0.4375 7:0.35714286 8:0.6 9:0.14285714 10:0.375 11:0.16666667 13:0.11111111 14:0.27272727 15:0.14285714 16:0.42857143 17:0.33333333 18:0.16666667 19:0.14285714 20:0.16666667 21:0.2 22:0.25 23:0.33333333 24:0.44444444 25:0.33333333 29:0.33333333 31:0.33333333 32:0.25 39:0.25 41:0.2 42:0.11111111 43:0.2 44:0.5 48:0.25 49:0.2 51:0.25 52:0.2 55:0.25 61:0.5 65:0.2 68:0.33333333 70:0.25 73:0.25 74:0.66666667 75:0.2 76:0.5 80:1 97:1 98:1 99:1 105:1 
256 1:0.5737647 2:0.71593769 3:0.53277974 4:0.66175187 5:0.42857143 6:0.5 7:0.5 8:0.33333333 9:0.14285714 10:0.25 11:0.33333333 13:0.22222222 14:0.36363636 15:0.28571429 16:0.28571429 17:0.33333333 18:0.16666667 19:0.42857143 20:0.16666667 21:0.2 22:0.25 24:0.22222222 25:0.33333333 29:0.33333333 32:0.25 37:0.25 39:0.25 41:0.2 42:0.11111111 43:0.4 44:0.5 46:0.2 47:0.33333333 49:0.2 52:0.2 53:0.25 55:0.25 56:0.33333333 57:0.25 58:0.33333333 61:0.5 65:0.4 72:0.33333333 73:0.25 76:0.66666667 78:1 79:1 81:1 83:1 87:1 88:1 90:1 91:1 93:1 96:1 98:1 103:1 
256 1:0.5737647 2:0.51411416 3:0.6443844 4:0.65651911 5:0.42857143 6:0.5625 7:0.35714286 8:0.4 9:0.14285714 10:0.25 11:0.33333333 13:0.22222222 14:0.27272727 15:0.14285714 16:0.71428571 17:0.33333333 18:0.16666667 19:0.28571429 22:0.625 24:0.11111111 25:0.33333333 28:0.16666667 29:0.16666667 32:0.25 37:0.25 39:0.25 41:0.2 43:0.2 44:0.75 47:0.33333333 49:0.8 53:0.25 56:0.33333333 65:0.8 67:0.25 73:0.25 76:0.61111111 77:1 81:1 87:1 90:1 103:1 
-256 1:0.42831999 2:0.53674612 3:0.30343437 4:0.5077276 5:0.57142857 6:0.375 7:0.42857143 8:0.4 9:0.14285714 10:0.25 11:0.5 12:0.2 13:0.55555556 14:0.18181818 16:0.14285714 17:0.33333333 18:0.33333333 19:0.14285714 20:0.16666667 22:0.25 23:0.33333333 24:0.22222222 26:0.33333333 28:0.16666667 29:0.16666667 32:0.5 34:0.25 36:0.33333333 37:0.25 38:0.16666667 39:0.25 40:0.25 41:0.6 42:0.11111111 50:0.33333333 52:0.2 53:0.25 55:0.5 59:0.2 64:0.25 67:0.25 69:0.33333333 70:0.25 74:0.33333333 75:0.2 76:0.5 82:1 87:1 92:1 96:1 104:1 
256 1:0.42831999 2:0.60161107 3:0.6443844 4:0.68560592 5:0.35714286 6:0.75 7:0.28571429 8:0.33333333 9:0.14285714 10:0.125 11:0.33333333 12:0.2 13:0.22222222 14:0.63636364 15:0.28571429 16:0.28571429 17:0.33333333 20:0.33333333 22:0.625 27:0.5 29:0.16666667 32:0.25 34:0.25 35:0.33333333 38:0.16666667 39:0.25 41:0.4 42:0.44444444 43:0.4 44:0.25 45:0.25 48:0.25 49:0.4 51:0.25 53:0.25 59:0.4 65:0.6 67:0.25 76:0.72222222 78:1 87:1 92:1 98:1 99:1 100:1 105:1 
232.4121279731669 1:0.63479026 2:0.69878904 3:0.52267638 4:0.63267216 5:0.5 6:0.5625 7:0.35714286 8:0.33333333 10:0.5 11:0.16666667 12:0.2 13:0.22222222 14:0.27272727 15:0.42857143 16:0.42857143 17:0.5 18:0.16666667 20:0.16666667 21:0.2 22:0.375 23:0.16666667 29:0.33333333 30:0.25 31:0.33333333 32:0.25 35:0.33333333 38:0.16666667 39:0.25 41:0.2 43:0.4 44:0.5 45:0.25 46:0.2 48:0.25 49:0.4 50:0.33333333 52:0.4 54:0.33333333 55:0.25 64:0.25 65:0.4 68:0.33333333 76:0.61111111 77:1 88:1 98:1 100:1 
-256 1:0.53694314 2:0.39165412 3:0.21542841 4:0.30346476 5:0.78571429 6:0.3125 7:0.35714286 8:0.33333333 9:0.71428571 10:0.5 11:0.16666667 12:0.2 13:0.33333333 14:0.27272727 17:0.16666667 19:0.14285714 20:0.5 21:0.4 23:0.5 25:0.66666667 27:0.5 29:0.66666667 32:0.25 37:0.25 38:0.16666667 39:0.25 41:0.6 42:0.11111111 52:0.2 58:0.33333333 60:0.5 62:1 70:0.25 71:0.66666667 76:0.38888889 79:1 81:1 90:1 93:1 99:1 101:1 
-256 1:0.53694314 2:0.70469119 3:0.55697137 4:0.79239975 5:0.5 6:0.625 7:0.57142857 8:0.066666667 10:0.375 11:0.66666667 13:0.55555556 14:0.54545455 15:0.14285714 17:0.33333333 18:0.5 19:0.28571429 23:0.16666667 28:0.16666667 29:0.16666667 30:0.25 32:0.25 33:0.5 38:0.33333333 39:0.75 41:0.6 42:0.55555556 46:0.2 52:0.2 53:0.25 55:0.5 56:0.33333333 57:0.25 69:0.33333333 76:0.83333333 83:1 89:1 92:1 95:1 97:1 101:1 
-256 1:0.42831999 2:0.40980888 3:0.38416511 4:0.40186925 5:0.57142857 6:0.25 7:0.5 8:0.46666667 9:0.28571429 10:0.125 11:0.66666667 12:0.2 13:0.33333333 14:0.090909091 16:0.28571429 17:0.5 18:0.16666667 20:0.33333333 22:0.25 23:0.5 24:0.22222222 26:0.66666667 31:0.33333333 32:0.75 34:0.25 37:0.25 39:0.25 40:0.25 41:0.4 44:0.25 49:0.2 50:0.33333333 51:0.25 52:0.2 53:0.25 55:0.25 61:1 64:0.25 65:0.2 69:0.33333333 71:0.33333333 73:0.25 74:0.33333333 76:0.44444444 78:1 82:1 98:1 
256 1:0.42831999 2:0.59660963 3:0.69503483 4:0.60689847 5:0.5 6:0.6875 7:0.28571429 8:0.26666667 9:0.14285714 10:0.625 11:0.16666667 13:0.55555556 14:0.18181818 15:0.28571429 16:0.42857143 17:0.16666667 18:0.16666667 19:0.14285714 20:0.16666667 22:0.5 25:0.33333333 28:0.16666667 29:0.5 31:0.33333333 32:0.25 37:0.25 38:0.5 39:0.25 41:0.2 44:0.5 46:0.2 47:0.33333333 49:0.6 52:0.2 58:0.33333333 59:0.2 64:0.5 65:0.2 66:0.2 76:0.66666667 78:1 79:1 91:1 93:1 94:1 99:1 
-239.3104398234227 1:0.21880087 2:0.72728321 3:0.61370245 4:0.55981643 5:0.64285714 6:0.3125 7:0.57142857 8:0.26666667 9:0.14285714 10:0.375 11:0.33333333 12:0.6 13:0.22222222 14:0.090909091 15:0.42857143 16:0.14285714 17:0.66666667 18:0.16666667 19:0.28571429 21:0.2 22:0.25 23:0.16666667 25:0.33333333 29:0.33333333 30:0.25 32:0.25 35:0.33333333 39:0.25 40:0.25 41:0.2 43:0.2 44:0.25 45:0.25 47:0.33333333 49:0.2 51:0.25 52:0.4 54:0.33333333 56:0.33333333 63:0.5 65:0.2 66:0.2 68:0.33333333 76:0.55555556 77:1 80:1 93:1 
256 1:0.42293091 2:0.39695509 3:0.56389849 4:0.61477374 5:0.5 6:0.1875 7:0.78571429 8:0.33333333 9:0.14285714 10:0.25 11:0.5 12:0.2 13:0.22222222 15:0.28571429 17:0.5 18:0.5 19:0.42857143 20:0.33333333 23:0.5 24:0.22222222 26:0.33333333 29:0.16666667 30:0.25 32:0.25 33:0.5 38:0.16666667 39:0.25 41:0.2 43:0.2 47:0.33333333 48:0.25 51:0.25 52:0.2 54:0.33333333 55:0.25 57:0.25 61:1 68:0.66666667 71:0.33333333 74:0.66666667 76:0.61111111 77:1 88:1 89:1 90:1 96:1 99:1 102:1 
-256 1:0.42293091 2:0.38531421 3:0.32392033 4:0.43426122 5:0.42857143 6:0.125 7:0.64285714 8:0.6 10:0.125 11:0.5 12:0.4 13:0.33333333 14:0.090909091 17:0.5 18:0.33333333 19:0.28571429 20:0.33333333 23:0.5 24:0.55555556 29:0.16666667 32:0.25 34:0.25 36:0.33333333 38:0.16666667 39:0.5 41:0.6 53:0.25 54:0.66666667 55:0.5 56:0.66666667 61:0.5 69:0.33333333 70:0.25 71:0.33333333 74:0.66666667 75:0.6 76:0.44444444 89:1 96:1 100:1 102:1 
-256 1:0.44844587 2:0.38962297 3:0.480906 4:0.54772558 5:0.42857143 6:0.3125 7:0.57142857 8:0.46666667 9:0.28571429 10:0.125 11:0.33333333 12:0.2 13:0.22222222 14:0.18181818 15:0.28571429 16:0.14285714 17:0.33333333 19:0.28571429 20:0.66666667 22:0.375 23:0.33333333 24:0.11111111 26:0.33333333 29:0.16666667 32:0.25 34:0.25 35:0.33333333 37:0.25 39:0.25 41:0.2 42:0.11111111 43:0.2 44:0.25 47:0.33333333 48:0.25 52:0.2 54:0.33333333 56:0.33333333 58:0.33333333 59:0.2 60:0.5 64:0.25 65:0.4 70:0.25 71:0.33333333 73:0.25 76:0.55555556 78:1 82:1 83:1 93:1 101:1 
-256 1:0.44844587 2:0.63578533 3:0.61054367 4:0.63495725 5:0.28571429 6:0.5 7:0.42857143 8:0.53333333 10:0.25 11:0.16666667 12:0.2 13:0.11111111 14:0.18181818 15:0.42857143 16:0.57142857 17:0.5 18:0.16666667 20:0.33333333 22:0.625 23:0.16666667 24:0.11111111 29:0.16666667 30:0.25 32:0.25 35:0.33333333 39:0.25 41:0.2 42:0.11111111 43:0.2 44:0.25 45:0.5 48:0.25 49:0.2 50:0.33333333 52:0.4 54:0.33333333 59:0.4 65:0.4 67:0.75 71:0.33333333 73:0.25 76:0.61111111 91:1 
-256 1:0.5737647 2:0.4672879 3:0.51111903 4:0.58663976 5:0.64285714 6:0.4375 7:0.5 8:0.2 9:0.14285714 10:0.5 11:0.66666667 13:0.44444444 14:0.36363636 16:0.14285714 17:0.5 19:0.28571429 20:0.33333333 22:0.125 23:0.16666667 25:0.33333333 28:0.16666667 29:0.5 32:0.25 34:0.5 37:0.25 38:0.33333333 39:0.25 41:0.6 42:0.22222222 44:0.25 53:0.75 56:0.66666667 59:0.2 60:0.25 65:0.2 70:0.25 76:0.61111111 77:1 88:1 97:1 100:1 
256 1:0.5737647 2:0.37239778 3:0.38983471 4:0.53437076 5:0.57142857 6:0.1875 7:0.71428571 8:0.33333333 10:0.375 11:0.5 12:0.4 13:0.22222222 15:0.14285714 16:0.28571429 17:0.83333333 18:0.16666667 19:0.57142857 21:0.2 22:0.125 23:0.16666667 24:0.11111111 29:0.16666667 31:0.66666667 32:0.25 36:0.33333333 38:0.16666667 39:0.25 41:0.4 45:0.25 52:0.4 53:0.5 54:0.33333333 56:1 57:0.25 65:0.2 70:0.25 73:0.25 76:0.55555556 88:1 93:1 94:1 
256 1:0.38755321 2:0.55846474 3:0.58121897 4:0.64232464 5:0.35714286 6:0.375 7:0.64285714 8:0.4 11:0.33333333 12:0.6 13:0.11111111 14:0.27272727 15:0.28571429 16:0.14285714 17:0.66666667 18:0.16666667 19:0.42857143 20:0.16666667 22:0.375 23:0.33333333 24:0.11111111 35:0.33333333 36:0.33333333 39:0.25 41:0.2 42:0.11111111 43:0.4 45:0.25 46:0.2 50:0.33333333 53:0.25 54:1 55:0.25 56:0.66666667 57:0.25 59:0.2 65:0.6 68:0.33333333 71:0.33333333 73:0.25 76:0.66666667 78:1 80:1 89:1 92:1 94:1 99:1 
-256 1:0.38755321 2:0.57795765 3:0.69503483 4:0.69663523 5:0.28571429 6:0.5625 7:0.42857143 8:0.46666667 10:0.25 11:0.16666667 12:0.2 13:0.22222222 14:0.18181818 15:0.57142857 16:0.42857143 17:0.16666667 18:0.16666667 19:0.14285714 20:0.33333333 22:0.75 24:0.11111111 28:0.16666667 29:0.16666667 36:0.33333333 38:0.16666667 39:0.25 41:0.2 42:0.11111111 43:0.2 44:0.25 46:0.2 48:0.5 49:0.6 54:0.33333333 56:0.33333333 59:0.4 65:0.4 66:0.4 67:0.5 73:0.25 76:0.66666667 77:1 81:1 83:1 103:1 
-235.8476957118601 1:0.52705912 2:0.62852385 3:0.52319537 4:0.54215557 5:0.42857143 6:0.4375 7:0.5 8:0.4 9:0.14285714 10:0.375 11:0.33333333 13:0.22222222 14:0.36363636 16:0.42857143 17:0.16666667 18:0.16666667 19:0.42857143 20:0.16666667 21:0.4 22:0.125 23:0.33333333 24:0.11111111 26:0.33333333 29:0.5 37:0.25 39:0.25 41:0.4 42:0.22222222 44:0.5 49:0.2 52:0.2 56:0.33333333 57:0.25 65:0.2 71:0.33333333 74:0.33333333 76:0.61111111 82:1 87:1 95:1 98:1 
256 1:0.7418737 2:0.68091402 3:0.20233963 4:0.57325744 5:0.42857143 6:0.125 7:0.85714286 8:0.4 9:0.14285714 11:0.5 12:0.4 13:0.11111111 15:0.42857143 17:0.5 18:0.33333333 19:0.28571429 20:0.66666667 21:0.2 22:0.25 23:0.5 27:0.5 34:0.5 39:0.25 41:0.2 43:0.2 45:0.5 48:0.25 51:0.25 53:0.5 57:0.25 59:0.4 60:0.5 65:0.4 69:0.33333333 71:0.33333333 76:0.61111111 79:1 87:1 89:1 90:1 98:1 
256 1:0.7418737 2:0.30389234 3:0.68762033 4:0.68671224 5:0.42857143 6:0.4375 7:0.57142857 8:0.33333333 9:0.14285714 10:0.375 11:0.33333333 13:0.22222222 14:0.27272727 15:0.42857143 16:0.14285714 17:0.16666667 18:0.33333333 19:0.28571429 20:0.5 21:0.2 22:0.125 23:0.16666667 24:0.11111111 25:0.33333333 29:0.33333333 30:0.25 33:0.5 37:0.25 39:0.25 41:0.4 42:0.22222222 43:0.2 45:0.25 48:0.5 52:0.2 55:0.25 57:0.25 59:0.2 63:0.5 67:0.25 71:0.33333333 74:0.33333333 76:0.66666667 77:1 87:1 90:1 97:1 
-256 1:0.51133292 2:0.59853708 3:0.4254219 4:0.46025767 5:0.57142857 6:0.3125 7:0.42857143 8:0.46666667 9:0.28571429 10:0.375 11:0.33333333 13:0.11111111 14:0.090909091 15:0.28571429 16:0.42857143 17:0.5 19:0.14285714 20:0.33333333 21:0.4 22:0.375 23:0.16666667 24:0.11111111 25:0.33333333 26:0.33333333 30:0.5 31:0.33333333 34:0.25 39:0.25 41:0.2 44:0.5 45:0.5 49:0.2 51:0.25 52:0.4 58:0.33333333 59:0.2 60:0.25 62:0.5 65:0.6 68:0.33333333 72:0.33333333 76:0.44444444 88:1 89:1 98:1 100:1 
256 1:0.51133292 2:0.48977351 3:0.3431175 4:0.5968817 5:0.35714286 6:0.3125 7:0.64285714 8:0.46666667 9:0.14285714 10:0.25 11:0.33333333 13:0.22222222 14:0.090909091 15:0.28571429 16:0.28571429 17:0.33333333 18:0.16666667 19:0.57142857 20:0.16666667 22:0.25 23:0.16666667 24:0.44444444 25:0.33333333 29:0.16666667 30:0.25 32:0.25 38:0.16666667 39:0.25 41:0.4 44:0.25 47:0.33333333 51:0.25 53:0.25 55:0.25 56:0.33333333 57:0.25 58:0.33333333 60:0.25 65:0.2 67:0.25 70:0.25 73:0.5 75:0.4 76:0.61111111 78:1 89:1 
-256 1:0.53694314 2:0.32927754 3:0.77885235 4:0.61727872 5:0.42857143 6:0.4375 7:0.57142857 8:0.33333333 9:0.14285714 10:0.375 11:0.16666667 13:0.44444444 14:0.18181818 15:0.14285714 16:0.28571429 17:0.16666667 18:0.16666667 19:0.42857143 20:0.5 22:0.375 23:0.33333333 25:0.33333333 28:0.33333333 31:0.33333333 37:0.25 38:0.33333333 39:0.25 41:0.2 42:0.11111111 43:0.2 44:0.25 47:0.33333333 49:0.2 50:0.33333333 55:0.25 57:0.25 58:0.33333333 59:0.4 60:0.25 64:0.25 65:0.4 68:0.33333333 71:0.33333333 76:0.66666667 80:1 88:1 94:1 95:1 
256 1:0.53694314 2:0.77887044 3:0.61054367 4:0.77574468 5:0.57142857 6:0.5 7:0.64285714 8:0.066666667 10:0.625 11:0.5 13:0.33333333 14:0.27272727 15:0.57142857 17:0.66666667 18:0.16666667 19:0.28571429 20:0.16666667 22:0.125 29:0.33333333 30:0.75 32:0.5 38:0.16666667 39:0.5 41:0.6 42:0.22222222 45:0.5 47:0.33333333 52:0.6 53:0.25 55:0.25 58:0.33333333 59:0.2 66:0.2 76:0.77777778 77:1 91:1 93:1 
208.756858847947 1:0.52761317 2:0.75709291 3:0.80673839 4:0.6523532 5:0.57142857 6:0.5 7:0.42857143 8:0.26666667 9:0.42857143 10:0.25 11:0.33333333 13:0.55555556 14:0.090909091 15:0.42857143 16:0.14285714 18:0.83333333 20:0.16666667 22:0.25 24:0.22222222 26:0.33333333 28:0.16666667 31:0.33333333 33:1 37:0.25 38:0.33333333 39:0.25 41:0.6 46:0.6 49:0.2 55:0.5 61:0.5 65:0.2 66:0.2 73:0.25 75:0.2 76:0.61111111 80:1 82:1 88:1 89:1 96:1 104:1 
256 1:0.52761317 2:0.75341077 3:0.53277974 4:0.71740457 5:0.42857143 6:0.5 7:0.57142857 8:0.26666667 9:0.14285714 10:0.25 11:0.5 13:0.33333333 14:0.27272727 15:0.28571429 16:0.14285714 17:0.16666667 18:0.66666667 19:0.14285714 20:0.33333333 22:0.125 23:0.33333333 24:0.11111111 25:0.33333333 29:0.16666667 30:0.25 32:0.25 33:1 37:0.25 38:0.16666667 39:0.25 41:0.4 43:0.2 44:0.25 46:0.2 47:0.33333333 50:0.33333333 53:0.25 55:0.75 58:0.33333333 60:0.25 61:0.5 65:0.2 69:0.33333333 71:0.33333333 73:0.25 76:0.72222222 77:1 81:1 89:1 90:1 99:1 102:1 103:1 
-31.55175790291531 1:0.65949231 2:0.4917293 3:0.38667873 4:0.62309712 5:0.57142857 6:0.6875 7:0.28571429 8:0.2 10:0.5 11:0.5 13:0.66666667 14:0.36363636 15:0.14285714 16:0.28571429 17:0.16666667 18:0.5 21:0.2 22:0.125 24:0.11111111 28:0.16666667 29:0.5 32:0.25 33:1 38:0.5 39:0.5 41:0.6 42:0.11111111 43:0.2 44:0.25 46:0.2 52:0.2 55:0.25 63:0.5 65:0.2 73:0.25 76:0.66666667 78:1 80:1 81:1 88:1 91:1 92:1 95:1 104:1 
186.5893903270663 1:0.4895708 2:0.69922917 3:0.68556354 4:0.67273455 5:0.5 6:0.5625 7:0.42857143 8:0.26666667 9:0.14285714 10:0.5 11:0.16666667 12:0.2 13:0.55555556 14:0.27272727 15:0.14285714 16:0.28571429 18:0.5 19:0.42857143 22:0.125 23:0.16666667 24:0.11111111 25:0.33333333 28:0.16666667 29:0.16666667 30:0.25 31:0.33333333 33:0.5 38:0.5 39:0.25 40:0.25 41:0.2 42:0.33333333 44:0.25 47:0.33333333 49:0.2 57:0.5 65:0.2 69:0.33333333 76:0.66666667 77:1 79:1 83:1 93:1 97:1 98:1 
256 1:0.83029765 2:0.33980159 3:0.53277974 4:0.52583918 5:0.85714286 6:0.4375 7:0.42857143 8:0.066666667 9:0.42857143 10:0.625 11:0.5 12:0.2 13:0.66666667 14:0.18181818 15:0.14285714 17:0.33333333 18:0.16666667 19:0.28571429 22:0.125 25:1 28:0.16666667 29:0.66666667 32:0.25 33:0.5 35:0.33333333 37:0.5 38:0.16666667 39:0.75 41:0.8 47:0.33333333 51:0.25 54:0.33333333 56:0.33333333 64:0.25 76:0.55555556 77:1 81:1 87:1 88:1 103:1 
256 1:0.70395724 2:0.38531421 3:0.4669952 4:0.48174877 5:0.42857143 6:0.375 7:0.42857143 8:0.53333333 9:0.14285714 10:0.25 11:0.16666667 12:0.4 13:0.33333333 14:0.090909091 15:0.14285714 16:0.28571429 17:0.16666667 18:0.33333333 19:0.28571429 20:0.16666667 21:0.2 22:0.375 23:0.33333333 24:0.22222222 27:0.5 29:0.33333333 33:0.5 35:0.33333333 38:0.16666667 39:0.25 40:0.25 41:0.4 44:0.25 48:0.25 50:0.33333333 52:0.2 56:0.33333333 57:0.25 62:0.5 64:0.25 65:0.2 67:0.25 69:0.33333333 70:0.25 73:0.5 76:0.5 80:1 87:1 88:1 92:1 94:1 99:1 
192.9054074202985 1:0.7418737 2:0.50746299 3:0.60752713 4:0.70427181 5:0.21428571 6:0.625 7:0.35714286 8:0.53333333 11:0.33333333 12:0.2 13:0.33333333 14:0.45454545 15:0.14285714 16:0.42857143 18:0.66666667 20:0.16666667 22:0.375 23:0.33333333 24:0.22222222 33:0.5 34:0.25 36:0.33333333 39:0.5 40:0.25 41:0.6 42:0.22222222 43:0.2 44:0.25 46:0.2 49:0.4 55:0.75 61:0.5 65:0.4 67:0.25 69:0.66666667 74:0.66666667 76:0.66666667 88:1 91:1 100:1 
-256 1:0.7418737 2:0.51120317 3:0.60222828 4:0.61567177 5:0.64285714 6:0.625 7:0.28571429 8:0.2 9:0.28571429 10:0.5 11:0.5 13:0.44444444 14:0.45454545 15:0.14285714 16:0.28571429 17:0.33333333 18:0.33333333 21:0.2 22:0.125 26:0.33333333 28:0.5 29:0.16666667 32:0.25 33:1 37:0.25 38:0.16666667 39:0.5 41:0.2 42:0.44444444 43:0.2 44:0.25 45:0.25 49:0.2 52:0.4 55:0.25 65:0.2 76:0.61111111 79:1 93:1 97:1 101:1 
-256 1:0.64347853 2:0.53674612 3:0.38667873 4:0.62926037 5:0.42857143 6:0.8125 7:0.071428571 8:0.4 9:0.28571429 10:0.25 11:0.16666667 13:0.44444444 14:0.63636364 16:0.57142857 18:0.16666667 22:0.625 24:0.11111111 25:0.33333333 29:0.33333333 33:0.5 37:0.5 38:0.16666667 39:0.25 41:0.8 42:0.22222222 44:0.75 49:0.6 55:0.25 65:0.8 67:0.25 73:0.25 76:0.61111111 92:1 95:1 97:1 100:1 
-256 1:0.65949231 2:0.73695406 3:0.41846411 4:0.64399038 5:0.28571429 6:0.625 7:0.35714286 8:0.46666667 10:0.25 11:0.33333333 13:0.22222222 14:0.45454545 16:0.57142857 17:0.16666667 18:0.33333333 19:0.14285714 20:0.16666667 22:0.375 23:0.33333333 24:0.22222222 29:0.16666667 31:0.33333333 33:0.5 38:0.16666667 39:0.25 41:0.4 42:0.22222222 44:0.5 49:0.2 50:0.33333333 53:0.25 55:0.25 59:0.2 65:0.6 68:0.33333333 71:0.33333333 73:0.25 74:0.33333333 76:0.66666667 77:1 82:1 88:1 89:1 91:1 92:1 95:1 99:1 
256 1:0.54900569 2:0.56242758 3:0.6443844 4:0.51047188 5:0.42857143 6:0.625 7:0.21428571 8:0.46666667 9:0.14285714 10:0.375 11:0.16666667 12:0.2 13:0.33333333 14:0.36363636 16:0.57142857 18:0.16666667 19:0.14285714 20:0.16666667 21:0.2 22:0.5 23:0.16666667 24:0.11111111 27:0.5 29:0.5 33:0.5 38:0.33333333 39:0.25 41:0.4 44:0.75 49:0.6 58:0.33333333 59:0.2 64:0.25 65:0.6 70:0.25 74:0.33333333 76:0.55555556 77:1 79:1 82:1 91:1 99:1 103:1 
119.2211000611104 1:0.51133292 2:0.45497201 3:0.52505164 4:0.61083707 5:0.28571429 6:0.75 7:0.21428571 8:0.46666667 9:0.14285714 10:0.125 11:0.16666667 12:0.2 13:0.33333333 14:0.72727273 16:0.28571429 18:0.16666667 19:0.14285714 20:0.16666667 22:0.375 23:0.16666667 24:0.33333333 25:0.33333333 29:0.16666667 34:0.25 35:0.33333333 37:0.25 39:0.25 40:0.25 41:0.4 42:0.66666667 44:0.25 49:0.2 55:0.25 60:0.25 65:0.4 67:0.25 70:0.25 73:0.25 75:0.4 76:0.66666667 78:1 79:1 81:1 83:1 86:1 87:1 97:1 99:1 103:1 
256 1:0.36052166 2:0.37476505 3:0.52319537 4:0.46474165 5:0.57142857 6:0.25 7:0.57142857 8:0.4 10:0.375 11:0.5 12:0.2 13:0.33333333 14:0.090909091 15:0.14285714 16:0.14285714 17:0.5 19:0.14285714 20:0.66666667 21:0.2 22:0.25 23:0.5 29:0.33333333 30:0.25 32:0.25 34:0.5 38:0.16666667 39:0.5 41:0.6 45:0.25 52:0.2 53:0.25 58:0.33333333 59:0.4 60:0.5 65:0.2 67:0.25 68:0.33333333 70:0.25 71:0.33333333 76:0.5 77:1 86:1 87:1 93:1 103:1 
256 1:0.40571692 2:0.54107234 3:0.47790352 4:0.64749312 5:0.28571429 6:0.5625 7:0.35714286 8:0.53333333 9:0.14285714 11:0.33333333 12:0.2 13:0.22222222 14:0.27272727 15:0.28571429 16:0.42857143 17:0.16666667 18:0.5 20:0.16666667 22:0.625 23:0.16666667 24:0.22222222 27:0.5 32:0.25 34:0.25 35:0.33333333 39:0.5 41:0.2 42:0.22222222 44:0.5 46:0.4 49:0.2 51:0.25 55:0.5 59:0.2 64:0.25 65:0.2 66:0.2 67:0.25 69:0.33333333 73:0.5 76:0.61111111 86:1 90:1 91:1 92:1 96:1 98:1 99:1 105:1 
256 1:0.53694314 2:0.4917293 3:0.42141644 4:0.61385665 5:0.57142857 6:0.75 7:0.21428571 8:0.2 9:0.14285714 10:0.5 11:0.16666667 12:0.2 13:0.66666667 14:0.54545455 15:0.14285714 16:0.14285714 17:0.16666667 19:0.14285714 20:0.16666667 22:0.375 28:0.16666667 29:0.5 34:0.25 35:0.33333333 37:0.25 38:0.5 39:0.25 40:0.25 41:1 42:0.33333333 47:0.33333333 49:0.2 52:0.2 56:0.33333333 59:0.2 65:0.4 67:0.25 76:0.66666667 78:1 86:1 88:1 91:1 92:1 95:1 97:1 
-189.0396217968049 1:0.53694314 2:0.40449774 3:0.61829971 4:0.51047188 5:0.64285714 6:0.5 7:0.35714286 8:0.26666667 9:0.28571429 10:0.375 11:0.33333333 12:0.2 13:0.66666667 14:0.27272727 16:0.14285714 17:0.16666667 18:0.16666667 19:0.28571429 20:0.16666667 22:0.25 23:0.16666667 24:0.11111111 25:0.33333333 28:0.33333333 29:0.16666667 34:0.25 37:0.25 38:0.16666667 39:0.5 40:0.25 41:0.6 42:0.22222222 52:0.2 56:0.33333333 59:0.2 65:0.4 70:0.25 73:0.25 76:0.55555556 78:1 79:1 81:1 86:1 88:1 90:1 92:1 94:1 97:1 104:1 
256 1:0.53694314 2:0.57695035 3:0.5316808 4:0.68757061 5:0.5 6:0.4375 7:0.64285714 8:0.2 9:0.28571429 10:0.375 11:0.16666667 12:0.2 13:0.11111111 14:0.36363636 15:0.42857143 16:0.14285714 17:0.66666667 19:0.42857143 20:0.16666667 22:0.125 23:0.33333333 25:0.33333333 29:0.5 34:0.25 39:0.25 41:0.2 42:0.22222222 43:0.4 44:0.25 45:0.5 47:0.33333333 50:0.33333333 51:0.25 52:0.4 54:0.33333333 56:0.66666667 59:0.2 65:0.2 70:0.5 76:0.72222222 78:1 86:1 90:1 92:1 95:1 101:1 
256 1:0.53694314 2:0.38655553 3:0.34118031 4:0.45595159 5:0.35714286 6:0.6875 7:0.071428571 8:0.6 10:0.375 11:0.16666667 12:0.2 13:0.44444444 14:0.54545455 16:0.42857143 20:0.16666667 21:0.2 22:0.375 24:0.44444444 29:0.5 34:0.25 36:0.33333333 38:0.33333333 39:0.25 40:0.25 41:0.8 42:0.22222222 44:0.5 49:0.2 59:0.2 65:0.4 67:0.25 72:0.33333333 73:0.25 75:0.2 76:0.5 78:1 81:1 83:1 86:1 90:1 91:1 97:1 98:1 103:1 
256 1:0.53694314 2:0.45360694 3:0.63561719 4:0.6470171 5:0.28571429 6:0.6875 7:0.35714286 8:0.4 10:0.25 11:0.33333333 13:0.44444444 14:0.45454545 15:0.14285714 16:0.28571429 18:0.16666667 19:0.14285714 20:0.5 22:0.5 23:0.16666667 24:0.11111111 31:0.33333333 33:0.5 34:0.25 38:0.33333333 39:0.5 41:0.4 42:0.44444444 44:0.25 48:0.25 50:0.33333333 55:0.25 58:0.33333333 59:0.6 64:0.5 65:0.4 70:0.25 73:0.25 76:0.72222222 78:1 82:1 83:1 86:1 91:1 93:1 95:1 97:1 99:1 
67.04656306512778 1:0.42831999 2:0.70499602 3:0.28479522 4:0.60587769 5:0.35714286 6:0.6875 7:0.28571429 8:0.4 9:0.14285714 11:0.33333333 12:0.4 13:0.33333333 14:0.63636364 15:0.14285714 16:0.14285714 18:0.33333333 20:0.33333333 21:0.2 22:0.375 23:0.16666667 24:0.11111111 27:0.5 33:0.5 34:0.25 36:0.33333333 37:0.25 39:0.5 41:0.2 42:0.77777778 48:0.25 59:0.4 64:0.25 65:0.2 67:0.25 69:0.33333333 73:0.25 76:0.66666667 78:1 83:1 86:1 88:1 89:1 93:1 97:1 99:1 100:1 
-256 1:0.42831999 2:0.67940642 3:0.21542841 4:0.50140866 5:0.5 6:0.5625 7:0.28571429 8:0.4 9:0.14285714 10:0.625 11:0.16666667 13:0.33333333 14:0.27272727 15:0.14285714 16:0.57142857 17:0.33333333 20:0.33333333 21:0.2 22:0.375 23:0.16666667 25:0.33333333 28:0.33333333 29:0.5 34:0.25 37:0.25 38:0.16666667 39:0.25 41:0.2 42:0.11111111 43:0.2 44:0.5 48:0.25 49:0.2 50:0.33333333 52:0.4 59:0.4 65:0.2 67:0.5 68:0.33333333 76:0.55555556 79:1 86:1 92:1 95:1 
256 1:0.42831999 2:0.27168358 3:0.59777282 4:0.31335816 5:0.5 6:0.1875 7:0.35714286 8:0.73333333 9:0.14285714 10:0.125 11:0.16666667 12:0.8 13:0.33333333 15:0.14285714 16:0.14285714 17:0.33333333 18:0.16666667 19:0.14285714 20:0.16666667 21:0.2 22:0.375 23:0.33333333 24:0.44444444 27:0.5 29:0.16666667 34:0.25 35:0.33333333 36:0.33333333 39:0.25 40:0.5 41:0.4 45:0.25 50:0.33333333 52:0.2 54:0.33333333 59:0.2 62:0.5 65:0.2 66:0.2 67:0.25 68:0.33333333 70:0.25 73:0.25 75:0.4 76:0.27777778 80:1 82:1 86:1 93:1 98:1 
256 1:0.42831999 2:0.58206408 3:0.4547451 4:0.59277679 5:0.42857143 6:0.5 7:0.42857143 8:0.4 10:0.125 11:0.5 12:0.2 13:0.55555556 14:0.27272727 15:0.14285714 16:0.14285714 17:0.16666667 18:0.33333333 19:0.14285714 20:0.33333333 22:0.375 23:0.16666667 24:0.22222222 29:0.16666667 32:0.25 34:0.25 35:0.33333333 39:0.75 40:0.25 41:0.6 42:0.22222222 46:0.2 50:0.33333333 52:0.2 55:0.5 58:0.33333333 59:0.2 61:0.5 64:0.25 66:0.2 67:0.25 69:0.33333333 73:0.25 75:0.2 76:0.61111111 78:1 79:1 86:1 93:1 96:1 97:1 104:1 
256 1:0.42831999 2:0.42632712 3:0.69503483 4:0.55268621 5:0.42857143 6:0.375 7:0.5 8:0.46666667 9:0.14285714 10:0.125 11:0.5 13:0.44444444 14:0.090909091 15:0.14285714 16:0.28571429 18:0.16666667 19:0.14285714 20:0.83333333 22:0.625 23:0.33333333 26:0.33333333 28:0.16666667 33:0.5 34:0.25 37:0.25 38:0.16666667 39:0.25 41:0.4 43:0.2 48:0.25 49:0.2 50:0.33333333 55:0.25 58:0.33333333 59:0.8 60:0.25 64:0.25 65:0.4 67:0.5 71:0.66666667 76:0.55555556 77:1 86:1 89:1 90:1 91:1 93:1 94:1 104:1 
-256 1:0.28947959 2:0.52907332 3:0.61370245 4:0.39169971 5:0.57142857 6:0.375 7:0.28571429 8:0.53333333 9:0.28571429 10:0.5 11:0.16666667 13:0.33333333 15:0.28571429 16:0.42857143 17:0.33333333 20:0.33333333 21:0.2 22:0.5 24:0.33333333 25:0.33333333 28:0.16666667 29:0.33333333 31:0.33333333 34:0.25 38:0.33333333 39:0.25 41:0.2 44:0.25 45:0.25 48:0.25 49:0.4 51:0.25 52:0.2 59:0.2 61:0.5 64:0.25 66:0.4 67:0.25 72:0.33333333 73:0.25 75:0.2 76:0.38888889 79:1 86:1 92:1 94:1 98:1 
256 1:0.26651318 2:0.62408947 3:0.62300177 4:0.65672183 5:0.5 6:0.5 7:0.5 8:0.26666667 9:0.42857143 10:0.375 11:0.16666667 13:0.22222222 14:0.18181818 15:0.42857143 16:0.28571429 17:0.33333333 18:0.33333333 19:0.28571429 20:0.16666667 22:0.25 23:0.16666667 24:0.11111111 26:0.33333333 28:0.16666667 29:0.16666667 34:0.25 37:0.25 38:0.16666667 41:0.2 42:0.11111111 43:0.2 44:0.25 45:0.25 46:0.2 47:0.33333333 49:0.2 50:0.33333333 52:0.4 55:0.5 57:0.25 61:0.5 66:0.4 68:0.33333333 73:0.25 76:0.66666667 78:1 80:1 88:1 90:1 91:1 93:1 99:1 
196.7226516029828 1:0.26651318 2:0.90391613 3:0.35681947 4:0.50430182 5:0.5 6:0.375 7:0.42857143 8:0.46666667 9:0.42857143 10:0.25 12:0.4 13:0.33333333 15:0.28571429 16:0.28571429 18:0.33333333 19:0.42857143 20:0.16666667 21:0.2 22:0.5 23:0.16666667 24:0.11111111 25:0.33333333 28:0.16666667 30:0.25 35:0.66666667 37:0.25 38:0.16666667 40:0.25 41:0.2 44:0.25 46:0.2 47:0.33333333 50:0.33333333 57:0.5 64:0.25 65:0.4 71:0.33333333 73:0.25 76:0.5 81:1 88:1 89:1 93:1 94:1 98:1 99:1 105:1 
-256 1:0.26651318 2:0.60015738 3:0.55697137 4:0.4705076 5:0.85714286 6:0.5 7:0.28571429 8:0.13333333 9:0.57142857 10:0.875 11:0.16666667 13:0.66666667 14:0.090909091 15:0.28571429 17:0.33333333 19:0.14285714 20:0.16666667 22:0.25 25:0.66666667 26:0.33333333 28:0.5 29:0.16666667 30:0.5 37:0.75 38:0.5 41:0.6 45:0.25 48:0.25 52:0.4 56:0.33333333 59:0.2 65:0.4 76:0.5 99:1 100:1 
-256 1:0.26651318 2:0.46029006 3:0.6443844 4:0.50821432 5:0.57142857 6:0.5625 7:0.21428571 8:0.4 9:0.28571429 10:0.5 11:0.16666667 12:0.2 13:0.33333333 14:0.27272727 15:0.14285714 16:0.57142857 17:0.33333333 19:0.14285714 21:0.2 22:0.5 26:0.33333333 28:0.16666667 29:0.16666667 30:0.25 31:0.33333333 37:0.25 38:0.33333333 41:0.4 42:0.11111111 44:0.5 45:0.25 49:0.6 52:0.2 54:0.33333333 56:0.33333333 65:0.6 67:0.25 76:0.5 82:1 83:1 103:1 
-256 1:0.26651318 2:0.35776438 3:0.53701896 4:0.38643427 5:0.64285714 6:0.5625 7:0.14285714 8:0.4 9:0.57142857 10:0.5 11:0.16666667 13:0.44444444 14:0.18181818 15:0.14285714 16:0.42857143 20:0.33333333 21:0.2 22:0.5 24:0.11111111 25:0.66666667 26:0.33333333 28:0.16666667 29:0.33333333 31:0.33333333 34:0.25 37:0.5 38:0.33333333 41:0.4 42:0.11111111 43:0.2 48:0.25 49:0.4 59:0.2 61:0.5 62:0.5 64:0.25 65:0.2 67:0.25 73:0.25 76:0.44444444 78:1 80:1 81:1 95:1 98:1 99:1 105:1 
256 1:0.26651318 2:0.32223058 3:0.63561719 4:0.42552511 5:0.85714286 6:0.5625 7:0.14285714 8:0.2 9:0.71428571 10:0.625 11:0.16666667 12:0.2 13:0.77777778 14:0.18181818 15:0.14285714 16:0.14285714 18:0.16666667 22:0.375 25:0.66666667 28:0.5 29:0.16666667 30:0.25 35:0.33333333 37:0.5 38:0.5 39:0.25 40:0.25 41:0.6 42:0.11111111 46:0.2 49:0.2 64:0.25 65:0.4 76:0.44444444 92:1 97:1 100:1 
244.3562500864277 1:0.41962372 2:0.33268465 3:0.61552358 4:0.44806018 5:0.64285714 6:0.375 7:0.35714286 8:0.4 9:0.14285714 10:0.625 11:0.33333333 12:0.2 13:0.55555556 14:0.090909091 15:0.28571429 17:0.33333333 20:0.5 22:0.25 23:0.16666667 24:0.22222222 26:0.33333333 28:0.5 29:0.33333333 32:0.25 34:0.25 35:0.33333333 37:0.25 38:0.5 40:0.25 41:0.2 42:0.11111111 43:0.2 48:0.5 52:0.2 53:0.25 60:0.25 61:1 64:0.25 66:0.2 68:0.33333333 73:0.25 76:0.44444444 77:1 81:1 83:1 88:1 98:1 
256 1:0.41962372 2:0.56030682 3:0.69503483 4:0.52583882 5:0.5 6:0.5 7:0.28571429 8:0.46666667 9:0.28571429 10:0.375 11:0.33333333 13:0.22222222 14:0.18181818 15:0.28571429 16:0.42857143 17:0.5 20:0.16666667 22:0.625 24:0.22222222 25:0.33333333 26:0.33333333 28:0.16666667 29:0.33333333 32:0.5 37:0.25 38:0.16666667 41:0.2 43:0.4 44:0.25 45:0.25 48:0.25 49:0.2 51:0.25 52:0.2 53:0.25 59:0.2 65:0.4 67:0.5 73:0.5 76:0.5 82:1 88:1 94:1 98:1 99:1 105:1 
-256 1:0.41962372 2:0.35784207 3:0.16910392 4:0.21072503 5:0.71428571 6:0.25 7:0.28571429 8:0.53333333 9:0.28571429 10:0.25 11:0.5 12:0.6 13:0.33333333 16:0.42857143 17:0.16666667 18:0.16666667 20:0.16666667 21:0.8 22:0.375 23:0.16666667 25:0.33333333 26:0.33333333 28:0.16666667 29:0.16666667 32:0.25 34:0.25 35:0.66666667 37:0.5 38:0.16666667 41:0.2 44:0.25 54:0.33333333 63:1 64:0.25 65:0.2 67:0.25 69:0.33333333 76:0.27777778 81:1 88:1 90:1 92:1 94:1 
176.2592791480238 1:0.41962372 2:0.49748992 3:0.42509053 4:0.54918385 5:0.42857143 6:0.4375 7:0.5 8:0.4 9:0.14285714 10:0.125 11:0.33333333 12:0.4 13:0.55555556 14:0.090909091 16:0.42857143 18:0.33333333 19:0.42857143 20:0.16666667 22:0.625 23:0.16666667 26:0.33333333 28:0.16666667 33:0.5 35:0.33333333 37:0.25 38:0.16666667 39:0.25 40:0.5 41:0.4 44:0.25 49:0.6 58:0.33333333 59:0.2 64:0.25 65:0.6 67:0.25 70:0.25 76:0.61111111 92:1 
201.7466811621763 1:0.38120216 2:0.40113129 3:0.3836975 4:0.33422705 5:0.85714286 6:0.4375 7:0.21428571 8:0.26666667 9:0.28571429 10:0.875 12:0.4 13:0.88888889 14:0.090909091 17:0.16666667 19:0.14285714 20:0.16666667 22:0.125 23:0.33333333 24:0.11111111 25:0.66666667 28:0.83333333 29:0.33333333 36:0.33333333 37:0.5 38:0.66666667 40:0.25 41:0.6 52:0.2 58:0.33333333 59:0.2 65:0.2 68:0.33333333 70:0.25 74:0.33333333 76:0.38888889 77:1 80:1 88:1 91:1 92:1 104:1 
-256 1:0.38120216 2:0.60500311 3:0.59203639 4:0.60403691 5:0.57142857 6:0.5625 7:0.42857143 8:0.2 9:0.14285714 10:0.75 12:0.2 13:0.55555556 14:0.18181818 15:0.42857143 16:0.14285714 17:0.33333333 18:0.16666667 19:0.14285714 20:0.16666667 22:0.25 23:0.16666667 25:0.33333333 28:0.16666667 29:0.16666667 30:0.75 31:0.33333333 35:0.33333333 37:0.25 38:0.5 40:0.25 41:0.6 42:0.11111111 45:0.5 50:0.33333333 52:0.4 55:0.25 58:0.33333333 59:0.2 64:0.25 65:0.2 69:0.33333333 76:0.66666667 82:1 83:1 90:1 
256 1:0.38120216 2:0.40113129 3:0.61358266 4:0.48212595 5:0.5 6:0.25 7:0.64285714 8:0.4 9:0.14285714 10:0.5 11:0.16666667 13:0.44444444 15:0.28571429 17:0.16666667 19:0.42857143 20:0.83333333 21:0.2 22:0.125 23:0.5 24:0.11111111 25:0.33333333 28:0.33333333 29:0.16666667 30:0.25 34:0.25 37:0.25 38:0.33333333 39:0.25 41:0.2 43:0.2 48:0.5 52:0.2 56:0.33333333 57:0.25 58:0.33333333 59:0.2 60:0.5 61:0.5 65:0.2 70:0.5 71:0.33333333 74:0.33333333 76:0.55555556 78:1 79:1 89:1 94:1 98:1 102:1 
-256 1:0.38120216 2:0.51777187 3:0.21840861 4:0.4808053 5:0.64285714 6:0.4375 7:0.28571429 8:0.4 9:0.42857143 10:0.375 11:0.16666667 12:0.4 13:0.44444444 15:0.28571429 16:0.42857143 18:0.5 20:0.16666667 21:0.2 22:0.375 23:0.16666667 25:0.66666667 26:0.33333333 28:0.16666667 29:0.16666667 31:0.33333333 34:0.25 35:0.66666667 37:0.75 38:0.16666667 41:0.2 43:0.2 46:0.4 50:0.33333333 55:0.25 59:0.2 64:0.25 66:0.2 67:0.25 69:0.33333333 76:0.44444444 77:1 80:1 92:1 
-256 1:0.22243322 2:0.35791462 3:0.41846411 4:0.34185939 5:0.71428571 6:0.625 8:0.4 9:0.42857143 10:0.5 12:0.4 13:0.66666667 14:0.27272727 16:0.42857143 21:0.2 22:0.5 24:0.11111111 25:0.66666667 27:0.5 28:0.5 31:0.33333333 35:0.33333333 37:0.5 38:0.33333333 40:0.25 41:0.4 42:0.11111111 44:0.5 49:0.4 62:0.5 64:0.25 65:0.6 73:0.25 76:0.38888889 78:1 82:1 83:1 88:1 104:1 
-256 1:0.22243322 2:0.7208245 3:0.19591328 4:0.37605357 5:0.64285714 6:0.375 7:0.28571429 8:0.46666667 9:0.14285714 10:0.25 11:0.33333333 12:0.6 13:0.44444444 14:0.18181818 15:0.14285714 16:0.14285714 17:0.16666667 18:0.16666667 20:0.33333333 21:0.4 22:0.375 23:0.16666667 24:0.11111111 27:0.5 28:0.16666667 31:0.33333333 34:0.5 35:0.33333333 37:0.25 38:0.33333333 40:0.25 41:0.6 42:0.11111111 46:0.2 50:0.33333333 54:0.33333333 55:0.25 59:0.2 61:0.5 63:0.5 65:0.4 66:0.2 68:0.33333333 73:0.25 76:0.38888889 77:1 82:1 93:1 95:1 98:1 
209.3041561324715 1:0.40571692 2:0.63132187 3:0.6443844 4:0.55606391 5:0.64285714 6:0.6875 7:0.21428571 8:0.2 9:0.14285714 10:0.75 11:0.33333333 13:0.55555556 14:0.36363636 15:0.14285714 16:0.28571429 17:0.33333333 18:0.16666667 21:0.2 22:0.25 25:0.33333333 28:0.33333333 29:0.5 30:0.25 32:0.5 37:0.25 38:0.5 39:0.25 41:0.6 42:0.11111111 44:0.25 46:0.2 49:0.2 52:0.2 53:0.25 55:0.25 65:0.2 67:0.25 76:0.61111111 82:1 87:1 92:1 99:1 103:1 
-256 1:0.40571692 2:0.5281612 3:0.32392033 4:0.513083 5:0.21428571 6:0.375 7:0.42857143 8:0.73333333 10:0.125 11:0.33333333 13:0.22222222 14:0.18181818 15:0.28571429 16:0.14285714 17:0.16666667 18:0.16666667 20:0.66666667 22:0.5 23:0.33333333 24:0.55555556 28:0.16666667 32:0.25 34:0.25 38:0.16666667 39:0.25 41:0.2 42:0.22222222 43:0.2 48:0.5 53:0.25 55:0.25 59:0.6 61:0.5 65:0.2 66:0.2 67:0.25 69:0.33333333 71:0.33333333 73:0.25 74:0.33333333 75:0.6 76:0.5 83:1 87:1 98:1 99:1 102:1 105:1 
-81.07978464326969 1:0.40571692 2:0.14815188 3:0.30343437 4:0.32058376 5:0.85714286 6:0.4375 7:0.14285714 8:0.33333333 9:0.71428571 10:0.5 11:0.16666667 12:0.4 13:0.33333333 14:0.27272727 15:0.14285714 16:0.14285714 17:0.16666667 18:0.16666667 21:0.4 22:0.125 24:0.22222222 25:0.66666667 27:0.5 28:0.16666667 29:0.33333333 31:0.33333333 32:0.25 36:0.33333333 37:0.25 38:0.16666667 39:0.25 41:0.4 42:0.22222222 43:0.2 46:0.2 52:0.2 62:0.5 65:0.2 73:0.25 75:0.2 76:0.33333333 77:1 79:1 81:1 83:1 87:1 90:1 92:1 97:1 99:1 
-256 1:0.40571692 2:0.60347191 3:0.52505164 4:0.54212836 5:0.35714286 6:0.625 7:0.21428571 8:0.53333333 10:0.25 11:0.16666667 12:0.4 13:0.44444444 14:0.45454545 15:0.14285714 16:0.14285714 17:0.16666667 18:0.16666667 20:0.16666667 22:0.5 23:0.16666667 24:0.33333333 28:0.16666667 29:0.16666667 32:0.25 35:0.33333333 36:0.33333333 38:0.33333333 39:0.25 40:0.25 41:0.4 42:0.44444444 46:0.2 54:0.33333333 59:0.2 64:0.25 65:0.4 66:0.2 71:0.33333333 73:0.25 74:0.33333333 75:0.2 76:0.55555556 81:1 87:1 89:1 90:1 91:1 95:1 99:1 103:1 
158.7285995629252 1:0.6254754 2:0.51220734 3:0.67433756 4:0.54938149 5:0.57142857 6:0.625 7:0.28571429 8:0.26666667 9:0.14285714 10:0.625 11:0.33333333 13:0.55555556 14:0.27272727 15:0.14285714 16:0.28571429 18:0.16666667 19:0.14285714 20:0.33333333 21:0.2 22:0.375 26:0.33333333 28:0.33333333 29:0.16666667 30:0.25 33:0.5 34:0.25 38:0.66666667 39:0.25 41:0.6 44:0.5 47:0.33333333 49:0.2 55:0.25 58:0.33333333 59:0.4 65:0.6 76:0.61111111 77:1 79:1 87:1 91:1 92:1 99:1 101:1 
256 1:0.36052166 2:0.37111068 3:0.53701896 4:0.41927421 5:0.64285714 6:0.4375 7:0.35714286 8:0.33333333 9:0.14285714 10:0.5 11:0.33333333 12:0.2 13:0.55555556 14:0.18181818 16:0.28571429 17:0.33333333 19:0.14285714 20:0.33333333 21:0.2 22:0.25 23:0.33333333 27:0.5 28:0.33333333 29:0.33333333 32:0.25 34:0.25 37:0.25 38:0.33333333 39:0.25 41:0.6 42:0.11111111 49:0.4 52:0.2 53:0.25 56:0.33333333 60:0.25 65:0.2 67:0.25 70:0.25 71:0.33333333 76:0.5 78:1 80:1 87:1 91:1 94:1 104:1 
256 1:0.36052166 2:0.65958401 3:0.37999556 4:0.51126871 5:0.42857143 6:0.625 7:0.21428571 8:0.46666667 10:0.375 11:0.16666667 12:0.2 13:0.55555556 14:0.18181818 15:0.28571429 16:0.42857143 20:0.5 21:0.2 22:0.75 28:0.16666667 31:0.66666667 34:0.25 35:0.33333333 38:0.33333333 39:0.25 40:0.25 41:0.4 42:0.22222222 48:0.5 49:0.4 59:0.6 64:0.25 65:0.4 66:0.4 67:0.25 76:0.55555556 78:1 79:1 87:1 97:1 104:1 
256 1:0.33744283 2:0.57884798 3:0.480906 4:0.44148674 5:0.85714286 6:0.5625 7:0.21428571 8:0.13333333 9:0.28571429 10:1 11:0.16666667 13:1 14:0.18181818 18:0.16666667 19:0.14285714 20:0.16666667 23:0.16666667 24:0.11111111 25:0.66666667 28:1 29:0.33333333 37:0.25 38:1 39:0.25 41:0.6 42:0.11111111 55:0.25 58:0.33333333 61:0.5 69:0.33333333 74:0.33333333 76:0.5 77:1 79:1 89:1 92:1 104:1 
256 1:0.57477884 2:0.49482365 3:0.480906 4:0.56555778 5:0.64285714 6:0.625 7:0.28571429 8:0.2 10:0.875 11:0.16666667 12:0.2 13:0.55555556 14:0.27272727 15:0.28571429 16:0.14285714 17:0.66666667 22:0.25 23:0.16666667 28:0.33333333 29:0.66666667 30:0.25 32:0.25 35:0.33333333 38:0.66666667 40:0.25 41:0.6 44:0.25 45:0.5 50:0.33333333 52:0.6 53:0.25 65:0.2 66:0.2 68:0.33333333 76:0.61111111 88:1 90:1 99:1 
-256 1:0.57477884 2:0.32582187 3:0.36591927 4:0.47770931 5:0.5 6:0.3125 7:0.5 8:0.46666667 9:0.28571429 10:0.375 11:0.16666667 13:0.22222222 14:0.090909091 15:0.28571429 16:0.28571429 17:0.33333333 19:0.28571429 20:0.5 21:0.2 22:0.25 23:0.33333333 24:0.22222222 26:0.33333333 28:0.16666667 30:0.25 31:0.33333333 38:0.33333333 41:0.2 42:0.11111111 43:0.2 45:0.5 50:0.33333333 52:0.2 58:0.66666667 59:0.2 60:0.25 61:0.5 62:0.5 65:0.4 70:0.25 71:0.33333333 73:0.25 75:0.2 76:0.5 78:1 80:1 88:1 93:1 94:1 97:1 
256 1:0.57477884 2:0.68091402 3:0.59203639 4:0.56799048 5:0.64285714 6:0.5625 7:0.28571429 8:0.26666667 9:0.14285714 10:0.625 11:0.16666667 12:0.4 13:0.44444444 14:0.27272727 15:0.42857143 16:0.14285714 17:0.33333333 18:0.16666667 20:0.16666667 21:0.2 22:0.25 27:0.5 28:0.33333333 29:0.33333333 30:0.25 33:0.5 35:0.33333333 38:0.33333333 39:0.25 40:0.25 41:0.2 42:0.22222222 43:0.2 44:0.25 45:0.5 48:0.25 52:0.4 59:0.2 64:0.25 65:0.2 76:0.55555556 77:1 79:1 82:1 91:1 92:1 97:1 
-256 1:0.57477884 2:0.79452845 3:0.78816598 4:0.97027737 5:0.28571429 6:0.5625 7:0.85714286 8:0.066666667 10:0.375 11:0.16666667 13:0.33333333 14:0.27272727 15:0.71428571 17:0.16666667 18:0.5 19:0.85714286 20:0.16666667 22:0.125 28:0.16666667 29:0.16666667 30:0.25 33:0.5 38:0.5 41:0.2 42:0.11111111 43:0.6 45:0.25 47:1 48:0.25 53:0.25 55:0.5 57:0.75 59:0.2 66:0.2 76:1 78:1 89:1 92:1 94:1 
-256 1:0.57477884 2:0.71746918 3:0.58784235 4:0.80046507 5:0.28571429 6:0.75 7:0.42857143 8:0.26666667 10:0.5 13:0.22222222 14:0.63636364 15:0.28571429 16:0.28571429 17:0.33333333 19:0.42857143 20:0.16666667 22:0.375 23:0.16666667 28:0.16666667 29:0.33333333 30:0.25 38:0.33333333 41:0.2 42:0.55555556 44:0.5 45:0.25 48:0.25 49:0.2 50:0.33333333 52:0.4 56:0.33333333 57:0.5 59:0.2 65:0.4 66:0.2 70:0.25 76:0.83333333 89:1 91:1 92:1 94:1 97:1 99:1 100:1 
-67.38986896800789 1:0.47323578 2:0.5342615 3:0.480906 4:0.58531372 5:0.35714286 6:0.6875 7:0.28571429 8:0.4 10:0.375 11:0.33333333 13:0.55555556 14:0.45454545 16:0.28571429 18:0.33333333 20:0.33333333 22:0.375 23:0.16666667 24:0.22222222 28:0.33333333 29:0.16666667 33:1 38:0.5 39:0.5 41:0.6 42:0.33333333 44:0.25 50:0.33333333 55:0.25 59:0.2 61:0.5 65:0.4 71:0.33333333 73:0.5 76:0.66666667 80:1 83:1 88:1 90:1 92:1 96:1 98:1 99:1 105:1 
256 1:0.47323578 2:0.62159494 3:0.358556 4:0.41680182 5:0.5 6:0.625 7:0.071428571 8:0.53333333 9:0.28571429 10:0.625 13:0.33333333 14:0.27272727 15:0.14285714 16:0.57142857 18:0.16666667 21:0.4 22:0.375 24:0.33333333 25:0.33333333 28:0.16666667 29:0.5 31:0.33333333 38:0.5 41:0.2 43:0.2 44:0.5 46:0.2 49:0.6 62:0.5 65:0.4 67:0.25 72:0.33333333 75:0.4 76:0.44444444 79:1 81:1 99:1 
256 1:0.47323578 2:0.62539102 3:0.47790352 4:0.62570509 5:0.57142857 6:0.6875 7:0.28571429 8:0.2 9:0.28571429 10:0.5 11:0.33333333 13:0.33333333 14:0.63636364 15:0.14285714 16:0.28571429 17:0.33333333 18:0.16666667 21:0.2 22:0.125 23:0.16666667 26:0.66666667 28:0.16666667 29:0.33333333 31:0.33333333 32:0.25 33:0.5 38:0.5 41:0.4 42:0.55555556 43:0.2 44:0.25 45:0.25 49:0.2 50:0.33333333 51:0.25 52:0.2 55:0.25 62:0.5 65:0.2 76:0.66666667 79:1 81:1 92:1 95:1 97:1 98:1 101:1 
256 1:0.47323578 2:0.42856535 3:0.23619655 4:0.46335122 5:0.64285714 6:0.6875 7:0.071428571 8:0.33333333 10:1 13:0.66666667 14:0.27272727 15:0.14285714 16:0.42857143 17:0.16666667 21:0.2 22:0.25 24:0.22222222 28:0.5 29:0.33333333 30:0.25 31:0.66666667 38:0.83333333 41:0.6 42:0.11111111 44:0.25 45:0.25 52:0.2 65:0.4 73:0.5 76:0.5 77:1 92:1 95:1 104:1 
188.0705027243917 1:0.36052166 2:0.51599126 3:0.42141644 4:0.41903552 5:0.57142857 6:0.5625 7:0.14285714 8:0.46666667 10:0.75 12:0.2 13:0.66666667 14:0.090909091 15:0.14285714 16:0.42857143 18:0.16666667 20:0.16666667 21:0.2 22:0.375 23:0.16666667 24:0.22222222 28:0.5 30:0.25 31:0.66666667 35:0.33333333 38:0.66666667 40:0.25 41:0.6 48:0.25 50:0.33333333 55:0.25 61:0.5 65:0.4 67:0.25 69:0.33333333 73:0.5 76:0.44444444 77:1 82:1 88:1 89:1 90:1 104:1 
-256 1:0.36052166 2:0.8150714 3:0.63561719 4:0.54740603 5:0.42857143 6:0.625 7:0.21428571 8:0.46666667 10:0.5 11:0.16666667 12:0.2 13:0.55555556 14:0.27272727 15:0.14285714 16:0.28571429 18:0.5 22:0.25 23:0.16666667 24:0.44444444 28:0.16666667 29:0.33333333 31:0.33333333 33:0.5 36:0.33333333 38:0.66666667 39:0.25 41:0.4 43:0.2 44:0.25 46:0.2 49:0.2 55:0.5 64:0.25 65:0.2 69:0.33333333 73:0.25 74:0.33333333 75:0.4 76:0.55555556 77:1 80:1 82:1 89:1 91:1 92:1 99:1 
-256 1:0.35835747 2:0.3405565 3:0.80673839 4:0.54849551 5:0.64285714 6:0.4375 7:0.5 8:0.2 9:0.28571429 10:0.375 11:0.5 12:0.2 13:0.55555556 14:0.18181818 15:0.14285714 16:0.14285714 17:0.33333333 18:0.16666667 19:0.28571429 20:0.16666667 22:0.25 23:0.16666667 25:0.33333333 28:0.5 32:0.25 33:0.5 37:0.25 38:0.16666667 39:0.5 40:0.25 41:0.4 42:0.11111111 44:0.25 48:0.25 49:0.2 52:0.2 53:0.25 56:0.33333333 59:0.2 65:0.4 70:0.25 76:0.61111111 78:1 82:1 83:1 94:1 
256 1:0.35835747 2:0.42856535 3:0.44123508 4:0.51161899 5:0.57142857 6:0.5 7:0.35714286 8:0.33333333 9:0.28571429 10:0.5 11:0.16666667 12:0.2 13:0.44444444 14:0.36363636 15:0.14285714 16:0.14285714 17:0.16666667 19:0.14285714 20:0.33333333 22:0.25 23:0.33333333 24:0.11111111 25:0.33333333 26:0.33333333 28:0.16666667 29:0.33333333 31:0.33333333 32:0.25 37:0.25 38:0.33333333 40:0.25 41:0.4 42:0.33333333 43:0.2 48:0.25 49:0.2 51:0.25 58:0.33333333 60:0.25 61:0.5 64:0.25 65:0.2 70:0.25 73:0.25 76:0.55555556 77:1 83:1 98:1 100:1 
256 1:0.38451562 2:0.57264782 3:0.64755591 4:0.53321018 5:0.57142857 6:0.5 7:0.28571429 8:0.4 9:0.28571429 10:0.625 12:0.2 13:0.44444444 15:0.57142857 16:0.28571429 17:0.16666667 18:0.16666667 20:0.33333333 21:0.2 22:0.5 25:0.66666667 28:0.16666667 29:0.33333333 30:0.25 31:0.33333333 35:0.33333333 37:0.25 38:0.33333333 40:0.25 41:0.4 45:0.25 46:0.2 48:0.5 52:0.2 59:0.4 62:0.5 64:0.25 66:0.6 76:0.5 88:1 
256 1:0.38451562 2:0.59497616 3:0.51111903 4:0.47533387 5:0.78571429 6:0.5 7:0.28571429 8:0.2 9:0.42857143 10:0.625 11:0.16666667 12:0.4 13:0.66666667 14:0.18181818 15:0.28571429 17:0.16666667 18:0.16666667 20:0.16666667 22:0.25 23:0.16666667 25:0.66666667 28:0.33333333 29:0.5 33:0.5 35:0.66666667 37:0.25 38:0.33333333 39:0.25 40:0.5 41:0.6 43:0.2 45:0.25 48:0.25 51:0.25 60:0.25 64:0.25 65:0.2 76:0.5 77:1 81:1 88:1 92:1 98:1 103:1 
256 1:0.38451562 2:0.39362024 3:0.55606605 4:0.34560451 5:0.42857143 6:0.5 7:0.14285714 8:0.66666667 10:0.375 12:0.6 13:0.55555556 14:0.18181818 16:0.42857143 18:0.16666667 20:0.16666667 21:0.2 22:0.5 23:0.16666667 24:0.33333333 28:0.16666667 29:0.16666667 31:0.33333333 35:0.66666667 36:0.33333333 38:0.33333333 40:0.75 41:0.4 42:0.11111111 44:0.25 49:0.2 55:0.25 61:0.5 64:0.5 65:0.2 67:0.25 69:0.33333333 72:0.33333333 73:0.25 74:0.33333333 76:0.38888889 80:1 82:1 88:1 92:1 
-256 1:0.38451562 2:0.3440831 3:0.61370245 4:0.49851899 5:0.5 6:0.375 7:0.42857143 8:0.46666667 9:0.28571429 10:0.25 12:0.6 13:0.33333333 15:0.57142857 16:0.14285714 17:0.33333333 18:0.16666667 20:0.33333333 22:0.5 23:0.33333333 24:0.11111111 25:0.33333333 28:0.33333333 35:1 38:0.16666667 40:0.5 41:0.2 44:0.25 45:0.5 48:0.5 51:0.25 54:0.33333333 55:0.25 59:0.2 60:0.25 65:0.2 66:0.6 69:0.33333333 74:0.33333333 76:0.5 78:1 82:1 91:1 92:1 98:1 
256 1:0.38451562 2:0.48971789 3:0.56494924 4:0.45618351 5:0.64285714 6:0.375 7:0.35714286 8:0.4 9:0.28571429 10:0.25 11:0.5 12:0.4 13:0.33333333 15:0.28571429 16:0.28571429 17:0.5 18:0.16666667 20:0.16666667 21:0.2 22:0.625 25:0.33333333 28:0.16666667 29:0.16666667 32:0.25 33:0.5 34:0.25 35:0.66666667 38:0.16666667 39:0.25 40:0.25 41:0.4 45:0.5 49:0.4 53:0.5 54:0.33333333 59:0.2 62:0.5 65:0.2 66:0.4 67:0.5 76:0.44444444 79:1 81:1 89:1 92:1 94:1 99:1 
-256 1:0.38451562 2:0.41368468 3:0.33943843 4:0.47668303 5:0.78571429 6:0.3125 7:0.42857143 8:0.26666667 9:0.42857143 10:0.375 12:0.8 13:0.44444444 14:0.090909091 15:0.28571429 17:0.5 18:0.16666667 19:0.28571429 22:0.25 23:0.33333333 27:0.5 28:0.16666667 29:0.33333333 35:0.66666667 37:0.25 38:0.33333333 40:0.25 41:0.4 43:0.2 47:0.66666667 54:0.66666667 56:0.66666667 65:0.2 66:0.2 68:0.33333333 69:0.33333333 76:0.44444444 77:1 90:1 93:1 100:1 
-256 1:0.38451562 2:0.45691402 3:0.47440926 4:0.57881733 5:0.42857143 6:0.5625 7:0.28571429 8:0.46666667 10:0.375 12:0.4 13:0.33333333 14:0.27272727 15:0.42857143 16:0.28571429 17:0.5 19:0.14285714 22:0.5 24:0.33333333 28:0.16666667 29:0.16666667 31:0.33333333 35:0.33333333 36:0.33333333 38:0.33333333 40:0.25 41:0.4 42:0.11111111 43:0.4 45:0.5 47:0.33333333 49:0.2 52:0.2 54:0.33333333 56:0.33333333 65:0.4 66:0.2 67:0.25 73:0.5 75:0.2 76:0.55555556 78:1 90:1 97:1 
-232.1572236965435 1:0.38451562 2:0.47249893 3:0.49911361 4:0.47026045 5:0.5 6:0.625 7:0.071428571 8:0.53333333 9:0.14285714 10:0.375 12:0.4 13:0.55555556 14:0.36363636 15:0.14285714 16:0.28571429 17:0.16666667 22:0.625 24:0.33333333 27:0.5 28:0.33333333 30:0.25 35:0.66666667 38:0.5 40:0.25 41:0.4 42:0.33333333 44:0.25 45:0.25 49:0.4 51:0.25 64:0.25 65:0.6 67:0.25 73:0.25 75:0.4 76:0.44444444 80:1 82:1 90:1 91:1 95:1 97:1 101:1 104:1 
-177.3283517987727 1:0.22243322 2:0.92611442 3:0.86189425 4:0.78148631 5:0.21428571 6:0.4375 7:0.64285714 8:0.46666667 10:0.125 12:0.4 13:0.22222222 14:0.27272727 15:0.42857143 16:0.14285714 18:0.5 19:0.71428571 20:0.16666667 22:0.25 23:0.16666667 24:0.33333333 28:0.16666667 36:0.33333333 38:0.16666667 40:0.25 41:0.2 42:0.11111111 43:0.4 44:0.25 46:0.2 47:0.66666667 55:0.5 57:0.75 59:0.2 65:0.4 71:0.33333333 73:0.25 75:0.2 76:0.72222222 77:1 80:1 91:1 93:1 96:1 97:1 98:1 
-256 1:0.49750355 2:0.59977168 3:0.55631082 4:0.5884382 5:0.64285714 6:0.4375 7:0.5 8:0.2 9:0.14285714 10:0.625 11:0.33333333 12:0.2 13:0.33333333 14:0.18181818 15:0.42857143 16:0.14285714 17:0.66666667 18:0.16666667 19:0.14285714 20:0.16666667 21:0.2 23:0.16666667 26:0.33333333 28:0.16666667 29:0.33333333 30:0.5 32:0.5 38:0.5 41:0.2 42:0.11111111 43:0.2 44:0.25 45:0.5 48:0.25 51:0.25 52:0.2 53:0.25 54:0.33333333 55:0.25 70:0.25 76:0.61111111 78:1 79:1 89:1 92:1 97:1 
-256 1:0.49750355 2:0.79945869 3:0.5038825 4:0.85669017 5:0.28571429 6:0.8125 7:0.35714286 8:0.26666667 9:0.14285714 10:0.375 13:0.22222222 14:0.54545455 15:0.71428571 16:0.14285714 17:0.16666667 18:0.33333333 20:0.33333333 22:0.5 25:0.33333333 29:0.33333333 30:0.25 38:0.33333333 41:0.2 42:0.22222222 43:0.6 44:0.25 45:0.25 46:0.4 48:0.5 49:0.2 51:0.25 55:0.5 59:0.4 64:0.25 65:0.4 66:0.2 76:0.83333333 90:1 91:1 93:1 96:1 99:1 103:1 
256 1:0.63479026 2:0.49600295 3:0.3022842 4:0.39209393 5:0.42857143 6:0.25 7:0.35714286 8:0.73333333 9:0.14285714 10:0.25 11:0.16666667 12:0.4 13:0.22222222 14:0.090909091 15:0.28571429 16:0.14285714 17:0.5 20:0.33333333 22:0.375 23:0.33333333 24:0.55555556 25:0.33333333 30:0.25 31:0.33333333 34:0.25 36:0.33333333 38:0.16666667 40:0.25 41:0.4 42:0.11111111 45:0.5 51:0.25 53:0.25 54:0.33333333 59:0.2 60:0.25 65:0.4 66:0.2 68:0.33333333 71:0.33333333 73:0.5 75:0.4 76:0.33333333 80:1 82:1 83:1 90:1 93:1 98:1 
256 1:0.59952346 2:0.32927754 3:0.49110261 4:0.45153394 5:0.42857143 6:0.25 7:0.5 8:0.6 10:0.5 12:0.4 13:0.22222222 15:0.42857143 16:0.14285714 17:0.5 19:0.14285714 20:0.5 21:0.2 22:0.25 23:0.5 24:0.22222222 28:0.16666667 29:0.16666667 30:0.25 31:0.33333333 38:0.33333333 41:0.2 43:0.2 45:0.75 50:0.33333333 52:0.2 54:0.66666667 58:0.33333333 59:0.2 60:0.25 61:0.5 65:0.2 66:0.2 70:0.25 71:0.66666667 73:0.25 75:0.2 76:0.44444444 88:1 94:1 
256 1:0.59952346 2:0.37918917 3:0.22662396 4:0.42813123 5:0.57142857 6:0.5 7:0.28571429 8:0.4 10:0.625 12:0.6 13:0.44444444 15:0.42857143 16:0.28571429 17:0.33333333 18:0.16666667 20:0.16666667 21:0.4 22:0.375 23:0.16666667 28:0.16666667 29:0.16666667 30:0.5 35:0.66666667 38:0.5 40:0.25 41:0.2 43:0.2 45:0.5 46:0.2 50:0.33333333 52:0.4 55:0.25 59:0.2 64:0.25 67:0.5 71:0.33333333 76:0.5 78:1 79:1 88:1 90:1 99:1 
-256 1:0.59952346 2:0.73576856 3:0.57432306 4:0.83257885 5:0.64285714 6:0.4375 7:0.71428571 9:0.14285714 10:0.5 11:0.5 13:0.33333333 14:0.18181818 15:0.57142857 17:0.66666667 18:0.5 19:0.42857143 26:0.33333333 30:1 32:0.25 38:0.16666667 39:0.25 41:0.4 42:0.22222222 45:0.75 47:0.33333333 52:0.6 53:0.25 55:0.5 76:0.77777778 77:1 79:1 93:1 94:1 96:1 97:1 104:1 
256 1:0.59952346 2:0.68213654 3:0.40604948 4:0.51126871 5:0.57142857 6:0.4375 7:0.35714286 8:0.4 10:0.75 12:0.2 13:0.44444444 15:0.42857143 16:0.28571429 17:0.33333333 18:0.16666667 19:0.14285714 20:0.16666667 21:0.2 22:0.25 23:0.16666667 24:0.22222222 28:0.33333333 29:0.16666667 30:0.5 31:0.33333333 35:0.33333333 38:0.33333333 40:0.25 41:0.4 45:0.25 47:0.33333333 48:0.25 52:0.4 59:0.2 65:0.2 66:0.2 68:0.33333333 74:0.33333333 75:0.2 76:0.5 77:1 81:1 104:1 
-256 1:0.59952346 2:0.67936416 3:0.67433756 4:0.76309424 5:0.35714286 6:0.9375 7:0.14285714 8:0.26666667 9:0.14285714 10:0.5 13:0.33333333 14:0.72727273 15:0.28571429 16:0.42857143 17:0.16666667 18:0.16666667 22:0.5 25:0.33333333 29:0.33333333 30:0.5 37:0.25 38:0.33333333 41:0.4 42:0.44444444 44:0.75 45:0.25 46:0.2 49:0.6 52:0.2 55:0.25 64:0.25 65:0.6 76:0.77777778 81:1 95:1 99:1 101:1 
78.22558032494548 1:0.59952346 2:0.48789206 3:0.50033308 4:0.62536598 5:0.42857143 6:0.4375 7:0.57142857 8:0.33333333 10:0.5 11:0.33333333 13:0.22222222 14:0.18181818 15:0.28571429 16:0.28571429 17:0.5 19:0.42857143 20:0.33333333 21:0.2 22:0.375 23:0.16666667 29:0.33333333 30:0.25 31:0.33333333 38:0.16666667 39:0.25 41:0.4 43:0.2 44:0.25 45:0.25 48:0.25 49:0.2 52:0.4 53:0.25 56:0.33333333 57:0.25 58:0.33333333 59:0.2 60:0.25 65:0.4 68:0.33333333 76:0.66666667 93:1 94:1 98:1 99:1 100:1 105:1 
-256 1:0.45784823 2:0.49461923 3:0.48798757 4:0.41204386 5:0.78571429 6:0.3125 7:0.35714286 8:0.33333333 9:0.42857143 10:0.5 11:0.16666667 12:0.4 13:0.22222222 14:0.18181818 15:0.42857143 17:0.66666667 20:0.16666667 21:0.4 22:0.125 23:0.16666667 24:0.11111111 25:0.66666667 29:0.33333333 30:0.5 32:0.25 35:0.33333333 38:0.16666667 39:0.25 41:0.4 42:0.11111111 43:0.2 45:0.5 48:0.25 52:0.2 54:0.66666667 61:0.5 62:1 65:0.2 68:0.33333333 74:0.33333333 76:0.38888889 79:1 81:1 89:1 90:1 95:1 
-256 1:0.59405326 2:0.45341806 3:0.55697137 4:0.64110924 5:0.57142857 6:0.3125 7:0.71428571 8:0.2 10:0.5 11:0.33333333 12:0.2 13:0.44444444 15:0.42857143 17:0.66666667 18:0.16666667 19:0.42857143 20:0.33333333 22:0.125 23:0.33333333 28:0.33333333 30:0.5 32:0.5 38:0.33333333 40:0.25 41:0.4 47:0.66666667 48:0.25 52:0.4 53:0.5 55:0.25 56:0.33333333 58:0.33333333 59:0.2 60:0.25 65:0.2 68:0.33333333 70:0.25 76:0.66666667 78:1 87:1 93:1 94:1 96:1 104:1 
256 1:0.69372 2:0.64040891 3:0.78011255 4:0.79678085 5:0.42857143 6:0.3125 7:0.92857143 8:0.13333333 10:0.375 11:0.5 13:0.11111111 14:0.18181818 15:0.42857143 16:0.14285714 17:0.83333333 18:0.16666667 19:0.71428571 20:0.16666667 22:0.125 23:0.16666667 30:0.75 32:0.25 34:0.25 38:0.16666667 41:0.2 42:0.22222222 44:0.25 46:0.2 47:0.66666667 50:0.33333333 52:0.4 53:0.75 55:0.25 56:1 57:0.25 59:0.2 65:0.2 70:0.25 76:0.83333333 79:1 87:1 88:1 93:1 95:1 
-256 1:0.69372 2:0.87915353 3:0.7877595 4:1 5:0.14285714 6:0.875 7:0.5 8:0.2 10:0.25 13:0.11111111 14:0.90909091 15:0.42857143 16:0.28571429 17:0.16666667 18:0.33333333 19:0.42857143 20:0.16666667 22:0.25 29:0.16666667 30:0.25 38:0.16666667 41:0.2 42:1 43:0.2 44:0.25 46:0.2 47:0.33333333 48:0.25 49:0.2 52:0.2 55:0.5 56:0.33333333 57:0.25 59:0.2 66:0.2 67:0.25 76:1 81:1 83:1 87:1 91:1 93:1 94:1 95:1 103:1 
-256 1:0.79801804 2:0.68213654 3:0.5038825 4:0.87973518 5:0.28571429 6:0.3125 7:1 8:0.2 9:0.14285714 10:0.375 13:0.11111111 15:0.71428571 16:0.14285714 17:0.33333333 18:0.66666667 19:0.85714286 20:0.16666667 23:0.33333333 24:0.11111111 25:0.33333333 29:0.16666667 30:0.25 31:0.33333333 38:0.16666667 41:0.2 43:0.2 45:0.25 46:0.2 47:0.66666667 51:0.25 52:0.2 55:0.25 56:0.33333333 57:0.5 60:0.25 70:0.25 71:0.33333333 74:0.33333333 76:0.88888889 87:1 94:1 102:1 
256 1:0.55144178 2:0.42994667 3:0.59505313 4:0.62649978 5:0.35714286 6:0.8125 7:0.14285714 8:0.4 10:0.375 12:0.2 13:0.55555556 14:0.45454545 15:0.14285714 16:0.57142857 19:0.14285714 20:0.16666667 22:0.75 29:0.16666667 30:0.25 31:0.33333333 35:0.33333333 38:0.5 40:0.25 41:0.6 42:0.44444444 47:0.33333333 49:0.8 58:0.33333333 59:0.2 64:0.5 65:0.4 67:0.5 76:0.66666667 78:1 80:1 87:1 90:1 91:1 95:1 97:1 104:1 
-256 1:0.55144178 2:0.41105324 3:0.28178205 4:0.57992773 5:0.5 6:0.5 7:0.42857143 8:0.33333333 9:0.28571429 10:0.375 11:0.16666667 12:0.2 13:0.33333333 14:0.36363636 15:0.14285714 16:0.28571429 17:0.33333333 18:0.16666667 19:0.14285714 20:0.33333333 22:0.25 23:0.33333333 25:0.33333333 28:0.16666667 29:0.16666667 30:0.25 33:0.5 38:0.16666667 39:0.25 40:0.25 41:0.2 42:0.44444444 44:0.25 47:0.33333333 49:0.2 51:0.25 52:0.2 55:0.25 58:0.33333333 59:0.2 60:0.25 64:0.25 67:0.25 68:0.33333333 71:0.33333333 76:0.61111111 79:1 83:1 87:1 93:1 96:1 97:1 
-256 1:0.55144178 2:0.56449634 3:0.3431175 4:0.41805513 5:0.42857143 6:0.375 7:0.28571429 8:0.66666667 9:0.14285714 10:0.375 12:0.4 13:0.44444444 15:0.28571429 16:0.28571429 17:0.16666667 18:0.16666667 19:0.14285714 20:0.16666667 22:0.5 24:0.55555556 27:0.5 28:0.16666667 30:0.25 31:0.33333333 36:0.33333333 37:0.25 38:0.33333333 40:0.25 41:0.4 46:0.2 47:0.33333333 49:0.2 52:0.2 58:0.33333333 61:0.5 65:0.4 66:0.2 67:0.25 73:0.75 75:0.4 76:0.38888889 79:1 87:1 89:1 
-1.413445358540089 1:0.88257635 2:0.45277583 3:0.69503483 4:0.61884288 5:0.5 6:0.4375 7:0.5 8:0.33333333 9:0.14285714 10:0.375 11:0.16666667 12:0.2 13:0.44444444 14:0.18181818 15:0.42857143 17:0.16666667 18:0.33333333 20:0.66666667 22:0.25 23:0.5 26:0.33333333 28:0.16666667 29:0.16666667 30:0.25 34:0.25 38:0.5 41:0.6 43:0.2 45:0.25 46:0.2 48:0.25 54:0.33333333 55:0.25 59:0.4 60:0.5 65:0.4 69:0.33333333 71:0.66666667 76:0.61111111 77:1 79:1 88:1 89:1 90:1 92:1 103:1 104:1 
256 1:0.79801804 2:0.60186973 3:0.5038825 4:0.75233686 5:0.57142857 6:0.75 7:0.28571429 8:0.13333333 9:0.14285714 10:0.75 12:0.2 13:0.44444444 14:0.54545455 15:0.57142857 17:0.5 18:0.16666667 22:0.125 25:0.33333333 29:0.83333333 30:0.25 37:0.25 38:0.5 41:0.6 42:0.22222222 43:0.6 45:0.75 46:0.2 52:0.4 54:0.33333333 55:0.25 64:0.25 76:0.72222222 81:1 92:1 95:1 
141.6808507375449 1:0.79801804 2:0.44605938 3:0.58784235 4:0.5953743 5:0.28571429 6:0.4375 7:0.5 8:0.53333333 10:0.375 13:0.22222222 14:0.27272727 15:0.14285714 16:0.42857143 17:0.16666667 18:0.16666667 19:0.42857143 20:0.33333333 21:0.2 22:0.25 23:0.5 24:0.22222222 29:0.16666667 30:0.25 31:0.33333333 38:0.33333333 41:0.2 42:0.22222222 44:0.5 46:0.2 50:0.66666667 52:0.2 55:0.25 57:0.5 58:0.33333333 59:0.2 61:0.5 64:0.25 65:0.2 68:0.33333333 70:0.25 71:0.33333333 72:0.33333333 74:0.33333333 76:0.61111111 81:1 83:1 89:1 91:1 94:1 98:1 101:1 
256 1:0.38204341 2:0.69878904 3:0.24243179 4:0.5074642 5:0.5 6:0.3125 7:0.57142857 8:0.4 10:0.5 12:0.4 13:0.33333333 14:0.090909091 15:0.28571429 16:0.14285714 17:0.5 19:0.42857143 20:0.33333333 21:0.2 22:0.25 23:0.33333333 24:0.11111111 28:0.16666667 29:0.16666667 30:0.5 36:0.33333333 38:0.33333333 41:0.2 42:0.11111111 44:0.25 47:0.33333333 48:0.25 49:0.2 52:0.4 54:0.33333333 56:0.33333333 57:0.5 59:0.2 64:0.25 65:0.2 68:0.33333333 71:0.33333333 74:0.33333333 76:0.55555556 79:1 93:1 95:1 104:1 
-256 1:0.59952346 2:0.51599126 3:0.47077004 4:0.65025727 5:0.57142857 6:0.75 7:0.28571429 8:0.13333333 9:0.14285714 10:0.875 13:0.55555556 14:0.36363636 15:0.57142857 16:0.14285714 17:0.16666667 18:0.16666667 20:0.16666667 21:0.2 22:0.125 25:0.33333333 29:0.5 30:0.75 31:0.33333333 37:0.25 38:0.66666667 41:0.8 42:0.11111111 43:0.2 45:0.25 46:0.2 48:0.25 52:0.2 55:0.25 59:0.2 64:0.25 76:0.72222222 78:1 88:1 96:1 100:1 103:1 
256 1:0.59952346 2:0.60015738 3:0.7877595 4:0.61542322 5:0.42857143 6:0.4375 7:0.5 8:0.4 10:0.625 11:0.16666667 13:0.22222222 14:0.18181818 15:0.57142857 16:0.14285714 17:0.5 18:0.16666667 19:0.14285714 20:0.16666667 21:0.2 22:0.125 23:0.16666667 24:0.33333333 29:0.5 30:0.5 33:0.5 38:0.33333333 41:0.4 42:0.11111111 44:0.25 45:0.5 47:0.33333333 48:0.25 52:0.4 53:0.25 56:0.33333333 59:0.2 66:0.2 72:0.33333333 74:0.33333333 75:0.2 76:0.61111111 80:1 82:1 94:1 95:1 98:1 
256 1:0.59952346 2:0.80459953 3:0.69503483 4:0.85535558 5:0.28571429 6:0.6875 7:0.5 8:0.26666667 10:0.5 13:0.33333333 14:0.27272727 15:1 18:0.33333333 20:0.66666667 22:0.5 29:0.33333333 30:0.5 38:0.5 41:0.6 43:0.4 46:0.4 48:1 55:0.25 59:0.8 65:0.4 66:0.4 76:0.83333333 77:1 100:1 103:1 
-256 1:0.59952346 2:0.461233 3:0.5038825 4:0.69305418 5:0.42857143 6:0.5 7:0.57142857 8:0.26666667 10:0.25 11:0.5 13:0.33333333 14:0.27272727 15:0.28571429 16:0.28571429 17:0.33333333 18:0.16666667 19:0.42857143 20:0.33333333 21:0.2 22:0.375 29:0.16666667 30:0.25 34:0.25 38:0.33333333 39:0.25 41:0.4 42:0.11111111 43:0.2 44:0.25 47:0.33333333 48:0.25 49:0.2 53:0.25 55:0.25 56:0.66666667 59:0.4 63:0.5 65:0.4 67:0.25 76:0.72222222 78:1 79:1 90:1 95:1 101:1 
256 1:0.59952346 2:0.47579773 3:0.23619655 4:0.4274157 5:0.57142857 6:0.5 7:0.21428571 8:0.46666667 9:0.28571429 10:0.625 12:0.2 13:0.22222222 14:0.090909091 15:0.42857143 16:0.42857143 17:0.16666667 20:0.33333333 21:0.4 22:0.5 24:0.11111111 25:0.33333333 28:0.16666667 29:0.16666667 30:0.5 31:0.33333333 36:0.33333333 38:0.33333333 41:0.2 42:0.11111111 43:0.2 45:0.25 48:0.5 49:0.2 52:0.2 59:0.4 62:0.5 65:0.2 67:0.5 73:0.25 76:0.44444444 77:1 80:1 82:1 83:1 91:1 92:1 98:1 99:1 105:1 
-256 1:0.45434541 2:0.46501119 3:0.61358266 4:0.64122728 5:0.64285714 6:0.5625 7:0.42857143 8:0.13333333 10:0.875 11:0.33333333 13:0.44444444 14:0.27272727 15:0.57142857 17:0.5 18:0.16666667 20:0.16666667 21:0.2 24:0.11111111 28:0.16666667 29:0.5 30:0.75 32:0.5 38:0.5 39:0.25 41:0.6 42:0.11111111 43:0.2 45:0.25 46:0.2 48:0.25 52:0.6 55:0.25 61:0.5 63:0.5 72:0.33333333 76:0.66666667 77:1 88:1 92:1 100:1 103:1 
-256 1:0.45434541 2:0.45011911 3:0.67433756 4:0.5790016 5:0.35714286 6:0.4375 7:0.5 8:0.46666667 10:0.5 11:0.16666667 13:0.33333333 14:0.27272727 15:0.28571429 17:0.33333333 18:0.16666667 19:0.14285714 20:0.5 22:0.125 23:0.5 24:0.33333333 29:0.33333333 30:0.5 34:0.25 38:0.5 41:0.6 42:0.11111111 48:0.5 52:0.2 53:0.25 55:0.25 56:0.33333333 59:0.2 61:1 65:0.2 68:0.33333333 69:0.33333333 70:0.25 74:0.66666667 75:0.2 76:0.61111111 81:1 83:1 93:1 99:1 
-256 1:0.45434541 2:0.87279231 3:0.59203639 4:0.74354364 5:0.42857143 6:0.5 7:0.64285714 8:0.2 9:0.14285714 10:0.5 11:0.16666667 13:0.33333333 14:0.27272727 15:0.57142857 17:0.33333333 18:0.33333333 19:0.28571429 20:0.33333333 22:0.125 23:0.16666667 24:0.11111111 25:0.33333333 28:0.16666667 29:0.16666667 30:0.5 38:0.33333333 39:0.25 41:0.4 42:0.22222222 43:0.2 45:0.25 47:0.33333333 48:0.5 51:0.25 52:0.2 55:0.25 56:0.33333333 59:0.2 61:0.5 65:0.2 69:0.33333333 74:0.33333333 76:0.77777778 91:1 
43.37976259874213 1:0.45434541 2:0.29298019 3:0.73404041 4:0.39822493 5:0.5 6:0.4375 7:0.28571429 8:0.53333333 9:0.42857143 10:0.375 12:0.2 13:0.33333333 14:0.090909091 15:0.14285714 16:0.57142857 18:0.33333333 20:0.16666667 21:0.2 22:0.25 23:0.5 24:0.22222222 27:0.5 28:0.16666667 29:0.16666667 30:0.25 38:0.5 41:0.2 44:0.5 48:0.25 49:0.4 55:0.25 61:0.5 62:0.5 65:0.2 67:0.25 69:0.66666667 74:0.66666667 76:0.44444444 78:1 79:1 98:1 102:1 
9.014198670522111 1:0.45434541 2:0.40388169 3:0.72397299 4:0.52590763 5:0.21428571 6:0.4375 7:0.5 8:0.6 10:0.375 13:0.33333333 14:0.090909091 15:0.28571429 16:0.42857143 19:0.14285714 20:0.83333333 22:0.5 23:0.66666667 24:0.11111111 30:0.25 31:0.66666667 38:0.5 41:0.2 42:0.11111111 44:0.25 47:0.33333333 48:0.25 49:0.4 50:0.33333333 58:0.33333333 59:0.4 60:0.5 61:0.5 64:0.25 65:0.4 66:0.2 71:1 74:0.33333333 76:0.61111111 78:1 79:1 89:1 90:1 97:1 98:1 
-256 1:0.36076326 2:0.58195629 3:0.76078885 4:0.66853255 5:0.64285714 6:0.4375 7:0.57142857 8:0.13333333 9:0.28571429 10:0.5 11:0.33333333 12:0.2 13:0.44444444 14:0.18181818 15:0.42857143 17:0.5 18:0.5 19:0.14285714 20:0.16666667 23:0.16666667 25:0.33333333 26:0.33333333 28:0.16666667 29:0.33333333 30:0.25 32:0.25 37:0.25 38:0.5 41:0.4 42:0.11111111 43:0.2 45:0.25 46:0.2 48:0.25 51:0.25 53:0.25 54:0.33333333 55:0.25 69:0.33333333 76:0.66666667 79:1 91:1 97:1 
256 1:0.36076326 2:0.59169309 3:0.6443844 4:0.56660477 5:0.5 6:0.75 7:0.14285714 8:0.33333333 9:0.14285714 10:0.375 11:0.16666667 12:0.4 13:0.66666667 14:0.45454545 16:0.28571429 18:0.16666667 19:0.14285714 22:0.625 26:0.33333333 29:0.5 35:0.66666667 37:0.25 38:0.5 40:0.5 41:0.8 44:0.5 49:0.4 64:0.25 65:0.8 76:0.61111111 81:1 99:1 103:1 
256 1:0.36076326 2:0.53612351 3:0.69503483 4:0.58884049 5:0.5 6:0.8125 7:0.14285714 8:0.26666667 9:0.14285714 10:0.5 11:0.16666667 12:0.2 13:0.55555556 14:0.54545455 15:0.14285714 16:0.28571429 17:0.16666667 20:0.16666667 22:0.5 26:0.33333333 29:0.5 31:0.33333333 34:0.25 35:0.33333333 37:0.25 38:0.5 40:0.25 41:0.8 42:0.11111111 43:0.2 44:0.25 45:0.25 49:0.4 52:0.2 59:0.2 64:0.25 65:0.6 76:0.66666667 78:1 81:1 91:1 94:1 99:1 
256 1:0.36076326 2:0.50271682 3:0.60222828 4:0.48645966 5:0.85714286 6:0.5625 7:0.21428571 8:0.13333333 9:0.28571429 10:0.625 11:0.5 12:0.2 13:0.88888889 14:0.18181818 16:0.14285714 17:0.16666667 18:0.33333333 22:0.25 25:0.66666667 28:0.33333333 29:0.5 32:0.25 33:1 35:0.33333333 37:0.5 38:0.33333333 39:0.75 40:0.25 41:0.8 49:0.2 64:0.25 65:0.2 76:0.5 77:1 89:1 100:1 
-232.725948024206 1:0.36076326 2:0.57179253 3:0.6443844 4:0.56331152 5:0.57142857 6:0.625 7:0.21428571 8:0.33333333 9:0.28571429 10:0.5 12:0.2 13:0.44444444 14:0.36363636 15:0.42857143 16:0.14285714 17:0.33333333 20:0.16666667 22:0.375 24:0.22222222 25:0.33333333 29:0.33333333 30:0.5 35:0.33333333 37:0.5 38:0.33333333 41:0.8 42:0.11111111 44:0.25 45:0.5 48:0.25 49:0.2 52:0.2 54:0.33333333 61:0.5 65:0.6 73:0.25 75:0.2 76:0.55555556 78:1 81:1 97:1 103:1 
-2.254945114003972 1:0.36076326 2:0.69380889 3:0.46490125 4:0.45156261 5:0.5 6:0.5625 7:0.21428571 8:0.46666667 9:0.14285714 10:0.5 12:0.4 13:0.44444444 14:0.27272727 15:0.14285714 16:0.28571429 17:0.33333333 18:0.16666667 22:0.25 23:0.33333333 24:0.33333333 27:0.5 29:0.5 31:0.33333333 36:0.33333333 37:0.25 38:0.33333333 40:0.25 41:0.6 43:0.2 45:0.25 49:0.2 52:0.4 55:0.25 65:0.2 67:0.25 68:0.33333333 69:0.33333333 73:0.25 74:0.33333333 75:0.2 76:0.5 78:1 79:1 82:1 99:1 
256 1:0.51133292 2:0.48977351 3:0.61358266 4:0.6394396 5:0.71428571 6:0.625 7:0.35714286 8:0.066666667 9:0.14285714 10:0.75 11:0.33333333 13:0.44444444 14:0.45454545 15:0.28571429 16:0.14285714 17:0.83333333 22:0.125 26:0.33333333 28:0.16666667 29:0.66666667 31:0.33333333 32:0.5 38:0.5 39:0.25 41:0.6 42:0.22222222 43:0.4 45:0.5 49:0.2 51:0.25 52:0.6 65:0.2 76:0.66666667 79:1 88:1 89:1 91:1 92:1 97:1 103:1 
