svm_type epsilon_svr
kernel_type rbf
gamma 0.125
nr_class 2
total_sv 2713
rho -0.411084
SV
0.125 1:0.5438914 2:0.56467915 3:0.53701896 4:0.47596859 5:0.3 6:0.26315789 7:0.55555556 8:0.4375 9:0.30769231 11:0.33333333 13:0.14285714 14:0.076923077 15:0.22222222 16:0.28571429 19:0.36363636 20:0.625 22:0.625 23:0.33333333 25:0.33333333 34:0.4 42:0.33333333 45:0.125 46:0.16666667 49:0.16666667 50:0.16666667 52:0.16666667 53:0.33333333 63:0.6 64:0.66666667 65:0.2 69:0.25 70:0.16666667 71:0.16666667 72:0.5 74:0.25 75:0.25 79:0.47826087 80:1 85:1 88:1 90:1 95:1 98:1 102:1 109:1 111:1 125:1 133:0.051215724 134:0.058386412 135:0.45122686 136:0.72634948 137:0.71835953 138:0.68897214 139:0.76339804 140:0.65458758 141:0.71773918 142:0.64502522 143:0.42639976 144:0.74134889 145:0.79982407 146:0.59503809 147:0.64326603 148:0.45668838 149:0.39263507 150:0.48162902 151:0.32762551 152:0.38105911 153:0.39203805 154:0.36814383 155:0.31561843 156:0.65505906 157:0.7212465 158:0.82460516 159:0.85722827 160:0.67850765 161:0.79912026 162:0.75801258 163:0.5719584 164:0.79288525 165:0.85906749 166:0.6409523 167:0.78174284 168:0.62499615 169:0.66350672 170:0.70095562 171:0.58420273 172:0.55574536 173:0.51883021 174:0.58890074 175:0.51435526 
0.125 1:0.59505313 2:0.48252746 3:0.56389849 4:0.41061206 5:0.4 6:0.42105263 7:0.27777778 8:0.4375 9:0.23076923 10:0.5 11:0.16666667 13:0.14285714 14:0.076923077 15:0.22222222 16:0.57142857 17:0.375 19:0.090909091 20:0.125 22:0.5 23:0.16666667 24:0.2 25:0.22222222 29:0.2 31:0.75 32:0.25 41:0.2 44:0.2 46:0.16666667 48:0.16666667 50:0.16666667 52:0.33333333 54:0.66666667 55:0.5 60:0.2 64:0.16666667 70:0.16666667 71:0.16666667 72:0.25 74:0.25 76:0.2 77:0.25 79:0.39130435 80:1 85:1 87:1 88:1 90:1 92:1 95:1 103:1 106:1 108:1 112:1 114:1 115:1 118:1 121:1 124:1 128:1 133:0.59943173 134:0.021939137 135:0.12493299 136:0.52592416 137:0.59193849 138:0.4679795 139:0.50289873 140:0.47928661 141:0.67291685 142:0.66914685 143:0.54151801 144:0.56370952 145:0.64711942 146:0.41761262 147:0.62212667 148:0.36372477 149:0.52313322 150:0.50094663 151:0.57055431 152:0.44500564 153:0.48410938 154:0.54736587 155:0.46228296 156:0.63275517 157:0.65321917 158:0.60802142 159:0.64686013 160:0.67168859 161:0.80271757 162:0.78651964 163:0.71323464 164:0.71785231 165:0.78580925 166:0.56162055 167:0.6493748 168:0.51530189 169:0.63603526 170:0.56432337 171:0.64793328 172:0.62486978 173:0.73850512 174:0.71881566 175:0.55801076 
-0.11073298311156 1:0.53701896 2:0.53620357 3:0.50033308 4:0.4939864 5:0.25 6:0.26315789 7:0.55555556 8:0.5 9:0.23076923 11:0.33333333 13:0.14285714 14:0.076923077 15:0.22222222 16:0.28571429 19:0.36363636 20:0.75 22:0.625 23:0.33333333 25:0.22222222 34:0.4 42:0.33333333 45:0.125 46:0.16666667 49:0.16666667 50:0.16666667 52:0.16666667 53:0.33333333 63:0.8 64:0.66666667 65:0.2 69:0.25 70:0.16666667 71:0.16666667 72:0.5 74:0.25 75:0.25 79:0.47826087 80:1 85:1 89:1 93:1 99:1 103:1 104:1 110:1 112:1 116:1 133:0.051283035 134:0.058386412 135:0.45122686 136:0.80513689 137:0.7075834 138:0.65843057 139:0.57212018 140:0.51286569 141:0.51676781 142:0.55334008 143:0.37286577 144:0.46167966 145:0.5628949 146:0.43582691 147:0.37663932 148:0.55561425 149:0.38191141 150:0.54503231 151:0.40630299 152:0.63006081 153:0.39685909 154:0.45076374 155:0.26558348 156:0.82597032 157:0.82740587 158:0.82524434 159:0.71805951 160:0.65958634 161:0.67831489 162:0.56726723 163:0.60693654 164:0.79018558 165:0.72121213 166:0.6288985 167:0.60985245 168:0.78377273 169:0.57304881 170:0.75360413 171:0.70470098 172:0.69001235 173:0.71489301 174:0.73175372 175:0.43838182 
0.1059197223599077 1:0.6443844 2:0.44178122 3:0.48798757 4:0.44861398 5:0.65 6:0.21052632 7:0.5 8:0.125 9:0.38461538 10:0.25 11:0.5 12:0.28571429 14:0.15384615 15:0.33333333 17:0.75 19:0.27272727 21:0.2 22:0.125 25:0.11111111 26:0.4 27:0.25 29:0.2 30:0.2 34:0.6 36:0.33333333 37:0.25 45:0.125 46:0.33333333 48:0.5 56:0.5 57:0.25 60:0.6 67:0.25 70:0.16666667 79:0.39130435 80:1 85:1 87:1 89:1 96:1 97:1 99:1 100:1 107:1 111:1 118:1 121:1 132:1 133:0.30366296 134:0.089879689 135:0.64010173 136:0.39162714 137:0.54248576 138:0.44908468 139:0.41022058 140:0.26790237 141:0.45604555 142:0.3390887 143:0.38455862 144:0.37927204 145:0.68838347 146:0.36658105 147:0.69240854 148:0.70736024 149:0.61484327 150:0.59108291 151:0.5613646 152:0.53816045 153:0.52835601 154:0.65688273 155:0.51155919 156:0.4462271 157:0.66159369 158:0.55160279 159:0.51479653 160:0.46508673 161:0.62874417 162:0.58314965 163:0.63766852 164:0.4101576 165:0.77581956 166:0.48392552 167:0.67447387 168:0.64326748 169:0.73244589 170:0.56342802 171:0.7295837 172:0.48858899 173:0.65487671 174:0.78663141 175:0.52944016 
-0.07371865344946589 1:0.52319537 2:0.81029024 3:0.59505313 4:0.53126068 5:0.45 6:0.36842105 7:0.5 8:0.1875 9:0.23076923 10:0.125 11:0.83333333 13:0.28571429 14:0.23076923 15:0.22222222 16:0.14285714 17:0.375 18:0.11111111 19:0.18181818 20:0.25 22:0.375 25:0.11111111 29:0.2 32:0.25 33:0.33333333 35:0.66666667 40:0.16666667 41:0.2 44:0.2 45:0.125 46:0.16666667 47:0.16666667 49:0.33333333 52:0.16666667 56:0.75 58:0.14285714 60:0.4 64:0.33333333 69:0.25 70:0.16666667 71:0.16666667 79:0.52173913 80:1 85:1 86:1 90:1 92:1 94:1 101:1 104:1 105:1 109:1 133:0.27588981 134:0.076433121 135:0.54433848 136:0.67054654 137:0.4345867 138:0.63472013 139:0.60653428 140:0.50526164 141:0.58927794 142:0.59949167 143:0.55903164 144:0.72195764 145:0.54816141 146:0.59401554 147:0.61914675 148:0.54071235 149:0.62082508 150:0.68208038 151:0.49374388 152:0.7676145 153:0.63449484 154:0.66809052 155:0.65990714 156:0.54438674 157:0.34377346 158:0.67682348 159:0.63405398 160:0.51388545 161:0.59144616 162:0.6686114 163:0.65499722 164:0.84444373 165:0.64358001 166:0.73917432 167:0.69571033 168:0.63918352 169:0.67074958 170:0.74412218 171:0.61882036 172:0.73636951 173:0.6701757 174:0.77495145 175:0.60628769 
0.125 1:0.3836975 2:0.55310284 3:0.6978734 4:0.56074214 5:0.25 6:0.47368421 7:0.44444444 8:0.375 9:0.15384615 10:0.125 11:0.16666667 12:0.14285714 13:0.14285714 14:0.38461538 15:0.22222222 16:0.28571429 17:0.125 19:0.36363636 20:0.25 22:0.5 23:0.16666667 24:0.1 25:0.11111111 29:0.2 35:0.33333333 39:0.33333333 43:0.25 44:0.2 45:0.375 46:0.16666667 47:0.16666667 49:0.16666667 52:0.16666667 53:0.33333333 55:0.16666667 60:0.2 62:0.375 64:0.33333333 70:0.33333333 71:0.16666667 72:0.25 75:0.25 76:0.2 79:0.56521739 80:1 85:1 86:1 89:1 92:1 95:1 98:1 101:1 104:1 109:1 111:1 125:1 127:1 133:0.16552806 134:0.023000708 135:0.16380556 136:0.78790949 137:0.44617714 138:0.61981495 139:0.58718319 140:0.56789584 141:0.63226157 142:0.60217073 143:0.47932541 144:0.68125788 145:0.47506047 146:0.72201266 147:0.61420924 148:0.42284642 149:0.63971336 150:0.42988284 151:0.57243785 152:0.62041625 153:0.62179713 154:0.58630527 155:0.68221063 156:0.76814466 157:0.5792262 158:0.7126163 159:0.75484866 160:0.61577857 161:0.60647092 162:0.61736821 163:0.54379954 164:0.73885395 165:0.60345321 166:0.86386339 167:0.66188619 168:0.61816088 169:0.78775874 170:0.39649531 171:0.67310139 172:0.61484078 173:0.80609024 174:0.73859818 175:0.70307474 
0.125 1:0.86189425 2:0.57699058 3:0.5989845 4:0.54622279 5:0.35 6:0.36842105 7:0.55555556 8:0.25 9:0.15384615 10:0.375 11:0.33333333 13:0.28571429 14:0.076923077 15:0.33333333 16:0.14285714 17:0.125 18:0.33333333 19:0.27272727 20:0.375 21:0.2 22:0.125 23:0.33333333 25:0.11111111 26:0.2 29:0.2 30:0.4 33:0.66666667 41:0.2 42:0.33333333 44:0.2 46:0.16666667 48:0.16666667 49:0.33333333 51:0.33333333 56:0.25 58:0.14285714 59:0.33333333 61:0.16666667 63:0.4 64:0.16666667 65:0.4 69:0.25 74:0.25 75:0.25 79:0.56521739 80:1 85:1 87:1 90:1 93:1 94:1 98:1 104:1 106:1 115:1 118:1 122:1 127:1 133:0.16123648 134:0.081033263 135:0.43010252 136:0.61182067 137:0.40706602 138:0.51992882 139:0.47814953 140:0.41099715 141:0.4035571 142:0.49723137 143:0.46278646 144:0.54473693 145:0.76902909 146:0.51120004 147:0.56814677 148:0.60577288 149:0.59252883 150:0.48613318 151:0.40854136 152:0.58946781 153:0.46356165 154:0.39136884 155:0.4707671 156:0.51854632 157:0.39639201 158:0.48082243 159:0.47660862 160:0.39269258 161:0.481051 162:0.56961604 163:0.50919986 164:0.59334624 165:0.81788111 166:0.36950876 167:0.66264611 168:0.67689952 169:0.59436225 170:0.5667352 171:0.51354909 172:0.62911736 173:0.66569341 174:0.47078316 175:0.47767354 
-0.03220011633855487 1:0.69503483 2:0.58446507 3:0.69772966 4:0.51840666 5:0.55 6:0.47368421 7:0.33333333 8:0.125 9:0.23076923 10:0.75 11:0.16666667 12:0.14285714 13:0.28571429 14:0.23076923 15:0.44444444 16:0.14285714 17:0.625 19:0.090909091 22:0.125 25:0.11111111 26:0.2 27:0.25 29:0.4 30:0.6 31:0.25 32:0.25 40:0.16666667 42:0.33333333 44:0.4 45:0.125 46:0.16666667 48:0.5 49:0.16666667 52:0.16666667 55:0.83333333 60:0.2 70:0.16666667 79:0.47826087 80:1 85:1 87:1 91:1 97:1 102:1 106:1 109:1 116:1 118:1 133:0.70783841 134:0.10403397 135:0.80400421 136:0.49029225 137:0.49459581 138:0.54752162 139:0.63309044 140:0.7060602 141:0.63410293 142:0.64024275 143:0.45405793 144:0.5437331 145:0.79970814 146:0.75061882 147:0.77954154 148:0.56972711 149:0.56153747 150:0.57706713 151:0.72833664 152:0.38354553 153:0.48108177 154:0.59854599 155:0.58554609 156:0.52702344 157:0.68581232 158:0.66848516 159:0.80720276 160:0.87864786 161:0.81713748 162:0.69466318 163:0.63551176 164:0.68200782 165:0.811715 166:0.7547159 167:0.87850787 168:0.82865062 169:0.73478109 170:0.76592283 171:0.9016162 172:0.58068616 173:0.67253465 174:0.73748638 175:0.72691113 
-0.03343081404285732 1:0.60222828 2:0.55859452 3:0.71411512 4:0.5771874 5:0.25 6:0.47368421 7:0.44444444 8:0.375 9:0.15384615 10:0.25 11:0.16666667 14:0.23076923 15:0.44444444 16:0.42857143 17:0.125 18:0.33333333 19:0.090909091 20:0.25 21:0.2 22:0.25 23:0.33333333 24:0.1 25:0.11111111 26:0.2 30:0.2 31:0.25 33:0.33333333 45:0.125 46:0.33333333 47:0.16666667 48:0.16666667 49:0.16666667 50:0.16666667 51:0.33333333 53:0.33333333 54:0.33333333 56:0.25 58:0.14285714 59:0.33333333 64:0.16666667 65:0.2 70:0.33333333 75:0.25 76:0.2 79:0.56521739 80:1 85:1 88:1 91:1 93:1 101:1 102:1 109:1 111:1 119:1 133:0.26747583 134:0.15675867 135:0.83203239 136:0.69814123 137:0.72231874 138:0.61884439 139:0.64976854 140:0.50837076 141:0.67634768 142:0.51461761 143:0.44492814 144:0.718185 145:0.48289628 146:0.41313832 147:0.39553939 148:0.45611147 149:0.48497105 150:0.36798972 151:0.53720467 152:0.41344616 153:0.36208413 154:0.29079379 155:0.33426312 156:0.50160417 157:0.66385054 158:0.37634316 159:0.61985623 160:0.21213245 161:0.51926949 162:0.35918897 163:0.43541003 164:0.5508257 165:0.41019592 166:0.32098338 167:0.32389812 168:0.29881226 169:0.3843496 170:0.22010831 171:0.44974551 172:0.31549597 173:0.17714264 174:0.17832434 175:0.29460318 
-0.125 1:0.5128194 2:0.6037518 3:0.66315036 4:0.55500641 5:0.3 6:0.52631579 7:0.38888889 8:0.3125 9:0.15384615 10:0.25 11:0.16666667 12:0.14285714 13:0.14285714 14:0.38461538 15:0.33333333 16:0.28571429 17:0.125 18:0.11111111 19:0.18181818 20:0.25 21:0.2 22:0.375 23:0.16666667 25:0.11111111 27:0.25 30:0.2 31:0.25 34:0.2 36:0.33333333 41:0.2 45:0.5 46:0.33333333 49:0.16666667 52:0.33333333 55:0.16666667 63:0.4 64:0.16666667 65:0.2 68:0.33333333 70:0.33333333 72:0.25 73:0.25 79:0.56521739 80:1 85:1 88:1 91:1 93:1 94:1 95:1 98:1 102:1 104:1 110:1 111:1 119:1 122:1 125:1 133:0.076055516 134:0.0077848549 135:0.059348356 136:0.74635761 137:0.57123024 138:0.5294741 139:0.67838909 140:0.64553802 141:0.75674535 142:0.52793441 143:0.20433974 144:0.65335336 145:0.65073711 146:0.54226083 147:0.53881003 148:0.64950277 149:0.57313655 150:0.67420121 151:0.42371951 152:0.50065945 153:0.61465345 154:0.43188679 155:0.58000381 156:0.75921722 157:0.71561122 158:0.64528609 159:0.80002791 160:0.66846066 161:0.64358369 162:0.61101886 163:0.4067699 164:0.64071118 165:0.7895429 166:0.58496186 167:0.59143846 168:0.80319641 169:0.71715104 170:0.76490813 171:0.67306736 172:0.4989847 173:0.71635662 174:0.36356783 175:0.64122947 
0.125 1:0.53701896 2:0.36889422 3:0.52505164 4:0.39203178 5:0.5 6:0.052631579 7:0.66666667 8:0.3125 9:0.30769231 10:0.25 11:0.33333333 12:0.28571429 13:0.14285714 15:0.11111111 17:0.5 19:0.54545455 20:0.125 23:0.5 24:0.2 25:0.22222222 26:0.2 27:0.25 28:0.2 29:0.2 32:0.5 38:0.25 39:0.33333333 43:0.25 46:0.16666667 49:0.16666667 55:0.16666667 56:0.5 60:0.4 62:0.375 66:0.2 74:0.5 75:0.25 77:0.5 79:0.39130435 80:1 85:1 91:1 94:1 98:1 101:1 104:1 105:1 107:1 112:1 127:1 133:0.65029693 134:0.072540694 135:0.55301877 136:0.26572646 137:0.35641633 138:0.34059897 139:0.20986047 140:0.2082903 141:0.3676143 142:0.34518496 143:0.14039377 144:0.38753577 145:0.50503425 146:0.43219562 147:0.31060125 148:0.56819732 149:0.6462124 150:0.4647303 151:0.31943025 152:0.61328356 153:0.39124558 154:0.63371758 155:0.69622021 156:0.28401411 157:0.35725771 158:0.46664746 159:0.4482375 160:0.39319791 161:0.6156386 162:0.42577377 163:0.34652492 164:0.5763348 165:0.63875951 166:0.64570142 167:0.55841229 168:0.65887958 169:0.73473032 170:0.37265424 171:0.4281167 172:0.70000145 173:0.54624841 174:0.67988517 175:0.8116393 
-0.125 1:0.42214227 2:0.52801566 3:0.47077004 4:0.47725174 5:0.4 6:0.26315789 7:0.55555556 8:0.3125 9:0.23076923 11:0.66666667 12:0.14285714 13:0.28571429 14:0.076923077 15:0.11111111 16:0.14285714 17:0.125 18:0.33333333 19:0.36363636 20:0.25 21:0.2 22:0.25 23:0.16666667 24:0.1 25:0.11111111 32:0.25 33:0.33333333 34:0.4 39:0.33333333 40:0.16666667 43:0.25 45:0.125 47:0.16666667 50:0.16666667 52:0.16666667 56:0.25 58:0.14285714 61:0.33333333 62:0.125 63:0.2 64:0.16666667 68:0.33333333 69:0.25 74:0.25 77:0.25 79:0.47826087 80:1 88:1 90:1 96:1 98:1 99:1 101:1 105:1 109:1 111:1 114:1 115:1 123:1 133:0.28442606 134:0.029723992 135:0.086469947 136:0.42732742 137:0.64275573 138:0.59239994 139:0.62677266 140:0.48905332 141:0.65685139 142:0.58484055 143:0.30758663 144:0.56521473 145:0.67279148 146:0.35258602 147:0.41790863 148:0.29960045 149:0.48935627 150:0.51129113 151:0.56267368 152:0.35324765 153:0.39817731 154:0.30801247 155:0.39423245 156:0.25289697 157:0.56010668 158:0.54484301 159:0.59396735 160:0.2811104 161:0.47222221 162:0.47728694 163:0.3001434 164:0.53703308 165:0.48086102 166:0.26242489 167:0.35843414 168:0.32768527 169:0.47385359 170:0.41549275 171:0.4860247 172:0.24633774 173:0.27304344 174:0.32417394 175:0.42251868 
0.1064293773642346 1:0.38580469 2:0.52523248 3:0.57391642 4:0.51283017 5:0.3 6:0.36842105 7:0.5 8:0.375 9:0.076923077 10:0.25 11:0.33333333 12:0.14285714 13:0.42857143 14:0.076923077 15:0.22222222 16:0.28571429 17:0.125 19:0.45454545 20:0.25 22:0.625 24:0.1 28:0.2 30:0.2 32:0.25 34:0.2 37:0.25 41:0.2 42:0.33333333 43:0.25 46:0.16666667 47:0.16666667 49:0.16666667 50:0.16666667 52:0.33333333 55:0.16666667 62:0.375 63:0.2 64:0.16666667 66:0.2 69:0.5 70:0.33333333 72:0.25 76:0.2 79:0.52173913 80:1 89:1 93:1 101:1 104:1 112:1 127:1 133:0.60309535 134:0.030785563 135:0.17530919 136:0.67084484 137:0.43740023 138:0.37379253 139:0.42524039 140:0.43243951 141:0.43463792 142:0.46085041 143:0.28577853 144:0.53291936 145:0.38893412 146:0.6449269 147:0.29701535 148:0.55690707 149:0.61148914 150:0.58982633 151:0.38750236 152:0.64426216 153:0.54184844 154:0.50530052 155:0.63626494 156:0.66127978 157:0.61752152 158:0.47822374 159:0.64000461 160:0.46811217 161:0.64350857 162:0.52215323 163:0.41949377 164:0.59614727 165:0.61690565 166:0.8367805 167:0.55467837 168:0.5167021 169:0.71433791 170:0.69422879 171:0.60432398 172:0.79978771 173:0.71494818 174:0.6672788 175:0.68486312 
-0.09936005076137884 1:0.52319537 2:0.6950012 3:0.6443844 4:0.59368783 5:0.2 6:0.52631579 7:0.38888889 8:0.4375 9:0.076923077 10:0.125 11:0.16666667 14:0.46153846 15:0.22222222 16:0.42857143 17:0.25 19:0.27272727 20:0.25 22:0.5 23:0.16666667 24:0.2 29:0.2 34:0.2 45:0.375 46:0.33333333 47:0.33333333 48:0.16666667 49:0.16666667 52:0.33333333 54:0.33333333 55:0.16666667 60:0.2 63:0.4 64:0.16666667 66:0.2 70:0.5 72:0.25 74:0.25 76:0.2 77:0.25 79:0.56521739 80:1 86:1 93:1 97:1 102:1 106:1 108:1 112:1 120:1 132:1 133:0.31357367 134:0.072540694 135:0.21102785 136:0.61252293 137:0.48532521 138:0.54372997 139:0.60715719 140:0.62121453 141:0.648338 142:0.48381799 143:0.47254677 144:0.55759732 145:0.64116938 146:0.68806893 147:0.57201775 148:0.67033644 149:0.67036545 150:0.48448024 151:0.66237447 152:0.48970125 153:0.68875223 154:0.41960895 155:0.53207531 156:0.75768117 157:0.70151856 158:0.7297887 159:0.63585555 160:0.82435905 161:0.87580485 162:0.65563698 163:0.66185394 164:0.58345201 165:0.72371488 166:0.83135224 167:0.67943379 168:0.78913489 169:0.71311629 170:0.48354962 171:0.72407327 172:0.57797369 173:0.83301079 174:0.53288436 175:0.46613504 
-0.125 1:0.42622728 2:0.59420581 3:0.52267638 4:0.37844004 5:0.45 6:0.26315789 7:0.38888889 8:0.4375 9:0.30769231 10:0.125 11:0.5 12:0.14285714 13:0.42857143 16:0.42857143 17:0.125 18:0.33333333 19:0.090909091 20:0.25 22:0.25 23:0.5 24:0.1 25:0.11111111 27:0.25 31:0.25 32:0.25 33:0.66666667 40:0.33333333 42:0.33333333 44:0.2 52:0.16666667 53:0.33333333 54:0.33333333 55:0.16666667 59:0.66666667 61:0.16666667 64:0.16666667 65:0.2 69:0.25 70:0.16666667 74:0.25 75:0.5 77:0.25 79:0.34782609 80:1 87:1 89:1 95:1 103:1 104:1 109:1 116:1 133:0.62575227 134:0.035031847 135:0.45205479 136:0.64614595 137:0.62032231 138:0.48769237 139:0.54648608 140:0.38925463 141:0.60300845 142:0.5043659 143:0.30322995 144:0.4384811 145:0.37110822 146:0.54154506 147:0.57497686 148:0.54770204 149:0.43018978 150:0.39241993 151:0.37729493 152:0.4867955 153:0.27565229 154:0.38333118 155:0.25187818 156:0.54669617 157:0.64115552 158:0.40429349 159:0.53081777 160:0.42759712 161:0.54615412 162:0.53663093 163:0.37387206 164:0.46357288 165:0.33089602 166:0.4164621 167:0.54391748 168:0.44666309 169:0.53534506 170:0.2891156 171:0.43725775 172:0.46314725 173:0.32846916 174:0.30389131 175:0.33006033 
0.125 1:0.24243179 2:0.075121269 3:0.6443844 4:0.14487922 5:0.55 6:0.15789474 7:0.27777778 8:0.5625 9:0.076923077 10:0.25 11:0.5 12:0.57142857 13:0.28571429 16:0.28571429 17:0.25 19:0.18181818 20:0.125 21:1 22:0.25 24:0.2 28:0.2 29:0.2 34:0.4 35:0.33333333 36:0.66666667 37:0.25 39:0.33333333 43:0.25 47:0.16666667 51:0.33333333 52:0.16666667 55:0.16666667 56:0.25 60:0.4 68:0.33333333 69:0.25 72:0.25 78:0.2 79:0.17391304 80:1 89:1 92:1 95:1 98:1 101:1 109:1 113:1 117:1 120:1 133:0.55256165 134:0.096956829 135:0.21094266 136:0.51074282 137:0.25704012 138:0.26369674 139:0.24523077 140:0.32916552 141:0.44662276 142:0.45416126 143:0.26519874 144:0.32324104 145:0.30526298 146:0.58595175 147:0.40483331 148:0.37323324 149:0.35947519 150:0.35662081 151:0.33965894 152:0.61641113 153:0.59724992 154:0.3575816 155:0.66324008 156:0.1988712 157:0.1780455 158:0.10411684 159:0.23997134 160:0.15962939 161:0.31069397 162:0.26876195 163:0.17497057 164:0.10022893 165:0.35851781 166:0.44527878 167:0.36746626 168:0.34780665 169:0.32828635 170:0.24645303 171:0.29725076 172:0.38354285 173:0.40868087 174:0.38257988 175:0.60180033 
-0.125 1:0.4359805 2:0.61356641 3:0.61102148 4:0.57999995 5:0.2 6:0.47368421 7:0.44444444 8:0.4375 9:0.076923077 10:0.125 11:0.16666667 12:0.14285714 13:0.14285714 14:0.38461538 15:0.22222222 16:0.28571429 17:0.125 19:0.36363636 20:0.375 22:0.5 23:0.16666667 24:0.1 29:0.2 35:0.33333333 39:0.33333333 43:0.25 44:0.2 45:0.375 46:0.16666667 47:0.16666667 49:0.16666667 50:0.16666667 52:0.16666667 53:0.33333333 55:0.16666667 60:0.2 62:0.375 64:0.33333333 70:0.33333333 71:0.16666667 72:0.25 75:0.25 76:0.2 79:0.56521739 80:1 92:1 93:1 101:1 104:1 107:1 110:1 111:1 116:1 127:1 133:0.16528444 134:0.023000708 135:0.16380556 136:0.71481041 137:0.43548703 138:0.67228806 139:0.47664345 140:0.4729414 141:0.50153895 142:0.55561402 143:0.36744773 144:0.48299544 145:0.40203374 146:0.63945875 147:0.40933265 148:0.38172681 149:0.50760767 150:0.43898141 151:0.38886925 152:0.42917075 153:0.49970611 154:0.63303391 155:0.71682226 156:0.71862024 157:0.59321246 158:0.83581309 159:0.60523882 160:0.58022272 161:0.65696464 162:0.69256347 163:0.59860565 164:0.65453414 165:0.54177851 166:0.7197178 167:0.61644963 168:0.55534769 169:0.55807409 170:0.57335266 171:0.5092265 172:0.5160978 173:0.53527614 174:0.68155509 175:0.73411762 
0.07294868519293782 1:0.50033308 2:0.52167696 3:0.16910392 4:0.32292091 5:0.3 6:0.47368421 7:0.16666667 8:0.625 9:0.076923077 10:0.375 11:0.16666667 12:0.14285714 13:0.14285714 14:0.30769231 16:0.71428571 18:0.11111111 20:0.25 21:0.6 22:0.25 23:0.33333333 24:0.2 29:0.2 31:0.5 35:0.33333333 41:0.2 44:0.2 45:0.375 47:0.16666667 51:1 53:0.33333333 54:0.33333333 59:0.33333333 64:0.16666667 66:0.2 70:0.16666667 72:0.25 75:0.25 76:0.2 77:0.25 79:0.34782609 80:1 89:1 107:1 110:1 113:1 116:1 120:1 133:0.014059832 134:0.017338995 135:0.1340007 136:0.51891646 137:0.43365377 138:0.53749369 139:0.35369378 140:0.44844077 141:0.21472552 142:0.2461586 143:0.25955642 144:0.48937098 145:0.12725911 146:0.31373432 147:0.10163014 148:0.235964 149:0.43475974 150:0.27916694 151:0.26894851 152:0.17891797 153:0.30881002 154:0.33020577 155:0.37856143 156:0.46330468 157:0.50974093 158:0.48818989 159:0.39599054 160:0.32302281 161:0.25752201 162:0.26436007 163:0.4189665 164:0.29753331 165:0.24762078 166:0.10126727 167:0.082235791 168:0.20262595 169:0.46625446 170:0.11552496 171:0.28327168 172:0.1371596 173:0.20347863 174:0.26588083 175:0.28184746 
-0.125 1:0.5128194 2:0.48769272 3:0.67433756 4:0.38756 5:0.4 6:0.36842105 7:0.38888889 8:0.375 9:0.076923077 10:0.625 11:0.33333333 13:0.28571429 14:0.15384615 15:0.22222222 16:0.28571429 17:0.25 19:0.090909091 20:0.375 21:0.4 22:0.125 23:0.33333333 24:0.1 28:0.2 29:0.6 31:0.25 35:0.33333333 41:0.4 46:0.33333333 47:0.16666667 48:0.16666667 50:0.16666667 51:0.66666667 55:0.33333333 63:0.2 64:0.16666667 65:0.2 66:0.2 68:0.33333333 69:0.25 73:0.25 74:0.25 77:0.25 79:0.43478261 80:1 86:1 88:1 90:1 93:1 98:1 102:1 104:1 109:1 113:1 133:0.1901341 134:0.035031847 135:0.24948847 136:0.65696137 137:0.61905252 138:0.71196148 139:0.8257563 140:0.73824593 141:0.90860623 142:0.69713362 143:0.61038616 144:0.83043241 145:0.68535514 146:0.54164122 147:0.61560642 148:0.61634586 149:0.52375716 150:0.56385492 151:0.53371752 152:0.47107726 153:0.56926206 154:0.40368953 155:0.54966907 156:0.66169285 157:0.75862821 158:0.71048306 159:0.80986515 160:0.89695947 161:0.85613494 162:0.87016176 163:0.69041193 164:0.75220102 165:0.78531981 166:0.54476257 167:0.70266554 168:0.77108957 169:0.61561296 170:0.63893017 171:0.61272854 172:0.47373282 173:0.62538975 174:0.4394008 175:0.72247398 
0.125 1:0.61759707 2:0.6814107 3:0.64440919 4:0.53232877 5:0.3 6:0.47368421 7:0.38888889 8:0.375 9:0.076923077 10:0.375 11:0.33333333 13:0.14285714 14:0.15384615 15:0.44444444 16:0.42857143 17:0.25 18:0.11111111 19:0.090909091 20:0.25 21:0.2 22:0.5 24:0.1 29:0.2 30:0.4 35:0.66666667 41:0.2 44:0.2 45:0.125 46:0.16666667 48:0.16666667 49:0.16666667 51:0.33333333 52:0.33333333 55:0.16666667 56:0.25 58:0.14285714 60:0.2 64:0.16666667 66:0.2 71:0.16666667 72:0.75 76:0.2 79:0.52173913 80:1 86:1 90:1 93:1 98:1 102:1 106:1 109:1 123:1 125:1 133:0.24692406 134:0.14225053 135:0.75502714 136:0.69134786 137:0.48871404 138:0.71949022 139:0.6352288 140:0.76288494 141:0.63912322 142:0.65480115 143:0.62003647 144:0.62734728 145:0.70710818 146:0.77188694 147:0.6761386 148:0.51908775 149:0.56701477 150:0.56880815 151:0.53184095 152:0.4171268 153:0.52186297 154:0.4258396 155:0.57035612 156:0.57051752 157:0.41477841 158:0.65423619 159:0.56675765 160:0.7723693 161:0.68865148 162:0.70664784 163:0.63595946 164:0.55810055 165:0.6881681 166:0.76625837 167:0.68271344 168:0.63718499 169:0.63894549 170:0.6112941 171:0.64516518 172:0.59668166 173:0.57224467 174:0.59512303 175:0.6265644 
0.1058122295801328 1:0.58784235 2:0.385641 3:0.4254219 4:0.32701686 5:0.35 6:0.21052632 7:0.44444444 8:0.5625 9:0.15384615 10:0.25 11:0.33333333 12:0.14285714 13:0.14285714 14:0.076923077 16:0.42857143 17:0.25 19:0.27272727 20:0.25 21:0.2 22:0.25 23:0.5 24:0.3 26:0.2 28:0.2 31:0.25 35:0.66666667 37:0.25 40:0.16666667 47:0.33333333 54:1 55:0.16666667 57:0.25 60:0.2 62:0.25 64:0.16666667 65:0.2 68:0.33333333 70:0.33333333 73:0.25 74:0.25 77:0.5 79:0.34782609 80:1 91:1 93:1 96:1 98:1 103:1 105:1 109:1 113:1 114:1 125:1 128:1 133:0.01587724 134:0.020523708 135:0.15861308 136:0.70155493 137:0.63118886 138:0.64541785 139:0.3531882 140:0.50508582 141:0.62236072 142:0.48298216 143:0.35514411 144:0.36009762 145:0.55082753 146:0.17490997 147:0.35530406 148:0.56732328 149:0.38865397 150:0.33795206 151:0.26437213 152:0.33755697 153:0.44360252 154:0.19790549 155:0.25905792 156:0.62281074 157:0.60081161 158:0.59489721 159:0.47426877 160:0.48577867 161:0.66584012 162:0.52815265 163:0.54130417 164:0.40048971 165:0.48550692 166:0.25511926 167:0.3670515 168:0.64591172 169:0.52223495 170:0.38332744 171:0.50418192 172:0.42991984 173:0.40221191 174:0.35985741 175:0.2327848 
0.125 1:0.30530944 2:0.35010423 3:0.40670149 4:0.28640822 5:0.55 6:0.36842105 7:0.22222222 8:0.375 9:0.30769231 10:0.625 11:0.16666667 12:0.14285714 13:0.28571429 14:0.23076923 16:0.28571429 17:0.375 19:0.090909091 21:0.2 23:0.33333333 24:0.3 26:0.6 27:0.25 28:0.4 29:0.2 31:0.5 32:0.25 39:0.33333333 40:0.16666667 42:0.33333333 45:0.375 51:0.33333333 54:0.33333333 55:0.16666667 60:0.2 73:0.25 74:0.25 77:0.5 78:0.2 79:0.30434783 80:1 89:1 94:1 95:1 96:1 99:1 103:1 104:1 107:1 111:1 115:1 120:1 133:0.17429853 134:0.027246992 135:0.19404659 136:0.55309197 137:0.36759717 138:0.33611596 139:0.37300596 140:0.41825587 141:0.32172756 142:0.33926997 143:0.13088409 144:0.32005097 145:0.38431565 146:0.38286257 147:0.40518763 148:0.46550859 149:0.38847635 150:0.4475497 151:0.28431123 152:0.57274722 153:0.3349411 154:0.58881105 155:0.46432552 156:0.41515833 157:0.43182191 158:0.3488705 159:0.37758211 160:0.42173224 161:0.32791389 162:0.36251764 163:0.33344234 164:0.41556699 165:0.53791688 166:0.44112192 167:0.50210725 168:0.61340988 169:0.41437821 170:0.49082399 171:0.41237463 172:0.54906736 173:0.55257575 174:0.60073191 175:0.47024449 
-0.125 1:0.56494924 2:0.42572085 3:0.69503483 4:0.48860245 5:0.65 6:0.36842105 7:0.44444444 9:0.23076923 10:0.75 11:0.5 13:0.57142857 14:0.15384615 15:0.22222222 17:0.625 19:0.27272727 25:0.11111111 26:0.4 28:0.2 29:0.6 30:0.4 32:0.5 34:0.2 40:0.16666667 41:0.2 42:0.66666667 44:0.6 48:0.16666667 49:0.16666667 55:0.5 56:0.25 60:0.4 62:0.125 79:0.47826087 80:1 91:1 96:1 97:1 101:1 109:1 121:1 132:1 133:0.70682874 134:0.10226469 135:0.79033067 136:0.55558418 137:0.59177845 138:0.59836439 139:0.57419186 140:0.51644533 141:0.69970721 142:0.48456566 143:0.38023076 144:0.54219391 145:0.63263693 146:0.53185141 147:0.7276044 148:0.62409687 149:0.69776278 150:0.67344337 151:0.66174022 152:0.51116197 153:0.75701326 154:0.71848111 155:0.6376422 156:0.56604787 157:0.65134972 158:0.66554423 159:0.73237739 160:0.6878632 161:0.68001118 162:0.43176939 163:0.64766819 164:0.61331189 165:0.70173556 166:0.53189903 167:0.73950758 168:0.78847179 169:0.73133415 170:0.7265167 171:0.81197215 172:0.51030937 173:0.94452031 174:0.78990026 175:0.7526073 
-0.125 1:0.32296893 2:0.63164971 3:0.86189425 4:0.56377271 5:0.5 6:0.47368421 7:0.38888889 8:0.125 9:0.30769231 10:0.125 11:0.66666667 13:0.57142857 14:0.23076923 15:0.22222222 16:0.14285714 17:0.125 18:0.44444444 19:0.090909091 20:0.125 22:0.25 25:0.22222222 26:0.2 28:0.2 32:0.25 33:0.66666667 34:0.2 40:0.16666667 42:1 44:0.4 46:0.33333333 52:0.16666667 58:0.42857143 59:0.33333333 63:0.2 64:0.16666667 69:0.25 70:0.16666667 79:0.52173913 80:1 89:1 97:1 102:1 104:1 106:1 108:1 132:1 133:0.21398605 134:0.054847841 135:0.41813614 136:0.41379515 137:0.45906935 138:0.37396 139:0.39905035 140:0.64393273 141:0.6182957 142:0.58932489 143:0.50802951 144:0.77004852 145:0.78906903 146:0.65621914 147:0.69617281 148:0.66482629 149:0.63842737 150:0.77728418 151:0.61372165 152:0.69967545 153:0.69471473 154:0.55628936 155:0.5652934 156:0.38520999 157:0.60276949 158:0.35048193 159:0.47390183 160:0.6032374 161:0.51948059 162:0.58486388 163:0.52109783 164:0.59138036 165:0.51878428 166:0.44246593 167:0.49160186 168:0.46628912 169:0.48314538 170:0.51366354 171:0.4427891 172:0.53550964 173:0.61650833 174:0.34748753 175:0.50456465 
0.125 1:0.5438914 2:0.49319185 3:0.61358266 4:0.48661276 5:0.45 6:0.47368421 7:0.38888889 8:0.1875 9:0.076923077 10:0.625 11:0.33333333 12:0.14285714 13:0.57142857 14:0.15384615 15:0.22222222 16:0.14285714 17:0.25 18:0.11111111 19:0.27272727 20:0.125 21:0.2 22:0.25 26:0.2 28:0.6 29:0.2 31:0.25 32:0.5 37:0.25 41:0.6 42:0.33333333 44:0.2 45:0.125 46:0.16666667 49:0.33333333 51:0.33333333 55:0.16666667 57:0.25 61:0.16666667 62:0.125 63:0.2 64:0.16666667 68:0.33333333 70:0.16666667 71:0.16666667 79:0.52173913 80:1 87:1 91:1 95:1 101:1 103:1 106:1 108:1 112:1 115:1 133:0.57533256 134:0.24557679 135:0.71440646 136:0.36421229 137:0.29543235 138:0.29791395 139:0.32314689 140:0.32309127 141:0.48768685 142:0.44786737 143:0.23109332 144:0.36131575 145:0.54130569 146:0.47618988 147:0.53308479 148:0.3681109 149:0.40948343 150:0.60465359 151:0.61504246 152:0.48882741 153:0.50525541 154:0.62305155 155:0.78116427 156:0.3723284 157:0.36456544 158:0.48896436 159:0.60888685 160:0.47656607 161:0.59736321 162:0.5484654 163:0.36898343 164:0.40282278 165:0.67118785 166:0.52650404 167:0.65390669 168:0.5419375 169:0.48554676 170:0.64218347 171:0.65713201 172:0.48802846 173:0.51869853 174:0.66245433 175:0.7325099 
-0.125 1:0.55606605 2:0.59172031 3:0.39926016 4:0.39716355 5:0.3 6:0.47368421 7:0.27777778 8:0.5 9:0.076923077 10:0.5 11:0.16666667 13:0.28571429 14:0.23076923 15:0.11111111 16:0.42857143 17:0.125 19:0.090909091 20:0.375 21:0.2 22:0.375 23:0.33333333 24:0.2 26:0.2 28:0.2 29:0.4 34:0.2 41:0.2 42:0.33333333 45:0.25 47:0.33333333 50:0.16666667 51:0.33333333 52:0.33333333 55:0.16666667 63:0.2 64:0.16666667 66:0.4 69:0.25 71:0.16666667 72:0.25 73:0.25 75:0.25 77:0.5 79:0.43478261 80:1 95:1 99:1 109:1 113:1 115:1 123:1 129:1 133:0.72720163 134:0.25583864 135:0.74425918 136:0.65781041 137:0.69497911 138:0.6541154 139:0.75538564 140:0.61591406 141:0.60193849 142:0.67260322 143:0.60047275 144:0.56063867 145:0.5252629 146:0.60912397 147:0.51243434 148:0.21663681 149:0.35895117 150:0.41558981 151:0.57132766 152:0.41163407 153:0.44351563 154:0.24190976 155:0.43720738 156:0.67726993 157:0.77407008 158:0.72718709 159:0.77089404 160:0.75403689 161:0.64291686 162:0.80376727 163:0.63280301 164:0.58970816 165:0.599801 166:0.57308144 167:0.6330985 168:0.57754083 169:0.42454964 170:0.51541506 171:0.67323652 172:0.43670181 173:0.58751365 174:0.27541292 175:0.49478154 
0.0589807527472209 1:0.41846411 2:0.53760499 3:0.61054367 4:0.45688683 5:0.4 6:0.36842105 7:0.44444444 8:0.3125 9:0.23076923 10:0.375 11:0.16666667 12:0.14285714 13:0.28571429 14:0.15384615 15:0.22222222 16:0.28571429 17:0.125 19:0.36363636 20:0.25 21:0.2 22:0.375 23:0.16666667 25:0.11111111 26:0.4 28:0.2 29:0.2 31:0.25 34:0.2 36:0.33333333 41:0.2 43:0.25 45:0.125 46:0.16666667 47:0.16666667 49:0.16666667 50:0.16666667 52:0.16666667 53:0.33333333 56:0.25 62:0.25 63:0.2 64:0.33333333 67:0.25 69:0.25 70:0.16666667 71:0.16666667 73:0.25 79:0.47826087 80:1 86:1 87:1 90:1 92:1 95:1 97:1 103:1 110:1 112:1 123:1 133:0.66296402 134:0.07891012 135:0.60157652 136:0.65679558 137:0.64505366 138:0.68269817 139:0.64715696 140:0.35559639 141:0.77883096 142:0.62258858 143:0.4135364 144:0.22746242 145:0.46146548 146:0.46716925 147:0.51544134 148:0.51035729 149:0.44645207 150:0.45466254 151:0.4916384 152:0.40327572 153:0.47348179 154:0.45016304 155:0.47072551 156:0.58458723 157:0.67000077 158:0.7395667 159:0.74127674 160:0.55440617 161:0.82110866 162:0.73542961 163:0.55964237 164:0.39872353 165:0.57786092 166:0.60474384 167:0.62429184 168:0.67743929 169:0.56856812 170:0.52538515 171:0.71482101 172:0.50697559 173:0.63721983 174:0.50100454 175:0.57598152 
-0.02270840666249564 1:0.61054367 2:0.59318221 3:0.48744926 4:0.49616779 5:0.35 6:0.31578947 7:0.5 8:0.375 9:0.076923077 10:0.25 11:0.33333333 12:0.14285714 13:0.14285714 14:0.15384615 15:0.33333333 16:0.14285714 17:0.375 18:0.11111111 19:0.18181818 20:0.375 21:0.2 22:0.25 23:0.33333333 24:0.1 26:0.2 29:0.2 30:0.2 33:0.33333333 34:0.2 36:0.33333333 43:0.25 44:0.2 45:0.125 46:0.16666667 48:0.33333333 50:0.16666667 52:0.16666667 55:0.16666667 56:0.5 59:0.33333333 62:0.125 63:0.2 65:0.4 66:0.2 70:0.16666667 71:0.16666667 73:0.25 75:0.25 76:0.2 79:0.47826087 80:1 88:1 90:1 101:1 104:1 110:1 114:1 127:1 133:0.65440268 134:0.023708422 135:0.41169175 136:0.60696934 137:0.46590716 138:0.32440849 139:0.4524587 140:0.30882108 141:0.41466796 142:0.46380834 143:0.35015807 144:0.54104704 145:0.28650401 146:0.48977961 147:0.39925387 148:0.25211229 149:0.4715628 150:0.49533104 151:0.36097947 152:0.60595047 153:0.3970654 154:0.49971771 155:0.46611093 156:0.59753788 157:0.56713847 158:0.46417994 159:0.72541613 160:0.38766331 161:0.53150599 162:0.51724956 163:0.59921399 164:0.58214242 165:0.39371123 166:0.57178772 167:0.62681594 168:0.42458476 169:0.50222581 170:0.48309143 171:0.52477621 172:0.63246323 173:0.60645015 174:0.58648707 175:0.46308229 
0.125 1:0.34510107 2:0.64631637 3:0.47077004 4:0.46392426 5:0.45 6:0.47368421 7:0.38888889 8:0.1875 9:0.076923077 10:0.75 11:0.33333333 13:0.57142857 14:0.23076923 15:0.22222222 17:0.25 19:0.18181818 20:0.375 21:0.2 22:0.125 23:0.16666667 26:0.2 28:0.6 29:0.4 30:0.2 34:0.2 35:0.33333333 41:0.6 42:0.33333333 44:0.2 45:0.125 46:0.16666667 48:0.16666667 49:0.16666667 55:0.33333333 63:0.4 64:0.16666667 65:0.2 68:0.33333333 70:0.16666667 73:0.25 79:0.52173913 80:1 89:1 101:1 103:1 109:1 115:1 133:0.23087551 134:0.06334041 135:0.48287981 136:0.67471505 137:0.5377744 138:0.47354018 139:0.48142119 140:0.54001585 141:0.64586543 142:0.58764181 143:0.35306536 144:0.56766563 145:0.61172426 146:0.77363564 147:0.51850976 148:0.5218951 149:0.4412206 150:0.67292673 151:0.39451563 152:0.6931158 153:0.50201587 154:0.55033002 155:0.48247617 156:0.60993272 157:0.60683279 158:0.5599621 159:0.5689586 160:0.62333569 161:0.70183056 162:0.67113717 163:0.60027499 164:0.5921617 165:0.72227045 166:0.67909411 167:0.71711091 168:0.67009828 169:0.68637396 170:0.62876366 171:0.56752117 172:0.67867775 173:0.63999692 174:0.67317892 175:0.49195081 
0.09408985489799571 1:0.78816598 2:0.83708236 3:0.59184905 4:0.76159035 5:0.25 6:0.26315789 7:0.88888889 8:0.125 9:0.076923077 10:0.25 11:0.33333333 13:0.14285714 14:0.076923077 15:0.44444444 17:0.25 18:0.33333333 19:0.81818182 20:0.25 23:0.16666667 26:0.2 29:0.2 30:0.2 34:0.4 42:0.33333333 46:0.33333333 49:0.5 55:0.16666667 56:0.25 58:0.14285714 60:0.2 61:0.33333333 62:0.5 63:0.4 65:0.2 73:0.25 79:0.73913043 80:1 87:1 91:1 101:1 104:1 109:1 112:1 116:1 118:1 124:1 127:1 133:0.21758808 134:0.12137297 135:0.6442147 136:0.77708653 137:0.72316535 138:0.81770086 139:0.67395293 140:0.64435112 141:0.64713829 142:0.67368579 143:0.53065582 144:0.7211372 145:0.58350029 146:0.76303666 147:0.89652591 148:0.49576894 149:0.70598388 150:0.49589659 151:0.68070365 152:0.64226408 153:0.56907656 154:0.66392539 155:0.41564807 156:0.55590668 157:0.47161825 158:0.56710163 159:0.47944134 160:0.51516089 161:0.6137469 162:0.54785234 163:0.40696238 164:0.43236141 165:0.38490019 166:0.66442957 167:0.72795822 168:0.46656166 169:0.60164735 170:0.46381571 171:0.43107664 172:0.54631318 173:0.48569739 174:0.58408136 175:0.52085202 
0.1203327769653934 1:0.57906094 2:0.3352692 3:0.40604948 4:0.28396651 5:0.65 6:0.42105263 7:0.16666667 8:0.25 9:0.30769231 10:0.625 11:0.33333333 12:0.28571429 13:0.71428571 14:0.15384615 15:0.11111111 17:0.25 20:0.125 21:0.2 22:0.25 24:0.1 25:0.11111111 26:0.6 28:0.4 29:0.2 30:0.2 32:0.25 35:0.33333333 37:0.5 40:0.33333333 41:0.2 42:0.66666667 44:0.6 48:0.16666667 55:0.16666667 57:0.25 66:0.2 70:0.33333333 79:0.30434783 80:1 87:1 91:1 100:1 102:1 107:1 115:1 126:1 133:0.95818145 134:0.37968861 135:0.82606377 136:0.40576205 137:0.42218446 138:0.34185945 139:0.24424181 140:0.65410717 141:0.67710808 142:0.5007862 143:0.33589123 144:0.44728538 145:0.48489576 146:0.53894032 147:0.56360772 148:0.49948538 149:0.45400662 150:0.57469689 151:0.15829305 152:0.3896406 153:0.41359556 154:0.61874027 155:0.63879365 156:0.34063691 157:0.49522015 158:0.47157338 159:0.35726157 160:0.66387647 161:0.79151731 162:0.54632605 163:0.47620698 164:0.5457922 165:0.63812643 166:0.48533583 167:0.71449997 168:0.50416359 169:0.58764878 170:0.53891324 171:0.48826085 172:0.49238964 173:0.43400516 174:0.59743917 175:0.69493131 
-0.125 1:0.57906094 2:0.62811791 3:0.61552358 4:0.52557711 5:0.25 6:0.42105263 7:0.38888889 8:0.5 9:0.076923077 10:0.375 11:0.16666667 14:0.076923077 15:0.44444444 16:0.57142857 17:0.375 19:0.090909091 20:0.375 22:0.625 23:0.16666667 24:0.1 26:0.2 29:0.4 31:0.25 35:0.33333333 46:0.16666667 47:0.16666667 48:0.33333333 49:0.16666667 50:0.16666667 52:0.33333333 53:0.33333333 55:0.33333333 56:0.25 60:0.2 64:0.33333333 66:0.2 71:0.5 72:0.5 75:0.25 76:0.2 79:0.47826087 80:1 87:1 88:1 90:1 96:1 99:1 101:1 103:1 106:1 109:1 113:1 116:1 118:1 128:1 133:0.62328659 134:0.0046001415 135:0.079880489 136:0.76237903 137:0.72226123 138:0.69051392 139:0.73080022 140:0.53372157 141:0.63156345 142:0.69477532 143:0.61935865 144:0.49503941 145:0.66081474 146:0.38212579 147:0.8224084 148:0.38335932 149:0.49172397 150:0.51784309 151:0.59355937 152:0.45591169 153:0.36722297 154:0.39887897 155:0.23078823 156:0.80978504 157:0.9185824 158:0.77668744 159:0.71675357 160:0.73742501 161:0.72612803 162:0.77609223 163:0.7859303 164:0.59293573 165:0.79097415 166:0.53731864 167:0.81465331 168:0.55544601 169:0.65329093 170:0.63965299 171:0.69297522 172:0.63861107 173:0.62902883 174:0.70767289 175:0.35520543 
0.07669754545945728 1:0.5038825 2:0.62951077 3:0.55943067 4:0.50574304 5:0.35 6:0.57894737 7:0.22222222 8:0.375 9:0.15384615 10:0.375 11:0.16666667 12:0.14285714 13:0.28571429 14:0.30769231 15:0.22222222 16:0.57142857 17:0.25 19:0.090909091 20:0.125 22:0.625 26:0.2 27:0.25 29:0.6 32:0.25 40:0.16666667 41:0.2 44:0.2 46:0.16666667 47:0.5 48:0.16666667 49:0.16666667 52:0.66666667 55:0.16666667 56:0.25 63:0.2 64:0.16666667 69:0.25 70:0.33333333 71:0.16666667 72:0.25 79:0.47826087 80:1 89:1 93:1 96:1 102:1 106:1 108:1 116:1 133:0.65776049 134:0.060863411 135:0.34658828 136:0.57007992 137:0.41382028 138:0.46866678 139:0.54278984 140:0.7050231 141:0.41581996 142:0.50204735 143:0.3467885 144:0.48478434 145:0.77546471 146:0.57977899 147:0.6026928 148:0.68149622 149:0.48371373 150:0.59035622 151:0.66678253 152:0.39621463 153:0.59812012 154:0.36664658 155:0.61358264 156:0.6057199 157:0.61533583 158:0.63497239 159:0.66267403 160:0.85638366 161:0.65603928 162:0.69140251 163:0.58653208 164:0.62221796 165:0.78477996 166:0.7665171 167:0.73359644 168:0.78995397 169:0.64661202 170:0.68823355 171:0.82249489 172:0.5862661 173:0.8430165 174:0.69962768 175:0.64187788 
0.125 1:0.40670149 2:0.64631637 3:0.4547451 4:0.47895326 5:0.5 6:0.57894737 7:0.22222222 8:0.1875 9:0.30769231 10:0.625 12:0.14285714 13:0.42857143 14:0.30769231 15:0.33333333 16:0.14285714 17:0.25 19:0.090909091 20:0.125 22:0.375 25:0.11111111 26:0.6 28:0.2 29:0.4 30:0.2 31:0.25 37:0.25 40:0.16666667 41:0.2 43:0.25 44:0.4 45:0.125 46:0.33333333 48:0.33333333 49:0.16666667 52:0.16666667 55:0.16666667 63:0.2 64:0.16666667 70:0.33333333 79:0.47826087 80:1 90:1 94:1 101:1 105:1 108:1 114:1 115:1 133:0.85214392 134:0.3064402 135:0.66670198 136:0.39524679 137:0.29656772 138:0.34681476 139:0.40463427 140:0.51544148 141:0.50695283 142:0.30977811 143:0.47430716 144:0.64180515 145:0.59158045 146:0.59543439 147:0.61344151 148:0.64537338 149:0.71349901 150:0.74385419 151:0.77242189 152:0.68818619 153:0.70663232 154:0.58401272 155:0.77546081 156:0.60992915 157:0.59015786 158:0.55530131 159:0.5661647 160:0.71435384 161:0.6466963 162:0.50531874 163:0.64214837 164:0.76696245 165:0.72274423 166:0.72043874 167:0.67855078 168:0.71579181 169:0.73227148 170:0.76904332 171:0.83191191 172:0.67924723 173:0.82907011 174:0.72668549 175:0.69622279 
-0.0931253439835539 1:0.53701896 2:0.40139621 3:0.43316515 4:0.27410885 5:0.4 6:0.21052632 7:0.33333333 8:0.625 9:0.15384615 10:0.25 11:0.33333333 12:0.28571429 13:0.14285714 14:0.076923077 16:0.42857143 17:0.375 19:0.090909091 20:0.25 21:0.2 22:0.25 23:0.5 24:0.3 26:0.2 29:0.4 32:0.25 35:0.33333333 38:0.25 42:0.33333333 47:0.33333333 51:0.33333333 53:0.33333333 54:0.33333333 55:0.16666667 57:0.25 60:0.2 64:0.16666667 66:0.2 69:0.25 72:0.25 73:0.25 74:0.25 75:0.25 76:0.2 77:0.25 78:0.2 79:0.26086957 80:1 86:1 88:1 91:1 97:1 99:1 101:1 103:1 109:1 113:1 116:1 119:1 128:1 129:1 133:0.57322869 134:0.11924982 135:0.25944407 136:0.40289965 137:0.6886516 138:0.50613304 139:0.38506133 140:0.31280635 141:0.43147219 142:0.3904853 143:0.38747014 144:0.5068515 145:0.30913837 146:0.27244217 147:0.43478713 148:0.28011851 149:0.52357958 150:0.226097 151:0.33942944 152:0.33843356 153:0.40049489 154:0.31261228 155:0.25520242 156:0.39645329 157:0.83221508 158:0.60676228 159:0.49551666 160:0.43518313 161:0.57262045 162:0.46933383 163:0.60479657 164:0.600006 165:0.40962034 166:0.26425948 167:0.58725887 168:0.35425932 169:0.66898122 170:0.38072151 171:0.45644057 172:0.45345827 173:0.48408334 174:0.2716431 175:0.41570623 
-0.06142287821280523 1:0.61358266 2:0.60785803 3:0.77885235 4:0.61958858 5:0.2 6:0.47368421 7:0.5 8:0.375 9:0.076923077 10:0.25 11:0.16666667 13:0.14285714 14:0.30769231 15:0.33333333 16:0.28571429 17:0.125 19:0.36363636 20:0.5 22:0.5 23:0.16666667 26:0.2 29:0.2 31:0.25 34:0.2 41:0.2 45:0.25 46:0.33333333 47:0.16666667 49:0.16666667 50:0.33333333 52:0.16666667 53:0.33333333 56:0.25 62:0.25 63:0.4 64:0.5 69:0.25 70:0.33333333 71:0.16666667 73:0.25 79:0.60869565 80:1 87:1 91:1 92:1 93:1 98:1 102:1 104:1 109:1 111:1 116:1 118:1 125:1 133:0.66437148 134:0.079617834 135:0.60697182 136:0.89970857 137:0.71366897 138:0.81962453 139:0.73820031 140:0.79901123 141:0.89848839 142:0.74041514 143:0.46482503 144:0.77243016 145:0.77679748 146:0.68189553 147:0.69292822 148:0.66068581 149:0.69302211 150:0.50120258 151:0.61034138 152:0.54273686 153:0.6675612 154:0.59149312 155:0.46219635 156:0.99781899 157:0.84176721 158:0.8793595 159:0.83377482 160:0.8984384 161:0.87773968 162:0.85363475 163:0.61217222 164:0.66793324 165:0.82686366 166:0.79227905 167:0.7317504 168:0.80905619 169:0.70524764 170:0.59939434 171:0.67735261 172:0.65262604 173:0.87431535 174:0.65599265 175:0.5444469 
-0.125 1:0.56980027 2:0.53148588 3:0.66315036 4:0.52199206 5:0.35 6:0.42105263 7:0.44444444 8:0.3125 9:0.23076923 10:0.25 11:0.33333333 14:0.23076923 15:0.33333333 16:0.28571429 17:0.25 18:0.22222222 19:0.090909091 20:0.375 21:0.2 22:0.25 23:0.33333333 25:0.11111111 26:0.4 30:0.2 31:0.25 33:0.66666667 45:0.25 46:0.16666667 47:0.16666667 48:0.33333333 49:0.16666667 52:0.16666667 53:0.33333333 56:0.25 58:0.14285714 63:0.2 64:0.16666667 65:0.2 68:0.33333333 70:0.16666667 75:0.5 79:0.52173913 80:1 88:1 89:1 94:1 97:1 102:1 104:1 110:1 111:1 114:1 115:1 133:0.97865098 134:0.42321302 135:0.92075701 136:0.48255894 137:0.6069651 138:0.49852053 139:0.50688047 140:0.44873535 141:0.45865668 142:0.52931237 143:0.27135268 144:0.57924827 145:0.72403419 146:0.57593665 147:0.56925614 148:0.48908833 149:0.67957301 150:0.71610246 151:0.43710364 152:0.54889188 153:0.53870914 154:0.61028862 155:0.33295623 156:0.53799705 157:0.67991212 158:0.51841323 159:0.5298345 160:0.55092078 161:0.43569553 162:0.37951762 163:0.3744312 164:0.58421316 165:0.6465053 166:0.60568861 167:0.45580436 168:0.52283082 169:0.58381998 170:0.63897516 171:0.51787598 172:0.48332661 173:0.53645232 174:0.6128576 175:0.34483542 
0.0345996675042664 1:0.69503483 2:0.75721248 3:0.66315036 4:0.52060968 5:0.3 6:0.57894737 7:0.27777778 8:0.375 9:0.15384615 10:0.375 14:0.46153846 15:0.33333333 16:0.42857143 17:0.125 18:0.11111111 20:0.375 21:0.4 22:0.25 23:0.33333333 26:0.2 29:0.4 31:0.25 45:0.375 46:0.5 47:0.16666667 48:0.16666667 50:0.16666667 51:0.66666667 53:0.33333333 55:0.16666667 59:0.33333333 64:0.33333333 65:0.2 67:0.25 70:0.33333333 75:0.5 79:0.52173913 80:1 88:1 90:1 93:1 99:1 100:1 102:1 106:1 109:1 113:1 133:0.8684205 134:0.072894551 135:0.94063927 136:0.71747448 137:0.70514554 138:0.60018502 139:0.77798501 140:0.63178092 141:0.779375 142:0.59432668 143:0.59999055 144:0.72447027 145:0.91185258 146:0.70400709 147:0.82585665 148:0.69071018 149:0.63378428 150:0.49504977 151:0.6161577 152:0.45453472 153:0.41532949 154:0.42532288 155:0.42849964 156:0.74312321 157:0.72138553 158:0.69700826 159:0.74448355 160:0.74084443 161:0.77760149 162:0.51543473 163:0.54200086 164:0.56103986 165:0.83782258 166:0.76390757 167:0.75094355 168:0.70684739 169:0.54059993 170:0.53478611 171:0.60893856 172:0.41422494 173:0.42778643 174:0.56036079 175:0.42351989 
0.06674829944574966 1:0.46632369 2:0.482383 3:0.50282817 4:0.44283404 5:0.45 6:0.57894737 7:0.22222222 8:0.25 9:0.076923077 10:0.75 11:0.33333333 13:0.42857143 14:0.23076923 15:0.11111111 16:0.57142857 17:0.375 18:0.11111111 21:0.2 22:0.25 23:0.16666667 26:0.2 29:0.6 31:0.75 32:0.25 33:0.33333333 41:0.4 42:0.33333333 44:0.4 47:0.16666667 48:0.16666667 51:0.33333333 52:0.33333333 53:0.33333333 55:0.5 58:0.14285714 68:0.33333333 69:0.25 71:0.16666667 73:0.25 79:0.47826087 80:1 90:1 94:1 95:1 97:1 102:1 105:1 109:1 115:1 133:0.010290393 134:0.010615711 135:0.082041246 136:0.65036908 137:0.452794 138:0.57967871 139:0.73581691 140:0.72172501 141:0.76940802 142:0.64772061 143:0.5962171 144:0.83851689 145:0.78084833 146:0.54599849 147:0.64674654 148:0.46634347 149:0.4931145 150:0.63532122 151:0.42848994 152:0.60740586 153:0.63293953 154:0.33538295 155:0.53566087 156:0.482358 157:0.43843444 158:0.43603565 159:0.72291409 160:0.59142516 161:0.69495556 162:0.65179364 163:0.55326611 164:0.68396489 165:0.6172325 166:0.47680104 167:0.53884199 168:0.54778913 169:0.45764431 170:0.66069907 171:0.53789639 172:0.53955179 173:0.62844081 174:0.49056734 175:0.63176154 
-0.125 1:0.69503483 2:0.38594396 3:0.6443844 4:0.55346321 5:0.4 6:0.47368421 7:0.44444444 8:0.1875 9:0.076923077 10:0.625 11:0.16666667 12:0.14285714 13:0.42857143 14:0.15384615 15:0.33333333 16:0.28571429 17:0.375 18:0.11111111 19:0.27272727 22:0.25 23:0.16666667 26:0.2 28:0.4 29:0.2 31:0.5 32:0.25 38:0.25 41:0.4 43:0.25 44:0.2 45:0.125 46:0.16666667 49:0.33333333 52:0.33333333 55:0.33333333 56:0.25 60:0.2 62:0.125 70:0.16666667 71:0.16666667 73:0.25 79:0.56521739 80:1 91:1 93:1 94:1 96:1 103:1 106:1 108:1 112:1 122:1 133:0.75663014 134:0.10474168 135:0.59645425 136:0.50886156 137:0.47022303 138:0.37957767 139:0.36355146 140:0.5857121 141:0.50863122 142:0.45279633 143:0.41432296 144:0.47894643 145:0.63891226 146:0.34297454 147:0.5318513 148:0.51392303 149:0.51442635 150:0.58254899 151:0.56989035 152:0.51218514 153:0.52599739 154:0.58132442 155:0.6452001 156:0.51794689 157:0.59910886 158:0.47410395 159:0.54861828 160:0.7087407 161:0.63003465 162:0.61709021 163:0.41259279 164:0.51806658 165:0.75355421 166:0.31469119 167:0.59229262 168:0.6034162 169:0.59562431 170:0.48060727 171:0.67637484 172:0.54912372 173:0.64839774 174:0.52616161 175:0.66584076 
0.125 1:0.5038825 2:0.36757183 3:0.44527437 4:0.41238733 5:0.4 6:0.31578947 7:0.38888889 8:0.4375 9:0.23076923 10:0.375 12:0.14285714 14:0.15384615 15:0.11111111 16:0.57142857 17:0.5 19:0.18181818 20:0.125 22:0.25 23:0.66666667 24:0.1 26:0.4 27:0.25 29:0.2 31:0.5 39:0.33333333 45:0.125 46:0.16666667 47:0.16666667 50:0.16666667 52:0.33333333 53:0.66666667 55:0.16666667 60:0.4 65:0.2 70:0.16666667 72:0.25 73:0.5 74:0.5 77:0.25 79:0.39130435 80:1 88:1 91:1 96:1 97:1 102:1 107:1 110:1 113:1 119:1 132:1 133:0.59663581 134:0.015215853 135:0.086647071 136:0.4732273 137:0.62686884 138:0.62819685 139:0.54339436 140:0.44056098 141:0.45930651 142:0.57024392 143:0.46847728 144:0.57152756 145:0.66120723 146:0.39166286 147:0.53632843 148:0.44050037 149:0.55214569 150:0.65227641 151:0.41326184 152:0.2218174 153:0.43127312 154:0.40276159 155:0.42121367 156:0.46283683 157:0.6787347 158:0.73871633 159:0.61882739 160:0.54628913 161:0.7466529 162:0.71700174 163:0.64153833 164:0.77209708 165:0.68474063 166:0.53540068 167:0.67929265 168:0.63743604 169:0.61793063 170:0.78293071 171:0.5022904 172:0.43995366 173:0.49997492 174:0.66814991 175:0.51394069 
0.125 1:0.11236237 2:0.50158197 3:0.44527437 4:0.17253837 5:0.45 6:0.21052632 7:0.22222222 8:0.6875 9:0.15384615 10:0.125 11:0.16666667 12:0.71428571 13:0.14285714 15:0.11111111 16:0.28571429 17:0.25 19:0.090909091 20:0.125 21:0.6 22:0.5 23:0.16666667 24:0.3 27:0.5 32:0.25 36:0.33333333 37:0.5 38:0.25 39:0.33333333 43:0.25 47:0.16666667 48:0.16666667 51:0.33333333 52:0.16666667 57:0.5 63:0.2 66:0.2 67:0.25 68:0.33333333 69:0.25 70:0.16666667 71:0.16666667 72:0.25 74:0.25 76:0.2 78:0.2 79:0.17391304 80:1 87:1 88:1 89:1 94:1 98:1 99:1 102:1 106:1 107:1 113:1 115:1 118:1 130:1 133:0.92341019 134:0.35774947 135:0.77833222 136:0.37638623 137:0.32476817 138:0.33379894 139:0.33652014 140:0.5484752 141:0.16796871 142:0.36047411 143:0.26596002 144:0.42746496 145:0.56383729 146:0.37230445 147:0.55537256 148:0.326774 149:0.32992899 150:0.38494969 151:0.40678295 152:0.26357896 153:0.30992344 154:0.33078809 155:0.31766991 156:0.37524858 157:0.34165298 158:0.40924227 159:0.42445365 160:0.55708645 161:0.36398065 162:0.50987181 163:0.36894949 164:0.5143269 165:0.54571688 166:0.47761379 167:0.5718004 168:0.52374367 169:0.50019962 170:0.43540456 171:0.60751152 172:0.446764 173:0.34899783 174:0.63246644 175:0.39606135 
0.0720425899303522 1:0.61358266 2:0.57100117 3:0.56389849 4:0.46697158 5:0.35 6:0.26315789 7:0.55555556 8:0.375 9:0.23076923 10:0.125 11:0.33333333 12:0.14285714 13:0.14285714 14:0.15384615 15:0.22222222 16:0.14285714 17:0.25 19:0.27272727 20:0.5 22:0.375 23:0.5 27:0.25 30:0.2 35:0.33333333 37:0.25 40:0.16666667 44:0.2 46:0.16666667 47:0.16666667 49:0.16666667 50:0.16666667 53:0.33333333 55:0.16666667 60:0.2 63:0.4 64:0.33333333 65:0.4 70:0.5 73:0.25 74:0.5 79:0.47826087 80:1 99:1 101:1 105:1 109:1 124:1 133:0.59947993 134:0.021939137 135:0.12493299 136:0.58042531 137:0.58269918 138:0.55179182 139:0.53701714 140:0.45674334 141:0.56100174 142:0.55888869 143:0.30809413 144:0.54505226 145:0.57604662 146:0.70335572 147:0.58764998 148:0.28248114 149:0.51040058 150:0.49612575 151:0.55249821 152:0.63300787 153:0.47843701 154:0.61964297 155:0.46548598 156:0.61849404 157:0.70924991 158:0.68448557 159:0.58639383 160:0.58506973 161:0.70513682 162:0.60602311 163:0.53155727 164:0.62950684 165:0.68085125 166:0.79840192 167:0.62040436 168:0.63270676 169:0.67754111 170:0.64754214 171:0.75307026 172:0.72409944 173:0.69049006 174:0.78605083 175:0.46104985 
-0.125 1:0.37999556 2:0.46717077 3:0.3431175 4:0.28294328 5:0.55 6:0.15789474 7:0.38888889 8:0.4375 9:0.30769231 10:0.25 11:0.33333333 12:0.42857143 15:0.11111111 16:0.28571429 17:0.625 19:0.18181818 21:0.2 22:0.25 23:0.33333333 24:0.2 25:0.11111111 27:0.5 31:0.25 32:0.5 37:0.5 39:0.33333333 46:0.16666667 48:0.16666667 51:0.33333333 54:0.33333333 55:0.33333333 56:0.25 57:0.25 60:0.2 62:0.125 67:0.25 70:0.16666667 72:0.25 73:0.25 74:0.25 77:0.5 79:0.26086957 80:1 87:1 90:1 92:1 95:1 100:1 107:1 112:1 115:1 118:1 124:1 133:0.55074812 134:0.072894551 135:0.15859193 136:0.49236879 137:0.54196085 138:0.48555754 139:0.28106408 140:0.32231995 141:0.52908892 142:0.42111754 143:0.34325932 144:0.49983412 145:0.50166331 146:0.53426233 147:0.6435402 148:0.23024762 149:0.36139965 150:0.37962122 151:0.38423941 152:0.38276718 153:0.35621275 154:0.51165312 155:0.33935774 156:0.44494077 157:0.56493396 158:0.60200475 159:0.38174291 160:0.49598371 161:0.74406268 162:0.51888614 163:0.44413934 164:0.51494084 165:0.5910385 166:0.57271304 167:0.61551735 168:0.41095153 169:0.51012533 170:0.45457457 171:0.56327228 172:0.49045653 173:0.51543324 174:0.60528188 175:0.37565891 
0.08823989848332631 1:0.69503483 2:0.62410494 3:0.53570905 4:0.47934207 5:0.35 6:0.31578947 7:0.5 8:0.375 9:0.076923077 10:0.25 11:0.33333333 12:0.28571429 13:0.14285714 14:0.23076923 15:0.22222222 16:0.14285714 17:0.5 19:0.27272727 20:0.125 22:0.25 23:0.33333333 24:0.2 27:0.25 28:0.2 30:0.2 34:0.4 37:0.25 39:0.33333333 42:0.33333333 45:0.25 46:0.16666667 47:0.16666667 49:0.16666667 50:0.16666667 54:0.33333333 55:0.33333333 56:0.25 57:0.25 60:0.6 64:0.16666667 70:0.33333333 73:0.25 77:0.5 79:0.47826087 80:1 87:1 89:1 93:1 96:1 101:1 108:1 110:1 113:1 114:1 118:1 131:1 133:0.84555417 134:0.2866242 135:0.62358961 136:0.57906524 137:0.6269861 138:0.57958919 139:0.61863133 140:0.45853526 141:0.53803719 142:0.44313469 143:0.34084221 144:0.4994785 145:0.58883896 146:0.55600464 147:0.54786356 148:0.7259161 149:0.48552731 150:0.45475052 151:0.6605532 152:0.50851559 153:0.5176201 154:0.46846639 155:0.53524926 156:0.65574619 157:0.75441015 158:0.73669949 159:0.70612922 160:0.67254284 161:0.67389114 162:0.61300963 163:0.57860526 164:0.6568551 165:0.69301132 166:0.70611399 167:0.76876442 168:0.79227891 169:0.58222246 170:0.62977165 171:0.76954144 172:0.66123698 173:0.6725928 174:0.67915976 175:0.59961248 
-0.01238944708453899 1:0.39926016 2:0.52139683 3:0.3836975 4:0.4379599 5:0.45 6:0.21052632 7:0.5 8:0.375 9:0.30769231 10:0.125 11:0.33333333 12:0.28571429 13:0.14285714 14:0.15384615 15:0.22222222 17:0.375 18:0.22222222 19:0.18181818 20:0.25 23:0.5 24:0.2 25:0.11111111 26:0.2 27:0.25 29:0.2 32:0.25 34:0.2 39:0.33333333 40:0.16666667 44:0.2 45:0.125 46:0.16666667 48:0.33333333 57:0.25 58:0.14285714 61:0.16666667 63:0.2 65:0.2 66:0.2 74:0.25 75:0.25 77:0.5 79:0.39130435 80:1 83:1 85:1 88:1 91:1 92:1 94:1 100:1 103:1 109:1 110:1 112:1 116:1 119:1 128:1 133:0.62043403 134:0.018046709 135:0.23287671 136:0.66474841 137:0.58400376 138:0.44708526 139:0.5556394 140:0.49230703 141:0.49253266 142:0.55959474 143:0.46960276 144:0.46374342 145:0.65949419 146:0.52642049 147:0.54770649 148:0.44912125 149:0.52339532 150:0.44027239 151:0.51129388 152:0.67931132 153:0.51949461 154:0.41010132 155:0.41862698 156:0.64432217 157:0.58993165 158:0.57332762 159:0.55434535 160:0.4877947 161:0.41812886 162:0.59080596 163:0.63931913 164:0.54441643 165:0.65366719 166:0.57816406 167:0.59690198 168:0.52862941 169:0.43799821 170:0.45687453 171:0.50746655 172:0.59521868 173:0.63675511 174:0.43779914 175:0.28274322 
-0.125 1:0.78507348 2:0.51454911 3:0.78816598 4:0.60199419 5:0.4 6:0.21052632 7:0.72222222 8:0.1875 9:0.23076923 10:0.25 11:0.5 13:0.14285714 15:0.33333333 16:0.14285714 17:0.375 18:0.22222222 19:0.54545455 20:0.25 22:0.125 23:0.16666667 26:0.2 28:0.2 30:0.2 32:0.5 33:0.33333333 40:0.16666667 46:0.16666667 49:0.33333333 50:0.16666667 52:0.16666667 55:0.16666667 59:0.33333333 60:0.2 61:0.16666667 62:0.375 63:0.2 65:0.2 70:0.16666667 74:0.25 79:0.56521739 80:1 83:1 85:1 87:1 90:1 98:1 101:1 104:1 108:1 112:1 116:1 127:1 133:0.28043921 134:0.01556971 135:0.045293782 136:0.39436705 137:0.27640073 138:0.26010192 139:0.29626509 140:0.24685653 141:0.47112135 142:0.44715512 143:0.4321019 144:0.52919081 145:0.74855173 146:0.67831357 147:0.62541895 148:0.68039281 149:0.81285055 150:0.75976524 151:0.62489086 152:0.86355978 153:0.65774598 154:0.91574606 155:0.83359043 156:0.51286925 157:0.38167732 158:0.45005377 159:0.50542315 160:0.16962338 161:0.48953177 162:0.48046203 163:0.43310802 164:0.51796309 165:0.73597811 166:0.68796831 167:0.63204736 168:0.66309822 169:0.7047474 170:0.60322053 171:0.5552562 172:0.79269553 173:0.66144151 174:0.77809632 175:0.66104409 
-0.05448326552802356 1:0.49110261 2:0.71088387 3:0.58121897 4:0.53049008 5:0.45 6:0.42105263 7:0.44444444 8:0.1875 9:0.076923077 10:0.5 11:0.33333333 12:0.28571429 13:0.42857143 14:0.076923077 15:0.44444444 17:0.5 18:0.11111111 19:0.18181818 20:0.125 22:0.375 26:0.2 28:0.4 29:0.2 32:0.5 37:0.5 40:0.16666667 43:0.5 44:0.2 46:0.16666667 48:0.33333333 49:0.16666667 50:0.16666667 55:0.5 56:0.25 58:0.14285714 61:0.16666667 62:0.125 64:0.16666667 71:0.5 79:0.52173913 80:1 83:1 85:1 88:1 90:1 93:1 97:1 100:1 103:1 109:1 115:1 126:1 133:0.31464576 134:0.076433121 135:0.22235129 136:0.61261276 137:0.45291513 138:0.45364392 139:0.44185111 140:0.55131442 141:0.61968496 142:0.37060982 143:0.54973304 144:0.5558049 145:0.52761937 146:0.58617021 147:0.54785089 148:0.50319195 149:0.50305521 150:0.55588537 151:0.46349444 152:0.41428866 153:0.51770433 154:0.54325627 155:0.33548166 156:0.68066297 157:0.60691803 158:0.6689853 159:0.58989022 160:0.74700217 161:0.69261353 162:0.50176408 163:0.75353745 164:0.65275653 165:0.67571382 166:0.66963152 167:0.64757769 168:0.74017071 169:0.58409845 170:0.75862675 171:0.73301187 172:0.46743449 173:0.75260388 174:0.63951827 175:0.51515915 
-0.05598756806047711 1:0.40604948 2:0.6950012 3:0.4359805 4:0.46774983 5:0.35 6:0.42105263 7:0.33333333 8:0.4375 9:0.15384615 10:0.125 11:0.33333333 12:0.28571429 13:0.28571429 14:0.30769231 15:0.33333333 17:0.25 20:0.5 22:0.5 23:0.16666667 24:0.1 25:0.11111111 28:0.2 32:0.25 35:0.33333333 37:0.25 39:0.33333333 40:0.16666667 43:0.25 45:0.25 46:0.5 48:0.16666667 50:0.33333333 55:0.16666667 57:0.25 64:0.5 69:0.25 70:0.5 75:0.25 77:0.25 79:0.43478261 80:1 83:1 85:1 87:1 93:1 101:1 109:1 111:1 116:1 129:1 133:0.1496925 134:0.01556971 135:0.11088376 136:0.73323457 137:0.54453081 138:0.62135873 139:0.580639 140:0.50962708 141:0.52486011 142:0.33275808 143:0.37614548 144:0.4635523 145:0.26546193 146:0.597921 147:0.40034838 148:0.66176534 149:0.40208018 150:0.31402925 151:0.38352747 152:0.31814371 153:0.39127902 154:0.29615445 155:0.39434729 156:0.7240044 157:0.67141704 158:0.73098725 159:0.73489752 160:0.63064501 161:0.61771565 162:0.53345337 163:0.50438228 164:0.54438437 165:0.46576469 166:0.70167591 167:0.51706842 168:0.60386532 169:0.43772428 170:0.37180529 171:0.47303551 172:0.3651954 173:0.53344335 174:0.33891365 175:0.51341974 
0.125 1:0.52319537 2:0.62951077 3:0.4246293 4:0.44704122 5:0.35 6:0.52631579 7:0.22222222 8:0.4375 9:0.076923077 10:0.5 11:0.33333333 13:0.28571429 14:0.23076923 15:0.22222222 16:0.57142857 17:0.25 20:0.25 21:0.2 22:0.5 24:0.1 28:0.2 29:0.2 30:0.2 31:0.25 32:0.25 35:0.33333333 40:0.16666667 41:0.2 44:0.2 45:0.125 47:0.33333333 48:0.16666667 50:0.16666667 51:0.33333333 52:0.16666667 54:0.33333333 55:0.33333333 64:0.33333333 70:0.33333333 71:0.16666667 72:0.25 76:0.2 79:0.43478261 80:1 83:1 85:1 87:1 88:1 90:1 93:1 107:1 110:1 116:1 120:1 133:0.26736296 134:0.072540694 135:0.51661754 136:0.5667661 137:0.42839826 138:0.4438596 139:0.48088233 140:0.38497075 141:0.39276843 142:0.23455447 143:0.20790963 144:0.37163782 145:0.34393998 146:0.39579366 147:0.28650868 148:0.49649998 149:0.49024052 150:0.38076718 151:0.40839178 152:0.15977665 153:0.38665076 154:0.36583775 155:0.4149199 156:0.60281932 157:0.69794523 158:0.58721337 159:0.54045792 160:0.52565188 161:0.5401468 162:0.33771643 163:0.47936676 164:0.46481609 165:0.50009859 166:0.50427583 167:0.40437205 168:0.64169029 169:0.5896993 170:0.32458012 171:0.59001701 172:0.33312569 173:0.61804059 174:0.49006249 175:0.52393614 
0.125 1:0.50033308 2:0.62572014 3:0.61358266 4:0.60646268 5:0.3 6:0.42105263 7:0.55555556 8:0.25 10:0.5 11:0.16666667 12:0.14285714 13:0.28571429 14:0.30769231 15:0.22222222 16:0.14285714 17:0.375 19:0.54545455 20:0.125 22:0.125 23:0.16666667 24:0.1 28:0.2 29:0.6 32:0.25 37:0.25 41:0.2 43:0.25 45:0.25 46:0.33333333 47:0.16666667 49:0.33333333 54:0.33333333 55:0.5 60:0.4 62:0.375 63:0.2 69:0.25 74:0.25 77:0.25 79:0.60869565 80:1 83:1 85:1 90:1 96:1 101:1 104:1 105:1 108:1 110:1 112:1 116:1 117:1 120:1 123:1 127:1 131:1 133:0.66089385 134:0.068648266 135:0.39091934 136:0.46198982 137:0.30952849 138:0.49032035 139:0.35899741 140:0.44748081 141:0.41171838 142:0.38572302 143:0.29894582 144:0.32866866 145:0.40767151 146:0.48605958 147:0.56139295 148:0.3732586 149:0.54134699 150:0.48065725 151:0.65523044 152:0.36035132 153:0.66497802 154:0.52425019 155:0.68542924 156:0.44593243 157:0.59089279 158:0.59829484 159:0.53961142 160:0.57768385 161:0.61647214 162:0.54195903 163:0.48966909 164:0.49066853 165:0.58484417 166:0.6112037 167:0.59162321 168:0.48064306 169:0.67869269 170:0.43327308 171:0.75692423 172:0.43567295 173:0.84484462 174:0.6764936 175:0.7545972 
0.125 1:0.40604948 2:0.6950012 3:0.61370245 4:0.63845004 5:0.4 6:0.26315789 7:0.72222222 8:0.125 10:0.375 11:0.66666667 14:0.15384615 15:0.44444444 17:0.875 19:0.36363636 20:0.25 22:0.125 23:0.16666667 29:0.2 30:0.4 32:0.5 34:0.2 35:0.33333333 45:0.25 46:0.16666667 48:0.33333333 49:0.33333333 55:0.5 56:0.75 60:0.4 62:0.125 63:0.2 64:0.16666667 65:0.2 71:0.16666667 73:0.25 79:0.60869565 80:1 83:1 85:1 101:1 107:1 110:1 111:1 124:1 132:1 133:0.0018764687 134:0.0031847134 135:0.024612374 136:0.50013626 137:0.53167859 138:0.50485155 139:0.25282313 140:0.2054731 141:0.28022879 142:0.37731901 143:0.44019537 144:0.56984503 145:0.44364129 146:0.55997232 147:0.68226693 148:0.67881277 149:0.62276502 150:0.62710511 151:0.53701254 152:0.78015602 153:0.54496621 154:0.76139002 155:0.47579205 156:0.57954826 157:0.6573748 158:0.67987508 159:0.5298457 160:0.48551749 161:0.47927879 162:0.44834668 163:0.66503819 164:0.73896275 165:0.63055061 166:0.64056227 167:0.72983515 168:0.90653252 169:0.68344988 170:0.77131792 171:0.77240551 172:0.86700146 173:0.83228202 174:0.78755675 175:0.5317866 
0.06294946780790424 1:0.61321882 2:0.55899895 3:0.5038825 4:0.48928595 5:0.4 6:0.52631579 7:0.27777778 8:0.3125 10:0.5 11:0.33333333 12:0.14285714 13:0.42857143 14:0.30769231 15:0.22222222 16:0.28571429 17:0.5 20:0.125 22:0.375 23:0.16666667 24:0.1 29:0.6 31:0.25 32:0.5 39:0.33333333 41:0.2 42:0.33333333 43:0.25 44:0.4 45:0.125 46:0.16666667 47:0.16666667 48:0.16666667 50:0.16666667 52:0.16666667 53:0.33333333 55:0.5 64:0.16666667 69:0.25 70:0.16666667 71:0.16666667 73:0.25 76:0.2 79:0.47826087 80:1 83:1 85:1 87:1 88:1 90:1 93:1 101:1 106:1 107:1 110:1 113:1 130:1 132:1 133:0.20889316 134:0.04423213 135:0.31501069 136:0.43719407 137:0.2183165 138:0.29007187 139:0.47842966 140:0.26711351 141:0.29874648 142:0.30636089 143:0.33836404 144:0.41357768 145:0.42278041 146:0.55449356 147:0.38539347 148:0.64404729 149:0.59702328 150:0.60120422 151:0.60187612 152:0.45247591 153:0.45370425 154:0.58669386 155:0.74067832 156:0.48394452 157:0.41072337 158:0.50526179 159:0.65600323 160:0.41867935 161:0.41593938 162:0.42026109 163:0.57688102 164:0.59579089 165:0.5816696 166:0.71295591 167:0.56403546 168:0.82169917 169:0.66117274 170:0.79413825 171:0.79609536 172:0.55391039 173:0.63219491 174:0.76855913 175:0.75496356 
-0.09311688137968969 1:0.3022842 2:0.64631637 3:0.51111903 4:0.50213177 5:0.2 6:0.10526316 7:0.72222222 8:0.5625 10:0.125 11:0.33333333 12:0.14285714 15:0.33333333 17:0.375 19:0.45454545 20:0.625 22:0.25 23:0.5 24:0.3 29:0.2 32:0.25 35:0.33333333 38:0.25 46:0.16666667 49:0.33333333 50:0.16666667 55:0.16666667 56:0.25 57:0.25 60:0.4 62:0.125 63:0.4 64:0.16666667 65:0.2 66:0.4 71:0.33333333 74:0.5 75:0.25 76:0.2 77:0.25 78:0.2 79:0.47826087 80:1 83:1 85:1 92:1 95:1 98:1 101:1 103:1 109:1 112:1 116:1 123:1 125:1 128:1 133:0.85204517 134:0.30537863 135:0.66439239 136:0.79864498 137:0.64657828 138:0.68684635 139:0.57156715 140:0.50786362 141:0.58291607 142:0.6007217 143:0.34540098 144:0.39673635 145:0.40156633 146:0.55676141 147:0.61254406 148:0.45172921 149:0.5390908 150:0.30335735 151:0.62898891 152:0.6288829 153:0.55189314 154:0.47049873 155:0.34763378 156:0.85269485 157:0.76501943 158:0.81132219 159:0.66482717 160:0.57657815 161:0.66215144 162:0.69552777 163:0.38204342 164:0.52126576 165:0.60310937 166:0.63806323 167:0.61391666 168:0.55986339 169:0.60620478 170:0.34666506 171:0.67264003 172:0.62699744 173:0.68577645 174:0.57883527 175:0.36016929 
-0.125 1:0.71411512 2:0.51684731 3:0.77120049 4:0.53673953 5:0.4 6:0.47368421 7:0.44444444 8:0.1875 10:0.5 11:0.5 12:0.14285714 13:0.42857143 14:0.30769231 15:0.22222222 16:0.14285714 17:0.5 18:0.11111111 19:0.090909091 20:0.125 22:0.125 23:0.33333333 28:0.2 29:0.4 30:0.2 32:0.5 38:0.25 41:0.2 42:0.66666667 44:0.4 45:0.25 46:0.16666667 48:0.33333333 53:0.33333333 55:0.5 57:0.25 58:0.14285714 61:0.16666667 64:0.16666667 72:0.25 74:0.25 75:0.25 79:0.56521739 80:1 83:1 85:1 88:1 91:1 93:1 94:1 97:1 106:1 109:1 111:1 119:1 122:1 133:0.66431645 134:0.077140835 135:0.4392805 136:0.62009508 137:0.60697784 138:0.60973097 139:0.64194367 140:0.65768585 141:0.68652906 142:0.61917665 143:0.63804244 144:0.61287546 145:0.65558975 146:0.67138177 147:0.73991393 148:0.54670815 149:0.72940744 150:0.65061611 151:0.67642749 152:0.50892987 153:0.73048805 154:0.41866688 155:0.6029364 156:0.54127775 157:0.54439006 158:0.56439539 159:0.65386491 160:0.66716743 161:0.67754187 162:0.64982473 163:0.61928692 164:0.61831827 165:0.65444247 166:0.79612986 167:0.76730961 168:0.65545306 169:0.74371451 170:0.6467038 171:0.75984895 172:0.6015484 173:0.73706916 174:0.56075812 175:0.61573685 
-0.02356494196940737 1:0.59184905 2:0.35389883 3:0.78011255 4:0.46940612 5:0.25 6:0.26315789 7:0.55555556 8:0.5 10:0.125 11:0.33333333 12:0.28571429 15:0.33333333 16:0.28571429 17:0.25 18:0.22222222 19:0.27272727 20:0.375 21:0.4 22:0.375 23:0.33333333 24:0.1 32:0.25 35:0.33333333 37:0.25 39:0.33333333 47:0.16666667 49:0.16666667 50:0.16666667 51:0.66666667 57:0.5 58:0.14285714 60:0.2 62:0.125 63:0.2 64:0.16666667 65:0.4 68:0.33333333 71:0.33333333 72:0.25 74:0.25 76:0.2 79:0.47826087 80:1 83:1 85:1 86:1 91:1 92:1 95:1 96:1 99:1 101:1 102:1 104:1 108:1 113:1 115:1 133:0.29564957 134:0.06935598 135:0.20176321 136:0.50530514 137:0.66355424 138:0.48555779 139:0.59180179 140:0.21744249 141:0.55486096 142:0.43297204 143:0.27044489 144:0.57765676 145:0.57199104 146:0.42015999 147:0.58875364 148:0.6680615 149:0.47680985 150:0.51066028 151:0.56801605 152:0.66023399 153:0.43273215 154:0.6053018 155:0.5816251 156:0.46536446 157:0.71075563 158:0.48562374 159:0.61016075 160:0.31377082 161:0.57153958 162:0.53814964 163:0.44004681 164:0.60521386 165:0.65712428 166:0.56929362 167:0.64495447 168:0.69656668 169:0.45704918 170:0.50978766 171:0.52635738 172:0.63340416 173:0.60854168 174:0.58204213 175:0.62528124 
-0.125 1:0.19591328 2:0.385641 3:0.76730194 4:0.3230477 5:0.3 6:0.31578947 7:0.33333333 8:0.625 10:0.125 11:0.33333333 12:0.42857143 13:0.14285714 14:0.15384615 15:0.11111111 16:0.28571429 17:0.125 18:0.22222222 19:0.090909091 20:0.25 21:0.6 22:0.25 23:0.33333333 24:0.3 32:0.25 35:0.33333333 36:0.33333333 39:0.66666667 41:0.2 44:0.2 45:0.125 46:0.16666667 49:0.16666667 53:0.66666667 57:0.25 58:0.28571429 61:0.16666667 64:0.16666667 68:0.33333333 72:0.5 75:0.25 76:0.2 78:0.2 79:0.34782609 80:1 83:1 85:1 86:1 88:1 89:1 95:1 98:1 106:1 109:1 111:1 115:1 125:1 133:0.67747962 134:0.17162067 135:0.3733839 136:0.5096644 137:0.44622386 138:0.37791477 139:0.28090135 140:0.22982547 141:0.36328705 142:0.38926042 143:0.36403312 144:0.40164256 145:0.41065312 146:0.43045027 147:0.50889546 148:0.47760925 149:0.53410612 150:0.33273776 151:0.24469357 152:0.30824866 153:0.26896119 154:0.27093148 155:0.42183977 156:0.45446877 157:0.28456066 158:0.33288067 159:0.23613411 160:0.15593052 161:0.23347698 162:0.2625773 163:0.32645007 164:0.42823441 165:0.3755036 166:0.37826065 167:0.44103848 168:0.45209015 169:0.37969739 170:0.35113795 171:0.34011561 172:0.31086008 173:0.27184144 174:0.43855524 175:0.34732528 
0.02170247475535314 1:0.59203639 2:0.42401538 3:0.71411512 4:0.48583388 5:0.45 6:0.31578947 7:0.5 8:0.25 9:0.15384615 10:0.125 11:0.83333333 12:0.14285714 13:0.42857143 15:0.11111111 16:0.28571429 17:0.375 18:0.22222222 19:0.27272727 20:0.125 22:0.5 30:0.2 32:0.25 33:0.33333333 34:0.4 35:0.33333333 37:0.25 41:0.2 42:0.66666667 44:0.2 49:0.16666667 52:0.33333333 57:0.25 59:0.33333333 60:0.4 61:0.16666667 64:0.16666667 69:0.5 70:0.16666667 72:0.25 79:0.47826087 80:1 83:1 89:1 94:1 99:1 104:1 108:1 115:1 133:0.23681392 134:0.13481953 135:0.71558542 136:0.41000949 137:0.43776367 138:0.26682119 139:0.36960653 140:0.46128644 141:0.40906279 142:0.36672233 143:0.39985115 144:0.52918935 145:0.59813158 146:0.53992014 147:0.55283199 148:0.75812289 149:0.58140146 150:0.87109355 151:0.57922861 152:0.79586654 153:0.66904411 154:0.82180035 155:0.70852589 156:0.45553846 157:0.62313445 158:0.52056376 159:0.61552752 160:0.42494252 161:0.5344764 162:0.25954905 163:0.4715709 164:0.57111063 165:0.66831536 166:0.6557678 167:0.6275334 168:0.76839098 169:0.49032942 170:0.89458491 171:0.67457271 172:0.7582975 173:0.66219153 174:0.79500651 175:0.72551414 
-0.0258584165384664 1:0.28479522 2:0.44390092 3:0.59203639 4:0.44104912 5:0.4 6:0.36842105 7:0.38888889 8:0.375 9:0.15384615 10:0.25 11:0.16666667 12:0.42857143 13:0.42857143 14:0.15384615 15:0.33333333 17:0.25 19:0.18181818 20:0.25 22:0.5 23:0.16666667 24:0.1 25:0.11111111 27:0.25 28:0.2 29:0.2 34:0.2 37:0.5 39:0.33333333 40:0.16666667 43:0.5 45:0.25 46:0.16666667 49:0.16666667 50:0.33333333 55:0.33333333 60:0.2 64:0.16666667 65:0.2 69:0.5 71:0.33333333 73:0.25 76:0.2 79:0.43478261 80:1 83:1 87:1 93:1 94:1 95:1 99:1 107:1 110:1 111:1 122:1 133:0.93258557 134:0.36234961 135:0.78834045 136:0.59207604 137:0.44043486 138:0.42000734 139:0.39963785 140:0.44496315 141:0.53769136 142:0.36536075 143:0.37295631 144:0.36661603 145:0.46148809 146:0.51842758 147:0.38749618 148:0.33068172 149:0.23019355 150:0.52916102 151:0.40141467 152:0.42781498 153:0.59558246 154:0.3984923 155:0.49003982 156:0.60829633 157:0.59700331 158:0.51745051 159:0.51685468 160:0.50621816 161:0.66251443 162:0.61003926 163:0.51235942 164:0.5516323 165:0.57102996 166:0.66693257 167:0.63859717 168:0.39522646 169:0.37137195 170:0.53780213 171:0.60663337 172:0.44716743 173:0.77446434 174:0.49413583 175:0.45711765 
-0.125 1:0.30530944 2:0.60560633 3:0.24243179 4:0.34453347 5:0.35 6:0.15789474 7:0.44444444 8:0.625 9:0.076923077 10:0.125 11:0.5 12:0.28571429 13:0.14285714 15:0.22222222 16:0.14285714 17:0.375 19:0.18181818 20:0.375 21:0.2 22:0.375 23:0.16666667 24:0.4 31:0.25 32:0.25 34:0.2 35:0.33333333 37:0.25 39:0.33333333 43:0.25 46:0.16666667 49:0.16666667 50:0.16666667 51:0.33333333 55:0.16666667 56:0.25 57:0.25 60:0.4 66:0.6 67:0.25 69:0.25 70:0.16666667 71:0.16666667 75:0.25 76:0.4 77:0.25 79:0.30434783 80:1 83:1 91:1 98:1 100:1 103:1 112:1 114:1 116:1 125:1 126:1 128:1 133:0.29659786 134:0.086694975 135:0.61742096 136:0.56442293 137:0.40198768 138:0.47794542 139:0.35650645 140:0.5063388 141:0.42621685 142:0.45104918 143:0.16112152 144:0.072909669 145:0.36474223 146:0.55194756 147:0.31118487 148:0.092650944 149:0.34108109 150:0.41445041 151:0.23309892 152:0.24499409 153:0.30474397 154:0.34616034 155:0.4222086 156:0.56074148 157:0.47248774 158:0.63857204 159:0.44682288 160:0.59650374 161:0.38878618 162:0.47192615 163:0.37308392 164:0.33723208 165:0.48823477 166:0.62521651 167:0.36767993 168:0.24228943 169:0.42792615 170:0.35731401 171:0.38718479 172:0.30803637 173:0.40962382 174:0.50153025 175:0.39907398 
0.125 1:0.5438914 2:0.46575702 3:0.52319537 4:0.41045332 5:0.35 6:0.47368421 7:0.27777778 8:0.4375 9:0.076923077 10:0.25 11:0.33333333 12:0.28571429 13:0.42857143 14:0.15384615 15:0.11111111 16:0.42857143 17:0.125 19:0.18181818 20:0.25 21:0.2 22:0.75 27:0.25 28:0.2 31:0.25 34:0.4 36:0.33333333 37:0.25 40:0.16666667 41:0.2 42:0.33333333 44:0.2 46:0.16666667 47:0.16666667 50:0.16666667 52:0.5 57:0.25 60:0.2 63:0.2 64:0.33333333 69:0.25 70:0.5 72:0.25 79:0.43478261 80:1 83:1 86:1 87:1 90:1 92:1 96:1 98:1 100:1 104:1 108:1 112:1 114:1 115:1 125:1 126:1 127:1 133:0.36376115 134:0.14366596 135:0.41793808 136:0.45929032 137:0.25123242 138:0.40155785 139:0.3775928 140:0.46824916 141:0.55670921 142:0.36861731 143:0.39712605 144:0.41541881 145:0.45371884 146:0.45279237 147:0.5617985 148:0.4321337 149:0.51119813 150:0.40137602 151:0.43247238 152:0.31176338 153:0.58821426 154:0.62129151 155:0.73328594 156:0.43175536 157:0.27447721 158:0.5157155 159:0.52930454 160:0.56274232 161:0.65608184 162:0.39613857 163:0.66174498 164:0.49105218 165:0.54912276 166:0.65215292 167:0.65654227 168:0.47382572 169:0.59384146 170:0.49104512 171:0.47739081 172:0.46513994 173:0.65868279 174:0.62651647 175:0.77149381 
-0.03544931891532833 1:0.32158135 2:0.6153897 3:0.50033308 4:0.4926051 5:0.45 6:0.21052632 7:0.66666667 8:0.1875 9:0.15384615 10:0.375 11:0.5 12:0.14285714 13:0.14285714 14:0.15384615 15:0.22222222 17:0.5 19:0.45454545 20:0.25 21:0.2 23:0.33333333 26:0.4 29:0.6 32:0.5 34:0.2 38:0.25 42:0.33333333 44:0.2 46:0.33333333 49:0.33333333 55:0.16666667 57:0.25 60:0.4 62:0.125 63:0.2 65:0.2 68:0.33333333 74:0.25 75:0.25 79:0.52173913 80:1 83:1 86:1 88:1 91:1 92:1 94:1 100:1 102:1 105:1 109:1 112:1 119:1 124:1 133:0.66031538 134:0.067232838 135:0.38285915 136:0.47783802 137:0.50951952 138:0.31206423 139:0.46991034 140:0.29052698 141:0.47270492 142:0.41911146 143:0.39655848 144:0.70282455 145:0.67578389 146:0.46663978 147:0.57552863 148:0.51391879 149:0.44049383 150:0.58262008 151:0.42086166 152:0.49853301 153:0.44712705 154:0.38973672 155:0.44980981 156:0.50089414 157:0.43327302 158:0.43242697 159:0.53850964 160:0.49525925 161:0.57745082 162:0.49014985 163:0.51800594 164:0.76982161 165:0.71606666 166:0.51320882 167:0.63011805 168:0.78413282 169:0.49116346 170:0.61170489 171:0.60703793 172:0.56152091 173:0.5853821 174:0.49740885 175:0.51157206 
0.09612862614214733 1:0.52319537 2:0.56674695 3:0.42509053 4:0.53842154 5:0.3 6:0.21052632 7:0.66666667 8:0.375 11:0.5 12:0.28571429 14:0.15384615 15:0.22222222 16:0.14285714 17:0.5 18:0.11111111 19:0.45454545 20:0.25 21:0.2 22:0.25 23:0.33333333 24:0.1 34:0.6 37:0.5 45:0.25 46:0.16666667 48:0.16666667 49:0.16666667 51:0.33333333 56:0.25 57:0.5 59:0.33333333 60:0.4 61:0.16666667 63:0.4 65:0.2 66:0.2 68:0.33333333 70:0.16666667 71:0.16666667 73:0.25 74:0.25 77:0.25 79:0.52173913 80:1 83:1 86:1 91:1 99:1 108:1 110:1 112:1 124:1 131:1 132:1 133:0.57767777 134:0.25406936 135:0.73911216 136:0.50124234 137:0.64895449 138:0.46509872 139:0.35626144 140:0.36255061 141:0.44047406 142:0.43009401 143:0.43183039 144:0.591095 145:0.45915597 146:0.53401386 147:0.47577657 148:0.2489161 149:0.44933512 150:0.50342651 151:0.35499899 152:0.54662716 153:0.37884912 154:0.51549777 155:0.4188902 156:0.4437824 157:0.60079441 158:0.50226657 159:0.55617383 160:0.46232497 161:0.50341801 162:0.49288634 163:0.44552945 164:0.64918436 165:0.44581773 166:0.55185349 167:0.50468896 168:0.45797015 169:0.35469026 170:0.54973889 171:0.4515623 172:0.63394729 173:0.46926211 174:0.55874171 175:0.40047647 
0.08079218569389596 1:0.78011255 2:0.87810873 3:0.69503483 4:0.8257567 5:0.1 6:0.63157895 7:0.61111111 8:0.1875 10:0.125 11:0.16666667 14:0.53846154 15:0.55555556 17:0.125 18:0.22222222 19:0.45454545 20:0.375 22:0.375 30:0.2 34:0.2 45:0.625 46:0.5 49:0.33333333 50:0.33333333 55:0.16666667 58:0.14285714 60:0.2 61:0.16666667 62:0.25 63:0.2 64:0.5 70:0.33333333 79:0.82608696 80:1 83:1 91:1 92:1 104:1 108:1 110:1 112:1 114:1 115:1 123:1 127:1 131:1 133:0.18924654 134:0.10120311 135:0.53715861 136:0.71155364 137:0.64909526 138:0.70014596 139:0.77260815 140:0.82008321 141:0.81675746 142:0.77713893 143:0.52552289 144:0.79359458 145:0.60657692 146:0.82435425 147:0.78472837 148:0.70970515 149:0.72556602 150:0.72184083 151:0.71048907 152:0.56228826 153:0.76471263 154:0.65418947 155:0.68510618 156:0.79265203 157:0.65207258 158:0.79025333 159:0.79724455 160:0.75958378 161:0.75658681 162:0.8761209 163:0.60995853 164:0.719756 165:0.60849533 166:0.76437369 167:0.7934931 168:0.66926789 169:0.68516633 170:0.72344098 171:0.65934065 172:0.56479289 173:0.78863559 174:0.65842262 175:0.59605098 
0.04458126897915491 1:0.30343437 2:0.45913122 3:0.64440919 4:0.33917454 5:0.6 6:0.21052632 7:0.38888889 8:0.3125 9:0.30769231 10:0.25 11:0.5 12:0.28571429 13:0.14285714 14:0.076923077 15:0.22222222 16:0.14285714 17:0.5 19:0.18181818 20:0.125 21:0.4 22:0.25 24:0.1 25:0.11111111 26:0.2 27:0.25 29:0.4 32:0.5 34:0.2 36:0.33333333 39:0.33333333 40:0.16666667 44:0.2 47:0.16666667 48:0.16666667 50:0.16666667 51:0.33333333 55:0.16666667 56:0.25 57:0.25 60:0.2 62:0.125 64:0.16666667 67:0.25 68:0.33333333 71:0.33333333 76:0.2 79:0.30434783 80:1 83:1 89:1 94:1 95:1 99:1 107:1 113:1 133:0.82025456 134:0.25265393 135:0.5496827 136:0.52089893 137:0.51133212 138:0.40677739 139:0.34126745 140:0.57851582 141:0.56100856 142:0.46368012 143:0.24449296 144:0.43183952 145:0.40835179 146:0.52861019 147:0.47088445 148:0.13835139 149:0.36618618 150:0.45247068 151:0.35712087 152:0.47346146 153:0.42133027 154:0.42100692 155:0.53763747 156:0.5441186 157:0.59959663 158:0.48134656 159:0.36308686 160:0.63637127 161:0.59597234 162:0.59957228 163:0.40932031 164:0.52981267 165:0.52839454 166:0.60322917 167:0.70172944 168:0.31756066 169:0.31367691 170:0.55139437 171:0.52076629 172:0.5477376 173:0.55298251 174:0.41892877 175:0.51169602 
-0.125 1:0.51111903 2:0.44253828 3:0.56389849 4:0.43700663 5:0.5 6:0.10526316 7:0.66666667 8:0.25 9:0.23076923 10:0.25 11:0.66666667 12:0.14285714 13:0.42857143 17:0.375 19:0.63636364 20:0.25 22:0.125 23:0.16666667 24:0.1 26:0.2 27:0.25 28:0.4 34:0.4 35:0.66666667 40:0.33333333 42:0.33333333 44:0.2 55:0.16666667 56:0.25 60:0.6 62:0.5 64:0.16666667 66:0.2 70:0.16666667 74:0.25 77:0.25 79:0.43478261 80:1 83:1 87:1 88:1 93:1 94:1 96:1 101:1 105:1 109:1 116:1 118:1 122:1 133:0.32271998 134:0.092710545 135:0.26970388 136:0.42546213 137:0.54007315 138:0.38881178 139:0.41646594 140:0.13080741 141:0.39492683 142:0.37570418 143:0.25024554 144:0.40319029 145:0.61406096 146:0.28873719 147:0.42059931 148:0.43783095 149:0.55809982 150:0.44884441 151:0.40866014 152:0.50256199 153:0.35602702 154:0.29347357 155:0.34096593 156:0.41476568 157:0.69047381 158:0.47993352 159:0.5398767 160:0.37016672 161:0.51453217 162:0.47948576 163:0.36950616 164:0.5326536 165:0.6551884 166:0.29800639 167:0.52125374 168:0.62597801 169:0.60644833 170:0.54875653 171:0.50761129 172:0.59092106 173:0.58098218 174:0.42845478 175:0.43105418 
0.125 1:0.69503483 2:0.81676467 3:0.61358266 4:0.72779909 5:0.1 6:0.42105263 7:0.72222222 8:0.3125 10:0.125 11:0.16666667 14:0.23076923 15:0.44444444 16:0.28571429 17:0.125 18:0.33333333 19:0.45454545 20:0.375 22:0.25 23:0.5 31:0.25 34:0.2 45:0.125 46:0.5 49:0.16666667 50:0.33333333 52:0.16666667 53:0.33333333 55:0.16666667 58:0.14285714 59:0.33333333 60:0.2 61:0.16666667 62:0.25 63:0.2 64:0.16666667 65:0.4 70:0.33333333 74:0.25 79:0.73913043 80:1 83:1 91:1 92:1 95:1 99:1 101:1 104:1 105:1 108:1 112:1 114:1 127:1 133:0.2280297 134:0.12880396 135:0.68365641 136:0.6315662 137:0.51545392 138:0.59269847 139:0.5918311 140:0.55407012 141:0.65441072 142:0.68047366 143:0.53892795 144:0.74360136 145:0.52551723 146:0.75534893 147:0.75256202 148:0.5172567 149:0.67759595 150:0.65253843 151:0.87012324 152:0.67921669 153:0.57787038 154:0.87364901 155:0.86744478 156:0.60716712 157:0.59276998 158:0.65100458 159:0.62268944 160:0.49107022 161:0.67926785 162:0.71689602 163:0.60336949 164:0.62026578 165:0.50810886 166:0.77259324 167:0.68871881 168:0.51211163 169:0.63884766 170:0.54287017 171:0.76298024 172:0.65376818 173:0.61080946 174:0.78515274 175:0.79023797 
0.125 1:0.043865236 2:0.74653743 3:0.45756604 4:0.4176089 5:0.35 6:0.26315789 7:0.5 8:0.4375 9:0.076923077 10:0.25 11:0.33333333 12:0.28571429 13:0.14285714 14:0.076923077 15:0.11111111 16:0.42857143 17:0.25 18:0.22222222 19:0.36363636 21:0.4 22:0.125 23:0.33333333 24:0.2 27:0.25 29:0.2 30:0.2 32:0.25 34:0.2 36:0.33333333 39:0.33333333 41:0.2 47:0.33333333 49:0.16666667 51:0.33333333 53:0.33333333 54:0.33333333 56:0.25 57:0.25 58:0.14285714 59:0.33333333 61:0.33333333 62:0.25 67:0.25 69:0.25 73:0.25 76:0.2 77:0.25 79:0.43478261 80:1 83:1 89:1 92:1 101:1 108:1 113:1 114:1 123:1 129:1 133:0.513151 134:0.22116065 135:0.64337758 136:0.43950612 137:0.46265505 138:0.42624229 139:0.45480043 140:0.3762413 141:0.21525765 142:0.37824733 143:0.27019006 144:0.56960243 145:0.20835666 146:0.6731524 147:0.37605098 148:0.32779616 149:0.53916393 150:0.52632509 151:0.53931878 152:0.45943853 153:0.42105636 154:0.50330602 155:0.52286606 156:0.32578632 157:0.42546141 158:0.5254449 159:0.52510606 160:0.32460313 161:0.1992686 162:0.36228665 163:0.23455238 164:0.46653587 165:0.38458648 166:0.50168464 167:0.33947555 168:0.45947812 169:0.42501349 170:0.51601437 171:0.51522073 172:0.39853833 173:0.42797485 174:0.4309226 175:0.41164525 
-0.125 1:0.55943067 2:0.66591848 3:0.59184905 4:0.59099076 5:0.3 6:0.26315789 7:0.72222222 8:0.25 10:0.25 11:0.5 13:0.14285714 14:0.15384615 15:0.11111111 16:0.28571429 17:0.375 18:0.11111111 19:0.63636364 20:0.25 21:0.2 22:0.125 23:0.33333333 29:0.2 30:0.2 32:0.25 34:0.4 45:0.125 47:0.33333333 49:0.16666667 52:0.16666667 53:0.33333333 55:0.33333333 56:0.25 58:0.14285714 60:0.2 61:0.16666667 62:0.375 63:0.4 65:0.2 68:0.33333333 69:0.25 73:0.25 74:0.25 79:0.60869565 80:1 83:1 86:1 87:1 89:1 93:1 96:1 101:1 103:1 104:1 109:1 113:1 133:0.71032893 134:0.10828025 135:0.83682071 136:0.75616736 137:0.72574931 138:0.71510568 139:0.52595544 140:0.44734292 141:0.58775084 142:0.4647658 143:0.39034894 144:0.48445715 145:0.61742379 146:0.56178359 147:0.66653473 148:0.60378686 149:0.537299 150:0.45708449 151:0.49523908 152:0.54474281 153:0.51966226 154:0.41742977 155:0.2690161 156:0.70828396 157:0.78950439 158:0.84227992 159:0.73823552 160:0.60021866 161:0.65221553 162:0.61052839 163:0.57203161 164:0.65738787 165:0.73992732 166:0.53336419 167:0.80620935 168:0.77400185 169:0.58888123 170:0.51615854 171:0.6439706 172:0.55793269 173:0.61500977 174:0.66119084 175:0.33132184 
-0.125 1:0.57432306 2:0.91788044 3:0.67433756 4:0.80666524 5:0.1 6:0.52631579 7:0.72222222 8:0.1875 10:0.125 11:0.16666667 13:0.14285714 14:0.30769231 15:0.33333333 16:0.28571429 18:0.55555556 19:0.63636364 20:0.125 22:0.125 23:0.33333333 34:0.2 41:0.2 44:0.2 45:0.25 46:0.33333333 49:0.5 52:0.16666667 53:0.33333333 58:0.42857143 59:0.33333333 61:0.66666667 62:0.25 63:0.2 65:0.2 72:0.25 74:0.25 79:0.82608696 80:1 83:1 88:1 90:1 92:1 104:1 109:1 110:1 111:1 115:1 124:1 127:1 133:0.086846 134:0.013092711 135:0.099813144 136:0.87161589 137:0.82383543 138:0.86258082 139:0.89349909 140:0.56526169 141:0.67445935 142:0.71134253 143:0.62634721 144:0.84208615 145:0.71276185 146:0.59148078 147:0.80315458 148:0.52497986 149:0.64292536 150:0.42593198 151:0.56512839 152:0.52033639 153:0.54677368 154:0.43509608 155:0.32546673 156:0.67021563 157:0.6224649 158:0.68515349 159:0.82750827 160:0.49811762 161:0.60974799 162:0.61093028 163:0.60101988 164:0.63645006 165:0.58929455 166:0.49492591 167:0.6909759 168:0.42283777 169:0.48031886 170:0.3281981 171:0.32171981 172:0.37349411 173:0.46719217 174:0.32179883 175:0.33198526 
0.125 1:0.71411512 2:0.4789617 3:0.67433756 4:0.67364895 5:0.25 6:0.47368421 7:0.61111111 8:0.1875 10:0.375 11:0.33333333 13:0.28571429 14:0.15384615 15:0.44444444 16:0.14285714 17:0.125 18:0.55555556 19:0.27272727 20:0.25 21:0.2 23:0.33333333 28:0.2 29:0.4 33:0.33333333 34:0.2 41:0.4 44:0.2 46:0.33333333 49:0.16666667 50:0.16666667 53:0.33333333 55:0.16666667 58:0.14285714 59:0.33333333 61:0.33333333 63:0.2 65:0.2 68:0.33333333 73:0.25 74:0.25 79:0.69565217 80:1 83:1 96:1 102:1 104:1 109:1 112:1 115:1 133:0.16223092 134:0.081740977 135:0.43385888 136:0.70684079 137:0.73590427 138:0.7525642 139:0.84792105 140:0.61808669 141:0.70148137 142:0.72652176 143:0.58724782 144:0.81603926 145:0.82774306 146:0.62346385 147:0.61466494 148:0.76074508 149:0.66514819 150:0.68014603 151:0.52289112 152:0.6630547 153:0.60063266 154:0.43996114 155:0.3667576 156:0.53552055 157:0.53512801 158:0.64750938 159:0.72814723 160:0.44955305 161:0.41694852 162:0.69516374 163:0.36710054 164:0.63668383 165:0.72364923 166:0.46098116 167:0.59782294 168:0.52054586 169:0.52489946 170:0.5733304 171:0.2746904 172:0.54957506 173:0.33777164 174:0.30068537 175:0.44929478 
0.125 1:0.42509053 2:0.61356641 3:0.64440919 4:0.60898303 5:0.25 6:0.47368421 7:0.44444444 8:0.375 10:0.125 11:0.33333333 12:0.28571429 13:0.28571429 14:0.15384615 15:0.44444444 16:0.28571429 17:0.25 18:0.22222222 19:0.18181818 20:0.25 22:0.625 31:0.25 34:0.2 35:0.33333333 37:0.5 43:0.5 44:0.2 46:0.33333333 48:0.33333333 49:0.16666667 52:0.33333333 55:0.16666667 56:0.25 59:0.33333333 61:0.16666667 63:0.2 64:0.16666667 69:0.25 70:0.5 71:0.16666667 79:0.56521739 80:1 83:1 89:1 92:1 94:1 95:1 102:1 104:1 105:1 109:1 112:1 116:1 133:0.37119882 134:0.1581741 135:0.46014364 136:0.71027943 137:0.48316279 138:0.62248336 139:0.71779781 140:0.66964439 141:0.57228533 142:0.70660692 143:0.54017822 144:0.78932294 145:0.68079504 146:0.74681533 147:0.6873024 148:0.58062104 149:0.64812538 150:0.54940568 151:0.59504573 152:0.66170133 153:0.50078317 154:0.42034479 155:0.58604841 156:0.56211578 157:0.49746152 158:0.53966319 159:0.81499812 160:0.55564286 161:0.62097964 162:0.70248627 163:0.59023363 164:0.61093254 165:0.70002898 166:0.77933584 167:0.62416919 168:0.55188067 169:0.69530512 170:0.65578024 171:0.74135534 172:0.66187255 173:0.65504084 174:0.66427559 175:0.70499561 
-0.125 1:0.67433756 2:0.5604352 3:0.36162238 4:0.6082645 5:0.2 6:0.68421053 7:0.33333333 8:0.3125 10:0.25 11:0.33333333 13:0.28571429 14:0.53846154 15:0.11111111 16:0.42857143 18:0.11111111 19:0.27272727 20:0.25 21:0.2 22:0.5 29:0.4 34:0.4 41:0.2 42:0.33333333 44:0.2 45:0.375 46:0.16666667 47:0.33333333 50:0.16666667 51:0.33333333 52:0.33333333 58:0.14285714 61:0.16666667 62:0.125 63:0.2 64:0.33333333 69:0.25 70:0.33333333 72:0.25 79:0.65217391 80:1 83:1 90:1 93:1 94:1 98:1 102:1 107:1 110:1 113:1 115:1 122:1 125:1 133:0.70938658 134:0.10686483 135:0.82588188 136:0.62436509 137:0.34107554 138:0.71147457 139:0.60856363 140:0.64834407 141:0.40787554 142:0.35511983 143:0.4454955 144:0.55973231 145:0.55338928 146:0.51957051 147:0.38516193 148:0.48931234 149:0.35481153 150:0.40424565 151:0.47890737 152:0.13987304 153:0.44065014 154:0.42726519 155:0.60402883 156:0.68991738 157:0.51407106 158:0.83151481 159:0.78508221 160:0.652535 161:0.57041328 162:0.44163777 163:0.56918405 164:0.66712679 165:0.69860522 166:0.69180786 167:0.59027097 168:0.61341894 169:0.53023501 170:0.50638092 171:0.58976114 172:0.34790296 173:0.54616136 174:0.54761923 175:0.54129699 
-0.125 1:0.67433756 2:0.77698138 3:0.77885235 4:0.83292221 5:0.2 6:0.57894737 7:0.66666667 8:0.0625 10:0.125 11:0.33333333 13:0.28571429 14:0.53846154 15:0.33333333 17:0.125 18:0.44444444 19:0.54545455 20:0.125 23:0.16666667 29:0.2 32:0.25 34:0.2 41:0.2 42:0.33333333 44:0.2 45:0.5 46:0.5 49:0.33333333 50:0.16666667 58:0.42857143 61:0.66666667 62:0.25 65:0.2 74:0.25 79:0.82608696 80:1 83:1 102:1 109:1 110:1 132:1 133:0.085673122 134:0.012384996 135:0.094417839 136:0.84453863 137:0.7914065 138:0.82943729 139:0.78851776 140:0.56775163 141:0.68621026 142:0.73181841 143:0.64302019 144:0.81527718 145:0.87118031 146:0.81098523 147:0.59995794 148:0.57791752 149:0.6611708 150:0.69922579 151:0.53252095 152:0.78715018 153:0.51508485 154:0.52381081 155:0.44243617 156:0.71406683 157:0.8458839 158:0.76969413 159:0.82949737 160:0.52693631 161:0.64474475 162:0.64176017 163:0.65338616 164:0.7378204 165:0.62585413 166:0.74005437 167:0.49758602 168:0.54499042 169:0.59111583 170:0.55051979 171:0.59011954 172:0.70030307 173:0.55422705 174:0.49661029 175:0.36814172 
-0.1227953365295144 1:0.63259524 2:0.71936034 3:0.77885235 4:0.7865604 5:0.1 6:0.68421053 7:0.5 8:0.25 11:0.33333333 13:0.14285714 14:0.46153846 15:0.33333333 16:0.42857143 18:0.66666667 19:0.27272727 22:0.25 23:0.16666667 24:0.1 33:0.33333333 34:0.2 42:0.33333333 44:0.2 45:0.375 46:0.5 49:0.33333333 52:0.33333333 54:0.33333333 58:0.42857143 59:0.66666667 61:0.5 70:0.16666667 72:0.25 77:0.25 79:0.7826087 80:1 83:1 86:1 91:1 102:1 106:1 109:1 110:1 112:1 115:1 133:0.24012872 134:0.13729653 135:0.72873266 136:0.74905611 137:0.65401318 138:0.73147464 139:0.62339824 140:0.61422413 141:0.70784108 142:0.74853768 143:0.62243745 144:0.67576434 145:0.66117561 146:0.65820722 147:0.68612167 148:0.42615802 149:0.37735716 150:0.59230789 151:0.54640761 152:0.45624997 153:0.39300443 154:0.3965147 155:0.4410675 156:0.6015064 157:0.65752273 158:0.69462632 159:0.56090768 160:0.46497956 161:0.50705338 162:0.56332148 163:0.478911 164:0.62129115 165:0.50283292 166:0.6053642 167:0.40060706 168:0.36470224 169:0.31649146 170:0.46458349 171:0.4098954 172:0.38430304 173:0.3793679 174:0.45716825 175:0.3097255 
-0.005918728708605859 1:0.48798757 2:0.3337053 3:0.61552358 4:0.46285556 5:0.35 6:0.26315789 7:0.55555556 8:0.375 9:0.076923077 10:0.25 11:0.5 12:0.14285714 14:0.15384615 15:0.33333333 16:0.14285714 17:0.375 18:0.11111111 19:0.18181818 20:0.375 21:0.4 22:0.125 23:0.33333333 24:0.1 26:0.2 29:0.2 30:0.2 32:0.25 34:0.4 38:0.25 45:0.25 46:0.16666667 48:0.16666667 50:0.16666667 54:0.33333333 55:0.16666667 56:0.25 59:0.33333333 60:0.2 63:0.2 65:0.2 68:0.33333333 71:0.16666667 75:0.25 76:0.2 79:0.47826087 80:1 83:1 88:1 90:1 101:1 106:1 109:1 111:1 124:1 133:0.61801664 134:0.010615711 135:0.1369863 136:0.52565645 137:0.47598694 138:0.40097118 139:0.37153254 140:0.35768615 141:0.39589014 142:0.48216036 143:0.60039118 144:0.6973153 145:0.45684385 146:0.50366644 147:0.5526693 148:0.33650193 149:0.6699371 150:0.54357902 151:0.58343435 152:0.7371616 153:0.40118927 154:0.5816456 155:0.43963167 156:0.34937922 157:0.44874066 158:0.47064395 159:0.41680493 160:0.30526281 161:0.37334977 162:0.31215563 163:0.65866534 164:0.47801943 165:0.51222861 166:0.44625233 167:0.43415789 168:0.37243294 169:0.55352677 170:0.54442186 171:0.6102905 172:0.69826722 173:0.40979345 174:0.61988582 175:0.35214018 
0.125 1:0.5438914 2:0.24448331 3:0.61102148 4:0.33656462 5:0.45 6:0.15789474 7:0.5 8:0.4375 9:0.15384615 10:0.125 11:0.33333333 12:0.42857143 13:0.28571429 15:0.11111111 16:0.14285714 17:0.25 19:0.36363636 20:0.375 21:0.4 22:0.375 23:0.33333333 25:0.11111111 31:0.25 34:0.4 36:0.33333333 37:0.25 38:0.25 41:0.2 43:0.25 44:0.2 48:0.16666667 53:0.33333333 57:0.5 60:0.2 62:0.25 63:0.2 64:0.33333333 67:0.25 69:0.25 70:0.16666667 71:0.16666667 75:0.5 79:0.34782609 80:1 83:1 87:1 88:1 91:1 92:1 95:1 96:1 97:1 101:1 104:1 107:1 114:1 119:1 127:1 133:0.60426516 134:0.14472753 135:0.31487426 136:0.34984577 137:0.40268195 138:0.35106367 139:0.40624642 140:0.22033542 141:0.4419134 142:0.54328406 143:0.30262452 144:0.39585145 145:0.42649514 146:0.35131262 147:0.59922444 148:0.42492723 149:0.61208538 150:0.62951026 151:0.51221033 152:0.4678229 153:0.7059215 154:0.75532648 155:0.78355456 156:0.33699715 157:0.41344577 158:0.46695381 159:0.42256625 160:0.18661937 161:0.52362118 162:0.55473862 163:0.50165577 164:0.48294382 165:0.54214315 166:0.45274287 167:0.63209833 168:0.54695041 169:0.65284843 170:0.73364251 171:0.52403805 172:0.57105872 173:0.83101252 174:0.75924988 175:0.74181454 
0.1199260424052855 1:0.51437189 2:0.72041874 3:0.4547451 4:0.54452871 5:0.45 6:0.36842105 7:0.55555556 8:0.125 9:0.15384615 10:0.5 11:0.33333333 12:0.14285714 13:0.42857143 14:0.15384615 15:0.22222222 17:0.375 19:0.54545455 20:0.125 22:0.25 25:0.11111111 26:0.2 28:0.2 29:0.4 30:0.2 34:0.4 37:0.25 41:0.4 42:0.33333333 44:0.4 48:0.16666667 49:0.16666667 55:0.16666667 57:0.25 60:0.4 62:0.375 63:0.2 64:0.16666667 70:0.16666667 71:0.16666667 79:0.56521739 80:1 83:1 91:1 94:1 101:1 105:1 108:1 115:1 124:1 133:0.12411196 134:0.0031847134 135:0.02268077 136:0.413023 137:0.36138934 138:0.30310758 139:0.15820072 140:0.26950538 141:0.25245504 142:0.25365919 143:0.42486528 144:0.74220237 145:0.43476304 146:0.61632995 147:0.48922426 148:0.48580473 149:0.66789539 150:0.72894459 151:0.56869612 152:0.76482811 153:0.51885096 154:0.7228772 155:0.56863144 156:0.57538142 157:0.57256775 158:0.60921614 159:0.45182724 160:0.54921474 161:0.56175846 162:0.4371906 163:0.53819256 164:0.76859517 165:0.63058608 166:0.7062911 167:0.5402839 168:0.59459837 169:0.68487115 170:0.70206423 171:0.67354671 172:0.63353016 173:0.56853184 174:0.68223695 175:0.54250057 
0.125 1:0.4441937 2:0.58446507 3:0.57906094 4:0.47823054 5:0.45 6:0.42105263 7:0.38888889 8:0.25 10:0.5 11:0.5 12:0.14285714 13:0.57142857 14:0.15384615 15:0.22222222 16:0.14285714 17:0.5 19:0.090909091 20:0.25 22:0.375 23:0.16666667 28:0.6 30:0.2 32:0.5 34:0.2 37:0.25 41:0.6 44:0.2 45:0.25 48:0.16666667 50:0.16666667 53:0.33333333 55:0.16666667 56:0.5 57:0.25 63:0.2 64:0.33333333 70:0.16666667 71:0.16666667 72:0.25 73:0.25 79:0.47826087 80:1 83:1 91:1 94:1 97:1 100:1 102:1 104:1 108:1 110:1 126:1 131:1 133:0.031022304 134:0.047062987 135:0.36371619 136:0.38189419 137:0.32845554 138:0.38886863 139:0.48971493 140:0.63670176 141:0.49970156 142:0.3232462 143:0.40187623 144:0.50318806 145:0.50545816 146:0.6279109 147:0.67027515 148:0.3684505 149:0.5806375 150:0.6245983 151:0.61091968 152:0.45579604 153:0.69304391 154:0.5656337 155:0.64093453 156:0.51206827 157:0.41998172 158:0.57110047 159:0.59574379 160:0.78628762 161:0.58678217 162:0.38870073 163:0.51974203 164:0.62067046 165:0.75546877 166:0.84740485 167:0.71011438 168:0.59878466 169:0.67653506 170:0.68013932 171:0.70863927 172:0.60618408 173:0.90367861 174:0.89189096 175:0.64774104 
0.0954466647381708 2:0.69367197 3:0.5038825 4:0.3896747 5:0.3 6:0.57894737 7:0.16666667 8:0.5 10:0.375 11:0.16666667 12:0.28571429 13:0.42857143 14:0.38461538 15:0.11111111 16:0.28571429 19:0.090909091 20:0.25 21:0.4 22:0.5 24:0.2 28:0.2 29:0.4 34:0.2 36:0.66666667 41:0.4 43:0.25 44:0.2 45:0.25 46:0.16666667 47:0.33333333 50:0.16666667 52:0.16666667 54:0.33333333 63:0.2 64:0.16666667 66:0.2 69:0.25 70:0.33333333 76:0.4 79:0.43478261 80:1 83:1 86:1 88:1 89:1 92:1 93:1 95:1 99:1 102:1 105:1 108:1 111:1 114:1 115:1 133:0.66290646 134:0.029016277 135:0.50386155 136:0.50668252 137:0.46885332 138:0.44677432 139:0.61386113 140:0.31855436 141:0.56266526 142:0.44251896 143:0.50307019 144:0.59839881 145:0.54630332 146:0.60115145 147:0.50324107 148:0.72708795 149:0.25957036 150:0.63473739 151:0.68066369 152:0.29886183 153:0.28155444 154:0.38548179 155:0.63872634 156:0.51581398 157:0.47307557 158:0.59827078 159:0.72027796 160:0.44804186 161:0.61970751 162:0.44992155 163:0.51674653 164:0.64870047 165:0.650134 166:0.52777109 167:0.53556292 168:0.76061186 169:0.32969649 170:0.66872034 171:0.68747835 172:0.39142635 173:0.28149301 174:0.41836391 175:0.47989099 
-0.125 1:0.52319537 2:0.48246345 3:0.71411512 4:0.57940225 5:0.45 6:0.52631579 7:0.38888889 8:0.125 9:0.30769231 10:0.125 11:0.66666667 13:0.57142857 14:0.23076923 15:0.22222222 16:0.14285714 18:0.55555556 19:0.090909091 20:0.125 22:0.25 25:0.22222222 26:0.2 28:0.2 33:1 34:0.2 40:0.33333333 42:0.66666667 44:0.2 46:0.33333333 52:0.16666667 58:0.42857143 59:0.33333333 63:0.2 64:0.16666667 69:0.25 70:0.16666667 79:0.56521739 80:1 83:1 91:1 92:1 94:1 98:1 104:1 106:1 108:1 112:1 115:1 125:1 133:0.21328233 134:0.054493984 135:0.41543849 136:0.46984278 137:0.16727475 138:0.32881145 139:0.296815 140:0.52526118 141:0.52314955 142:0.47954298 143:0.45135151 144:0.46077196 145:0.54259006 146:0.61419985 147:0.62128236 148:0.77519061 149:0.68989122 150:0.75092068 151:0.72168647 152:0.67729313 153:0.69743934 154:0.77310055 155:0.96273744 156:0.49290245 157:0.2862109 158:0.43862765 159:0.31473097 160:0.49684245 161:0.37383107 162:0.5224869 163:0.46674478 164:0.39809543 165:0.5624191 166:0.53175487 167:0.55065396 168:0.60508774 169:0.57253028 170:0.65036764 171:0.57523564 172:0.48684669 173:0.64519969 174:0.43757875 175:0.6837768 
0.125 1:0.49372418 2:0.59172031 3:0.59184905 4:0.56621232 5:0.2 6:0.15789474 7:0.77777778 8:0.4375 9:0.076923077 10:0.125 11:0.33333333 13:0.14285714 15:0.22222222 16:0.14285714 17:0.125 18:0.11111111 19:0.63636364 20:0.625 22:0.25 23:0.5 24:0.1 26:0.2 31:0.25 33:0.33333333 35:0.33333333 42:0.33333333 46:0.16666667 49:0.33333333 52:0.16666667 60:0.2 62:0.25 63:0.8 64:0.16666667 65:0.4 66:0.2 70:0.16666667 71:0.16666667 74:0.75 77:0.25 79:0.56521739 80:1 83:1 91:1 93:1 98:1 101:1 103:1 104:1 109:1 112:1 116:1 133:0.27907763 134:0.16489738 135:0.87523046 136:0.65345543 137:0.59208321 138:0.64278764 139:0.32421855 140:0.37216131 141:0.441546 142:0.49420886 143:0.35838761 144:0.52729879 145:0.60538026 146:0.51923616 147:0.5821553 148:0.58618674 149:0.64097552 150:0.41320176 151:0.45330797 152:0.65860156 153:0.50864277 154:0.52390125 155:0.36597266 156:0.72071754 157:0.66413046 158:0.72547017 159:0.73307572 160:0.47507555 161:0.61379346 162:0.57656882 163:0.44683346 164:0.553823 165:0.68853412 166:0.57800617 167:0.77105647 168:0.80846301 169:0.74828612 170:0.52324207 171:0.55646549 172:0.67621154 173:0.72020289 174:0.62851165 175:0.58096772 
0.125 1:0.59203639 2:0.79490313 3:0.72397299 4:0.76181685 5:0.05 6:0.68421053 7:0.44444444 8:0.375 11:0.16666667 14:0.38461538 15:0.55555556 16:0.42857143 18:0.55555556 19:0.090909091 20:0.25 22:0.5 23:0.16666667 24:0.1 33:0.33333333 45:0.25 46:0.16666667 47:0.33333333 49:0.16666667 50:0.33333333 52:0.33333333 54:0.33333333 58:0.28571429 59:0.33333333 61:0.16666667 64:0.16666667 65:0.2 70:0.33333333 71:0.33333333 76:0.2 79:0.73913043 80:1 83:1 91:1 92:1 102:1 106:1 109:1 113:1 115:1 133:0.26366381 134:0.15392781 135:0.81700698 136:0.83186345 137:0.73783375 138:0.72614512 139:0.79303399 140:0.68888132 141:0.67863443 142:0.83335867 143:0.6256424 144:0.78646275 145:0.86022703 146:0.82431018 147:0.82309269 148:0.67357674 149:0.67251032 150:0.57019257 151:0.44092713 152:0.58879829 153:0.6171311 154:0.2726814 155:0.4434445 156:0.7969771 157:0.70769888 158:0.70695564 159:0.72492753 160:0.62899901 161:0.61933223 162:0.82516529 163:0.60453833 164:0.66913833 165:0.69588592 166:0.6761305 167:0.75023439 168:0.66865272 169:0.6068872 170:0.5324816 171:0.54089244 172:0.61187224 173:0.66662201 174:0.29842999 175:0.39164489 
-0.09585452770290666 1:0.76730194 2:0.79205049 3:0.59184905 4:0.64446442 5:0.3 6:0.63157895 7:0.38888889 8:0.1875 10:0.5 11:0.16666667 12:0.14285714 13:0.42857143 14:0.46153846 15:0.33333333 16:0.14285714 17:0.125 18:0.33333333 19:0.18181818 20:0.125 21:0.2 23:0.16666667 29:0.6 31:0.25 33:0.33333333 38:0.25 41:0.6 44:0.6 45:0.375 46:0.16666667 49:0.16666667 50:0.16666667 55:0.16666667 58:0.14285714 60:0.2 62:0.125 79:0.65217391 80:1 83:1 86:1 87:1 90:1 102:1 106:1 108:1 116:1 121:1 133:0.75547816 134:0.28485492 135:0.82867032 136:0.65540378 137:0.5656378 138:0.52022992 139:0.63258123 140:0.55853078 141:0.7243562 142:0.63314962 143:0.65366553 144:0.71348321 145:0.92821365 146:0.82081031 147:0.84929534 148:0.89502255 149:0.80717703 150:0.843042 151:0.59464121 152:0.74511166 153:0.61781149 154:0.67314128 155:0.67765362 156:0.66660758 157:0.59525078 158:0.60872468 159:0.70617545 160:0.48106486 161:0.60537302 162:0.65021024 163:0.68841755 164:0.5742365 165:0.74989599 166:0.67464587 167:0.68243014 168:0.74216976 169:0.59719062 170:0.49062531 171:0.43803799 172:0.56176021 173:0.42710948 174:0.56239357 175:0.47896902 
0.125 1:0.53701896 2:0.44545041 3:0.38416511 4:0.50042121 5:0.25 6:0.21052632 7:0.66666667 8:0.4375 11:0.66666667 12:0.14285714 13:0.14285714 14:0.076923077 15:0.11111111 16:0.14285714 17:0.375 18:0.22222222 19:0.27272727 20:0.5 22:0.25 23:0.66666667 24:0.1 32:0.25 33:0.66666667 34:0.2 38:0.25 42:0.33333333 44:0.2 45:0.125 50:0.16666667 53:0.33333333 56:0.5 57:0.25 60:0.2 63:0.4 64:0.33333333 65:0.2 66:0.2 70:0.16666667 72:0.25 73:0.25 74:0.5 75:0.25 77:0.25 79:0.52173913 80:1 83:1 86:1 91:1 98:1 101:1 103:1 110:1 115:1 128:1 133:0.29498867 134:0.17622081 135:0.93533213 136:0.550682 137:0.56907901 138:0.58500692 139:0.39865142 140:0.3959257 141:0.4773734 142:0.56357586 143:0.19658165 144:0.33391013 145:0.58451215 146:0.46067855 147:0.24939655 148:0.37982947 149:0.32686516 150:0.38375896 151:0.32163283 152:0.52733702 153:0.21714107 154:0.55697013 155:0.43013364 156:0.56066119 157:0.60961866 158:0.73989992 159:0.61130044 160:0.56264525 161:0.70747693 162:0.69878673 163:0.38818871 164:0.45863698 165:0.79304846 166:0.61290332 167:0.49180174 168:0.62313295 169:0.5235495 170:0.43672139 171:0.57492672 172:0.64495637 173:0.41359936 174:0.72807269 175:0.45796794 
