svm_type epsilon_svr
kernel_type rbf
gamma 0.125
nr_class 2
total_sv 2788
rho -0.422486
SV
0.125 1:0.5438914 2:0.56467915 3:0.53701896 4:0.47596859 5:0.3 6:0.26315789 7:0.55555556 8:0.4375 9:0.30769231 11:0.33333333 13:0.14285714 14:0.076923077 15:0.22222222 16:0.28571429 19:0.36363636 20:0.625 22:0.625 23:0.33333333 25:0.33333333 34:0.4 42:0.33333333 45:0.125 46:0.16666667 49:0.16666667 50:0.16666667 52:0.16666667 53:0.33333333 63:0.6 64:0.66666667 65:0.2 69:0.25 70:0.16666667 71:0.16666667 72:0.5 74:0.25 75:0.25 79:0.47826087 80:1 85:1 88:1 90:1 95:1 98:1 102:1 109:1 111:1 125:1 133:0.051215724 134:0.058386412 135:0.45122686 
0.125 1:0.59505313 2:0.48252746 3:0.56389849 4:0.41061206 5:0.4 6:0.42105263 7:0.27777778 8:0.4375 9:0.23076923 10:0.5 11:0.16666667 13:0.14285714 14:0.076923077 15:0.22222222 16:0.57142857 17:0.375 19:0.090909091 20:0.125 22:0.5 23:0.16666667 24:0.2 25:0.22222222 29:0.2 31:0.75 32:0.25 41:0.2 44:0.2 46:0.16666667 48:0.16666667 50:0.16666667 52:0.33333333 54:0.66666667 55:0.5 60:0.2 64:0.16666667 70:0.16666667 71:0.16666667 72:0.25 74:0.25 76:0.2 77:0.25 79:0.39130435 80:1 85:1 87:1 88:1 90:1 92:1 95:1 103:1 106:1 108:1 112:1 114:1 115:1 118:1 121:1 124:1 128:1 133:0.59943173 134:0.021939137 135:0.12493299 
-0.1006760027167363 1:0.53701896 2:0.53620357 3:0.50033308 4:0.4939864 5:0.25 6:0.26315789 7:0.55555556 8:0.5 9:0.23076923 11:0.33333333 13:0.14285714 14:0.076923077 15:0.22222222 16:0.28571429 19:0.36363636 20:0.75 22:0.625 23:0.33333333 25:0.22222222 34:0.4 42:0.33333333 45:0.125 46:0.16666667 49:0.16666667 50:0.16666667 52:0.16666667 53:0.33333333 63:0.8 64:0.66666667 65:0.2 69:0.25 70:0.16666667 71:0.16666667 72:0.5 74:0.25 75:0.25 79:0.47826087 80:1 85:1 89:1 93:1 99:1 103:1 104:1 110:1 112:1 116:1 133:0.051283035 134:0.058386412 135:0.45122686 
-0.03804564707347579 1:0.22375955 2:0.30433859 3:0.3431175 4:0.17558053 5:0.5 6:0.21052632 7:0.16666667 8:0.6875 9:0.38461538 10:0.25 11:0.16666667 12:0.28571429 13:0.14285714 14:0.076923077 15:0.11111111 16:0.28571429 17:0.125 20:0.25 21:0.4 22:0.25 23:0.16666667 24:0.5 25:0.22222222 26:0.2 27:0.5 29:0.2 31:0.25 35:0.33333333 36:0.33333333 39:0.33333333 41:0.2 44:0.2 46:0.16666667 50:0.16666667 54:0.33333333 66:0.2 67:0.25 68:0.33333333 70:0.16666667 72:0.25 73:0.25 76:0.4 77:0.25 78:0.4 79:0.13043478 80:1 85:1 88:1 89:1 96:1 97:1 99:1 103:1 116:1 133:0.56420594 134:0.10438783 135:0.2271098 
0.125 1:0.6443844 2:0.44178122 3:0.48798757 4:0.44861398 5:0.65 6:0.21052632 7:0.5 8:0.125 9:0.38461538 10:0.25 11:0.5 12:0.28571429 14:0.15384615 15:0.33333333 17:0.75 19:0.27272727 21:0.2 22:0.125 25:0.11111111 26:0.4 27:0.25 29:0.2 30:0.2 34:0.6 36:0.33333333 37:0.25 45:0.125 46:0.33333333 48:0.5 56:0.5 57:0.25 60:0.6 67:0.25 70:0.16666667 79:0.39130435 80:1 85:1 87:1 89:1 96:1 97:1 99:1 100:1 107:1 111:1 118:1 121:1 132:1 133:0.30366296 134:0.089879689 135:0.64010173 
-0.005837882442742052 1:0.52319537 2:0.81029024 3:0.59505313 4:0.53126068 5:0.45 6:0.36842105 7:0.5 8:0.1875 9:0.23076923 10:0.125 11:0.83333333 13:0.28571429 14:0.23076923 15:0.22222222 16:0.14285714 17:0.375 18:0.11111111 19:0.18181818 20:0.25 22:0.375 25:0.11111111 29:0.2 32:0.25 33:0.33333333 35:0.66666667 40:0.16666667 41:0.2 44:0.2 45:0.125 46:0.16666667 47:0.16666667 49:0.33333333 52:0.16666667 56:0.75 58:0.14285714 60:0.4 64:0.33333333 69:0.25 70:0.16666667 71:0.16666667 79:0.52173913 80:1 85:1 86:1 90:1 92:1 94:1 101:1 104:1 105:1 109:1 133:0.27588981 134:0.076433121 135:0.54433848 
0.125 1:0.3836975 2:0.55310284 3:0.6978734 4:0.56074214 5:0.25 6:0.47368421 7:0.44444444 8:0.375 9:0.15384615 10:0.125 11:0.16666667 12:0.14285714 13:0.14285714 14:0.38461538 15:0.22222222 16:0.28571429 17:0.125 19:0.36363636 20:0.25 22:0.5 23:0.16666667 24:0.1 25:0.11111111 29:0.2 35:0.33333333 39:0.33333333 43:0.25 44:0.2 45:0.375 46:0.16666667 47:0.16666667 49:0.16666667 52:0.16666667 53:0.33333333 55:0.16666667 60:0.2 62:0.375 64:0.33333333 70:0.33333333 71:0.16666667 72:0.25 75:0.25 76:0.2 79:0.56521739 80:1 85:1 86:1 89:1 92:1 95:1 98:1 101:1 104:1 109:1 111:1 125:1 127:1 133:0.16552806 134:0.023000708 135:0.16380556 
0.125 1:0.86189425 2:0.57699058 3:0.5989845 4:0.54622279 5:0.35 6:0.36842105 7:0.55555556 8:0.25 9:0.15384615 10:0.375 11:0.33333333 13:0.28571429 14:0.076923077 15:0.33333333 16:0.14285714 17:0.125 18:0.33333333 19:0.27272727 20:0.375 21:0.2 22:0.125 23:0.33333333 25:0.11111111 26:0.2 29:0.2 30:0.4 33:0.66666667 41:0.2 42:0.33333333 44:0.2 46:0.16666667 48:0.16666667 49:0.33333333 51:0.33333333 56:0.25 58:0.14285714 59:0.33333333 61:0.16666667 63:0.4 64:0.16666667 65:0.4 69:0.25 74:0.25 75:0.25 79:0.56521739 80:1 85:1 87:1 90:1 93:1 94:1 98:1 104:1 106:1 115:1 118:1 122:1 127:1 133:0.16123648 134:0.081033263 135:0.43010252 
-0.02480586132166844 1:0.69503483 2:0.58446507 3:0.69772966 4:0.51840666 5:0.55 6:0.47368421 7:0.33333333 8:0.125 9:0.23076923 10:0.75 11:0.16666667 12:0.14285714 13:0.28571429 14:0.23076923 15:0.44444444 16:0.14285714 17:0.625 19:0.090909091 22:0.125 25:0.11111111 26:0.2 27:0.25 29:0.4 30:0.6 31:0.25 32:0.25 40:0.16666667 42:0.33333333 44:0.4 45:0.125 46:0.16666667 48:0.5 49:0.16666667 52:0.16666667 55:0.83333333 60:0.2 70:0.16666667 79:0.47826087 80:1 85:1 87:1 91:1 97:1 102:1 106:1 109:1 116:1 118:1 133:0.70783841 134:0.10403397 135:0.80400421 
-0.001299642478383819 1:0.50282817 2:0.64631637 3:0.59184905 4:0.54256985 5:0.5 6:0.57894737 7:0.33333333 8:0.0625 9:0.15384615 10:0.75 11:0.33333333 13:0.42857143 14:0.38461538 15:0.33333333 16:0.14285714 17:0.375 18:0.11111111 19:0.090909091 21:0.2 25:0.11111111 26:0.2 29:1 30:0.2 33:0.33333333 41:0.6 44:0.4 45:0.125 46:0.33333333 47:0.16666667 48:0.33333333 49:0.16666667 51:0.33333333 55:0.33333333 56:0.25 60:0.2 68:0.33333333 79:0.56521739 80:1 85:1 87:1 97:1 102:1 106:1 108:1 112:1 118:1 121:1 133:0.27907763 134:0.16489738 135:0.87523046 
-0.1057969539351692 1:0.60222828 2:0.55859452 3:0.71411512 4:0.5771874 5:0.25 6:0.47368421 7:0.44444444 8:0.375 9:0.15384615 10:0.25 11:0.16666667 14:0.23076923 15:0.44444444 16:0.42857143 17:0.125 18:0.33333333 19:0.090909091 20:0.25 21:0.2 22:0.25 23:0.33333333 24:0.1 25:0.11111111 26:0.2 30:0.2 31:0.25 33:0.33333333 45:0.125 46:0.33333333 47:0.16666667 48:0.16666667 49:0.16666667 50:0.16666667 51:0.33333333 53:0.33333333 54:0.33333333 56:0.25 58:0.14285714 59:0.33333333 64:0.16666667 65:0.2 70:0.33333333 75:0.25 76:0.2 79:0.56521739 80:1 85:1 88:1 91:1 93:1 101:1 102:1 109:1 111:1 119:1 133:0.26747583 134:0.15675867 135:0.83203239 
-0.125 1:0.5128194 2:0.6037518 3:0.66315036 4:0.55500641 5:0.3 6:0.52631579 7:0.38888889 8:0.3125 9:0.15384615 10:0.25 11:0.16666667 12:0.14285714 13:0.14285714 14:0.38461538 15:0.33333333 16:0.28571429 17:0.125 18:0.11111111 19:0.18181818 20:0.25 21:0.2 22:0.375 23:0.16666667 25:0.11111111 27:0.25 30:0.2 31:0.25 34:0.2 36:0.33333333 41:0.2 45:0.5 46:0.33333333 49:0.16666667 52:0.33333333 55:0.16666667 63:0.4 64:0.16666667 65:0.2 68:0.33333333 70:0.33333333 72:0.25 73:0.25 79:0.56521739 80:1 85:1 88:1 91:1 93:1 94:1 95:1 98:1 102:1 104:1 110:1 111:1 119:1 122:1 125:1 133:0.076055516 134:0.0077848549 135:0.059348356 
0.125 1:0.53701896 2:0.36889422 3:0.52505164 4:0.39203178 5:0.5 6:0.052631579 7:0.66666667 8:0.3125 9:0.30769231 10:0.25 11:0.33333333 12:0.28571429 13:0.14285714 15:0.11111111 17:0.5 19:0.54545455 20:0.125 23:0.5 24:0.2 25:0.22222222 26:0.2 27:0.25 28:0.2 29:0.2 32:0.5 38:0.25 39:0.33333333 43:0.25 46:0.16666667 49:0.16666667 55:0.16666667 56:0.5 60:0.4 62:0.375 66:0.2 74:0.5 75:0.25 77:0.5 79:0.39130435 80:1 85:1 91:1 94:1 98:1 101:1 104:1 105:1 107:1 112:1 127:1 133:0.65029693 134:0.072540694 135:0.55301877 
-0.125 1:0.42214227 2:0.52801566 3:0.47077004 4:0.47725174 5:0.4 6:0.26315789 7:0.55555556 8:0.3125 9:0.23076923 11:0.66666667 12:0.14285714 13:0.28571429 14:0.076923077 15:0.11111111 16:0.14285714 17:0.125 18:0.33333333 19:0.36363636 20:0.25 21:0.2 22:0.25 23:0.16666667 24:0.1 25:0.11111111 32:0.25 33:0.33333333 34:0.4 39:0.33333333 40:0.16666667 43:0.25 45:0.125 47:0.16666667 50:0.16666667 52:0.16666667 56:0.25 58:0.14285714 61:0.33333333 62:0.125 63:0.2 64:0.16666667 68:0.33333333 69:0.25 74:0.25 77:0.25 79:0.47826087 80:1 88:1 90:1 96:1 98:1 99:1 101:1 105:1 109:1 111:1 114:1 115:1 123:1 133:0.28442606 134:0.029723992 135:0.086469947 
0.125 1:0.38580469 2:0.52523248 3:0.57391642 4:0.51283017 5:0.3 6:0.36842105 7:0.5 8:0.375 9:0.076923077 10:0.25 11:0.33333333 12:0.14285714 13:0.42857143 14:0.076923077 15:0.22222222 16:0.28571429 17:0.125 19:0.45454545 20:0.25 22:0.625 24:0.1 28:0.2 30:0.2 32:0.25 34:0.2 37:0.25 41:0.2 42:0.33333333 43:0.25 46:0.16666667 47:0.16666667 49:0.16666667 50:0.16666667 52:0.33333333 55:0.16666667 62:0.375 63:0.2 64:0.16666667 66:0.2 69:0.5 70:0.33333333 72:0.25 76:0.2 79:0.52173913 80:1 89:1 93:1 101:1 104:1 112:1 127:1 133:0.60309535 134:0.030785563 135:0.17530919 
-0.125 1:0.52319537 2:0.6950012 3:0.6443844 4:0.59368783 5:0.2 6:0.52631579 7:0.38888889 8:0.4375 9:0.076923077 10:0.125 11:0.16666667 14:0.46153846 15:0.22222222 16:0.42857143 17:0.25 19:0.27272727 20:0.25 22:0.5 23:0.16666667 24:0.2 29:0.2 34:0.2 45:0.375 46:0.33333333 47:0.33333333 48:0.16666667 49:0.16666667 52:0.33333333 54:0.33333333 55:0.16666667 60:0.2 63:0.4 64:0.16666667 66:0.2 70:0.5 72:0.25 74:0.25 76:0.2 77:0.25 79:0.56521739 80:1 86:1 93:1 97:1 102:1 106:1 108:1 112:1 120:1 132:1 133:0.31357367 134:0.072540694 135:0.21102785 
-0.125 1:0.42622728 2:0.59420581 3:0.52267638 4:0.37844004 5:0.45 6:0.26315789 7:0.38888889 8:0.4375 9:0.30769231 10:0.125 11:0.5 12:0.14285714 13:0.42857143 16:0.42857143 17:0.125 18:0.33333333 19:0.090909091 20:0.25 22:0.25 23:0.5 24:0.1 25:0.11111111 27:0.25 31:0.25 32:0.25 33:0.66666667 40:0.33333333 42:0.33333333 44:0.2 52:0.16666667 53:0.33333333 54:0.33333333 55:0.16666667 59:0.66666667 61:0.16666667 64:0.16666667 65:0.2 69:0.25 70:0.16666667 74:0.25 75:0.5 77:0.25 79:0.34782609 80:1 87:1 89:1 95:1 103:1 104:1 109:1 116:1 133:0.62575227 134:0.035031847 135:0.45205479 
0.125 1:0.24243179 2:0.075121269 3:0.6443844 4:0.14487922 5:0.55 6:0.15789474 7:0.27777778 8:0.5625 9:0.076923077 10:0.25 11:0.5 12:0.57142857 13:0.28571429 16:0.28571429 17:0.25 19:0.18181818 20:0.125 21:1 22:0.25 24:0.2 28:0.2 29:0.2 34:0.4 35:0.33333333 36:0.66666667 37:0.25 39:0.33333333 43:0.25 47:0.16666667 51:0.33333333 52:0.16666667 55:0.16666667 56:0.25 60:0.4 68:0.33333333 69:0.25 72:0.25 78:0.2 79:0.17391304 80:1 89:1 92:1 95:1 98:1 101:1 109:1 113:1 117:1 120:1 133:0.55256165 134:0.096956829 135:0.21094266 
-0.125 1:0.4359805 2:0.61356641 3:0.61102148 4:0.57999995 5:0.2 6:0.47368421 7:0.44444444 8:0.4375 9:0.076923077 10:0.125 11:0.16666667 12:0.14285714 13:0.14285714 14:0.38461538 15:0.22222222 16:0.28571429 17:0.125 19:0.36363636 20:0.375 22:0.5 23:0.16666667 24:0.1 29:0.2 35:0.33333333 39:0.33333333 43:0.25 44:0.2 45:0.375 46:0.16666667 47:0.16666667 49:0.16666667 50:0.16666667 52:0.16666667 53:0.33333333 55:0.16666667 60:0.2 62:0.375 64:0.33333333 70:0.33333333 71:0.16666667 72:0.25 75:0.25 76:0.2 79:0.56521739 80:1 92:1 93:1 101:1 104:1 107:1 110:1 111:1 116:1 127:1 133:0.16528444 134:0.023000708 135:0.16380556 
-0.125 1:0.5128194 2:0.48769272 3:0.67433756 4:0.38756 5:0.4 6:0.36842105 7:0.38888889 8:0.375 9:0.076923077 10:0.625 11:0.33333333 13:0.28571429 14:0.15384615 15:0.22222222 16:0.28571429 17:0.25 19:0.090909091 20:0.375 21:0.4 22:0.125 23:0.33333333 24:0.1 28:0.2 29:0.6 31:0.25 35:0.33333333 41:0.4 46:0.33333333 47:0.16666667 48:0.16666667 50:0.16666667 51:0.66666667 55:0.33333333 63:0.2 64:0.16666667 65:0.2 66:0.2 68:0.33333333 69:0.25 73:0.25 74:0.25 77:0.25 79:0.43478261 80:1 86:1 88:1 90:1 93:1 98:1 102:1 104:1 109:1 113:1 133:0.1901341 134:0.035031847 135:0.24948847 
0.125 1:0.61759707 2:0.6814107 3:0.64440919 4:0.53232877 5:0.3 6:0.47368421 7:0.38888889 8:0.375 9:0.076923077 10:0.375 11:0.33333333 13:0.14285714 14:0.15384615 15:0.44444444 16:0.42857143 17:0.25 18:0.11111111 19:0.090909091 20:0.25 21:0.2 22:0.5 24:0.1 29:0.2 30:0.4 35:0.66666667 41:0.2 44:0.2 45:0.125 46:0.16666667 48:0.16666667 49:0.16666667 51:0.33333333 52:0.33333333 55:0.16666667 56:0.25 58:0.14285714 60:0.2 64:0.16666667 66:0.2 71:0.16666667 72:0.75 76:0.2 79:0.52173913 80:1 86:1 90:1 93:1 98:1 102:1 106:1 109:1 123:1 125:1 133:0.24692406 134:0.14225053 135:0.75502714 
0.0998125511913816 1:0.58784235 2:0.385641 3:0.4254219 4:0.32701686 5:0.35 6:0.21052632 7:0.44444444 8:0.5625 9:0.15384615 10:0.25 11:0.33333333 12:0.14285714 13:0.14285714 14:0.076923077 16:0.42857143 17:0.25 19:0.27272727 20:0.25 21:0.2 22:0.25 23:0.5 24:0.3 26:0.2 28:0.2 31:0.25 35:0.66666667 37:0.25 40:0.16666667 47:0.33333333 54:1 55:0.16666667 57:0.25 60:0.2 62:0.25 64:0.16666667 65:0.2 68:0.33333333 70:0.33333333 73:0.25 74:0.25 77:0.5 79:0.34782609 80:1 91:1 93:1 96:1 98:1 103:1 105:1 109:1 113:1 114:1 125:1 128:1 133:0.01587724 134:0.020523708 135:0.15861308 
0.125 1:0.30530944 2:0.35010423 3:0.40670149 4:0.28640822 5:0.55 6:0.36842105 7:0.22222222 8:0.375 9:0.30769231 10:0.625 11:0.16666667 12:0.14285714 13:0.28571429 14:0.23076923 16:0.28571429 17:0.375 19:0.090909091 21:0.2 23:0.33333333 24:0.3 26:0.6 27:0.25 28:0.4 29:0.2 31:0.5 32:0.25 39:0.33333333 40:0.16666667 42:0.33333333 45:0.375 51:0.33333333 54:0.33333333 55:0.16666667 60:0.2 73:0.25 74:0.25 77:0.5 78:0.2 79:0.30434783 80:1 89:1 94:1 95:1 96:1 99:1 103:1 104:1 107:1 111:1 115:1 120:1 133:0.17429853 134:0.027246992 135:0.19404659 
-0.125 1:0.56494924 2:0.42572085 3:0.69503483 4:0.48860245 5:0.65 6:0.36842105 7:0.44444444 9:0.23076923 10:0.75 11:0.5 13:0.57142857 14:0.15384615 15:0.22222222 17:0.625 19:0.27272727 25:0.11111111 26:0.4 28:0.2 29:0.6 30:0.4 32:0.5 34:0.2 40:0.16666667 41:0.2 42:0.66666667 44:0.6 48:0.16666667 49:0.16666667 55:0.5 56:0.25 60:0.4 62:0.125 79:0.47826087 80:1 91:1 96:1 97:1 101:1 109:1 121:1 132:1 133:0.70682874 134:0.10226469 135:0.79033067 
-0.125 1:0.32296893 2:0.63164971 3:0.86189425 4:0.56377271 5:0.5 6:0.47368421 7:0.38888889 8:0.125 9:0.30769231 10:0.125 11:0.66666667 13:0.57142857 14:0.23076923 15:0.22222222 16:0.14285714 17:0.125 18:0.44444444 19:0.090909091 20:0.125 22:0.25 25:0.22222222 26:0.2 28:0.2 32:0.25 33:0.66666667 34:0.2 40:0.16666667 42:1 44:0.4 46:0.33333333 52:0.16666667 58:0.42857143 59:0.33333333 63:0.2 64:0.16666667 69:0.25 70:0.16666667 79:0.52173913 80:1 89:1 97:1 102:1 104:1 106:1 108:1 132:1 133:0.21398605 134:0.054847841 135:0.41813614 
0.125 1:0.5438914 2:0.49319185 3:0.61358266 4:0.48661276 5:0.45 6:0.47368421 7:0.38888889 8:0.1875 9:0.076923077 10:0.625 11:0.33333333 12:0.14285714 13:0.57142857 14:0.15384615 15:0.22222222 16:0.14285714 17:0.25 18:0.11111111 19:0.27272727 20:0.125 21:0.2 22:0.25 26:0.2 28:0.6 29:0.2 31:0.25 32:0.5 37:0.25 41:0.6 42:0.33333333 44:0.2 45:0.125 46:0.16666667 49:0.33333333 51:0.33333333 55:0.16666667 57:0.25 61:0.16666667 62:0.125 63:0.2 64:0.16666667 68:0.33333333 70:0.16666667 71:0.16666667 79:0.52173913 80:1 87:1 91:1 95:1 101:1 103:1 106:1 108:1 112:1 115:1 133:0.57533256 134:0.24557679 135:0.71440646 
-0.125 1:0.55606605 2:0.59172031 3:0.39926016 4:0.39716355 5:0.3 6:0.47368421 7:0.27777778 8:0.5 9:0.076923077 10:0.5 11:0.16666667 13:0.28571429 14:0.23076923 15:0.11111111 16:0.42857143 17:0.125 19:0.090909091 20:0.375 21:0.2 22:0.375 23:0.33333333 24:0.2 26:0.2 28:0.2 29:0.4 34:0.2 41:0.2 42:0.33333333 45:0.25 47:0.33333333 50:0.16666667 51:0.33333333 52:0.33333333 55:0.16666667 63:0.2 64:0.16666667 66:0.4 69:0.25 71:0.16666667 72:0.25 73:0.25 75:0.25 77:0.5 79:0.43478261 80:1 95:1 99:1 109:1 113:1 115:1 123:1 129:1 133:0.72720163 134:0.25583864 135:0.74425918 
0.05253299272228028 1:0.41846411 2:0.53760499 3:0.61054367 4:0.45688683 5:0.4 6:0.36842105 7:0.44444444 8:0.3125 9:0.23076923 10:0.375 11:0.16666667 12:0.14285714 13:0.28571429 14:0.15384615 15:0.22222222 16:0.28571429 17:0.125 19:0.36363636 20:0.25 21:0.2 22:0.375 23:0.16666667 25:0.11111111 26:0.4 28:0.2 29:0.2 31:0.25 34:0.2 36:0.33333333 41:0.2 43:0.25 45:0.125 46:0.16666667 47:0.16666667 49:0.16666667 50:0.16666667 52:0.16666667 53:0.33333333 56:0.25 62:0.25 63:0.2 64:0.33333333 67:0.25 69:0.25 70:0.16666667 71:0.16666667 73:0.25 79:0.47826087 80:1 86:1 87:1 90:1 92:1 95:1 97:1 103:1 110:1 112:1 123:1 133:0.66296402 134:0.07891012 135:0.60157652 
0.125 1:0.34510107 2:0.64631637 3:0.47077004 4:0.46392426 5:0.45 6:0.47368421 7:0.38888889 8:0.1875 9:0.076923077 10:0.75 11:0.33333333 13:0.57142857 14:0.23076923 15:0.22222222 17:0.25 19:0.18181818 20:0.375 21:0.2 22:0.125 23:0.16666667 26:0.2 28:0.6 29:0.4 30:0.2 34:0.2 35:0.33333333 41:0.6 42:0.33333333 44:0.2 45:0.125 46:0.16666667 48:0.16666667 49:0.16666667 55:0.33333333 63:0.4 64:0.16666667 65:0.2 68:0.33333333 70:0.16666667 73:0.25 79:0.52173913 80:1 89:1 101:1 103:1 109:1 115:1 133:0.23087551 134:0.06334041 135:0.48287981 
0.1165528059818389 1:0.78816598 2:0.83708236 3:0.59184905 4:0.76159035 5:0.25 6:0.26315789 7:0.88888889 8:0.125 9:0.076923077 10:0.25 11:0.33333333 13:0.14285714 14:0.076923077 15:0.44444444 17:0.25 18:0.33333333 19:0.81818182 20:0.25 23:0.16666667 26:0.2 29:0.2 30:0.2 34:0.4 42:0.33333333 46:0.33333333 49:0.5 55:0.16666667 56:0.25 58:0.14285714 60:0.2 61:0.33333333 62:0.5 63:0.4 65:0.2 73:0.25 79:0.73913043 80:1 87:1 91:1 101:1 104:1 109:1 112:1 116:1 118:1 124:1 127:1 133:0.21758808 134:0.12137297 135:0.6442147 
0.125 1:0.57906094 2:0.3352692 3:0.40604948 4:0.28396651 5:0.65 6:0.42105263 7:0.16666667 8:0.25 9:0.30769231 10:0.625 11:0.33333333 12:0.28571429 13:0.71428571 14:0.15384615 15:0.11111111 17:0.25 20:0.125 21:0.2 22:0.25 24:0.1 25:0.11111111 26:0.6 28:0.4 29:0.2 30:0.2 32:0.25 35:0.33333333 37:0.5 40:0.33333333 41:0.2 42:0.66666667 44:0.6 48:0.16666667 55:0.16666667 57:0.25 66:0.2 70:0.33333333 79:0.30434783 80:1 87:1 91:1 100:1 102:1 107:1 115:1 126:1 133:0.95818145 134:0.37968861 135:0.82606377 
-0.125 1:0.57906094 2:0.62811791 3:0.61552358 4:0.52557711 5:0.25 6:0.42105263 7:0.38888889 8:0.5 9:0.076923077 10:0.375 11:0.16666667 14:0.076923077 15:0.44444444 16:0.57142857 17:0.375 19:0.090909091 20:0.375 22:0.625 23:0.16666667 24:0.1 26:0.2 29:0.4 31:0.25 35:0.33333333 46:0.16666667 47:0.16666667 48:0.33333333 49:0.16666667 50:0.16666667 52:0.33333333 53:0.33333333 55:0.33333333 56:0.25 60:0.2 64:0.33333333 66:0.2 71:0.5 72:0.5 75:0.25 76:0.2 79:0.47826087 80:1 87:1 88:1 90:1 96:1 99:1 101:1 103:1 106:1 109:1 113:1 116:1 118:1 128:1 133:0.62328659 134:0.0046001415 135:0.079880489 
0.125 1:0.5038825 2:0.62951077 3:0.55943067 4:0.50574304 5:0.35 6:0.57894737 7:0.22222222 8:0.375 9:0.15384615 10:0.375 11:0.16666667 12:0.14285714 13:0.28571429 14:0.30769231 15:0.22222222 16:0.57142857 17:0.25 19:0.090909091 20:0.125 22:0.625 26:0.2 27:0.25 29:0.6 32:0.25 40:0.16666667 41:0.2 44:0.2 46:0.16666667 47:0.5 48:0.16666667 49:0.16666667 52:0.66666667 55:0.16666667 56:0.25 63:0.2 64:0.16666667 69:0.25 70:0.33333333 71:0.16666667 72:0.25 79:0.47826087 80:1 89:1 93:1 96:1 102:1 106:1 108:1 116:1 133:0.65776049 134:0.060863411 135:0.34658828 
0.125 1:0.40670149 2:0.64631637 3:0.4547451 4:0.47895326 5:0.5 6:0.57894737 7:0.22222222 8:0.1875 9:0.30769231 10:0.625 12:0.14285714 13:0.42857143 14:0.30769231 15:0.33333333 16:0.14285714 17:0.25 19:0.090909091 20:0.125 22:0.375 25:0.11111111 26:0.6 28:0.2 29:0.4 30:0.2 31:0.25 37:0.25 40:0.16666667 41:0.2 43:0.25 44:0.4 45:0.125 46:0.33333333 48:0.33333333 49:0.16666667 52:0.16666667 55:0.16666667 63:0.2 64:0.16666667 70:0.33333333 79:0.47826087 80:1 90:1 94:1 101:1 105:1 108:1 114:1 115:1 133:0.85214392 134:0.3064402 135:0.66670198 
-0.08848509279469184 1:0.53701896 2:0.40139621 3:0.43316515 4:0.27410885 5:0.4 6:0.21052632 7:0.33333333 8:0.625 9:0.15384615 10:0.25 11:0.33333333 12:0.28571429 13:0.14285714 14:0.076923077 16:0.42857143 17:0.375 19:0.090909091 20:0.25 21:0.2 22:0.25 23:0.5 24:0.3 26:0.2 29:0.4 32:0.25 35:0.33333333 38:0.25 42:0.33333333 47:0.33333333 51:0.33333333 53:0.33333333 54:0.33333333 55:0.16666667 57:0.25 60:0.2 64:0.16666667 66:0.2 69:0.25 72:0.25 73:0.25 74:0.25 75:0.25 76:0.2 77:0.25 78:0.2 79:0.26086957 80:1 86:1 88:1 91:1 97:1 99:1 101:1 103:1 109:1 113:1 116:1 119:1 128:1 129:1 133:0.57322869 134:0.11924982 135:0.25944407 
-0.1248200757580567 1:0.61358266 2:0.60785803 3:0.77885235 4:0.61958858 5:0.2 6:0.47368421 7:0.5 8:0.375 9:0.076923077 10:0.25 11:0.16666667 13:0.14285714 14:0.30769231 15:0.33333333 16:0.28571429 17:0.125 19:0.36363636 20:0.5 22:0.5 23:0.16666667 26:0.2 29:0.2 31:0.25 34:0.2 41:0.2 45:0.25 46:0.33333333 47:0.16666667 49:0.16666667 50:0.33333333 52:0.16666667 53:0.33333333 56:0.25 62:0.25 63:0.4 64:0.5 69:0.25 70:0.33333333 71:0.16666667 73:0.25 79:0.60869565 80:1 87:1 91:1 92:1 93:1 98:1 102:1 104:1 109:1 111:1 116:1 118:1 125:1 133:0.66437148 134:0.079617834 135:0.60697182 
-0.125 1:0.56980027 2:0.53148588 3:0.66315036 4:0.52199206 5:0.35 6:0.42105263 7:0.44444444 8:0.3125 9:0.23076923 10:0.25 11:0.33333333 14:0.23076923 15:0.33333333 16:0.28571429 17:0.25 18:0.22222222 19:0.090909091 20:0.375 21:0.2 22:0.25 23:0.33333333 25:0.11111111 26:0.4 30:0.2 31:0.25 33:0.66666667 45:0.25 46:0.16666667 47:0.16666667 48:0.33333333 49:0.16666667 52:0.16666667 53:0.33333333 56:0.25 58:0.14285714 63:0.2 64:0.16666667 65:0.2 68:0.33333333 70:0.16666667 75:0.5 79:0.52173913 80:1 88:1 89:1 94:1 97:1 102:1 104:1 110:1 111:1 114:1 115:1 133:0.97865098 134:0.42321302 135:0.92075701 
0.05116033040303008 1:0.46632369 2:0.482383 3:0.50282817 4:0.44283404 5:0.45 6:0.57894737 7:0.22222222 8:0.25 9:0.076923077 10:0.75 11:0.33333333 13:0.42857143 14:0.23076923 15:0.11111111 16:0.57142857 17:0.375 18:0.11111111 21:0.2 22:0.25 23:0.16666667 26:0.2 29:0.6 31:0.75 32:0.25 33:0.33333333 41:0.4 42:0.33333333 44:0.4 47:0.16666667 48:0.16666667 51:0.33333333 52:0.33333333 53:0.33333333 55:0.5 58:0.14285714 68:0.33333333 69:0.25 71:0.16666667 73:0.25 79:0.47826087 80:1 90:1 94:1 95:1 97:1 102:1 105:1 109:1 115:1 133:0.010290393 134:0.010615711 135:0.082041246 
-0.125 1:0.69503483 2:0.38594396 3:0.6443844 4:0.55346321 5:0.4 6:0.47368421 7:0.44444444 8:0.1875 9:0.076923077 10:0.625 11:0.16666667 12:0.14285714 13:0.42857143 14:0.15384615 15:0.33333333 16:0.28571429 17:0.375 18:0.11111111 19:0.27272727 22:0.25 23:0.16666667 26:0.2 28:0.4 29:0.2 31:0.5 32:0.25 38:0.25 41:0.4 43:0.25 44:0.2 45:0.125 46:0.16666667 49:0.33333333 52:0.33333333 55:0.33333333 56:0.25 60:0.2 62:0.125 70:0.16666667 71:0.16666667 73:0.25 79:0.56521739 80:1 91:1 93:1 94:1 96:1 103:1 106:1 108:1 112:1 122:1 133:0.75663014 134:0.10474168 135:0.59645425 
0.125 1:0.5038825 2:0.36757183 3:0.44527437 4:0.41238733 5:0.4 6:0.31578947 7:0.38888889 8:0.4375 9:0.23076923 10:0.375 12:0.14285714 14:0.15384615 15:0.11111111 16:0.57142857 17:0.5 19:0.18181818 20:0.125 22:0.25 23:0.66666667 24:0.1 26:0.4 27:0.25 29:0.2 31:0.5 39:0.33333333 45:0.125 46:0.16666667 47:0.16666667 50:0.16666667 52:0.33333333 53:0.66666667 55:0.16666667 60:0.4 65:0.2 70:0.16666667 72:0.25 73:0.5 74:0.5 77:0.25 79:0.39130435 80:1 88:1 91:1 96:1 97:1 102:1 107:1 110:1 113:1 119:1 132:1 133:0.59663581 134:0.015215853 135:0.086647071 
0.125 1:0.11236237 2:0.50158197 3:0.44527437 4:0.17253837 5:0.45 6:0.21052632 7:0.22222222 8:0.6875 9:0.15384615 10:0.125 11:0.16666667 12:0.71428571 13:0.14285714 15:0.11111111 16:0.28571429 17:0.25 19:0.090909091 20:0.125 21:0.6 22:0.5 23:0.16666667 24:0.3 27:0.5 32:0.25 36:0.33333333 37:0.5 38:0.25 39:0.33333333 43:0.25 47:0.16666667 48:0.16666667 51:0.33333333 52:0.16666667 57:0.5 63:0.2 66:0.2 67:0.25 68:0.33333333 69:0.25 70:0.16666667 71:0.16666667 72:0.25 74:0.25 76:0.2 78:0.2 79:0.17391304 80:1 87:1 88:1 89:1 94:1 98:1 99:1 102:1 106:1 107:1 113:1 115:1 118:1 130:1 133:0.92341019 134:0.35774947 135:0.77833222 
0.125 1:0.61358266 2:0.57100117 3:0.56389849 4:0.46697158 5:0.35 6:0.26315789 7:0.55555556 8:0.375 9:0.23076923 10:0.125 11:0.33333333 12:0.14285714 13:0.14285714 14:0.15384615 15:0.22222222 16:0.14285714 17:0.25 19:0.27272727 20:0.5 22:0.375 23:0.5 27:0.25 30:0.2 35:0.33333333 37:0.25 40:0.16666667 44:0.2 46:0.16666667 47:0.16666667 49:0.16666667 50:0.16666667 53:0.33333333 55:0.16666667 60:0.2 63:0.4 64:0.33333333 65:0.4 70:0.5 73:0.25 74:0.5 79:0.47826087 80:1 99:1 101:1 105:1 109:1 124:1 133:0.59947993 134:0.021939137 135:0.12493299 
-0.125 1:0.37999556 2:0.46717077 3:0.3431175 4:0.28294328 5:0.55 6:0.15789474 7:0.38888889 8:0.4375 9:0.30769231 10:0.25 11:0.33333333 12:0.42857143 15:0.11111111 16:0.28571429 17:0.625 19:0.18181818 21:0.2 22:0.25 23:0.33333333 24:0.2 25:0.11111111 27:0.5 31:0.25 32:0.5 37:0.5 39:0.33333333 46:0.16666667 48:0.16666667 51:0.33333333 54:0.33333333 55:0.33333333 56:0.25 57:0.25 60:0.2 62:0.125 67:0.25 70:0.16666667 72:0.25 73:0.25 74:0.25 77:0.5 79:0.26086957 80:1 87:1 90:1 92:1 95:1 100:1 107:1 112:1 115:1 118:1 124:1 133:0.55074812 134:0.072894551 135:0.15859193 
0.03203067264184574 1:0.69503483 2:0.62410494 3:0.53570905 4:0.47934207 5:0.35 6:0.31578947 7:0.5 8:0.375 9:0.076923077 10:0.25 11:0.33333333 12:0.28571429 13:0.14285714 14:0.23076923 15:0.22222222 16:0.14285714 17:0.5 19:0.27272727 20:0.125 22:0.25 23:0.33333333 24:0.2 27:0.25 28:0.2 30:0.2 34:0.4 37:0.25 39:0.33333333 42:0.33333333 45:0.25 46:0.16666667 47:0.16666667 49:0.16666667 50:0.16666667 54:0.33333333 55:0.33333333 56:0.25 57:0.25 60:0.6 64:0.16666667 70:0.33333333 73:0.25 77:0.5 79:0.47826087 80:1 87:1 89:1 93:1 96:1 101:1 108:1 110:1 113:1 114:1 118:1 131:1 133:0.84555417 134:0.2866242 135:0.62358961 
-0.125 1:0.78507348 2:0.51454911 3:0.78816598 4:0.60199419 5:0.4 6:0.21052632 7:0.72222222 8:0.1875 9:0.23076923 10:0.25 11:0.5 13:0.14285714 15:0.33333333 16:0.14285714 17:0.375 18:0.22222222 19:0.54545455 20:0.25 22:0.125 23:0.16666667 26:0.2 28:0.2 30:0.2 32:0.5 33:0.33333333 40:0.16666667 46:0.16666667 49:0.33333333 50:0.16666667 52:0.16666667 55:0.16666667 59:0.33333333 60:0.2 61:0.16666667 62:0.375 63:0.2 65:0.2 70:0.16666667 74:0.25 79:0.56521739 80:1 83:1 85:1 87:1 90:1 98:1 101:1 104:1 108:1 112:1 116:1 127:1 133:0.28043921 134:0.01556971 135:0.045293782 
-0.06153890318448952 1:0.49110261 2:0.71088387 3:0.58121897 4:0.53049008 5:0.45 6:0.42105263 7:0.44444444 8:0.1875 9:0.076923077 10:0.5 11:0.33333333 12:0.28571429 13:0.42857143 14:0.076923077 15:0.44444444 17:0.5 18:0.11111111 19:0.18181818 20:0.125 22:0.375 26:0.2 28:0.4 29:0.2 32:0.5 37:0.5 40:0.16666667 43:0.5 44:0.2 46:0.16666667 48:0.33333333 49:0.16666667 50:0.16666667 55:0.5 56:0.25 58:0.14285714 61:0.16666667 62:0.125 64:0.16666667 71:0.5 79:0.52173913 80:1 83:1 85:1 88:1 90:1 93:1 97:1 100:1 103:1 109:1 115:1 126:1 133:0.31464576 134:0.076433121 135:0.22235129 
-0.1229338707967913 1:0.40604948 2:0.6950012 3:0.4359805 4:0.46774983 5:0.35 6:0.42105263 7:0.33333333 8:0.4375 9:0.15384615 10:0.125 11:0.33333333 12:0.28571429 13:0.28571429 14:0.30769231 15:0.33333333 17:0.25 20:0.5 22:0.5 23:0.16666667 24:0.1 25:0.11111111 28:0.2 32:0.25 35:0.33333333 37:0.25 39:0.33333333 40:0.16666667 43:0.25 45:0.25 46:0.5 48:0.16666667 50:0.33333333 55:0.16666667 57:0.25 64:0.5 69:0.25 70:0.5 75:0.25 77:0.25 79:0.43478261 80:1 83:1 85:1 87:1 93:1 101:1 109:1 111:1 116:1 129:1 133:0.1496925 134:0.01556971 135:0.11088376 
0.125 1:0.52319537 2:0.62951077 3:0.4246293 4:0.44704122 5:0.35 6:0.52631579 7:0.22222222 8:0.4375 9:0.076923077 10:0.5 11:0.33333333 13:0.28571429 14:0.23076923 15:0.22222222 16:0.57142857 17:0.25 20:0.25 21:0.2 22:0.5 24:0.1 28:0.2 29:0.2 30:0.2 31:0.25 32:0.25 35:0.33333333 40:0.16666667 41:0.2 44:0.2 45:0.125 47:0.33333333 48:0.16666667 50:0.16666667 51:0.33333333 52:0.16666667 54:0.33333333 55:0.33333333 64:0.33333333 70:0.33333333 71:0.16666667 72:0.25 76:0.2 79:0.43478261 80:1 83:1 85:1 87:1 88:1 90:1 93:1 107:1 110:1 116:1 120:1 133:0.26736296 134:0.072540694 135:0.51661754 
0.125 1:0.50033308 2:0.62572014 3:0.61358266 4:0.60646268 5:0.3 6:0.42105263 7:0.55555556 8:0.25 10:0.5 11:0.16666667 12:0.14285714 13:0.28571429 14:0.30769231 15:0.22222222 16:0.14285714 17:0.375 19:0.54545455 20:0.125 22:0.125 23:0.16666667 24:0.1 28:0.2 29:0.6 32:0.25 37:0.25 41:0.2 43:0.25 45:0.25 46:0.33333333 47:0.16666667 49:0.33333333 54:0.33333333 55:0.5 60:0.4 62:0.375 63:0.2 69:0.25 74:0.25 77:0.25 79:0.60869565 80:1 83:1 85:1 90:1 96:1 101:1 104:1 105:1 108:1 110:1 112:1 116:1 117:1 120:1 123:1 127:1 131:1 133:0.66089385 134:0.068648266 135:0.39091934 
0.125 1:0.40604948 2:0.6950012 3:0.61370245 4:0.63845004 5:0.4 6:0.26315789 7:0.72222222 8:0.125 10:0.375 11:0.66666667 14:0.15384615 15:0.44444444 17:0.875 19:0.36363636 20:0.25 22:0.125 23:0.16666667 29:0.2 30:0.4 32:0.5 34:0.2 35:0.33333333 45:0.25 46:0.16666667 48:0.33333333 49:0.33333333 55:0.5 56:0.75 60:0.4 62:0.125 63:0.2 64:0.16666667 65:0.2 71:0.16666667 73:0.25 79:0.60869565 80:1 83:1 85:1 101:1 107:1 110:1 111:1 124:1 132:1 133:0.0018764687 134:0.0031847134 135:0.024612374 
0.125 1:0.61321882 2:0.55899895 3:0.5038825 4:0.48928595 5:0.4 6:0.52631579 7:0.27777778 8:0.3125 10:0.5 11:0.33333333 12:0.14285714 13:0.42857143 14:0.30769231 15:0.22222222 16:0.28571429 17:0.5 20:0.125 22:0.375 23:0.16666667 24:0.1 29:0.6 31:0.25 32:0.5 39:0.33333333 41:0.2 42:0.33333333 43:0.25 44:0.4 45:0.125 46:0.16666667 47:0.16666667 48:0.16666667 50:0.16666667 52:0.16666667 53:0.33333333 55:0.5 64:0.16666667 69:0.25 70:0.16666667 71:0.16666667 73:0.25 76:0.2 79:0.47826087 80:1 83:1 85:1 87:1 88:1 90:1 93:1 101:1 106:1 107:1 110:1 113:1 130:1 132:1 133:0.20889316 134:0.04423213 135:0.31501069 
-0.07296976385142738 1:0.3022842 2:0.64631637 3:0.51111903 4:0.50213177 5:0.2 6:0.10526316 7:0.72222222 8:0.5625 10:0.125 11:0.33333333 12:0.14285714 15:0.33333333 17:0.375 19:0.45454545 20:0.625 22:0.25 23:0.5 24:0.3 29:0.2 32:0.25 35:0.33333333 38:0.25 46:0.16666667 49:0.33333333 50:0.16666667 55:0.16666667 56:0.25 57:0.25 60:0.4 62:0.125 63:0.4 64:0.16666667 65:0.2 66:0.4 71:0.33333333 74:0.5 75:0.25 76:0.2 77:0.25 78:0.2 79:0.47826087 80:1 83:1 85:1 92:1 95:1 98:1 101:1 103:1 109:1 112:1 116:1 123:1 125:1 128:1 133:0.85204517 134:0.30537863 135:0.66439239 
-0.125 1:0.71411512 2:0.51684731 3:0.77120049 4:0.53673953 5:0.4 6:0.47368421 7:0.44444444 8:0.1875 10:0.5 11:0.5 12:0.14285714 13:0.42857143 14:0.30769231 15:0.22222222 16:0.14285714 17:0.5 18:0.11111111 19:0.090909091 20:0.125 22:0.125 23:0.33333333 28:0.2 29:0.4 30:0.2 32:0.5 38:0.25 41:0.2 42:0.66666667 44:0.4 45:0.25 46:0.16666667 48:0.33333333 53:0.33333333 55:0.5 57:0.25 58:0.14285714 61:0.16666667 64:0.16666667 72:0.25 74:0.25 75:0.25 79:0.56521739 80:1 83:1 85:1 88:1 91:1 93:1 94:1 97:1 106:1 109:1 111:1 119:1 122:1 133:0.66431645 134:0.077140835 135:0.4392805 
-0.03869639859999711 1:0.59184905 2:0.35389883 3:0.78011255 4:0.46940612 5:0.25 6:0.26315789 7:0.55555556 8:0.5 10:0.125 11:0.33333333 12:0.28571429 15:0.33333333 16:0.28571429 17:0.25 18:0.22222222 19:0.27272727 20:0.375 21:0.4 22:0.375 23:0.33333333 24:0.1 32:0.25 35:0.33333333 37:0.25 39:0.33333333 47:0.16666667 49:0.16666667 50:0.16666667 51:0.66666667 57:0.5 58:0.14285714 60:0.2 62:0.125 63:0.2 64:0.16666667 65:0.4 68:0.33333333 71:0.33333333 72:0.25 74:0.25 76:0.2 79:0.47826087 80:1 83:1 85:1 86:1 91:1 92:1 95:1 96:1 99:1 101:1 102:1 104:1 108:1 113:1 115:1 133:0.29564957 134:0.06935598 135:0.20176321 
-0.07826343042008289 1:0.19591328 2:0.385641 3:0.76730194 4:0.3230477 5:0.3 6:0.31578947 7:0.33333333 8:0.625 10:0.125 11:0.33333333 12:0.42857143 13:0.14285714 14:0.15384615 15:0.11111111 16:0.28571429 17:0.125 18:0.22222222 19:0.090909091 20:0.25 21:0.6 22:0.25 23:0.33333333 24:0.3 32:0.25 35:0.33333333 36:0.33333333 39:0.66666667 41:0.2 44:0.2 45:0.125 46:0.16666667 49:0.16666667 53:0.66666667 57:0.25 58:0.28571429 61:0.16666667 64:0.16666667 68:0.33333333 72:0.5 75:0.25 76:0.2 78:0.2 79:0.34782609 80:1 83:1 85:1 86:1 88:1 89:1 95:1 98:1 106:1 109:1 111:1 115:1 125:1 133:0.67747962 134:0.17162067 135:0.3733839 
0.03585150044909084 1:0.59203639 2:0.42401538 3:0.71411512 4:0.48583388 5:0.45 6:0.31578947 7:0.5 8:0.25 9:0.15384615 10:0.125 11:0.83333333 12:0.14285714 13:0.42857143 15:0.11111111 16:0.28571429 17:0.375 18:0.22222222 19:0.27272727 20:0.125 22:0.5 30:0.2 32:0.25 33:0.33333333 34:0.4 35:0.33333333 37:0.25 41:0.2 42:0.66666667 44:0.2 49:0.16666667 52:0.33333333 57:0.25 59:0.33333333 60:0.4 61:0.16666667 64:0.16666667 69:0.5 70:0.16666667 72:0.25 79:0.47826087 80:1 83:1 89:1 94:1 99:1 104:1 108:1 115:1 133:0.23681392 134:0.13481953 135:0.71558542 
-0.0007404401584174956 1:0.72397299 2:0.48088966 3:0.5438914 4:0.53772222 5:0.4 6:0.26315789 7:0.61111111 8:0.25 9:0.076923077 10:0.125 11:0.83333333 13:0.28571429 14:0.076923077 15:0.11111111 16:0.28571429 17:0.5 18:0.11111111 19:0.36363636 20:0.25 22:0.375 23:0.16666667 29:0.2 33:0.33333333 34:0.8 42:0.33333333 46:0.16666667 47:0.16666667 48:0.16666667 52:0.16666667 53:0.33333333 55:0.16666667 56:0.5 58:0.14285714 60:0.4 63:0.4 64:0.33333333 69:0.5 72:0.25 73:0.25 79:0.52173913 80:1 83:1 89:1 95:1 97:1 101:1 103:1 109:1 113:1 123:1 133:0.060572008 134:0.074663836 135:0.57702343 
-0.05707275851761361 1:0.28479522 2:0.44390092 3:0.59203639 4:0.44104912 5:0.4 6:0.36842105 7:0.38888889 8:0.375 9:0.15384615 10:0.25 11:0.16666667 12:0.42857143 13:0.42857143 14:0.15384615 15:0.33333333 17:0.25 19:0.18181818 20:0.25 22:0.5 23:0.16666667 24:0.1 25:0.11111111 27:0.25 28:0.2 29:0.2 34:0.2 37:0.5 39:0.33333333 40:0.16666667 43:0.5 45:0.25 46:0.16666667 49:0.16666667 50:0.33333333 55:0.33333333 60:0.2 64:0.16666667 65:0.2 69:0.5 71:0.33333333 73:0.25 76:0.2 79:0.43478261 80:1 83:1 87:1 93:1 94:1 95:1 99:1 107:1 110:1 111:1 122:1 133:0.93258557 134:0.36234961 135:0.78834045 
-0.125 1:0.30530944 2:0.60560633 3:0.24243179 4:0.34453347 5:0.35 6:0.15789474 7:0.44444444 8:0.625 9:0.076923077 10:0.125 11:0.5 12:0.28571429 13:0.14285714 15:0.22222222 16:0.14285714 17:0.375 19:0.18181818 20:0.375 21:0.2 22:0.375 23:0.16666667 24:0.4 31:0.25 32:0.25 34:0.2 35:0.33333333 37:0.25 39:0.33333333 43:0.25 46:0.16666667 49:0.16666667 50:0.16666667 51:0.33333333 55:0.16666667 56:0.25 57:0.25 60:0.4 66:0.6 67:0.25 69:0.25 70:0.16666667 71:0.16666667 75:0.25 76:0.4 77:0.25 79:0.30434783 80:1 83:1 91:1 98:1 100:1 103:1 112:1 114:1 116:1 125:1 126:1 128:1 133:0.29659786 134:0.086694975 135:0.61742096 
0.125 1:0.5438914 2:0.46575702 3:0.52319537 4:0.41045332 5:0.35 6:0.47368421 7:0.27777778 8:0.4375 9:0.076923077 10:0.25 11:0.33333333 12:0.28571429 13:0.42857143 14:0.15384615 15:0.11111111 16:0.42857143 17:0.125 19:0.18181818 20:0.25 21:0.2 22:0.75 27:0.25 28:0.2 31:0.25 34:0.4 36:0.33333333 37:0.25 40:0.16666667 41:0.2 42:0.33333333 44:0.2 46:0.16666667 47:0.16666667 50:0.16666667 52:0.5 57:0.25 60:0.2 63:0.2 64:0.33333333 69:0.25 70:0.5 72:0.25 79:0.43478261 80:1 83:1 86:1 87:1 90:1 92:1 96:1 98:1 100:1 104:1 108:1 112:1 114:1 115:1 125:1 126:1 127:1 133:0.36376115 134:0.14366596 135:0.41793808 
0.1196214817894962 1:0.52319537 2:0.56674695 3:0.42509053 4:0.53842154 5:0.3 6:0.21052632 7:0.66666667 8:0.375 11:0.5 12:0.28571429 14:0.15384615 15:0.22222222 16:0.14285714 17:0.5 18:0.11111111 19:0.45454545 20:0.25 21:0.2 22:0.25 23:0.33333333 24:0.1 34:0.6 37:0.5 45:0.25 46:0.16666667 48:0.16666667 49:0.16666667 51:0.33333333 56:0.25 57:0.5 59:0.33333333 60:0.4 61:0.16666667 63:0.4 65:0.2 66:0.2 68:0.33333333 70:0.16666667 71:0.16666667 73:0.25 74:0.25 77:0.25 79:0.52173913 80:1 83:1 86:1 91:1 99:1 108:1 110:1 112:1 124:1 131:1 132:1 133:0.57767777 134:0.25406936 135:0.73911216 
0.009340950560321392 1:0.30343437 2:0.45913122 3:0.64440919 4:0.33917454 5:0.6 6:0.21052632 7:0.38888889 8:0.3125 9:0.30769231 10:0.25 11:0.5 12:0.28571429 13:0.14285714 14:0.076923077 15:0.22222222 16:0.14285714 17:0.5 19:0.18181818 20:0.125 21:0.4 22:0.25 24:0.1 25:0.11111111 26:0.2 27:0.25 29:0.4 32:0.5 34:0.2 36:0.33333333 39:0.33333333 40:0.16666667 44:0.2 47:0.16666667 48:0.16666667 50:0.16666667 51:0.33333333 55:0.16666667 56:0.25 57:0.25 60:0.2 62:0.125 64:0.16666667 67:0.25 68:0.33333333 71:0.33333333 76:0.2 79:0.30434783 80:1 83:1 89:1 94:1 95:1 99:1 107:1 113:1 133:0.82025456 134:0.25265393 135:0.5496827 
-0.125 1:0.51111903 2:0.44253828 3:0.56389849 4:0.43700663 5:0.5 6:0.10526316 7:0.66666667 8:0.25 9:0.23076923 10:0.25 11:0.66666667 12:0.14285714 13:0.42857143 17:0.375 19:0.63636364 20:0.25 22:0.125 23:0.16666667 24:0.1 26:0.2 27:0.25 28:0.4 34:0.4 35:0.66666667 40:0.33333333 42:0.33333333 44:0.2 55:0.16666667 56:0.25 60:0.6 62:0.5 64:0.16666667 66:0.2 70:0.16666667 74:0.25 77:0.25 79:0.43478261 80:1 83:1 87:1 88:1 93:1 94:1 96:1 101:1 105:1 109:1 116:1 118:1 122:1 133:0.32271998 134:0.092710545 135:0.26970388 
-0.125 1:0.38580469 2:0.61508337 3:0.67433756 4:0.56941916 5:0.3 6:0.47368421 7:0.5 8:0.25 10:0.5 11:0.16666667 12:0.14285714 13:0.14285714 14:0.38461538 15:0.22222222 16:0.14285714 17:0.5 19:0.27272727 20:0.25 22:0.125 23:0.5 29:0.6 34:0.2 38:0.25 41:0.2 45:0.375 46:0.33333333 47:0.16666667 48:0.16666667 50:0.16666667 52:0.16666667 55:0.5 57:0.25 60:0.2 62:0.25 65:0.4 69:0.25 73:0.5 75:0.25 79:0.60869565 80:1 83:1 87:1 93:1 96:1 102:1 104:1 109:1 112:1 115:1 118:1 133:0.70917544 134:0.10226469 135:0.77962159 
0.125 1:0.69503483 2:0.81676467 3:0.61358266 4:0.72779909 5:0.1 6:0.42105263 7:0.72222222 8:0.3125 10:0.125 11:0.16666667 14:0.23076923 15:0.44444444 16:0.28571429 17:0.125 18:0.33333333 19:0.45454545 20:0.375 22:0.25 23:0.5 31:0.25 34:0.2 45:0.125 46:0.5 49:0.16666667 50:0.33333333 52:0.16666667 53:0.33333333 55:0.16666667 58:0.14285714 59:0.33333333 60:0.2 61:0.16666667 62:0.25 63:0.2 64:0.16666667 65:0.4 70:0.33333333 74:0.25 79:0.73913043 80:1 83:1 91:1 92:1 95:1 99:1 101:1 104:1 105:1 108:1 112:1 114:1 127:1 133:0.2280297 134:0.12880396 135:0.68365641 
0.125 1:0.043865236 2:0.74653743 3:0.45756604 4:0.4176089 5:0.35 6:0.26315789 7:0.5 8:0.4375 9:0.076923077 10:0.25 11:0.33333333 12:0.28571429 13:0.14285714 14:0.076923077 15:0.11111111 16:0.42857143 17:0.25 18:0.22222222 19:0.36363636 21:0.4 22:0.125 23:0.33333333 24:0.2 27:0.25 29:0.2 30:0.2 32:0.25 34:0.2 36:0.33333333 39:0.33333333 41:0.2 47:0.33333333 49:0.16666667 51:0.33333333 53:0.33333333 54:0.33333333 56:0.25 57:0.25 58:0.14285714 59:0.33333333 61:0.33333333 62:0.25 67:0.25 69:0.25 73:0.25 76:0.2 77:0.25 79:0.43478261 80:1 83:1 89:1 92:1 101:1 108:1 113:1 114:1 123:1 129:1 133:0.513151 134:0.22116065 135:0.64337758 
-0.125 1:0.55943067 2:0.66591848 3:0.59184905 4:0.59099076 5:0.3 6:0.26315789 7:0.72222222 8:0.25 10:0.25 11:0.5 13:0.14285714 14:0.15384615 15:0.11111111 16:0.28571429 17:0.375 18:0.11111111 19:0.63636364 20:0.25 21:0.2 22:0.125 23:0.33333333 29:0.2 30:0.2 32:0.25 34:0.4 45:0.125 47:0.33333333 49:0.16666667 52:0.16666667 53:0.33333333 55:0.33333333 56:0.25 58:0.14285714 60:0.2 61:0.16666667 62:0.375 63:0.4 65:0.2 68:0.33333333 69:0.25 73:0.25 74:0.25 79:0.60869565 80:1 83:1 86:1 87:1 89:1 93:1 96:1 101:1 103:1 104:1 109:1 113:1 133:0.71032893 134:0.10828025 135:0.83682071 
-0.125 1:0.57432306 2:0.91788044 3:0.67433756 4:0.80666524 5:0.1 6:0.52631579 7:0.72222222 8:0.1875 10:0.125 11:0.16666667 13:0.14285714 14:0.30769231 15:0.33333333 16:0.28571429 18:0.55555556 19:0.63636364 20:0.125 22:0.125 23:0.33333333 34:0.2 41:0.2 44:0.2 45:0.25 46:0.33333333 49:0.5 52:0.16666667 53:0.33333333 58:0.42857143 59:0.33333333 61:0.66666667 62:0.25 63:0.2 65:0.2 72:0.25 74:0.25 79:0.82608696 80:1 83:1 88:1 90:1 92:1 104:1 109:1 110:1 111:1 115:1 124:1 127:1 133:0.086846 134:0.013092711 135:0.099813144 
0.125 1:0.71411512 2:0.4789617 3:0.67433756 4:0.67364895 5:0.25 6:0.47368421 7:0.61111111 8:0.1875 10:0.375 11:0.33333333 13:0.28571429 14:0.15384615 15:0.44444444 16:0.14285714 17:0.125 18:0.55555556 19:0.27272727 20:0.25 21:0.2 23:0.33333333 28:0.2 29:0.4 33:0.33333333 34:0.2 41:0.4 44:0.2 46:0.33333333 49:0.16666667 50:0.16666667 53:0.33333333 55:0.16666667 58:0.14285714 59:0.33333333 61:0.33333333 63:0.2 65:0.2 68:0.33333333 73:0.25 74:0.25 79:0.69565217 80:1 83:1 96:1 102:1 104:1 109:1 112:1 115:1 133:0.16223092 134:0.081740977 135:0.43385888 
0.125 1:0.42509053 2:0.61356641 3:0.64440919 4:0.60898303 5:0.25 6:0.47368421 7:0.44444444 8:0.375 10:0.125 11:0.33333333 12:0.28571429 13:0.28571429 14:0.15384615 15:0.44444444 16:0.28571429 17:0.25 18:0.22222222 19:0.18181818 20:0.25 22:0.625 31:0.25 34:0.2 35:0.33333333 37:0.5 43:0.5 44:0.2 46:0.33333333 48:0.33333333 49:0.16666667 52:0.33333333 55:0.16666667 56:0.25 59:0.33333333 61:0.16666667 63:0.2 64:0.16666667 69:0.25 70:0.5 71:0.16666667 79:0.56521739 80:1 83:1 89:1 92:1 94:1 95:1 102:1 104:1 105:1 109:1 112:1 116:1 133:0.37119882 134:0.1581741 135:0.46014364 
-0.125 1:0.67433756 2:0.5604352 3:0.36162238 4:0.6082645 5:0.2 6:0.68421053 7:0.33333333 8:0.3125 10:0.25 11:0.33333333 13:0.28571429 14:0.53846154 15:0.11111111 16:0.42857143 18:0.11111111 19:0.27272727 20:0.25 21:0.2 22:0.5 29:0.4 34:0.4 41:0.2 42:0.33333333 44:0.2 45:0.375 46:0.16666667 47:0.33333333 50:0.16666667 51:0.33333333 52:0.33333333 58:0.14285714 61:0.16666667 62:0.125 63:0.2 64:0.33333333 69:0.25 70:0.33333333 72:0.25 79:0.65217391 80:1 83:1 90:1 93:1 94:1 98:1 102:1 107:1 110:1 113:1 115:1 122:1 125:1 133:0.70938658 134:0.10686483 135:0.82588188 
-0.125 1:0.67433756 2:0.77698138 3:0.77885235 4:0.83292221 5:0.2 6:0.57894737 7:0.66666667 8:0.0625 10:0.125 11:0.33333333 13:0.28571429 14:0.53846154 15:0.33333333 17:0.125 18:0.44444444 19:0.54545455 20:0.125 23:0.16666667 29:0.2 32:0.25 34:0.2 41:0.2 42:0.33333333 44:0.2 45:0.5 46:0.5 49:0.33333333 50:0.16666667 58:0.42857143 61:0.66666667 62:0.25 65:0.2 74:0.25 79:0.82608696 80:1 83:1 102:1 109:1 110:1 132:1 133:0.085673122 134:0.012384996 135:0.094417839 
-0.125 1:0.63259524 2:0.71936034 3:0.77885235 4:0.7865604 5:0.1 6:0.68421053 7:0.5 8:0.25 11:0.33333333 13:0.14285714 14:0.46153846 15:0.33333333 16:0.42857143 18:0.66666667 19:0.27272727 22:0.25 23:0.16666667 24:0.1 33:0.33333333 34:0.2 42:0.33333333 44:0.2 45:0.375 46:0.5 49:0.33333333 52:0.33333333 54:0.33333333 58:0.42857143 59:0.66666667 61:0.5 70:0.16666667 72:0.25 77:0.25 79:0.7826087 80:1 83:1 86:1 91:1 102:1 106:1 109:1 110:1 112:1 115:1 133:0.24012872 134:0.13729653 135:0.72873266 
0.125 1:0.5438914 2:0.24448331 3:0.61102148 4:0.33656462 5:0.45 6:0.15789474 7:0.5 8:0.4375 9:0.15384615 10:0.125 11:0.33333333 12:0.42857143 13:0.28571429 15:0.11111111 16:0.14285714 17:0.25 19:0.36363636 20:0.375 21:0.4 22:0.375 23:0.33333333 25:0.11111111 31:0.25 34:0.4 36:0.33333333 37:0.25 38:0.25 41:0.2 43:0.25 44:0.2 48:0.16666667 53:0.33333333 57:0.5 60:0.2 62:0.25 63:0.2 64:0.33333333 67:0.25 69:0.25 70:0.16666667 71:0.16666667 75:0.5 79:0.34782609 80:1 83:1 87:1 88:1 91:1 92:1 95:1 96:1 97:1 101:1 104:1 107:1 114:1 119:1 127:1 133:0.60426516 134:0.14472753 135:0.31487426 
0.08838891601191137 1:0.51437189 2:0.72041874 3:0.4547451 4:0.54452871 5:0.45 6:0.36842105 7:0.55555556 8:0.125 9:0.15384615 10:0.5 11:0.33333333 12:0.14285714 13:0.42857143 14:0.15384615 15:0.22222222 17:0.375 19:0.54545455 20:0.125 22:0.25 25:0.11111111 26:0.2 28:0.2 29:0.4 30:0.2 34:0.4 37:0.25 41:0.4 42:0.33333333 44:0.4 48:0.16666667 49:0.16666667 55:0.16666667 57:0.25 60:0.4 62:0.375 63:0.2 64:0.16666667 70:0.16666667 71:0.16666667 79:0.56521739 80:1 83:1 91:1 94:1 101:1 105:1 108:1 115:1 124:1 133:0.12411196 134:0.0031847134 135:0.02268077 
0.125 1:0.4441937 2:0.58446507 3:0.57906094 4:0.47823054 5:0.45 6:0.42105263 7:0.38888889 8:0.25 10:0.5 11:0.5 12:0.14285714 13:0.57142857 14:0.15384615 15:0.22222222 16:0.14285714 17:0.5 19:0.090909091 20:0.25 22:0.375 23:0.16666667 28:0.6 30:0.2 32:0.5 34:0.2 37:0.25 41:0.6 44:0.2 45:0.25 48:0.16666667 50:0.16666667 53:0.33333333 55:0.16666667 56:0.5 57:0.25 63:0.2 64:0.33333333 70:0.16666667 71:0.16666667 72:0.25 73:0.25 79:0.47826087 80:1 83:1 91:1 94:1 97:1 100:1 102:1 104:1 108:1 110:1 126:1 131:1 133:0.031022304 134:0.047062987 135:0.36371619 
0.113730873759534 2:0.69367197 3:0.5038825 4:0.3896747 5:0.3 6:0.57894737 7:0.16666667 8:0.5 10:0.375 11:0.16666667 12:0.28571429 13:0.42857143 14:0.38461538 15:0.11111111 16:0.28571429 19:0.090909091 20:0.25 21:0.4 22:0.5 24:0.2 28:0.2 29:0.4 34:0.2 36:0.66666667 41:0.4 43:0.25 44:0.2 45:0.25 46:0.16666667 47:0.33333333 50:0.16666667 52:0.16666667 54:0.33333333 63:0.2 64:0.16666667 66:0.2 69:0.25 70:0.33333333 76:0.4 79:0.43478261 80:1 83:1 86:1 88:1 89:1 92:1 93:1 95:1 99:1 102:1 105:1 108:1 111:1 114:1 115:1 133:0.66290646 134:0.029016277 135:0.50386155 
-0.125 1:0.52319537 2:0.48246345 3:0.71411512 4:0.57940225 5:0.45 6:0.52631579 7:0.38888889 8:0.125 9:0.30769231 10:0.125 11:0.66666667 13:0.57142857 14:0.23076923 15:0.22222222 16:0.14285714 18:0.55555556 19:0.090909091 20:0.125 22:0.25 25:0.22222222 26:0.2 28:0.2 33:1 34:0.2 40:0.33333333 42:0.66666667 44:0.2 46:0.33333333 52:0.16666667 58:0.42857143 59:0.33333333 63:0.2 64:0.16666667 69:0.25 70:0.16666667 79:0.56521739 80:1 83:1 91:1 92:1 94:1 98:1 104:1 106:1 108:1 112:1 115:1 125:1 133:0.21328233 134:0.054493984 135:0.41543849 
0.125 1:0.49372418 2:0.59172031 3:0.59184905 4:0.56621232 5:0.2 6:0.15789474 7:0.77777778 8:0.4375 9:0.076923077 10:0.125 11:0.33333333 13:0.14285714 15:0.22222222 16:0.14285714 17:0.125 18:0.11111111 19:0.63636364 20:0.625 22:0.25 23:0.5 24:0.1 26:0.2 31:0.25 33:0.33333333 35:0.33333333 42:0.33333333 46:0.16666667 49:0.33333333 52:0.16666667 60:0.2 62:0.25 63:0.8 64:0.16666667 65:0.4 66:0.2 70:0.16666667 71:0.16666667 74:0.75 77:0.25 79:0.56521739 80:1 83:1 91:1 93:1 98:1 101:1 103:1 104:1 109:1 112:1 116:1 133:0.27907763 134:0.16489738 135:0.87523046 
0.125 1:0.59203639 2:0.79490313 3:0.72397299 4:0.76181685 5:0.05 6:0.68421053 7:0.44444444 8:0.375 11:0.16666667 14:0.38461538 15:0.55555556 16:0.42857143 18:0.55555556 19:0.090909091 20:0.25 22:0.5 23:0.16666667 24:0.1 33:0.33333333 45:0.25 46:0.16666667 47:0.33333333 49:0.16666667 50:0.33333333 52:0.33333333 54:0.33333333 58:0.28571429 59:0.33333333 61:0.16666667 64:0.16666667 65:0.2 70:0.33333333 71:0.33333333 76:0.2 79:0.73913043 80:1 83:1 91:1 92:1 102:1 106:1 109:1 113:1 115:1 133:0.26366381 134:0.15392781 135:0.81700698 
-0.125 1:0.76730194 2:0.79205049 3:0.59184905 4:0.64446442 5:0.3 6:0.63157895 7:0.38888889 8:0.1875 10:0.5 11:0.16666667 12:0.14285714 13:0.42857143 14:0.46153846 15:0.33333333 16:0.14285714 17:0.125 18:0.33333333 19:0.18181818 20:0.125 21:0.2 23:0.16666667 29:0.6 31:0.25 33:0.33333333 38:0.25 41:0.6 44:0.6 45:0.375 46:0.16666667 49:0.16666667 50:0.16666667 55:0.16666667 58:0.14285714 60:0.2 62:0.125 79:0.65217391 80:1 83:1 86:1 87:1 90:1 102:1 106:1 108:1 116:1 121:1 133:0.75547816 134:0.28485492 135:0.82867032 
0.125 1:0.53701896 2:0.44545041 3:0.38416511 4:0.50042121 5:0.25 6:0.21052632 7:0.66666667 8:0.4375 11:0.66666667 12:0.14285714 13:0.14285714 14:0.076923077 15:0.11111111 16:0.14285714 17:0.375 18:0.22222222 19:0.27272727 20:0.5 22:0.25 23:0.66666667 24:0.1 32:0.25 33:0.66666667 34:0.2 38:0.25 42:0.33333333 44:0.2 45:0.125 50:0.16666667 53:0.33333333 56:0.5 57:0.25 60:0.2 63:0.4 64:0.33333333 65:0.2 66:0.2 70:0.16666667 72:0.25 73:0.25 74:0.5 75:0.25 77:0.25 79:0.52173913 80:1 83:1 86:1 91:1 98:1 101:1 103:1 110:1 115:1 128:1 133:0.29498867 134:0.17622081 135:0.93533213 
-0.0122840028849786 1:0.23619655 2:0.50886515 3:0.6443844 4:0.49213453 5:0.2 6:0.42105263 7:0.38888889 8:0.5625 9:0.076923077 10:0.125 11:0.33333333 14:0.23076923 15:0.22222222 16:0.42857143 17:0.125 18:0.22222222 19:0.18181818 20:0.25 21:0.2 22:0.375 23:0.16666667 24:0.4 26:0.2 29:0.2 33:0.33333333 35:0.33333333 46:0.16666667 47:0.5 49:0.16666667 50:0.16666667 52:0.33333333 53:0.33333333 60:0.2 61:0.16666667 66:0.4 68:0.33333333 70:0.5 74:0.25 76:0.2 78:0.4 79:0.47826087 80:1 83:1 86:1 91:1 92:1 93:1 97:1 102:1 106:1 108:1 112:1 115:1 120:1 133:0.28234888 134:0.022292994 135:0.06485246 
0.08454061499503583 1:0.40670149 2:0.482383 3:0.480906 4:0.4148612 5:0.35 6:0.52631579 7:0.22222222 8:0.4375 10:0.625 11:0.16666667 12:0.14285714 13:0.71428571 14:0.15384615 16:0.57142857 17:0.125 18:0.11111111 19:0.090909091 20:0.125 22:0.375 23:0.33333333 24:0.1 28:0.4 29:0.2 31:0.5 33:0.33333333 37:0.25 41:0.8 43:0.25 44:0.4 47:0.16666667 52:0.33333333 53:0.33333333 54:0.33333333 55:0.16666667 58:0.14285714 60:0.2 69:0.25 70:0.16666667 72:0.25 74:0.25 75:0.25 77:0.25 79:0.43478261 80:1 83:1 88:1 91:1 102:1 106:1 107:1 113:1 116:1 119:1 121:1 130:1 133:0.74770547 134:0.27211607 135:0.79161177 
-0.125 1:0.069892321 2:0.59916365 3:0.63561719 4:0.57441138 5:0.3 6:0.42105263 7:0.5 8:0.3125 9:0.076923077 11:0.5 12:0.28571429 13:0.42857143 14:0.15384615 15:0.33333333 16:0.14285714 18:0.44444444 19:0.27272727 20:0.125 21:0.2 22:0.375 24:0.1 33:1 37:0.25 39:0.33333333 40:0.16666667 42:0.33333333 43:0.25 45:0.125 46:0.33333333 49:0.33333333 52:0.16666667 58:0.28571429 59:0.33333333 62:0.125 63:0.2 64:0.16666667 69:0.5 71:0.16666667 79:0.56521739 80:1 83:1 88:1 95:1 97:1 101:1 102:1 106:1 107:1 111:1 123:1 130:1 133:0.34389388 134:0.1128804 135:0.32837992 
0.125 1:0.4441937 2:0.54342857 3:0.56389849 4:0.43042232 5:0.25 6:0.47368421 7:0.27777778 8:0.5625 10:0.25 11:0.33333333 12:0.14285714 14:0.23076923 15:0.11111111 16:0.71428571 17:0.375 18:0.11111111 20:0.125 21:0.2 22:0.5 23:0.33333333 24:0.2 31:0.25 32:0.25 33:0.33333333 37:0.25 46:0.16666667 47:0.5 50:0.16666667 51:0.33333333 52:0.16666667 53:0.33333333 54:0.66666667 55:0.16666667 56:0.25 57:0.25 58:0.14285714 65:0.2 70:0.5 72:0.25 73:0.5 76:0.4 79:0.43478261 80:1 83:1 86:1 89:1 92:1 103:1 106:1 108:1 113:1 115:1 128:1 133:0.23399634 134:0.13305025 135:0.70619454 
-0.125 1:0.53570905 2:0.7469344 3:0.66315036 4:0.78896202 5:0.15 6:0.42105263 7:0.77777778 8:0.1875 10:0.125 11:0.16666667 12:0.14285714 14:0.23076923 15:0.55555556 16:0.14285714 17:0.25 18:0.44444444 19:0.54545455 20:0.125 22:0.125 23:0.33333333 30:0.2 33:0.33333333 37:0.25 46:0.5 47:0.16666667 48:0.16666667 49:0.33333333 53:0.33333333 55:0.16666667 57:0.25 58:0.42857143 60:0.2 61:0.16666667 62:0.375 63:0.2 65:0.2 70:0.16666667 74:0.25 79:0.7826087 80:1 83:1 86:1 102:1 104:1 112:1 121:1 124:1 133:0.11963573 134:0.051663128 135:0.27421384 
-0.09397803285880904 1:0.44123508 2:0.74172358 3:0.41407232 4:0.50506772 5:0.25 6:0.31578947 7:0.5 8:0.5 10:0.125 11:0.5 12:0.14285714 13:0.14285714 14:0.076923077 15:0.22222222 16:0.42857143 17:0.25 18:0.33333333 19:0.18181818 20:0.25 21:0.2 22:0.25 23:0.33333333 24:0.2 29:0.2 32:0.25 33:0.66666667 43:0.25 44:0.2 45:0.125 49:0.16666667 50:0.16666667 51:0.33333333 53:0.33333333 54:0.33333333 55:0.16666667 56:0.25 59:0.33333333 62:0.125 63:0.2 64:0.16666667 66:0.2 68:0.33333333 72:0.5 73:0.25 76:0.2 77:0.25 79:0.47826087 80:1 83:1 88:1 90:1 92:1 99:1 102:1 105:1 109:1 111:1 116:1 124:1 133:0.62102908 134:0.020169851 135:0.26027397 
0.05068530080762366 1:0.36591927 2:0.40507953 3:0.62300177 4:0.49482261 5:0.1 6:0.31578947 7:0.55555556 8:0.625 10:0.125 11:0.16666667 14:0.15384615 15:0.22222222 16:0.28571429 17:0.125 18:0.22222222 19:0.090909091 20:0.75 22:0.25 23:1 24:0.2 29:0.2 33:0.33333333 45:0.125 46:0.16666667 47:0.16666667 50:0.33333333 52:0.16666667 53:0.33333333 55:0.16666667 58:0.14285714 59:0.33333333 63:0.2 64:0.16666667 65:0.6 66:0.4 71:0.16666667 73:0.25 74:0.25 75:0.75 77:0.5 79:0.52173913 80:1 83:1 88:1 91:1 95:1 98:1 102:1 109:1 112:1 114:1 115:1 119:1 133:0.64783158 134:0.019815994 135:0.34410057 
0.04382810239324848 1:0.68556354 2:0.63105612 3:0.41846411 4:0.44456067 5:0.4 6:0.31578947 7:0.44444444 8:0.375 9:0.15384615 10:0.125 11:0.5 12:0.14285714 13:0.28571429 14:0.15384615 15:0.22222222 16:0.14285714 17:0.125 18:0.11111111 19:0.27272727 20:0.375 21:0.4 22:0.375 24:0.1 30:0.2 34:0.2 35:0.66666667 37:0.25 40:0.16666667 41:0.2 44:0.4 47:0.16666667 49:0.16666667 51:0.33333333 56:0.25 58:0.14285714 60:0.2 62:0.125 63:0.2 64:0.16666667 66:0.2 67:0.25 70:0.33333333 71:0.16666667 76:0.2 79:0.43478261 80:1 83:1 86:1 90:1 98:1 113:1 125:1 133:0.36610636 134:0.15180467 135:0.44161437 
-0.125 1:0.44123508 2:0.3219285 3:0.46490125 4:0.1658575 5:0.45 6:0.15789474 7:0.27777778 8:0.6875 9:0.15384615 10:0.125 11:0.5 12:0.28571429 13:0.28571429 16:0.28571429 17:0.125 20:0.5 21:0.6 22:0.375 23:0.33333333 24:0.3 31:0.25 35:1 37:0.25 39:0.33333333 41:0.2 42:0.33333333 47:0.16666667 51:0.33333333 54:0.33333333 64:0.33333333 67:0.25 69:0.5 70:0.16666667 73:0.25 75:0.25 77:0.5 78:0.2 79:0.17391304 80:1 83:1 86:1 89:1 103:1 109:1 113:1 128:1 129:1 133:0.67897892 134:0.1910828 135:0.41572641 
-0.125 1:0.69503483 2:0.38293129 3:0.32709496 4:0.35283483 5:0.25 6:0.36842105 7:0.27777778 8:0.6875 10:0.125 11:0.16666667 12:0.42857143 13:0.28571429 14:0.15384615 15:0.11111111 16:0.42857143 17:0.125 19:0.090909091 20:0.375 21:0.2 22:0.625 23:0.33333333 24:0.2 31:0.25 35:0.33333333 37:0.5 38:0.25 41:0.2 43:0.25 44:0.4 47:0.16666667 50:0.16666667 52:0.16666667 54:0.33333333 57:0.25 63:0.2 64:0.16666667 65:0.2 66:0.2 70:0.5 71:0.16666667 72:0.25 73:0.25 74:0.25 76:0.2 79:0.34782609 80:1 83:1 98:1 99:1 100:1 103:1 104:1 113:1 116:1 117:1 133:0.64184029 134:0.015923567 135:0.27650939 
-0.06966512923294131 1:0.46632369 2:0.46219842 3:0.57391642 4:0.57437288 5:0.35 6:0.42105263 7:0.55555556 8:0.1875 9:0.076923077 10:0.375 11:0.33333333 12:0.14285714 13:0.42857143 14:0.30769231 15:0.22222222 17:0.25 18:0.11111111 19:0.36363636 20:0.25 22:0.125 23:0.33333333 26:0.2 28:0.2 29:0.2 30:0.2 34:0.2 35:0.33333333 38:0.25 40:0.16666667 41:0.2 42:0.33333333 44:0.2 45:0.375 46:0.16666667 49:0.16666667 55:0.16666667 57:0.25 60:0.2 62:0.25 63:0.2 64:0.16666667 65:0.2 70:0.16666667 73:0.25 79:0.60869565 80:1 83:1 87:1 90:1 95:1 97:1 101:1 104:1 110:1 111:1 127:1 133:0.16406632 134:0.022292994 135:0.15876539 
0.125 1:0.41846411 2:0.61920596 3:0.69503483 4:0.56121165 5:0.25 6:0.47368421 7:0.44444444 8:0.375 9:0.076923077 10:0.25 11:0.33333333 13:0.28571429 14:0.23076923 15:0.33333333 16:0.28571429 17:0.125 18:0.22222222 19:0.090909091 20:0.375 22:0.375 23:0.33333333 24:0.1 29:0.2 30:0.2 35:0.66666667 40:0.16666667 41:0.2 44:0.4 46:0.16666667 47:0.16666667 48:0.16666667 52:0.16666667 54:0.33333333 55:0.16666667 58:0.14285714 59:0.33333333 61:0.16666667 64:0.16666667 65:0.4 70:0.33333333 71:0.16666667 74:0.25 75:0.25 76:0.2 79:0.56521739 80:1 83:1 86:1 89:1 95:1 106:1 108:1 113:1 133:0.74680089 134:0.26893135 135:0.78234714 
-0.125 1:0.67228916 2:0.6638732 3:0.86189425 4:0.64501744 5:0.3 6:0.52631579 7:0.5 8:0.1875 9:0.076923077 10:0.25 11:0.33333333 12:0.14285714 13:0.14285714 14:0.38461538 15:0.44444444 17:0.25 18:0.33333333 19:0.18181818 20:0.25 21:0.2 22:0.125 23:0.16666667 29:0.4 33:0.33333333 35:0.33333333 38:0.25 41:0.2 44:0.2 45:0.375 46:0.16666667 48:0.16666667 49:0.16666667 50:0.16666667 55:0.16666667 58:0.14285714 60:0.2 62:0.125 64:0.16666667 71:0.16666667 79:0.65217391 80:1 83:1 87:1 90:1 102:1 108:1 110:1 115:1 118:1 124:1 131:1 133:0.75527714 134:0.2841472 135:0.82661151 
-0.125 1:0.30530944 2:0.66591848 3:0.61358266 4:0.59090486 5:0.15 6:0.52631579 7:0.44444444 8:0.4375 10:0.125 11:0.16666667 12:0.14285714 13:0.14285714 14:0.38461538 15:0.22222222 16:0.28571429 17:0.125 19:0.36363636 20:0.375 22:0.625 23:0.16666667 24:0.1 29:0.2 35:0.33333333 39:0.33333333 43:0.25 44:0.2 45:0.375 46:0.16666667 47:0.16666667 49:0.16666667 50:0.16666667 52:0.16666667 53:0.33333333 55:0.16666667 60:0.2 62:0.375 64:0.5 70:0.33333333 71:0.16666667 72:0.25 75:0.25 76:0.2 79:0.60869565 80:1 83:1 88:1 93:1 95:1 101:1 104:1 105:1 108:1 110:1 112:1 114:1 115:1 127:1 131:1 133:0.16504082 134:0.023000708 135:0.16380556 
0.125 1:0.34510107 2:0.37070096 3:0.39926016 4:0.33244186 5:0.35 6:0.31578947 7:0.33333333 8:0.5625 9:0.15384615 10:0.375 11:0.16666667 12:0.14285714 13:0.28571429 14:0.15384615 16:0.42857143 17:0.25 20:0.5 22:0.25 23:0.83333333 24:0.1 26:0.2 27:0.25 28:0.2 29:0.4 35:0.33333333 38:0.25 40:0.16666667 41:0.2 44:0.2 45:0.125 47:0.16666667 52:0.16666667 53:0.33333333 55:0.16666667 64:0.16666667 65:0.4 66:0.2 72:0.5 73:0.5 75:0.75 77:0.25 79:0.34782609 80:1 83:1 86:1 94:1 95:1 97:1 106:1 107:1 110:1 113:1 116:1 120:1 130:1 133:0.57432747 134:0.24203822 135:0.70411242 
0.125 1:0.40140961 2:0.64944651 3:0.60763745 4:0.51342733 5:0.4 6:0.15789474 7:0.72222222 8:0.25 10:0.25 11:0.83333333 12:0.14285714 15:0.33333333 17:0.625 18:0.11111111 19:0.45454545 20:0.25 21:0.4 22:0.125 24:0.1 29:0.2 30:0.2 32:0.5 34:0.4 35:0.33333333 36:0.33333333 46:0.16666667 48:0.16666667 49:0.16666667 50:0.16666667 55:0.16666667 56:0.75 57:0.25 60:0.4 61:0.16666667 62:0.25 64:0.16666667 66:0.2 68:0.33333333 71:0.16666667 79:0.52173913 80:1 83:1 88:1 89:1 93:1 96:1 100:1 104:1 109:1 112:1 115:1 127:1 133:0.97870484 134:0.42392074 135:0.92229674 
-0.125 1:0.4441937 2:0.46002668 3:0.6562654 4:0.31650081 5:0.25 6:0.26315789 7:0.33333333 8:0.75 10:0.125 11:0.5 12:0.14285714 15:0.11111111 16:0.57142857 17:0.25 18:0.11111111 19:0.090909091 20:0.25 21:0.4 22:0.5 23:0.16666667 24:0.5 32:0.25 34:0.2 35:0.33333333 37:0.25 47:0.16666667 50:0.16666667 51:0.33333333 52:0.16666667 54:0.66666667 56:0.25 57:0.25 59:0.33333333 60:0.2 66:0.4 68:0.33333333 70:0.16666667 71:0.16666667 72:0.5 76:0.4 77:0.25 78:0.2 79:0.30434783 80:1 83:1 91:1 98:1 99:1 101:1 102:1 108:1 113:1 115:1 129:1 133:0.53402236 134:0.070063694 135:0.15243302 
-0.125 1:0.45557556 2:0.50378048 3:0.5038825 4:0.41295127 5:0.15 6:0.31578947 7:0.44444444 8:0.6875 11:0.5 14:0.23076923 15:0.11111111 16:0.42857143 17:0.125 19:0.090909091 20:0.625 21:0.2 22:0.5 23:0.5 24:0.3 35:1 45:0.25 46:0.16666667 47:0.16666667 52:0.16666667 54:0.66666667 56:0.25 63:0.2 64:0.5 65:0.2 66:0.2 68:0.33333333 70:0.33333333 72:0.5 73:0.25 74:0.25 75:0.25 77:0.5 79:0.43478261 80:1 83:1 92:1 93:1 95:1 97:1 104:1 108:1 111:1 127:1 133:0.85154694 134:0.14861996 135:0.84632023 
-0.125 1:0.45341124 2:0.55115486 3:0.53613833 4:0.43839801 5:0.3 6:0.31578947 7:0.44444444 8:0.5 9:0.15384615 10:0.125 11:0.16666667 12:0.14285714 13:0.28571429 14:0.30769231 15:0.11111111 17:0.125 19:0.27272727 20:0.5 22:0.25 23:0.5 24:0.3 26:0.2 30:0.2 35:0.33333333 38:0.25 40:0.33333333 44:0.4 45:0.375 49:0.16666667 57:0.25 62:0.125 63:0.4 64:0.16666667 66:0.6 70:0.33333333 73:0.25 74:0.25 75:0.25 76:0.2 77:0.5 79:0.43478261 80:1 83:1 87:1 91:1 100:1 102:1 104:1 111:1 118:1 120:1 133:0.96220353 134:0.40304317 135:0.87687478 
0.125 1:0.23619655 2:0.38814562 3:0.77885235 4:0.41203147 5:0.3 6:0.26315789 7:0.5 8:0.5 9:0.076923077 10:0.125 11:0.5 12:0.14285714 13:0.14285714 14:0.23076923 15:0.11111111 16:0.14285714 18:0.11111111 19:0.36363636 20:0.5 21:0.6 22:0.125 23:0.16666667 24:0.2 29:0.2 35:1 43:0.25 44:0.2 45:0.25 46:0.16666667 49:0.16666667 51:0.33333333 58:0.14285714 61:0.16666667 62:0.25 63:0.2 65:0.2 66:0.4 67:0.25 68:0.33333333 72:0.25 74:0.25 76:0.2 79:0.43478261 80:1 83:1 92:1 97:1 102:1 104:1 109:1 111:1 116:1 133:0.8210895 134:0.25336164 135:0.55122242 
-0.05579741002237577 1:0.51404301 2:0.35616919 3:0.52319537 4:0.39734122 5:0.45 6:0.21052632 7:0.55555556 8:0.3125 9:0.15384615 10:0.125 11:0.83333333 12:0.14285714 13:0.42857143 14:0.076923077 16:0.14285714 17:0.25 19:0.36363636 20:0.375 21:0.2 22:0.375 23:0.16666667 28:0.2 32:0.25 34:0.8 38:0.25 40:0.33333333 42:0.33333333 44:0.2 45:0.125 52:0.16666667 56:0.25 57:0.25 60:0.2 63:0.4 64:0.33333333 68:0.33333333 69:0.25 70:0.16666667 72:0.25 75:0.25 79:0.43478261 80:1 85:1 87:1 89:1 92:1 95:1 97:1 101:1 106:1 110:1 118:1 123:1 133:0.38738076 134:0.18259023 135:0.53117253 
0.125 1:0.32680274 2:0.35106478 3:0.40670149 4:0.30786119 5:0.5 6:0.36842105 7:0.22222222 8:0.4375 9:0.23076923 10:0.625 11:0.16666667 12:0.14285714 13:0.28571429 14:0.23076923 16:0.42857143 17:0.375 19:0.090909091 21:0.2 23:0.33333333 24:0.3 26:0.4 27:0.25 28:0.4 29:0.2 31:0.5 32:0.25 39:0.33333333 40:0.16666667 42:0.33333333 45:0.375 47:0.16666667 51:0.33333333 54:0.33333333 55:0.16666667 60:0.2 73:0.25 74:0.25 77:0.5 78:0.2 79:0.30434783 80:1 85:1 87:1 89:1 92:1 98:1 99:1 104:1 105:1 107:1 110:1 111:1 116:1 121:1 127:1 133:0.17405491 134:0.027246992 135:0.19404659 
-0.125 1:0.45557556 2:0.45174902 3:0.69503483 4:0.49652821 5:0.45 6:0.26315789 7:0.61111111 8:0.1875 9:0.15384615 10:0.5 11:0.5 13:0.14285714 14:0.15384615 15:0.33333333 17:0.5 19:0.27272727 20:0.375 21:0.2 23:0.33333333 26:0.2 28:0.2 29:0.2 30:0.4 32:0.25 34:0.2 35:0.33333333 40:0.16666667 45:0.25 46:0.16666667 49:0.16666667 50:0.16666667 55:0.33333333 56:0.25 60:0.2 62:0.125 63:0.2 65:0.4 68:0.33333333 73:0.5 79:0.52173913 80:1 85:1 89:1 99:1 101:1 109:1 111:1 124:1 133:0.28918349 134:0.046355272 135:0.13485194 
0.125 1:0.42509053 2:0.45943519 3:0.4669952 4:0.45186871 5:0.35 6:0.26315789 7:0.55555556 8:0.375 9:0.15384615 10:0.25 11:0.16666667 12:0.28571429 13:0.14285714 14:0.15384615 15:0.11111111 16:0.28571429 17:0.375 18:0.11111111 19:0.27272727 20:0.25 22:0.125 23:0.83333333 26:0.2 28:0.2 31:0.25 35:0.33333333 38:0.5 40:0.16666667 45:0.25 46:0.16666667 49:0.16666667 53:0.66666667 57:0.5 58:0.14285714 61:0.16666667 62:0.125 64:0.16666667 65:0.2 72:0.25 73:0.75 74:0.25 75:0.25 79:0.47826087 80:1 85:1 95:1 98:1 100:1 103:1 104:1 109:1 110:1 111:1 133:0.82115235 134:0.25406936 135:0.55276215 
0.005437526252052503 1:0.59203639 2:0.55889894 3:0.42509053 4:0.52595292 5:0.4 6:0.52631579 7:0.33333333 8:0.25 10:0.625 11:0.16666667 12:0.14285714 13:0.42857143 14:0.30769231 15:0.22222222 16:0.28571429 17:0.5 19:0.18181818 22:0.25 23:0.16666667 24:0.1 28:0.4 29:0.2 30:0.2 31:0.25 34:0.2 37:0.25 41:0.4 42:0.33333333 44:0.2 45:0.25 46:0.16666667 47:0.16666667 48:0.16666667 49:0.16666667 52:0.16666667 54:0.33333333 55:0.33333333 57:0.25 60:0.4 70:0.33333333 73:0.25 77:0.25 79:0.52173913 80:1 85:1 87:1 90:1 93:1 94:1 95:1 99:1 108:1 110:1 112:1 118:1 122:1 131:1 132:1 133:0.67768291 134:0.091295117 135:0.70555472 
-0.125 1:0.34123233 2:0.56881159 3:0.52319537 4:0.51955899 5:0.35 6:0.52631579 7:0.38888889 8:0.25 10:0.5 11:0.5 13:0.42857143 14:0.30769231 15:0.11111111 16:0.42857143 17:0.25 19:0.27272727 20:0.125 21:0.2 22:0.375 28:0.2 29:0.2 30:0.2 31:0.25 32:0.25 34:0.4 42:1 44:0.2 45:0.375 47:0.16666667 50:0.16666667 51:0.33333333 52:0.33333333 55:0.33333333 60:0.2 62:0.125 64:0.16666667 69:0.25 70:0.16666667 72:0.25 79:0.56521739 80:1 85:1 98:1 100:1 106:1 108:1 110:1 125:1 126:1 131:1 133:0.25372001 134:0.06581741 135:0.46873591 
0.125 1:0.57906094 2:0.42282771 3:0.52319537 4:0.46584969 5:0.45 6:0.36842105 7:0.44444444 8:0.25 10:0.625 11:0.5 13:0.71428571 15:0.22222222 16:0.14285714 17:0.375 18:0.11111111 19:0.090909091 20:0.375 22:0.25 23:0.33333333 28:0.8 30:0.2 34:0.2 35:0.66666667 41:0.4 42:0.66666667 47:0.16666667 48:0.16666667 50:0.16666667 52:0.16666667 55:0.33333333 56:0.25 58:0.14285714 60:0.2 64:0.16666667 65:0.4 69:0.25 71:0.16666667 73:0.25 79:0.47826087 80:1 85:1 86:1 91:1 92:1 96:1 101:1 113:1 121:1 133:0.51563023 134:0.22965322 135:0.66808328 
-0.125 1:0.480906 2:0.67725958 3:0.49126314 4:0.46027227 5:0.5 6:0.42105263 7:0.38888889 8:0.1875 9:0.15384615 10:0.75 11:0.33333333 13:0.57142857 14:0.076923077 15:0.33333333 16:0.14285714 17:0.375 18:0.11111111 20:0.25 22:0.125 23:0.33333333 26:0.4 28:0.6 29:0.4 30:0.2 33:0.33333333 40:0.33333333 41:0.4 44:0.2 46:0.16666667 48:0.33333333 50:0.16666667 52:0.16666667 55:0.16666667 56:0.5 59:0.33333333 65:0.4 71:0.16666667 73:0.25 75:0.25 79:0.47826087 80:1 85:1 87:1 90:1 93:1 98:1 101:1 103:1 104:1 109:1 112:1 125:1 133:0.65247001 134:0.022646851 135:0.39325779 
0.05859314025708658 1:0.52319537 2:0.60785803 3:0.44527437 4:0.49660814 5:0.4 6:0.57894737 7:0.27777778 8:0.25 10:0.625 11:0.33333333 13:0.57142857 14:0.30769231 15:0.11111111 16:0.42857143 17:0.25 19:0.18181818 20:0.125 21:0.2 22:0.375 28:0.4 29:0.2 30:0.2 31:0.25 32:0.25 34:0.2 41:0.2 42:0.66666667 44:0.2 45:0.375 47:0.16666667 50:0.16666667 51:0.33333333 52:0.33333333 55:0.33333333 60:0.2 62:0.125 64:0.16666667 69:0.25 70:0.16666667 72:0.25 79:0.52173913 80:1 85:1 89:1 93:1 102:1 107:1 110:1 111:1 133:0.25420726 134:0.066171267 135:0.471256 
0.125 1:0.27826239 2:0.44545041 3:0.58784235 4:0.4290413 5:0.4 6:0.31578947 7:0.5 8:0.3125 10:0.625 11:0.33333333 12:0.14285714 13:0.57142857 14:0.076923077 15:0.11111111 16:0.14285714 17:0.25 19:0.45454545 20:0.125 21:0.2 22:0.125 23:0.16666667 24:0.2 28:0.6 29:0.4 32:0.25 35:0.33333333 37:0.25 41:0.4 42:0.33333333 43:0.25 46:0.16666667 47:0.16666667 49:0.16666667 54:0.33333333 55:0.33333333 60:0.2 62:0.375 66:0.2 68:0.33333333 69:0.25 74:0.25 77:0.25 79:0.47826087 80:1 85:1 88:1 89:1 99:1 104:1 109:1 112:1 127:1 133:0.66127949 134:0.069709837 135:0.39696449 
-0.02907461569253254 1:0.17982662 2:0.39271487 3:0.61358266 4:0.28270696 5:0.5 6:0.31578947 7:0.27777778 8:0.4375 9:0.15384615 10:0.375 11:0.5 12:0.28571429 13:0.57142857 14:0.076923077 16:0.28571429 17:0.25 19:0.090909091 20:0.125 21:0.2 22:0.375 23:0.16666667 24:0.2 25:0.11111111 27:0.25 28:0.6 32:0.25 34:0.2 39:0.66666667 40:0.16666667 41:0.4 42:0.33333333 47:0.33333333 51:0.33333333 52:0.16666667 56:0.25 57:0.25 63:0.2 64:0.16666667 68:0.33333333 69:0.25 70:0.33333333 73:0.25 76:0.2 77:0.25 79:0.30434783 80:1 85:1 89:1 92:1 95:1 101:1 106:1 108:1 113:1 133:0.55259756 134:0.097310686 135:0.21171252 
-0.06595518030682145 1:0.80673839 2:0.36422927 3:0.49126314 4:0.47729134 5:0.2 6:0.26315789 7:0.55555556 8:0.5625 10:0.25 11:0.16666667 13:0.14285714 14:0.076923077 15:0.22222222 16:0.28571429 17:0.25 18:0.22222222 19:0.090909091 20:0.625 22:0.125 23:1 24:0.2 28:0.2 30:0.2 33:0.33333333 41:0.2 45:0.125 47:0.16666667 48:0.16666667 50:0.16666667 52:0.16666667 53:0.33333333 56:0.25 58:0.14285714 59:0.33333333 63:0.2 65:0.6 66:0.4 71:0.16666667 73:0.25 74:0.25 75:0.75 77:0.5 79:0.47826087 80:1 85:1 87:1 95:1 98:1 99:1 101:1 103:1 104:1 109:1 110:1 113:1 118:1 123:1 132:1 133:0.64879792 134:0.020169851 135:0.35024522 
0.07263048417275968 1:0.42141644 2:0.64631637 3:0.56494924 4:0.53597859 5:0.35 6:0.57894737 7:0.27777778 8:0.3125 10:0.625 12:0.14285714 13:0.42857143 14:0.15384615 15:0.44444444 16:0.42857143 17:0.25 18:0.22222222 20:0.125 21:0.2 22:0.375 23:0.16666667 28:0.2 30:0.6 31:0.25 37:0.25 41:0.4 44:0.2 45:0.125 46:0.16666667 48:0.33333333 50:0.16666667 52:0.33333333 53:0.33333333 55:0.33333333 58:0.14285714 70:0.16666667 72:0.5 79:0.52173913 80:1 85:1 88:1 90:1 92:1 93:1 97:1 101:1 108:1 112:1 133:0.76000453 134:0.11323425 135:0.64481541 
-0.125 1:0.6443844 2:0.5017594 3:0.51404301 4:0.43179224 5:0.3 6:0.21052632 7:0.55555556 8:0.5 10:0.375 11:0.33333333 12:0.14285714 13:0.14285714 14:0.076923077 15:0.11111111 16:0.28571429 17:0.5 19:0.27272727 20:0.375 22:0.125 23:0.66666667 24:0.2 28:0.2 29:0.2 30:0.2 35:0.66666667 38:0.25 41:0.2 47:0.33333333 50:0.16666667 53:0.33333333 54:0.33333333 55:0.16666667 56:0.5 57:0.25 60:0.4 62:0.125 64:0.16666667 65:0.4 70:0.16666667 73:0.5 74:0.5 78:0.2 79:0.43478261 80:1 85:1 91:1 94:1 95:1 99:1 101:1 109:1 113:1 114:1 116:1 133:0.72971436 134:0.26468507 135:0.76999429 
-0.125 1:0.47790352 2:0.49863343 3:0.6443844 4:0.52087539 5:0.2 6:0.63157895 7:0.22222222 8:0.5 10:0.375 11:0.16666667 13:0.14285714 14:0.38461538 15:0.22222222 16:0.71428571 17:0.25 20:0.125 22:0.625 23:0.16666667 24:0.2 28:0.2 30:0.2 31:0.25 32:0.25 41:0.2 45:0.5 47:0.33333333 50:0.16666667 52:0.5 53:0.33333333 54:0.33333333 55:0.16666667 56:0.25 66:0.2 70:0.33333333 71:0.16666667 72:0.5 73:0.25 76:0.4 79:0.52173913 80:1 85:1 92:1 94:1 98:1 103:1 106:1 108:1 110:1 113:1 125:1 131:1 133:0.23398645 134:0.05626327 135:0.4006936 
0.125 1:0.44123508 2:0.58446507 3:0.22662396 4:0.37614619 5:0.3 6:0.57894737 7:0.11111111 8:0.5625 10:0.375 11:0.16666667 12:0.28571429 13:0.42857143 14:0.30769231 15:0.11111111 16:0.57142857 20:0.25 21:0.4 22:0.625 24:0.1 28:0.2 29:0.2 30:0.2 35:0.33333333 36:0.33333333 37:0.25 41:0.4 43:0.25 44:0.2 45:0.25 47:0.33333333 50:0.16666667 51:0.33333333 52:0.33333333 64:0.16666667 66:0.2 68:0.33333333 69:0.25 70:0.33333333 72:0.5 76:0.2 79:0.39130435 80:1 85:1 92:1 95:1 98:1 100:1 103:1 108:1 111:1 116:1 121:1 125:1 126:1 133:0.14189652 134:0.011677282 135:0.083162823 
0.125 1:0.5438914 2:0.56160559 3:0.52319537 4:0.40344616 5:0.35 6:0.57894737 7:0.16666667 8:0.4375 9:0.076923077 10:0.5 11:0.16666667 12:0.14285714 13:0.42857143 14:0.23076923 15:0.11111111 16:0.71428571 17:0.125 20:0.125 21:0.2 22:0.625 23:0.16666667 26:0.2 28:0.2 29:0.4 31:0.25 37:0.25 41:0.4 43:0.25 44:0.2 47:0.5 48:0.16666667 51:0.33333333 52:0.5 53:0.33333333 64:0.16666667 68:0.33333333 69:0.25 70:0.33333333 71:0.16666667 72:0.25 75:0.25 79:0.43478261 80:1 85:1 88:1 91:1 92:1 95:1 100:1 102:1 106:1 108:1 113:1 119:1 133:0.8526826 134:0.31351734 135:0.68209926 
0.06068981820261197 1:0.11236237 2:0.64879258 3:0.56389849 4:0.37678392 5:0.45 6:0.15789474 7:0.5 8:0.4375 9:0.15384615 10:0.125 11:0.33333333 12:0.42857143 13:0.28571429 15:0.22222222 17:0.375 18:0.11111111 19:0.27272727 20:0.25 21:0.2 22:0.25 23:0.33333333 24:0.2 27:0.25 28:0.2 33:0.33333333 34:0.2 37:0.25 38:0.25 39:0.33333333 42:0.33333333 43:0.25 46:0.16666667 49:0.33333333 57:0.25 60:0.2 63:0.4 64:0.16666667 66:0.2 67:0.25 69:0.25 70:0.16666667 73:0.5 77:0.25 79:0.34782609 80:1 85:1 87:1 88:1 89:1 98:1 99:1 101:1 109:1 112:1 118:1 132:1 133:0.52102421 134:0.23566879 135:0.68558315 
-0.125 1:0.60763745 2:0.53814537 3:0.5438914 4:0.5844857 5:0.2 6:0.42105263 7:0.55555556 8:0.375 10:0.25 11:0.16666667 12:0.14285714 13:0.14285714 14:0.30769231 15:0.22222222 16:0.28571429 17:0.25 18:0.11111111 19:0.36363636 20:0.25 22:0.25 23:0.5 24:0.1 28:0.2 29:0.2 32:0.25 38:0.25 43:0.25 45:0.375 46:0.16666667 47:0.16666667 49:0.16666667 50:0.16666667 52:0.16666667 54:0.33333333 55:0.16666667 56:0.25 58:0.14285714 62:0.25 63:0.2 64:0.16666667 65:0.2 71:0.16666667 72:0.25 73:0.25 74:0.25 77:0.25 79:0.60869565 80:1 85:1 90:1 98:1 101:1 103:1 104:1 105:1 109:1 112:1 125:1 133:0.052090772 134:0.05980184 135:0.46216569 
-0.05869793114323081 1:0.36570358 2:0.35692076 3:0.37388971 4:0.30960211 5:0.45 6:0.31578947 7:0.33333333 8:0.4375 10:0.625 11:0.33333333 12:0.28571429 13:0.42857143 14:0.076923077 15:0.22222222 16:0.14285714 17:0.375 20:0.25 21:0.4 22:0.125 23:0.33333333 24:0.2 28:0.6 29:0.4 32:0.25 35:0.33333333 36:0.33333333 37:0.25 42:0.33333333 43:0.5 46:0.16666667 47:0.16666667 48:0.16666667 50:0.16666667 54:0.33333333 55:0.5 65:0.4 68:0.33333333 71:0.16666667 73:0.25 78:0.2 79:0.34782609 80:1 85:1 89:1 95:1 98:1 105:1 109:1 112:1 114:1 121:1 133:0.60403173 134:0.14154282 135:0.30794549 
0.125 1:0.61370245 2:0.52590081 3:0.57432306 4:0.41506774 5:0.3 6:0.31578947 7:0.38888889 8:0.5625 10:0.375 11:0.16666667 12:0.28571429 13:0.28571429 15:0.22222222 16:0.42857143 17:0.375 18:0.11111111 19:0.090909091 20:0.25 22:0.375 23:0.5 24:0.2 28:0.2 29:0.2 31:0.25 32:0.25 37:0.25 39:0.33333333 43:0.5 44:0.2 48:0.16666667 50:0.16666667 53:0.66666667 54:0.33333333 55:0.33333333 56:0.25 59:0.33333333 61:0.16666667 64:0.33333333 71:0.33333333 72:0.25 73:0.25 74:0.25 75:0.25 77:0.25 79:0.39130435 80:1 85:1 91:1 99:1 103:1 104:1 105:1 109:1 114:1 116:1 123:1 133:0.22083075 134:0.049893843 135:0.35533206 
-0.125 1:0.19672822 2:0.35061678 3:0.48798757 4:0.17782528 5:0.75 6:0.10526316 7:0.27777778 8:0.375 9:0.46153846 10:0.375 11:0.5 12:0.28571429 13:0.14285714 15:0.22222222 17:0.5 20:0.125 21:0.6 24:0.3 25:0.22222222 26:0.4 28:0.2 29:0.2 30:0.2 32:0.75 36:0.33333333 39:0.33333333 43:0.25 46:0.16666667 48:0.16666667 50:0.16666667 68:0.33333333 78:0.4 79:0.13043478 80:1 85:1 86:1 94:1 96:1 97:1 100:1 107:1 112:1 114:1 133:0.73774801 134:0.20629866 135:0.44883055 
-0.005391127455773476 1:0.69772966 2:0.38293129 3:0.35681947 4:0.35279299 5:0.45 6:0.47368421 7:0.16666667 8:0.4375 9:0.15384615 10:0.5 12:0.28571429 13:0.28571429 14:0.23076923 15:0.22222222 16:0.42857143 17:0.25 20:0.125 21:0.4 22:0.375 23:0.16666667 24:0.1 25:0.11111111 26:0.2 28:0.2 29:0.2 30:0.2 31:0.25 37:0.5 41:0.2 43:0.25 44:0.2 45:0.125 46:0.16666667 47:0.16666667 48:0.33333333 52:0.16666667 53:0.33333333 54:0.33333333 55:0.16666667 70:0.33333333 72:0.25 75:0.25 79:0.34782609 80:1 87:1 90:1 97:1 99:1 103:1 104:1 107:1 113:1 114:1 121:1 133:0.8522337 134:0.30785563 135:0.66978144 
-0.09053500201052042 1:0.78769822 2:0.61780246 3:0.39926016 4:0.51120827 5:0.2 6:0.31578947 7:0.5 8:0.5625 10:0.375 12:0.14285714 15:0.33333333 16:0.57142857 17:0.25 18:0.44444444 19:0.18181818 20:0.125 21:0.2 23:0.66666667 24:0.3 29:0.2 30:0.4 47:0.16666667 48:0.16666667 51:0.33333333 53:0.33333333 54:0.66666667 55:0.33333333 59:1 61:0.16666667 62:0.125 66:0.2 73:0.25 74:0.25 75:0.25 77:0.75 79:0.47826087 80:1 88:1 91:1 99:1 109:1 113:1 116:1 119:1 129:1 133:0.24096226 134:0.068648266 135:0.52334459 
0.125 1:0.5128194 2:0.51684731 3:0.86189425 4:0.60941982 5:0.25 6:0.52631579 7:0.44444444 8:0.3125 10:0.375 11:0.16666667 12:0.14285714 13:0.42857143 14:0.30769231 15:0.33333333 16:0.14285714 17:0.125 18:0.11111111 19:0.27272727 20:0.375 22:0.375 23:0.16666667 29:0.4 30:0.2 35:0.33333333 38:0.25 41:0.4 42:0.33333333 44:0.2 45:0.25 46:0.16666667 47:0.16666667 48:0.16666667 49:0.16666667 57:0.25 62:0.125 63:0.4 64:0.5 69:0.5 70:0.16666667 74:0.25 79:0.60869565 80:1 86:1 88:1 90:1 96:1 101:1 102:1 104:1 109:1 111:1 116:1 133:0.37910552 134:0.16985138 135:0.49411398 
0.1037738813817541 1:0.42214227 2:0.55412677 3:0.402202 4:0.50078629 5:0.5 6:0.31578947 7:0.5 8:0.1875 9:0.15384615 10:0.375 11:0.5 12:0.14285714 13:0.42857143 14:0.15384615 15:0.22222222 17:0.5 18:0.11111111 19:0.27272727 20:0.125 22:0.125 23:0.16666667 24:0.1 26:0.2 29:0.4 30:0.2 34:0.4 35:0.33333333 37:0.25 41:0.2 43:0.25 44:0.2 45:0.125 46:0.16666667 49:0.16666667 56:0.5 60:0.6 66:0.2 69:0.25 73:0.25 77:0.25 79:0.47826087 80:1 87:1 88:1 94:1 96:1 97:1 106:1 107:1 110:1 112:1 130:1 133:0.67276311 134:0.035031847 135:0.60832065 
0.07984734654666126 1:0.49372418 2:0.86292579 3:0.66315036 4:0.72779909 5:0.25 6:0.52631579 7:0.61111111 8:0.125 10:0.375 11:0.33333333 13:0.28571429 14:0.30769231 15:0.44444444 16:0.14285714 17:0.25 18:0.33333333 19:0.36363636 20:0.125 22:0.125 23:0.16666667 29:0.2 30:0.4 33:0.33333333 35:0.33333333 41:0.2 42:0.33333333 44:0.2 45:0.25 46:0.16666667 47:0.16666667 49:0.5 53:0.33333333 55:0.16666667 56:0.25 58:0.14285714 60:0.4 61:0.16666667 62:0.125 64:0.16666667 70:0.16666667 79:0.73913043 80:1 90:1 93:1 94:1 100:1 102:1 109:1 111:1 114:1 122:1 133:0.23018432 134:0.13021939 135:0.69116912 
-0.125 1:0.17982662 2:0.47225757 3:0.51748371 4:0.43130091 5:0.45 6:0.31578947 7:0.44444444 8:0.3125 9:0.15384615 10:0.5 12:0.42857143 13:0.28571429 14:0.15384615 15:0.33333333 17:0.375 19:0.36363636 21:0.2 22:0.125 23:0.16666667 24:0.2 25:0.11111111 27:0.25 28:0.2 29:0.2 30:0.4 36:0.33333333 38:0.25 39:0.33333333 40:0.16666667 43:0.25 44:0.2 45:0.125 46:0.16666667 49:0.5 55:0.33333333 57:0.25 60:0.6 70:0.16666667 74:0.25 76:0.2 78:0.2 79:0.43478261 80:1 89:1 92:1 93:1 95:1 109:1 111:1 120:1 124:1 133:0.007328692 134:0.0056617127 135:0.043755331 
-0.125 1:0.40604948 2:0.48252746 3:0.53701896 4:0.48388985 5:0.3 6:0.42105263 7:0.38888889 8:0.4375 10:0.375 11:0.16666667 12:0.14285714 13:0.14285714 14:0.30769231 15:0.11111111 16:0.42857143 17:0.5 19:0.18181818 20:0.125 22:0.25 23:0.5 24:0.2 29:0.2 30:0.2 31:0.25 32:0.25 38:0.25 42:0.33333333 44:0.2 45:0.375 47:0.16666667 49:0.16666667 52:0.16666667 53:0.33333333 54:0.33333333 55:0.33333333 57:0.25 60:0.2 62:0.125 64:0.16666667 70:0.16666667 72:0.25 73:0.5 75:0.25 77:0.25 78:0.2 79:0.47826087 80:1 87:1 89:1 102:1 107:1 110:1 118:1 120:1 132:1 133:0.1557831 134:0.018400566 135:0.13104445 
-0.125 1:0.66315036 2:0.87810873 3:0.83174277 4:0.81752342 5:0.15 6:0.47368421 7:0.72222222 8:0.1875 10:0.375 14:0.30769231 15:0.55555556 16:0.14285714 17:0.25 18:0.22222222 19:0.72727273 20:0.125 22:0.125 24:0.1 29:0.2 30:0.4 45:0.25 46:0.33333333 47:0.16666667 49:0.5 50:0.16666667 54:0.33333333 55:0.33333333 58:0.14285714 60:0.4 61:0.16666667 62:0.625 64:0.16666667 70:0.16666667 79:0.7826087 80:1 90:1 100:1 102:1 104:1 106:1 109:1 111:1 114:1 116:1 133:0.19140116 134:0.10261854 135:0.54467132 
0.06772180793416836 1:0.3431175 2:0.5604352 3:0.72397299 4:0.64571854 5:0.15 6:0.47368421 7:0.55555556 8:0.375 10:0.25 11:0.16666667 13:0.14285714 14:0.30769231 15:0.33333333 16:0.28571429 17:0.125 18:0.11111111 19:0.45454545 20:0.25 22:0.375 23:0.16666667 24:0.2 30:0.2 31:0.25 32:0.25 42:0.33333333 44:0.2 45:0.25 46:0.33333333 49:0.33333333 52:0.16666667 54:0.33333333 55:0.16666667 58:0.14285714 62:0.25 63:0.4 64:0.33333333 70:0.33333333 72:0.25 74:0.25 77:0.25 78:0.2 79:0.65217391 80:1 92:1 96:1 103:1 106:1 109:1 110:1 111:1 133:0.2205714 134:0.12349611 135:0.65548376 
0.09201102827149321 1:0.61054367 2:0.50119655 3:0.4525872 4:0.59488692 5:0.2 6:0.26315789 7:0.66666667 8:0.4375 10:0.25 12:0.14285714 13:0.14285714 15:0.44444444 16:0.14285714 17:0.25 18:0.11111111 19:0.54545455 20:0.375 22:0.375 23:0.33333333 24:0.2 30:0.2 31:0.25 37:0.25 41:0.2 46:0.16666667 49:0.5 50:0.16666667 52:0.16666667 57:0.25 60:0.4 61:0.16666667 62:0.125 63:0.4 65:0.2 66:0.4 70:0.16666667 71:0.33333333 74:0.5 76:0.2 77:0.25 79:0.56521739 80:1 100:1 103:1 112:1 132:1 133:0.82938504 134:0.26786978 135:0.58278684 
-0.06433668180616747 1:0.36570358 2:0.54389843 3:0.34118031 4:0.53173873 5:0.4 6:0.47368421 7:0.38888889 8:0.25 10:0.5 11:0.33333333 12:0.14285714 13:0.42857143 14:0.23076923 15:0.33333333 16:0.14285714 17:0.375 18:0.11111111 19:0.18181818 20:0.125 21:0.2 22:0.25 24:0.1 28:0.2 29:0.2 30:0.2 31:0.25 32:0.25 34:0.2 37:0.25 41:0.2 42:0.66666667 44:0.2 45:0.25 46:0.16666667 48:0.16666667 49:0.16666667 52:0.16666667 55:0.33333333 60:0.2 63:0.2 66:0.2 69:0.25 70:0.16666667 79:0.52173913 80:1 89:1 101:1 107:1 111:1 129:1 132:1 133:0.57315487 134:0.23814579 135:0.69278898 
-0.125 1:0.28178205 2:0.71185252 3:0.5438914 4:0.51148078 5:0.25 6:0.42105263 7:0.44444444 8:0.4375 9:0.076923077 10:0.375 11:0.16666667 13:0.28571429 14:0.15384615 15:0.33333333 16:0.14285714 17:0.125 18:0.22222222 19:0.090909091 20:0.5 22:0.25 23:0.5 24:0.2 26:0.2 30:0.2 31:0.25 32:0.25 40:0.16666667 42:0.33333333 44:0.4 46:0.16666667 49:0.16666667 50:0.16666667 53:0.33333333 55:0.16666667 58:0.28571429 63:0.2 64:0.33333333 65:0.2 66:0.2 70:0.16666667 71:0.16666667 75:0.5 77:0.25 78:0.2 79:0.52173913 80:1 88:1 101:1 109:1 115:1 133:0.41986592 134:0.008492569 135:0.048361156 
0.05361339247635181 1:0.42509053 2:0.60047439 3:0.73404041 4:0.57337062 5:0.2 6:0.52631579 7:0.38888889 8:0.4375 10:0.125 11:0.16666667 12:0.28571429 13:0.14285714 14:0.23076923 15:0.22222222 16:0.57142857 17:0.25 18:0.33333333 19:0.18181818 22:0.5 23:0.33333333 24:0.1 30:0.2 33:0.33333333 37:0.5 43:0.25 47:0.5 48:0.16666667 52:0.33333333 53:0.33333333 54:0.33333333 56:0.25 57:0.25 58:0.28571429 61:0.16666667 62:0.125 69:0.25 70:0.33333333 72:0.25 73:0.25 74:0.25 77:0.25 79:0.56521739 80:1 89:1 92:1 101:1 104:1 106:1 108:1 113:1 115:1 124:1 133:0.44393382 134:0.18931352 135:0.55073121 
0.125 1:0.76730194 2:0.53279429 3:0.38580469 4:0.46194735 5:0.35 6:0.52631579 7:0.27777778 8:0.375 9:0.076923077 10:0.5 11:0.16666667 12:0.14285714 13:0.42857143 14:0.15384615 15:0.33333333 16:0.42857143 17:0.125 18:0.11111111 20:0.25 21:0.2 22:0.5 23:0.16666667 26:0.2 28:0.2 29:0.4 30:0.2 32:0.25 37:0.25 41:0.2 42:0.33333333 43:0.25 46:0.16666667 47:0.33333333 50:0.16666667 52:0.33333333 53:0.33333333 55:0.16666667 64:0.16666667 67:0.25 69:0.25 70:0.16666667 71:0.16666667 72:0.25 75:0.25 79:0.47826087 80:1 87:1 91:1 98:1 106:1 107:1 113:1 121:1 125:1 130:1 133:0.85257486 134:0.31210191 135:0.6790198 
-0.125 1:0.47790352 2:0.57456486 3:0.4441937 4:0.34962836 5:0.65 6:0.21052632 7:0.38888889 8:0.25 9:0.38461538 10:0.25 11:0.66666667 12:0.14285714 13:0.14285714 15:0.22222222 16:0.28571429 17:0.5 18:0.11111111 19:0.090909091 20:0.125 21:0.4 22:0.25 25:0.11111111 26:0.2 30:0.4 32:0.5 33:0.33333333 34:0.2 37:0.25 40:0.16666667 47:0.16666667 48:0.16666667 50:0.16666667 51:0.33333333 52:0.16666667 56:0.25 57:0.25 60:0.2 67:0.25 68:0.33333333 70:0.16666667 72:0.25 79:0.30434783 80:1 91:1 93:1 94:1 97:1 100:1 108:1 113:1 122:1 133:0.53411214 134:0.071479122 135:0.15551247 
0.125 1:0.61370245 2:0.48762129 3:0.50033308 4:0.51031985 5:0.4 6:0.31578947 7:0.5 8:0.3125 9:0.23076923 10:0.375 11:0.33333333 13:0.28571429 15:0.33333333 16:0.28571429 17:0.25 19:0.36363636 20:0.375 22:0.5 25:0.11111111 26:0.2 28:0.4 30:0.2 34:0.4 40:0.16666667 42:0.33333333 47:0.16666667 48:0.16666667 49:0.16666667 50:0.16666667 52:0.16666667 55:0.16666667 60:0.2 62:0.125 63:0.4 64:0.5 70:0.16666667 71:0.33333333 72:0.25 79:0.47826087 80:1 88:1 90:1 94:1 97:1 100:1 102:1 109:1 113:1 116:1 133:0.96179953 134:0.39773531 135:0.86532682 
-0.125 1:0.55697137 2:0.4233624 3:0.5438914 4:0.53812797 5:0.35 6:0.52631579 7:0.38888889 8:0.25 10:0.625 11:0.16666667 12:0.14285714 13:0.71428571 14:0.15384615 15:0.44444444 17:0.125 18:0.11111111 19:0.090909091 20:0.375 22:0.375 23:0.16666667 28:0.2 29:0.4 30:0.4 35:0.33333333 38:0.25 41:0.8 42:0.33333333 44:0.4 46:0.16666667 48:0.16666667 50:0.16666667 57:0.25 63:0.2 64:0.5 69:0.5 70:0.16666667 74:0.25 79:0.56521739 80:1 89:1 95:1 97:1 104:1 108:1 112:1 123:1 133:0.37937355 134:0.17055909 135:0.49617279 
0.125 1:0.4669952 2:0.37505115 3:0.57813359 4:0.4812383 5:0.35 6:0.31578947 7:0.5 8:0.375 9:0.076923077 10:0.375 11:0.33333333 12:0.14285714 13:0.14285714 14:0.15384615 15:0.33333333 16:0.14285714 17:0.25 18:0.11111111 19:0.27272727 20:0.375 21:0.4 22:0.125 23:0.16666667 24:0.1 29:0.4 30:0.2 32:0.25 35:0.33333333 38:0.25 43:0.25 44:0.2 46:0.33333333 50:0.33333333 56:0.25 59:0.33333333 60:0.2 62:0.25 64:0.16666667 66:0.2 70:0.16666667 74:0.25 79:0.47826087 80:1 88:1 91:1 98:1 102:1 104:1 112:1 116:1 119:1 133:0.60351999 134:0.13481953 135:0.29331808 
0.09235718869478232 1:0.23619655 2:0.69569769 3:0.59203639 4:0.51313495 5:0.3 6:0.47368421 7:0.38888889 8:0.375 9:0.076923077 10:0.625 13:0.14285714 14:0.15384615 15:0.55555556 16:0.14285714 17:0.25 18:0.11111111 20:0.5 21:0.2 22:0.25 23:0.33333333 24:0.1 26:0.2 29:0.4 30:0.4 31:0.25 40:0.16666667 45:0.125 46:0.33333333 50:0.66666667 51:0.33333333 55:0.33333333 64:0.16666667 65:0.4 66:0.2 69:0.25 71:0.16666667 73:0.5 76:0.2 79:0.52173913 80:1 86:1 90:1 92:1 102:1 104:1 109:1 111:1 115:1 133:0.57586861 134:0.24769993 135:0.72058289 
-0.125 1:0.57432306 2:0.51272952 3:0.55943067 4:0.46691838 5:0.5 6:0.21052632 7:0.61111111 8:0.1875 9:0.076923077 10:0.25 11:0.83333333 12:0.14285714 13:0.28571429 14:0.15384615 16:0.14285714 17:0.625 19:0.45454545 20:0.125 21:0.2 22:0.125 23:0.16666667 27:0.25 29:0.4 32:0.5 34:0.6 37:0.25 40:0.16666667 42:0.33333333 44:0.2 45:0.125 47:0.16666667 53:0.33333333 55:0.16666667 56:0.75 60:0.4 62:0.25 63:0.2 68:0.33333333 69:0.25 73:0.25 79:0.47826087 80:1 91:1 94:1 98:1 101:1 107:1 110:1 113:1 117:1 132:1 133:0.70945389 134:0.10686483 135:0.82588188 
0.01306875455895887 1:0.68762033 2:0.57983775 3:0.41407232 4:0.51036194 5:0.35 6:0.42105263 7:0.44444444 8:0.3125 9:0.15384615 10:0.25 11:0.16666667 12:0.28571429 13:0.14285714 14:0.30769231 15:0.22222222 16:0.14285714 17:0.25 18:0.22222222 19:0.27272727 20:0.125 21:0.2 22:0.125 23:0.33333333 24:0.1 26:0.2 27:0.25 29:0.4 32:0.25 38:0.25 39:0.33333333 40:0.16666667 44:0.2 45:0.25 46:0.33333333 48:0.16666667 51:0.33333333 57:0.25 58:0.14285714 61:0.16666667 62:0.125 63:0.2 64:0.16666667 68:0.33333333 72:0.25 74:0.5 77:0.25 79:0.52173913 80:1 91:1 94:1 99:1 103:1 107:1 111:1 115:1 117:1 124:1 133:0.62099189 134:0.019815994 135:0.25570776 
0.06426419751747882 1:0.60752713 2:0.64631637 3:0.64440919 4:0.53864352 5:0.4 6:0.52631579 7:0.33333333 8:0.25 9:0.076923077 10:0.5 11:0.5 13:0.42857143 14:0.23076923 15:0.22222222 16:0.42857143 17:0.375 18:0.11111111 19:0.090909091 20:0.125 22:0.375 26:0.2 29:0.8 32:0.5 33:0.33333333 40:0.16666667 41:0.2 42:0.33333333 44:0.2 46:0.16666667 47:0.33333333 48:0.16666667 49:0.16666667 52:0.33333333 55:0.16666667 56:0.5 63:0.2 64:0.16666667 69:0.25 71:0.16666667 72:0.25 79:0.52173913 80:1 87:1 89:1 96:1 102:1 104:1 105:1 109:1 113:1 116:1 118:1 133:0.65737484 134:0.060155697 135:0.34255819 
-0.1205377752868803 1:0.49269995 2:0.37094493 3:0.69503483 4:0.47934207 5:0.5 6:0.26315789 7:0.5 8:0.25 9:0.30769231 10:0.375 11:0.16666667 12:0.28571429 13:0.28571429 14:0.076923077 15:0.33333333 17:0.375 18:0.11111111 19:0.36363636 20:0.125 22:0.125 23:0.16666667 24:0.1 25:0.33333333 27:0.25 29:0.4 30:0.2 34:0.2 37:0.25 39:0.33333333 40:0.16666667 42:0.33333333 44:0.2 46:0.16666667 48:0.16666667 49:0.33333333 55:0.33333333 57:0.25 60:0.4 62:0.125 63:0.2 71:0.16666667 77:0.25 79:0.43478261 80:1 88:1 94:1 101:1 106:1 109:1 112:1 116:1 133:0.60107072 134:0.025831564 135:0.14709852 
0.1059180989313933 1:0.57432306 2:0.5113657 3:0.32296893 4:0.37015446 5:0.3 6:0.42105263 7:0.27777778 8:0.5625 10:0.25 11:0.33333333 12:0.28571429 13:0.28571429 14:0.30769231 15:0.11111111 16:0.28571429 17:0.25 20:0.25 21:0.2 22:0.375 23:0.33333333 24:0.3 29:0.4 32:0.25 35:0.33333333 37:0.25 39:0.33333333 41:0.2 43:0.25 44:0.2 45:0.125 46:0.16666667 47:0.33333333 50:0.16666667 53:0.33333333 54:0.33333333 56:0.25 57:0.25 64:0.16666667 68:0.33333333 69:0.25 70:0.33333333 73:0.25 76:0.2 77:0.25 78:0.2 79:0.39130435 80:1 88:1 91:1 93:1 95:1 96:1 103:1 106:1 107:1 113:1 114:1 119:1 128:1 130:1 133:0.20402068 134:0.041755131 135:0.29737009 
0.1192304382763866 1:0.35681947 2:0.61508337 3:0.69772966 4:0.54118582 5:0.3 6:0.68421053 7:0.27777778 8:0.25 10:0.75 13:0.42857143 14:0.46153846 15:0.11111111 16:0.42857143 17:0.125 19:0.27272727 20:0.125 21:0.2 22:0.25 23:0.16666667 29:0.6 31:0.75 41:0.6 44:0.4 45:0.375 46:0.16666667 49:0.16666667 51:0.33333333 52:0.16666667 53:0.33333333 55:0.16666667 60:0.2 62:0.125 63:0.2 64:0.16666667 69:0.25 70:0.16666667 74:0.25 79:0.60869565 80:1 90:1 92:1 95:1 104:1 107:1 110:1 115:1 123:1 127:1 133:0.055725587 134:0.066171267 135:0.51139044 
0.125 1:0.54258312 2:0.68324268 3:0.40717527 4:0.50466854 5:0.3 6:0.63157895 7:0.22222222 8:0.375 10:0.5 12:0.28571429 13:0.42857143 14:0.46153846 15:0.22222222 16:0.28571429 17:0.25 19:0.090909091 22:0.375 23:0.16666667 24:0.2 29:0.4 30:0.2 31:0.25 37:0.25 39:0.33333333 41:0.6 44:0.6 45:0.25 46:0.16666667 47:0.16666667 49:0.16666667 52:0.16666667 54:0.33333333 57:0.5 60:0.2 70:0.5 73:0.25 76:0.2 77:0.25 79:0.52173913 80:1 92:1 100:1 103:1 106:1 108:1 128:1 133:0.67835602 134:0.092710545 135:0.71649355 
-0.125 1:0.4525872 2:0.62951077 3:0.57417768 4:0.57247496 5:0.25 6:0.47368421 7:0.44444444 8:0.375 10:0.25 11:0.16666667 12:0.28571429 13:0.28571429 14:0.23076923 15:0.44444444 16:0.14285714 17:0.25 19:0.27272727 20:0.25 22:0.625 24:0.1 29:0.2 31:0.25 32:0.25 37:0.5 43:0.5 44:0.2 45:0.25 46:0.16666667 49:0.5 50:0.16666667 52:0.16666667 55:0.16666667 56:0.25 60:0.2 63:0.2 64:0.16666667 66:0.2 69:0.25 70:0.16666667 71:0.5 76:0.2 79:0.56521739 80:1 86:1 88:1 90:1 93:1 97:1 102:1 104:1 110:1 111:1 120:1 123:1 133:0.81491069 134:0.1334041 135:0.75967316 
-0.125 1:0.61102148 2:0.482383 3:0.78816598 4:0.58098583 5:0.3 6:0.42105263 7:0.55555556 8:0.25 10:0.25 11:0.33333333 12:0.28571429 13:0.28571429 14:0.30769231 15:0.22222222 17:0.375 18:0.11111111 19:0.36363636 20:0.25 22:0.25 23:0.33333333 29:0.4 34:0.2 35:0.33333333 37:0.25 38:0.25 41:0.2 43:0.25 44:0.4 45:0.25 46:0.16666667 49:0.16666667 50:0.16666667 56:0.5 57:0.25 58:0.14285714 60:0.2 61:0.16666667 62:0.25 64:0.16666667 65:0.2 71:0.16666667 73:0.5 79:0.60869565 80:1 86:1 91:1 94:1 95:1 97:1 101:1 102:1 106:1 108:1 112:1 114:1 115:1 133:0.71053087 134:0.10863411 135:0.83955542 
-0.06954272742737316 1:0.19591328 2:0.34472025 3:0.402202 4:0.30388088 5:0.4 6:0.21052632 7:0.38888889 8:0.5625 10:0.375 11:0.16666667 12:0.57142857 13:0.14285714 14:0.076923077 15:0.22222222 16:0.14285714 17:0.5 19:0.090909091 20:0.25 21:0.4 22:0.125 23:0.5 24:0.2 29:0.4 31:0.25 32:0.25 36:0.33333333 38:0.5 39:0.33333333 43:0.25 46:0.33333333 48:0.16666667 50:0.16666667 51:0.33333333 55:0.33333333 56:0.25 57:0.25 63:0.2 64:0.16666667 66:0.2 69:0.25 73:0.5 74:0.25 77:0.25 79:0.30434783 80:1 95:1 97:1 99:1 109:1 112:1 114:1 116:1 123:1 133:0.86671499 134:0.3163482 135:0.68825817 
-0.125 1:0.68556354 2:0.55310284 3:0.69772966 4:0.60809332 5:0.3 6:0.47368421 7:0.5 8:0.25 10:0.5 11:0.33333333 13:0.14285714 14:0.23076923 15:0.44444444 16:0.14285714 17:0.5 18:0.11111111 19:0.18181818 20:0.25 22:0.25 23:0.16666667 24:0.1 29:0.4 30:0.4 34:0.2 35:0.33333333 41:0.2 44:0.2 46:0.33333333 47:0.16666667 48:0.33333333 49:0.16666667 54:0.33333333 55:0.33333333 56:0.5 58:0.14285714 60:0.2 63:0.2 64:0.16666667 65:0.2 70:0.16666667 73:0.25 76:0.2 79:0.60869565 80:1 90:1 96:1 102:1 109:1 113:1 114:1 115:1 133:0.52125873 134:0.23673036 135:0.68867136 
0.0696929353953214 1:0.57391642 2:0.46230795 3:0.71411512 4:0.57713846 5:0.3 6:0.31578947 7:0.66666667 8:0.25 10:0.5 11:0.33333333 13:0.28571429 14:0.076923077 15:0.22222222 16:0.14285714 17:0.375 18:0.11111111 19:0.54545455 20:0.25 22:0.125 23:0.33333333 24:0.1 28:0.2 29:0.4 34:0.2 35:0.33333333 41:0.2 42:0.33333333 46:0.33333333 48:0.16666667 49:0.16666667 53:0.33333333 55:0.33333333 56:0.25 60:0.4 61:0.16666667 62:0.25 63:0.2 64:0.16666667 66:0.2 72:0.25 74:0.5 77:0.25 79:0.60869565 80:1 87:1 91:1 96:1 99:1 103:1 104:1 108:1 112:1 115:1 118:1 120:1 133:0.41972131 134:0.008138712 135:0.046346108 
-0.1213683316115467 1:0.61552358 2:0.51727261 3:0.38712304 4:0.52333652 5:0.35 6:0.47368421 7:0.38888889 8:0.3125 9:0.076923077 10:0.375 11:0.33333333 12:0.14285714 13:0.14285714 14:0.23076923 15:0.33333333 16:0.28571429 17:0.375 18:0.22222222 19:0.090909091 20:0.125 21:0.2 22:0.25 23:0.16666667 24:0.1 26:0.2 29:0.2 30:0.2 31:0.25 32:0.25 33:0.33333333 38:0.25 42:0.33333333 44:0.2 45:0.125 46:0.33333333 48:0.16666667 49:0.16666667 51:0.33333333 52:0.16666667 55:0.16666667 57:0.25 59:0.33333333 60:0.2 66:0.2 68:0.33333333 70:0.33333333 75:0.25 76:0.2 79:0.52173913 80:1 87:1 89:1 95:1 101:1 111:1 115:1 118:1 133:0.3239596 134:0.096956829 135:0.28205673 
0.125 1:0.78816598 2:0.77062466 3:0.521522 4:0.7041301 5:0.15 6:0.57894737 7:0.5 8:0.3125 10:0.25 12:0.14285714 13:0.14285714 14:0.38461538 15:0.44444444 16:0.14285714 17:0.125 18:0.22222222 19:0.45454545 20:0.125 22:0.375 24:0.2 29:0.2 30:0.2 37:0.25 43:0.25 44:0.2 45:0.25 46:0.33333333 47:0.16666667 49:0.33333333 50:0.16666667 54:0.33333333 55:0.16666667 58:0.14285714 60:0.2 61:0.16666667 62:0.375 64:0.16666667 70:0.33333333 76:0.2 78:0.2 79:0.69565217 80:1 90:1 94:1 99:1 102:1 114:1 115:1 133:0.1923956 134:0.10332626 135:0.54842767 
-0.125 1:0.59203639 2:0.3943846 3:0.52319537 4:0.57819687 5:0.2 6:0.31578947 7:0.66666667 8:0.375 10:0.25 11:0.33333333 13:0.14285714 14:0.15384615 15:0.33333333 16:0.14285714 17:0.125 18:0.11111111 19:0.45454545 20:0.5 21:0.2 22:0.25 23:0.33333333 24:0.1 29:0.2 30:0.2 34:0.4 41:0.2 45:0.125 46:0.33333333 48:0.16666667 49:0.16666667 50:0.16666667 52:0.16666667 56:0.25 61:0.16666667 62:0.25 63:0.4 64:0.16666667 65:0.4 66:0.2 68:0.33333333 70:0.16666667 72:0.25 75:0.25 79:0.60869565 80:1 90:1 98:1 101:1 106:1 110:1 112:1 114:1 133:0.63221153 134:0.054493984 135:0.31031742 
0.0008461962302897298 1:0.59184905 2:0.83708236 3:0.78816598 4:0.76159035 5:0.1 6:0.73684211 7:0.38888889 8:0.3125 10:0.25 13:0.14285714 14:0.61538462 15:0.44444444 16:0.28571429 18:0.33333333 19:0.18181818 20:0.25 22:0.25 23:0.16666667 24:0.1 29:0.4 41:0.2 45:0.5 46:0.5 47:0.33333333 49:0.33333333 50:0.16666667 52:0.16666667 53:0.33333333 58:0.28571429 61:0.16666667 63:0.2 64:0.16666667 66:0.2 69:0.25 70:0.16666667 79:0.73913043 80:1 90:1 93:1 95:1 101:1 102:1 106:1 108:1 112:1 114:1 116:1 133:0.2155992 134:0.11995754 135:0.63670199 
-0.125 1:0.70613726 2:0.5813792 3:0.69772966 4:0.76084838 5:0.2 6:0.89473684 7:0.27777778 8:0.125 10:0.25 11:0.33333333 13:0.28571429 14:0.84615385 15:0.22222222 16:0.28571429 17:0.125 18:0.33333333 19:0.090909091 22:0.25 29:0.4 33:0.66666667 41:0.2 42:0.33333333 44:0.4 45:0.625 46:0.33333333 47:0.33333333 49:0.16666667 52:0.33333333 56:0.25 58:0.42857143 60:0.2 70:0.33333333 79:0.7826087 80:1 90:1 95:1 102:1 104:1 107:1 111:1 115:1 133:0.28064022 134:0.016277424 135:0.04735259 
0.125 1:0.45557556 2:0.54905269 3:0.40604948 4:0.51434983 5:0.4 6:0.52631579 7:0.33333333 8:0.25 9:0.076923077 10:0.75 11:0.16666667 13:0.57142857 14:0.23076923 15:0.33333333 16:0.14285714 17:0.25 19:0.090909091 20:0.375 22:0.25 23:0.16666667 26:0.2 28:0.6 29:0.4 30:0.2 35:0.33333333 40:0.16666667 41:0.4 42:0.33333333 45:0.125 46:0.33333333 47:0.16666667 48:0.16666667 49:0.16666667 50:0.16666667 52:0.16666667 55:0.33333333 63:0.2 64:0.16666667 65:0.2 69:0.25 70:0.16666667 73:0.25 79:0.52173913 80:1 86:1 88:1 90:1 94:1 97:1 100:1 107:1 110:1 112:1 116:1 126:1 133:0.22876432 134:0.062278839 135:0.47478685 
-0.125 1:0.36906296 2:0.50278295 3:0.58403118 4:0.52881509 5:0.3 6:0.36842105 7:0.55555556 8:0.3125 10:0.375 11:0.16666667 12:0.28571429 13:0.28571429 14:0.23076923 15:0.22222222 16:0.14285714 17:0.375 18:0.11111111 19:0.27272727 20:0.25 22:0.125 23:0.66666667 29:0.4 31:0.25 35:0.33333333 37:0.25 38:0.25 41:0.4 44:0.2 45:0.25 46:0.16666667 48:0.16666667 49:0.16666667 53:0.33333333 56:0.25 57:0.5 60:0.2 62:0.125 65:0.4 71:0.16666667 73:0.25 74:0.25 75:0.25 79:0.56521739 80:1 91:1 94:1 101:1 103:1 104:1 106:1 107:1 110:1 112:1 130:1 133:0.2617596 134:0.069709837 135:0.49645685 
0.125 1:0.38712304 2:0.38280089 3:0.68556354 4:0.46696794 5:0.4 6:0.47368421 7:0.33333333 8:0.3125 9:0.076923077 10:0.625 11:0.16666667 12:0.14285714 13:0.57142857 14:0.15384615 15:0.22222222 16:0.28571429 17:0.25 18:0.11111111 19:0.18181818 22:0.25 23:0.16666667 24:0.2 27:0.25 28:0.2 29:0.2 30:0.2 31:0.5 34:0.2 37:0.25 41:0.6 42:0.33333333 44:0.2 45:0.125 46:0.16666667 48:0.33333333 52:0.16666667 54:0.33333333 55:0.16666667 61:0.16666667 69:0.25 70:0.16666667 74:0.25 77:0.25 78:0.2 79:0.47826087 80:1 87:1 88:1 90:1 98:1 99:1 101:1 105:1 108:1 118:1 121:1 133:0.12789676 134:0.033616419 135:0.25627699 
0.1043234281077412 1:0.71411512 2:0.76366581 3:0.59488403 4:0.75678285 5:0.05 6:0.78947368 7:0.33333333 8:0.375 10:0.125 14:0.76923077 15:0.33333333 16:0.42857143 18:0.33333333 19:0.090909091 20:0.25 22:0.25 23:0.33333333 24:0.1 29:0.2 45:0.75 46:0.33333333 47:0.5 49:0.16666667 50:0.16666667 52:0.16666667 53:0.33333333 58:0.28571429 61:0.16666667 64:0.16666667 66:0.2 70:0.33333333 75:0.25 77:0.25 79:0.73913043 80:1 98:1 109:1 111:1 116:1 125:1 129:1 133:0.21443902 134:0.11889597 135:0.63106746 
0.125 1:0.56389849 2:0.52086146 3:0.78769822 4:0.63285895 5:0.25 6:0.78947368 7:0.22222222 8:0.25 10:0.5 11:0.16666667 13:0.57142857 14:0.53846154 15:0.33333333 16:0.28571429 18:0.22222222 20:0.125 22:0.375 24:0.1 28:0.2 29:0.4 30:0.2 33:0.33333333 41:0.6 42:0.33333333 44:0.4 45:0.375 46:0.16666667 47:0.33333333 50:0.16666667 52:0.16666667 54:0.33333333 58:0.14285714 64:0.16666667 69:0.25 70:0.33333333 76:0.2 79:0.65217391 80:1 92:1 99:1 104:1 106:1 109:1 110:1 121:1 133:0.66097378 134:0.027600849 135:0.47928294 
-0.05395914199704966 1:0.50282817 2:0.59013955 3:0.52267638 4:0.56255991 5:0.3 6:0.52631579 7:0.38888889 8:0.3125 9:0.15384615 10:0.375 11:0.16666667 14:0.30769231 15:0.44444444 16:0.28571429 17:0.25 18:0.22222222 20:0.375 21:0.2 22:0.25 23:0.33333333 25:0.11111111 26:0.2 29:0.2 31:0.25 33:0.33333333 45:0.25 46:0.33333333 47:0.16666667 48:0.33333333 50:0.16666667 51:0.33333333 53:0.33333333 55:0.16666667 58:0.14285714 64:0.33333333 65:0.2 68:0.33333333 70:0.16666667 71:0.16666667 75:0.5 79:0.56521739 80:1 96:1 97:1 103:1 104:1 109:1 112:1 115:1 133:0.86905274 134:0.074663836 135:0.96347032 
0.125 1:0.32296893 2:0.46295878 3:0.4359805 4:0.40100526 5:0.4 6:0.52631579 7:0.16666667 8:0.4375 9:0.30769231 10:0.25 11:0.16666667 12:0.14285714 13:0.28571429 14:0.46153846 16:0.42857143 17:0.125 20:0.25 22:0.375 23:0.33333333 24:0.1 25:0.22222222 26:0.2 28:0.2 29:0.2 35:0.33333333 39:0.33333333 40:0.16666667 43:0.25 44:0.2 45:0.5 47:0.33333333 52:0.16666667 53:0.66666667 64:0.16666667 70:0.33333333 72:0.25 73:0.25 75:0.25 76:0.2 79:0.39130435 80:1 89:1 94:1 108:1 113:1 116:1 129:1 133:0.16845155 134:0.024416136 135:0.1738859 
-0.03736380875274962 1:0.50033308 2:0.22181558 3:0.66315036 4:0.34337962 5:0.35 6:0.52631579 7:0.16666667 8:0.5 9:0.076923077 10:0.375 11:0.16666667 12:0.28571429 13:0.28571429 14:0.38461538 15:0.11111111 16:0.28571429 19:0.090909091 20:0.25 21:0.6 22:0.375 24:0.2 26:0.2 29:0.6 34:0.2 36:0.66666667 42:0.33333333 43:0.25 44:0.2 45:0.25 46:0.16666667 47:0.33333333 50:0.16666667 51:0.33333333 54:0.33333333 63:0.2 64:0.16666667 66:0.2 67:0.25 69:0.25 70:0.16666667 76:0.4 79:0.39130435 80:1 86:1 87:1 90:1 97:1 99:1 100:1 102:1 106:1 109:1 113:1 114:1 115:1 133:0.66464587 134:0.030077849 135:0.52229551 
0.125 1:0.49372418 2:0.38926997 3:0.61054367 4:0.44592877 5:0.5 6:0.63157895 7:0.11111111 8:0.25 9:0.23076923 10:0.5 12:0.28571429 13:0.42857143 14:0.46153846 15:0.22222222 16:0.28571429 17:0.25 21:0.2 22:0.375 25:0.11111111 26:0.4 28:0.2 29:0.4 31:0.25 37:0.5 40:0.33333333 43:0.25 44:0.4 45:0.375 46:0.16666667 47:0.16666667 48:0.33333333 51:0.33333333 52:0.16666667 55:0.16666667 70:0.33333333 71:0.16666667 79:0.43478261 80:1 86:1 87:1 90:1 93:1 97:1 100:1 102:1 106:1 109:1 111:1 132:1 133:0.01251167 134:0.014508139 135:0.11212304 
0.0565483833656839 1:0.52319537 2:0.56005102 3:0.5038825 4:0.54776845 5:0.25 6:0.26315789 7:0.66666667 8:0.375 10:0.375 11:0.16666667 12:0.14285714 14:0.076923077 15:0.22222222 16:0.42857143 17:0.5 18:0.11111111 19:0.45454545 20:0.125 22:0.125 23:0.66666667 24:0.1 29:0.2 31:0.5 34:0.2 37:0.25 46:0.16666667 47:0.16666667 53:0.66666667 54:0.33333333 55:0.33333333 56:0.25 57:0.25 60:0.6 62:0.25 65:0.2 70:0.16666667 73:0.25 74:0.5 75:0.25 77:0.25 79:0.56521739 80:1 87:1 89:1 98:1 99:1 101:1 103:1 104:1 107:1 112:1 118:1 123:1 133:0.35019244 134:0.12526539 135:0.36440906 
0.125 1:0.69503483 2:0.58446507 3:0.69503483 4:0.57565336 5:0.3 6:0.42105263 7:0.5 8:0.3125 10:0.375 11:0.33333333 13:0.42857143 14:0.076923077 15:0.33333333 16:0.28571429 17:0.25 19:0.36363636 20:0.375 22:0.625 29:0.2 30:0.4 32:0.25 34:0.2 42:0.66666667 47:0.33333333 49:0.5 52:0.33333333 55:0.33333333 60:0.2 63:0.6 64:0.5 69:0.75 70:0.16666667 71:0.16666667 79:0.56521739 80:1 87:1 89:1 96:1 101:1 103:1 109:1 113:1 133:0.63140383 134:0.0095541401 135:0.16590563 
0.125 1:0.62300177 2:0.38926997 3:0.61102148 4:0.46199645 5:0.3 6:0.42105263 7:0.38888889 8:0.4375 9:0.076923077 10:0.375 11:0.16666667 12:0.14285714 13:0.28571429 14:0.30769231 16:0.42857143 17:0.25 19:0.27272727 20:0.25 22:0.25 23:0.5 24:0.1 29:0.6 34:0.2 37:0.25 40:0.16666667 41:0.2 44:0.2 45:0.125 47:0.5 52:0.16666667 53:0.66666667 55:0.16666667 57:0.25 60:0.2 62:0.25 66:0.2 69:0.25 70:0.16666667 73:0.25 75:0.5 77:0.25 79:0.47826087 80:1 87:1 90:1 92:1 97:1 101:1 104:1 107:1 113:1 116:1 127:1 133:0.84559009 134:0.28733192 135:0.62512934 
-0.125 1:0.69772966 2:0.77698138 3:0.56389849 4:0.68947208 5:0.1 6:0.89473684 7:0.16666667 8:0.375 10:0.25 13:0.14285714 14:0.69230769 15:0.22222222 16:0.71428571 18:0.22222222 19:0.090909091 22:0.625 24:0.1 29:0.4 41:0.2 45:0.25 46:0.33333333 47:0.83333333 49:0.16666667 52:0.66666667 54:0.33333333 58:0.14285714 61:0.16666667 70:0.83333333 76:0.2 79:0.69565217 80:1 90:1 103:1 106:1 108:1 113:1 115:1 121:1 128:1 133:0.28174582 134:0.020169851 135:0.058676035 
0.125 1:0.29890715 2:0.47012626 3:0.57906094 4:0.41149017 5:0.35 6:0.47368421 7:0.27777778 8:0.4375 9:0.076923077 10:0.5 11:0.16666667 12:0.14285714 13:0.28571429 14:0.15384615 15:0.33333333 16:0.28571429 17:0.125 19:0.090909091 20:0.375 21:0.4 22:0.5 24:0.1 27:0.25 29:0.6 30:0.2 34:0.2 36:0.33333333 40:0.16666667 41:0.2 44:0.2 46:0.16666667 47:0.16666667 48:0.16666667 50:0.33333333 51:0.33333333 54:0.33333333 55:0.16666667 63:0.2 64:0.5 68:0.33333333 69:0.25 71:0.16666667 72:0.25 76:0.2 79:0.43478261 80:1 86:1 90:1 94:1 100:1 102:1 104:1 108:1 112:1 114:1 115:1 133:0.61913236 134:0.014154282 135:0.1826484 
-0.125 1:0.54258312 2:0.40818177 3:0.77120049 4:0.34996198 5:0.55 6:0.26315789 7:0.33333333 8:0.375 9:0.38461538 10:0.25 11:0.16666667 12:0.28571429 13:0.14285714 14:0.076923077 15:0.22222222 16:0.28571429 17:0.375 19:0.18181818 20:0.125 21:0.2 22:0.375 23:0.16666667 24:0.1 25:0.22222222 27:0.25 30:0.2 31:0.25 32:0.25 37:0.5 40:0.16666667 44:0.2 46:0.16666667 48:0.16666667 50:0.16666667 51:0.33333333 54:0.33333333 55:0.16666667 57:0.25 60:0.2 62:0.125 64:0.16666667 67:0.25 70:0.33333333 72:0.25 74:0.25 77:0.25 79:0.30434783 80:1 88:1 94:1 96:1 98:1 106:1 109:1 117:1 125:1 133:0.55068528 134:0.072186837 135:0.1570522 
