svm_type epsilon_svr
kernel_type rbf
gamma 0.125
nr_class 2
total_sv 2613
rho -0.350523
SV
0.07773741408882019 1:0.5438914 2:0.56467915 3:0.53701896 4:0.47596859 5:0.3 6:0.26315789 7:0.55555556 8:0.4375 9:0.30769231 11:0.33333333 13:0.14285714 14:0.076923077 15:0.22222222 16:0.28571429 19:0.36363636 20:0.625 22:0.625 23:0.33333333 25:0.33333333 34:0.4 40:0.33333333 43:0.125 44:0.16666667 47:0.16666667 48:0.16666667 50:0.16666667 51:0.33333333 62:0.6 63:0.66666667 64:0.2 68:0.25 69:0.16666667 70:0.16666667 71:0.5 74:0.25 75:0.25 79:0.47826087 80:1 82:1 85:1 92:1 96:1 100:1 101:1 105:1 109:1 115:0.051215724 116:0.72634948 117:0.71835953 118:0.68897214 119:0.76339804 120:0.65458758 121:0.71773918 122:0.64502522 123:0.42639976 124:0.74134889 125:0.79982407 126:0.59503809 127:0.64326603 128:0.45668838 129:0.39263507 130:0.48162902 131:0.32762551 132:0.38105911 133:0.39203805 134:0.36814383 135:0.31561843 136:0.65505906 137:0.7212465 138:0.82460516 139:0.85722827 140:0.67850765 141:0.79912026 142:0.75801258 143:0.5719584 144:0.79288525 145:0.85906749 146:0.6409523 147:0.78174284 148:0.62499615 149:0.66350672 150:0.70095562 151:0.58420273 152:0.55574536 153:0.51883021 154:0.58890074 155:0.51435526 
0.125 1:0.59505313 2:0.48252746 3:0.56389849 4:0.41061206 5:0.4 6:0.42105263 7:0.27777778 8:0.4375 9:0.23076923 10:0.5 11:0.16666667 13:0.14285714 14:0.076923077 15:0.22222222 16:0.57142857 17:0.375 19:0.090909091 20:0.125 22:0.5 23:0.16666667 24:0.2 25:0.22222222 29:0.2 31:0.75 32:0.25 39:0.2 42:0.2 44:0.16666667 46:0.16666667 48:0.16666667 50:0.33333333 52:0.66666667 53:0.5 59:0.2 63:0.16666667 69:0.16666667 70:0.16666667 71:0.25 74:0.25 76:0.2 77:0.25 79:0.39130435 80:1 82:1 84:1 88:1 89:1 98:1 99:1 102:1 103:1 108:1 110:1 115:0.59943173 116:0.52592416 117:0.59193849 118:0.4679795 119:0.50289873 120:0.47928661 121:0.67291685 122:0.66914685 123:0.54151801 124:0.56370952 125:0.64711942 126:0.41761262 127:0.62212667 128:0.36372477 129:0.52313322 130:0.50094663 131:0.57055431 132:0.44500564 133:0.48410938 134:0.54736587 135:0.46228296 136:0.63275517 137:0.65321917 138:0.60802142 139:0.64686013 140:0.67168859 141:0.80271757 142:0.78651964 143:0.71323464 144:0.71785231 145:0.78580925 146:0.56162055 147:0.6493748 148:0.51530189 149:0.63603526 150:0.56432337 151:0.64793328 152:0.62486978 153:0.73850512 154:0.71881566 155:0.55801076 
-0.08078221897004639 1:0.53701896 2:0.53620357 3:0.50033308 4:0.4939864 5:0.25 6:0.26315789 7:0.55555556 8:0.5 9:0.23076923 11:0.33333333 13:0.14285714 14:0.076923077 15:0.22222222 16:0.28571429 19:0.36363636 20:0.75 22:0.625 23:0.33333333 25:0.22222222 34:0.4 40:0.33333333 43:0.125 44:0.16666667 47:0.16666667 48:0.16666667 50:0.16666667 51:0.33333333 62:0.8 63:0.66666667 64:0.2 68:0.25 69:0.16666667 70:0.16666667 71:0.5 74:0.25 75:0.25 79:0.47826087 80:1 82:1 84:1 85:1 86:1 87:1 97:1 115:0.051283035 116:0.80513689 117:0.7075834 118:0.65843057 119:0.57212018 120:0.51286569 121:0.51676781 122:0.55334008 123:0.37286577 124:0.46167966 125:0.5628949 126:0.43582691 127:0.37663932 128:0.55561425 129:0.38191141 130:0.54503231 131:0.40630299 132:0.63006081 133:0.39685909 134:0.45076374 135:0.26558348 136:0.82597032 137:0.82740587 138:0.82524434 139:0.71805951 140:0.65958634 141:0.67831489 142:0.56726723 143:0.60693654 144:0.79018558 145:0.72121213 146:0.6288985 147:0.60985245 148:0.78377273 149:0.57304881 150:0.75360413 151:0.70470098 152:0.69001235 153:0.71489301 154:0.73175372 155:0.43838182 
-0.125 1:0.52319537 2:0.81029024 3:0.59505313 4:0.53126068 5:0.45 6:0.36842105 7:0.5 8:0.1875 9:0.23076923 10:0.125 11:0.83333333 13:0.28571429 14:0.23076923 15:0.22222222 16:0.14285714 17:0.375 18:0.11111111 19:0.18181818 20:0.25 22:0.375 25:0.11111111 29:0.2 32:0.25 33:0.33333333 35:0.66666667 38:0.16666667 39:0.2 42:0.2 43:0.125 44:0.16666667 45:0.16666667 47:0.33333333 50:0.16666667 54:0.75 57:0.14285714 59:0.4 63:0.33333333 68:0.25 69:0.16666667 70:0.16666667 79:0.52173913 80:1 82:1 86:1 88:1 89:1 93:1 95:1 97:1 100:1 115:0.27588981 116:0.67054654 117:0.4345867 118:0.63472013 119:0.60653428 120:0.50526164 121:0.58927794 122:0.59949167 123:0.55903164 124:0.72195764 125:0.54816141 126:0.59401554 127:0.61914675 128:0.54071235 129:0.62082508 130:0.68208038 131:0.49374388 132:0.7676145 133:0.63449484 134:0.66809052 135:0.65990714 136:0.54438674 137:0.34377346 138:0.67682348 139:0.63405398 140:0.51388545 141:0.59144616 142:0.6686114 143:0.65499722 144:0.84444373 145:0.64358001 146:0.73917432 147:0.69571033 148:0.63918352 149:0.67074958 150:0.74412218 151:0.61882036 152:0.73636951 153:0.6701757 154:0.77495145 155:0.60628769 
0.125 1:0.3836975 2:0.55310284 3:0.6978734 4:0.56074214 5:0.25 6:0.47368421 7:0.44444444 8:0.375 9:0.15384615 10:0.125 11:0.16666667 12:0.14285714 13:0.14285714 14:0.38461538 15:0.22222222 16:0.28571429 17:0.125 19:0.36363636 20:0.25 22:0.5 23:0.16666667 24:0.1 25:0.11111111 29:0.2 35:0.33333333 41:0.25 42:0.2 43:0.375 44:0.16666667 45:0.16666667 47:0.16666667 50:0.16666667 51:0.33333333 53:0.16666667 59:0.2 61:0.375 63:0.33333333 69:0.33333333 70:0.16666667 71:0.25 75:0.25 76:0.2 79:0.56521739 80:1 82:1 86:1 87:1 88:1 91:1 92:1 95:1 97:1 100:1 101:1 109:1 115:0.16552806 116:0.78790949 117:0.44617714 118:0.61981495 119:0.58718319 120:0.56789584 121:0.63226157 122:0.60217073 123:0.47932541 124:0.68125788 125:0.47506047 126:0.72201266 127:0.61420924 128:0.42284642 129:0.63971336 130:0.42988284 131:0.57243785 132:0.62041625 133:0.62179713 134:0.58630527 135:0.68221063 136:0.76814466 137:0.5792262 138:0.7126163 139:0.75484866 140:0.61577857 141:0.60647092 142:0.61736821 143:0.54379954 144:0.73885395 145:0.60345321 146:0.86386339 147:0.66188619 148:0.61816088 149:0.78775874 150:0.39649531 151:0.67310139 152:0.61484078 153:0.80609024 154:0.73859818 155:0.70307474 
0.125 1:0.86189425 2:0.57699058 3:0.5989845 4:0.54622279 5:0.35 6:0.36842105 7:0.55555556 8:0.25 9:0.15384615 10:0.375 11:0.33333333 13:0.28571429 14:0.076923077 15:0.33333333 16:0.14285714 17:0.125 18:0.33333333 19:0.27272727 20:0.375 21:0.2 22:0.125 23:0.33333333 25:0.11111111 26:0.2 29:0.2 30:0.4 33:0.66666667 39:0.2 40:0.33333333 42:0.2 44:0.16666667 46:0.16666667 47:0.33333333 49:0.33333333 54:0.25 57:0.14285714 58:0.33333333 60:0.16666667 62:0.4 63:0.16666667 64:0.4 66:0.33333333 68:0.25 74:0.25 75:0.25 79:0.56521739 80:1 82:1 84:1 86:1 91:1 92:1 93:1 97:1 98:1 103:1 115:0.16123648 116:0.61182067 117:0.40706602 118:0.51992882 119:0.47814953 120:0.41099715 121:0.4035571 122:0.49723137 123:0.46278646 124:0.54473693 125:0.76902909 126:0.51120004 127:0.56814677 128:0.60577288 129:0.59252883 130:0.48613318 131:0.40854136 132:0.58946781 133:0.46356165 134:0.39136884 135:0.4707671 136:0.51854632 137:0.39639201 138:0.48082243 139:0.47660862 140:0.39269258 141:0.481051 142:0.56961604 143:0.50919986 144:0.59334624 145:0.81788111 146:0.36950876 147:0.66264611 148:0.67689952 149:0.59436225 150:0.5667352 151:0.51354909 152:0.62911736 153:0.66569341 154:0.47078316 155:0.47767354 
-0.05906540177069521 1:0.69503483 2:0.58446507 3:0.69772966 4:0.51840666 5:0.55 6:0.47368421 7:0.33333333 8:0.125 9:0.23076923 10:0.75 11:0.16666667 12:0.14285714 13:0.28571429 14:0.23076923 15:0.44444444 16:0.14285714 17:0.625 19:0.090909091 22:0.125 25:0.11111111 26:0.2 27:0.25 29:0.4 30:0.6 31:0.25 32:0.25 38:0.16666667 40:0.33333333 42:0.4 43:0.125 44:0.16666667 46:0.5 47:0.16666667 50:0.16666667 53:0.83333333 59:0.2 69:0.16666667 79:0.47826087 80:1 82:1 84:1 89:1 96:1 98:1 100:1 106:1 115:0.70783841 116:0.49029225 117:0.49459581 118:0.54752162 119:0.63309044 120:0.7060602 121:0.63410293 122:0.64024275 123:0.45405793 124:0.5437331 125:0.79970814 126:0.75061882 127:0.77954154 128:0.56972711 129:0.56153747 130:0.57706713 131:0.72833664 132:0.38354553 133:0.48108177 134:0.59854599 135:0.58554609 136:0.52702344 137:0.68581232 138:0.66848516 139:0.80720276 140:0.87864786 141:0.81713748 142:0.69466318 143:0.63551176 144:0.68200782 145:0.811715 146:0.7547159 147:0.87850787 148:0.82865062 149:0.73478109 150:0.76592283 151:0.9016162 152:0.58068616 153:0.67253465 154:0.73748638 155:0.72691113 
-0.04426136087299126 1:0.60222828 2:0.55859452 3:0.71411512 4:0.5771874 5:0.25 6:0.47368421 7:0.44444444 8:0.375 9:0.15384615 10:0.25 11:0.16666667 14:0.23076923 15:0.44444444 16:0.42857143 17:0.125 18:0.33333333 19:0.090909091 20:0.25 21:0.2 22:0.25 23:0.33333333 24:0.1 25:0.11111111 26:0.2 30:0.2 31:0.25 33:0.33333333 43:0.125 44:0.33333333 45:0.16666667 46:0.16666667 47:0.16666667 48:0.16666667 49:0.33333333 51:0.33333333 52:0.33333333 54:0.25 57:0.14285714 58:0.33333333 63:0.16666667 64:0.2 66:0.33333333 69:0.33333333 73:0.33333333 75:0.25 76:0.2 79:0.56521739 80:1 82:1 84:1 90:1 95:1 96:1 100:1 101:1 115:0.26747583 116:0.69814123 117:0.72231874 118:0.61884439 119:0.64976854 120:0.50837076 121:0.67634768 122:0.51461761 123:0.44492814 124:0.718185 125:0.48289628 126:0.41313832 127:0.39553939 128:0.45611147 129:0.48497105 130:0.36798972 131:0.53720467 132:0.41344616 133:0.36208413 134:0.29079379 135:0.33426312 136:0.50160417 137:0.66385054 138:0.37634316 139:0.61985623 140:0.21213245 141:0.51926949 142:0.35918897 143:0.43541003 144:0.5508257 145:0.41019592 146:0.32098338 147:0.32389812 148:0.29881226 149:0.3843496 150:0.22010831 151:0.44974551 152:0.31549597 153:0.17714264 154:0.17832434 155:0.29460318 
-0.125 1:0.5128194 2:0.6037518 3:0.66315036 4:0.55500641 5:0.3 6:0.52631579 7:0.38888889 8:0.3125 9:0.15384615 10:0.25 11:0.16666667 12:0.14285714 13:0.14285714 14:0.38461538 15:0.33333333 16:0.28571429 17:0.125 18:0.11111111 19:0.18181818 20:0.25 21:0.2 22:0.375 23:0.16666667 25:0.11111111 27:0.25 30:0.2 31:0.25 34:0.2 36:0.33333333 39:0.2 43:0.5 44:0.33333333 47:0.16666667 50:0.33333333 53:0.16666667 56:0.33333333 62:0.4 63:0.16666667 64:0.2 67:0.33333333 69:0.33333333 71:0.25 72:0.25 79:0.56521739 80:1 82:1 85:1 89:1 91:1 92:1 96:1 97:1 101:1 109:1 115:0.076055516 116:0.74635761 117:0.57123024 118:0.5294741 119:0.67838909 120:0.64553802 121:0.75674535 122:0.52793441 123:0.20433974 124:0.65335336 125:0.65073711 126:0.54226083 127:0.53881003 128:0.64950277 129:0.57313655 130:0.67420121 131:0.42371951 132:0.50065945 133:0.61465345 134:0.43188679 135:0.58000381 136:0.75921722 137:0.71561122 138:0.64528609 139:0.80002791 140:0.66846066 141:0.64358369 142:0.61101886 143:0.4067699 144:0.64071118 145:0.7895429 146:0.58496186 147:0.59143846 148:0.80319641 149:0.71715104 150:0.76490813 151:0.67306736 152:0.4989847 153:0.71635662 154:0.36356783 155:0.64122947 
0.125 1:0.53701896 2:0.36889422 3:0.52505164 4:0.39203178 5:0.5 6:0.052631579 7:0.66666667 8:0.3125 9:0.30769231 10:0.25 11:0.33333333 12:0.28571429 13:0.14285714 15:0.11111111 17:0.5 19:0.54545455 20:0.125 23:0.5 24:0.2 25:0.22222222 26:0.2 27:0.25 28:0.2 29:0.2 32:0.5 41:0.25 44:0.16666667 47:0.16666667 53:0.16666667 54:0.5 59:0.4 61:0.375 65:0.2 74:0.5 75:0.25 77:0.5 79:0.39130435 80:1 82:1 84:1 90:1 91:1 92:1 93:1 95:1 97:1 115:0.65029693 116:0.26572646 117:0.35641633 118:0.34059897 119:0.20986047 120:0.2082903 121:0.3676143 122:0.34518496 123:0.14039377 124:0.38753577 125:0.50503425 126:0.43219562 127:0.31060125 128:0.56819732 129:0.6462124 130:0.4647303 131:0.31943025 132:0.61328356 133:0.39124558 134:0.63371758 135:0.69622021 136:0.28401411 137:0.35725771 138:0.46664746 139:0.4482375 140:0.39319791 141:0.6156386 142:0.42577377 143:0.34652492 144:0.5763348 145:0.63875951 146:0.64570142 147:0.55841229 148:0.65887958 149:0.73473032 150:0.37265424 151:0.4281167 152:0.70000145 153:0.54624841 154:0.67988517 155:0.8116393 
-0.125 1:0.42214227 2:0.52801566 3:0.47077004 4:0.47725174 5:0.4 6:0.26315789 7:0.55555556 8:0.3125 9:0.23076923 11:0.66666667 12:0.14285714 13:0.28571429 14:0.076923077 15:0.11111111 16:0.14285714 17:0.125 18:0.33333333 19:0.36363636 20:0.25 21:0.2 22:0.25 23:0.16666667 24:0.1 25:0.11111111 32:0.25 33:0.33333333 34:0.4 38:0.16666667 41:0.25 43:0.125 45:0.16666667 48:0.16666667 50:0.16666667 54:0.25 56:0.33333333 57:0.14285714 60:0.33333333 61:0.125 62:0.2 63:0.16666667 67:0.33333333 68:0.25 74:0.25 77:0.25 79:0.47826087 80:1 84:1 90:1 92:1 95:1 100:1 101:1 102:1 103:1 107:1 115:0.28442606 116:0.42732742 117:0.64275573 118:0.59239994 119:0.62677266 120:0.48905332 121:0.65685139 122:0.58484055 123:0.30758663 124:0.56521473 125:0.67279148 126:0.35258602 127:0.41790863 128:0.29960045 129:0.48935627 130:0.51129113 131:0.56267368 132:0.35324765 133:0.39817731 134:0.30801247 135:0.39423245 136:0.25289697 137:0.56010668 138:0.54484301 139:0.59396735 140:0.2811104 141:0.47222221 142:0.47728694 143:0.3001434 144:0.53703308 145:0.48086102 146:0.26242489 147:0.35843414 148:0.32768527 149:0.47385359 150:0.41549275 151:0.4860247 152:0.24633774 153:0.27304344 154:0.32417394 155:0.42251868 
0.125 1:0.38580469 2:0.52523248 3:0.57391642 4:0.51283017 5:0.3 6:0.36842105 7:0.5 8:0.375 9:0.076923077 10:0.25 11:0.33333333 12:0.14285714 13:0.42857143 14:0.076923077 15:0.22222222 16:0.28571429 17:0.125 19:0.45454545 20:0.25 22:0.625 24:0.1 28:0.2 30:0.2 32:0.25 34:0.2 37:0.25 39:0.2 40:0.33333333 41:0.25 44:0.16666667 45:0.16666667 47:0.16666667 48:0.16666667 50:0.33333333 53:0.16666667 61:0.375 62:0.2 63:0.16666667 65:0.2 68:0.5 69:0.33333333 71:0.25 76:0.2 79:0.52173913 80:1 85:1 86:1 87:1 91:1 95:1 97:1 113:1 115:0.60309535 116:0.67084484 117:0.43740023 118:0.37379253 119:0.42524039 120:0.43243951 121:0.43463792 122:0.46085041 123:0.28577853 124:0.53291936 125:0.38893412 126:0.6449269 127:0.29701535 128:0.55690707 129:0.61148914 130:0.58982633 131:0.38750236 132:0.64426216 133:0.54184844 134:0.50530052 135:0.63626494 136:0.66127978 137:0.61752152 138:0.47822374 139:0.64000461 140:0.46811217 141:0.64350857 142:0.52215323 143:0.41949377 144:0.59614727 145:0.61690565 146:0.8367805 147:0.55467837 148:0.5167021 149:0.71433791 150:0.69422879 151:0.60432398 152:0.79978771 153:0.71494818 154:0.6672788 155:0.68486312 
-0.125 1:0.52319537 2:0.6950012 3:0.6443844 4:0.59368783 5:0.2 6:0.52631579 7:0.38888889 8:0.4375 9:0.076923077 10:0.125 11:0.16666667 14:0.46153846 15:0.22222222 16:0.42857143 17:0.25 19:0.27272727 20:0.25 22:0.5 23:0.16666667 24:0.2 29:0.2 34:0.2 43:0.375 44:0.33333333 45:0.33333333 46:0.16666667 47:0.16666667 50:0.33333333 52:0.33333333 53:0.16666667 59:0.2 62:0.4 63:0.16666667 65:0.2 69:0.5 71:0.25 74:0.25 76:0.2 77:0.25 79:0.56521739 80:1 91:1 96:1 98:1 99:1 114:1 115:0.31357367 116:0.61252293 117:0.48532521 118:0.54372997 119:0.60715719 120:0.62121453 121:0.648338 122:0.48381799 123:0.47254677 124:0.55759732 125:0.64116938 126:0.68806893 127:0.57201775 128:0.67033644 129:0.67036545 130:0.48448024 131:0.66237447 132:0.48970125 133:0.68875223 134:0.41960895 135:0.53207531 136:0.75768117 137:0.70151856 138:0.7297887 139:0.63585555 140:0.82435905 141:0.87580485 142:0.65563698 143:0.66185394 144:0.58345201 145:0.72371488 146:0.83135224 147:0.67943379 148:0.78913489 149:0.71311629 150:0.48354962 151:0.72407327 152:0.57797369 153:0.83301079 154:0.53288436 155:0.46613504 
-0.125 1:0.42622728 2:0.59420581 3:0.52267638 4:0.37844004 5:0.45 6:0.26315789 7:0.38888889 8:0.4375 9:0.30769231 10:0.125 11:0.5 12:0.14285714 13:0.42857143 16:0.42857143 17:0.125 18:0.33333333 19:0.090909091 20:0.25 22:0.25 23:0.5 24:0.1 25:0.11111111 27:0.25 31:0.25 32:0.25 33:0.66666667 38:0.33333333 40:0.33333333 42:0.2 50:0.16666667 51:0.33333333 52:0.33333333 53:0.16666667 56:0.33333333 58:0.66666667 60:0.16666667 63:0.16666667 64:0.2 68:0.25 69:0.16666667 74:0.25 75:0.5 77:0.25 79:0.34782609 80:1 87:1 91:1 93:1 97:1 100:1 115:0.62575227 116:0.64614595 117:0.62032231 118:0.48769237 119:0.54648608 120:0.38925463 121:0.60300845 122:0.5043659 123:0.30322995 124:0.4384811 125:0.37110822 126:0.54154506 127:0.57497686 128:0.54770204 129:0.43018978 130:0.39241993 131:0.37729493 132:0.4867955 133:0.27565229 134:0.38333118 135:0.25187818 136:0.54669617 137:0.64115552 138:0.40429349 139:0.53081777 140:0.42759712 141:0.54615412 142:0.53663093 143:0.37387206 144:0.46357288 145:0.33089602 146:0.4164621 147:0.54391748 148:0.44666309 149:0.53534506 150:0.2891156 151:0.43725775 152:0.46314725 153:0.32846916 154:0.30389131 155:0.33006033 
0.125 1:0.24243179 2:0.075121269 3:0.6443844 4:0.14487922 5:0.55 6:0.15789474 7:0.27777778 8:0.5625 9:0.076923077 10:0.25 11:0.5 12:0.57142857 13:0.28571429 16:0.28571429 17:0.25 19:0.18181818 20:0.125 21:1 22:0.25 24:0.2 28:0.2 29:0.2 34:0.4 35:0.33333333 36:0.66666667 37:0.25 41:0.25 45:0.16666667 49:0.33333333 50:0.16666667 53:0.16666667 54:0.25 59:0.4 66:0.33333333 67:0.33333333 68:0.25 71:0.25 78:0.2 79:0.17391304 80:1 86:1 87:1 88:1 92:1 95:1 100:1 115:0.55256165 116:0.51074282 117:0.25704012 118:0.26369674 119:0.24523077 120:0.32916552 121:0.44662276 122:0.45416126 123:0.26519874 124:0.32324104 125:0.30526298 126:0.58595175 127:0.40483331 128:0.37323324 129:0.35947519 130:0.35662081 131:0.33965894 132:0.61641113 133:0.59724992 134:0.3575816 135:0.66324008 136:0.1988712 137:0.1780455 138:0.10411684 139:0.23997134 140:0.15962939 141:0.31069397 142:0.26876195 143:0.17497057 144:0.10022893 145:0.35851781 146:0.44527878 147:0.36746626 148:0.34780665 149:0.32828635 150:0.24645303 151:0.29725076 152:0.38354285 153:0.40868087 154:0.38257988 155:0.60180033 
-0.125 1:0.4359805 2:0.61356641 3:0.61102148 4:0.57999995 5:0.2 6:0.47368421 7:0.44444444 8:0.4375 9:0.076923077 10:0.125 11:0.16666667 12:0.14285714 13:0.14285714 14:0.38461538 15:0.22222222 16:0.28571429 17:0.125 19:0.36363636 20:0.375 22:0.5 23:0.16666667 24:0.1 29:0.2 35:0.33333333 41:0.25 42:0.2 43:0.375 44:0.16666667 45:0.16666667 47:0.16666667 48:0.16666667 50:0.16666667 51:0.33333333 53:0.16666667 59:0.2 61:0.375 63:0.33333333 69:0.33333333 70:0.16666667 71:0.25 75:0.25 76:0.2 79:0.56521739 80:1 88:1 89:1 93:1 95:1 97:1 101:1 115:0.16528444 116:0.71481041 117:0.43548703 118:0.67228806 119:0.47664345 120:0.4729414 121:0.50153895 122:0.55561402 123:0.36744773 124:0.48299544 125:0.40203374 126:0.63945875 127:0.40933265 128:0.38172681 129:0.50760767 130:0.43898141 131:0.38886925 132:0.42917075 133:0.49970611 134:0.63303391 135:0.71682226 136:0.71862024 137:0.59321246 138:0.83581309 139:0.60523882 140:0.58022272 141:0.65696464 142:0.69256347 143:0.59860565 144:0.65453414 145:0.54177851 146:0.7197178 147:0.61644963 148:0.55534769 149:0.55807409 150:0.57335266 151:0.5092265 152:0.5160978 153:0.53527614 154:0.68155509 155:0.73411762 
0.125 1:0.50033308 2:0.52167696 3:0.16910392 4:0.32292091 5:0.3 6:0.47368421 7:0.16666667 8:0.625 9:0.076923077 10:0.375 11:0.16666667 12:0.14285714 13:0.14285714 14:0.30769231 16:0.71428571 18:0.11111111 20:0.25 21:0.6 22:0.25 23:0.33333333 24:0.2 29:0.2 31:0.5 35:0.33333333 39:0.2 42:0.2 43:0.375 45:0.16666667 49:1 51:0.33333333 52:0.33333333 58:0.33333333 63:0.16666667 65:0.2 66:0.66666667 69:0.16666667 71:0.25 73:0.33333333 75:0.25 76:0.2 77:0.25 79:0.34782609 80:1 86:1 87:1 115:0.014059832 116:0.51891646 117:0.43365377 118:0.53749369 119:0.35369378 120:0.44844077 121:0.21472552 122:0.2461586 123:0.25955642 124:0.48937098 125:0.12725911 126:0.31373432 127:0.10163014 128:0.235964 129:0.43475974 130:0.27916694 131:0.26894851 132:0.17891797 133:0.30881002 134:0.33020577 135:0.37856143 136:0.46330468 137:0.50974093 138:0.48818989 139:0.39599054 140:0.32302281 141:0.25752201 142:0.26436007 143:0.4189665 144:0.29753331 145:0.24762078 146:0.10126727 147:0.082235791 148:0.20262595 149:0.46625446 150:0.11552496 151:0.28327168 152:0.1371596 153:0.20347863 154:0.26588083 155:0.28184746 
-0.125 1:0.5128194 2:0.48769272 3:0.67433756 4:0.38756 5:0.4 6:0.36842105 7:0.38888889 8:0.375 9:0.076923077 10:0.625 11:0.33333333 13:0.28571429 14:0.15384615 15:0.22222222 16:0.28571429 17:0.25 19:0.090909091 20:0.375 21:0.4 22:0.125 23:0.33333333 24:0.1 28:0.2 29:0.6 31:0.25 35:0.33333333 39:0.4 44:0.33333333 45:0.16666667 46:0.16666667 48:0.16666667 49:0.66666667 53:0.33333333 62:0.2 63:0.16666667 64:0.2 65:0.2 66:0.33333333 67:0.33333333 68:0.25 72:0.25 74:0.25 77:0.25 79:0.43478261 80:1 85:1 89:1 90:1 92:1 96:1 97:1 100:1 115:0.1901341 116:0.65696137 117:0.61905252 118:0.71196148 119:0.8257563 120:0.73824593 121:0.90860623 122:0.69713362 123:0.61038616 124:0.83043241 125:0.68535514 126:0.54164122 127:0.61560642 128:0.61634586 129:0.52375716 130:0.56385492 131:0.53371752 132:0.47107726 133:0.56926206 134:0.40368953 135:0.54966907 136:0.66169285 137:0.75862821 138:0.71048306 139:0.80986515 140:0.89695947 141:0.85613494 142:0.87016176 143:0.69041193 144:0.75220102 145:0.78531981 146:0.54476257 147:0.70266554 148:0.77108957 149:0.61561296 150:0.63893017 151:0.61272854 152:0.47373282 153:0.62538975 154:0.4394008 155:0.72247398 
0.125 1:0.61759707 2:0.6814107 3:0.64440919 4:0.53232877 5:0.3 6:0.47368421 7:0.38888889 8:0.375 9:0.076923077 10:0.375 11:0.33333333 13:0.14285714 14:0.15384615 15:0.44444444 16:0.42857143 17:0.25 18:0.11111111 19:0.090909091 20:0.25 21:0.2 22:0.5 24:0.1 29:0.2 30:0.4 35:0.66666667 39:0.2 42:0.2 43:0.125 44:0.16666667 46:0.16666667 47:0.16666667 49:0.33333333 50:0.33333333 53:0.16666667 54:0.25 57:0.14285714 59:0.2 63:0.16666667 65:0.2 66:0.33333333 70:0.16666667 71:0.75 76:0.2 79:0.52173913 80:1 89:1 92:1 96:1 98:1 100:1 107:1 109:1 115:0.24692406 116:0.69134786 117:0.48871404 118:0.71949022 119:0.6352288 120:0.76288494 121:0.63912322 122:0.65480115 123:0.62003647 124:0.62734728 125:0.70710818 126:0.77188694 127:0.6761386 128:0.51908775 129:0.56701477 130:0.56880815 131:0.53184095 132:0.4171268 133:0.52186297 134:0.4258396 135:0.57035612 136:0.57051752 137:0.41477841 138:0.65423619 139:0.56675765 140:0.7723693 141:0.68865148 142:0.70664784 143:0.63595946 144:0.55810055 145:0.6881681 146:0.76625837 147:0.68271344 148:0.63718499 149:0.63894549 150:0.6112941 151:0.64516518 152:0.59668166 153:0.57224467 154:0.59512303 155:0.6265644 
0.125 1:0.58784235 2:0.385641 3:0.4254219 4:0.32701686 5:0.35 6:0.21052632 7:0.44444444 8:0.5625 9:0.15384615 10:0.25 11:0.33333333 12:0.14285714 13:0.14285714 14:0.076923077 16:0.42857143 17:0.25 19:0.27272727 20:0.25 21:0.2 22:0.25 23:0.5 24:0.3 26:0.2 28:0.2 31:0.25 35:0.66666667 37:0.25 38:0.16666667 45:0.33333333 52:1 53:0.16666667 55:0.25 59:0.2 61:0.25 63:0.16666667 64:0.2 67:0.33333333 69:0.33333333 72:0.25 74:0.25 77:0.5 79:0.34782609 80:1 83:1 85:1 90:1 92:1 100:1 102:1 109:1 110:1 115:0.01587724 116:0.70155493 117:0.63118886 118:0.64541785 119:0.3531882 120:0.50508582 121:0.62236072 122:0.48298216 123:0.35514411 124:0.36009762 125:0.55082753 126:0.17490997 127:0.35530406 128:0.56732328 129:0.38865397 130:0.33795206 131:0.26437213 132:0.33755697 133:0.44360252 134:0.19790549 135:0.25905792 136:0.62281074 137:0.60081161 138:0.59489721 139:0.47426877 140:0.48577867 141:0.66584012 142:0.52815265 143:0.54130417 144:0.40048971 145:0.48550692 146:0.25511926 147:0.3670515 148:0.64591172 149:0.52223495 150:0.38332744 151:0.50418192 152:0.42991984 153:0.40221191 154:0.35985741 155:0.2327848 
0.1223364404793685 1:0.30530944 2:0.35010423 3:0.40670149 4:0.28640822 5:0.55 6:0.36842105 7:0.22222222 8:0.375 9:0.30769231 10:0.625 11:0.16666667 12:0.14285714 13:0.28571429 14:0.23076923 16:0.28571429 17:0.375 19:0.090909091 21:0.2 23:0.33333333 24:0.3 26:0.6 27:0.25 28:0.4 29:0.2 31:0.5 32:0.25 38:0.16666667 40:0.33333333 43:0.375 49:0.33333333 52:0.33333333 53:0.16666667 59:0.2 66:0.33333333 72:0.25 74:0.25 77:0.5 78:0.2 79:0.30434783 80:1 83:1 87:1 91:1 97:1 101:1 103:1 115:0.17429853 116:0.55309197 117:0.36759717 118:0.33611596 119:0.37300596 120:0.41825587 121:0.32172756 122:0.33926997 123:0.13088409 124:0.32005097 125:0.38431565 126:0.38286257 127:0.40518763 128:0.46550859 129:0.38847635 130:0.4475497 131:0.28431123 132:0.57274722 133:0.3349411 134:0.58881105 135:0.46432552 136:0.41515833 137:0.43182191 138:0.3488705 139:0.37758211 140:0.42173224 141:0.32791389 142:0.36251764 143:0.33344234 144:0.41556699 145:0.53791688 146:0.44112192 147:0.50210725 148:0.61340988 149:0.41437821 150:0.49082399 151:0.41237463 152:0.54906736 153:0.55257575 154:0.60073191 155:0.47024449 
-0.125 1:0.56494924 2:0.42572085 3:0.69503483 4:0.48860245 5:0.65 6:0.36842105 7:0.44444444 9:0.23076923 10:0.75 11:0.5 13:0.57142857 14:0.15384615 15:0.22222222 17:0.625 19:0.27272727 25:0.11111111 26:0.4 28:0.2 29:0.6 30:0.4 32:0.5 34:0.2 38:0.16666667 39:0.2 40:0.66666667 42:0.6 46:0.16666667 47:0.16666667 53:0.5 54:0.25 59:0.4 61:0.125 79:0.47826087 80:1 83:1 84:1 85:1 89:1 91:1 95:1 100:1 114:1 115:0.70682874 116:0.55558418 117:0.59177845 118:0.59836439 119:0.57419186 120:0.51644533 121:0.69970721 122:0.48456566 123:0.38023076 124:0.54219391 125:0.63263693 126:0.53185141 127:0.7276044 128:0.62409687 129:0.69776278 130:0.67344337 131:0.66174022 132:0.51116197 133:0.75701326 134:0.71848111 135:0.6376422 136:0.56604787 137:0.65134972 138:0.66554423 139:0.73237739 140:0.6878632 141:0.68001118 142:0.43176939 143:0.64766819 144:0.61331189 145:0.70173556 146:0.53189903 147:0.73950758 148:0.78847179 149:0.73133415 150:0.7265167 151:0.81197215 152:0.51030937 153:0.94452031 154:0.78990026 155:0.7526073 
-0.125 1:0.32296893 2:0.63164971 3:0.86189425 4:0.56377271 5:0.5 6:0.47368421 7:0.38888889 8:0.125 9:0.30769231 10:0.125 11:0.66666667 13:0.57142857 14:0.23076923 15:0.22222222 16:0.14285714 17:0.125 18:0.44444444 19:0.090909091 20:0.125 22:0.25 25:0.22222222 26:0.2 28:0.2 32:0.25 33:0.66666667 34:0.2 38:0.16666667 40:1 42:0.4 44:0.33333333 50:0.16666667 57:0.42857143 58:0.33333333 62:0.2 63:0.16666667 68:0.25 69:0.16666667 79:0.52173913 80:1 83:1 84:1 85:1 86:1 87:1 90:1 93:1 96:1 97:1 98:1 99:1 114:1 115:0.21398605 116:0.41379515 117:0.45906935 118:0.37396 119:0.39905035 120:0.64393273 121:0.6182957 122:0.58932489 123:0.50802951 124:0.77004852 125:0.78906903 126:0.65621914 127:0.69617281 128:0.66482629 129:0.63842737 130:0.77728418 131:0.61372165 132:0.69967545 133:0.69471473 134:0.55628936 135:0.5652934 136:0.38520999 137:0.60276949 138:0.35048193 139:0.47390183 140:0.6032374 141:0.51948059 142:0.58486388 143:0.52109783 144:0.59138036 145:0.51878428 146:0.44246593 147:0.49160186 148:0.46628912 149:0.48314538 150:0.51366354 151:0.4427891 152:0.53550964 153:0.61650833 154:0.34748753 155:0.50456465 
0.125 1:0.5438914 2:0.49319185 3:0.61358266 4:0.48661276 5:0.45 6:0.47368421 7:0.38888889 8:0.1875 9:0.076923077 10:0.625 11:0.33333333 12:0.14285714 13:0.57142857 14:0.15384615 15:0.22222222 16:0.14285714 17:0.25 18:0.11111111 19:0.27272727 20:0.125 21:0.2 22:0.25 26:0.2 28:0.6 29:0.2 31:0.25 32:0.5 37:0.25 39:0.6 40:0.33333333 42:0.2 43:0.125 44:0.16666667 47:0.33333333 49:0.33333333 53:0.16666667 55:0.25 60:0.16666667 61:0.125 62:0.2 63:0.16666667 67:0.33333333 69:0.16666667 70:0.16666667 79:0.52173913 80:1 83:1 89:1 93:1 95:1 98:1 99:1 103:1 106:1 115:0.57533256 116:0.36421229 117:0.29543235 118:0.29791395 119:0.32314689 120:0.32309127 121:0.48768685 122:0.44786737 123:0.23109332 124:0.36131575 125:0.54130569 126:0.47618988 127:0.53308479 128:0.3681109 129:0.40948343 130:0.60465359 131:0.61504246 132:0.48882741 133:0.50525541 134:0.62305155 135:0.78116427 136:0.3723284 137:0.36456544 138:0.48896436 139:0.60888685 140:0.47656607 141:0.59736321 142:0.5484654 143:0.36898343 144:0.40282278 145:0.67118785 146:0.52650404 147:0.65390669 148:0.5419375 149:0.48554676 150:0.64218347 151:0.65713201 152:0.48802846 153:0.51869853 154:0.66245433 155:0.7325099 
-0.125 1:0.55606605 2:0.59172031 3:0.39926016 4:0.39716355 5:0.3 6:0.47368421 7:0.27777778 8:0.5 9:0.076923077 10:0.5 11:0.16666667 13:0.28571429 14:0.23076923 15:0.11111111 16:0.42857143 17:0.125 19:0.090909091 20:0.375 21:0.2 22:0.375 23:0.33333333 24:0.2 26:0.2 28:0.2 29:0.4 34:0.2 39:0.2 40:0.33333333 43:0.25 45:0.33333333 48:0.16666667 49:0.33333333 50:0.33333333 53:0.16666667 62:0.2 63:0.16666667 65:0.4 66:0.33333333 68:0.25 70:0.16666667 71:0.25 72:0.25 75:0.25 77:0.5 79:0.43478261 80:1 83:1 86:1 100:1 103:1 107:1 111:1 115:0.72720163 116:0.65781041 117:0.69497911 118:0.6541154 119:0.75538564 120:0.61591406 121:0.60193849 122:0.67260322 123:0.60047275 124:0.56063867 125:0.5252629 126:0.60912397 127:0.51243434 128:0.21663681 129:0.35895117 130:0.41558981 131:0.57132766 132:0.41163407 133:0.44351563 134:0.24190976 135:0.43720738 136:0.67726993 137:0.77407008 138:0.72718709 139:0.77089404 140:0.75403689 141:0.64291686 142:0.80376727 143:0.63280301 144:0.58970816 145:0.599801 146:0.57308144 147:0.6330985 148:0.57754083 149:0.42454964 150:0.51541506 151:0.67323652 152:0.43670181 153:0.58751365 154:0.27541292 155:0.49478154 
0.125 1:0.41846411 2:0.53760499 3:0.61054367 4:0.45688683 5:0.4 6:0.36842105 7:0.44444444 8:0.3125 9:0.23076923 10:0.375 11:0.16666667 12:0.14285714 13:0.28571429 14:0.15384615 15:0.22222222 16:0.28571429 17:0.125 19:0.36363636 20:0.25 21:0.2 22:0.375 23:0.16666667 25:0.11111111 26:0.4 28:0.2 29:0.2 31:0.25 34:0.2 36:0.33333333 39:0.2 41:0.25 43:0.125 44:0.16666667 45:0.16666667 47:0.16666667 48:0.16666667 50:0.16666667 51:0.33333333 54:0.25 61:0.25 62:0.2 63:0.33333333 68:0.25 69:0.16666667 70:0.16666667 72:0.25 79:0.47826087 80:1 83:1 88:1 90:1 107:1 115:0.66296402 116:0.65679558 117:0.64505366 118:0.68269817 119:0.64715696 120:0.35559639 121:0.77883096 122:0.62258858 123:0.4135364 124:0.22746242 125:0.46146548 126:0.46716925 127:0.51544134 128:0.51035729 129:0.44645207 130:0.45466254 131:0.4916384 132:0.40327572 133:0.47348179 134:0.45016304 135:0.47072551 136:0.58458723 137:0.67000077 138:0.7395667 139:0.74127674 140:0.55440617 141:0.82110866 142:0.73542961 143:0.55964237 144:0.39872353 145:0.57786092 146:0.60474384 147:0.62429184 148:0.67743929 149:0.56856812 150:0.52538515 151:0.71482101 152:0.50697559 153:0.63721983 154:0.50100454 155:0.57598152 
0.125 1:0.34510107 2:0.64631637 3:0.47077004 4:0.46392426 5:0.45 6:0.47368421 7:0.38888889 8:0.1875 9:0.076923077 10:0.75 11:0.33333333 13:0.57142857 14:0.23076923 15:0.22222222 17:0.25 19:0.18181818 20:0.375 21:0.2 22:0.125 23:0.16666667 26:0.2 28:0.6 29:0.4 30:0.2 34:0.2 35:0.33333333 39:0.6 40:0.33333333 42:0.2 43:0.125 44:0.16666667 46:0.16666667 47:0.16666667 53:0.33333333 62:0.4 63:0.16666667 64:0.2 67:0.33333333 69:0.16666667 72:0.25 79:0.52173913 80:1 83:1 86:1 87:1 93:1 95:1 100:1 103:1 106:1 115:0.23087551 116:0.67471505 117:0.5377744 118:0.47354018 119:0.48142119 120:0.54001585 121:0.64586543 122:0.58764181 123:0.35306536 124:0.56766563 125:0.61172426 126:0.77363564 127:0.51850976 128:0.5218951 129:0.4412206 130:0.67292673 131:0.39451563 132:0.6931158 133:0.50201587 134:0.55033002 135:0.48247617 136:0.60993272 137:0.60683279 138:0.5599621 139:0.5689586 140:0.62333569 141:0.70183056 142:0.67113717 143:0.60027499 144:0.5921617 145:0.72227045 146:0.67909411 147:0.71711091 148:0.67009828 149:0.68637396 150:0.62876366 151:0.56752117 152:0.67867775 153:0.63999692 154:0.67317892 155:0.49195081 
0.03880095272805162 1:0.57906094 2:0.3352692 3:0.40604948 4:0.28396651 5:0.65 6:0.42105263 7:0.16666667 8:0.25 9:0.30769231 10:0.625 11:0.33333333 12:0.28571429 13:0.71428571 14:0.15384615 15:0.11111111 17:0.25 20:0.125 21:0.2 22:0.25 24:0.1 25:0.11111111 26:0.6 28:0.4 29:0.2 30:0.2 32:0.25 35:0.33333333 37:0.5 38:0.33333333 39:0.2 40:0.66666667 42:0.6 46:0.16666667 53:0.16666667 55:0.25 65:0.2 69:0.33333333 79:0.30434783 80:1 83:1 86:1 89:1 90:1 94:1 96:1 103:1 115:0.95818145 116:0.40576205 117:0.42218446 118:0.34185945 119:0.24424181 120:0.65410717 121:0.67710808 122:0.5007862 123:0.33589123 124:0.44728538 125:0.48489576 126:0.53894032 127:0.56360772 128:0.49948538 129:0.45400662 130:0.57469689 131:0.15829305 132:0.3896406 133:0.41359556 134:0.61874027 135:0.63879365 136:0.34063691 137:0.49522015 138:0.47157338 139:0.35726157 140:0.66387647 141:0.79151731 142:0.54632605 143:0.47620698 144:0.5457922 145:0.63812643 146:0.48533583 147:0.71449997 148:0.50416359 149:0.58764878 150:0.53891324 151:0.48826085 152:0.49238964 153:0.43400516 154:0.59743917 155:0.69493131 
0.125 1:0.42214227 2:0.55412677 3:0.59203639 4:0.45963033 5:0.45 6:0.31578947 7:0.44444444 8:0.3125 9:0.23076923 10:0.25 11:0.5 12:0.14285714 13:0.28571429 14:0.15384615 15:0.22222222 16:0.14285714 17:0.375 19:0.18181818 20:0.375 22:0.375 23:0.16666667 26:0.2 28:0.2 29:0.2 32:0.5 34:0.2 38:0.16666667 41:0.25 42:0.2 43:0.125 44:0.16666667 46:0.16666667 48:0.16666667 51:0.33333333 53:0.16666667 54:0.25 61:0.125 62:0.2 63:0.5 69:0.16666667 70:0.16666667 71:0.25 75:0.25 79:0.43478261 80:1 83:1 84:1 92:1 98:1 100:1 101:1 109:1 115:0.97775319 116:0.50493727 117:0.52844706 118:0.60936653 119:0.54371307 120:0.65647696 121:0.59087378 122:0.58117108 123:0.43367424 124:0.39805872 125:0.83493532 126:0.60550036 127:0.69966637 128:0.336976 129:0.42671303 130:0.54864658 131:0.46593781 132:0.27979458 133:0.47800867 134:0.3112773 135:0.43632373 136:0.64091914 137:0.68292901 138:0.65565217 139:0.58784685 140:0.80343389 141:0.74371943 142:0.62044814 143:0.63145274 144:0.51850979 145:0.82578334 146:0.71916976 147:0.79728666 148:0.61730807 149:0.56687194 150:0.66482155 151:0.69364508 152:0.47397374 153:0.71221306 154:0.5893941 155:0.52516212 
-0.07998195849718649 1:0.57906094 2:0.62811791 3:0.61552358 4:0.52557711 5:0.25 6:0.42105263 7:0.38888889 8:0.5 9:0.076923077 10:0.375 11:0.16666667 14:0.076923077 15:0.44444444 16:0.57142857 17:0.375 19:0.090909091 20:0.375 22:0.625 23:0.16666667 24:0.1 26:0.2 29:0.4 31:0.25 35:0.33333333 44:0.16666667 45:0.16666667 46:0.33333333 47:0.16666667 48:0.16666667 50:0.33333333 51:0.33333333 53:0.33333333 54:0.25 59:0.2 63:0.33333333 65:0.2 70:0.5 71:0.5 75:0.25 76:0.2 79:0.47826087 80:1 83:1 84:1 95:1 98:1 100:1 110:1 115:0.62328659 116:0.76237903 117:0.72226123 118:0.69051392 119:0.73080022 120:0.53372157 121:0.63156345 122:0.69477532 123:0.61935865 124:0.49503941 125:0.66081474 126:0.38212579 127:0.8224084 128:0.38335932 129:0.49172397 130:0.51784309 131:0.59355937 132:0.45591169 133:0.36722297 134:0.39887897 135:0.23078823 136:0.80978504 137:0.9185824 138:0.77668744 139:0.71675357 140:0.73742501 141:0.72612803 142:0.77609223 143:0.7859303 144:0.59293573 145:0.79097415 146:0.53731864 147:0.81465331 148:0.55544601 149:0.65329093 150:0.63965299 151:0.69297522 152:0.63861107 153:0.62902883 154:0.70767289 155:0.35520543 
0.07703624330716685 1:0.5038825 2:0.62951077 3:0.55943067 4:0.50574304 5:0.35 6:0.57894737 7:0.22222222 8:0.375 9:0.15384615 10:0.375 11:0.16666667 12:0.14285714 13:0.28571429 14:0.30769231 15:0.22222222 16:0.57142857 17:0.25 19:0.090909091 20:0.125 22:0.625 26:0.2 27:0.25 29:0.6 32:0.25 38:0.16666667 39:0.2 42:0.2 44:0.16666667 45:0.5 46:0.16666667 47:0.16666667 50:0.66666667 53:0.16666667 54:0.25 62:0.2 63:0.16666667 68:0.25 69:0.33333333 70:0.16666667 71:0.25 79:0.47826087 80:1 83:1 84:1 85:1 86:1 87:1 89:1 96:1 98:1 99:1 106:1 115:0.65776049 116:0.57007992 117:0.41382028 118:0.46866678 119:0.54278984 120:0.7050231 121:0.41581996 122:0.50204735 123:0.3467885 124:0.48478434 125:0.77546471 126:0.57977899 127:0.6026928 128:0.68149622 129:0.48371373 130:0.59035622 131:0.66678253 132:0.39621463 133:0.59812012 134:0.36664658 135:0.61358264 136:0.6057199 137:0.61533583 138:0.63497239 139:0.66267403 140:0.85638366 141:0.65603928 142:0.69140251 143:0.58653208 144:0.62221796 145:0.78477996 146:0.7665171 147:0.73359644 148:0.78995397 149:0.64661202 150:0.68823355 151:0.82249489 152:0.5862661 153:0.8430165 154:0.69962768 155:0.64187788 
0.125 1:0.40670149 2:0.64631637 3:0.4547451 4:0.47895326 5:0.5 6:0.57894737 7:0.22222222 8:0.1875 9:0.30769231 10:0.625 12:0.14285714 13:0.42857143 14:0.30769231 15:0.33333333 16:0.14285714 17:0.25 19:0.090909091 20:0.125 22:0.375 25:0.11111111 26:0.6 28:0.2 29:0.4 30:0.2 31:0.25 37:0.25 38:0.16666667 39:0.2 41:0.25 42:0.4 43:0.125 44:0.33333333 46:0.33333333 47:0.16666667 50:0.16666667 53:0.16666667 62:0.2 63:0.16666667 69:0.33333333 79:0.47826087 80:1 83:1 84:1 85:1 86:1 91:1 95:1 99:1 102:1 103:1 115:0.85214392 116:0.39524679 117:0.29656772 118:0.34681476 119:0.40463427 120:0.51544148 121:0.50695283 122:0.30977811 123:0.47430716 124:0.64180515 125:0.59158045 126:0.59543439 127:0.61344151 128:0.64537338 129:0.71349901 130:0.74385419 131:0.77242189 132:0.68818619 133:0.70663232 134:0.58401272 135:0.77546081 136:0.60992915 137:0.59015786 138:0.55530131 139:0.5661647 140:0.71435384 141:0.6466963 142:0.50531874 143:0.64214837 144:0.76696245 145:0.72274423 146:0.72043874 147:0.67855078 148:0.71579181 149:0.73227148 150:0.76904332 151:0.83191191 152:0.67924723 153:0.82907011 154:0.72668549 155:0.69622279 
-0.04211203386518891 1:0.53701896 2:0.40139621 3:0.43316515 4:0.27410885 5:0.4 6:0.21052632 7:0.33333333 8:0.625 9:0.15384615 10:0.25 11:0.33333333 12:0.28571429 13:0.14285714 14:0.076923077 16:0.42857143 17:0.375 19:0.090909091 20:0.25 21:0.2 22:0.25 23:0.5 24:0.3 26:0.2 29:0.4 32:0.25 35:0.33333333 40:0.33333333 45:0.33333333 49:0.33333333 51:0.33333333 52:0.33333333 53:0.16666667 55:0.25 59:0.2 63:0.16666667 65:0.2 68:0.25 71:0.25 72:0.25 74:0.25 75:0.25 76:0.2 77:0.25 78:0.2 79:0.26086957 80:1 83:1 90:1 91:1 95:1 100:1 110:1 111:1 115:0.57322869 116:0.40289965 117:0.6886516 118:0.50613304 119:0.38506133 120:0.31280635 121:0.43147219 122:0.3904853 123:0.38747014 124:0.5068515 125:0.30913837 126:0.27244217 127:0.43478713 128:0.28011851 129:0.52357958 130:0.226097 131:0.33942944 132:0.33843356 133:0.40049489 134:0.31261228 135:0.25520242 136:0.39645329 137:0.83221508 138:0.60676228 139:0.49551666 140:0.43518313 141:0.57262045 142:0.46933383 143:0.60479657 144:0.600006 145:0.40962034 146:0.26425948 147:0.58725887 148:0.35425932 149:0.66898122 150:0.38072151 151:0.45644057 152:0.45345827 153:0.48408334 154:0.2716431 155:0.41570623 
-0.05034141429637484 1:0.61358266 2:0.60785803 3:0.77885235 4:0.61958858 5:0.2 6:0.47368421 7:0.5 8:0.375 9:0.076923077 10:0.25 11:0.16666667 13:0.14285714 14:0.30769231 15:0.33333333 16:0.28571429 17:0.125 19:0.36363636 20:0.5 22:0.5 23:0.16666667 26:0.2 29:0.2 31:0.25 34:0.2 39:0.2 43:0.25 44:0.33333333 45:0.16666667 47:0.16666667 48:0.33333333 50:0.16666667 51:0.33333333 54:0.25 61:0.25 62:0.4 63:0.5 68:0.25 69:0.33333333 70:0.16666667 72:0.25 79:0.60869565 80:1 83:1 84:1 88:1 89:1 90:1 92:1 96:1 97:1 100:1 101:1 109:1 115:0.66437148 116:0.89970857 117:0.71366897 118:0.81962453 119:0.73820031 120:0.79901123 121:0.89848839 122:0.74041514 123:0.46482503 124:0.77243016 125:0.77679748 126:0.68189553 127:0.69292822 128:0.66068581 129:0.69302211 130:0.50120258 131:0.61034138 132:0.54273686 133:0.6675612 134:0.59149312 135:0.46219635 136:0.99781899 137:0.84176721 138:0.8793595 139:0.83377482 140:0.8984384 141:0.87773968 142:0.85363475 143:0.61217222 144:0.66793324 145:0.82686366 146:0.79227905 147:0.7317504 148:0.80905619 149:0.70524764 150:0.59939434 151:0.67735261 152:0.65262604 153:0.87431535 154:0.65599265 155:0.5444469 
-0.125 1:0.56980027 2:0.53148588 3:0.66315036 4:0.52199206 5:0.35 6:0.42105263 7:0.44444444 8:0.3125 9:0.23076923 10:0.25 11:0.33333333 14:0.23076923 15:0.33333333 16:0.28571429 17:0.25 18:0.22222222 19:0.090909091 20:0.375 21:0.2 22:0.25 23:0.33333333 25:0.11111111 26:0.4 30:0.2 31:0.25 33:0.66666667 43:0.25 44:0.16666667 45:0.16666667 46:0.33333333 47:0.16666667 50:0.16666667 51:0.33333333 54:0.25 57:0.14285714 62:0.2 63:0.16666667 64:0.2 67:0.33333333 69:0.16666667 75:0.5 79:0.52173913 80:1 83:1 84:1 87:1 89:1 93:1 96:1 97:1 101:1 102:1 103:1 115:0.97865098 116:0.48255894 117:0.6069651 118:0.49852053 119:0.50688047 120:0.44873535 121:0.45865668 122:0.52931237 123:0.27135268 124:0.57924827 125:0.72403419 126:0.57593665 127:0.56925614 128:0.48908833 129:0.67957301 130:0.71610246 131:0.43710364 132:0.54889188 133:0.53870914 134:0.61028862 135:0.33295623 136:0.53799705 137:0.67991212 138:0.51841323 139:0.5298345 140:0.55092078 141:0.43569553 142:0.37951762 143:0.3744312 144:0.58421316 145:0.6465053 146:0.60568861 147:0.45580436 148:0.52283082 149:0.58381998 150:0.63897516 151:0.51787598 152:0.48332661 153:0.53645232 154:0.6128576 155:0.34483542 
0.125 1:0.69503483 2:0.75721248 3:0.66315036 4:0.52060968 5:0.3 6:0.57894737 7:0.27777778 8:0.375 9:0.15384615 10:0.375 14:0.46153846 15:0.33333333 16:0.42857143 17:0.125 18:0.11111111 20:0.375 21:0.4 22:0.25 23:0.33333333 26:0.2 29:0.4 31:0.25 43:0.375 44:0.5 45:0.16666667 46:0.16666667 48:0.16666667 49:0.66666667 51:0.33333333 53:0.16666667 58:0.33333333 63:0.33333333 64:0.2 66:0.33333333 69:0.33333333 75:0.5 79:0.52173913 80:1 83:1 84:1 90:1 91:1 94:1 96:1 98:1 100:1 115:0.8684205 116:0.71747448 117:0.70514554 118:0.60018502 119:0.77798501 120:0.63178092 121:0.779375 122:0.59432668 123:0.59999055 124:0.72447027 125:0.91185258 126:0.70400709 127:0.82585665 128:0.69071018 129:0.63378428 130:0.49504977 131:0.6161577 132:0.45453472 133:0.41532949 134:0.42532288 135:0.42849964 136:0.74312321 137:0.72138553 138:0.69700826 139:0.74448355 140:0.74084443 141:0.77760149 142:0.51543473 143:0.54200086 144:0.56103986 145:0.83782258 146:0.76390757 147:0.75094355 148:0.70684739 149:0.54059993 150:0.53478611 151:0.60893856 152:0.41422494 153:0.42778643 154:0.56036079 155:0.42351989 
0.125 1:0.46632369 2:0.482383 3:0.50282817 4:0.44283404 5:0.45 6:0.57894737 7:0.22222222 8:0.25 9:0.076923077 10:0.75 11:0.33333333 13:0.42857143 14:0.23076923 15:0.11111111 16:0.57142857 17:0.375 18:0.11111111 21:0.2 22:0.25 23:0.16666667 26:0.2 29:0.6 31:0.75 32:0.25 33:0.33333333 39:0.4 40:0.33333333 42:0.4 45:0.16666667 46:0.16666667 49:0.33333333 50:0.33333333 51:0.33333333 53:0.5 57:0.14285714 67:0.33333333 68:0.25 70:0.16666667 72:0.25 79:0.47826087 80:1 83:1 85:1 86:1 89:1 91:1 93:1 96:1 100:1 103:1 115:0.010290393 116:0.65036908 117:0.452794 118:0.57967871 119:0.73581691 120:0.72172501 121:0.76940802 122:0.64772061 123:0.5962171 124:0.83851689 125:0.78084833 126:0.54599849 127:0.64674654 128:0.46634347 129:0.4931145 130:0.63532122 131:0.42848994 132:0.60740586 133:0.63293953 134:0.33538295 135:0.53566087 136:0.482358 137:0.43843444 138:0.43603565 139:0.72291409 140:0.59142516 141:0.69495556 142:0.65179364 143:0.55326611 144:0.68396489 145:0.6172325 146:0.47680104 147:0.53884199 148:0.54778913 149:0.45764431 150:0.66069907 151:0.53789639 152:0.53955179 153:0.62844081 154:0.49056734 155:0.63176154 
-0.125 1:0.69503483 2:0.38594396 3:0.6443844 4:0.55346321 5:0.4 6:0.47368421 7:0.44444444 8:0.1875 9:0.076923077 10:0.625 11:0.16666667 12:0.14285714 13:0.42857143 14:0.15384615 15:0.33333333 16:0.28571429 17:0.375 18:0.11111111 19:0.27272727 22:0.25 23:0.16666667 26:0.2 28:0.4 29:0.2 31:0.5 32:0.25 39:0.4 41:0.25 42:0.2 43:0.125 44:0.16666667 47:0.33333333 50:0.33333333 53:0.33333333 54:0.25 59:0.2 61:0.125 69:0.16666667 70:0.16666667 72:0.25 79:0.56521739 80:1 83:1 85:1 89:1 90:1 98:1 99:1 115:0.75663014 116:0.50886156 117:0.47022303 118:0.37957767 119:0.36355146 120:0.5857121 121:0.50863122 122:0.45279633 123:0.41432296 124:0.47894643 125:0.63891226 126:0.34297454 127:0.5318513 128:0.51392303 129:0.51442635 130:0.58254899 131:0.56989035 132:0.51218514 133:0.52599739 134:0.58132442 135:0.6452001 136:0.51794689 137:0.59910886 138:0.47410395 139:0.54861828 140:0.7087407 141:0.63003465 142:0.61709021 143:0.41259279 144:0.51806658 145:0.75355421 146:0.31469119 147:0.59229262 148:0.6034162 149:0.59562431 150:0.48060727 151:0.67637484 152:0.54912372 153:0.64839774 154:0.52616161 155:0.66584076 
0.125 1:0.5038825 2:0.36757183 3:0.44527437 4:0.41238733 5:0.4 6:0.31578947 7:0.38888889 8:0.4375 9:0.23076923 10:0.375 12:0.14285714 14:0.15384615 15:0.11111111 16:0.57142857 17:0.5 19:0.18181818 20:0.125 22:0.25 23:0.66666667 24:0.1 26:0.4 27:0.25 29:0.2 31:0.5 43:0.125 44:0.16666667 45:0.16666667 48:0.16666667 50:0.33333333 51:0.66666667 53:0.16666667 59:0.4 64:0.2 69:0.16666667 71:0.25 72:0.5 74:0.5 77:0.25 79:0.39130435 80:1 83:1 90:1 96:1 114:1 115:0.59663581 116:0.4732273 117:0.62686884 118:0.62819685 119:0.54339436 120:0.44056098 121:0.45930651 122:0.57024392 123:0.46847728 124:0.57152756 125:0.66120723 126:0.39166286 127:0.53632843 128:0.44050037 129:0.55214569 130:0.65227641 131:0.41326184 132:0.2218174 133:0.43127312 134:0.40276159 135:0.42121367 136:0.46283683 137:0.6787347 138:0.73871633 139:0.61882739 140:0.54628913 141:0.7466529 142:0.71700174 143:0.64153833 144:0.77209708 145:0.68474063 146:0.53540068 147:0.67929265 148:0.63743604 149:0.61793063 150:0.78293071 151:0.5022904 152:0.43995366 153:0.49997492 154:0.66814991 155:0.51394069 
0.125 1:0.11236237 2:0.50158197 3:0.44527437 4:0.17253837 5:0.45 6:0.21052632 7:0.22222222 8:0.6875 9:0.15384615 10:0.125 11:0.16666667 12:0.71428571 13:0.14285714 15:0.11111111 16:0.28571429 17:0.25 19:0.090909091 20:0.125 21:0.6 22:0.5 23:0.16666667 24:0.3 27:0.5 32:0.25 36:0.33333333 37:0.5 41:0.25 45:0.16666667 46:0.16666667 49:0.33333333 50:0.16666667 55:0.5 62:0.2 65:0.2 66:0.33333333 67:0.33333333 68:0.25 69:0.16666667 70:0.16666667 71:0.25 74:0.25 76:0.2 78:0.2 79:0.17391304 80:1 84:1 87:1 92:1 96:1 98:1 103:1 115:0.92341019 116:0.37638623 117:0.32476817 118:0.33379894 119:0.33652014 120:0.5484752 121:0.16796871 122:0.36047411 123:0.26596002 124:0.42746496 125:0.56383729 126:0.37230445 127:0.55537256 128:0.326774 129:0.32992899 130:0.38494969 131:0.40678295 132:0.26357896 133:0.30992344 134:0.33078809 135:0.31766991 136:0.37524858 137:0.34165298 138:0.40924227 139:0.42445365 140:0.55708645 141:0.36398065 142:0.50987181 143:0.36894949 144:0.5143269 145:0.54571688 146:0.47761379 147:0.5718004 148:0.52374367 149:0.50019962 150:0.43540456 151:0.60751152 152:0.446764 153:0.34899783 154:0.63246644 155:0.39606135 
0.05338054872983183 1:0.61358266 2:0.57100117 3:0.56389849 4:0.46697158 5:0.35 6:0.26315789 7:0.55555556 8:0.375 9:0.23076923 10:0.125 11:0.33333333 12:0.14285714 13:0.14285714 14:0.15384615 15:0.22222222 16:0.14285714 17:0.25 19:0.27272727 20:0.5 22:0.375 23:0.5 27:0.25 30:0.2 35:0.33333333 37:0.25 38:0.16666667 42:0.2 44:0.16666667 45:0.16666667 47:0.16666667 48:0.16666667 51:0.33333333 53:0.16666667 59:0.2 62:0.4 63:0.33333333 64:0.4 69:0.5 72:0.25 74:0.5 79:0.47826087 80:1 89:1 95:1 100:1 106:1 108:1 115:0.59947993 116:0.58042531 117:0.58269918 118:0.55179182 119:0.53701714 120:0.45674334 121:0.56100174 122:0.55888869 123:0.30809413 124:0.54505226 125:0.57604662 126:0.70335572 127:0.58764998 128:0.28248114 129:0.51040058 130:0.49612575 131:0.55249821 132:0.63300787 133:0.47843701 134:0.61964297 135:0.46548598 136:0.61849404 137:0.70924991 138:0.68448557 139:0.58639383 140:0.58506973 141:0.70513682 142:0.60602311 143:0.53155727 144:0.62950684 145:0.68085125 146:0.79840192 147:0.62040436 148:0.63270676 149:0.67754111 150:0.64754214 151:0.75307026 152:0.72409944 153:0.69049006 154:0.78605083 155:0.46104985 
-0.125 1:0.37999556 2:0.46717077 3:0.3431175 4:0.28294328 5:0.55 6:0.15789474 7:0.38888889 8:0.4375 9:0.30769231 10:0.25 11:0.33333333 12:0.42857143 15:0.11111111 16:0.28571429 17:0.625 19:0.18181818 21:0.2 22:0.25 23:0.33333333 24:0.2 25:0.11111111 27:0.5 31:0.25 32:0.5 37:0.5 44:0.16666667 46:0.16666667 49:0.33333333 52:0.33333333 53:0.33333333 54:0.25 55:0.25 59:0.2 61:0.125 69:0.16666667 71:0.25 72:0.25 74:0.25 77:0.5 79:0.26086957 80:1 84:1 88:1 90:1 93:1 94:1 103:1 108:1 115:0.55074812 116:0.49236879 117:0.54196085 118:0.48555754 119:0.28106408 120:0.32231995 121:0.52908892 122:0.42111754 123:0.34325932 124:0.49983412 125:0.50166331 126:0.53426233 127:0.6435402 128:0.23024762 129:0.36139965 130:0.37962122 131:0.38423941 132:0.38276718 133:0.35621275 134:0.51165312 135:0.33935774 136:0.44494077 137:0.56493396 138:0.60200475 139:0.38174291 140:0.49598371 141:0.74406268 142:0.51888614 143:0.44413934 144:0.51494084 145:0.5910385 146:0.57271304 147:0.61551735 148:0.41095153 149:0.51012533 150:0.45457457 151:0.56327228 152:0.49045653 153:0.51543324 154:0.60528188 155:0.37565891 
0.125 1:0.69503483 2:0.62410494 3:0.53570905 4:0.47934207 5:0.35 6:0.31578947 7:0.5 8:0.375 9:0.076923077 10:0.25 11:0.33333333 12:0.28571429 13:0.14285714 14:0.23076923 15:0.22222222 16:0.14285714 17:0.5 19:0.27272727 20:0.125 22:0.25 23:0.33333333 24:0.2 27:0.25 28:0.2 30:0.2 34:0.4 37:0.25 40:0.33333333 43:0.25 44:0.16666667 45:0.16666667 47:0.16666667 48:0.16666667 52:0.33333333 53:0.33333333 54:0.25 55:0.25 59:0.6 63:0.16666667 69:0.33333333 72:0.25 77:0.5 79:0.47826087 80:1 84:1 87:1 95:1 99:1 102:1 112:1 115:0.84555417 116:0.57906524 117:0.6269861 118:0.57958919 119:0.61863133 120:0.45853526 121:0.53803719 122:0.44313469 123:0.34084221 124:0.4994785 125:0.58883896 126:0.55600464 127:0.54786356 128:0.7259161 129:0.48552731 130:0.45475052 131:0.6605532 132:0.50851559 133:0.5176201 134:0.46846639 135:0.53524926 136:0.65574619 137:0.75441015 138:0.73669949 139:0.70612922 140:0.67254284 141:0.67389114 142:0.61300963 143:0.57860526 144:0.6568551 145:0.69301132 146:0.70611399 147:0.76876442 148:0.79227891 149:0.58222246 150:0.62977165 151:0.76954144 152:0.66123698 153:0.6725928 154:0.67915976 155:0.59961248 
-0.125 1:0.78507348 2:0.51454911 3:0.78816598 4:0.60199419 5:0.4 6:0.21052632 7:0.72222222 8:0.1875 9:0.23076923 10:0.25 11:0.5 13:0.14285714 15:0.33333333 16:0.14285714 17:0.375 18:0.22222222 19:0.54545455 20:0.25 22:0.125 23:0.16666667 26:0.2 28:0.2 30:0.2 32:0.5 33:0.33333333 38:0.16666667 44:0.16666667 47:0.33333333 48:0.16666667 50:0.16666667 53:0.16666667 58:0.33333333 59:0.2 60:0.16666667 61:0.375 62:0.2 64:0.2 69:0.16666667 74:0.25 79:0.56521739 80:1 82:1 90:1 92:1 93:1 95:1 97:1 99:1 106:1 115:0.28043921 116:0.39436705 117:0.27640073 118:0.26010192 119:0.29626509 120:0.24685653 121:0.47112135 122:0.44715512 123:0.4321019 124:0.52919081 125:0.74855173 126:0.67831357 127:0.62541895 128:0.68039281 129:0.81285055 130:0.75976524 131:0.62489086 132:0.86355978 133:0.65774598 134:0.91574606 135:0.83359043 136:0.51286925 137:0.38167732 138:0.45005377 139:0.50542315 140:0.16962338 141:0.48953177 142:0.48046203 143:0.43310802 144:0.51796309 145:0.73597811 146:0.68796831 147:0.63204736 148:0.66309822 149:0.7047474 150:0.60322053 151:0.5552562 152:0.79269553 153:0.66144151 154:0.77809632 155:0.66104409 
-0.125 1:0.49110261 2:0.71088387 3:0.58121897 4:0.53049008 5:0.45 6:0.42105263 7:0.44444444 8:0.1875 9:0.076923077 10:0.5 11:0.33333333 12:0.28571429 13:0.42857143 14:0.076923077 15:0.44444444 17:0.5 18:0.11111111 19:0.18181818 20:0.125 22:0.375 26:0.2 28:0.4 29:0.2 32:0.5 37:0.5 38:0.16666667 41:0.5 42:0.2 44:0.16666667 46:0.33333333 47:0.16666667 48:0.16666667 53:0.5 54:0.25 57:0.14285714 60:0.16666667 61:0.125 63:0.16666667 70:0.5 79:0.52173913 80:1 82:1 94:1 100:1 103:1 115:0.31464576 116:0.61261276 117:0.45291513 118:0.45364392 119:0.44185111 120:0.55131442 121:0.61968496 122:0.37060982 123:0.54973304 124:0.5558049 125:0.52761937 126:0.58617021 127:0.54785089 128:0.50319195 129:0.50305521 130:0.55588537 131:0.46349444 132:0.41428866 133:0.51770433 134:0.54325627 135:0.33548166 136:0.68066297 137:0.60691803 138:0.6689853 139:0.58989022 140:0.74700217 141:0.69261353 142:0.50176408 143:0.75353745 144:0.65275653 145:0.67571382 146:0.66963152 147:0.64757769 148:0.74017071 149:0.58409845 150:0.75862675 151:0.73301187 152:0.46743449 153:0.75260388 154:0.63951827 155:0.51515915 
-0.07615326480483105 1:0.40604948 2:0.6950012 3:0.4359805 4:0.46774983 5:0.35 6:0.42105263 7:0.33333333 8:0.4375 9:0.15384615 10:0.125 11:0.33333333 12:0.28571429 13:0.28571429 14:0.30769231 15:0.33333333 17:0.25 20:0.5 22:0.5 23:0.16666667 24:0.1 25:0.11111111 28:0.2 32:0.25 35:0.33333333 37:0.25 38:0.16666667 41:0.25 43:0.25 44:0.5 46:0.16666667 48:0.33333333 53:0.16666667 55:0.25 63:0.5 68:0.25 69:0.5 75:0.25 77:0.25 79:0.43478261 80:1 82:1 91:1 95:1 100:1 101:1 111:1 115:0.1496925 116:0.73323457 117:0.54453081 118:0.62135873 119:0.580639 120:0.50962708 121:0.52486011 122:0.33275808 123:0.37614548 124:0.4635523 125:0.26546193 126:0.597921 127:0.40034838 128:0.66176534 129:0.40208018 130:0.31402925 131:0.38352747 132:0.31814371 133:0.39127902 134:0.29615445 135:0.39434729 136:0.7240044 137:0.67141704 138:0.73098725 139:0.73489752 140:0.63064501 141:0.61771565 142:0.53345337 143:0.50438228 144:0.54438437 145:0.46576469 146:0.70167591 147:0.51706842 148:0.60386532 149:0.43772428 150:0.37180529 151:0.47303551 152:0.3651954 153:0.53344335 154:0.33891365 155:0.51341974 
0.125 1:0.52319537 2:0.62951077 3:0.4246293 4:0.44704122 5:0.35 6:0.52631579 7:0.22222222 8:0.4375 9:0.076923077 10:0.5 11:0.33333333 13:0.28571429 14:0.23076923 15:0.22222222 16:0.57142857 17:0.25 20:0.25 21:0.2 22:0.5 24:0.1 28:0.2 29:0.2 30:0.2 31:0.25 32:0.25 35:0.33333333 38:0.16666667 39:0.2 42:0.2 43:0.125 45:0.33333333 46:0.16666667 48:0.16666667 49:0.33333333 50:0.16666667 52:0.33333333 53:0.33333333 63:0.33333333 66:0.33333333 69:0.33333333 70:0.16666667 71:0.25 76:0.2 79:0.43478261 80:1 82:1 115:0.26736296 116:0.5667661 117:0.42839826 118:0.4438596 119:0.48088233 120:0.38497075 121:0.39276843 122:0.23455447 123:0.20790963 124:0.37163782 125:0.34393998 126:0.39579366 127:0.28650868 128:0.49649998 129:0.49024052 130:0.38076718 131:0.40839178 132:0.15977665 133:0.38665076 134:0.36583775 135:0.4149199 136:0.60281932 137:0.69794523 138:0.58721337 139:0.54045792 140:0.52565188 141:0.5401468 142:0.33771643 143:0.47936676 144:0.46481609 145:0.50009859 146:0.50427583 147:0.40437205 148:0.64169029 149:0.5896993 150:0.32458012 151:0.59001701 152:0.33312569 153:0.61804059 154:0.49006249 155:0.52393614 
0.0009466437437446309 1:0.50033308 2:0.62572014 3:0.61358266 4:0.60646268 5:0.3 6:0.42105263 7:0.55555556 8:0.25 10:0.5 11:0.16666667 12:0.14285714 13:0.28571429 14:0.30769231 15:0.22222222 16:0.14285714 17:0.375 19:0.54545455 20:0.125 22:0.125 23:0.16666667 24:0.1 28:0.2 29:0.6 32:0.25 37:0.25 39:0.2 41:0.25 43:0.25 44:0.33333333 45:0.16666667 47:0.33333333 52:0.33333333 53:0.5 59:0.4 61:0.375 62:0.2 68:0.25 74:0.25 77:0.25 79:0.60869565 80:1 82:1 95:1 97:1 99:1 107:1 112:1 115:0.66089385 116:0.46198982 117:0.30952849 118:0.49032035 119:0.35899741 120:0.44748081 121:0.41171838 122:0.38572302 123:0.29894582 124:0.32866866 125:0.40767151 126:0.48605958 127:0.56139295 128:0.3732586 129:0.54134699 130:0.48065725 131:0.65523044 132:0.36035132 133:0.66497802 134:0.52425019 135:0.68542924 136:0.44593243 137:0.59089279 138:0.59829484 139:0.53961142 140:0.57768385 141:0.61647214 142:0.54195903 143:0.48966909 144:0.49066853 145:0.58484417 146:0.6112037 147:0.59162321 148:0.48064306 149:0.67869269 150:0.43327308 151:0.75692423 152:0.43567295 153:0.84484462 154:0.6764936 155:0.7545972 
0.125 1:0.40604948 2:0.6950012 3:0.61370245 4:0.63845004 5:0.4 6:0.26315789 7:0.72222222 8:0.125 10:0.375 11:0.66666667 14:0.15384615 15:0.44444444 17:0.875 19:0.36363636 20:0.25 22:0.125 23:0.16666667 29:0.2 30:0.4 32:0.5 34:0.2 35:0.33333333 43:0.25 44:0.16666667 46:0.33333333 47:0.33333333 53:0.5 54:0.75 59:0.4 61:0.125 62:0.2 63:0.16666667 64:0.2 70:0.16666667 72:0.25 79:0.60869565 80:1 82:1 84:1 85:1 91:1 95:1 101:1 108:1 114:1 115:0.0018764687 116:0.50013626 117:0.53167859 118:0.50485155 119:0.25282313 120:0.2054731 121:0.28022879 122:0.37731901 123:0.44019537 124:0.56984503 125:0.44364129 126:0.55997232 127:0.68226693 128:0.67881277 129:0.62276502 130:0.62710511 131:0.53701254 132:0.78015602 133:0.54496621 134:0.76139002 135:0.47579205 136:0.57954826 137:0.6573748 138:0.67987508 139:0.5298457 140:0.48551749 141:0.47927879 142:0.44834668 143:0.66503819 144:0.73896275 145:0.63055061 146:0.64056227 147:0.72983515 148:0.90653252 149:0.68344988 150:0.77131792 151:0.77240551 152:0.86700146 153:0.83228202 154:0.78755675 155:0.5317866 
0.125 1:0.61321882 2:0.55899895 3:0.5038825 4:0.48928595 5:0.4 6:0.52631579 7:0.27777778 8:0.3125 10:0.5 11:0.33333333 12:0.14285714 13:0.42857143 14:0.30769231 15:0.22222222 16:0.28571429 17:0.5 20:0.125 22:0.375 23:0.16666667 24:0.1 29:0.6 31:0.25 32:0.5 39:0.2 40:0.33333333 41:0.25 42:0.4 43:0.125 44:0.16666667 45:0.16666667 46:0.16666667 48:0.16666667 50:0.16666667 51:0.33333333 53:0.5 63:0.16666667 68:0.25 69:0.16666667 70:0.16666667 72:0.25 76:0.2 79:0.47826087 80:1 82:1 95:1 98:1 106:1 114:1 115:0.20889316 116:0.43719407 117:0.2183165 118:0.29007187 119:0.47842966 120:0.26711351 121:0.29874648 122:0.30636089 123:0.33836404 124:0.41357768 125:0.42278041 126:0.55449356 127:0.38539347 128:0.64404729 129:0.59702328 130:0.60120422 131:0.60187612 132:0.45247591 133:0.45370425 134:0.58669386 135:0.74067832 136:0.48394452 137:0.41072337 138:0.50526179 139:0.65600323 140:0.41867935 141:0.41593938 142:0.42026109 143:0.57688102 144:0.59579089 145:0.5816696 146:0.71295591 147:0.56403546 148:0.82169917 149:0.66117274 150:0.79413825 151:0.79609536 152:0.55391039 153:0.63219491 154:0.76855913 155:0.75496356 
-0.125 1:0.71411512 2:0.51684731 3:0.77120049 4:0.53673953 5:0.4 6:0.47368421 7:0.44444444 8:0.1875 10:0.5 11:0.5 12:0.14285714 13:0.42857143 14:0.30769231 15:0.22222222 16:0.14285714 17:0.5 18:0.11111111 19:0.090909091 20:0.125 22:0.125 23:0.33333333 28:0.2 29:0.4 30:0.2 32:0.5 39:0.2 40:0.66666667 42:0.4 43:0.25 44:0.16666667 46:0.33333333 51:0.33333333 53:0.5 55:0.25 57:0.14285714 60:0.16666667 63:0.16666667 71:0.25 74:0.25 75:0.25 79:0.56521739 80:1 82:1 84:1 89:1 98:1 100:1 101:1 115:0.66431645 116:0.62009508 117:0.60697784 118:0.60973097 119:0.64194367 120:0.65768585 121:0.68652906 122:0.61917665 123:0.63804244 124:0.61287546 125:0.65558975 126:0.67138177 127:0.73991393 128:0.54670815 129:0.72940744 130:0.65061611 131:0.67642749 132:0.50892987 133:0.73048805 134:0.41866688 135:0.6029364 136:0.54127775 137:0.54439006 138:0.56439539 139:0.65386491 140:0.66716743 141:0.67754187 142:0.64982473 143:0.61928692 144:0.61831827 145:0.65444247 146:0.79612986 147:0.76730961 148:0.65545306 149:0.74371451 150:0.6467038 151:0.75984895 152:0.6015484 153:0.73706916 154:0.56075812 155:0.61573685 
-0.125 1:0.19591328 2:0.385641 3:0.76730194 4:0.3230477 5:0.3 6:0.31578947 7:0.33333333 8:0.625 10:0.125 11:0.33333333 12:0.42857143 13:0.14285714 14:0.15384615 15:0.11111111 16:0.28571429 17:0.125 18:0.22222222 19:0.090909091 20:0.25 21:0.6 22:0.25 23:0.33333333 24:0.3 32:0.25 35:0.33333333 36:0.33333333 39:0.2 42:0.2 43:0.125 44:0.16666667 47:0.16666667 51:0.66666667 55:0.25 57:0.28571429 60:0.16666667 63:0.16666667 67:0.33333333 71:0.5 73:0.33333333 75:0.25 76:0.2 78:0.2 79:0.34782609 80:1 82:1 87:1 90:1 91:1 92:1 98:1 100:1 101:1 103:1 109:1 115:0.67747962 116:0.5096644 117:0.44622386 118:0.37791477 119:0.28090135 120:0.22982547 121:0.36328705 122:0.38926042 123:0.36403312 124:0.40164256 125:0.41065312 126:0.43045027 127:0.50889546 128:0.47760925 129:0.53410612 130:0.33273776 131:0.24469357 132:0.30824866 133:0.26896119 134:0.27093148 135:0.42183977 136:0.45446877 137:0.28456066 138:0.33288067 139:0.23613411 140:0.15593052 141:0.23347698 142:0.2625773 143:0.32645007 144:0.42823441 145:0.3755036 146:0.37826065 147:0.44103848 148:0.45209015 149:0.37969739 150:0.35113795 151:0.34011561 152:0.31086008 153:0.27184144 154:0.43855524 155:0.34732528 
0.04278990093596249 1:0.59203639 2:0.42401538 3:0.71411512 4:0.48583388 5:0.45 6:0.31578947 7:0.5 8:0.25 9:0.15384615 10:0.125 11:0.83333333 12:0.14285714 13:0.42857143 15:0.11111111 16:0.28571429 17:0.375 18:0.22222222 19:0.27272727 20:0.125 22:0.5 30:0.2 32:0.25 33:0.33333333 34:0.4 35:0.33333333 37:0.25 39:0.2 40:0.66666667 42:0.2 47:0.16666667 50:0.33333333 55:0.25 58:0.33333333 59:0.4 60:0.16666667 63:0.16666667 68:0.5 69:0.16666667 71:0.25 79:0.47826087 80:1 85:1 86:1 87:1 97:1 99:1 103:1 105:1 115:0.23681392 116:0.41000949 117:0.43776367 118:0.26682119 119:0.36960653 120:0.46128644 121:0.40906279 122:0.36672233 123:0.39985115 124:0.52918935 125:0.59813158 126:0.53992014 127:0.55283199 128:0.75812289 129:0.58140146 130:0.87109355 131:0.57922861 132:0.79586654 133:0.66904411 134:0.82180035 135:0.70852589 136:0.45553846 137:0.62313445 138:0.52056376 139:0.61552752 140:0.42494252 141:0.5344764 142:0.25954905 143:0.4715709 144:0.57111063 145:0.66831536 146:0.6557678 147:0.6275334 148:0.76839098 149:0.49032942 150:0.89458491 151:0.67457271 152:0.7582975 153:0.66219153 154:0.79500651 155:0.72551414 
-0.125 1:0.30530944 2:0.60560633 3:0.24243179 4:0.34453347 5:0.35 6:0.15789474 7:0.44444444 8:0.625 9:0.076923077 10:0.125 11:0.5 12:0.28571429 13:0.14285714 15:0.22222222 16:0.14285714 17:0.375 19:0.18181818 20:0.375 21:0.2 22:0.375 23:0.16666667 24:0.4 31:0.25 32:0.25 34:0.2 35:0.33333333 37:0.25 41:0.25 44:0.16666667 47:0.16666667 48:0.16666667 49:0.33333333 53:0.16666667 54:0.25 55:0.25 59:0.4 65:0.6 68:0.25 69:0.16666667 70:0.16666667 75:0.25 76:0.4 77:0.25 79:0.30434783 80:1 92:1 94:1 102:1 106:1 109:1 110:1 113:1 115:0.29659786 116:0.56442293 117:0.40198768 118:0.47794542 119:0.35650645 120:0.5063388 121:0.42621685 122:0.45104918 123:0.16112152 124:0.072909669 125:0.36474223 126:0.55194756 127:0.31118487 128:0.092650944 129:0.34108109 130:0.41445041 131:0.23309892 132:0.24499409 133:0.30474397 134:0.34616034 135:0.4222086 136:0.56074148 137:0.47248774 138:0.63857204 139:0.44682288 140:0.59650374 141:0.38878618 142:0.47192615 143:0.37308392 144:0.33723208 145:0.48823477 146:0.62521651 147:0.36767993 148:0.24228943 149:0.42792615 150:0.35731401 151:0.38718479 152:0.30803637 153:0.40962382 154:0.50153025 155:0.39907398 
0.125 1:0.5438914 2:0.46575702 3:0.52319537 4:0.41045332 5:0.35 6:0.47368421 7:0.27777778 8:0.4375 9:0.076923077 10:0.25 11:0.33333333 12:0.28571429 13:0.42857143 14:0.15384615 15:0.11111111 16:0.42857143 17:0.125 19:0.18181818 20:0.25 21:0.2 22:0.75 27:0.25 28:0.2 31:0.25 34:0.4 36:0.33333333 37:0.25 38:0.16666667 39:0.2 40:0.33333333 42:0.2 44:0.16666667 45:0.16666667 48:0.16666667 50:0.5 55:0.25 59:0.2 62:0.2 63:0.33333333 66:0.33333333 68:0.25 69:0.5 71:0.25 79:0.43478261 80:1 88:1 89:1 91:1 92:1 94:1 97:1 99:1 102:1 103:1 109:1 115:0.36376115 116:0.45929032 117:0.25123242 118:0.40155785 119:0.3775928 120:0.46824916 121:0.55670921 122:0.36861731 123:0.39712605 124:0.41541881 125:0.45371884 126:0.45279237 127:0.5617985 128:0.4321337 129:0.51119813 130:0.40137602 131:0.43247238 132:0.31176338 133:0.58821426 134:0.62129151 135:0.73328594 136:0.43175536 137:0.27447721 138:0.5157155 139:0.52930454 140:0.56274232 141:0.65608184 142:0.39613857 143:0.66174498 144:0.49105218 145:0.54912276 146:0.65215292 147:0.65654227 148:0.47382572 149:0.59384146 150:0.49104512 151:0.47739081 152:0.46513994 153:0.65868279 154:0.62651647 155:0.77149381 
-0.125 1:0.32158135 2:0.6153897 3:0.50033308 4:0.4926051 5:0.45 6:0.21052632 7:0.66666667 8:0.1875 9:0.15384615 10:0.375 11:0.5 12:0.14285714 13:0.14285714 14:0.15384615 15:0.22222222 17:0.5 19:0.45454545 20:0.25 21:0.2 23:0.33333333 26:0.4 29:0.6 32:0.5 34:0.2 40:0.33333333 42:0.2 44:0.33333333 47:0.33333333 53:0.16666667 55:0.25 59:0.4 61:0.125 62:0.2 64:0.2 67:0.33333333 74:0.25 75:0.25 79:0.52173913 80:1 85:1 88:1 91:1 94:1 96:1 100:1 108:1 115:0.66031538 116:0.47783802 117:0.50951952 118:0.31206423 119:0.46991034 120:0.29052698 121:0.47270492 122:0.41911146 123:0.39655848 124:0.70282455 125:0.67578389 126:0.46663978 127:0.57552863 128:0.51391879 129:0.44049383 130:0.58262008 131:0.42086166 132:0.49853301 133:0.44712705 134:0.38973672 135:0.44980981 136:0.50089414 137:0.43327302 138:0.43242697 139:0.53850964 140:0.49525925 141:0.57745082 142:0.49014985 143:0.51800594 144:0.76982161 145:0.71606666 146:0.51320882 147:0.63011805 148:0.78413282 149:0.49116346 150:0.61170489 151:0.60703793 152:0.56152091 153:0.5853821 154:0.49740885 155:0.51157206 
0.103962711941572 1:0.78011255 2:0.87810873 3:0.69503483 4:0.8257567 5:0.1 6:0.63157895 7:0.61111111 8:0.1875 10:0.125 11:0.16666667 14:0.53846154 15:0.55555556 17:0.125 18:0.22222222 19:0.45454545 20:0.375 22:0.375 30:0.2 34:0.2 43:0.625 44:0.5 47:0.33333333 48:0.33333333 53:0.16666667 57:0.14285714 59:0.2 60:0.16666667 61:0.25 62:0.2 63:0.5 69:0.33333333 79:0.82608696 80:1 86:1 88:1 89:1 97:1 99:1 102:1 103:1 107:1 112:1 115:0.18924654 116:0.71155364 117:0.64909526 118:0.70014596 119:0.77260815 120:0.82008321 121:0.81675746 122:0.77713893 123:0.52552289 124:0.79359458 125:0.60657692 126:0.82435425 127:0.78472837 128:0.70970515 129:0.72556602 130:0.72184083 131:0.71048907 132:0.56228826 133:0.76471263 134:0.65418947 135:0.68510618 136:0.79265203 137:0.65207258 138:0.79025333 139:0.79724455 140:0.75958378 141:0.75658681 142:0.8761209 143:0.60995853 144:0.719756 145:0.60849533 146:0.76437369 147:0.7934931 148:0.66926789 149:0.68516633 150:0.72344098 151:0.65934065 152:0.56479289 153:0.78863559 154:0.65842262 155:0.59605098 
-0.125 1:0.51111903 2:0.44253828 3:0.56389849 4:0.43700663 5:0.5 6:0.10526316 7:0.66666667 8:0.25 9:0.23076923 10:0.25 11:0.66666667 12:0.14285714 13:0.42857143 17:0.375 19:0.63636364 20:0.25 22:0.125 23:0.16666667 24:0.1 26:0.2 27:0.25 28:0.4 34:0.4 35:0.66666667 38:0.33333333 40:0.33333333 42:0.2 53:0.16666667 54:0.25 59:0.6 61:0.5 63:0.16666667 65:0.2 69:0.16666667 74:0.25 77:0.25 79:0.43478261 80:1 84:1 90:1 93:1 95:1 100:1 115:0.32271998 116:0.42546213 117:0.54007315 118:0.38881178 119:0.41646594 120:0.13080741 121:0.39492683 122:0.37570418 123:0.25024554 124:0.40319029 125:0.61406096 126:0.28873719 127:0.42059931 128:0.43783095 129:0.55809982 130:0.44884441 131:0.40866014 132:0.50256199 133:0.35602702 134:0.29347357 135:0.34096593 136:0.41476568 137:0.69047381 138:0.47993352 139:0.5398767 140:0.37016672 141:0.51453217 142:0.47948576 143:0.36950616 144:0.5326536 145:0.6551884 146:0.29800639 147:0.52125374 148:0.62597801 149:0.60644833 150:0.54875653 151:0.50761129 152:0.59092106 153:0.58098218 154:0.42845478 155:0.43105418 
-0.03231244536911272 1:0.54258312 2:0.44253828 3:0.61115751 4:0.45035069 5:0.4 6:0.21052632 7:0.61111111 8:0.3125 9:0.15384615 10:0.375 11:0.33333333 12:0.14285714 13:0.28571429 14:0.076923077 15:0.11111111 16:0.14285714 17:0.375 19:0.45454545 20:0.25 22:0.125 23:0.5 24:0.1 26:0.2 28:0.2 29:0.4 34:0.4 38:0.16666667 41:0.25 42:0.2 45:0.16666667 47:0.16666667 51:0.33333333 53:0.33333333 59:0.6 61:0.25 63:0.16666667 65:0.2 70:0.16666667 75:0.5 77:0.25 79:0.47826087 80:1 84:1 87:1 90:1 92:1 93:1 96:1 97:1 102:1 115:0.60574666 116:0.54279698 117:0.49293137 118:0.59454039 119:0.35861059 120:0.37523194 121:0.4092071 122:0.45909524 123:0.31589711 124:0.46299065 125:0.63048029 126:0.50885638 127:0.45216891 128:0.49217098 129:0.4850619 130:0.4230209 131:0.27226652 132:0.33416534 133:0.31468631 134:0.41845537 135:0.46870752 136:0.58697647 137:0.57438686 138:0.7626399 139:0.53199267 140:0.51644928 141:0.54111643 142:0.59676297 143:0.51034138 144:0.56815441 145:0.77776977 146:0.60493903 147:0.62941774 148:0.73073934 149:0.51569799 150:0.61084989 151:0.46070925 152:0.50470799 153:0.53401344 154:0.66430416 155:0.51823469 
0.0902545520964004 1:0.69503483 2:0.81676467 3:0.61358266 4:0.72779909 5:0.1 6:0.42105263 7:0.72222222 8:0.3125 10:0.125 11:0.16666667 14:0.23076923 15:0.44444444 16:0.28571429 17:0.125 18:0.33333333 19:0.45454545 20:0.375 22:0.25 23:0.5 31:0.25 34:0.2 43:0.125 44:0.5 47:0.16666667 48:0.33333333 50:0.16666667 51:0.33333333 53:0.16666667 57:0.14285714 58:0.33333333 59:0.2 60:0.16666667 61:0.25 62:0.2 63:0.16666667 64:0.4 69:0.33333333 73:0.33333333 74:0.25 79:0.73913043 80:1 88:1 89:1 95:1 97:1 99:1 102:1 115:0.2280297 116:0.6315662 117:0.51545392 118:0.59269847 119:0.5918311 120:0.55407012 121:0.65441072 122:0.68047366 123:0.53892795 124:0.74360136 125:0.52551723 126:0.75534893 127:0.75256202 128:0.5172567 129:0.67759595 130:0.65253843 131:0.87012324 132:0.67921669 133:0.57787038 134:0.87364901 135:0.86744478 136:0.60716712 137:0.59276998 138:0.65100458 139:0.62268944 140:0.49107022 141:0.67926785 142:0.71689602 143:0.60336949 144:0.62026578 145:0.50810886 146:0.77259324 147:0.68871881 148:0.51211163 149:0.63884766 150:0.54287017 151:0.76298024 152:0.65376818 153:0.61080946 154:0.78515274 155:0.79023797 
0.125 1:0.043865236 2:0.74653743 3:0.45756604 4:0.4176089 5:0.35 6:0.26315789 7:0.5 8:0.4375 9:0.076923077 10:0.25 11:0.33333333 12:0.28571429 13:0.14285714 14:0.076923077 15:0.11111111 16:0.42857143 17:0.25 18:0.22222222 19:0.36363636 21:0.4 22:0.125 23:0.33333333 24:0.2 27:0.25 29:0.2 30:0.2 32:0.25 34:0.2 36:0.33333333 39:0.2 45:0.33333333 47:0.16666667 49:0.33333333 51:0.33333333 52:0.33333333 54:0.25 55:0.25 57:0.14285714 58:0.33333333 60:0.33333333 61:0.25 66:0.33333333 68:0.25 72:0.25 76:0.2 77:0.25 79:0.43478261 80:1 87:1 88:1 95:1 99:1 102:1 107:1 111:1 115:0.513151 116:0.43950612 117:0.46265505 118:0.42624229 119:0.45480043 120:0.3762413 121:0.21525765 122:0.37824733 123:0.27019006 124:0.56960243 125:0.20835666 126:0.6731524 127:0.37605098 128:0.32779616 129:0.53916393 130:0.52632509 131:0.53931878 132:0.45943853 133:0.42105636 134:0.50330602 135:0.52286606 136:0.32578632 137:0.42546141 138:0.5254449 139:0.52510606 140:0.32460313 141:0.1992686 142:0.36228665 143:0.23455238 144:0.46653587 145:0.38458648 146:0.50168464 147:0.33947555 148:0.45947812 149:0.42501349 150:0.51601437 151:0.51522073 152:0.39853833 153:0.42797485 154:0.4309226 155:0.41164525 
-0.125 1:0.55943067 2:0.66591848 3:0.59184905 4:0.59099076 5:0.3 6:0.26315789 7:0.72222222 8:0.25 10:0.25 11:0.5 13:0.14285714 14:0.15384615 15:0.11111111 16:0.28571429 17:0.375 18:0.11111111 19:0.63636364 20:0.25 21:0.2 22:0.125 23:0.33333333 29:0.2 30:0.2 32:0.25 34:0.4 43:0.125 45:0.33333333 47:0.16666667 50:0.16666667 51:0.33333333 53:0.33333333 54:0.25 57:0.14285714 59:0.2 60:0.16666667 61:0.375 62:0.4 64:0.2 67:0.33333333 68:0.25 72:0.25 74:0.25 79:0.60869565 80:1 87:1 93:1 95:1 97:1 100:1 115:0.71032893 116:0.75616736 117:0.72574931 118:0.71510568 119:0.52595544 120:0.44734292 121:0.58775084 122:0.4647658 123:0.39034894 124:0.48445715 125:0.61742379 126:0.56178359 127:0.66653473 128:0.60378686 129:0.537299 130:0.45708449 131:0.49523908 132:0.54474281 133:0.51966226 134:0.41742977 135:0.2690161 136:0.70828396 137:0.78950439 138:0.84227992 139:0.73823552 140:0.60021866 141:0.65221553 142:0.61052839 143:0.57203161 144:0.65738787 145:0.73992732 146:0.53336419 147:0.80620935 148:0.77400185 149:0.58888123 150:0.51615854 151:0.6439706 152:0.55793269 153:0.61500977 154:0.66119084 155:0.33132184 
-0.125 1:0.57432306 2:0.91788044 3:0.67433756 4:0.80666524 5:0.1 6:0.52631579 7:0.72222222 8:0.1875 10:0.125 11:0.16666667 13:0.14285714 14:0.30769231 15:0.33333333 16:0.28571429 18:0.55555556 19:0.63636364 20:0.125 22:0.125 23:0.33333333 34:0.2 39:0.2 42:0.2 43:0.25 44:0.33333333 47:0.5 50:0.16666667 51:0.33333333 57:0.42857143 58:0.33333333 60:0.66666667 61:0.25 62:0.2 64:0.2 71:0.25 73:0.33333333 74:0.25 79:0.82608696 80:1 84:1 85:1 88:1 91:1 97:1 100:1 101:1 103:1 105:1 108:1 115:0.086846 116:0.87161589 117:0.82383543 118:0.86258082 119:0.89349909 120:0.56526169 121:0.67445935 122:0.71134253 123:0.62634721 124:0.84208615 125:0.71276185 126:0.59148078 127:0.80315458 128:0.52497986 129:0.64292536 130:0.42593198 131:0.56512839 132:0.52033639 133:0.54677368 134:0.43509608 135:0.32546673 136:0.67021563 137:0.6224649 138:0.68515349 139:0.82750827 140:0.49811762 141:0.60974799 142:0.61093028 143:0.60101988 144:0.63645006 145:0.58929455 146:0.49492591 147:0.6909759 148:0.42283777 149:0.48031886 150:0.3281981 151:0.32171981 152:0.37349411 153:0.46719217 154:0.32179883 155:0.33198526 
0.125 1:0.71411512 2:0.4789617 3:0.67433756 4:0.67364895 5:0.25 6:0.47368421 7:0.61111111 8:0.1875 10:0.375 11:0.33333333 13:0.28571429 14:0.15384615 15:0.44444444 16:0.14285714 17:0.125 18:0.55555556 19:0.27272727 20:0.25 21:0.2 23:0.33333333 28:0.2 29:0.4 33:0.33333333 34:0.2 39:0.4 42:0.2 44:0.33333333 47:0.16666667 48:0.16666667 51:0.33333333 53:0.16666667 57:0.14285714 58:0.33333333 60:0.33333333 62:0.2 64:0.2 67:0.33333333 72:0.25 74:0.25 79:0.69565217 80:1 84:1 86:1 91:1 96:1 97:1 100:1 103:1 115:0.16223092 116:0.70684079 117:0.73590427 118:0.7525642 119:0.84792105 120:0.61808669 121:0.70148137 122:0.72652176 123:0.58724782 124:0.81603926 125:0.82774306 126:0.62346385 127:0.61466494 128:0.76074508 129:0.66514819 130:0.68014603 131:0.52289112 132:0.6630547 133:0.60063266 134:0.43996114 135:0.3667576 136:0.53552055 137:0.53512801 138:0.64750938 139:0.72814723 140:0.44955305 141:0.41694852 142:0.69516374 143:0.36710054 144:0.63668383 145:0.72364923 146:0.46098116 147:0.59782294 148:0.52054586 149:0.52489946 150:0.5733304 151:0.2746904 152:0.54957506 153:0.33777164 154:0.30068537 155:0.44929478 
0.125 1:0.42509053 2:0.61356641 3:0.64440919 4:0.60898303 5:0.25 6:0.47368421 7:0.44444444 8:0.375 10:0.125 11:0.33333333 12:0.28571429 13:0.28571429 14:0.15384615 15:0.44444444 16:0.28571429 17:0.25 18:0.22222222 19:0.18181818 20:0.25 22:0.625 31:0.25 34:0.2 35:0.33333333 37:0.5 41:0.5 42:0.2 44:0.33333333 46:0.33333333 47:0.16666667 50:0.33333333 53:0.16666667 54:0.25 58:0.33333333 60:0.16666667 62:0.2 63:0.16666667 68:0.25 69:0.5 70:0.16666667 79:0.56521739 80:1 84:1 86:1 87:1 88:1 89:1 91:1 96:1 97:1 100:1 115:0.37119882 116:0.71027943 117:0.48316279 118:0.62248336 119:0.71779781 120:0.66964439 121:0.57228533 122:0.70660692 123:0.54017822 124:0.78932294 125:0.68079504 126:0.74681533 127:0.6873024 128:0.58062104 129:0.64812538 130:0.54940568 131:0.59504573 132:0.66170133 133:0.50078317 134:0.42034479 135:0.58604841 136:0.56211578 137:0.49746152 138:0.53966319 139:0.81499812 140:0.55564286 141:0.62097964 142:0.70248627 143:0.59023363 144:0.61093254 145:0.70002898 146:0.77933584 147:0.62416919 148:0.55188067 149:0.69530512 150:0.65578024 151:0.74135534 152:0.66187255 153:0.65504084 154:0.66427559 155:0.70499561 
-0.125 1:0.67433756 2:0.5604352 3:0.36162238 4:0.6082645 5:0.2 6:0.68421053 7:0.33333333 8:0.3125 10:0.25 11:0.33333333 13:0.28571429 14:0.53846154 15:0.11111111 16:0.42857143 18:0.11111111 19:0.27272727 20:0.25 21:0.2 22:0.5 29:0.4 34:0.4 39:0.2 40:0.33333333 42:0.2 43:0.375 44:0.16666667 45:0.33333333 48:0.16666667 49:0.33333333 50:0.33333333 57:0.14285714 60:0.16666667 61:0.125 62:0.2 63:0.33333333 66:0.33333333 68:0.25 69:0.33333333 71:0.25 79:0.65217391 80:1 92:1 96:1 103:1 109:1 115:0.70938658 116:0.62436509 117:0.34107554 118:0.71147457 119:0.60856363 120:0.64834407 121:0.40787554 122:0.35511983 123:0.4454955 124:0.55973231 125:0.55338928 126:0.51957051 127:0.38516193 128:0.48931234 129:0.35481153 130:0.40424565 131:0.47890737 132:0.13987304 133:0.44065014 134:0.42726519 135:0.60402883 136:0.68991738 137:0.51407106 138:0.83151481 139:0.78508221 140:0.652535 141:0.57041328 142:0.44163777 143:0.56918405 144:0.66712679 145:0.69860522 146:0.69180786 147:0.59027097 148:0.61341894 149:0.53023501 150:0.50638092 151:0.58976114 152:0.34790296 153:0.54616136 154:0.54761923 155:0.54129699 
-0.125 1:0.67433756 2:0.77698138 3:0.77885235 4:0.83292221 5:0.2 6:0.57894737 7:0.66666667 8:0.0625 10:0.125 11:0.33333333 13:0.28571429 14:0.53846154 15:0.33333333 17:0.125 18:0.44444444 19:0.54545455 20:0.125 23:0.16666667 29:0.2 32:0.25 34:0.2 39:0.2 40:0.33333333 42:0.2 43:0.5 44:0.5 47:0.33333333 48:0.16666667 56:0.33333333 57:0.42857143 60:0.66666667 61:0.25 64:0.2 74:0.25 79:0.82608696 80:1 93:1 96:1 100:1 105:1 114:1 115:0.085673122 116:0.84453863 117:0.7914065 118:0.82943729 119:0.78851776 120:0.56775163 121:0.68621026 122:0.73181841 123:0.64302019 124:0.81527718 125:0.87118031 126:0.81098523 127:0.59995794 128:0.57791752 129:0.6611708 130:0.69922579 131:0.53252095 132:0.78715018 133:0.51508485 134:0.52381081 135:0.44243617 136:0.71406683 137:0.8458839 138:0.76969413 139:0.82949737 140:0.52693631 141:0.64474475 142:0.64176017 143:0.65338616 144:0.7378204 145:0.62585413 146:0.74005437 147:0.49758602 148:0.54499042 149:0.59111583 150:0.55051979 151:0.59011954 152:0.70030307 153:0.55422705 154:0.49661029 155:0.36814172 
-0.125 1:0.63259524 2:0.71936034 3:0.77885235 4:0.7865604 5:0.1 6:0.68421053 7:0.5 8:0.25 11:0.33333333 13:0.14285714 14:0.46153846 15:0.33333333 16:0.42857143 18:0.66666667 19:0.27272727 22:0.25 23:0.16666667 24:0.1 33:0.33333333 34:0.2 40:0.33333333 42:0.2 43:0.375 44:0.5 47:0.33333333 50:0.33333333 52:0.33333333 57:0.42857143 58:0.66666667 60:0.5 69:0.16666667 71:0.25 73:0.33333333 77:0.25 79:0.7826087 80:1 93:1 96:1 98:1 100:1 103:1 115:0.24012872 116:0.74905611 117:0.65401318 118:0.73147464 119:0.62339824 120:0.61422413 121:0.70784108 122:0.74853768 123:0.62243745 124:0.67576434 125:0.66117561 126:0.65820722 127:0.68612167 128:0.42615802 129:0.37735716 130:0.59230789 131:0.54640761 132:0.45624997 133:0.39300443 134:0.3965147 135:0.4410675 136:0.6015064 137:0.65752273 138:0.69462632 139:0.56090768 140:0.46497956 141:0.50705338 142:0.56332148 143:0.478911 144:0.62129115 145:0.50283292 146:0.6053642 147:0.40060706 148:0.36470224 149:0.31649146 150:0.46458349 151:0.4098954 152:0.38430304 153:0.3793679 154:0.45716825 155:0.3097255 
-0.03053670670962421 1:0.48798757 2:0.3337053 3:0.61552358 4:0.46285556 5:0.35 6:0.26315789 7:0.55555556 8:0.375 9:0.076923077 10:0.25 11:0.5 12:0.14285714 14:0.15384615 15:0.33333333 16:0.14285714 17:0.375 18:0.11111111 19:0.18181818 20:0.375 21:0.4 22:0.125 23:0.33333333 24:0.1 26:0.2 29:0.2 30:0.2 32:0.25 34:0.4 43:0.25 44:0.16666667 46:0.16666667 48:0.16666667 52:0.33333333 53:0.16666667 54:0.25 58:0.33333333 59:0.2 62:0.2 64:0.2 67:0.33333333 70:0.16666667 73:0.33333333 75:0.25 76:0.2 79:0.47826087 80:1 84:1 90:1 95:1 98:1 100:1 101:1 108:1 115:0.61801664 116:0.52565645 117:0.47598694 118:0.40097118 119:0.37153254 120:0.35768615 121:0.39589014 122:0.48216036 123:0.60039118 124:0.6973153 125:0.45684385 126:0.50366644 127:0.5526693 128:0.33650193 129:0.6699371 130:0.54357902 131:0.58343435 132:0.7371616 133:0.40118927 134:0.5816456 135:0.43963167 136:0.34937922 137:0.44874066 138:0.47064395 139:0.41680493 140:0.30526281 141:0.37334977 142:0.31215563 143:0.65866534 144:0.47801943 145:0.51222861 146:0.44625233 147:0.43415789 148:0.37243294 149:0.55352677 150:0.54442186 151:0.6102905 152:0.69826722 153:0.40979345 154:0.61988582 155:0.35214018 
0.125 1:0.51437189 2:0.72041874 3:0.4547451 4:0.54452871 5:0.45 6:0.36842105 7:0.55555556 8:0.125 9:0.15384615 10:0.5 11:0.33333333 12:0.14285714 13:0.42857143 14:0.15384615 15:0.22222222 17:0.375 19:0.54545455 20:0.125 22:0.25 25:0.11111111 26:0.2 28:0.2 29:0.4 30:0.2 34:0.4 37:0.25 39:0.4 40:0.33333333 42:0.4 46:0.16666667 47:0.16666667 53:0.16666667 55:0.25 59:0.4 61:0.375 62:0.2 63:0.16666667 69:0.16666667 70:0.16666667 79:0.56521739 80:1 93:1 95:1 99:1 103:1 108:1 115:0.12411196 116:0.413023 117:0.36138934 118:0.30310758 119:0.15820072 120:0.26950538 121:0.25245504 122:0.25365919 123:0.42486528 124:0.74220237 125:0.43476304 126:0.61632995 127:0.48922426 128:0.48580473 129:0.66789539 130:0.72894459 131:0.56869612 132:0.76482811 133:0.51885096 134:0.7228772 135:0.56863144 136:0.57538142 137:0.57256775 138:0.60921614 139:0.45182724 140:0.54921474 141:0.56175846 142:0.4371906 143:0.53819256 144:0.76859517 145:0.63058608 146:0.7062911 147:0.5402839 148:0.59459837 149:0.68487115 150:0.70206423 151:0.67354671 152:0.63353016 153:0.56853184 154:0.68223695 155:0.54250057 
0.125 1:0.4441937 2:0.58446507 3:0.57906094 4:0.47823054 5:0.45 6:0.42105263 7:0.38888889 8:0.25 10:0.5 11:0.5 12:0.14285714 13:0.57142857 14:0.15384615 15:0.22222222 16:0.14285714 17:0.5 19:0.090909091 20:0.25 22:0.375 23:0.16666667 28:0.6 30:0.2 32:0.5 34:0.2 37:0.25 39:0.6 42:0.2 43:0.25 46:0.16666667 48:0.16666667 51:0.33333333 53:0.16666667 54:0.5 55:0.25 62:0.2 63:0.33333333 69:0.16666667 70:0.16666667 71:0.25 72:0.25 79:0.47826087 80:1 94:1 96:1 97:1 99:1 112:1 115:0.031022304 116:0.38189419 117:0.32845554 118:0.38886863 119:0.48971493 120:0.63670176 121:0.49970156 122:0.3232462 123:0.40187623 124:0.50318806 125:0.50545816 126:0.6279109 127:0.67027515 128:0.3684505 129:0.5806375 130:0.6245983 131:0.61091968 132:0.45579604 133:0.69304391 134:0.5656337 135:0.64093453 136:0.51206827 137:0.41998172 138:0.57110047 139:0.59574379 140:0.78628762 141:0.58678217 142:0.38870073 143:0.51974203 144:0.62067046 145:0.75546877 146:0.84740485 147:0.71011438 148:0.59878466 149:0.67653506 150:0.68013932 151:0.70863927 152:0.60618408 153:0.90367861 154:0.89189096 155:0.64774104 
0.125 2:0.69367197 3:0.5038825 4:0.3896747 5:0.3 6:0.57894737 7:0.16666667 8:0.5 10:0.375 11:0.16666667 12:0.28571429 13:0.42857143 14:0.38461538 15:0.11111111 16:0.28571429 19:0.090909091 20:0.25 21:0.4 22:0.5 24:0.2 28:0.2 29:0.4 34:0.2 36:0.66666667 39:0.4 41:0.25 42:0.2 43:0.25 44:0.16666667 45:0.33333333 48:0.16666667 50:0.16666667 52:0.33333333 62:0.2 63:0.16666667 65:0.2 66:0.33333333 68:0.25 69:0.33333333 76:0.4 79:0.43478261 80:1 87:1 88:1 96:1 99:1 101:1 102:1 103:1 115:0.66290646 116:0.50668252 117:0.46885332 118:0.44677432 119:0.61386113 120:0.31855436 121:0.56266526 122:0.44251896 123:0.50307019 124:0.59839881 125:0.54630332 126:0.60115145 127:0.50324107 128:0.72708795 129:0.25957036 130:0.63473739 131:0.68066369 132:0.29886183 133:0.28155444 134:0.38548179 135:0.63872634 136:0.51581398 137:0.47307557 138:0.59827078 139:0.72027796 140:0.44804186 141:0.61970751 142:0.44992155 143:0.51674653 144:0.64870047 145:0.650134 146:0.52777109 147:0.53556292 148:0.76061186 149:0.32969649 150:0.66872034 151:0.68747835 152:0.39142635 153:0.28149301 154:0.41836391 155:0.47989099 
-0.125 1:0.52319537 2:0.48246345 3:0.71411512 4:0.57940225 5:0.45 6:0.52631579 7:0.38888889 8:0.125 9:0.30769231 10:0.125 11:0.66666667 13:0.57142857 14:0.23076923 15:0.22222222 16:0.14285714 18:0.55555556 19:0.090909091 20:0.125 22:0.25 25:0.22222222 26:0.2 28:0.2 33:1 34:0.2 38:0.33333333 40:0.66666667 42:0.2 44:0.33333333 50:0.16666667 56:0.33333333 57:0.42857143 58:0.33333333 62:0.2 63:0.16666667 68:0.25 69:0.16666667 79:0.56521739 80:1 83:1 88:1 89:1 90:1 92:1 97:1 98:1 99:1 103:1 109:1 115:0.21328233 116:0.46984278 117:0.16727475 118:0.32881145 119:0.296815 120:0.52526118 121:0.52314955 122:0.47954298 123:0.45135151 124:0.46077196 125:0.54259006 126:0.61419985 127:0.62128236 128:0.77519061 129:0.68989122 130:0.75092068 131:0.72168647 132:0.67729313 133:0.69743934 134:0.77310055 135:0.96273744 136:0.49290245 137:0.2862109 138:0.43862765 139:0.31473097 140:0.49684245 141:0.37383107 142:0.5224869 143:0.46674478 144:0.39809543 145:0.5624191 146:0.53175487 147:0.55065396 148:0.60508774 149:0.57253028 150:0.65036764 151:0.57523564 152:0.48684669 153:0.64519969 154:0.43757875 155:0.6837768 
0.125 1:0.49372418 2:0.59172031 3:0.59184905 4:0.56621232 5:0.2 6:0.15789474 7:0.77777778 8:0.4375 9:0.076923077 10:0.125 11:0.33333333 13:0.14285714 15:0.22222222 16:0.14285714 17:0.125 18:0.11111111 19:0.63636364 20:0.625 22:0.25 23:0.5 24:0.1 26:0.2 31:0.25 33:0.33333333 35:0.33333333 40:0.33333333 44:0.16666667 47:0.33333333 50:0.16666667 56:0.33333333 59:0.2 61:0.25 62:0.8 63:0.16666667 64:0.4 65:0.2 69:0.16666667 70:0.16666667 74:0.75 77:0.25 79:0.56521739 80:1 83:1 84:1 90:1 91:1 92:1 93:1 95:1 97:1 100:1 115:0.27907763 116:0.65345543 117:0.59208321 118:0.64278764 119:0.32421855 120:0.37216131 121:0.441546 122:0.49420886 123:0.35838761 124:0.52729879 125:0.60538026 126:0.51923616 127:0.5821553 128:0.58618674 129:0.64097552 130:0.41320176 131:0.45330797 132:0.65860156 133:0.50864277 134:0.52390125 135:0.36597266 136:0.72071754 137:0.66413046 138:0.72547017 139:0.73307572 140:0.47507555 141:0.61379346 142:0.57656882 143:0.44683346 144:0.553823 145:0.68853412 146:0.57800617 147:0.77105647 148:0.80846301 149:0.74828612 150:0.52324207 151:0.55646549 152:0.67621154 153:0.72020289 154:0.62851165 155:0.58096772 
0.125 1:0.59203639 2:0.79490313 3:0.72397299 4:0.76181685 5:0.05 6:0.68421053 7:0.44444444 8:0.375 11:0.16666667 14:0.38461538 15:0.55555556 16:0.42857143 18:0.55555556 19:0.090909091 20:0.25 22:0.5 23:0.16666667 24:0.1 33:0.33333333 43:0.25 44:0.16666667 45:0.33333333 47:0.16666667 48:0.33333333 50:0.33333333 52:0.33333333 57:0.28571429 58:0.33333333 60:0.16666667 63:0.16666667 64:0.2 69:0.33333333 70:0.33333333 73:0.33333333 76:0.2 79:0.73913043 80:1 83:1 86:1 88:1 91:1 93:1 96:1 98:1 100:1 103:1 115:0.26366381 116:0.83186345 117:0.73783375 118:0.72614512 119:0.79303399 120:0.68888132 121:0.67863443 122:0.83335867 123:0.6256424 124:0.78646275 125:0.86022703 126:0.82431018 127:0.82309269 128:0.67357674 129:0.67251032 130:0.57019257 131:0.44092713 132:0.58879829 133:0.6171311 134:0.2726814 135:0.4434445 136:0.7969771 137:0.70769888 138:0.70695564 139:0.72492753 140:0.62899901 141:0.61933223 142:0.82516529 143:0.60453833 144:0.66913833 145:0.69588592 146:0.6761305 147:0.75023439 148:0.66865272 149:0.6068872 150:0.5324816 151:0.54089244 152:0.61187224 153:0.66662201 154:0.29842999 155:0.39164489 
0.125 1:0.53701896 2:0.44545041 3:0.38416511 4:0.50042121 5:0.25 6:0.21052632 7:0.66666667 8:0.4375 11:0.66666667 12:0.14285714 13:0.14285714 14:0.076923077 15:0.11111111 16:0.14285714 17:0.375 18:0.22222222 19:0.27272727 20:0.5 22:0.25 23:0.66666667 24:0.1 32:0.25 33:0.66666667 34:0.2 40:0.33333333 42:0.2 43:0.125 48:0.16666667 51:0.33333333 54:0.5 55:0.25 59:0.2 62:0.4 63:0.33333333 64:0.2 65:0.2 69:0.16666667 71:0.25 72:0.25 74:0.5 75:0.25 77:0.25 79:0.52173913 80:1 83:1 90:1 92:1 93:1 95:1 103:1 106:1 110:1 115:0.29498867 116:0.550682 117:0.56907901 118:0.58500692 119:0.39865142 120:0.3959257 121:0.4773734 122:0.56357586 123:0.19658165 124:0.33391013 125:0.58451215 126:0.46067855 127:0.24939655 128:0.37982947 129:0.32686516 130:0.38375896 131:0.32163283 132:0.52733702 133:0.21714107 134:0.55697013 135:0.43013364 136:0.56066119 137:0.60961866 138:0.73989992 139:0.61130044 140:0.56264525 141:0.70747693 142:0.69878673 143:0.38818871 144:0.45863698 145:0.79304846 146:0.61290332 147:0.49180174 148:0.62313295 149:0.5235495 150:0.43672139 151:0.57492672 152:0.64495637 153:0.41359936 154:0.72807269 155:0.45796794 
-0.125 1:0.23619655 2:0.50886515 3:0.6443844 4:0.49213453 5:0.2 6:0.42105263 7:0.38888889 8:0.5625 9:0.076923077 10:0.125 11:0.33333333 14:0.23076923 15:0.22222222 16:0.42857143 17:0.125 18:0.22222222 19:0.18181818 20:0.25 21:0.2 22:0.375 23:0.16666667 24:0.4 26:0.2 29:0.2 33:0.33333333 35:0.33333333 44:0.16666667 45:0.5 47:0.16666667 48:0.16666667 50:0.33333333 51:0.33333333 59:0.2 60:0.16666667 65:0.4 67:0.33333333 69:0.5 74:0.25 76:0.2 78:0.4 79:0.47826087 80:1 83:1 88:1 96:1 98:1 99:1 103:1 115:0.28234888 116:0.54289715 117:0.35325027 118:0.4369931 119:0.39898011 120:0.5314113 121:0.43270708 122:0.50449076 123:0.51489088 124:0.4929881 125:0.52452831 126:0.60334742 127:0.54466126 128:0.43525114 129:0.35262726 130:0.45049163 131:0.50816569 132:0.40674208 133:0.61767071 134:0.40629182 135:0.54997211 136:0.60892284 137:0.41070261 138:0.60231609 139:0.5638155 140:0.51044877 141:0.5764787 142:0.59544241 143:0.60105822 144:0.5228916 145:0.59975317 146:0.56577803 147:0.66925493 148:0.5930027 149:0.47414582 150:0.40157553 151:0.53781388 152:0.52146285 153:0.66387295 154:0.41233656 155:0.54764692 
0.0871768749498258 1:0.40670149 2:0.482383 3:0.480906 4:0.4148612 5:0.35 6:0.52631579 7:0.22222222 8:0.4375 10:0.625 11:0.16666667 12:0.14285714 13:0.71428571 14:0.15384615 16:0.57142857 17:0.125 18:0.11111111 19:0.090909091 20:0.125 22:0.375 23:0.33333333 24:0.1 28:0.4 29:0.2 31:0.5 33:0.33333333 37:0.25 39:0.8 41:0.25 42:0.4 45:0.16666667 50:0.33333333 51:0.33333333 52:0.33333333 53:0.16666667 57:0.14285714 59:0.2 68:0.25 69:0.16666667 71:0.25 74:0.25 75:0.25 77:0.25 79:0.43478261 80:1 83:1 96:1 98:1 115:0.74770547 116:0.51022623 117:0.51554753 118:0.37088432 119:0.39283734 120:0.53190118 121:0.57712241 122:0.64487969 123:0.56030002 124:0.70004181 125:0.56051935 126:0.77855713 127:0.56998094 128:0.6594143 129:0.58975443 130:0.82461918 131:0.37053411 132:0.46669812 133:0.40545989 134:0.51012763 135:0.57526091 136:0.48766041 137:0.57887059 138:0.57465365 139:0.53642095 140:0.53976343 141:0.67424101 142:0.82886398 143:0.76658559 144:0.80999101 145:0.69283025 146:0.8658488 147:0.69049027 148:0.8087778 149:0.63475835 150:0.90575849 151:0.66414859 152:0.56875049 153:0.64069234 154:0.60030236 155:0.7086061 
-0.125 1:0.069892321 2:0.59916365 3:0.63561719 4:0.57441138 5:0.3 6:0.42105263 7:0.5 8:0.3125 9:0.076923077 11:0.5 12:0.28571429 13:0.42857143 14:0.15384615 15:0.33333333 16:0.14285714 18:0.44444444 19:0.27272727 20:0.125 21:0.2 22:0.375 24:0.1 33:1 37:0.25 38:0.16666667 40:0.33333333 41:0.25 43:0.125 44:0.33333333 47:0.33333333 50:0.16666667 56:0.33333333 57:0.28571429 58:0.33333333 61:0.125 62:0.2 63:0.16666667 68:0.5 70:0.16666667 79:0.56521739 80:1 83:1 84:1 95:1 96:1 98:1 101:1 107:1 115:0.34389388 116:0.39511128 117:0.41444019 118:0.43482518 119:0.58739566 120:0.47918615 121:0.56587854 122:0.62445022 123:0.48949683 124:0.51504305 125:0.48730938 126:0.63986482 127:0.66168413 128:0.49806708 129:0.52635724 130:0.63563789 131:0.6850488 132:0.552157 133:0.49904187 134:0.51162345 135:0.61217781 136:0.33764309 137:0.36324555 138:0.29288787 139:0.62722661 140:0.2997275 141:0.49232385 142:0.49281756 143:0.36045231 144:0.36334721 145:0.45726355 146:0.52308088 147:0.58904959 148:0.39688603 149:0.54470839 150:0.53976382 151:0.6142958 152:0.46473865 153:0.39946092 154:0.56779395 155:0.50532549 
0.125 1:0.4441937 2:0.54342857 3:0.56389849 4:0.43042232 5:0.25 6:0.47368421 7:0.27777778 8:0.5625 10:0.25 11:0.33333333 12:0.14285714 14:0.23076923 15:0.11111111 16:0.71428571 17:0.375 18:0.11111111 20:0.125 21:0.2 22:0.5 23:0.33333333 24:0.2 31:0.25 32:0.25 33:0.33333333 37:0.25 44:0.16666667 45:0.5 48:0.16666667 49:0.33333333 50:0.16666667 51:0.33333333 52:0.66666667 53:0.16666667 54:0.25 55:0.25 57:0.14285714 64:0.2 66:0.33333333 69:0.5 71:0.25 72:0.5 76:0.4 79:0.43478261 80:1 83:1 85:1 87:1 88:1 89:1 91:1 98:1 99:1 103:1 110:1 115:0.23399634 116:0.67097315 117:0.49196254 118:0.46123268 119:0.47363805 120:0.42779396 121:0.52610505 122:0.6257983 123:0.46532255 124:0.54749746 125:0.4821732 126:0.52628709 127:0.52186984 128:0.57753765 129:0.43481368 130:0.4773808 131:0.38210439 132:0.65520821 133:0.36070817 134:0.5486608 135:0.53499285 136:0.79804046 137:0.67109926 138:0.53162129 139:0.71506098 140:0.64102419 141:0.62430799 142:0.7945923 143:0.65188344 144:0.72471901 145:0.69652502 146:0.62436283 147:0.61165754 148:0.62504902 149:0.54665644 150:0.48215406 151:0.52581309 152:0.63028285 153:0.58689035 154:0.6057791 155:0.61180853 
-0.125 1:0.53570905 2:0.7469344 3:0.66315036 4:0.78896202 5:0.15 6:0.42105263 7:0.77777778 8:0.1875 10:0.125 11:0.16666667 12:0.14285714 14:0.23076923 15:0.55555556 16:0.14285714 17:0.25 18:0.44444444 19:0.54545455 20:0.125 22:0.125 23:0.33333333 30:0.2 33:0.33333333 37:0.25 44:0.5 45:0.16666667 46:0.16666667 47:0.33333333 51:0.33333333 53:0.16666667 55:0.25 57:0.42857143 59:0.2 60:0.16666667 61:0.375 62:0.2 64:0.2 69:0.16666667 73:0.33333333 74:0.25 79:0.7826087 80:1 83:1 85:1 89:1 93:1 96:1 97:1 108:1 115:0.11963573 116:0.71483645 117:0.77323818 118:0.80051324 119:0.60503574 120:0.54514164 121:0.69127486 122:0.7746414 123:0.46181928 124:0.6028322 125:0.72896218 126:0.65759909 127:0.7398213 128:0.51788687 129:0.46107116 130:0.69085304 131:0.46685047 132:0.56221044 133:0.55523713 134:0.63375959 135:0.39262962 136:0.73829809 137:0.83449629 138:0.78847285 139:0.64653049 140:0.6682288 141:0.74852725 142:0.79279537 143:0.67055466 144:0.68268667 145:0.794375 146:0.6502988 147:0.70814426 148:0.58093771 149:0.60949414 150:0.75049813 151:0.68154771 152:0.53334568 153:0.77793567 154:0.72594492 155:0.46585054 
0.0692593410552531 1:0.36591927 2:0.40507953 3:0.62300177 4:0.49482261 5:0.1 6:0.31578947 7:0.55555556 8:0.625 10:0.125 11:0.16666667 14:0.15384615 15:0.22222222 16:0.28571429 17:0.125 18:0.22222222 19:0.090909091 20:0.75 22:0.25 23:1 24:0.2 29:0.2 33:0.33333333 43:0.125 44:0.16666667 45:0.16666667 48:0.33333333 50:0.16666667 51:0.33333333 53:0.16666667 57:0.14285714 58:0.33333333 62:0.2 63:0.16666667 64:0.6 65:0.4 70:0.16666667 72:0.25 73:0.33333333 74:0.25 75:0.75 77:0.5 79:0.52173913 80:1 83:1 85:1 92:1 93:1 96:1 100:1 102:1 103:1 115:0.64783158 116:0.68749853 117:0.66770539 118:0.60082152 119:0.55128687 120:0.42800764 121:0.45358487 122:0.53497082 123:0.45729932 124:0.76476948 125:0.53911029 126:0.3653516 127:0.55735716 128:0.48364492 129:0.35479073 130:0.56779152 131:0.31427779 132:0.39193243 133:0.33354853 134:0.34005379 135:0.23285632 136:0.5823737 137:0.71065519 138:0.67590688 139:0.61126669 140:0.35970045 141:0.56094582 142:0.67909777 143:0.40475915 144:0.72490303 145:0.57897161 146:0.38970637 147:0.62427332 148:0.49513706 149:0.37112456 150:0.62270465 151:0.37495211 152:0.53335106 153:0.36632472 154:0.45010861 155:0.29882565 
0.05688787903962207 1:0.59184905 2:0.67333056 3:0.64440919 4:0.57779454 5:0.35 6:0.42105263 7:0.55555556 8:0.1875 10:0.375 11:0.66666667 14:0.38461538 15:0.22222222 16:0.14285714 17:0.625 19:0.27272727 20:0.25 21:0.2 22:0.125 23:0.16666667 29:0.4 30:0.2 32:0.5 34:0.2 35:0.33333333 43:0.375 44:0.16666667 45:0.16666667 46:0.16666667 47:0.16666667 50:0.16666667 53:0.5 54:0.5 59:0.2 61:0.125 62:0.2 64:0.2 67:0.33333333 69:0.16666667 72:0.25 79:0.60869565 80:1 84:1 88:1 90:1 103:1 107:1 115:0.28948501 116:0.72655653 117:0.79687206 118:0.7384243 119:0.78584316 120:0.54520334 121:0.90646239 122:0.71610478 123:0.45501901 124:0.49518937 125:0.77561748 126:0.71869927 127:0.69629646 128:0.81720881 129:0.66083832 130:0.6175552 131:0.72709975 132:0.55365824 133:0.63922141 134:0.53625846 135:0.67351979 136:0.70095536 137:0.78525481 138:0.69376967 139:0.77528345 140:0.72625134 141:0.97327826 142:0.93013795 143:0.65824313 144:0.57679489 145:0.838305 146:0.75792034 147:0.84569394 148:1 149:0.75278998 150:0.71299072 151:0.83933652 152:0.69639002 153:0.86475226 154:0.7084832 155:0.6993571 
0.125 1:0.68556354 2:0.63105612 3:0.41846411 4:0.44456067 5:0.4 6:0.31578947 7:0.44444444 8:0.375 9:0.15384615 10:0.125 11:0.5 12:0.14285714 13:0.28571429 14:0.15384615 15:0.22222222 16:0.14285714 17:0.125 18:0.11111111 19:0.27272727 20:0.375 21:0.4 22:0.375 24:0.1 30:0.2 34:0.2 35:0.66666667 37:0.25 38:0.16666667 39:0.2 42:0.4 45:0.16666667 47:0.16666667 49:0.33333333 54:0.25 57:0.14285714 59:0.2 61:0.125 62:0.2 63:0.16666667 65:0.2 69:0.33333333 70:0.16666667 76:0.2 79:0.43478261 80:1 86:1 89:1 92:1 106:1 109:1 113:1 115:0.36610636 116:0.6058973 117:0.55812517 118:0.77990152 119:0.64209938 120:0.73132365 121:0.67270283 122:0.63665536 123:0.37265855 124:0.56501554 125:0.6713235 126:0.66970115 127:0.54203173 128:0.39170574 129:0.57709662 130:0.65408628 131:0.55026443 132:0.49221539 133:0.57099291 134:0.53742141 135:0.54134852 136:0.62935932 137:0.61496443 138:0.79675557 139:0.67435931 140:0.81650295 141:0.74062728 142:0.79943753 143:0.45095995 144:0.67922739 145:0.79564207 146:0.72189954 147:0.67100425 148:0.59872969 149:0.61108941 150:0.70937851 151:0.68651691 152:0.51618337 153:0.648703 154:0.60935943 155:0.56123429 
-0.125 1:0.44123508 2:0.3219285 3:0.46490125 4:0.1658575 5:0.45 6:0.15789474 7:0.27777778 8:0.6875 9:0.15384615 10:0.125 11:0.5 12:0.28571429 13:0.28571429 16:0.28571429 17:0.125 20:0.5 21:0.6 22:0.375 23:0.33333333 24:0.3 31:0.25 35:1 37:0.25 39:0.2 40:0.33333333 45:0.16666667 49:0.33333333 52:0.33333333 63:0.33333333 68:0.5 69:0.16666667 72:0.25 75:0.25 77:0.5 78:0.2 79:0.17391304 80:1 87:1 100:1 110:1 111:1 115:0.67897892 116:0.60570294 117:0.78344227 118:0.64561362 119:0.53986455 120:0.52247935 121:0.63281846 122:0.51876315 123:0.38556317 124:0.34318446 125:0.38583044 126:0.53664607 127:0.40316757 128:0.28609211 129:0.43583827 130:0.32853371 131:0.26820969 132:0.26721419 133:0.32938562 134:0.15993879 135:0.17191933 136:0.63840333 137:0.76056387 138:0.64842305 139:0.48975516 140:0.55876606 141:0.66056714 142:0.49874079 143:0.42117897 144:0.35779616 145:0.52183696 146:0.5630231 147:0.51555189 148:0.44653313 149:0.47663738 150:0.55777955 151:0.38198897 152:0.42695552 153:0.46222787 154:0.30044417 155:0.18635693 
-0.125 1:0.69503483 2:0.38293129 3:0.32709496 4:0.35283483 5:0.25 6:0.36842105 7:0.27777778 8:0.6875 10:0.125 11:0.16666667 12:0.42857143 13:0.28571429 14:0.15384615 15:0.11111111 16:0.42857143 17:0.125 19:0.090909091 20:0.375 21:0.2 22:0.625 23:0.33333333 24:0.2 31:0.25 35:0.33333333 37:0.5 39:0.2 41:0.25 42:0.4 45:0.16666667 48:0.16666667 50:0.16666667 52:0.33333333 55:0.25 62:0.2 63:0.16666667 64:0.2 65:0.2 69:0.5 70:0.16666667 71:0.25 72:0.25 74:0.25 76:0.2 79:0.34782609 80:1 89:1 90:1 91:1 92:1 94:1 97:1 113:1 115:0.64184029 116:0.59210317 117:0.45285773 118:0.4480175 119:0.28297494 120:0.50337323 121:0.62282199 122:0.48967323 123:0.31062917 124:0.31388932 125:0.39509497 126:0.46034338 127:0.34200409 128:0.40435619 129:0.4912796 130:0.31974236 131:0.31698851 132:0.57275928 133:0.45970248 134:0.6438535 135:0.54583718 136:0.57886745 137:0.60112726 138:0.6482132 139:0.49921473 140:0.64484667 141:0.70575137 142:0.61904703 143:0.50800255 144:0.50228737 145:0.606069 146:0.50273379 147:0.52674032 148:0.47990453 149:0.59628722 150:0.4093273 151:0.58966138 152:0.55402224 153:0.5173837 154:0.72161214 155:0.55072995 
-0.125 1:0.46632369 2:0.46219842 3:0.57391642 4:0.57437288 5:0.35 6:0.42105263 7:0.55555556 8:0.1875 9:0.076923077 10:0.375 11:0.33333333 12:0.14285714 13:0.42857143 14:0.30769231 15:0.22222222 17:0.25 18:0.11111111 19:0.36363636 20:0.25 22:0.125 23:0.33333333 26:0.2 28:0.2 29:0.2 30:0.2 34:0.2 35:0.33333333 38:0.16666667 39:0.2 40:0.33333333 42:0.2 43:0.375 44:0.16666667 47:0.16666667 53:0.16666667 55:0.25 56:0.33333333 59:0.2 61:0.25 62:0.2 63:0.16666667 64:0.2 69:0.16666667 72:0.25 73:0.33333333 79:0.60869565 80:1 86:1 89:1 90:1 95:1 97:1 101:1 106:1 115:0.16406632 116:0.48134408 117:0.35540603 118:0.43173028 119:0.51054797 120:0.5624941 121:0.67410617 122:0.59359202 123:0.39147991 124:0.45447275 125:0.51291364 126:0.67916288 127:0.64837357 128:0.3744332 129:0.6843852 130:0.64970047 131:0.57863208 132:0.60384973 133:0.63780493 134:0.79883666 135:0.76044774 136:0.52378241 137:0.54491311 138:0.5950292 139:0.63649703 140:0.6179723 141:0.74938084 142:0.70127181 143:0.59526898 144:0.7212802 145:0.73049127 146:0.779617 147:0.75561777 148:0.57341136 149:0.75515181 150:0.58934265 151:0.70275369 152:0.63387137 153:0.7589597 154:0.77726556 155:0.78716011 
0.125 1:0.41846411 2:0.61920596 3:0.69503483 4:0.56121165 5:0.25 6:0.47368421 7:0.44444444 8:0.375 9:0.076923077 10:0.25 11:0.33333333 13:0.28571429 14:0.23076923 15:0.33333333 16:0.28571429 17:0.125 18:0.22222222 19:0.090909091 20:0.375 22:0.375 23:0.33333333 24:0.1 29:0.2 30:0.2 35:0.66666667 38:0.16666667 39:0.2 42:0.4 44:0.16666667 45:0.16666667 46:0.16666667 50:0.16666667 52:0.33333333 53:0.16666667 57:0.14285714 58:0.33333333 60:0.16666667 63:0.16666667 64:0.4 69:0.33333333 70:0.16666667 74:0.25 75:0.25 76:0.2 79:0.56521739 80:1 87:1 98:1 99:1 115:0.74680089 116:0.6201063 117:0.56661093 118:0.48530928 119:0.42431085 120:0.52903471 121:0.65729849 122:0.60956082 123:0.54452202 124:0.56553954 125:0.56014836 126:0.76605904 127:0.61421448 128:0.40128878 129:0.64086501 130:0.66352025 131:0.53695194 132:0.64575104 133:0.55499869 134:0.39674905 135:0.68137495 136:0.70667467 137:0.59964981 138:0.59136073 139:0.67172537 140:0.61757665 141:0.68505534 142:0.80574134 143:0.6250487 144:0.70182802 145:0.61557134 146:0.78112118 147:0.75209265 148:0.54936606 149:0.46868551 150:0.72425668 151:0.5184736 152:0.61062801 153:0.70529713 154:0.37754373 155:0.59517678 
-0.125 1:0.67228916 2:0.6638732 3:0.86189425 4:0.64501744 5:0.3 6:0.52631579 7:0.5 8:0.1875 9:0.076923077 10:0.25 11:0.33333333 12:0.14285714 13:0.14285714 14:0.38461538 15:0.44444444 17:0.25 18:0.33333333 19:0.18181818 20:0.25 21:0.2 22:0.125 23:0.16666667 29:0.4 33:0.33333333 35:0.33333333 39:0.2 42:0.2 43:0.375 44:0.16666667 46:0.16666667 47:0.16666667 48:0.16666667 53:0.16666667 57:0.14285714 59:0.2 61:0.125 63:0.16666667 70:0.16666667 73:0.33333333 79:0.65217391 80:1 84:1 90:1 91:1 96:1 99:1 103:1 108:1 112:1 115:0.75527714 116:0.60708022 117:0.52582117 118:0.49721035 119:0.55812388 120:0.45995073 121:0.58836783 122:0.60620416 123:0.69077997 124:0.73880815 125:0.8143489 126:0.65113795 127:0.81521107 128:0.69033154 129:0.63396072 130:0.7387194 131:0.70557614 132:0.7634308 133:0.44759419 134:0.75942909 135:0.53695614 136:0.62743114 137:0.47480658 138:0.52604535 139:0.63628065 140:0.34334998 141:0.48527861 142:0.50718983 143:0.63772044 144:0.5515299 145:0.63458697 146:0.53064798 147:0.62445314 148:0.4982923 149:0.39866179 150:0.59456438 151:0.56304061 152:0.65371811 153:0.25040347 154:0.44799159 155:0.43290522 
