svm_type c_svc
kernel_type rbf
gamma 0.03125
nr_class 2
total_sv 1575
rho 0.973375
label 1 0
probA -1.98519
probB 0.124365
nr_sv 863 712
SV
2 1:0.57813359 2:0.28431885 3:0.26025669 4:0.36856367 5:0.41176471 6:0.35294118 7:0.35294118 8:0.5 9:0.22222222 11:0.5 12:0.14285714 14:0.27272727 15:0.11111111 16:0.42857143 17:0.14285714 18:0.25 19:0.11111111 20:0.22222222 21:0.57142857 22:0.125 23:0.11111111 24:0.3 28:0.33333333 32:0.25 33:0.25 34:0.25 42:0.2 43:0.5 47:0.25 49:0.25 50:0.25 55:0.5 60:0.5 62:1 68:0.16666667 69:0.25 70:0.33333333 71:0.25 72:0.36842105 74:1 80:1 89:1 96:1 101:1 102:1 108:1 109:1 120:1 165:0.24647773 166:0.011530398 167:0.051401869 
0.03294637398941776 1:0.59488403 2:0.30962343 3:0.45892564 4:0.57658143 5:0.35294118 6:0.52941176 7:0.35294118 8:0.38888889 9:0.11111111 10:0.3 11:0.33333333 13:0.3 14:0.27272727 15:0.33333333 16:0.14285714 17:0.14285714 18:0.375 20:0.22222222 21:0.14285714 22:0.125 23:0.11111111 24:0.3 26:0.16666667 29:0.28571429 33:0.25 35:0.25 38:0.25 39:0.125 40:0.25 42:0.4 43:0.25 44:0.25 45:0.16666667 47:0.25 51:0.25 54:0.25 55:0.5 60:0.5 62:0.33333333 65:0.25 70:0.33333333 72:0.52631579 76:1 82:1 84:1 92:1 95:1 110:1 111:1 117:1 118:1 126:1 128:1 147:1 165:0.25128582 166:0.017819706 167:0.079439252 
1.935393198860613 1:0.24057058 2:0.33128241 3:0.53570905 4:0.41690273 5:0.41176471 6:0.17647059 7:0.52941176 8:0.5 11:0.33333333 12:0.57142857 13:0.1 15:0.22222222 16:0.14285714 17:0.71428571 19:0.22222222 20:0.22222222 21:0.14285714 22:0.5 23:0.33333333 24:0.1 32:0.25 34:0.25 36:0.25 37:0.33333333 40:0.25 42:0.2 46:0.25 47:0.25 48:0.25 52:0.25 53:0.75 56:0.5 59:0.25 63:0.33333333 64:0.25 65:0.25 66:0.25 68:0.16666667 71:0.25 72:0.36842105 76:1 79:1 80:1 82:1 84:1 95:1 97:1 100:1 103:1 106:1 113:1 117:1 119:1 123:1 126:1 127:1 130:1 135:1 148:1 152:1 154:1 160:1 165:0.30037892 166:0.054507338 167:0.24299065 
1.494811986948026 1:0.32709496 2:0.50508207 3:0.42214227 4:0.35894519 5:0.58823529 6:0.17647059 7:0.52941176 8:0.33333333 9:0.33333333 10:0.3 11:0.33333333 12:0.14285714 13:0.3 15:0.11111111 17:0.42857143 19:0.33333333 20:0.33333333 21:0.14285714 22:0.125 23:0.22222222 24:0.2 25:0.2 26:0.16666667 28:0.33333333 29:0.28571429 30:0.2 32:0.25 34:0.25 38:0.25 39:0.125 40:0.25 41:0.2 46:0.25 50:0.25 51:0.25 58:0.6 59:0.25 60:0.5 62:0.33333333 66:0.25 67:0.2 69:0.25 71:0.25 72:0.36842105 75:1 77:1 81:1 84:1 87:1 93:1 96:1 100:1 103:1 108:1 112:1 114:1 119:1 124:1 127:1 165:0.30847675 166:0.064989518 167:0.28971963 
2 1:0.23619655 2:0.54405297 3:0.30343437 4:0.37798506 5:0.47058824 6:0.29411765 7:0.41176471 8:0.44444444 9:0.22222222 10:0.1 11:0.33333333 12:0.42857143 14:0.18181818 15:0.22222222 16:0.14285714 17:0.57142857 18:0.125 19:0.11111111 20:0.11111111 21:0.28571429 22:0.25 23:0.11111111 24:0.3 25:0.2 28:0.33333333 32:0.25 35:0.25 36:0.25 37:0.66666667 42:0.4 44:0.5 50:0.25 51:0.25 52:0.25 53:0.25 55:0.25 56:0.25 60:0.25 62:0.33333333 63:0.33333333 65:0.25 69:0.25 70:0.33333333 71:0.25 72:0.36842105 75:1 80:1 81:1 86:1 87:1 90:1 106:1 109:1 117:1 120:1 122:1 126:1 129:1 143:1 156:1 161:1 165:0.36642685 166:0.072327044 167:0.32242991 
2 1:0.59203639 2:0.49410608 3:0.76730194 4:0.56248006 5:0.23529412 6:0.47058824 7:0.41176471 8:0.5 10:0.1 11:0.16666667 12:0.14285714 13:0.2 14:0.18181818 15:0.33333333 16:0.28571429 17:0.28571429 18:0.125 19:0.11111111 20:0.33333333 22:0.625 23:0.11111111 24:0.3 32:0.25 36:0.25 40:0.25 41:0.4 43:0.25 44:0.25 45:0.16666667 47:0.25 48:0.25 49:0.25 51:0.25 55:0.25 58:0.2 59:0.25 60:0.5 65:0.5 66:0.5 68:0.16666667 70:0.66666667 71:0.25 72:0.52631579 75:1 80:1 81:1 86:1 90:1 92:1 95:1 97:1 100:1 103:1 105:1 110:1 115:1 118:1 123:1 124:1 127:1 142:1 157:1 165:0.55090556 166:0.14465409 167:0.64485981 
0.7970101050420859 1:0.42141644 2:0.65019467 3:0.86128727 4:0.68210595 5:0.29411765 6:0.58823529 7:0.47058824 8:0.27777778 10:0.3 12:0.28571429 13:0.3 14:0.18181818 15:0.55555556 16:0.14285714 17:0.28571429 18:0.125 19:0.33333333 20:0.11111111 22:0.5 24:0.1 30:0.4 36:0.25 37:0.33333333 39:0.25 42:0.4 44:0.5 45:0.16666667 46:0.5 48:0.25 51:0.25 53:0.25 57:0.2 58:0.2 59:0.25 64:0.5 66:0.25 70:0.33333333 72:0.68421053 74:1 77:1 86:1 91:1 96:1 99:1 104:1 108:1 111:1 114:1 115:1 120:1 125:1 127:1 151:1 163:1 165:0.56128091 166:0.15932914 167:0.71028037 
0.9344923791427271 1:0.45557556 2:0.59126001 3:0.86128727 4:0.62366483 5:0.35294118 6:0.41176471 7:0.52941176 8:0.33333333 9:0.33333333 10:0.1 11:0.33333333 13:0.2 14:0.18181818 15:0.44444444 17:0.14285714 18:0.125 19:0.33333333 20:0.44444444 22:0.375 24:0.2 25:0.2 27:0.5 30:0.2 35:0.5 38:0.5 42:0.4 44:0.25 45:0.16666667 46:0.5 51:0.25 57:0.2 58:0.4 59:0.25 60:0.5 64:0.25 65:0.25 66:0.25 70:0.66666667 72:0.57894737 74:1 77:1 82:1 86:1 89:1 91:1 95:1 104:1 110:1 116:1 118:1 122:1 126:1 127:1 155:1 165:0.56153397 166:0.15932914 167:0.71028037 
1.103631970678048 1:0.86189425 2:0.65305077 3:0.42509053 4:0.70278314 5:0.29411765 6:0.52941176 7:0.52941176 8:0.27777778 9:0.11111111 10:0.2 11:0.16666667 12:0.14285714 13:0.1 14:0.36363636 15:0.44444444 16:0.14285714 17:0.42857143 18:0.125 19:0.22222222 20:0.33333333 22:0.375 23:0.11111111 26:0.16666667 30:0.2 31:0.25 35:0.25 36:0.25 39:0.125 42:0.6 44:0.25 45:0.16666667 46:0.25 47:0.25 48:0.25 50:0.25 52:0.25 53:0.25 55:0.25 57:0.2 58:0.2 59:0.25 64:0.25 65:0.25 66:0.25 72:0.68421053 75:1 77:1 83:1 85:1 90:1 92:1 94:1 98:1 100:1 103:1 104:1 108:1 113:1 117:1 119:1 125:1 127:1 152:1 154:1 160:1 165:0.62707579 166:0.22431866 167:1 
2 1:0.52546165 2:0.63499812 3:0.480906 4:0.48356197 5:0.41176471 6:0.17647059 7:0.70588235 8:0.33333333 9:0.22222222 10:0.1 11:0.5 12:0.14285714 13:0.2 15:0.11111111 16:0.14285714 17:0.42857143 18:0.125 19:0.33333333 20:0.44444444 22:0.25 23:0.44444444 27:0.5 30:0.2 34:0.25 35:0.25 38:0.25 41:0.2 44:0.25 50:0.25 51:0.25 52:0.25 56:0.5 59:0.5 64:0.25 66:0.25 67:0.4 68:0.33333333 72:0.52631579 75:1 78:1 83:1 89:1 91:1 98:1 100:1 102:1 104:1 107:1 116:1 120:1 124:1 163:1 165:0.23097547 166:0.031446541 167:0.13824885 
1.085024841446363 1:0.61552358 2:0.28710897 3:0.5128194 4:0.40373405 5:0.47058824 6:0.35294118 7:0.41176471 8:0.38888889 9:0.11111111 10:0.3 11:0.16666667 12:0.28571429 13:0.5 15:0.22222222 17:0.28571429 19:0.11111111 20:0.44444444 22:0.375 23:0.33333333 24:0.1 28:0.33333333 29:0.28571429 30:0.2 35:0.25 38:0.25 39:0.25 40:0.25 42:0.2 46:0.25 47:0.25 51:0.25 56:0.25 59:0.5 60:0.25 64:0.5 66:0.25 68:0.33333333 70:0.33333333 72:0.42105263 74:1 77:1 80:1 82:1 86:1 90:1 94:1 97:1 100:1 105:1 106:1 112:1 114:1 117:1 119:1 126:1 127:1 135:1 137:1 160:1 165:0.76006555 166:0.11844864 167:0.52073733 
2 1:0.59203639 2:0.5085311 3:0.32709496 4:0.50206681 5:0.47058824 6:0.23529412 7:0.64705882 8:0.27777778 9:0.22222222 10:0.2 11:0.16666667 12:0.42857143 13:0.3 15:0.22222222 17:0.42857143 18:0.25 19:0.44444444 20:0.11111111 23:0.44444444 24:0.1 26:0.16666667 28:0.33333333 29:0.14285714 33:0.25 37:0.33333333 38:0.25 42:0.2 44:0.25 46:0.25 50:0.25 51:0.25 52:0.25 54:0.25 55:0.25 56:0.25 57:0.2 58:0.2 67:0.4 71:0.25 72:0.52631579 74:1 77:1 84:1 90:1 92:1 100:1 102:1 104:1 105:1 106:1 109:1 112:1 114:1 116:1 121:1 126:1 127:1 143:1 159:1 165:0.77188879 166:0.12893082 167:0.56682028 
2 1:0.52319537 2:0.63015045 3:0.402202 4:0.47577814 5:0.35294118 6:0.35294118 7:0.47058824 8:0.44444444 9:0.11111111 10:0.3 12:0.14285714 13:0.2 14:0.090909091 15:0.22222222 16:0.28571429 17:0.42857143 19:0.22222222 20:0.33333333 22:0.375 23:0.33333333 24:0.2 26:0.16666667 30:0.4 41:0.2 43:0.25 44:0.5 48:0.25 49:0.25 50:0.25 51:0.5 57:0.2 58:0.2 59:0.25 60:0.25 64:0.25 66:0.25 67:0.2 68:0.16666667 70:0.33333333 71:0.25 72:0.47368421 75:1 78:1 79:1 80:1 83:1 88:1 90:1 92:1 96:1 100:1 104:1 107:1 110:1 116:1 118:1 137:1 145:1 162:1 165:0.18021203 166:0.0041928721 167:0.02247191 
2 1:0.30530944 2:0.39515241 3:0.48614155 4:0.39372945 5:0.52941176 6:0.47058824 7:0.23529412 8:0.38888889 10:0.4 11:0.5 12:0.28571429 13:0.5 15:0.11111111 16:0.28571429 17:0.42857143 18:0.125 22:0.5 24:0.3 29:0.42857143 31:0.25 32:0.75 36:0.5 39:0.25 40:0.25 41:0.2 45:0.16666667 49:0.5 51:0.5 52:0.25 55:0.25 64:0.25 66:0.25 70:0.66666667 72:0.36842105 73:1 85:1 87:1 96:1 105:1 106:1 110:1 112:1 117:1 119:1 124:1 128:1 129:1 153:1 156:1 160:1 165:0.1899357 166:0.019916143 167:0.10674157 
0.3168689549410793 1:0.5438914 2:0.33865604 3:0.4651083 4:0.37656306 5:0.41176471 6:0.29411765 7:0.41176471 8:0.5 9:0.33333333 11:0.33333333 12:0.14285714 13:0.1 14:0.18181818 16:0.42857143 17:0.42857143 20:0.44444444 22:0.5 23:0.44444444 24:0.1 25:0.2 27:0.5 32:0.25 35:0.25 41:0.2 48:0.25 49:0.25 50:0.5 53:0.25 59:0.5 65:0.25 68:0.5 70:0.33333333 72:0.36842105 75:1 77:1 82:1 86:1 88:1 95:1 99:1 108:1 111:1 115:1 121:1 123:1 125:1 158:1 165:0.19382517 166:0.026205451 167:0.14044944 
2 1:0.55606605 2:0.55696842 3:0.5438914 4:0.63826258 5:0.47058824 6:0.52941176 7:0.41176471 8:0.22222222 9:0.11111111 10:0.5 11:0.16666667 13:0.1 14:0.27272727 15:0.44444444 16:0.28571429 17:0.71428571 19:0.11111111 20:0.11111111 22:0.25 23:0.11111111 24:0.1 26:0.16666667 30:0.4 32:0.25 39:0.125 41:0.2 42:0.2 43:0.25 44:0.5 46:0.25 47:0.25 48:0.25 49:0.25 50:0.25 51:0.5 52:0.25 56:0.25 65:0.25 70:0.33333333 72:0.57894737 73:1 79:1 84:1 89:1 92:1 96:1 104:1 107:1 112:1 114:1 120:1 125:1 127:1 146:1 163:1 165:0.20549357 166:0.045073375 167:0.24157303 
1.370468974120412 1:0.53701896 2:0.53598533 3:0.63638963 4:0.57004355 5:0.29411765 6:0.47058824 7:0.47058824 8:0.38888889 10:0.2 11:0.33333333 12:0.14285714 13:0.2 14:0.18181818 15:0.33333333 16:0.28571429 17:0.42857143 18:0.125 19:0.11111111 20:0.22222222 22:0.375 23:0.22222222 24:0.2 30:0.2 31:0.25 32:0.25 35:0.25 37:0.33333333 39:0.125 42:0.2 44:0.25 47:0.25 49:0.25 51:0.25 52:0.5 54:0.25 56:0.25 59:0.5 66:0.5 67:0.2 70:0.33333333 71:0.25 72:0.57894737 74:1 77:1 80:1 81:1 89:1 93:1 95:1 97:1 101:1 106:1 110:1 112:1 116:1 119:1 125:1 134:1 153:1 165:0.45182656 166:0.077568134 167:0.41573034 
0.2042684032049654 1:0.32680274 2:0.44233194 3:0.4525872 4:0.26817783 5:0.58823529 6:0.29411765 7:0.29411765 8:0.44444444 9:0.33333333 10:0.1 11:0.16666667 12:0.71428571 13:0.1 14:0.18181818 15:0.11111111 16:0.28571429 17:0.42857143 19:0.22222222 21:0.42857143 22:0.25 23:0.11111111 24:0.1 25:0.2 26:0.16666667 28:0.33333333 34:0.25 36:0.25 37:0.33333333 40:0.25 43:0.5 44:0.25 50:0.5 53:0.25 56:0.25 57:0.2 63:1 64:0.25 65:0.25 70:0.33333333 72:0.26315789 74:1 80:1 86:1 88:1 91:1 96:1 97:1 104:1 106:1 109:1 111:1 114:1 121:1 123:1 135:1 143:1 151:1 165:0.64413915 166:0.1278826 167:0.68539326 
2 1:0.78507348 2:0.41115224 3:0.36290256 4:0.32521949 5:0.29411765 6:0.35294118 7:0.35294118 8:0.61111111 11:0.33333333 12:0.42857143 13:0.1 14:0.18181818 15:0.11111111 16:0.42857143 18:0.125 19:0.11111111 20:0.44444444 21:0.57142857 22:0.375 23:0.22222222 24:0.1 33:0.25 35:0.25 36:0.25 40:0.25 41:0.2 42:0.2 43:0.25 46:0.25 48:0.25 55:0.25 58:0.2 59:0.25 60:0.25 62:0.33333333 63:1 65:0.5 68:0.33333333 71:0.25 72:0.36842105 74:1 78:1 80:1 82:1 86:1 87:1 90:1 92:1 95:1 98:1 104:1 112:1 113:1 117:1 119:1 123:1 140:1 154:1 160:1 165:0.64975727 166:0.13626834 167:0.73033708 
2 1:0.5438914 2:0.58943634 3:0.43855123 4:0.50281586 5:0.23529412 6:0.29411765 7:0.52941176 8:0.55555556 9:0.22222222 11:0.16666667 12:0.14285714 13:0.2 15:0.33333333 16:0.14285714 18:0.125 19:0.22222222 20:0.66666667 22:0.625 23:0.22222222 24:0.2 25:0.2 27:0.25 34:0.25 36:0.25 38:0.25 42:0.2 45:0.16666667 46:0.25 47:0.25 54:0.25 58:0.4 59:0.75 60:0.5 64:0.25 65:0.25 66:0.5 68:0.33333333 70:0.33333333 71:0.25 72:0.47368421 75:1 78:1 83:1 86:1 94:1 98:1 99:1 103:1 104:1 107:1 109:1 113:1 116:1 120:1 123:1 126:1 127:1 132:1 140:1 144:1 164:1 165:0.8721052 166:0.14465409 167:0.7752809 
2 1:0.26435576 2:0.65305077 3:0.40604948 4:0.45713632 5:0.52941176 6:0.23529412 7:0.58823529 8:0.27777778 9:0.11111111 10:0.2 11:0.66666667 12:0.28571429 13:0.1 14:0.090909091 15:0.22222222 17:0.85714286 19:0.22222222 20:0.22222222 21:0.14285714 22:0.25 23:0.11111111 24:0.1 27:0.25 32:0.5 35:0.5 37:0.33333333 40:0.25 42:0.2 44:0.25 46:0.25 50:0.25 51:0.5 52:0.25 53:0.5 56:0.25 57:0.2 59:0.5 62:0.33333333 64:0.25 65:0.25 69:0.25 72:0.47368421 75:1 77:1 84:1 88:1 98:1 102:1 104:1 108:1 111:1 113:1 116:1 121:1 122:1 126:1 129:1 159:1 165:0.92771807 166:0.14360587 167:0.83030303 
2 1:0.42709758 2:0.17418993 3:0.32709496 4:0.29047671 5:0.70588235 6:0.35294118 7:0.29411765 8:0.27777778 9:0.55555556 10:0.3 11:0.33333333 12:0.28571429 13:0.4 14:0.27272727 17:0.14285714 19:0.22222222 20:0.11111111 21:0.28571429 22:0.125 23:0.11111111 24:0.1 25:0.4 26:0.33333333 27:0.25 29:0.28571429 30:0.2 34:0.25 37:0.33333333 38:0.25 39:0.125 40:0.25 41:0.4 53:0.25 56:0.25 58:0.2 59:0.25 65:0.25 67:0.2 69:0.25 72:0.31578947 76:1 77:1 81:1 85:1 87:1 93:1 99:1 107:1 109:1 112:1 114:1 116:1 121:1 122:1 125:1 144:1 159:1 165:0.92314405 166:0.13836478 167:0.8 
0.4339839382118786 1:0.30530944 2:0.61660229 3:0.38712304 4:0.48341791 5:0.47058824 6:0.29411765 7:0.47058824 8:0.38888889 9:0.11111111 10:0.1 11:0.5 12:0.42857143 13:0.2 15:0.33333333 16:0.14285714 17:0.57142857 18:0.25 20:0.11111111 22:0.375 23:0.22222222 24:0.2 27:0.25 29:0.14285714 32:0.5 36:0.25 37:0.66666667 40:0.25 42:0.2 44:0.25 45:0.16666667 47:0.25 50:0.25 51:0.25 52:0.25 53:0.25 54:0.25 55:0.25 66:0.5 70:0.66666667 72:0.42105263 73:1 78:1 83:1 87:1 91:1 96:1 100:1 103:1 108:1 109:1 111:1 113:1 117:1 119:1 126:1 139:1 154:1 160:1 165:0.81632733 166:0.12054507 167:0.6969697 
2 1:0.34510107 2:0.48197427 3:0.53277974 4:0.45145117 5:0.058823529 6:0.41176471 7:0.35294118 8:0.77777778 10:0.1 13:0.1 14:0.27272727 15:0.11111111 16:0.42857143 19:0.11111111 20:0.55555556 22:0.5 23:0.44444444 24:0.5 30:0.2 39:0.125 42:0.2 43:0.5 47:0.25 48:0.25 49:0.25 58:0.2 59:0.25 60:0.5 64:0.25 65:0.5 67:0.2 68:0.5 70:0.66666667 71:0.5 72:0.42105263 76:1 78:1 83:1 85:1 90:1 93:1 96:1 103:1 117:1 119:1 125:1 127:1 136:1 148:1 156:1 160:1 165:0.56206585 166:0.090146751 167:0.52121212 
0.5110845951280694 1:0.38416511 2:0.45158004 3:0.5038825 4:0.42298152 5:0.35294118 6:0.47058824 7:0.29411765 8:0.5 9:0.11111111 10:0.3 12:0.28571429 13:0.3 14:0.18181818 15:0.22222222 16:0.28571429 17:0.14285714 20:0.33333333 22:0.5 23:0.33333333 24:0.2 28:0.33333333 29:0.14285714 30:0.4 37:0.33333333 38:0.25 39:0.125 41:0.2 43:0.5 44:0.25 48:0.5 51:0.25 59:0.25 60:0.25 64:0.25 65:0.25 66:0.5 68:0.5 70:0.33333333 71:0.25 72:0.42105263 73:1 86:1 88:1 96:1 98:1 102:1 111:1 113:1 115:1 119:1 123:1 165:0.55049628 166:0.07442348 167:0.43030303 
2 1:0.44527437 2:0.49647197 3:0.64478638 4:0.54900723 5:0.47058824 6:0.52941176 7:0.29411765 8:0.33333333 9:0.22222222 10:0.1 11:0.33333333 12:0.28571429 13:0.3 14:0.27272727 15:0.22222222 16:0.28571429 17:0.42857143 18:0.125 19:0.11111111 22:0.625 24:0.1 26:0.16666667 27:0.25 30:0.2 32:0.25 33:0.25 36:0.25 37:0.33333333 40:0.25 42:0.2 43:0.5 44:0.25 46:0.25 48:0.5 50:0.5 53:0.25 55:0.25 56:0.25 64:0.75 65:0.25 66:0.25 70:0.33333333 72:0.47368421 76:1 80:1 81:1 84:1 89:1 93:1 102:1 107:1 110:1 113:1 120:1 122:1 130:1 145:1 152:1 165:0.46574245 166:0.051362683 167:0.2969697 
0.2136685572462863 1:0.5989845 2:0.5536151 3:0.69772966 4:0.66454551 5:0.17647059 6:0.41176471 7:0.64705882 8:0.38888889 9:0.11111111 10:0.1 11:0.16666667 13:0.1 14:0.090909091 15:0.33333333 16:0.42857143 17:0.14285714 18:0.125 19:0.55555556 20:0.33333333 22:0.5 23:0.22222222 24:0.1 26:0.16666667 31:0.25 35:0.25 38:0.25 42:0.2 43:0.25 46:0.75 48:0.5 52:0.25 55:0.25 56:0.25 57:0.4 58:0.2 59:0.5 60:0.25 64:0.25 65:0.25 66:0.5 68:0.16666667 71:0.25 72:0.68421053 74:1 78:1 85:1 90:1 92:1 96:1 100:1 108:1 111:1 114:1 116:1 120:1 123:1 126:1 127:1 137:1 151:1 164:1 165:0.17273637 166:0.027253669 167:0.15757576 
0.5715372995515436 1:0.61115751 2:0.53682686 3:0.50033308 4:0.60842189 5:0.35294118 6:0.35294118 7:0.64705882 8:0.27777778 9:0.11111111 10:0.2 11:0.5 13:0.2 14:0.090909091 15:0.22222222 16:0.28571429 17:0.42857143 18:0.25 19:0.33333333 20:0.22222222 22:0.25 23:0.22222222 24:0.1 26:0.16666667 29:0.14285714 31:0.25 34:0.5 35:0.25 38:0.25 40:0.25 42:0.2 43:0.25 44:0.25 48:0.5 51:0.25 52:0.5 54:0.25 55:0.25 58:0.2 60:0.25 65:0.25 66:0.25 67:0.2 71:0.25 72:0.63157895 75:1 77:1 85:1 89:1 93:1 98:1 108:1 109:1 114:1 117:1 120:1 161:1 165:0.16708611 166:0.019916143 167:0.11515152 
0.6060343026764655 1:0.53570905 2:0.82289536 3:0.60477371 4:0.79261895 5:0.35294118 6:0.52941176 7:0.58823529 8:0.16666667 9:0.11111111 10:0.2 12:0.42857143 13:0.1 14:0.27272727 15:0.66666667 17:0.57142857 18:0.25 19:0.44444444 22:0.25 28:0.33333333 36:0.5 38:0.25 41:0.2 42:0.6 44:0.5 45:0.16666667 46:0.75 51:0.5 53:0.5 55:0.25 56:0.5 57:0.2 65:0.5 72:0.73684211 74:1 79:1 81:1 88:1 92:1 94:1 98:1 100:1 102:1 105:1 108:1 111:1 118:1 123:1 126:1 131:1 165:0.051410468 166:0.0052410901 167:0.023696682 
1.641206546713235 1:0.86189425 2:0.4287384 3:0.76730194 4:0.67524436 5:0.47058824 6:0.41176471 7:0.58823529 8:0.16666667 9:0.22222222 10:0.3 11:0.16666667 12:0.14285714 13:0.2 14:0.090909091 15:0.33333333 16:0.28571429 17:0.28571429 18:0.375 19:0.55555556 21:0.14285714 22:0.125 23:0.11111111 26:0.16666667 27:0.25 29:0.14285714 30:0.2 34:0.25 42:0.2 43:0.25 44:0.25 46:0.5 48:0.25 51:0.5 55:0.25 56:0.25 57:0.2 64:0.25 67:0.2 72:0.63157895 73:1 77:1 79:1 85:1 88:1 90:1 92:1 95:1 98:1 103:1 105:1 106:1 114:1 115:1 120:1 136:1 163:1 165:0.065239233 166:0.034591195 167:0.1563981 
2 1:0.61552358 2:0.70534732 3:0.63259524 4:0.6656565 5:0.058823529 6:0.52941176 7:0.52941176 8:0.5 11:0.16666667 14:0.36363636 15:0.33333333 16:0.28571429 18:0.25 19:0.33333333 20:0.44444444 21:0.14285714 22:0.5 23:0.11111111 24:0.3 33:0.25 42:0.4 43:0.25 46:0.5 47:0.25 48:0.25 55:0.25 58:0.4 59:0.25 60:0.75 62:0.33333333 65:0.75 66:0.25 68:0.16666667 69:0.25 70:0.66666667 72:0.68421053 75:1 80:1 81:1 85:1 88:1 92:1 95:1 98:1 104:1 109:1 117:1 120:1 123:1 129:1 140:1 161:1 164:1 165:0.092896763 166:0.036687631 167:0.16587678 
1.446955717126517 1:0.42214227 2:0.55858693 3:0.55697137 4:0.70007852 5:0.23529412 6:0.64705882 7:0.47058824 8:0.27777778 10:0.4 13:0.2 14:0.36363636 15:0.44444444 16:0.14285714 17:0.28571429 18:0.25 19:0.11111111 20:0.33333333 22:0.25 23:0.22222222 24:0.1 30:0.4 39:0.25 41:0.4 42:0.2 43:0.25 45:0.16666667 46:0.25 47:0.5 48:0.25 51:0.5 55:0.25 58:0.2 59:0.25 60:0.25 65:0.25 71:0.25 72:0.73684211 75:1 79:1 81:1 91:1 94:1 98:1 101:1 105:1 107:1 109:1 111:1 114:1 117:1 120:1 125:1 128:1 129:1 144:1 151:1 161:1 163:1 165:0.11469741 166:0.083857442 167:0.37914692 
2 1:0.6443844 2:0.35359197 3:0.49911361 4:0.69477622 5:0.23529412 6:0.35294118 7:0.64705882 8:0.38888889 9:0.11111111 11:0.16666667 12:0.14285714 13:0.1 14:0.18181818 15:0.33333333 16:0.14285714 17:0.28571429 18:0.25 19:0.55555556 20:0.22222222 22:0.375 23:0.22222222 24:0.2 28:0.33333333 34:0.25 36:0.25 38:0.25 42:0.4 46:0.75 48:0.25 52:0.25 55:0.5 56:0.5 58:0.2 60:0.5 64:0.25 66:0.25 67:0.2 68:0.16666667 70:0.33333333 71:0.25 72:0.63157895 76:1 79:1 81:1 85:1 88:1 90:1 93:1 95:1 100:1 103:1 107:1 109:1 115:1 120:1 126:1 127:1 134:1 144:1 165:0.15130296 166:0.089098532 167:0.4028436 
2 1:0.42214227 2:0.52612391 3:0.62300177 4:0.59572889 5:0.47058824 6:0.41176471 7:0.52941176 8:0.22222222 9:0.22222222 10:0.1 11:0.16666667 12:0.42857143 13:0.3 14:0.18181818 15:0.22222222 16:0.14285714 17:0.42857143 18:0.25 19:0.44444444 22:0.25 23:0.22222222 25:0.2 28:0.33333333 29:0.14285714 32:0.25 36:0.5 38:0.25 42:0.2 43:0.25 46:0.5 51:0.25 52:0.25 54:0.25 55:0.25 56:0.5 65:0.25 66:0.25 67:0.4 72:0.57894737 74:1 77:1 82:1 84:1 88:1 91:1 97:1 102:1 110:1 111:1 116:1 120:1 122:1 126:1 127:1 135:1 147:1 165:0.15471948 166:0.096436059 167:0.43601896 
1.8619518067682 1:0.6443844 2:0.54747531 3:0.71411512 4:0.72086668 5:0.41176471 6:0.35294118 7:0.70588235 8:0.16666667 9:0.11111111 10:0.1 11:0.66666667 13:0.2 14:0.18181818 15:0.22222222 16:0.14285714 17:0.42857143 18:0.25 19:0.55555556 20:0.22222222 22:0.25 23:0.11111111 27:0.25 34:0.75 35:0.25 40:0.5 41:0.2 42:0.2 43:0.25 46:0.25 47:0.25 51:0.25 52:0.25 55:0.5 56:0.5 57:0.2 59:0.5 64:0.25 65:0.25 72:0.68421053 73:1 77:1 79:1 80:1 81:1 85:1 88:1 90:1 93:1 95:1 98:1 102:1 108:1 111:1 120:1 127:1 134:1 165:0.27836491 166:0.15828092 167:0.71563981 
0.765361397441782 1:0.69503483 2:0.40003541 3:0.61552358 4:0.54554094 5:0.35294118 6:0.35294118 7:0.52941176 8:0.38888889 9:0.22222222 10:0.2 11:0.16666667 12:0.14285714 13:0.1 14:0.090909091 15:0.33333333 16:0.14285714 17:0.14285714 18:0.25 19:0.33333333 20:0.33333333 21:0.14285714 22:0.25 23:0.22222222 24:0.2 26:0.33333333 31:0.25 34:0.25 36:0.25 41:0.2 42:0.2 44:0.25 45:0.16666667 47:0.25 50:0.25 55:0.25 58:0.4 59:0.25 60:0.25 62:0.33333333 65:0.25 67:0.4 71:0.25 72:0.52631579 73:1 77:1 80:1 88:1 92:1 95:1 101:1 102:1 108:1 110:1 113:1 119:1 124:1 128:1 129:1 152:1 165:0.62148426 166:0.061844864 167:0.29064039 
2 1:0.86189425 2:0.2883447 3:0.75625742 4:0.77310089 5:0.29411765 6:0.64705882 7:0.52941176 8:0.16666667 9:0.11111111 10:0.2 11:0.16666667 12:0.14285714 13:0.2 14:0.45454545 15:0.44444444 16:0.14285714 17:0.28571429 18:0.375 19:0.22222222 20:0.11111111 22:0.25 23:0.11111111 26:0.16666667 29:0.28571429 33:0.25 36:0.25 38:0.25 42:0.4 43:0.25 45:0.16666667 46:0.25 47:0.25 51:0.25 52:0.25 55:0.5 56:0.25 59:0.25 65:0.25 66:0.25 67:0.2 72:0.78947368 75:1 77:1 79:1 81:1 86:1 88:1 90:1 93:1 95:1 97:1 99:1 107:1 111:1 116:1 121:1 122:1 125:1 134:1 146:1 155:1 159:1 165:0.63288764 166:0.080712788 167:0.37931034 
0.6920823576943822 1:0.93095184 2:0.57916716 3:0.50033308 4:0.74711554 5:0.11764706 6:0.64705882 7:0.47058824 8:0.38888889 10:0.1 11:0.16666667 13:0.1 14:0.45454545 15:0.44444444 16:0.14285714 17:0.14285714 18:0.25 19:0.11111111 20:0.44444444 22:0.5 23:0.22222222 24:0.1 30:0.2 33:0.25 39:0.125 42:0.6 43:0.25 45:0.16666667 46:0.25 47:0.5 49:0.25 52:0.25 54:0.25 58:0.2 59:0.75 65:0.75 68:0.16666667 70:0.33333333 72:0.73684211 76:1 81:1 85:1 90:1 93:1 95:1 102:1 104:1 108:1 110:1 115:1 121:1 123:1 126:1 128:1 129:1 134:1 149:1 158:1 165:0.82336634 166:0.1509434 167:0.70935961 
0.7066524847908271 1:0.38667873 2:0.56348231 3:0.50282817 4:0.53722866 5:0.41176471 6:0.52941176 7:0.41176471 8:0.27777778 9:0.11111111 10:0.4 11:0.33333333 13:0.2 14:0.27272727 15:0.22222222 16:0.28571429 17:0.42857143 18:0.125 19:0.11111111 20:0.22222222 21:0.14285714 22:0.25 23:0.11111111 24:0.1 26:0.16666667 30:0.4 31:0.25 33:0.25 34:0.25 38:0.25 39:0.125 41:0.2 42:0.4 43:0.25 44:0.25 47:0.25 49:0.25 51:0.5 52:0.25 54:0.25 56:0.25 59:0.25 62:0.33333333 65:0.5 70:0.33333333 72:0.57894737 75:1 78:1 79:1 82:1 85:1 87:1 89:1 96:1 100:1 103:1 106:1 110:1 112:1 113:1 116:1 120:1 126:1 129:1 131:1 133:1 163:1 165:0.82632277 166:0.15513627 167:0.72906404 
2 1:0.43316515 2:0.35212137 3:0.5038825 4:0.40082772 5:0.058823529 6:0.17647059 7:0.64705882 8:0.72222222 10:0.1 14:0.18181818 16:0.14285714 17:0.14285714 19:0.33333333 20:0.77777778 22:0.125 23:0.77777778 24:0.5 30:0.2 43:0.25 48:0.25 51:0.25 56:0.25 58:0.4 60:0.75 65:0.25 67:0.6 68:0.66666667 71:0.75 72:0.47368421 75:1 78:1 80:1 82:1 86:1 88:1 95:1 98:1 100:1 103:1 104:1 108:1 112:1 114:1 116:1 118:1 122:1 129:1 140:1 165:0.83139094 166:0.16352201 167:0.76847291 
2 1:0.46632369 2:0.67042541 3:0.42214227 4:0.55809427 5:0.35294118 6:0.52941176 7:0.47058824 8:0.27777778 10:0.4 11:0.33333333 13:0.4 14:0.27272727 16:0.42857143 17:0.28571429 18:0.125 19:0.33333333 20:0.11111111 22:0.25 23:0.22222222 24:0.1 29:0.14285714 30:0.4 31:0.25 34:0.5 39:0.25 40:0.5 41:0.4 43:0.25 48:0.25 51:0.5 56:0.25 60:0.25 64:0.25 65:0.25 67:0.2 68:0.16666667 70:0.33333333 72:0.63157895 75:1 77:1 82:1 87:1 89:1 91:1 94:1 100:1 105:1 107:1 117:1 119:1 124:1 127:1 133:1 156:1 160:1 165:0.8951654 166:0.20649895 167:0.97044335 
2 1:0.36591927 2:0.34392851 3:0.6443844 4:0.62305851 5:0.52941176 6:0.41176471 7:0.58823529 8:0.11111111 9:0.22222222 10:0.3 11:0.33333333 12:0.14285714 13:0.2 14:0.27272727 15:0.22222222 16:0.14285714 17:0.57142857 18:0.125 19:0.55555556 21:0.14285714 23:0.11111111 25:0.2 26:0.16666667 29:0.14285714 30:0.4 32:0.25 34:0.25 39:0.125 40:0.25 41:0.2 42:0.4 43:0.25 46:0.5 50:0.25 52:0.25 53:0.25 55:0.25 56:0.75 57:0.2 61:0.33333333 67:0.2 72:0.63157895 74:1 82:1 84:1 87:1 92:1 100:1 105:1 107:1 113:1 116:1 120:1 126:1 127:1 137:1 146:1 148:1 152:1 165:0.055913458 166:0.012578616 167:0.055813953 
2 1:0.42141644 2:0.64496164 3:0.42214227 4:0.43019985 5:0.17647059 6:0.35294118 7:0.41176471 8:0.66666667 10:0.1 12:0.28571429 13:0.2 14:0.090909091 15:0.22222222 16:0.28571429 17:0.14285714 18:0.125 20:0.44444444 22:0.5 23:0.55555556 24:0.3 30:0.2 36:0.5 39:0.125 43:0.25 45:0.16666667 47:0.25 53:0.25 59:0.5 60:0.5 64:0.5 66:0.25 68:0.5 71:0.5 72:0.42105263 76:1 86:1 91:1 96:1 102:1 108:1 112:1 114:1 117:1 119:1 125:1 128:1 160:1 165:0.3125876 166:0.023060797 167:0.10784314 
1.753983378216392 1:0.38416511 2:0.56333625 3:0.77120049 4:0.61714 5:0.11764706 6:0.47058824 7:0.52941176 8:0.5 10:0.2 13:0.1 14:0.18181818 15:0.44444444 16:0.14285714 17:0.14285714 18:0.25 19:0.11111111 20:0.55555556 22:0.375 23:0.33333333 24:0.3 30:0.2 39:0.125 42:0.2 43:0.25 44:0.25 47:0.75 51:0.25 59:0.75 60:0.5 64:0.25 65:0.25 66:0.25 67:0.2 68:0.33333333 71:0.5 72:0.63157895 75:1 79:1 80:1 83:1 86:1 88:1 93:1 96:1 108:1 110:1 115:1 120:1 123:1 126:1 129:1 132:1 164:1 165:0.31530575 166:0.027253669 167:0.12745098 
1.003365155587613 1:0.64478638 2:0.35722175 3:0.41846411 4:0.53649263 5:0.35294118 6:0.41176471 7:0.47058824 8:0.38888889 9:0.22222222 10:0.2 11:0.33333333 13:0.1 14:0.18181818 15:0.22222222 16:0.42857143 17:0.14285714 18:0.25 19:0.33333333 20:0.22222222 21:0.28571429 22:0.25 24:0.2 26:0.16666667 27:0.25 30:0.2 31:0.25 34:0.25 35:0.25 38:0.25 41:0.2 42:0.2 44:0.25 45:0.16666667 49:0.25 52:0.25 57:0.2 58:0.2 59:0.25 60:0.25 61:0.33333333 65:0.25 66:0.25 69:0.25 70:0.33333333 72:0.52631579 75:1 80:1 84:1 92:1 95:1 97:1 100:1 102:1 107:1 110:1 113:1 116:1 121:1 122:1 126:1 145:1 159:1 165:0.44079382 166:0.078616352 167:0.36764706 
0.1403315883183732 1:0.57906094 2:0.3251148 3:0.42509053 4:0.31534117 5:0.58823529 6:0.23529412 7:0.35294118 8:0.44444444 9:0.22222222 10:0.1 11:0.66666667 12:0.28571429 13:0.2 14:0.090909091 15:0.11111111 16:0.14285714 17:0.42857143 19:0.11111111 20:0.22222222 21:0.28571429 22:0.375 24:0.3 27:0.5 32:0.5 34:0.25 35:0.25 36:0.5 40:0.25 41:0.2 43:0.25 47:0.25 49:0.25 52:0.25 53:0.25 56:0.25 59:0.25 60:0.25 61:0.33333333 64:0.25 65:0.5 69:0.5 72:0.26315789 73:1 77:1 79:1 80:1 83:1 86:1 87:1 89:1 94:1 101:1 104:1 108:1 115:1 118:1 123:1 124:1 127:1 132:1 133:1 157:1 165:0.44894828 166:0.091194969 167:0.42647059 
1.13457447274956 1:0.57813359 2:0.57723111 3:0.61370245 4:0.47551433 5:0.41176471 6:0.35294118 7:0.47058824 8:0.38888889 9:0.22222222 10:0.4 13:0.2 15:0.22222222 16:0.42857143 17:0.28571429 18:0.25 19:0.22222222 20:0.22222222 21:0.14285714 22:0.125 23:0.33333333 24:0.2 26:0.16666667 29:0.14285714 30:0.2 31:0.25 38:0.25 39:0.125 43:0.25 44:0.25 46:0.25 49:0.25 51:0.5 54:0.25 58:0.2 60:0.25 66:0.25 67:0.2 70:0.33333333 71:0.25 72:0.47368421 75:1 78:1 79:1 84:1 90:1 96:1 98:1 103:1 104:1 105:1 111:1 114:1 119:1 136:1 139:1 142:1 151:1 165:0.45891484 166:0.10587002 167:0.49509804 
0.2678431852084424 1:0.5038825 2:0.17503531 3:0.51437189 4:0.34444285 5:0.35294118 6:0.47058824 7:0.23529412 8:0.55555556 9:0.11111111 10:0.2 11:0.16666667 12:0.14285714 13:0.4 14:0.18181818 16:0.42857143 19:0.11111111 20:0.33333333 21:0.14285714 22:0.5 23:0.22222222 24:0.3 28:0.33333333 29:0.14285714 31:0.25 35:0.25 37:0.33333333 38:0.25 39:0.25 43:0.5 48:0.25 49:0.25 58:0.2 59:0.5 60:0.25 62:0.33333333 64:0.5 65:0.5 67:0.2 68:0.16666667 69:0.25 70:0.33333333 71:0.25 72:0.36842105 74:1 77:1 81:1 86:1 88:1 90:1 92:1 97:1 101:1 102:1 108:1 111:1 115:1 121:1 123:1 135:1 158:1 165:0.61158444 166:0.12578616 167:0.58823529 
2 1:0.26435576 2:0.29583477 3:0.45756604 4:0.17044885 5:0.64705882 6:0.35294118 7:0.11764706 8:0.5 9:0.22222222 10:0.2 12:0.85714286 13:0.4 14:0.18181818 15:0.11111111 17:0.14285714 20:0.11111111 21:0.42857143 22:0.375 23:0.11111111 24:0.2 28:0.66666667 30:0.2 36:0.75 38:0.25 39:0.125 41:0.6 47:0.25 50:0.25 60:0.25 61:0.33333333 63:0.33333333 64:0.25 65:0.5 69:0.25 72:0.15789474 73:1 78:1 82:1 86:1 94:1 99:1 103:1 113:1 117:1 119:1 124:1 128:1 154:1 160:1 165:0.62177751 166:0.14150943 167:0.66176471 
1.54663495778658 1:0.55697137 2:0.71873253 3:0.40670149 4:0.68533113 5:0.41176471 6:0.58823529 7:0.47058824 8:0.16666667 9:0.44444444 10:0.3 13:0.3 14:0.27272727 15:0.44444444 16:0.14285714 18:0.25 19:0.44444444 20:0.11111111 22:0.25 24:0.1 25:0.4 26:0.33333333 29:0.14285714 30:0.2 38:0.5 39:0.125 41:0.2 42:0.4 46:1 48:0.25 54:0.25 58:0.2 60:0.25 65:0.5 70:0.33333333 72:0.68421053 74:1 79:1 84:1 87:1 89:1 92:1 95:1 98:1 101:1 104:1 111:1 118:1 125:1 127:1 133:1 162:1 165:0.64873253 166:0.18238994 167:0.85294118 
2 1:0.61054367 2:0.41115224 3:0.480906 4:0.63121206 5:0.17647059 6:0.29411765 7:0.70588235 8:0.44444444 9:0.11111111 11:0.33333333 14:0.18181818 15:0.22222222 16:0.28571429 17:0.28571429 18:0.25 19:0.33333333 20:0.55555556 22:0.25 23:0.44444444 24:0.1 27:0.25 34:0.25 35:0.25 42:0.2 43:0.25 44:0.25 47:0.25 49:0.25 50:0.25 52:0.25 55:0.5 57:0.2 58:0.2 59:0.5 66:0.25 67:0.2 68:0.33333333 72:0.63157895 75:1 83:1 87:1 90:1 92:1 95:1 97:1 100:1 102:1 104:1 107:1 116:1 120:1 125:1 128:1 140:1 
1.394599948959025 1:0.39310349 2:0.27292129 3:0.45756604 4:0.33514936 5:0.41176471 6:0.29411765 7:0.35294118 8:0.55555556 9:0.22222222 10:0.2 12:0.42857143 13:0.1 14:0.090909091 15:0.11111111 16:0.28571429 17:0.42857143 18:0.125 19:0.11111111 20:0.11111111 21:0.14285714 22:0.25 23:0.44444444 24:0.3 26:0.16666667 28:0.33333333 30:0.2 36:0.25 41:0.2 42:0.2 44:0.25 48:0.25 50:0.25 51:0.25 53:0.25 65:0.25 67:0.2 68:0.16666667 71:0.25 72:0.31578947 76:1 78:1 80:1 82:1 91:1 94:1 101:1 102:1 113:1 117:1 119:1 123:1 126:1 129:1 154:1 160:1 165:0.72116769 166:0.15303983 167:0.79347826 
0.6420778504428584 1:0.42622728 2:0.49530931 3:0.59203639 4:0.43318076 5:0.52941176 6:0.23529412 7:0.52941176 8:0.33333333 9:0.33333333 10:0.2 11:0.5 13:0.2 15:0.22222222 16:0.14285714 17:0.42857143 18:0.125 19:0.11111111 20:0.44444444 21:0.14285714 22:0.25 23:0.22222222 24:0.1 25:0.2 27:0.5 29:0.14285714 30:0.2 32:0.25 35:0.5 38:0.5 42:0.2 46:0.25 47:0.25 48:0.25 51:0.25 52:0.25 56:0.25 59:0.25 60:0.25 61:0.33333333 64:0.25 66:0.25 69:0.25 72:0.42105263 75:1 78:1 81:1 84:1 87:1 90:1 93:1 96:1 98:1 101:1 108:1 111:1 114:1 117:1 120:1 126:1 127:1 151:1 161:1 163:1 165:0.27757927 166:0.033542977 167:0.17391304 
2 1:0.68585655 2:0.18905107 3:0.53701896 4:0.41494697 5:0.47058824 6:0.29411765 7:0.41176471 8:0.44444444 9:0.22222222 10:0.1 11:0.33333333 12:0.28571429 13:0.3 14:0.090909091 15:0.11111111 16:0.14285714 17:0.14285714 18:0.25 19:0.22222222 20:0.22222222 21:0.14285714 22:0.25 23:0.22222222 24:0.3 25:0.2 28:0.33333333 29:0.14285714 34:0.25 35:0.25 36:0.25 37:0.33333333 39:0.125 40:0.25 41:0.2 43:0.25 47:0.25 49:0.25 52:0.25 55:0.25 57:0.2 60:0.25 63:0.33333333 64:0.25 65:0.25 70:0.33333333 71:0.5 72:0.36842105 73:1 77:1 80:1 81:1 85:1 92:1 95:1 101:1 103:1 111:1 113:1 116:1 120:1 124:1 138:1 139:1 165:0.085846175 166:0.0062893082 167:0.032608696 
1.641610536130863 1:0.50195615 2:0.35855076 3:0.70626748 4:0.6584049 5:0.17647059 6:0.29411765 7:0.76470588 8:0.38888889 9:0.11111111 10:0.2 14:0.18181818 15:0.22222222 16:0.14285714 17:0.14285714 18:0.25 19:0.77777778 20:0.33333333 21:0.14285714 23:0.44444444 24:0.2 26:0.16666667 30:0.4 42:0.2 43:0.25 44:0.25 46:0.25 50:0.25 57:0.6 58:0.6 60:0.25 61:0.33333333 67:0.6 71:0.5 72:0.68421053 76:1 78:1 79:1 82:1 93:1 95:1 104:1 111:1 114:1 118:1 122:1 126:1 127:1 129:1 134:1 151:1 165:0.8578891 166:0.14989518 167:0.7606383 
1.094869190482734 1:0.38667873 2:0.35359197 3:0.56389849 4:0.29992121 5:0.64705882 6:0.058823529 7:0.52941176 8:0.38888889 9:0.55555556 11:0.83333333 12:0.14285714 16:0.14285714 17:0.57142857 19:0.22222222 20:0.33333333 21:0.14285714 22:0.25 23:0.22222222 24:0.2 25:0.2 27:1 32:0.75 34:0.5 43:0.25 49:0.25 50:0.75 52:0.25 58:0.4 59:0.25 60:0.25 65:0.25 68:0.16666667 70:0.33333333 71:0.25 72:0.26315789 73:1 78:1 87:1 93:1 96:1 98:1 101:1 102:1 106:1 113:1 116:1 120:1 123:1 128:1 129:1 164:1 165:0.51506745 166:0.048218029 167:0.24468085 
0.3298733423052019 1:0.4651083 2:0.45601813 3:0.4359805 4:0.37342907 5:0.47058824 6:0.29411765 7:0.35294118 8:0.5 9:0.33333333 10:0.1 11:0.5 12:0.14285714 13:0.2 14:0.090909091 16:0.42857143 17:0.42857143 19:0.11111111 20:0.22222222 22:0.5 23:0.22222222 24:0.2 27:0.5 28:0.33333333 31:0.25 32:0.5 34:0.25 36:0.25 38:0.25 39:0.125 41:0.2 43:0.25 48:0.25 49:0.25 50:0.5 52:0.25 58:0.2 59:0.25 60:0.25 64:0.25 65:0.5 68:0.16666667 70:0.33333333 71:0.25 72:0.31578947 76:1 80:1 82:1 84:1 87:1 90:1 93:1 97:1 100:1 103:1 110:1 113:1 117:1 119:1 123:1 124:1 154:1 160:1 165:0.51268178 166:0.044025157 167:0.22340426 
1.739419178295453 1:0.61358266 2:0.26992101 3:0.50033308 4:0.40208452 5:0.41176471 6:0.41176471 7:0.29411765 8:0.5 9:0.22222222 10:0.1 11:0.5 12:0.14285714 13:0.2 14:0.18181818 16:0.57142857 17:0.28571429 19:0.11111111 20:0.11111111 22:0.625 23:0.11111111 24:0.3 27:0.25 28:0.33333333 31:0.25 32:0.5 34:0.25 36:0.25 38:0.25 39:0.125 41:0.2 43:0.5 48:0.25 49:0.75 50:0.25 52:0.25 58:0.2 59:0.25 64:0.25 65:0.75 70:0.66666667 71:0.25 72:0.36842105 73:1 84:1 88:1 90:1 92:1 94:1 105:1 110:1 111:1 113:1 115:1 121:1 123:1 128:1 141:1 142:1 147:1 158:1 165:0.51125037 166:0.041928721 167:0.21276596 
2 1:0.38667873 2:0.4596084 3:0.67433756 4:0.50993156 5:0.47058824 6:0.23529412 7:0.64705882 8:0.27777778 9:0.11111111 10:0.4 11:0.5 13:0.1 15:0.22222222 16:0.14285714 17:0.57142857 19:0.44444444 20:0.33333333 21:0.14285714 22:0.125 23:0.22222222 24:0.1 27:0.25 30:0.2 32:0.25 34:0.5 40:0.25 43:0.25 46:0.5 50:0.25 51:0.5 52:0.25 56:0.25 58:0.6 60:0.25 61:0.33333333 64:0.25 70:0.33333333 72:0.52631579 73:1 79:1 83:1 87:1 90:1 96:1 100:1 102:1 106:1 110:1 114:1 117:1 120:1 129:1 161:1 163:1 165:0.41319909 166:0.027253669 167:0.13829787 
1.905638551974495 1:0.52479099 2:0.4346799 3:0.34415133 4:0.46519645 5:0.23529412 6:0.41176471 7:0.41176471 8:0.55555556 9:0.11111111 11:0.16666667 12:0.28571429 13:0.2 14:0.18181818 15:0.11111111 16:0.28571429 18:0.375 19:0.22222222 20:0.22222222 21:0.14285714 22:0.375 23:0.22222222 24:0.4 27:0.25 34:0.25 36:0.5 38:0.25 41:0.2 42:0.2 43:0.25 45:0.16666667 49:0.25 54:0.25 55:0.5 58:0.4 60:0.5 63:0.33333333 65:0.25 67:0.2 69:0.25 70:0.33333333 71:0.25 72:0.47368421 75:1 82:1 93:1 94:1 100:1 102:1 105:1 115:1 119:1 124:1 128:1 129:1 141:1 142:1 165:0.39960073 166:0.0073375262 167:0.037234043 
2 1:0.24243179 2:0.78942846 3:0.35681947 4:0.64512456 5:0.41176471 6:0.64705882 7:0.35294118 8:0.22222222 9:0.22222222 10:0.3 12:0.28571429 13:0.2 14:0.27272727 15:0.55555556 16:0.14285714 17:0.28571429 18:0.5 21:0.14285714 22:0.125 23:0.11111111 24:0.1 25:0.2 26:0.16666667 29:0.28571429 30:0.2 36:0.25 37:0.33333333 39:0.125 42:0.2 43:0.25 44:0.5 45:0.5 50:0.25 53:0.25 55:0.25 61:0.33333333 66:0.25 71:0.25 72:0.63157895 74:1 84:1 87:1 89:1 96:1 98:1 100:1 107:1 110:1 112:1 113:1 115:1 118:1 122:1 125:1 127:1 129:1 133:1 137:1 145:1 157:1 165:0.43188432 166:0.028301887 167:0.15340909 
0.6877440250234707 1:0.93095184 2:0.2102515 3:0.61841691 4:0.46791738 5:0.47058824 6:0.47058824 7:0.29411765 8:0.38888889 9:0.22222222 10:0.3 12:0.42857143 13:0.2 14:0.090909091 15:0.44444444 16:0.14285714 17:0.28571429 18:0.375 21:0.28571429 22:0.25 23:0.11111111 24:0.2 25:0.2 26:0.16666667 29:0.14285714 30:0.2 36:0.25 37:0.66666667 42:0.2 43:0.25 44:0.5 45:0.33333333 50:0.25 53:0.25 55:0.25 61:0.66666667 64:0.25 66:0.25 69:0.25 71:0.25 72:0.42105263 76:1 80:1 83:1 84:1 89:1 92:1 95:1 97:1 99:1 108:1 110:1 113:1 117:1 119:1 129:1 130:1 152:1 154:1 160:1 165:0.43392701 166:0.031446541 167:0.17045455 
2 1:0.45557556 2:0.45717478 3:0.49221141 4:0.55184188 5:0.29411765 6:0.58823529 7:0.35294118 8:0.38888889 9:0.22222222 10:0.1 11:0.16666667 12:0.14285714 13:0.3 14:0.36363636 15:0.22222222 16:0.14285714 18:0.25 20:0.44444444 22:0.5 23:0.22222222 24:0.1 26:0.16666667 27:0.25 29:0.14285714 35:0.25 38:0.5 41:0.2 42:0.2 43:0.25 45:0.16666667 47:0.25 48:0.25 55:0.5 59:0.75 60:0.25 64:0.25 65:0.25 66:0.25 68:0.16666667 71:0.25 72:0.57894737 75:1 78:1 81:1 85:1 91:1 99:1 102:1 107:1 110:1 111:1 113:1 117:1 120:1 123:1 126:1 128:1 129:1 145:1 147:1 154:1 161:1 164:1 165:0.65833177 166:0.082809224 167:0.44886364 
1.590217422379413 1:0.3836975 2:0.44777444 3:0.47440926 4:0.55325721 5:0.17647059 6:0.47058824 7:0.47058824 8:0.5 11:0.16666667 12:0.28571429 14:0.27272727 15:0.11111111 16:0.71428571 17:0.14285714 18:0.25 19:0.44444444 21:0.28571429 22:0.5 23:0.11111111 24:0.2 32:0.25 36:0.25 37:0.33333333 43:0.75 48:0.5 49:0.25 53:0.25 55:0.5 57:0.4 62:0.33333333 63:0.33333333 65:0.25 66:0.25 67:0.2 70:0.33333333 71:0.25 72:0.57894737 75:1 79:1 81:1 86:1 87:1 93:1 95:1 98:1 103:1 104:1 110:1 112:1 115:1 121:1 122:1 134:1 136:1 153:1 158:1 165:0.66912888 166:0.095387841 167:0.51704545 
2 1:0.61054367 2:0.82289536 3:0.53701896 4:0.74484446 5:0.17647059 6:0.64705882 7:0.47058824 8:0.33333333 10:0.2 11:0.16666667 13:0.1 14:0.36363636 15:0.33333333 16:0.57142857 17:0.28571429 18:0.25 19:0.22222222 20:0.11111111 22:0.5 23:0.22222222 30:0.2 32:0.25 40:0.25 43:1 45:0.33333333 46:0.25 48:0.5 51:0.5 55:0.25 58:0.2 59:0.25 64:0.25 65:0.5 66:0.25 67:0.2 72:0.73684211 76:1 83:1 85:1 87:1 90:1 92:1 95:1 100:1 103:1 104:1 105:1 107:1 111:1 117:1 120:1 127:1 130:1 161:1 163:1 165:0.67729966 166:0.10587002 167:0.57386364 
1.094793276922922 1:0.57813359 2:0.56873145 3:0.93095184 4:0.73269668 5:0.29411765 6:0.58823529 7:0.47058824 8:0.27777778 9:0.11111111 10:0.2 11:0.33333333 13:0.2 14:0.18181818 15:0.55555556 16:0.28571429 17:0.14285714 18:0.375 19:0.11111111 20:0.22222222 22:0.5 24:0.1 26:0.16666667 30:0.2 33:0.25 34:0.25 40:0.5 41:0.2 42:0.4 44:0.25 45:0.33333333 47:0.5 48:0.5 51:0.25 55:0.25 59:0.25 60:0.25 64:0.25 65:0.25 66:0.25 70:0.33333333 72:0.68421053 73:1 77:1 81:1 86:1 89:1 96:1 102:1 108:1 110:1 111:1 114:1 115:1 120:1 124:1 127:1 147:1 151:1 163:1 165:0.97319879 166:0.16771488 167:0.90909091 
0.3441303324891857 1:0.61358266 2:0.44612346 3:0.50033308 4:0.50661847 5:0.41176471 6:0.41176471 7:0.47058824 8:0.33333333 10:0.3 11:0.33333333 12:0.28571429 13:0.2 14:0.27272727 15:0.11111111 16:0.28571429 17:0.57142857 18:0.125 19:0.22222222 20:0.11111111 21:0.14285714 22:0.125 23:0.22222222 24:0.1 29:0.14285714 30:0.2 31:0.25 33:0.25 35:0.25 39:0.125 41:0.2 42:0.2 43:0.25 44:0.25 49:0.25 51:0.5 52:0.25 53:0.25 55:0.25 56:0.25 57:0.2 62:0.33333333 65:0.25 67:0.2 70:0.33333333 72:0.52631579 75:1 77:1 83:1 88:1 90:1 92:1 94:1 100:1 103:1 107:1 110:1 111:1 113:1 115:1 121:1 123:1 126:1 139:1 145:1 147:1 158:1 165:0.22380404 166:0.035639413 167:0.17525773 
0.1762489829490958 1:0.69772966 2:0.57358153 3:0.58121897 4:0.58374924 5:0.52941176 6:0.58823529 7:0.35294118 8:0.16666667 9:0.22222222 10:0.3 11:0.16666667 12:0.28571429 13:0.1 14:0.54545455 15:0.33333333 16:0.14285714 17:0.57142857 18:0.125 19:0.11111111 21:0.28571429 22:0.125 26:0.16666667 30:0.6 32:0.25 36:0.25 38:0.25 41:0.2 42:0.6 43:0.25 44:0.75 51:0.25 52:0.25 53:0.5 55:0.25 61:0.33333333 65:0.25 72:0.57894737 75:1 84:1 89:1 93:1 100:1 107:1 110:1 111:1 114:1 121:1 137:1 145:1 147:1 151:1 165:0.48069614 166:0.078616352 167:0.38659794 
2 1:0.83174277 2:0.61483244 3:0.42214227 4:0.593045 5:0.52941176 6:0.58823529 7:0.41176471 8:0.11111111 9:0.33333333 10:0.6 13:0.4 14:0.18181818 15:0.33333333 16:0.14285714 17:0.28571429 18:0.125 19:0.33333333 20:0.11111111 22:0.125 23:0.11111111 26:0.5 29:0.28571429 30:0.6 38:0.5 39:0.25 41:0.2 42:0.2 45:0.16666667 46:0.5 48:0.25 50:0.25 51:0.25 56:0.5 58:0.2 64:0.25 67:0.2 72:0.63157895 74:1 78:1 85:1 87:1 89:1 92:1 95:1 98:1 100:1 102:1 105:1 108:1 113:1 115:1 118:1 124:1 129:1 133:1 157:1 162:1 165:0.97724698 166:0.18553459 167:0.91237113 
1.553948464689787 1:0.480906 2:0.39227449 3:0.61358266 4:0.57049358 5:0.17647059 6:0.35294118 7:0.58823529 8:0.5 10:0.1 12:0.28571429 13:0.2 14:0.18181818 15:0.33333333 18:0.125 19:0.33333333 20:0.55555556 22:0.375 23:0.44444444 24:0.2 30:0.2 36:0.25 39:0.125 41:0.2 42:0.4 45:0.16666667 46:0.25 58:0.6 59:0.25 60:0.5 64:0.25 65:0.5 67:0.4 68:0.33333333 70:0.33333333 71:0.25 72:0.57894737 73:1 78:1 83:1 90:1 95:1 98:1 101:1 102:1 105:1 107:1 115:1 119:1 126:1 141:1 146:1 148:1 165:0.97609809 166:0.18448637 167:0.90721649 
1.721359403390373 1:0.51486649 2:0.43256137 3:0.43316515 4:0.32039984 5:1 6:0.41176471 7:0.17647059 8:0.055555556 9:0.88888889 10:0.4 11:0.5 12:0.14285714 13:0.6 14:0.18181818 17:0.28571429 18:0.125 22:0.125 25:0.8 26:0.33333333 27:0.25 28:0.33333333 29:0.28571429 30:0.4 32:0.5 33:0.25 36:0.25 38:0.5 39:0.25 40:0.25 41:0.4 50:0.25 52:0.25 54:0.25 64:0.25 72:0.26315789 73:1 77:1 83:1 85:1 87:1 90:1 91:1 98:1 100:1 105:1 107:1 110:1 113:1 119:1 124:1 137:1 145:1 165:0.4743851 166:0.0062893082 167:0.0375 
2 1:0.68751143 2:0.14485647 3:0.61321882 4:0.27913932 5:0.64705882 6:0.29411765 7:0.29411765 8:0.38888889 9:0.33333333 10:0.2 11:0.16666667 12:0.71428571 13:0.2 14:0.090909091 15:0.22222222 16:0.14285714 17:0.28571429 18:0.125 19:0.11111111 21:0.42857143 22:0.25 23:0.11111111 24:0.1 25:0.2 26:0.16666667 27:0.25 29:0.14285714 30:0.2 36:0.25 37:0.33333333 38:0.25 41:0.2 42:0.2 44:0.25 46:0.25 48:0.25 50:0.25 53:0.25 56:0.25 61:0.33333333 63:0.66666667 65:0.25 71:0.25 72:0.26315789 73:1 78:1 86:1 90:1 93:1 101:1 107:1 110:1 114:1 118:1 124:1 145:1 162:1 165:0.55818995 166:0.028301887 167:0.16875 
1.847479094926703 1:0.43895028 2:0.13351981 3:0.28178205 4:0.1498617 5:0.76470588 6:0.23529412 7:0.23529412 8:0.38888889 9:0.44444444 10:0.2 11:0.16666667 12:0.71428571 13:0.3 15:0.11111111 16:0.14285714 17:0.28571429 18:0.125 20:0.11111111 21:0.57142857 22:0.25 23:0.11111111 25:0.2 26:0.33333333 28:0.33333333 29:0.14285714 30:0.2 32:0.25 36:0.25 38:0.5 43:0.25 45:0.16666667 48:0.25 52:0.25 53:0.25 54:0.25 63:1 64:0.25 66:0.25 68:0.16666667 72:0.15789474 75:1 77:1 79:1 83:1 84:1 92:1 95:1 99:1 103:1 109:1 118:1 131:1 139:1 149:1 162:1 165:0.56258064 166:0.036687631 167:0.21875 
2 1:0.61321882 2:0.28524345 3:0.50282817 4:0.36049141 5:0.76470588 6:0.41176471 7:0.23529412 8:0.22222222 9:0.77777778 10:0.5 11:0.16666667 13:0.3 14:0.18181818 15:0.11111111 16:0.28571429 17:0.14285714 19:0.22222222 20:0.11111111 21:0.14285714 22:0.125 24:0.1 25:0.6 26:0.66666667 29:0.42857143 30:0.2 34:0.25 38:0.5 39:0.125 43:0.5 46:0.25 49:0.25 50:0.25 56:0.25 58:0.2 59:0.25 62:0.33333333 65:0.25 72:0.31578947 73:1 77:1 84:1 90:1 91:1 97:1 99:1 107:1 110:1 112:1 113:1 116:1 120:1 123:1 125:1 128:1 145:1 164:1 165:0.95468809 166:0.12893082 167:0.76875 
2 1:0.48798757 2:0.49644387 3:0.67433756 4:0.50885853 5:0.35294118 6:0.52941176 7:0.29411765 8:0.44444444 9:0.22222222 10:0.3 13:0.1 14:0.27272727 15:0.33333333 16:0.42857143 17:0.14285714 20:0.44444444 21:0.14285714 22:0.5 23:0.22222222 24:0.1 25:0.2 26:0.16666667 30:0.2 31:0.25 39:0.125 41:0.2 42:0.2 43:0.25 44:0.25 47:0.5 48:0.75 51:0.25 59:0.25 60:0.25 65:0.5 66:0.25 68:0.33333333 71:0.25 72:0.47368421 73:1 77:1 83:1 85:1 89:1 96:1 98:1 100:1 103:1 105:1 110:1 111:1 113:1 115:1 120:1 126:1 128:1 142:1 147:1 163:1 165:0.97969591 166:0.139413 167:0.83125 
2 1:0.42622728 2:0.35473634 3:0.42709758 4:0.38147343 5:0.70588235 6:0.35294118 7:0.29411765 8:0.27777778 9:0.44444444 10:0.3 11:0.5 12:0.14285714 13:0.4 14:0.090909091 15:0.11111111 16:0.14285714 17:0.42857143 19:0.11111111 20:0.11111111 22:0.375 24:0.2 26:0.16666667 27:0.25 28:0.33333333 29:0.28571429 32:0.25 34:0.25 35:0.25 36:0.25 38:0.75 39:0.125 41:0.2 44:0.25 48:0.25 50:0.25 52:0.5 56:0.25 60:0.25 64:0.25 65:0.25 70:0.33333333 72:0.31578947 73:1 81:1 87:1 90:1 93:1 96:1 103:1 105:1 106:1 109:1 114:1 118:1 123:1 125:1 136:1 143:1 165:0.985232 166:0.14989518 167:0.89375 
2 1:0.59203639 2:0.53918403 3:0.49057405 4:0.55315664 5:0.23529412 6:0.23529412 7:0.70588235 8:0.44444444 10:0.3 12:0.14285714 14:0.090909091 15:0.33333333 16:0.14285714 17:0.57142857 19:0.44444444 20:0.33333333 22:0.125 23:0.44444444 24:0.3 30:0.2 37:0.33333333 42:0.2 43:0.25 44:0.25 47:0.5 49:0.25 51:0.75 53:0.25 56:0.5 57:0.2 58:0.2 60:0.25 65:0.25 67:0.4 70:0.33333333 71:0.5 72:0.57894737 75:1 82:1 84:1 90:1 93:1 100:1 103:1 104:1 114:1 121:1 123:1 128:1 139:1 140:1 148:1 165:0.98618649 166:0.1509434 167:0.9 
0.6820581823676819 1:0.22375955 2:0.5536151 3:0.55697137 4:0.44775196 5:0.47058824 6:0.41176471 7:0.41176471 8:0.33333333 9:0.11111111 10:0.5 12:0.28571429 13:0.1 14:0.27272727 15:0.33333333 16:0.14285714 17:0.42857143 19:0.11111111 20:0.22222222 21:0.28571429 23:0.33333333 24:0.1 28:0.33333333 30:0.6 38:0.25 41:0.2 42:0.2 43:0.25 44:0.25 47:0.5 49:0.25 51:0.75 56:0.25 61:0.66666667 67:0.2 71:0.25 72:0.47368421 73:1 78:1 81:1 85:1 87:1 91:1 94:1 101:1 102:1 105:1 108:1 109:1 111:1 114:1 117:1 120:1 126:1 128:1 151:1 161:1 163:1 165:0.98885909 166:0.15618449 167:0.93125 
1.13334438164773 1:0.28479522 2:0.35597644 3:0.47077004 4:0.37652199 5:0.58823529 6:0.23529412 7:0.47058824 8:0.33333333 9:0.22222222 10:0.3 11:0.5 12:0.28571429 13:0.2 15:0.22222222 17:0.42857143 18:0.125 19:0.22222222 20:0.22222222 21:0.28571429 22:0.125 23:0.11111111 24:0.2 26:0.16666667 28:0.33333333 32:0.5 34:0.25 37:0.66666667 38:0.25 41:0.2 44:0.25 47:0.25 50:0.25 51:0.25 52:0.25 55:0.25 58:0.2 62:0.66666667 64:0.25 67:0.2 69:0.25 70:0.33333333 72:0.36842105 73:1 79:1 82:1 84:1 87:1 92:1 99:1 102:1 120:1 124:1 129:1 131:1 148:1 165:0.13271934 166:0.023060797 167:0.15714286 
0.6616716770790729 1:0.53613833 2:0.34335579 3:0.42214227 4:0.46839733 5:0.70588235 6:0.47058824 7:0.29411765 8:0.16666667 9:0.66666667 10:0.6 13:0.2 14:0.18181818 15:0.44444444 17:0.28571429 18:0.125 19:0.11111111 20:0.11111111 21:0.14285714 24:0.2 25:0.2 26:0.83333333 29:0.14285714 30:0.6 38:0.5 42:0.6 44:0.25 45:0.16666667 46:0.25 47:0.25 50:0.25 51:0.25 54:0.25 56:0.25 60:0.25 69:0.25 72:0.42105263 73:1 77:1 81:1 84:1 87:1 89:1 93:1 96:1 99:1 105:1 108:1 113:1 115:1 118:1 126:1 129:1 133:1 157:1 162:1 165:0.2751404 166:0.025157233 167:0.15384615 
2 1:0.80673839 2:0.54411474 3:0.51111903 4:0.69818982 5:0.35294118 6:0.29411765 7:0.76470588 8:0.22222222 9:0.11111111 10:0.1 11:0.5 12:0.14285714 13:0.1 14:0.090909091 15:0.22222222 16:0.14285714 17:0.42857143 18:0.5 19:0.55555556 20:0.11111111 23:0.33333333 24:0.1 26:0.16666667 29:0.14285714 33:0.25 34:0.5 42:0.2 44:0.25 45:0.16666667 52:0.75 55:0.5 56:0.25 57:0.2 58:0.2 60:0.25 67:0.4 71:0.25 72:0.68421053 73:1 77:1 83:1 88:1 89:1 91:1 95:1 100:1 104:1 106:1 117:1 120:1 126:1 129:1 137:1 148:1 156:1 161:1 165:0.28767434 166:0.047169811 167:0.28846154 
0.5901826782744214 1:0.60752713 2:0.95623265 3:0.38667873 4:0.6905816 5:0.23529412 6:0.64705882 7:0.41176471 8:0.33333333 9:0.11111111 10:0.2 13:0.2 14:0.36363636 15:0.22222222 16:0.57142857 17:0.14285714 18:0.375 19:0.22222222 20:0.11111111 22:0.375 23:0.22222222 24:0.1 26:0.16666667 30:0.2 31:0.25 38:0.25 41:0.2 42:0.2 43:0.5 46:0.5 48:0.75 51:0.25 55:0.5 60:0.25 64:0.25 65:0.25 68:0.16666667 71:0.25 72:0.68421053 75:1 77:1 80:1 81:1 86:1 88:1 93:1 94:1 100:1 104:1 105:1 107:1 109:1 115:1 121:1 122:1 144:1 149:1 158:1 165:0.28767434 166:0.047169811 167:0.28846154 
1.761872764834042 1:0.60477371 2:0.56873145 3:0.52267638 4:0.73496962 5:0.41176471 6:0.52941176 7:0.58823529 8:0.11111111 9:0.11111111 10:0.2 11:0.5 13:0.5 14:0.18181818 15:0.33333333 17:0.14285714 18:0.625 19:0.22222222 20:0.22222222 22:0.125 23:0.11111111 26:0.16666667 29:0.28571429 32:0.25 35:0.5 38:0.25 39:0.125 40:0.5 41:0.2 42:0.4 45:0.33333333 46:0.25 52:0.25 54:0.5 55:0.75 59:0.25 66:0.25 67:0.2 72:0.73684211 75:1 81:1 85:1 88:1 90:1 91:1 100:1 105:1 108:1 110:1 114:1 117:1 120:1 124:1 137:1 141:1 150:1 161:1 165:0.2925262 166:0.055555556 167:0.33974359 
2 1:0.32024583 2:0.50208581 3:0.52267638 4:0.48641057 5:0.23529412 6:0.47058824 7:0.35294118 8:0.55555556 10:0.2 12:0.28571429 13:0.3 14:0.27272727 15:0.11111111 16:0.28571429 18:0.25 19:0.22222222 20:0.22222222 21:0.14285714 22:0.25 23:0.33333333 24:0.3 30:0.2 31:0.25 37:0.33333333 39:0.25 41:0.4 42:0.2 47:0.25 54:0.25 55:0.25 59:0.25 63:0.33333333 65:0.25 67:0.4 68:0.16666667 70:0.33333333 71:0.25 72:0.47368421 76:1 78:1 79:1 81:1 84:1 89:1 101:1 110:1 112:1 114:1 117:1 120:1 124:1 161:1 165:0.29414348 166:0.05870021 167:0.35897436 
2 1:0.37999556 2:0.28354832 3:0.46632369 4:0.48295813 5:0.23529412 6:0.47058824 7:0.41176471 8:0.5 10:0.2 11:0.33333333 13:0.2 14:0.27272727 15:0.22222222 16:0.28571429 17:0.14285714 19:0.11111111 20:0.44444444 21:0.14285714 22:0.375 23:0.22222222 24:0.3 31:0.25 35:0.5 39:0.125 40:0.25 41:0.2 42:0.2 44:0.25 49:0.25 51:0.25 58:0.2 59:0.5 60:0.25 62:0.33333333 64:0.25 65:0.25 67:0.2 68:0.16666667 70:0.33333333 71:0.25 72:0.52631579 74:1 85:1 94:1 97:1 101:1 103:1 112:1 114:1 116:1 121:1 122:1 124:1 138:1 159:1 165:0.30101694 166:0.070230608 167:0.42948718 
0.2377280026081407 1:0.3022842 2:0.22454316 3:0.36290256 4:0.35577718 5:0.58823529 6:0.41176471 7:0.23529412 8:0.38888889 9:0.22222222 10:0.3 11:0.16666667 12:0.42857143 13:0.3 14:0.090909091 15:0.22222222 16:0.28571429 17:0.28571429 18:0.125 20:0.11111111 21:0.28571429 22:0.375 23:0.11111111 24:0.1 25:0.2 27:0.25 31:0.25 35:0.25 36:0.25 38:0.25 41:0.2 43:0.25 44:0.25 45:0.16666667 48:0.25 53:0.25 55:0.25 60:0.25 61:0.66666667 64:0.5 65:0.25 70:0.33333333 72:0.31578947 73:1 79:1 81:1 84:1 87:1 96:1 101:1 107:1 119:1 123:1 127:1 146:1 165:0.67541812 166:0.077568134 167:0.47435897 
1.818168287479886 1:0.4651083 2:0.36965847 3:0.45756604 4:0.32752942 5:0.52941176 6:0.23529412 7:0.35294118 8:0.5 9:0.22222222 11:0.83333333 12:0.28571429 13:0.1 16:0.42857143 17:0.71428571 20:0.11111111 22:0.625 23:0.11111111 24:0.3 27:0.5 32:1 35:0.25 36:0.25 37:0.33333333 41:0.2 48:0.5 49:0.25 50:0.5 52:0.5 53:0.25 60:0.25 65:0.25 70:0.66666667 71:0.25 72:0.26315789 73:1 82:1 84:1 87:1 90:1 93:1 98:1 101:1 117:1 119:1 123:1 124:1 128:1 129:1 156:1 160:1 165:0.690378 166:0.10272537 167:0.62820513 
2 1:0.41423286 2:0.45601813 3:0.50033308 4:0.53603954 5:0.35294118 6:0.35294118 7:0.52941176 8:0.38888889 9:0.11111111 10:0.1 11:0.33333333 12:0.14285714 13:0.2 14:0.18181818 15:0.11111111 16:0.28571429 17:0.42857143 18:0.125 19:0.33333333 20:0.22222222 22:0.375 23:0.22222222 24:0.2 28:0.33333333 30:0.2 34:0.5 38:0.25 40:0.25 42:0.2 43:0.25 46:0.25 48:0.25 49:0.25 51:0.25 52:0.25 54:0.25 56:0.25 58:0.2 60:0.25 64:0.25 65:0.25 70:0.66666667 72:0.52631579 75:1 78:1 79:1 82:1 95:1 97:1 110:1 114:1 116:1 121:1 123:1 126:1 127:1 131:1 150:1 159:1 165:0.70554003 166:0.12893082 167:0.78846154 
0.668975901878233 1:0.66315036 2:0.37964759 3:0.39926016 4:0.47361004 5:0.58823529 6:0.47058824 7:0.35294118 8:0.22222222 9:0.22222222 10:0.5 11:0.16666667 12:0.28571429 13:0.5 14:0.18181818 15:0.22222222 17:0.14285714 19:0.33333333 20:0.22222222 21:0.14285714 22:0.25 26:0.33333333 29:0.42857143 30:0.4 34:0.25 36:0.25 38:0.5 39:0.25 41:0.2 42:0.4 44:0.25 46:0.25 53:0.25 57:0.2 58:0.4 59:0.25 61:0.33333333 64:0.25 65:0.25 72:0.47368421 73:1 79:1 83:1 84:1 89:1 93:1 96:1 101:1 105:1 106:1 110:1 113:1 115:1 118:1 126:1 157:1 162:1 165:0.84725452 166:0.139413 167:0.8525641 
2 1:0.57417768 2:0.499214 3:0.44123508 4:0.43392802 5:0.76470588 6:0.29411765 7:0.41176471 8:0.16666667 9:0.77777778 10:0.3 11:0.16666667 12:0.14285714 13:0.2 14:0.090909091 15:0.22222222 16:0.14285714 17:0.28571429 18:0.25 19:0.22222222 20:0.11111111 21:0.14285714 23:0.22222222 25:0.6 26:0.33333333 28:0.33333333 30:0.2 31:0.25 33:0.25 38:0.5 41:0.4 46:0.5 50:0.5 55:0.25 56:0.5 61:0.33333333 68:0.16666667 72:0.36842105 73:1 84:1 87:1 89:1 93:1 97:1 101:1 102:1 104:1 105:1 108:1 113:1 115:1 121:1 124:1 133:1 158:1 165:0.98599373 166:0.13312369 167:0.87586207 
2 1:0.38580469 2:0.45090663 3:0.43316515 4:0.39919737 5:0.35294118 6:0.41176471 7:0.35294118 8:0.5 9:0.22222222 10:0.3 13:0.3 14:0.27272727 15:0.11111111 16:0.14285714 17:0.14285714 20:0.55555556 22:0.25 23:0.44444444 24:0.3 25:0.2 26:0.16666667 29:0.14285714 30:0.2 38:0.25 39:0.125 41:0.4 47:0.25 51:0.25 59:0.25 60:0.5 65:0.25 68:0.5 70:0.33333333 71:0.25 72:0.42105263 75:1 78:1 83:1 85:1 90:1 93:1 101:1 102:1 107:1 110:1 113:1 119:1 125:1 145:1 165:0.17034842 166:0.035639413 167:0.23448276 
2 1:0.51111903 2:0.38369962 3:0.49372418 4:0.35114985 5:0.41176471 6:0.35294118 7:0.35294118 8:0.5 9:0.33333333 10:0.1 12:0.42857143 13:0.2 14:0.18181818 15:0.11111111 16:0.28571429 17:0.14285714 18:0.125 19:0.11111111 20:0.22222222 21:0.14285714 22:0.375 23:0.33333333 24:0.2 26:0.16666667 28:0.66666667 30:0.2 36:0.25 38:0.5 41:0.2 43:0.25 48:0.5 53:0.25 54:0.25 58:0.2 60:0.5 65:0.25 66:0.25 67:0.2 68:0.16666667 71:0.5 72:0.36842105 75:1 77:1 86:1 88:1 93:1 95:1 100:1 107:1 111:1 115:1 118:1 134:1 157:1 162:1 165:0.16448047 166:0.024109015 167:0.15862069 
2 1:0.68751143 2:0.39119325 3:0.5989845 4:0.49641654 5:0.17647059 6:0.41176471 7:0.41176471 8:0.61111111 9:0.11111111 10:0.1 12:0.14285714 13:0.2 14:0.090909091 15:0.33333333 16:0.14285714 18:0.375 19:0.11111111 20:0.33333333 22:0.25 23:0.33333333 24:0.6 26:0.16666667 37:0.33333333 38:0.25 41:0.2 43:0.25 45:0.16666667 46:0.25 47:0.25 54:0.25 55:0.5 58:0.2 60:0.75 66:0.5 68:0.16666667 70:0.66666667 71:0.5 72:0.47368421 74:1 79:1 80:1 83:1 86:1 89:1 92:1 100:1 103:1 115:1 121:1 124:1 129:1 132:1 158:1 165:0.15772343 166:0.01048218 167:0.068965517 
1.214146844921157 1:0.50033308 2:0.40349867 3:0.6443844 4:0.4429066 5:0.29411765 6:0.17647059 7:0.64705882 8:0.5 10:0.2 11:0.33333333 15:0.22222222 16:0.28571429 17:0.28571429 19:0.55555556 20:0.44444444 21:0.42857143 22:0.125 23:0.22222222 24:0.3 30:0.2 34:0.5 42:0.2 46:0.25 47:0.25 49:0.5 51:0.25 52:0.25 56:0.5 57:0.2 58:0.4 60:0.25 61:0.33333333 62:0.33333333 67:0.2 68:0.16666667 69:0.25 70:0.33333333 71:0.25 72:0.47368421 74:1 78:1 83:1 86:1 87:1 90:1 95:1 100:1 102:1 105:1 108:1 114:1 116:1 120:1 126:1 128:1 132:1 150:1 163:1 165:0.31071275 166:0.051362683 167:0.33108108 
2 1:0.45557556 2:0.35183565 3:0.44123508 4:0.39055314 5:0.47058824 6:0.41176471 7:0.29411765 8:0.44444444 9:0.22222222 10:0.3 11:0.33333333 12:0.14285714 13:0.1 14:0.18181818 15:0.11111111 16:0.42857143 17:0.71428571 22:0.375 23:0.11111111 24:0.4 26:0.16666667 28:0.33333333 30:0.2 31:0.25 32:0.5 37:0.33333333 40:0.25 42:0.2 43:0.25 44:0.25 49:0.5 50:0.5 51:0.5 52:0.25 64:0.25 65:0.25 70:1 72:0.36842105 75:1 77:1 79:1 86:1 95:1 97:1 105:1 106:1 117:1 121:1 122:1 126:1 129:1 131:1 141:1 149:1 165:0.3199978 166:0.075471698 167:0.48648649 
2 1:0.44221371 2:0.55356327 3:0.42141644 4:0.42340598 5:0.47058824 6:0.41176471 7:0.35294118 8:0.38888889 9:0.22222222 10:0.2 11:0.33333333 12:0.28571429 13:0.4 14:0.090909091 15:0.22222222 17:0.28571429 18:0.125 19:0.11111111 20:0.22222222 22:0.375 23:0.11111111 24:0.3 26:0.16666667 28:0.33333333 29:0.14285714 30:0.2 32:0.25 33:0.25 36:0.25 37:0.33333333 38:0.5 40:0.25 42:0.4 46:0.25 47:0.25 51:0.25 52:0.25 54:0.25 58:0.2 59:0.25 60:0.25 64:0.25 65:0.25 70:0.33333333 71:0.25 72:0.42105263 74:1 77:1 84:1 92:1 94:1 98:1 101:1 103:1 107:1 109:1 112:1 120:1 126:1 128:1 129:1 138:1 139:1 144:1 163:1 165:0.44595152 166:0.1278826 167:0.82432432 
2 1:0.46632369 2:0.37088423 3:0.28479522 4:0.3750318 5:0.64705882 6:0.47058824 7:0.23529412 8:0.27777778 9:0.33333333 10:0.4 12:0.42857143 13:0.5 14:0.18181818 15:0.11111111 16:0.14285714 17:0.42857143 19:0.11111111 22:0.375 23:0.11111111 24:0.1 25:0.2 26:0.33333333 29:0.28571429 30:0.2 36:0.5 37:0.33333333 38:0.5 39:0.25 41:0.4 43:0.25 44:0.25 48:0.25 53:0.75 56:0.25 64:0.25 65:0.5 71:0.25 72:0.36842105 75:1 80:1 81:1 85:1 87:1 89:1 91:1 94:1 97:1 105:1 108:1 109:1 112:1 116:1 118:1 123:1 133:1 153:1 165:0.95850197 166:0.40566038 167:0.96029777 
2 1:0.28178205 2:0.47996439 3:0.53701896 4:0.3669936 5:0.29411765 6:0.23529412 7:0.47058824 8:0.61111111 9:0.22222222 10:0.1 12:0.28571429 13:0.1 14:0.090909091 15:0.11111111 16:0.14285714 17:0.14285714 19:0.22222222 20:0.55555556 22:0.375 23:0.55555556 24:0.3 26:0.16666667 28:0.33333333 36:0.5 38:0.25 41:0.2 43:0.25 47:0.25 53:0.25 56:0.25 58:0.2 59:0.25 60:0.5 65:0.5 66:0.25 67:0.4 68:0.5 71:0.5 72:0.36842105 73:1 77:1 82:1 86:1 96:1 98:1 100:1 102:1 104:1 106:1 111:1 117:1 120:1 123:1 124:1 129:1 161:1 164:1 165:0.95558638 166:0.39937107 167:0.94540943 
0.2630178735964989 1:0.480906 2:0.41432482 3:0.51111903 4:0.55270788 5:0.23529412 6:0.29411765 7:0.58823529 8:0.5 9:0.11111111 10:0.1 12:0.14285714 13:0.1 14:0.18181818 15:0.22222222 16:0.14285714 17:0.28571429 18:0.125 19:0.33333333 20:0.44444444 22:0.25 23:0.55555556 24:0.2 26:0.16666667 36:0.25 38:0.25 41:0.2 42:0.2 43:0.25 45:0.16666667 46:0.25 53:0.25 55:0.25 56:0.5 58:0.2 59:0.25 60:0.25 65:0.5 67:0.4 68:0.5 71:0.5 72:0.52631579 76:1 78:1 79:1 80:1 83:1 90:1 95:1 98:1 101:1 110:1 111:1 113:1 119:1 126:1 127:1 147:1 165:0.9547117 166:0.39727463 167:0.94044665 
2 1:0.55606605 2:0.33865604 3:0.23619655 4:0.35405113 5:0.47058824 6:0.47058824 7:0.17647059 8:0.5 9:0.33333333 10:0.2 11:0.16666667 12:0.14285714 13:0.2 14:0.27272727 16:0.57142857 17:0.28571429 20:0.11111111 21:0.14285714 22:0.5 23:0.22222222 24:0.2 26:0.16666667 27:0.25 28:0.33333333 30:0.4 35:0.25 36:0.25 38:0.25 39:0.125 41:0.2 43:0.75 48:0.5 50:0.25 60:0.25 64:0.25 65:0.5 69:0.25 70:0.33333333 72:0.31578947 76:1 78:1 85:1 92:1 96:1 100:1 105:1 106:1 109:1 117:1 118:1 127:1 137:1 141:1 143:1 156:1 162:1 165:0.94902629 166:0.3836478 167:0.90818859 
2 1:0.37999556 2:0.47288926 3:0.6443844 4:0.45959844 5:0.64705882 6:0.23529412 7:0.52941176 8:0.22222222 9:0.44444444 10:0.2 11:0.5 12:0.14285714 13:0.2 14:0.090909091 15:0.11111111 16:0.14285714 17:0.57142857 19:0.44444444 20:0.11111111 21:0.14285714 22:0.25 23:0.11111111 25:0.4 26:0.16666667 31:0.25 32:0.25 34:0.5 38:0.25 40:0.25 41:0.4 46:0.25 48:0.25 50:0.25 52:0.5 53:0.25 56:0.5 57:0.2 58:0.2 59:0.25 61:0.33333333 65:0.5 72:0.42105263 76:1 82:1 84:1 94:1 100:1 105:1 108:1 114:1 116:1 120:1 123:1 124:1 137:1 150:1 164:1 165:0.88094714 166:0.33333333 167:0.78908189 
1.166701106201087 1:0.44123508 2:0.39439853 3:0.59184905 4:0.32483128 5:0.58823529 6:0.17647059 7:0.47058824 8:0.38888889 9:0.33333333 10:0.2 11:0.33333333 12:0.28571429 13:0.2 15:0.11111111 16:0.14285714 17:0.42857143 19:0.22222222 20:0.33333333 21:0.28571429 22:0.25 23:0.33333333 26:0.16666667 27:0.25 29:0.14285714 32:0.25 34:0.25 39:0.125 40:0.25 43:0.25 44:0.25 50:0.5 53:0.25 57:0.2 58:0.2 59:0.5 63:0.33333333 64:0.25 65:0.25 68:0.33333333 72:0.31578947 76:1 77:1 83:1 85:1 87:1 90:1 91:1 94:1 97:1 100:1 104:1 106:1 114:1 117:1 120:1 123:1 137:1 148:1 161:1 164:1 165:0.82496771 166:0.33018868 167:0.78163772 
1.860728171023122 1:0.38712304 2:0.2743936 3:0.5438914 4:0.313757 5:0.41176471 6:0.47058824 7:0.23529412 8:0.5 10:0.5 12:0.28571429 13:0.2 14:0.18181818 16:0.57142857 17:0.42857143 20:0.11111111 21:0.28571429 22:0.25 23:0.44444444 24:0.1 29:0.14285714 30:0.4 31:0.5 39:0.125 41:0.2 43:0.25 48:0.25 51:0.5 53:0.25 60:0.25 61:0.66666667 65:0.25 68:0.16666667 70:0.33333333 72:0.36842105 76:1 80:1 81:1 86:1 88:1 91:1 96:1 97:1 103:1 106:1 110:1 112:1 114:1 119:1 123:1 124:1 129:1 136:1 139:1 165:0.82059431 166:0.3197065 167:0.75682382 
1.903380452917289 1:0.72397299 2:0.82289536 3:0.42214227 4:0.65748576 5:0.35294118 6:0.52941176 7:0.47058824 8:0.27777778 9:0.22222222 10:0.2 11:0.16666667 13:0.1 14:0.27272727 15:0.55555556 16:0.14285714 17:0.28571429 18:0.25 20:0.44444444 21:0.14285714 22:0.375 23:0.11111111 25:0.2 26:0.16666667 29:0.14285714 30:0.2 33:0.25 38:0.25 42:0.6 44:0.5 45:0.16666667 47:0.5 48:0.25 51:0.25 52:0.25 59:0.5 65:0.5 68:0.16666667 72:0.63157895 75:1 78:1 79:1 80:1 81:1 86:1 89:1 91:1 95:1 102:1 105:1 107:1 118:1 126:1 128:1 146:1 149:1 162:1 165:0.73589627 166:0.28406709 167:0.67245658 
2 1:0.42214227 2:0.29329838 3:0.37650896 4:0.40054331 5:0.35294118 6:0.29411765 7:0.41176471 8:0.55555556 9:0.22222222 10:0.2 11:0.16666667 12:0.14285714 14:0.090909091 15:0.33333333 16:0.28571429 17:0.28571429 19:0.22222222 20:0.33333333 21:0.28571429 22:0.25 23:0.11111111 24:0.4 25:0.2 26:0.16666667 30:0.2 31:0.25 35:0.25 37:0.33333333 42:0.2 43:0.25 44:0.25 46:0.5 51:0.25 53:0.25 56:0.25 58:0.2 60:0.5 62:0.33333333 65:0.25 66:0.25 68:0.16666667 70:0.66666667 71:0.25 72:0.36842105 74:1 79:1 83:1 86:1 90:1 94:1 98:1 103:1 104:1 110:1 111:1 118:1 126:1 127:1 131:1 132:1 136:1 140:1 147:1 162:1 165:0.43077921 166:0.13626834 167:0.32258065 
0.8924993472105013 1:0.75625742 2:0.027259519 3:0.24243179 4:0.26446134 5:0.58823529 6:0.35294118 7:0.17647059 8:0.5 9:0.44444444 10:0.3 12:0.28571429 13:0.2 14:0.090909091 15:0.22222222 16:0.28571429 17:0.14285714 18:0.125 20:0.11111111 21:0.42857143 22:0.25 23:0.11111111 24:0.3 26:0.33333333 28:0.33333333 29:0.28571429 30:0.2 37:0.33333333 38:0.25 39:0.125 42:0.2 43:0.25 44:0.25 45:0.16666667 49:0.25 50:0.25 63:0.33333333 65:0.25 66:0.25 68:0.16666667 70:0.33333333 71:0.25 72:0.21052632 76:1 79:1 85:1 87:1 89:1 93:1 94:1 101:1 102:1 106:1 109:1 111:1 113:1 121:1 123:1 130:1 131:1 133:1 143:1 165:0.33602236 166:0.12578616 167:0.29776675 
2 1:0.69772966 2:0.4380214 3:0.56980027 4:0.54785151 5:0.29411765 6:0.64705882 7:0.17647059 8:0.5 9:0.22222222 11:0.16666667 12:0.14285714 13:0.1 14:0.45454545 15:0.22222222 16:0.57142857 17:0.14285714 18:0.125 20:0.11111111 21:0.14285714 22:0.75 24:0.2 25:0.2 33:0.25 37:0.33333333 38:0.25 41:0.2 42:0.4 43:0.25 44:0.25 47:0.25 48:0.75 49:0.25 53:0.25 62:0.33333333 65:1 70:0.66666667 72:0.47368421 76:1 80:1 83:1 85:1 89:1 92:1 95:1 97:1 101:1 105:1 107:1 112:1 113:1 116:1 119:1 123:1 124:1 130:1 135:1 146:1 165:0.3234853 166:0.095387841 167:0.22580645 
2 1:0.58121897 2:0.49410608 3:0.4669952 4:0.46511757 5:0.41176471 6:0.35294118 7:0.47058824 8:0.38888889 9:0.11111111 10:0.4 12:0.28571429 13:0.2 15:0.22222222 16:0.28571429 17:0.42857143 19:0.44444444 20:0.11111111 21:0.14285714 22:0.375 23:0.22222222 24:0.1 26:0.16666667 30:0.2 31:0.25 36:0.25 38:0.25 39:0.125 41:0.2 46:0.5 51:0.5 53:0.25 56:0.5 57:0.2 58:0.2 60:0.25 63:0.33333333 64:0.25 66:0.25 67:0.2 70:0.33333333 72:0.47368421 76:1 83:1 87:1 93:1 95:1 97:1 100:1 102:1 105:1 109:1 112:1 114:1 116:1 120:1 124:1 129:1 130:1 134:1 141:1 142:1 163:1 165:0.19213773 166:0.050314465 167:0.1191067 
0.4307368992916341 1:0.51111903 2:0.36818797 3:0.57813359 4:0.53431273 5:0.41176471 6:0.35294118 7:0.52941176 8:0.33333333 9:0.11111111 10:0.2 11:0.33333333 12:0.28571429 13:0.1 14:0.27272727 15:0.33333333 17:0.57142857 19:0.22222222 20:0.33333333 21:0.14285714 22:0.25 23:0.11111111 24:0.1 26:0.16666667 30:0.2 32:0.5 41:0.2 42:0.4 44:0.25 46:0.25 47:0.25 50:0.25 51:0.25 52:0.25 53:0.25 58:0.4 59:0.5 60:0.25 62:0.33333333 65:0.5 67:0.2 71:0.25 72:0.52631579 75:1 77:1 79:1 81:1 88:1 93:1 95:1 108:1 109:1 115:1 120:1 123:1 126:1 131:1 134:1 149:1 164:1 165:0.19301241 166:0.052410901 167:0.12406948 
2 1:0.56494924 2:0.75020631 3:0.58121897 4:0.61085969 5:0.17647059 6:0.41176471 7:0.47058824 8:0.55555556 10:0.1 11:0.16666667 12:0.14285714 14:0.27272727 15:0.44444444 16:0.14285714 17:0.42857143 18:0.125 19:0.11111111 20:0.33333333 22:0.375 23:0.22222222 24:0.4 35:0.25 37:0.33333333 42:0.2 43:0.25 44:0.5 45:0.16666667 46:0.25 51:0.25 52:0.25 53:0.25 58:0.2 59:0.5 60:0.25 65:0.5 66:0.25 68:0.16666667 70:0.33333333 71:0.5 72:0.52631579 76:1 78:1 83:1 86:1 88:1 94:1 98:1 100:1 104:1 110:1 111:1 114:1 121:1 123:1 125:1 132:1 137:1 147:1 151:1 165:0.77246286 166:0.13207547 167:0.93333333 
2 1:0.3431175 2:0.49556677 3:0.36377161 4:0.49718818 5:0.47058824 6:0.47058824 7:0.35294118 8:0.33333333 9:0.22222222 10:0.2 11:0.33333333 12:0.28571429 13:0.4 14:0.18181818 15:0.22222222 16:0.14285714 17:0.28571429 18:0.25 20:0.11111111 22:0.375 23:0.22222222 24:0.1 25:0.2 27:0.25 30:0.2 32:0.25 37:0.33333333 38:0.25 39:0.25 41:0.4 42:0.2 44:0.25 45:0.16666667 48:0.25 52:0.25 53:0.25 54:0.25 55:0.25 64:0.25 65:0.25 68:0.16666667 70:0.33333333 72:0.47368421 76:1 81:1 85:1 87:1 93:1 103:1 105:1 108:1 110:1 116:1 121:1 126:1 130:1 136:1 159:1 165:0.76058969 166:0.10272537 167:0.72592593 
2 1:0.48798757 2:0.36657721 3:0.30530944 4:0.36859638 5:0.35294118 6:0.23529412 7:0.35294118 8:0.66666667 9:0.22222222 11:0.16666667 12:0.28571429 14:0.090909091 15:0.22222222 16:0.28571429 17:0.42857143 19:0.22222222 20:0.11111111 21:0.14285714 22:0.5 23:0.11111111 24:0.6 27:0.25 28:0.33333333 34:0.25 36:0.25 42:0.2 44:0.25 47:0.25 49:0.5 50:0.25 53:0.25 56:0.5 60:0.25 65:0.25 66:0.25 67:0.2 70:1 71:0.25 72:0.26315789 76:1 78:1 80:1 81:1 86:1 89:1 96:1 98:1 99:1 103:1 108:1 109:1 115:1 121:1 123:1 125:1 127:1 158:1 165:0.30149374 166:0.059748428 167:0.42222222 
2 1:0.36377161 2:0.56671845 3:0.30530944 4:0.44426171 5:0.41176471 6:0.35294118 7:0.41176471 8:0.44444444 9:0.11111111 10:0.1 11:0.16666667 12:0.42857143 13:0.2 14:0.18181818 15:0.22222222 16:0.14285714 17:0.42857143 19:0.33333333 20:0.11111111 21:0.14285714 22:0.375 23:0.11111111 24:0.3 27:0.25 29:0.14285714 32:0.25 36:0.25 37:0.33333333 42:0.2 43:0.25 46:0.5 49:0.25 50:0.25 51:0.25 53:0.25 56:0.5 57:0.2 60:0.25 64:0.25 65:0.25 66:0.25 68:0.16666667 69:0.25 70:0.66666667 72:0.42105263 74:1 82:1 84:1 93:1 96:1 99:1 103:1 104:1 108:1 109:1 114:1 121:1 123:1 128:1 150:1 165:0.30121104 166:0.059748428 167:0.42222222 
0.8705798339421588 1:0.29706882 2:0.055258236 3:0.36162238 4:0.18172659 5:0.64705882 6:0.23529412 7:0.23529412 8:0.5 9:0.55555556 10:0.2 11:0.33333333 12:0.28571429 14:0.27272727 16:0.28571429 17:0.28571429 19:0.11111111 20:0.11111111 21:0.57142857 23:0.11111111 24:0.3 25:0.4 26:0.16666667 27:0.25 28:0.33333333 30:0.4 32:0.25 34:0.25 37:0.66666667 43:0.5 49:0.25 50:0.25 51:0.25 56:0.25 62:0.33333333 63:0.33333333 68:0.16666667 69:0.25 71:0.25 72:0.15789474 76:1 77:1 81:1 85:1 91:1 95:1 97:1 101:1 103:1 114:1 116:1 118:1 122:1 125:1 128:1 138:1 139:1 150:1 165:0.15056305 166:0.028301887 167:0.23076923 
2 1:0.26150233 2:0.29885716 3:0.38667873 4:0.21823453 5:0.58823529 6:0.29411765 7:0.23529412 8:0.5 9:0.44444444 10:0.2 11:0.33333333 12:0.14285714 13:0.2 14:0.18181818 16:0.28571429 17:0.14285714 19:0.22222222 20:0.11111111 21:0.42857143 22:0.125 24:0.5 25:0.2 26:0.33333333 29:0.14285714 30:0.2 34:0.5 38:0.5 41:0.2 43:0.25 49:0.5 50:0.25 56:0.25 58:0.2 60:0.25 62:0.66666667 63:0.33333333 65:0.25 69:0.5 70:0.33333333 72:0.21052632 74:1 78:1 80:1 88:1 100:1 102:1 105:1 106:1 109:1 111:1 117:1 121:1 122:1 124:1 143:1 165:0.15375338 166:0.038784067 167:0.31623932 
1.114153269789694 1:0.59505313 2:0.4197398 3:0.38983471 4:0.43787432 5:0.58823529 6:0.17647059 7:0.58823529 8:0.27777778 9:0.11111111 10:0.2 11:0.66666667 12:0.42857143 13:0.1 14:0.090909091 15:0.22222222 17:0.71428571 19:0.44444444 21:0.28571429 22:0.125 24:0.2 27:0.25 30:0.2 32:0.5 34:0.5 36:0.25 37:0.33333333 38:0.25 41:0.2 42:0.2 44:0.25 46:0.25 52:0.75 53:0.5 56:0.5 57:0.2 61:0.66666667 65:0.25 69:0.25 72:0.42105263 73:1 78:1 80:1 85:1 88:1 91:1 95:1 97:1 108:1 109:1 114:1 121:1 126:1 127:1 135:1 165:0.19841802 166:0.081761006 167:0.66666667 
2 1:0.43600961 2:0.35478644 3:0.57432306 4:0.33046537 5:0.47058824 6:0.41176471 7:0.17647059 8:0.55555556 9:0.33333333 10:0.1 11:0.16666667 12:0.28571429 13:0.1 15:0.11111111 16:0.85714286 17:0.14285714 18:0.125 20:0.11111111 21:0.28571429 22:0.75 23:0.11111111 24:0.1 25:0.2 28:0.33333333 30:0.2 32:0.25 36:0.5 40:0.25 43:0.25 47:0.25 48:1 49:0.25 51:0.25 64:0.25 66:0.25 71:0.25 72:0.26315789 73:1 78:1 80:1 81:1 86:1 90:1 91:1 97:1 103:1 108:1 110:1 112:1 120:1 135:1 136:1 163:1 165:0.20140253 166:0.092243187 167:0.75213675 
2 1:0.480906 2:0.51131516 3:0.59203639 4:0.64983426 5:0.11764706 6:0.52941176 7:0.47058824 8:0.5 10:0.2 13:0.1 14:0.18181818 15:0.33333333 16:0.42857143 18:0.375 19:0.22222222 20:0.33333333 22:0.375 23:0.33333333 24:0.3 30:0.2 39:0.125 42:0.2 43:0.25 45:0.16666667 46:0.25 47:0.25 48:0.25 49:0.5 55:0.5 58:0.2 60:0.25 64:0.25 66:0.25 67:0.2 68:0.16666667 70:0.66666667 71:0.25 72:0.63157895 73:1 80:1 83:1 90:1 95:1 102:1 105:1 111:1 113:1 115:1 120:1 126:1 129:1 141:1 142:1 165:0.9738446 166:0.099580713 167:0.77235772 
0.7732786761044158 1:0.38667873 2:0.17503531 3:0.5038825 4:0.28573165 5:0.41176471 6:0.23529412 7:0.35294118 8:0.61111111 9:0.11111111 10:0.3 11:0.33333333 12:0.14285714 13:0.3 16:0.28571429 17:0.14285714 19:0.22222222 20:0.33333333 21:0.14285714 22:0.25 23:0.22222222 24:0.5 28:0.33333333 29:0.28571429 30:0.2 34:0.25 35:0.25 37:0.33333333 38:0.25 39:0.125 40:0.25 43:0.25 49:0.25 52:0.25 58:0.4 59:0.25 60:0.25 61:0.33333333 64:0.25 67:0.2 70:0.33333333 71:0.25 72:0.26315789 73:1 83:1 87:1 90:1 96:1 99:1 114:1 117:1 119:1 128:1 160:1 165:0.43459816 166:0.073375262 167:0.56910569 
1.117616278724725 1:0.42509053 2:0.54577863 3:0.59505313 4:0.59940168 5:0.23529412 6:0.70588235 7:0.23529412 8:0.44444444 10:0.1 11:0.16666667 12:0.28571429 13:0.3 14:0.45454545 15:0.22222222 16:0.42857143 17:0.14285714 18:0.25 20:0.11111111 22:0.5 23:0.11111111 24:0.2 30:0.2 32:0.25 36:0.25 37:0.33333333 39:0.125 40:0.25 41:0.4 42:0.2 43:0.25 45:0.16666667 47:0.25 48:0.75 53:0.25 55:0.5 60:0.25 64:0.25 65:0.25 71:0.25 72:0.57894737 74:1 81:1 84:1 88:1 92:1 100:1 107:1 110:1 112:1 117:1 119:1 123:1 126:1 128:1 145:1 160:1 165:0.97828802 166:0.049266247 167:0.44761905 
0.218228014431053 1:0.93095184 2:0.32800155 3:0.40604948 4:0.63298064 5:0.35294118 6:0.52941176 7:0.41176471 8:0.33333333 9:0.11111111 10:0.3 11:0.16666667 12:0.14285714 13:0.2 14:0.18181818 15:0.44444444 16:0.28571429 17:0.14285714 18:0.375 19:0.11111111 20:0.22222222 21:0.14285714 22:0.25 23:0.11111111 24:0.1 26:0.16666667 30:0.2 31:0.25 35:0.25 36:0.25 38:0.25 39:0.125 41:0.2 42:0.2 43:0.25 45:0.5 46:0.25 49:0.25 53:0.25 55:0.25 56:0.25 59:0.25 62:0.33333333 64:0.25 65:0.25 68:0.16666667 69:0.25 72:0.57894737 73:1 79:1 81:1 90:1 93:1 95:1 97:1 109:1 115:1 118:1 127:1 134:1 135:1 157:1 162:1 165:0.98222692 166:0.062893082 167:0.57142857 
2 1:0.38667873 2:0.47446658 3:0.3431175 4:0.47411639 5:0.52941176 6:0.35294118 7:0.47058824 8:0.27777778 9:0.44444444 10:0.2 11:0.5 13:0.2 14:0.27272727 15:0.11111111 16:0.14285714 17:0.28571429 18:0.125 19:0.22222222 20:0.22222222 21:0.14285714 22:0.125 23:0.22222222 24:0.1 25:0.2 26:0.33333333 27:0.25 30:0.4 32:0.25 33:0.25 35:0.25 38:0.25 40:0.25 41:0.2 42:0.2 43:0.25 46:0.25 50:0.5 55:0.25 56:0.25 59:0.25 62:0.33333333 64:0.25 67:0.2 68:0.16666667 69:0.25 72:0.47368421 76:1 78:1 83:1 85:1 87:1 92:1 96:1 98:1 100:1 102:1 105:1 107:1 109:1 113:1 118:1 125:1 127:1 144:1 152:1 165:0.98386012 166:0.06918239 167:0.62857143 
0.146001590074153 1:0.53396363 2:0.71873253 3:0.53570905 4:0.5506369 5:0.52941176 6:0.41176471 7:0.47058824 8:0.22222222 9:0.33333333 10:0.2 11:0.33333333 12:0.14285714 13:0.3 14:0.090909091 15:0.33333333 16:0.14285714 17:0.28571429 18:0.25 19:0.22222222 20:0.22222222 21:0.14285714 22:0.375 25:0.2 27:0.25 30:0.2 33:0.25 35:0.25 36:0.25 38:0.25 39:0.25 41:0.2 42:0.2 44:0.25 46:0.5 50:0.25 53:0.25 56:0.25 59:0.5 62:0.33333333 64:0.5 65:0.25 72:0.52631579 75:1 78:1 81:1 87:1 92:1 96:1 97:1 101:1 104:1 107:1 113:1 117:1 119:1 124:1 146:1 148:1 152:1 154:1 160:1 165:1 166:0.10062893 167:0.91428571 
1.373690960081279 1:0.59203639 2:0.23362553 3:0.49911361 4:0.36378913 5:0.58823529 6:0.29411765 7:0.41176471 8:0.33333333 9:0.33333333 10:0.3 11:0.16666667 12:0.28571429 13:0.3 15:0.33333333 17:0.28571429 19:0.11111111 20:0.44444444 21:0.28571429 22:0.375 23:0.11111111 26:0.16666667 27:0.25 28:0.33333333 29:0.42857143 35:0.25 36:0.25 38:0.25 39:0.125 42:0.2 44:0.25 47:0.5 50:0.25 51:0.25 56:0.25 59:0.5 65:0.25 66:0.5 68:0.16666667 72:0.36842105 75:1 82:1 86:1 90:1 92:1 101:1 107:1 109:1 115:1 120:1 123:1 126:1 128:1 144:1 164:1 165:0.8681352 166:0.12264151 167:0.82394366 
0.9798677532126426 1:0.11236237 2:0.66900904 3:0.61759707 4:0.59028948 5:0.35294118 6:0.52941176 7:0.47058824 8:0.27777778 9:0.22222222 11:0.33333333 12:0.28571429 13:0.1 14:0.45454545 15:0.22222222 16:0.28571429 18:0.5 19:0.22222222 20:0.11111111 21:0.42857143 22:0.125 23:0.11111111 25:0.2 28:0.33333333 33:0.25 34:0.25 36:0.25 40:0.25 41:0.2 42:0.2 43:0.25 47:0.25 55:0.5 57:0.2 62:0.33333333 63:0.33333333 65:0.25 72:0.63157895 75:1 81:1 85:1 91:1 96:1 97:1 108:1 111:1 114:1 117:1 118:1 123:1 125:1 151:1 165:0.19187109 166:0.017819706 167:0.18478261 
2 1:0.69503483 2:0.34489887 3:0.61841691 4:0.57614571 5:0.41176471 6:0.23529412 7:0.70588235 8:0.27777778 9:0.11111111 10:0.2 11:0.5 12:0.14285714 13:0.1 15:0.33333333 16:0.14285714 17:0.71428571 18:0.125 19:0.33333333 20:0.22222222 22:0.25 23:0.22222222 24:0.1 27:0.25 30:0.2 34:0.25 35:0.25 36:0.25 38:0.25 41:0.2 44:0.25 46:0.5 51:0.5 52:0.5 53:0.25 56:0.5 59:0.25 60:0.25 66:0.25 68:0.16666667 71:0.25 72:0.57894737 75:1 77:1 79:1 81:1 88:1 93:1 95:1 97:1 101:1 104:1 115:1 120:1 124:1 134:1 140:1 163:1 165:0.30781094 166:0.062893082 167:0.65217391 
2 1:0.44527437 2:0.61752908 3:0.50282817 4:0.45920587 5:0.52941176 6:0.47058824 7:0.29411765 8:0.33333333 9:0.33333333 10:0.2 11:0.5 13:0.3 14:0.18181818 15:0.11111111 16:0.42857143 17:0.14285714 18:0.25 19:0.11111111 20:0.11111111 21:0.28571429 22:0.375 24:0.1 25:0.2 26:0.16666667 31:0.25 32:0.25 34:0.25 35:0.25 38:0.5 40:0.25 41:0.4 43:0.25 45:0.16666667 48:0.5 51:0.25 55:0.25 59:0.25 62:0.66666667 64:0.25 65:0.5 69:0.25 72:0.42105263 76:1 78:1 82:1 85:1 89:1 93:1 105:1 110:1 111:1 120:1 123:1 124:1 142:1 147:1 164:1 165:0.5367964 166:0.075471698 167:0.7826087 
2 1:0.42141644 2:0.58081916 3:0.27826239 4:0.33614158 5:0.47058824 6:0.47058824 7:0.17647059 8:0.5 9:0.22222222 10:0.3 11:0.16666667 12:0.28571429 13:0.2 14:0.18181818 16:0.71428571 17:0.28571429 19:0.11111111 21:0.28571429 22:0.5 23:0.11111111 24:0.1 25:0.2 26:0.16666667 30:0.4 31:0.25 34:0.25 36:0.25 40:0.25 43:0.5 48:0.5 51:0.5 56:0.25 63:0.33333333 64:0.5 70:0.33333333 72:0.31578947 76:1 78:1 80:1 82:1 84:1 91:1 96:1 100:1 102:1 105:1 107:1 111:1 118:1 162:1 165:0.80253055 166:0.045073375 167:0.61428571 
2 1:0.36162238 2:0.4197398 3:0.38580469 4:0.30169743 5:0.41176471 6:0.29411765 7:0.29411765 8:0.61111111 9:0.22222222 10:0.2 11:0.16666667 12:0.28571429 13:0.2 14:0.18181818 15:0.11111111 16:0.14285714 17:0.14285714 19:0.22222222 20:0.22222222 21:0.28571429 22:0.25 23:0.11111111 24:0.5 26:0.16666667 28:0.33333333 30:0.4 34:0.25 36:0.25 37:0.33333333 38:0.25 41:0.2 42:0.2 46:0.25 49:0.25 51:0.25 56:0.25 58:0.2 59:0.25 62:0.33333333 64:0.25 68:0.16666667 69:0.5 71:0.25 72:0.26315789 76:1 78:1 86:1 93:1 115:1 118:1 126:1 127:1 157:1 162:1 165:0.51105577 166:0.23165618 167:0.5175644 
2 1:0.38712304 2:0.15254377 3:0.24057058 4:0.13566858 5:0.58823529 6:0.29411765 7:0.17647059 8:0.55555556 9:0.22222222 10:0.1 12:1 13:0.2 14:0.090909091 15:0.11111111 16:0.28571429 17:0.28571429 20:0.11111111 21:0.57142857 22:0.375 23:0.22222222 28:0.66666667 30:0.2 36:0.5 39:0.125 41:0.2 43:0.25 44:0.25 48:0.25 53:0.5 63:0.66666667 64:0.25 65:0.25 66:0.25 68:0.16666667 72:0.15789474 74:1 78:1 86:1 88:1 93:1 96:1 97:1 99:1 107:1 110:1 118:1 123:1 135:1 145:1 165:0.50769357 166:0.22431866 167:0.50117096 
1.203716511890952 1:0.78011255 2:0.34392851 3:0.76730194 4:0.76041116 5:0.17647059 6:0.58823529 7:0.52941176 8:0.33333333 11:0.33333333 12:0.14285714 13:0.2 14:0.36363636 15:0.44444444 16:0.14285714 18:0.5 19:0.33333333 20:0.22222222 21:0.14285714 22:0.25 24:0.2 33:0.5 40:0.25 41:0.2 42:0.4 43:0.25 45:0.33333333 46:0.25 47:0.25 49:0.25 54:0.25 55:0.5 57:0.4 58:0.2 59:0.5 62:0.33333333 65:0.25 66:0.25 72:0.73684211 74:1 82:1 88:1 93:1 94:1 98:1 108:1 110:1 111:1 114:1 115:1 118:1 128:1 147:1 151:1 157:1 165:0.50155388 166:0.20964361 167:0.46838407 
0.04781680761236273 1:0.57906094 2:0.43830752 3:0.5128194 4:0.49944946 5:0.29411765 6:0.29411765 7:0.52941176 8:0.5 10:0.3 12:0.28571429 13:0.2 15:0.44444444 17:0.42857143 18:0.125 19:0.11111111 20:0.44444444 22:0.25 23:0.33333333 24:0.3 29:0.14285714 30:0.2 37:0.33333333 39:0.25 42:0.2 44:0.25 46:0.25 47:0.5 51:0.25 53:0.5 56:0.25 59:0.25 60:0.25 64:0.25 66:0.25 68:0.16666667 70:0.33333333 71:0.25 72:0.47368421 75:1 78:1 80:1 81:1 88:1 93:1 96:1 98:1 100:1 107:1 112:1 119:1 126:1 137:1 146:1 165:0.49570656 166:0.19496855 167:0.43559719 
0.3203452560281913 1:0.44123508 2:0.081855283 3:0.45557556 4:0.19723805 5:0.58823529 6:0.41176471 7:0.058823529 8:0.55555556 9:0.44444444 10:0.4 12:0.14285714 13:0.3 14:0.090909091 15:0.11111111 16:0.42857143 20:0.11111111 21:0.42857143 22:0.375 24:0.4 25:0.2 26:0.5 29:0.14285714 30:0.2 31:0.5 38:0.5 42:0.2 43:0.25 47:0.25 49:0.5 61:0.33333333 64:0.5 65:0.25 70:1 72:0.15789474 76:1 78:1 81:1 86:1 87:1 89:1 94:1 97:1 106:1 110:1 112:1 115:1 118:1 126:1 128:1 133:1 153:1 157:1 162:1 165:0.44176503 166:0.16561845 167:0.37002342 
2 1:0.23619655 2:0.41837763 3:0.41846411 4:0.26738365 5:0.70588235 6:0.17647059 7:0.41176471 8:0.33333333 9:0.55555556 10:0.3 11:0.5 12:0.14285714 13:0.2 14:0.090909091 16:0.14285714 17:0.42857143 19:0.11111111 20:0.22222222 21:0.14285714 23:0.33333333 24:0.2 25:0.2 26:0.33333333 27:0.5 30:0.4 31:0.25 34:0.25 35:0.25 38:0.5 41:0.4 49:0.25 50:0.5 51:0.25 56:0.25 60:0.25 62:0.33333333 68:0.16666667 71:0.5 72:0.26315789 73:1 78:1 79:1 80:1 83:1 87:1 98:1 99:1 105:1 106:1 109:1 111:1 117:1 120:1 124:1 143:1 156:1 161:1 163:1 165:0.43796427 166:0.15618449 167:0.34894614 
0.8118562382746456 1:0.4441937 2:0.59501401 3:0.36162238 4:0.4304734 5:0.35294118 6:0.47058824 7:0.35294118 8:0.44444444 10:0.3 11:0.33333333 12:0.14285714 13:0.2 14:0.18181818 15:0.22222222 16:0.28571429 17:0.28571429 19:0.11111111 20:0.33333333 21:0.28571429 22:0.5 24:0.2 29:0.14285714 30:0.2 31:0.25 32:0.25 34:0.25 36:0.25 40:0.5 42:0.2 43:0.25 47:0.5 48:0.25 51:0.25 53:0.25 56:0.25 59:0.5 60:0.25 61:0.66666667 64:0.25 65:0.25 66:0.25 69:0.25 72:0.47368421 75:1 78:1 80:1 85:1 87:1 90:1 94:1 97:1 100:1 105:1 108:1 111:1 117:1 118:1 122:1 126:1 128:1 129:1 137:1 141:1 165:0.32891175 166:0.139413 167:0.31147541 
2 1:0.78507348 2:0.31271494 3:0.69772966 4:0.5463827 5:0.29411765 6:0.29411765 7:0.58823529 8:0.44444444 9:0.11111111 11:0.33333333 12:0.28571429 13:0.1 15:0.33333333 16:0.14285714 17:0.14285714 18:0.25 19:0.33333333 20:0.44444444 21:0.14285714 22:0.5 23:0.22222222 24:0.1 27:0.25 33:0.5 42:0.2 46:0.5 47:0.25 49:0.25 53:0.25 54:0.25 56:0.25 57:0.2 58:0.2 59:1 62:0.33333333 65:0.25 66:0.25 68:0.33333333 71:0.25 72:0.52631579 73:1 77:1 79:1 86:1 87:1 90:1 93:1 95:1 97:1 100:1 103:1 108:1 111:1 114:1 116:1 120:1 123:1 126:1 128:1 129:1 134:1 135:1 151:1 164:1 165:0.32584191 166:0.13207547 167:0.29508197 
2 1:0.49372418 2:0.63499812 3:0.41846411 4:0.55003101 5:0.41176471 6:0.35294118 7:0.58823529 8:0.27777778 9:0.22222222 10:0.1 11:0.5 13:0.3 14:0.18181818 16:0.28571429 17:0.28571429 18:0.125 19:0.44444444 20:0.33333333 22:0.25 23:0.33333333 27:0.25 31:0.25 34:0.5 35:0.25 38:0.5 39:0.125 41:0.2 43:0.25 48:0.25 52:0.5 54:0.25 56:0.5 57:0.2 58:0.2 59:0.25 64:0.25 65:0.25 67:0.2 68:0.16666667 72:0.57894737 74:1 85:1 90:1 93:1 98:1 99:1 102:1 107:1 109:1 114:1 117:1 120:1 123:1 125:1 144:1 150:1 161:1 164:1 165:0.25991338 166:0.081761006 167:0.18266979 
2 1:0.61370245 2:0.35473634 3:0.43600961 4:0.3653846 5:0.41176471 6:0.35294118 7:0.35294118 8:0.5 9:0.11111111 10:0.3 12:0.42857143 13:0.1 15:0.33333333 16:0.42857143 17:0.28571429 19:0.22222222 20:0.22222222 21:0.42857143 22:0.375 23:0.11111111 24:0.1 28:0.33333333 30:0.2 31:0.25 36:0.25 37:0.33333333 38:0.25 43:0.25 44:0.25 46:0.25 47:0.25 48:0.25 51:0.5 57:0.2 58:0.2 59:0.25 61:0.33333333 63:0.66666667 64:0.25 66:0.25 69:0.25 72:0.36842105 74:1 79:1 83:1 84:1 89:1 94:1 99:1 106:1 112:1 113:1 115:1 120:1 163:1 165:0.22219816 166:0.059748428 167:0.13348946 
2 1:0.46632369 2:0.31127483 3:0.61054367 4:0.41024574 5:0.64705882 6:0.35294118 7:0.35294118 8:0.27777778 9:0.33333333 10:0.4 11:0.16666667 12:0.28571429 13:0.3 14:0.090909091 15:0.33333333 17:0.42857143 18:0.125 19:0.11111111 20:0.11111111 21:0.28571429 22:0.125 23:0.11111111 24:0.1 28:0.66666667 30:0.4 32:0.25 38:0.5 39:0.125 41:0.2 42:0.2 44:0.5 46:0.25 50:0.25 51:0.5 54:0.25 58:0.2 60:0.25 61:0.33333333 62:0.33333333 64:0.25 70:0.33333333 72:0.36842105 76:1 86:1 87:1 89:1 91:1 94:1 98:1 101:1 103:1 109:1 113:1 115:1 120:1 126:1 133:1 138:1 152:1 163:1 165:0.20874933 166:0.027253669 167:0.06088993 
2 1:0.61054367 2:0.71873253 3:0.20233963 4:0.62675777 5:0.23529412 6:0.47058824 7:0.47058824 8:0.44444444 10:0.1 11:0.16666667 12:0.28571429 13:0.1 14:0.090909091 15:0.33333333 16:0.57142857 17:0.14285714 18:0.375 19:0.22222222 20:0.22222222 21:0.14285714 22:0.5 23:0.22222222 30:0.2 35:0.25 42:0.2 43:0.25 45:0.16666667 46:0.25 47:0.25 48:0.75 52:0.25 55:0.25 56:0.25 57:0.2 59:0.25 63:0.33333333 64:0.25 66:0.25 72:0.57894737 73:1 81:1 86:1 93:1 96:1 98:1 100:1 102:1 110:1 121:1 165:0.20056308 166:0.0073375262 167:0.016393443 
1.894213262575015 1:0.48798757 2:0.57433735 3:0.15924309 4:0.32160029 5:0.41176471 6:0.47058824 7:0.23529412 8:0.5 10:0.3 12:0.57142857 13:0.2 14:0.27272727 15:0.22222222 16:0.14285714 18:0.125 19:0.22222222 20:0.11111111 21:0.71428571 22:0.25 24:0.2 29:0.28571429 30:0.2 36:0.25 37:0.33333333 39:0.125 46:0.25 47:0.25 57:0.2 60:0.25 61:0.66666667 63:1 66:0.5 69:0.25 70:0.33333333 72:0.36842105 76:1 77:1 81:1 84:1 93:1 96:1 101:1 104:1 107:1 119:1 125:1 129:1 165:0.28085241 166:0.071278826 167:0.22895623 
2 1:0.40140961 2:0.41115224 3:0.72397299 4:0.49206552 5:0.52941176 6:0.41176471 7:0.41176471 8:0.27777778 9:0.33333333 10:0.3 11:0.16666667 12:0.28571429 13:0.1 14:0.18181818 15:0.33333333 16:0.14285714 17:0.42857143 19:0.22222222 20:0.22222222 21:0.14285714 22:0.375 23:0.11111111 25:0.2 26:0.16666667 28:0.33333333 30:0.4 34:0.25 38:0.25 42:0.4 43:0.25 44:0.5 47:0.25 48:0.25 50:0.25 51:0.25 52:0.25 56:0.25 58:0.2 59:0.5 61:0.33333333 64:0.25 65:0.25 67:0.2 72:0.47368421 73:1 78:1 79:1 84:1 87:1 92:1 95:1 97:1 103:1 107:1 110:1 113:1 116:1 120:1 123:1 126:1 128:1 129:1 136:1 145:1 152:1 164:1 165:0.43208063 166:0.14675052 167:0.47138047 
2 1:0.51404301 2:0.55537639 3:0.42214227 4:0.62328055 5:0.35294118 6:0.17647059 7:0.82352941 8:0.27777778 10:0.3 11:0.33333333 12:0.14285714 14:0.090909091 15:0.33333333 17:0.71428571 19:0.55555556 20:0.33333333 23:0.44444444 24:0.1 30:0.2 32:0.25 42:0.2 44:0.25 46:0.25 47:0.25 51:0.5 52:0.5 53:0.25 56:0.5 57:0.2 58:0.4 60:0.25 67:0.6 71:0.25 72:0.63157895 73:1 79:1 83:1 88:1 93:1 95:1 97:1 99:1 108:1 112:1 116:1 118:1 122:1 126:1 134:1 153:1 165:0.43918055 166:0.17085954 167:0.54882155 
2 1:0.40604948 2:0.64548745 3:0.66315036 4:0.56552403 5:0.52941176 6:0.41176471 7:0.52941176 8:0.16666667 9:0.22222222 10:0.4 11:0.33333333 12:0.14285714 13:0.2 14:0.090909091 15:0.44444444 16:0.14285714 17:0.57142857 18:0.125 19:0.22222222 20:0.11111111 21:0.14285714 22:0.125 23:0.11111111 25:0.2 27:0.25 29:0.14285714 30:0.2 32:0.5 39:0.125 41:0.2 43:0.25 44:0.5 46:0.25 50:0.25 51:0.5 52:0.25 57:0.2 58:0.2 59:0.25 61:0.33333333 65:0.25 72:0.57894737 74:1 87:1 90:1 92:1 102:1 105:1 109:1 111:1 114:1 116:1 120:1 123:1 124:1 142:1 151:1 164:1 165:0.98516361 166:0.28197065 167:0.93402778 
0.473016208717249 1:0.52319537 2:0.64425136 3:0.57906094 4:0.53683012 5:0.47058824 6:0.52941176 7:0.35294118 8:0.27777778 9:0.11111111 10:0.5 12:0.28571429 13:0.4 14:0.18181818 15:0.33333333 16:0.14285714 17:0.14285714 18:0.125 19:0.22222222 20:0.22222222 21:0.14285714 22:0.25 23:0.11111111 28:0.33333333 29:0.14285714 30:0.4 38:0.25 39:0.25 41:0.4 43:0.25 44:0.25 46:0.25 47:0.25 51:0.25 57:0.2 58:0.2 59:0.5 61:0.33333333 64:0.25 65:0.25 72:0.52631579 73:1 80:1 82:1 85:1 88:1 92:1 96:1 97:1 100:1 102:1 105:1 107:1 109:1 111:1 114:1 117:1 119:1 124:1 141:1 144:1 151:1 160:1 165:0.98333543 166:0.278826 167:0.92361111 
2 1:0.57417768 2:0.044684074 3:0.57432306 4:0.30614636 5:0.35294118 6:0.41176471 7:0.23529412 8:0.61111111 9:0.11111111 10:0.1 11:0.33333333 12:0.14285714 13:0.1 14:0.18181818 15:0.22222222 16:0.42857143 20:0.44444444 21:0.57142857 22:0.5 24:0.3 31:0.25 35:0.5 37:0.33333333 40:0.25 42:0.4 43:0.25 47:0.5 48:0.5 59:0.25 60:0.5 61:0.33333333 62:0.33333333 63:0.33333333 64:0.25 65:0.5 69:0.5 70:0.33333333 72:0.31578947 74:1 79:1 80:1 85:1 89:1 93:1 96:1 101:1 103:1 104:1 110:1 112:1 120:1 123:1 138:1 140:1 164:1 165:0.75344107 166:0.18343816 167:0.60763889 
2 1:0.69503483 2:0.29270228 3:0.44527437 4:0.36698966 5:0.58823529 6:0.17647059 7:0.52941176 8:0.33333333 9:0.33333333 10:0.1 11:0.5 12:0.28571429 13:0.3 15:0.11111111 17:0.42857143 19:0.33333333 20:0.33333333 21:0.14285714 22:0.25 23:0.22222222 24:0.1 26:0.16666667 28:0.66666667 30:0.2 32:0.5 34:0.25 37:0.33333333 38:0.25 40:0.5 41:0.2 46:0.25 50:0.5 56:0.25 58:0.4 59:0.5 62:0.33333333 64:0.25 66:0.25 67:0.2 68:0.16666667 71:0.25 72:0.36842105 74:1 77:1 80:1 88:1 93:1 95:1 97:1 101:1 103:1 104:1 108:1 111:1 113:1 116:1 118:1 124:1 127:1 134:1 138:1 139:1 140:1 162:1 165:0.24931884 166:0.053459119 167:0.17708333 
2 1:0.53701896 2:0.35473634 3:0.3836975 4:0.44813334 5:0.41176471 6:0.35294118 7:0.47058824 8:0.38888889 9:0.22222222 10:0.3 11:0.16666667 12:0.14285714 13:0.2 14:0.090909091 15:0.11111111 16:0.28571429 17:0.42857143 19:0.33333333 20:0.22222222 22:0.375 23:0.22222222 24:0.2 27:0.25 28:0.33333333 29:0.14285714 30:0.2 34:0.25 37:0.33333333 38:0.25 39:0.125 41:0.2 42:0.2 44:0.25 50:0.25 51:0.5 57:0.2 58:0.4 59:0.25 60:0.25 65:0.25 67:0.2 70:0.66666667 72:0.47368421 75:1 77:1 82:1 89:1 93:1 95:1 103:1 105:1 106:1 110:1 111:1 113:1 121:1 123:1 126:1 129:1 134:1 136:1 139:1 147:1 165:0.25068998 166:0.055555556 167:0.18402778 
0.0199955800794677 1:0.28178205 2:0.67401643 3:0.42214227 4:0.39089058 5:0.82352941 6:0.41176471 7:0.29411765 8:0.11111111 9:0.77777778 10:0.6 11:0.16666667 13:0.5 15:0.11111111 16:0.14285714 17:0.14285714 18:0.125 19:0.33333333 22:0.125 24:0.1 25:0.2 26:0.83333333 27:0.25 29:0.57142857 30:0.2 34:0.25 38:1 39:0.125 43:0.25 46:0.25 49:0.25 50:0.25 54:0.25 56:0.25 57:0.2 70:0.33333333 72:0.36842105 73:1 77:1 81:1 84:1 87:1 89:1 91:1 98:1 100:1 105:1 108:1 113:1 115:1 118:1 128:1 129:1 133:1 157:1 162:1 165:0.22715208 166:0.018867925 167:0.0625 
2 1:0.37999556 2:0.43900782 3:0.59777282 4:0.3941955 5:0.47058824 6:0.47058824 7:0.23529412 8:0.44444444 9:0.22222222 10:0.3 12:0.28571429 13:0.3 14:0.18181818 15:0.22222222 16:0.28571429 17:0.28571429 19:0.11111111 20:0.11111111 21:0.14285714 22:0.5 24:0.3 26:0.16666667 29:0.28571429 30:0.2 36:0.25 37:0.33333333 38:0.25 39:0.125 41:0.2 42:0.2 43:0.25 44:0.25 47:0.25 48:0.25 50:0.25 53:0.25 56:0.25 59:0.25 61:0.33333333 65:0.5 66:0.25 70:0.33333333 72:0.36842105 75:1 80:1 83:1 86:1 89:1 91:1 94:1 97:1 105:1 106:1 110:1 115:1 120:1 123:1 126:1 132:1 164:1 165:0.86305987 166:0.24318658 167:0.93548387 
0.2873411831495236 1:0.30530944 2:0.39478033 3:0.68556354 4:0.33191818 5:0.41176471 6:0.23529412 7:0.41176471 8:0.55555556 9:0.33333333 10:0.1 11:0.16666667 12:0.28571429 13:0.2 14:0.090909091 16:0.28571429 17:0.28571429 18:0.125 19:0.11111111 20:0.33333333 22:0.25 23:0.44444444 24:0.3 25:0.2 28:0.66666667 30:0.2 33:0.25 37:0.33333333 38:0.25 39:0.125 41:0.2 43:0.25 48:0.25 50:0.25 52:0.25 54:0.25 56:0.25 60:0.5 65:0.25 67:0.2 68:0.33333333 70:0.33333333 71:0.5 72:0.31578947 75:1 78:1 84:1 87:1 92:1 96:1 98:1 101:1 102:1 104:1 106:1 111:1 113:1 115:1 119:1 123:1 124:1 165:0.84919917 166:0.22746331 167:0.875 
2 1:0.45557556 2:0.33444434 3:0.72397299 4:0.40045445 5:0.70588235 6:0.52941176 7:0.23529412 8:0.16666667 9:0.44444444 10:0.5 11:0.33333333 12:0.14285714 13:0.5 14:0.27272727 15:0.11111111 17:0.42857143 19:0.11111111 22:0.125 24:0.2 26:0.5 28:0.33333333 29:0.28571429 30:0.4 32:0.5 37:0.33333333 38:0.75 39:0.125 40:0.25 41:0.4 42:0.2 46:0.25 50:0.25 51:0.25 52:0.25 56:0.25 64:0.25 70:0.33333333 72:0.42105263 74:1 84:1 91:1 101:1 105:1 107:1 110:1 114:1 120:1 124:1 129:1 145:1 163:1 165:0.84180679 166:0.21907757 167:0.84274194 
0.17625177374104 1:0.78507348 2:0.29144913 3:0.53570905 4:0.33350733 5:0.52941176 6:0.35294118 7:0.29411765 8:0.44444444 9:0.22222222 10:0.1 11:0.16666667 12:0.71428571 13:0.2 14:0.18181818 15:0.22222222 16:0.14285714 17:0.42857143 18:0.125 20:0.11111111 21:0.28571429 22:0.25 23:0.22222222 24:0.1 25:0.2 28:0.33333333 30:0.2 33:0.25 36:0.25 37:0.33333333 39:0.125 41:0.4 42:0.2 44:0.5 53:0.75 55:0.25 59:0.25 62:0.33333333 65:0.25 66:0.25 68:0.16666667 72:0.31578947 74:1 78:1 86:1 87:1 90:1 92:1 95:1 97:1 100:1 104:1 107:1 115:1 119:1 124:1 128:1 135:1 137:1 140:1 146:1 165:0.82116974 166:0.19496855 167:0.75 
0.44502180657415 1:0.32158135 2:0.096296929 3:0.49110261 4:0.36050771 5:0.41176471 6:0.52941176 7:0.17647059 8:0.5 10:0.2 12:0.71428571 13:0.2 14:0.36363636 15:0.22222222 16:0.28571429 17:0.28571429 19:0.11111111 21:0.42857143 22:0.375 24:0.2 29:0.14285714 36:0.25 37:0.66666667 39:0.125 41:0.2 43:0.25 44:0.25 46:0.25 53:0.5 56:0.25 61:0.33333333 63:0.66666667 65:0.25 66:0.25 70:0.66666667 72:0.36842105 74:1 80:1 83:1 85:1 91:1 94:1 98:1 99:1 103:1 111:1 114:1 121:1 122:1 125:1 151:1 165:0.65237716 166:0.14675052 167:0.56451613 
2 1:0.53277974 2:0.39119325 3:0.47790352 4:0.411021 5:0.41176471 6:0.29411765 7:0.41176471 8:0.5 9:0.33333333 10:0.3 11:0.16666667 13:0.2 15:0.22222222 16:0.28571429 17:0.28571429 18:0.125 19:0.11111111 20:0.22222222 22:0.25 23:0.33333333 24:0.4 25:0.2 26:0.33333333 30:0.2 32:0.25 38:0.25 39:0.125 43:0.25 46:0.25 47:0.25 49:0.5 50:0.25 52:0.25 54:0.25 58:0.2 60:0.5 64:0.25 70:0.66666667 71:0.5 72:0.36842105 76:1 85:1 88:1 90:1 94:1 104:1 114:1 118:1 128:1 140:1 150:1 162:1 165:0.63574432 166:0.1278826 167:0.49193548 
0.1324469594288455 1:0.40717527 2:0.2102515 3:0.61463488 4:0.38608273 5:0.58823529 6:0.41176471 7:0.23529412 8:0.38888889 9:0.33333333 10:0.3 11:0.16666667 12:0.28571429 13:0.5 14:0.090909091 15:0.11111111 16:0.14285714 17:0.14285714 18:0.25 19:0.11111111 22:0.25 23:0.11111111 24:0.4 26:0.5 29:0.14285714 30:0.4 33:0.25 37:0.66666667 38:0.5 40:0.25 42:0.2 43:0.25 45:0.16666667 49:0.25 53:0.25 54:0.5 56:0.25 64:0.5 67:0.2 70:0.66666667 71:0.25 72:0.31578947 73:1 77:1 83:1 86:1 88:1 90:1 96:1 99:1 110:1 114:1 115:1 118:1 126:1 132:1 150:1 157:1 162:1 165:0.62865996 166:0.12054507 167:0.46370968 
1.167227514883937 1:0.3431175 2:0.31468251 3:0.38580469 4:0.3653844 5:0.47058824 6:0.41176471 7:0.23529412 8:0.5 9:0.22222222 10:0.3 12:0.28571429 13:0.2 14:0.18181818 15:0.11111111 16:0.42857143 17:0.42857143 18:0.125 21:0.14285714 22:0.25 23:0.33333333 24:0.3 28:0.33333333 29:0.28571429 30:0.2 38:0.25 39:0.125 42:0.2 43:0.25 45:0.16666667 49:0.25 51:0.5 53:0.25 65:0.25 70:0.66666667 72:0.31578947 76:1 78:1 82:1 85:1 92:1 96:1 98:1 101:1 102:1 106:1 113:1 115:1 118:1 122:1 152:1 157:1 165:0.5094579 166:0.099580713 167:0.38306452 
1.09577039511777 1:0.68762033 2:0.49703236 3:0.36906296 4:0.52240866 5:0.23529412 6:0.47058824 7:0.35294118 8:0.55555556 9:0.11111111 10:0.1 11:0.16666667 12:0.14285714 13:0.2 14:0.36363636 15:0.11111111 16:0.28571429 17:0.14285714 18:0.125 19:0.22222222 20:0.22222222 22:0.375 23:0.22222222 24:0.4 27:0.25 30:0.2 34:0.25 36:0.25 38:0.25 39:0.125 41:0.4 42:0.2 43:0.25 47:0.25 48:0.25 53:0.25 55:0.25 56:0.25 59:0.25 60:0.25 65:0.5 67:0.2 68:0.16666667 71:0.25 72:0.47368421 76:1 80:1 83:1 86:1 90:1 92:1 94:1 98:1 108:1 109:1 112:1 115:1 118:1 122:1 132:1 157:1 165:0.088400493 166:0.001048218 167:0.0040322581 
1.600805142697014 1:0.61358266 2:0.53820913 3:0.28178205 4:0.54217976 5:0.58823529 6:0.35294118 7:0.47058824 8:0.22222222 9:0.55555556 10:0.4 13:0.3 14:0.090909091 15:0.33333333 17:0.28571429 18:0.125 19:0.44444444 20:0.11111111 22:0.125 23:0.11111111 24:0.2 25:0.4 26:0.5 29:0.14285714 30:0.4 38:0.75 41:0.2 42:0.2 46:0.75 51:0.25 54:0.25 56:0.5 57:0.2 59:0.25 66:0.25 68:0.16666667 71:0.25 72:0.47368421 76:1 78:1 83:1 85:1 88:1 90:1 91:1 94:1 98:1 105:1 107:1 109:1 113:1 115:1 118:1 126:1 127:1 144:1 157:1 162:1 165:0.2240778 166:0.0041928721 167:0.015037594 
0.7677481575917419 1:0.52479099 2:0.31610325 3:0.69772966 4:0.54388918 5:0.76470588 6:0.47058824 7:0.41176471 9:0.77777778 10:0.5 13:0.4 14:0.27272727 15:0.22222222 17:0.28571429 18:0.125 19:0.44444444 25:0.4 26:0.66666667 29:0.14285714 30:0.6 38:1 41:0.4 42:0.2 46:0.5 50:0.25 51:0.25 54:0.25 56:0.5 57:0.2 72:0.52631579 75:1 79:1 81:1 88:1 89:1 91:1 99:1 106:1 110:1 111:1 114:1 116:1 118:1 125:1 131:1 147:1 151:1 162:1 165:0.22595292 166:0.0062893082 167:0.022556391 
1.404303562039774 1:0.34510107 2:0.38401897 3:0.44123508 4:0.48013715 5:0.11764706 6:0.41176471 7:0.41176471 8:0.66666667 11:0.16666667 14:0.18181818 15:0.22222222 16:0.57142857 17:0.14285714 19:0.11111111 20:0.55555556 21:0.14285714 22:0.625 23:0.33333333 24:0.3 35:0.25 42:0.2 43:0.25 46:0.25 47:0.25 48:0.25 56:0.25 59:0.5 60:0.5 62:0.33333333 65:0.5 68:0.5 70:0.66666667 72:0.47368421 74:1 80:1 83:1 85:1 90:1 93:1 96:1 101:1 102:1 106:1 112:1 115:1 121:1 122:1 126:1 127:1 153:1 158:1 165:0.53878678 166:0.1048218 167:0.37593985 
1.028361102359163 1:0.86189425 2:0.28524345 3:0.77120049 4:0.76214887 5:0.41176471 6:0.64705882 7:0.47058824 8:0.11111111 9:0.33333333 10:0.3 13:0.3 14:0.36363636 15:0.55555556 17:0.14285714 18:0.25 19:0.33333333 20:0.22222222 22:0.25 26:0.33333333 29:0.28571429 30:0.2 38:0.5 39:0.125 42:0.8 44:0.25 46:0.5 47:0.5 50:0.25 54:0.25 55:0.25 57:0.2 59:0.5 65:0.25 66:0.25 72:0.73684211 74:1 79:1 82:1 85:1 89:1 93:1 94:1 97:1 99:1 107:1 110:1 115:1 120:1 123:1 126:1 145:1 164:1 165:0.55878814 166:0.1278826 167:0.45864662 
0.8983958947297062 1:0.480906 2:0.45601813 3:0.53701896 4:0.51143329 5:0.23529412 6:0.41176471 7:0.41176471 8:0.55555556 9:0.11111111 10:0.1 11:0.33333333 13:0.1 14:0.18181818 16:0.71428571 17:0.28571429 18:0.125 19:0.22222222 20:0.22222222 22:0.5 23:0.33333333 24:0.2 26:0.16666667 30:0.2 33:0.25 34:0.25 40:0.25 43:0.75 48:0.75 49:0.25 50:0.25 52:0.25 55:0.25 56:0.5 60:0.25 64:0.25 65:0.25 67:0.2 68:0.33333333 70:0.33333333 71:0.25 72:0.47368421 76:1 80:1 81:1 86:1 90:1 93:1 95:1 97:1 100:1 105:1 110:1 111:1 115:1 118:1 134:1 137:1 142:1 147:1 157:1 165:0.63754352 166:0.14989518 167:0.53759398 
2 1:0.42214227 2:0.41844954 3:0.53277974 4:0.43091596 5:0.29411765 6:0.35294118 7:0.41176471 8:0.55555556 9:0.11111111 10:0.2 11:0.16666667 13:0.2 14:0.090909091 15:0.11111111 16:0.42857143 17:0.28571429 19:0.22222222 20:0.33333333 22:0.375 23:0.33333333 24:0.4 26:0.16666667 30:0.2 34:0.25 39:0.125 43:0.5 47:0.25 48:0.5 49:0.25 50:0.25 52:0.25 56:0.5 60:0.5 64:0.25 65:0.25 67:0.2 68:0.33333333 70:0.33333333 71:0.5 72:0.42105263 74:1 77:1 83:1 86:1 90:1 94:1 100:1 103:1 104:1 108:1 113:1 115:1 119:1 123:1 132:1 139:1 165:0.63941865 166:0.15199161 167:0.54511278 
0.3140120872327632 1:0.41846411 2:0.37088423 3:0.59203639 4:0.48663244 5:0.52941176 6:0.58823529 7:0.23529412 8:0.27777778 9:0.44444444 10:0.4 11:0.16666667 13:0.3 14:0.27272727 15:0.22222222 16:0.28571429 17:0.28571429 20:0.22222222 22:0.5 23:0.11111111 25:0.2 26:0.33333333 27:0.25 29:0.28571429 32:0.25 38:0.5 39:0.125 41:0.2 43:0.5 47:0.5 48:0.5 50:0.25 51:0.25 59:0.25 65:1 72:0.47368421 76:1 80:1 81:1 85:1 87:1 89:1 91:1 95:1 97:1 105:1 108:1 113:1 115:1 120:1 123:1 129:1 130:1 133:1 152:1 164:1 165:0.64598159 166:0.15932914 167:0.57142857 
0.3516006893076305 1:0.61321882 2:0.335578 3:0.69503483 4:0.54297384 5:0.70588235 6:0.52941176 7:0.35294118 8:0.055555556 9:0.44444444 10:0.6 11:0.33333333 13:0.3 14:0.27272727 15:0.33333333 17:0.57142857 19:0.11111111 20:0.11111111 22:0.125 26:0.5 27:0.25 29:0.28571429 30:0.4 32:0.25 34:0.25 38:0.5 40:0.25 41:0.2 42:0.4 44:0.5 47:0.25 50:0.5 51:0.5 56:0.25 59:0.25 65:0.25 72:0.52631579 73:1 82:1 84:1 89:1 91:1 99:1 104:1 106:1 113:1 115:1 120:1 123:1 124:1 129:1 148:1 152:1 164:1 165:0.74505086 166:0.17400419 167:0.62406015 
1.396645455367869 1:0.61054367 2:0.084967166 3:0.50195615 4:0.35887 5:0.58823529 6:0.23529412 7:0.41176471 8:0.38888889 9:0.44444444 10:0.2 11:0.16666667 12:0.28571429 13:0.1 14:0.18181818 15:0.22222222 17:0.42857143 19:0.22222222 20:0.22222222 21:0.28571429 22:0.125 23:0.22222222 24:0.2 25:0.2 26:0.33333333 30:0.4 35:0.25 37:0.33333333 38:0.25 41:0.2 42:0.2 44:0.5 50:0.5 53:0.25 57:0.2 58:0.2 59:0.25 60:0.25 62:0.33333333 63:0.33333333 66:0.25 67:0.2 69:0.5 72:0.31578947 76:1 79:1 83:1 86:1 87:1 90:1 92:1 95:1 97:1 101:1 104:1 106:1 110:1 111:1 118:1 126:1 132:1 135:1 147:1 162:1 165:0.76348961 166:0.19392034 167:0.69548872 
2 1:0.50195615 2:0.41515286 3:0.67427251 4:0.40033669 5:0.47058824 6:0.41176471 7:0.29411765 8:0.44444444 9:0.33333333 10:0.3 11:0.16666667 13:0.2 14:0.27272727 15:0.33333333 17:0.14285714 18:0.125 20:0.33333333 21:0.28571429 22:0.125 24:0.5 25:0.2 26:0.33333333 29:0.14285714 30:0.4 32:0.25 38:0.25 40:0.25 41:0.2 42:0.4 45:0.16666667 47:0.5 50:0.25 60:0.5 61:0.33333333 65:0.25 69:0.25 70:0.33333333 72:0.36842105 75:1 78:1 80:1 83:1 84:1 89:1 91:1 100:1 105:1 107:1 111:1 114:1 117:1 121:1 123:1 126:1 128:1 137:1 146:1 151:1 165:0.87537225 166:0.22327044 167:0.80075188 
1.083996440128399 1:0.68556354 2:0.57723111 3:0.68762033 4:0.77977787 5:0.23529412 6:0.52941176 7:0.64705882 8:0.22222222 10:0.2 11:0.16666667 13:0.2 14:0.27272727 15:0.22222222 16:0.42857143 17:0.28571429 18:0.5 19:0.55555556 23:0.33333333 24:0.1 29:0.14285714 31:0.25 33:0.25 39:0.125 40:0.25 41:0.2 42:0.4 44:0.25 45:0.16666667 49:0.25 51:0.25 55:0.75 56:0.25 57:0.4 67:0.6 71:0.25 72:0.78947368 74:1 78:1 82:1 88:1 89:1 91:1 94:1 97:1 103:1 104:1 107:1 114:1 115:1 119:1 125:1 127:1 136:1 139:1 165:0.97419953 166:0.25366876 167:0.94163424 
0.9654277089156416 1:0.48614155 2:0.39533169 3:0.57813359 4:0.4687905 5:0.52941176 6:0.29411765 7:0.47058824 8:0.33333333 9:0.44444444 10:0.1 11:0.33333333 12:0.28571429 13:0.2 14:0.090909091 15:0.22222222 17:0.28571429 18:0.125 19:0.33333333 20:0.22222222 22:0.375 23:0.11111111 24:0.2 25:0.2 26:0.16666667 27:0.25 28:0.33333333 30:0.2 32:0.25 34:0.25 37:0.33333333 38:0.25 40:0.25 42:0.4 46:0.25 47:0.25 50:0.25 53:0.25 56:0.25 57:0.2 59:0.25 60:0.25 64:0.5 65:0.25 68:0.16666667 70:0.66666667 72:0.42105263 73:1 77:1 80:1 81:1 84:1 88:1 91:1 95:1 98:1 99:1 103:1 107:1 109:1 115:1 120:1 123:1 126:1 127:1 129:1 139:1 144:1 149:1 164:1 165:0.76931118 166:0.18972746 167:0.70428016 
2 1:0.44946022 2:0.86725831 3:0.42509053 4:0.73338301 5:0.35294118 6:0.58823529 7:0.52941176 8:0.16666667 9:0.22222222 10:0.2 11:0.16666667 12:0.14285714 13:0.1 14:0.45454545 15:0.44444444 16:0.14285714 17:0.42857143 18:0.25 19:0.22222222 20:0.11111111 22:0.25 23:0.11111111 26:0.16666667 27:0.25 30:0.2 38:0.25 41:0.2 42:0.6 44:0.5 46:0.25 47:0.25 48:0.25 50:0.25 51:0.25 53:0.25 55:0.25 57:0.2 59:0.25 65:0.5 72:0.73684211 75:1 81:1 87:1 93:1 96:1 100:1 102:1 105:1 107:1 116:1 118:1 122:1 124:1 146:1 165:0.42688041 166:0.13522013 167:0.50194553 
2 1:0.86189425 2:0.69987844 3:0.61115751 4:0.7565979 5:0.17647059 6:0.41176471 7:0.70588235 8:0.33333333 10:0.1 11:0.16666667 12:0.14285714 13:0.1 14:0.18181818 15:0.44444444 16:0.14285714 17:0.28571429 18:0.25 19:0.55555556 20:0.33333333 22:0.375 23:0.11111111 24:0.1 33:0.25 36:0.25 42:0.2 43:0.25 46:0.75 47:0.25 51:0.25 52:0.25 55:0.5 56:0.5 57:0.2 58:0.2 59:0.25 60:0.25 64:0.25 66:0.5 68:0.16666667 70:0.33333333 72:0.73684211 75:1 86:1 90:1 93:1 94:1 100:1 102:1 111:1 114:1 116:1 118:1 127:1 151:1 165:0.42117917 166:0.12997904 167:0.48249027 
0.9367147491021265 1:0.77885235 2:0.35478644 3:0.66315036 4:0.68972686 5:0.29411765 6:0.47058824 7:0.58823529 8:0.27777778 9:0.33333333 11:0.16666667 12:0.14285714 13:0.1 14:0.18181818 15:0.33333333 16:0.28571429 17:0.14285714 18:0.375 19:0.44444444 20:0.22222222 22:0.5 23:0.11111111 25:0.2 27:0.25 28:0.33333333 35:0.25 36:0.25 38:0.25 42:0.4 45:0.16666667 46:0.5 48:0.5 50:0.25 55:0.5 57:0.4 58:0.2 59:0.25 64:0.25 65:0.25 66:0.25 72:0.68421053 75:1 77:1 82:1 86:1 89:1 93:1 95:1 103:1 110:1 114:1 116:1 121:1 126:1 129:1 134:1 136:1 159:1 165:0.27615385 166:0.083857442 167:0.31128405 
1.609943476636842 1:0.49221141 2:0.53682686 3:0.52319537 4:0.56203542 5:0.47058824 6:0.41176471 7:0.52941176 8:0.22222222 9:0.11111111 10:0.1 11:0.5 12:0.28571429 13:0.5 14:0.18181818 15:0.11111111 17:0.14285714 18:0.375 19:0.44444444 20:0.11111111 21:0.14285714 22:0.125 23:0.11111111 24:0.1 26:0.16666667 29:0.14285714 33:0.25 34:0.5 38:0.25 40:0.25 41:0.4 42:0.2 45:0.16666667 52:0.25 54:0.25 55:0.5 56:0.25 57:0.2 58:0.2 60:0.25 62:0.33333333 65:0.25 67:0.2 70:0.33333333 72:0.57894737 74:1 77:1 82:1 85:1 93:1 95:1 98:1 108:1 114:1 116:1 121:1 123:1 126:1 134:1 150:1 159:1 165:0.2547742 166:0.062893082 167:0.23346304 
