svm_type epsilon_svr
kernel_type rbf
gamma 0.015625
nr_class 2
total_sv 1015
rho -3.91834
SV
-256 1:0.19698845 2:0.66137645 3:0.60222828 4:0.50878425 5:0.64285714 6:0.5 7:0.28571429 8:0.33333333 9:0.71428571 10:0.25 11:0.16666667 12:0.2 13:0.33333333 14:0.27272727 15:0.28571429 16:0.14285714 18:0.16666667 20:0.5 22:0.5 23:0.16666667 25:0.33333333 26:0.33333333 28:0.16666667 29:0.16666667 34:0.25 36:0.25 37:0.16666667 39:0.25 40:0.4 41:0.22222222 42:0.2 45:0.25 48:0.33333333 58:0.6 61:0.4 62:0.2 66:0.33333333 70:0.5 71:1 73:1 78:1 81:1 82:1 86:1 89:1 90:1 97:1 98:0.99656025 
215.9467209226202 1:0.19698845 2:0.97087874 3:0.50033308 4:0.57760686 5:0.5 6:0.5 7:0.35714286 8:0.4 9:0.57142857 10:0.25 12:0.2 13:0.22222222 14:0.27272727 15:0.28571429 16:0.42857143 18:0.5 19:0.28571429 21:0.2 22:0.125 23:0.16666667 24:0.22222222 25:0.33333333 30:0.25 31:0.33333333 35:0.33333333 36:0.25 39:0.25 40:0.4 41:0.11111111 42:0.2 43:0.25 46:0.33333333 48:0.33333333 49:0.33333333 54:0.5 61:0.2 67:0.25 70:0.55555556 72:1 78:1 81:1 86:1 89:1 98:0.49230359 
256 1:0.19698845 2:0.63925366 3:0.42214227 4:0.3793382 5:0.85714286 6:0.375 7:0.28571429 8:0.26666667 9:0.85714286 10:0.75 13:0.55555556 15:0.28571429 16:0.14285714 18:0.16666667 20:0.33333333 22:0.125 23:0.33333333 24:0.11111111 25:1 28:0.33333333 29:0.33333333 30:0.5 36:0.75 37:0.33333333 40:0.4 45:0.25 48:0.33333333 60:0.25 65:0.33333333 66:0.33333333 67:0.25 70:0.38888889 71:1 75:1 78:1 79:1 81:1 85:1 95:1 98:0.87665182 
256 1:0.35251497 2:0.069357192 3:0.45557556 4:0.23731094 5:0.92857143 6:0.125 7:0.35714286 8:0.4 9:0.85714286 10:0.125 11:0.33333333 12:0.8 13:0.22222222 15:0.14285714 16:0.14285714 17:0.5 20:0.16666667 21:0.2 22:0.375 23:0.33333333 26:0.33333333 27:1 28:0.16666667 32:0.25 36:0.25 39:0.25 40:0.2 42:0.2 44:0.25 48:0.33333333 50:0.5 52:0.25 58:0.2 61:0.4 63:0.25 64:0.33333333 66:0.33333333 70:0.22222222 71:1 74:1 80:1 84:1 87:1 98:0.36552888 
32.31593986475732 1:0.35251497 2:0.35925814 3:0.44527437 4:0.32429886 5:0.78571429 6:0.3125 7:0.28571429 8:0.4 9:0.57142857 10:0.375 11:0.5 12:0.2 13:0.44444444 14:0.090909091 15:0.14285714 16:0.14285714 17:0.16666667 20:0.33333333 21:0.2 22:0.375 24:0.22222222 25:0.33333333 26:0.33333333 28:0.16666667 29:0.16666667 30:0.25 32:0.25 34:0.25 36:0.5 38:0.25 39:0.25 40:0.4 41:0.11111111 45:0.25 47:0.2 51:0.2 60:0.25 61:0.2 63:0.25 67:0.25 70:0.33333333 71:1 75:1 87:1 88:1 94:1 98:0.039866882 
-256 1:0.31371627 2:0.59497616 3:0.34118031 4:0.43259848 5:0.92857143 6:0.5 7:0.21428571 8:0.13333333 9:0.85714286 10:0.75 11:0.16666667 13:0.44444444 14:0.18181818 15:0.28571429 16:0.14285714 17:0.16666667 18:0.16666667 20:0.16666667 21:0.2 22:0.125 25:0.66666667 26:0.33333333 28:0.16666667 29:0.66666667 30:0.25 34:0.25 36:0.5 37:0.33333333 40:0.6 44:0.25 46:0.33333333 51:0.2 58:0.2 59:0.5 62:0.2 70:0.44444444 71:1 79:1 82:1 85:1 90:1 96:1 98:0.90730674 
-256 1:0.33522084 2:0.51683228 3:0.66315036 4:0.50953768 5:0.57142857 6:0.4375 7:0.42857143 8:0.33333333 9:0.28571429 10:0.375 11:0.5 13:0.44444444 14:0.27272727 15:0.14285714 16:0.14285714 17:0.16666667 19:0.28571429 20:0.5 21:0.2 22:0.25 24:0.11111111 26:0.33333333 28:0.33333333 29:0.16666667 32:0.25 34:0.25 36:0.25 37:0.16666667 38:0.5 40:0.4 41:0.22222222 42:0.2 45:0.25 49:0.33333333 51:0.2 57:0.25 58:0.4 61:0.4 70:0.55555556 72:1 74:1 78:1 86:1 98:0.070243194 
-204.0393774808861 1:0.33522084 2:0.57695035 3:0.57906094 4:0.48778178 5:0.71428571 6:0.3125 7:0.5 8:0.26666667 9:0.28571429 10:0.75 11:0.16666667 12:0.2 13:0.44444444 15:0.42857143 17:0.66666667 19:0.14285714 20:0.33333333 22:0.125 23:0.16666667 24:0.11111111 26:0.33333333 28:0.33333333 29:0.33333333 30:0.5 32:0.25 36:0.25 37:0.5 40:0.2 42:0.2 45:0.5 51:0.6 53:0.33333333 56:0.33333333 58:0.2 60:0.25 64:0.33333333 70:0.5 73:1 78:1 82:1 84:1 85:1 89:1 93:1 
-256 1:0.44212522 2:0.31388939 3:0.42214227 4:0.57349211 5:0.57142857 6:0.125 7:0.85714286 8:0.26666667 9:0.42857143 10:0.125 11:0.33333333 12:0.4 13:0.11111111 14:0.090909091 15:0.28571429 17:0.66666667 18:0.16666667 19:0.57142857 20:0.33333333 23:0.66666667 25:0.33333333 26:0.33333333 29:0.16666667 36:0.25 40:0.2 41:0.11111111 42:0.2 44:0.25 50:0.25 52:0.25 53:0.66666667 54:0.25 56:0.66666667 57:0.25 64:0.33333333 66:0.66666667 70:0.61111111 72:1 76:1 84:1 86:1 98:0.69477864 
-256 1:0.44212522 2:0.34627988 3:0.30530944 4:0.5200876 5:0.57142857 6:0.3125 7:0.57142857 8:0.33333333 9:0.42857143 10:0.25 11:0.33333333 12:0.2 13:0.33333333 14:0.27272727 15:0.14285714 17:0.16666667 18:0.16666667 19:0.42857143 20:0.5 21:0.2 22:0.125 23:0.16666667 24:0.11111111 26:0.66666667 28:0.16666667 29:0.16666667 32:0.25 35:0.33333333 36:0.5 37:0.16666667 40:0.4 41:0.22222222 42:0.2 45:0.25 53:0.33333333 54:0.25 57:0.25 61:0.2 67:0.25 70:0.55555556 74:1 76:1 81:1 86:1 88:1 98:0.062452979 
-256 1:0.28947959 2:0.71593769 3:0.3431175 4:0.40833574 5:0.5 6:0.3125 7:0.28571429 8:0.66666667 9:0.57142857 10:0.125 11:0.16666667 13:0.22222222 14:0.090909091 15:0.14285714 16:0.42857143 19:0.28571429 20:0.33333333 22:0.625 24:0.55555556 26:0.33333333 31:0.33333333 34:0.25 36:0.5 40:0.4 43:0.25 49:1 57:0.25 58:0.4 61:0.6 62:0.2 63:0.25 67:0.75 69:0.4 70:0.33333333 71:1 78:1 79:1 87:1 98:0.94688996 
256 1:0.26651318 2:0.63184531 3:0.4359805 4:0.61454429 5:0.5 6:0.3125 7:0.64285714 8:0.33333333 9:0.42857143 10:0.375 12:0.2 13:0.22222222 15:0.71428571 17:0.33333333 18:0.33333333 19:0.14285714 20:0.5 22:0.25 23:0.33333333 24:0.11111111 25:0.33333333 27:0.5 28:0.16666667 30:0.5 36:0.25 37:0.16666667 40:0.2 42:0.2 45:0.25 50:0.25 51:0.2 54:0.25 55:0.33333333 56:0.33333333 58:0.4 61:0.2 62:0.2 64:0.33333333 66:0.33333333 68:0.33333333 70:0.61111111 74:1 76:1 78:1 83:1 87:1 98:0.92346398 
-256 1:0.26651318 2:0.52854586 3:0.53701896 4:0.48199682 5:0.78571429 6:0.8125 8:0.13333333 9:0.42857143 10:0.875 12:0.2 13:0.77777778 14:0.54545455 16:0.14285714 22:0.25 25:0.66666667 28:0.16666667 29:1 36:0.5 37:0.66666667 39:0.25 40:1 41:0.11111111 43:0.25 47:0.2 60:0.25 61:0.2 70:0.55555556 71:1 78:1 85:1 90:1 91:1 98:0.070367527 
256 1:0.26651318 2:0.53519556 3:0.50033308 4:0.48450462 5:0.5 6:0.5625 7:0.21428571 8:0.46666667 9:0.28571429 10:0.625 13:0.55555556 14:0.090909091 15:0.28571429 16:0.42857143 19:0.14285714 20:0.33333333 22:0.5 24:0.22222222 25:0.33333333 28:0.33333333 29:0.16666667 31:0.66666667 36:0.25 37:0.66666667 40:0.4 43:0.25 45:0.25 47:0.2 49:0.33333333 58:0.2 60:0.25 61:0.4 62:0.2 67:0.5 70:0.5 72:1 78:1 79:1 87:1 98:0.9853489 
233.5303714222716 1:0.5066435 2:0.48533466 3:0.5316808 4:0.39368316 5:0.92857143 6:0.4375 7:0.21428571 8:0.2 9:0.85714286 10:0.75 13:0.22222222 14:0.18181818 15:0.42857143 16:0.28571429 17:0.5 21:0.4 24:0.11111111 25:1 28:0.16666667 29:0.5 30:0.5 36:0.25 37:0.16666667 40:0.2 41:0.11111111 42:0.2 43:0.25 44:0.75 46:0.33333333 49:0.33333333 50:0.5 51:0.2 70:0.38888889 72:1 74:1 75:1 82:1 85:1 89:1 98:0.97983251 
-256 1:0.5066435 2:0.75135356 3:0.36591927 4:0.59013591 5:0.71428571 6:0.625 7:0.21428571 8:0.2 9:0.42857143 10:0.625 12:0.4 13:0.44444444 14:0.45454545 15:0.42857143 17:0.5 22:0.25 25:0.66666667 29:0.5 30:0.5 36:0.25 37:0.16666667 39:0.5 40:0.8 41:0.22222222 42:0.2 44:0.75 50:0.25 51:0.4 61:0.4 70:0.55555556 81:1 83:1 87:1 88:1 91:1 93:1 98:0.88227739 
-256 1:0.28947959 2:0.50955945 3:0.4359805 4:0.39530451 5:0.57142857 6:0.25 7:0.42857143 8:0.53333333 9:0.42857143 10:0.25 11:0.16666667 12:0.4 13:0.22222222 15:0.28571429 16:0.28571429 17:0.33333333 20:0.5 22:0.5 23:0.5 24:0.11111111 25:0.33333333 27:0.5 30:0.25 31:0.33333333 34:0.25 36:0.25 37:0.16666667 40:0.4 45:0.25 47:0.4 50:0.25 52:0.25 58:0.2 61:0.4 62:0.2 63:0.25 64:0.66666667 66:0.33333333 68:0.33333333 70:0.38888889 71:1 74:1 78:1 87:1 98:0.94417166 
-256 1:0.15230324 2:0.24231845 3:0.36591927 4:0.30723581 5:0.64285714 6:0.3125 7:0.28571429 8:0.53333333 9:0.57142857 10:0.25 11:0.16666667 12:0.4 13:0.22222222 14:0.090909091 15:0.14285714 16:0.28571429 17:0.16666667 18:0.16666667 19:0.14285714 20:0.16666667 21:0.4 22:0.375 24:0.33333333 25:0.33333333 27:0.5 29:0.33333333 35:0.66666667 36:0.5 40:0.4 42:0.2 45:0.25 46:0.33333333 49:0.33333333 52:0.25 54:0.25 58:0.2 63:0.5 67:0.5 70:0.33333333 73:1 76:1 78:1 85:1 89:1 90:1 97:1 98:0.8402082 
256 1:0.33522084 2:0.18757401 3:0.11236237 4:0.13942881 5:0.85714286 6:0.0625 7:0.28571429 8:0.6 9:0.57142857 11:0.33333333 12:1 13:0.22222222 15:0.14285714 17:0.66666667 21:0.4 22:0.25 23:0.16666667 24:0.44444444 26:0.66666667 27:0.5 32:0.5 35:1 36:0.25 39:0.25 40:0.2 42:0.2 44:0.25 50:0.5 53:0.66666667 59:0.5 61:0.4 64:0.33333333 67:0.25 69:0.2 70:0.11111111 72:1 73:1 80:1 83:1 87:1 
-256 1:0.48229319 2:0.33930036 3:0.49126314 4:0.6193443 5:0.85714286 6:0.4375 7:0.5 9:0.57142857 10:0.375 11:0.83333333 13:0.33333333 14:0.36363636 15:0.14285714 17:0.66666667 18:0.33333333 19:0.14285714 26:0.66666667 28:0.33333333 29:0.16666667 32:1 33:0.5 36:0.25 37:0.33333333 40:0.2 41:0.44444444 42:0.2 50:0.25 51:0.2 52:0.5 54:0.25 70:0.61111111 71:1 86:1 90:1 98:0.98577996 
-256 1:0.44513165 2:0.45502976 3:0.11236237 4:0.44443521 5:0.64285714 6:0.25 7:0.57142857 8:0.33333333 9:0.28571429 10:0.375 11:0.5 12:0.2 13:0.33333333 14:0.090909091 15:0.28571429 17:0.33333333 18:0.16666667 19:0.28571429 20:0.33333333 21:0.4 22:0.125 24:0.22222222 25:0.33333333 26:0.33333333 28:0.16666667 29:0.16666667 30:0.25 32:0.5 33:0.5 35:0.33333333 36:0.5 37:0.16666667 40:0.2 41:0.11111111 42:0.2 51:0.2 53:0.33333333 54:0.25 58:0.2 60:0.25 69:0.2 70:0.5 74:1 79:1 83:1 88:1 98:0.78203846 
-256 1:0.44513165 2:0.2103039 3:0.30343437 4:0.26012754 5:0.64285714 6:0.25 7:0.28571429 8:0.6 9:0.28571429 10:0.25 11:0.33333333 12:0.6 13:0.22222222 14:0.18181818 16:0.14285714 17:0.5 18:0.16666667 21:0.4 22:0.125 23:0.33333333 24:0.44444444 26:0.33333333 27:0.5 29:0.33333333 32:0.5 35:0.66666667 36:0.5 40:0.4 43:0.25 47:0.2 51:0.4 53:0.33333333 54:0.25 61:0.2 64:0.33333333 65:0.33333333 68:0.33333333 69:0.4 70:0.27777778 73:1 76:1 78:1 83:1 85:1 90:1 92:1 94:1 98:0.75486788 
256 1:0.44513165 2:0.71827165 3:0.47790352 4:0.66958763 5:0.57142857 6:0.3125 7:0.71428571 8:0.2 9:0.28571429 10:0.5 11:0.33333333 13:0.11111111 14:0.18181818 15:0.57142857 17:0.66666667 19:0.28571429 20:0.5 22:0.125 23:0.33333333 26:0.66666667 29:0.5 30:0.25 32:0.5 36:0.25 40:0.2 41:0.11111111 42:0.4 44:0.25 45:0.5 50:0.25 51:0.6 56:0.33333333 57:0.25 58:0.2 62:0.2 66:0.33333333 70:0.66666667 71:1 78:1 79:1 83:1 86:1 89:1 92:1 98:0.99161363 
256 1:0.44513165 2:0.60704896 3:0.38712304 4:0.59926902 5:0.57142857 6:0.5625 7:0.28571429 8:0.33333333 9:0.28571429 10:0.25 11:0.33333333 12:0.2 13:0.44444444 14:0.36363636 15:0.28571429 16:0.14285714 17:0.33333333 18:0.16666667 20:0.16666667 22:0.5 24:0.11111111 26:0.66666667 28:0.16666667 29:0.16666667 32:0.5 36:0.5 39:0.25 40:0.4 41:0.22222222 42:0.4 45:0.25 47:0.2 51:0.4 58:0.2 61:0.6 63:0.25 67:0.25 70:0.55555556 74:1 78:1 81:1 86:1 92:1 98:0.77907223 
256 1:0.29286845 2:0.53058082 3:0.61358266 4:0.60726385 5:0.42857143 6:0.4375 7:0.5 8:0.4 9:0.14285714 10:0.125 11:0.16666667 12:0.4 13:0.33333333 14:0.36363636 15:0.14285714 16:0.14285714 17:0.16666667 19:0.42857143 20:0.5 22:0.5 23:0.33333333 26:0.33333333 28:0.16666667 32:0.25 36:0.25 39:0.25 40:0.4 41:0.44444444 47:0.2 53:0.33333333 57:0.25 58:0.4 61:0.4 62:0.2 63:0.25 66:0.33333333 70:0.61111111 71:1 75:1 79:1 82:1 84:1 86:1 88:1 98:0.94749539 
256 1:0.29286845 2:0.49715226 3:0.61321882 4:0.44719461 5:0.57142857 6:0.3125 7:0.35714286 8:0.53333333 9:0.28571429 11:0.33333333 12:0.6 13:0.22222222 14:0.18181818 15:0.14285714 16:0.28571429 17:0.5 18:0.16666667 20:0.16666667 22:0.5 23:0.33333333 24:0.22222222 26:0.33333333 27:0.5 32:0.5 35:0.33333333 36:0.25 38:0.25 40:0.4 42:0.2 43:0.25 44:0.25 47:0.2 48:0.33333333 50:0.25 53:0.33333333 54:0.25 58:0.2 61:0.6 63:0.25 65:0.33333333 66:0.33333333 67:0.25 69:0.2 70:0.38888889 71:1 74:1 81:1 83:1 84:1 87:1 98:0.018155131 
-256 1:0.42929489 2:0.5113585 3:0.39926016 4:0.48630216 5:0.71428571 6:0.3125 7:0.5 8:0.26666667 9:0.28571429 10:0.5 11:0.5 12:0.2 13:0.44444444 14:0.090909091 15:0.28571429 17:0.5 19:0.14285714 20:0.33333333 22:0.25 23:0.16666667 24:0.11111111 25:0.33333333 26:0.33333333 28:0.5 29:0.16666667 34:0.25 36:0.5 37:0.16666667 39:0.25 40:0.2 41:0.11111111 42:0.2 44:0.5 51:0.2 52:0.5 56:0.33333333 61:0.2 62:0.2 66:0.33333333 67:0.25 70:0.5 71:1 75:1 86:1 94:1 98:0.6486802 
-256 1:0.42929489 2:0.24727824 3:0.32680274 4:0.16404529 5:1 6:0.25 7:0.21428571 8:0.33333333 9:0.85714286 10:0.625 11:0.16666667 12:0.2 13:0.44444444 16:0.28571429 17:0.16666667 19:0.14285714 20:0.16666667 21:0.6 22:0.125 24:0.11111111 26:0.33333333 27:0.5 28:0.16666667 29:0.33333333 31:0.66666667 36:0.75 37:0.16666667 40:0.4 46:0.66666667 51:0.2 56:0.33333333 60:0.25 70:0.22222222 74:1 78:1 85:1 98:0.0060296239 
-256 1:0.53506864 2:0.39362024 3:0.76078885 4:0.53781514 5:0.28571429 6:0.25 7:0.57142857 8:0.66666667 9:0.14285714 11:0.33333333 12:0.2 13:0.11111111 14:0.090909091 15:0.14285714 16:0.42857143 17:0.16666667 18:0.16666667 19:0.57142857 20:0.33333333 21:0.2 22:0.5 23:0.16666667 24:0.33333333 26:0.33333333 36:0.25 40:0.2 42:0.2 43:0.25 45:0.25 47:0.4 49:0.33333333 52:0.25 56:0.33333333 57:0.5 61:0.6 63:0.25 65:0.33333333 67:0.25 69:0.2 70:0.5 74:1 79:1 82:1 87:1 89:1 98:0.95008214 
256 1:0.3840179 2:0.428959 3:0.58121897 4:0.55708493 5:0.64285714 6:0.5 7:0.35714286 8:0.26666667 9:0.28571429 10:0.375 11:0.33333333 12:0.2 13:0.55555556 14:0.36363636 15:0.14285714 17:0.16666667 19:0.28571429 20:0.33333333 22:0.375 24:0.11111111 26:0.33333333 28:0.16666667 29:0.16666667 30:0.25 34:0.25 35:0.33333333 36:0.5 37:0.33333333 38:0.25 40:0.4 41:0.44444444 53:0.33333333 56:0.33333333 58:0.4 60:0.5 61:0.2 67:0.25 70:0.55555556 71:1 78:1 84:1 87:1 88:1 91:1 98:0.94660275 
-256 1:0.3840179 2:0.55397952 3:0.50033308 4:0.53104882 5:0.35714286 6:0.4375 7:0.5 8:0.46666667 9:0.28571429 10:0.125 11:0.33333333 13:0.33333333 14:0.18181818 16:0.42857143 19:0.42857143 20:0.66666667 22:0.625 23:0.33333333 25:0.33333333 26:0.33333333 29:0.16666667 36:0.5 38:0.25 40:0.2 41:0.11111111 43:0.25 47:0.4 48:0.33333333 58:0.6 60:0.25 61:0.4 63:0.5 66:0.33333333 70:0.61111111 72:1 73:1 75:1 78:1 79:1 82:1 84:1 87:1 90:1 98:0.69769655 
-256 1:0.52761317 2:0.44674087 3:0.7877595 4:0.57368283 5:0.71428571 6:0.375 7:0.5 8:0.2 9:0.71428571 10:0.25 11:0.33333333 13:0.44444444 14:0.090909091 15:0.28571429 16:0.14285714 17:0.16666667 18:0.33333333 19:0.28571429 20:0.33333333 22:0.375 25:0.33333333 26:0.66666667 28:0.16666667 30:0.25 33:0.5 34:0.25 36:0.5 37:0.16666667 40:0.4 43:0.25 44:0.25 47:0.2 50:0.25 54:0.25 57:0.25 58:0.4 61:0.4 62:0.2 70:0.55555556 80:1 83:1 84:1 87:1 93:1 96:1 98:0.78140284 
-256 1:0.21544854 2:0.80563183 3:0.3836975 4:0.38469083 5:0.42857143 6:0.125 7:0.64285714 8:0.6 9:0.14285714 10:0.25 11:0.33333333 12:0.2 13:0.11111111 15:0.14285714 16:0.28571429 17:0.16666667 18:0.33333333 19:0.28571429 20:0.5 21:0.6 23:0.66666667 24:0.22222222 26:0.33333333 29:0.33333333 34:0.5 35:0.33333333 36:0.25 40:0.2 43:0.25 46:0.33333333 49:0.33333333 51:0.2 55:0.33333333 56:0.33333333 65:0.33333333 66:0.33333333 68:0.66666667 70:0.44444444 85:1 89:1 98:0.021634728 
-199.4932166768771 1:0.41962372 2:0.55397952 3:0.55606605 4:0.53628201 5:0.57142857 6:0.1875 7:0.71428571 8:0.33333333 9:0.14285714 10:0.375 11:0.66666667 13:0.22222222 15:0.14285714 16:0.14285714 17:0.83333333 18:0.16666667 19:0.28571429 20:0.33333333 22:0.125 23:0.5 24:0.11111111 26:0.33333333 28:0.16666667 29:0.33333333 32:0.5 34:0.25 36:0.25 38:0.25 40:0.2 42:0.2 45:0.25 48:0.33333333 51:0.6 52:0.5 56:0.66666667 58:0.2 64:0.33333333 65:0.33333333 68:0.33333333 70:0.55555556 74:1 78:1 79:1 80:1 82:1 85:1 89:1 90:1 97:1 98:0.89920869 
-256 1:0.44513165 2:0.78706523 3:0.21840861 4:0.5513182 5:0.64285714 6:0.5 7:0.42857143 8:0.2 9:0.28571429 10:0.5 11:0.33333333 12:0.2 13:0.55555556 14:0.18181818 15:0.42857143 17:0.16666667 18:0.33333333 20:0.33333333 21:0.2 22:0.125 23:0.16666667 25:0.33333333 26:0.33333333 29:0.33333333 30:0.5 33:0.5 34:0.25 36:0.25 37:0.5 38:0.25 40:0.6 41:0.11111111 45:0.25 50:0.25 54:0.25 55:0.33333333 58:0.2 60:0.25 64:0.33333333 70:0.61111111 72:1 73:1 81:1 83:1 85:1 98:0.053798978 
1.386423710487214 1:0.44513165 2:0.34174167 3:0.69503483 4:0.50909944 5:0.57142857 6:0.5625 7:0.21428571 8:0.4 9:0.42857143 10:0.25 11:0.16666667 12:0.2 13:0.44444444 14:0.45454545 15:0.14285714 16:0.14285714 20:0.5 22:0.5 23:0.16666667 24:0.11111111 25:0.33333333 26:0.33333333 28:0.16666667 29:0.16666667 34:0.25 35:0.33333333 36:0.5 37:0.16666667 39:0.25 40:0.6 41:0.44444444 45:0.25 47:0.2 58:0.6 61:0.4 62:0.2 63:0.25 66:0.33333333 68:0.33333333 70:0.5 71:1 73:1 78:1 86:1 88:1 92:1 96:1 98:0.89771892 
256 1:0.44513165 2:0.37042237 3:0.67433756 4:0.54320771 5:0.5 6:0.625 7:0.21428571 8:0.4 9:0.28571429 10:0.25 11:0.16666667 12:0.4 13:0.22222222 14:0.45454545 15:0.28571429 16:0.28571429 17:0.16666667 20:0.33333333 21:0.2 22:0.625 26:0.33333333 27:0.5 29:0.16666667 30:0.25 34:0.25 36:0.25 37:0.16666667 40:0.4 41:0.22222222 42:0.2 43:0.25 44:0.25 45:0.25 47:0.4 51:0.2 58:0.2 59:0.5 61:0.8 63:0.25 70:0.55555556 71:1 74:1 78:1 80:1 85:1 90:1 92:1 95:1 98:0.17455176 
256 1:0.44513165 2:0.41127456 3:0.3836975 4:0.51707065 5:0.5 6:0.4375 7:0.35714286 8:0.46666667 9:0.42857143 10:0.125 11:0.16666667 12:0.4 13:0.22222222 14:0.27272727 15:0.28571429 16:0.28571429 17:0.33333333 19:0.14285714 20:0.33333333 22:0.5 23:0.16666667 24:0.11111111 25:0.33333333 26:0.33333333 29:0.16666667 34:0.25 35:0.33333333 36:0.25 39:0.25 40:0.4 41:0.11111111 42:0.2 43:0.25 44:0.25 47:0.2 48:0.33333333 50:0.25 53:0.33333333 58:0.4 61:0.6 63:0.25 64:0.33333333 67:0.25 70:0.5 72:1 86:1 95:1 98:0.1868906 
-256 1:0.28947959 2:0.45360694 3:0.23619655 4:0.30084237 5:0.64285714 6:0.125 7:0.42857143 8:0.6 9:0.42857143 10:0.125 11:0.5 12:0.4 13:0.33333333 16:0.14285714 17:0.33333333 18:0.16666667 19:0.14285714 20:0.33333333 21:0.2 22:0.25 23:0.33333333 24:0.33333333 25:0.33333333 26:0.66666667 31:0.33333333 32:0.25 33:0.5 34:0.25 35:0.33333333 36:0.25 38:0.25 39:0.25 40:0.4 46:0.33333333 50:0.5 54:0.25 60:0.25 61:0.2 64:0.33333333 68:0.33333333 69:0.2 70:0.27777778 75:1 76:1 83:1 87:1 89:1 98:0.90422655 
-256 1:0.26651318 2:0.46501119 3:0.34123233 4:0.49368416 5:0.57142857 6:0.4375 7:0.42857143 8:0.33333333 9:0.28571429 10:0.5 11:0.33333333 13:0.33333333 14:0.090909091 15:0.28571429 16:0.42857143 17:0.33333333 19:0.14285714 20:0.33333333 21:0.2 22:0.375 23:0.16666667 25:0.33333333 26:0.33333333 28:0.33333333 29:0.16666667 31:0.33333333 32:0.25 34:0.25 36:0.5 37:0.16666667 40:0.2 41:0.11111111 43:0.25 47:0.4 48:0.33333333 51:0.4 56:0.33333333 58:0.2 61:0.2 62:0.2 63:0.25 66:0.33333333 70:0.55555556 72:1 81:1 86:1 98:0.89029395 
256 1:0.26651318 2:0.3829907 3:0.59184905 4:0.46287548 5:0.71428571 6:0.6875 7:0.071428571 8:0.26666667 9:0.57142857 10:0.5 11:0.16666667 12:0.2 13:0.55555556 14:0.45454545 16:0.28571429 20:0.16666667 22:0.5 25:0.66666667 26:0.33333333 28:0.33333333 29:0.33333333 34:0.25 36:0.75 37:0.33333333 40:0.4 41:0.33333333 43:0.25 47:0.4 58:0.2 60:0.25 61:0.4 63:0.25 70:0.5 71:1 74:1 78:1 86:1 90:1 95:1 96:1 98:0.82857216 
256 1:0.26651318 2:0.21716455 3:0.48614155 4:0.17018909 5:0.5 6:0.1875 7:0.21428571 8:0.86666667 9:0.28571429 10:0.375 12:0.4 13:0.33333333 16:0.28571429 17:0.16666667 19:0.14285714 20:0.16666667 21:0.2 22:0.25 23:0.16666667 24:0.88888889 25:0.33333333 27:0.5 28:0.16666667 29:0.16666667 31:0.33333333 35:0.33333333 36:0.5 37:0.16666667 40:0.2 43:0.25 49:0.66666667 51:0.2 56:0.33333333 60:0.25 61:0.2 67:0.5 68:0.33333333 69:0.8 70:0.16666667 74:1 85:1 89:1 94:1 98:0.7013813 
-37.30797823262592 1:0.41962372 2:0.42955997 3:0.52319537 4:0.63778716 5:0.57142857 6:0.3125 7:0.71428571 8:0.2 9:0.28571429 10:0.375 11:0.33333333 12:0.2 13:0.33333333 15:0.42857143 17:0.5 18:0.33333333 19:0.42857143 20:0.33333333 22:0.25 23:0.16666667 25:0.33333333 27:0.5 28:0.16666667 29:0.16666667 30:0.25 32:0.25 36:0.25 38:0.5 40:0.2 42:0.2 44:0.25 45:0.25 50:0.25 51:0.4 54:0.25 55:0.33333333 56:0.33333333 57:0.25 58:0.4 60:0.25 70:0.66666667 79:1 82:1 84:1 89:1 90:1 97:1 98:0.78162983 
-256 1:0.41962372 2:0.51287194 3:0.42622728 4:0.47804013 5:0.85714286 6:0.3125 7:0.5 8:0.13333333 9:0.28571429 10:0.625 11:0.5 12:0.2 13:0.44444444 14:0.090909091 15:0.14285714 16:0.14285714 17:1 18:0.16666667 23:0.33333333 25:0.33333333 28:0.33333333 29:0.16666667 30:0.25 31:0.33333333 32:0.75 36:0.5 37:0.16666667 38:0.25 40:0.4 41:0.11111111 44:0.25 48:0.33333333 51:0.6 52:0.5 53:0.33333333 54:0.25 64:0.33333333 65:0.33333333 70:0.5 73:1 83:1 88:1 93:1 98:0.93213 
256 1:0.41962372 2:0.62574397 3:0.69503483 4:0.62075856 5:0.64285714 6:0.625 7:0.28571429 8:0.2 9:0.28571429 10:0.5 11:0.16666667 12:0.2 13:0.33333333 14:0.54545455 15:0.28571429 16:0.14285714 17:0.5 19:0.14285714 21:0.2 22:0.25 25:0.66666667 28:0.16666667 29:0.33333333 30:0.25 36:0.25 38:0.25 40:0.4 41:0.44444444 42:0.2 43:0.25 44:0.5 47:0.2 50:0.25 51:0.4 56:0.33333333 61:0.4 70:0.61111111 73:1 81:1 87:1 88:1 96:1 98:0.67933273 
256 1:0.41962372 2:0.58206408 3:0.50033308 4:0.65533949 5:0.5 6:0.625 7:0.35714286 8:0.26666667 9:0.28571429 10:0.5 11:0.16666667 13:0.33333333 14:0.36363636 15:0.42857143 16:0.14285714 18:0.33333333 19:0.14285714 20:0.33333333 21:0.2 22:0.25 24:0.11111111 25:0.66666667 28:0.16666667 29:0.33333333 30:0.25 36:0.25 37:0.16666667 38:0.25 40:0.4 42:0.4 43:0.25 45:0.5 49:0.33333333 54:0.5 58:0.2 59:0.5 61:0.4 67:0.25 70:0.66666667 71:1 79:1 82:1 87:1 90:1 98:0.72823281 
-256 1:0.41962372 2:0.38489302 3:0.42509053 4:0.37778958 5:0.78571429 6:0.625 7:0.071428571 8:0.26666667 9:0.14285714 10:0.75 11:0.16666667 12:0.6 13:1 14:0.18181818 18:0.16666667 22:0.375 24:0.11111111 25:0.33333333 28:0.33333333 29:0.66666667 33:0.5 35:0.33333333 36:0.25 37:0.83333333 38:0.25 39:0.5 40:0.6 60:0.75 67:0.25 70:0.44444444 71:1 74:1 78:1 80:1 85:1 90:1 95:1 98:0.83136069 
256 1:0.41962372 2:0.44936926 3:0.24057058 4:0.48323518 5:0.5 6:0.5625 7:0.28571429 8:0.4 9:0.14285714 10:0.5 11:0.16666667 12:0.2 13:0.55555556 14:0.18181818 15:0.14285714 16:0.28571429 18:0.5 20:0.16666667 21:0.2 22:0.125 23:0.33333333 24:0.22222222 25:0.33333333 28:0.33333333 29:0.16666667 31:0.33333333 34:0.25 36:0.25 37:0.5 38:0.25 40:0.4 41:0.11111111 43:0.25 48:0.33333333 49:0.33333333 54:0.25 58:0.2 61:0.2 65:0.66666667 69:0.2 70:0.55555556 72:1 81:1 86:1 90:1 98:0.8775138 
-256 1:0.38120216 2:0.28318225 3:0.40717527 4:0.38322243 5:0.71428571 6:0.5 7:0.21428571 8:0.33333333 9:0.42857143 10:0.5 11:0.16666667 12:0.4 13:0.44444444 14:0.27272727 16:0.42857143 18:0.16666667 19:0.14285714 21:0.4 22:0.25 23:0.16666667 25:0.33333333 27:1 28:0.16666667 29:0.5 33:0.5 36:0.25 37:0.5 40:0.4 43:0.75 46:0.33333333 47:0.2 48:0.33333333 59:1 61:0.4 70:0.44444444 71:1 78:1 87:1 92:1 96:1 98:0.94223809 
-256 1:0.38120216 2:0.77684717 3:0.6978734 4:0.87760529 5:0.35714286 6:0.9375 7:0.28571429 8:0.13333333 9:0.14285714 10:0.375 11:0.16666667 13:0.33333333 14:0.81818182 15:0.28571429 16:0.28571429 18:0.5 19:0.14285714 22:0.25 25:0.33333333 28:0.16666667 29:0.33333333 36:0.25 37:0.33333333 40:0.4 41:0.44444444 42:0.4 43:0.5 47:0.4 54:0.75 61:0.4 70:0.88888889 71:1 78:1 90:1 92:1 96:1 98:0.91051208 
-256 1:0.38120216 2:0.56065756 3:0.6978734 4:0.66068915 5:0.57142857 6:0.9375 7:0.071428571 8:0.13333333 9:0.14285714 10:0.875 13:0.55555556 14:0.72727273 15:0.14285714 16:0.28571429 17:0.16666667 22:0.25 25:0.33333333 28:0.16666667 29:0.83333333 30:0.25 36:0.25 37:0.66666667 40:0.8 41:0.33333333 43:0.5 44:0.25 47:0.4 51:0.2 61:0.4 70:0.72222222 71:1 78:1 80:1 85:1 90:1 92:1 96:1 98:0.42108814 
256 1:0.22243322 2:0.61447195 3:0.45557556 4:0.45763044 5:0.85714286 6:0.4375 7:0.35714286 8:0.13333333 9:0.71428571 10:0.625 11:0.16666667 12:0.2 13:0.55555556 14:0.090909091 15:0.14285714 16:0.14285714 17:0.33333333 18:0.33333333 19:0.14285714 22:0.125 23:0.16666667 25:1 26:0.33333333 28:0.16666667 29:0.33333333 30:0.25 32:0.25 36:0.75 37:0.16666667 39:0.25 40:0.6 47:0.2 50:0.25 51:0.2 54:0.25 60:0.25 64:0.33333333 70:0.5 79:1 80:1 83:1 85:1 90:1 91:1 98:0.28679627 
-256 1:0.49750355 2:0.77684717 3:0.43855123 4:0.59085723 5:0.57142857 6:0.4375 7:0.42857143 8:0.33333333 9:0.57142857 10:0.375 11:0.16666667 13:0.22222222 14:0.27272727 15:0.28571429 16:0.28571429 17:0.33333333 18:0.16666667 19:0.14285714 20:0.33333333 22:0.25 23:0.33333333 25:0.33333333 26:0.33333333 29:0.16666667 30:0.25 31:0.33333333 36:0.25 37:0.16666667 40:0.4 41:0.22222222 43:0.25 44:0.5 48:0.33333333 50:0.25 51:0.2 55:0.33333333 58:0.4 61:0.4 65:0.33333333 66:0.33333333 70:0.55555556 78:1 87:1 98:0.81379279 
256 1:0.70617897 2:0.73800596 3:0.48614155 4:0.77939933 5:0.21428571 6:0.625 7:0.5 8:0.4 9:0.14285714 10:0.25 13:0.11111111 14:0.36363636 15:0.57142857 16:0.42857143 17:0.16666667 18:0.66666667 20:0.16666667 22:0.25 23:0.33333333 24:0.22222222 25:0.33333333 29:0.16666667 30:0.25 36:0.25 40:0.2 42:0.4 43:0.75 44:0.25 45:0.25 47:0.2 48:0.33333333 49:0.33333333 51:0.2 54:1 61:0.2 62:0.2 65:0.33333333 67:0.25 69:0.2 70:0.77777778 78:1 81:1 82:1 89:1 91:1 92:1 98:0.87614325 
-256 1:0.45434541 2:0.84353316 3:0.71411512 4:0.62516092 5:0.35714286 6:0.5625 7:0.35714286 8:0.46666667 9:0.14285714 10:0.375 11:0.16666667 13:0.33333333 14:0.18181818 15:0.28571429 16:0.57142857 17:0.16666667 18:0.5 20:0.16666667 22:0.375 23:0.16666667 24:0.22222222 25:0.33333333 29:0.16666667 30:0.25 31:0.33333333 33:0.5 36:0.25 37:0.16666667 38:0.25 40:0.4 42:0.2 43:0.25 45:0.25 47:0.6 49:0.33333333 51:0.2 54:0.25 61:0.4 63:0.25 65:0.33333333 69:0.2 70:0.61111111 73:1 79:1 81:1 85:1 89:1 95:1 98:0.76081375 
256 1:0.45434541 2:0.88150321 3:0.42509053 4:0.69220444 5:0.35714286 6:0.5625 7:0.5 8:0.33333333 9:0.14285714 10:0.25 11:0.16666667 12:0.2 13:0.22222222 14:0.36363636 15:0.57142857 16:0.14285714 17:0.33333333 18:0.16666667 20:0.5 22:0.375 23:0.33333333 25:0.33333333 29:0.16666667 30:0.25 32:0.25 36:0.25 38:0.25 40:0.2 41:0.22222222 42:0.4 43:0.25 45:0.75 48:0.33333333 51:0.2 53:0.33333333 54:0.25 58:0.4 61:0.4 62:0.2 64:0.33333333 70:0.72222222 72:1 73:1 78:1 81:1 82:1 86:1 89:1 98:0.6329499 
256 1:0.45434541 2:0.5443725 3:0.42214227 4:0.43426122 5:0.5 6:0.375 7:0.35714286 8:0.53333333 9:0.28571429 10:0.375 11:0.16666667 12:0.2 13:0.11111111 14:0.18181818 15:0.28571429 16:0.42857143 17:0.33333333 18:0.16666667 20:0.33333333 21:0.4 22:0.25 23:0.16666667 24:0.22222222 25:0.66666667 29:0.16666667 30:0.25 31:0.33333333 33:0.5 36:0.25 40:0.2 41:0.22222222 43:0.25 45:0.5 47:0.2 48:0.33333333 50:0.25 53:0.33333333 61:0.2 62:0.2 64:0.33333333 67:0.25 69:0.2 70:0.44444444 73:1 79:1 82:1 87:1 88:1 98:0.63909296 
198.5530650381139 1:0.36076326 2:0.49374217 3:0.36162238 4:0.32225657 5:0.57142857 6:0.5625 7:0.14285714 8:0.46666667 9:0.28571429 10:0.625 12:0.2 13:0.44444444 14:0.27272727 16:0.42857143 20:0.33333333 21:0.4 22:0.25 23:0.33333333 24:0.11111111 25:0.66666667 29:0.5 31:0.33333333 35:0.33333333 36:0.25 37:0.33333333 39:0.25 40:0.6 43:0.5 46:0.66666667 48:0.33333333 58:0.2 59:0.5 61:0.4 66:0.66666667 67:0.25 70:0.44444444 72:1 73:1 78:1 83:1 85:1 90:1 98:0.86547055 
256 1:0.59848466 2:0.64484089 3:0.4359805 4:0.6743375 5:0.35714286 6:0.75 7:0.21428571 8:0.4 9:0.28571429 10:0.125 12:0.4 13:0.22222222 14:0.72727273 15:0.28571429 16:0.28571429 17:0.16666667 18:0.16666667 20:0.16666667 22:0.375 23:0.16666667 24:0.11111111 25:0.33333333 27:0.5 29:0.16666667 36:0.5 40:0.4 41:0.55555556 42:0.2 43:0.5 44:0.25 49:0.33333333 53:0.33333333 54:0.25 58:0.2 61:0.4 62:0.2 66:0.33333333 67:0.25 70:0.66666667 72:1 81:1 82:1 86:1 88:1 98:0.94833166 
-256 1:0.49690053 2:0.80563183 3:0.21971719 4:0.54370033 5:0.5 6:0.4375 7:0.35714286 8:0.46666667 9:0.14285714 10:0.25 11:0.5 12:0.2 13:0.33333333 14:0.27272727 15:0.28571429 16:0.14285714 17:0.33333333 18:0.33333333 22:0.25 24:0.55555556 25:0.33333333 28:0.16666667 29:0.16666667 32:0.25 33:0.5 36:0.25 37:0.16666667 38:0.25 40:0.4 41:0.11111111 42:0.4 44:0.25 49:0.33333333 52:0.25 53:0.33333333 54:0.25 61:0.4 67:0.25 69:0.8 70:0.5 71:1 75:1 79:1 81:1 82:1 87:1 98:0.80095746 
256 1:0.49690053 2:0.55994764 3:0.73404041 4:0.59021222 5:0.28571429 6:0.625 7:0.28571429 8:0.53333333 9:0.14285714 10:0.125 11:0.16666667 12:0.2 13:0.22222222 14:0.36363636 15:0.14285714 16:0.57142857 17:0.16666667 18:0.16666667 19:0.14285714 20:0.16666667 22:0.75 24:0.22222222 25:0.33333333 29:0.16666667 34:0.25 36:0.25 39:0.25 40:0.4 41:0.11111111 42:0.2 43:0.5 47:0.6 49:0.33333333 52:0.25 54:0.25 58:0.2 61:0.6 63:0.5 67:0.25 69:0.2 70:0.61111111 73:1 83:1 87:1 89:1 90:1 97:1 98:0.63072635 
256 1:0.3840179 2:0.51683228 3:0.4525872 4:0.58170954 5:0.42857143 6:0.4375 7:0.5 8:0.4 9:0.14285714 10:0.25 11:0.16666667 12:0.2 13:0.22222222 14:0.36363636 15:0.28571429 16:0.14285714 17:0.33333333 19:0.28571429 20:0.5 21:0.2 22:0.375 23:0.16666667 24:0.11111111 25:0.33333333 29:0.33333333 36:0.25 38:0.25 40:0.2 41:0.33333333 42:0.2 43:0.25 44:0.25 45:0.25 47:0.2 51:0.2 57:0.25 60:0.25 61:0.2 62:0.2 66:0.33333333 67:0.25 70:0.61111111 73:1 78:1 79:1 87:1 88:1 98:0.69771479 
-256 1:0.3840179 2:0.93151944 3:0.50033308 4:0.74938531 5:0.5 6:0.6875 7:0.35714286 8:0.2 9:0.28571429 10:0.375 11:0.16666667 13:0.22222222 14:0.45454545 15:0.57142857 16:0.28571429 17:0.5 18:0.16666667 20:0.16666667 22:0.375 25:0.33333333 29:0.5 32:0.25 36:0.25 38:0.25 40:0.4 41:0.22222222 42:0.4 43:0.25 44:0.5 45:0.25 47:0.4 50:0.25 51:0.4 55:0.33333333 58:0.2 61:0.4 62:0.2 70:0.72222222 72:1 74:1 78:1 79:1 83:1 85:1 98:0.8879651 
256 1:0.44513165 2:0.76928461 3:0.39926016 4:0.62200735 5:0.64285714 6:0.4375 7:0.5 8:0.2 9:0.28571429 10:0.625 11:0.16666667 12:0.2 13:0.44444444 15:0.42857143 16:0.28571429 17:0.5 18:0.33333333 19:0.28571429 22:0.25 25:0.33333333 26:0.33333333 28:0.33333333 29:0.16666667 30:0.25 31:0.33333333 33:0.5 36:0.5 37:0.33333333 40:0.2 42:0.2 44:0.5 47:0.4 51:0.4 53:0.33333333 54:0.25 56:0.33333333 57:0.25 60:0.25 62:0.2 70:0.61111111 98:0.91536715 
256 1:0.28947959 2:0.30389234 3:0.40604948 4:0.22167653 5:0.64285714 6:0.25 7:0.28571429 8:0.6 9:0.42857143 10:0.25 11:0.16666667 12:0.6 13:0.33333333 14:0.090909091 16:0.28571429 17:0.16666667 20:0.33333333 21:0.4 22:0.375 23:0.5 24:0.11111111 25:0.33333333 27:1 28:0.16666667 31:0.33333333 34:0.25 36:0.5 39:0.25 40:0.4 41:0.11111111 47:0.2 49:0.33333333 52:0.25 58:0.2 59:0.5 61:0.4 63:0.25 64:0.33333333 66:0.33333333 68:0.33333333 70:0.27777778 73:1 75:1 80:1 86:1 89:1 98:0.99579696 
256 1:0.28947959 2:0.65332499 3:0.83174277 4:0.54029166 5:0.35714286 6:0.4375 7:0.42857143 8:0.53333333 9:0.28571429 10:0.125 11:0.16666667 12:0.2 13:0.22222222 14:0.090909091 15:0.57142857 16:0.28571429 18:0.16666667 20:0.66666667 21:0.2 22:0.625 23:0.16666667 24:0.11111111 25:0.33333333 27:0.5 31:0.33333333 36:0.5 40:0.2 41:0.11111111 43:0.25 45:0.75 46:0.33333333 49:0.33333333 55:0.33333333 58:0.8 61:0.4 62:0.6 66:0.33333333 68:0.33333333 70:0.55555556 72:1 73:1 75:1 79:1 86:1 98:0.69718921 
-256 1:0.28947959 2:0.90433619 3:0.55943067 4:0.7022138 5:0.42857143 6:0.375 7:0.64285714 8:0.33333333 9:0.14285714 10:0.125 11:0.33333333 12:0.2 13:0.22222222 14:0.18181818 15:0.42857143 16:0.14285714 17:0.5 18:0.5 19:0.28571429 20:0.16666667 22:0.25 23:0.16666667 24:0.22222222 25:0.33333333 31:0.33333333 32:0.5 36:0.25 38:0.25 40:0.4 41:0.11111111 42:0.2 45:0.25 49:0.33333333 52:0.25 53:0.33333333 54:0.25 55:0.66666667 56:0.33333333 58:0.2 61:0.4 65:0.33333333 68:0.33333333 69:0.2 70:0.66666667 79:1 82:1 87:1 98:0.20155797 
256 1:0.26988853 2:0.59011384 3:0.53701896 4:0.51725933 5:0.35714286 6:0.3125 7:0.57142857 8:0.53333333 9:0.14285714 10:0.25 11:0.16666667 12:0.2 13:0.22222222 14:0.090909091 15:0.28571429 16:0.28571429 17:0.33333333 18:0.16666667 19:0.14285714 20:0.5 22:0.375 23:0.5 24:0.22222222 27:0.5 28:0.16666667 31:0.33333333 33:0.5 36:0.25 37:0.16666667 40:0.2 42:0.2 43:0.25 45:0.5 47:0.2 48:0.33333333 51:0.2 52:0.25 54:0.25 56:0.33333333 58:0.2 61:0.4 62:0.2 64:0.33333333 67:0.25 69:0.2 70:0.55555556 74:1 78:1 81:1 82:1 84:1 89:1 98:0.99267402 
-256 1:0.26988853 2:0.56242758 3:0.77120049 4:0.5461458 5:0.57142857 6:0.375 7:0.42857143 8:0.4 9:0.28571429 10:0.375 11:0.33333333 12:0.2 13:0.33333333 14:0.090909091 15:0.42857143 16:0.14285714 17:0.33333333 19:0.14285714 20:0.5 22:0.5 24:0.11111111 25:0.33333333 27:0.5 29:0.16666667 30:0.25 31:0.33333333 32:0.25 36:0.25 37:0.16666667 38:0.25 40:0.4 42:0.2 44:0.25 45:0.5 47:0.2 51:0.2 52:0.25 58:0.4 60:0.25 61:0.4 62:0.2 70:0.5 71:1 73:1 79:1 85:1 89:1 98:0.74640582 
256 1:0.26988853 2:0.64935651 3:0.30530944 4:0.48129997 5:0.64285714 6:0.5625 7:0.21428571 8:0.33333333 9:0.42857143 10:0.5 12:0.4 13:0.44444444 14:0.18181818 15:0.42857143 16:0.14285714 17:0.33333333 20:0.16666667 22:0.5 24:0.11111111 25:0.66666667 27:0.5 28:0.16666667 29:0.16666667 30:0.25 36:0.5 37:0.16666667 39:0.25 40:0.2 41:0.22222222 42:0.2 44:0.5 45:0.25 49:0.33333333 50:0.25 51:0.2 58:0.2 60:0.25 61:0.2 62:0.2 63:0.25 67:0.25 70:0.5 72:1 73:1 75:1 78:1 82:1 86:1 90:1 98:0.85637713 
-256 1:0.50996688 2:0.52154414 3:0.36570358 4:0.45696675 5:0.5 6:0.375 7:0.35714286 8:0.53333333 9:0.14285714 10:0.375 11:0.16666667 12:0.4 13:0.33333333 14:0.090909091 15:0.14285714 16:0.42857143 17:0.16666667 18:0.16666667 19:0.28571429 20:0.16666667 21:0.2 22:0.375 23:0.16666667 24:0.22222222 27:0.5 28:0.16666667 29:0.16666667 31:0.33333333 34:0.25 36:0.25 38:0.25 39:0.25 40:0.2 41:0.11111111 43:0.25 46:0.33333333 47:0.2 49:0.33333333 51:0.2 56:0.33333333 57:0.25 60:0.25 61:0.2 62:0.2 67:0.25 70:0.44444444 71:1 78:1 83:1 87:1 88:1 89:1 95:1 98:0.20017024 
-256 1:0.40697802 2:0.35799403 3:0.34510107 4:0.32919185 5:0.85714286 6:0.625 8:0.26666667 9:0.42857143 10:0.75 12:0.6 13:0.88888889 14:0.18181818 16:0.14285714 22:0.5 25:0.33333333 27:0.5 28:0.5 29:0.33333333 31:0.33333333 36:0.5 37:0.83333333 39:0.25 40:0.6 41:0.11111111 47:0.2 60:0.5 61:0.2 70:0.38888889 71:1 74:1 80:1 86:1 89:1 90:1 95:1 97:1 98:0.30976237 
256 1:0.40697802 2:0.40113129 3:0.521522 4:0.43890802 5:0.42857143 6:0.375 7:0.35714286 8:0.6 9:0.42857143 10:0.25 12:0.2 13:0.22222222 14:0.27272727 15:0.14285714 16:0.28571429 17:0.16666667 19:0.14285714 20:0.5 22:0.375 23:0.33333333 24:0.33333333 25:0.33333333 27:0.5 29:0.16666667 31:0.33333333 36:0.25 37:0.16666667 40:0.4 41:0.11111111 42:0.2 43:0.25 45:0.25 49:0.33333333 50:0.25 61:0.6 66:0.33333333 67:0.5 69:0.2 70:0.44444444 73:1 75:1 79:1 87:1 98:0.85620503 
256 1:0.40697802 2:0.2103039 3:0.44123508 4:0.31843168 5:0.85714286 6:0.3125 7:0.28571429 8:0.33333333 9:0.85714286 10:0.25 11:0.16666667 12:0.4 13:0.33333333 14:0.18181818 15:0.14285714 16:0.14285714 17:0.16666667 19:0.28571429 20:0.16666667 21:0.4 22:0.25 24:0.11111111 26:0.33333333 27:0.5 29:0.16666667 31:0.33333333 36:0.5 39:0.25 40:0.6 41:0.11111111 49:0.33333333 51:0.2 56:0.33333333 58:0.2 59:0.5 61:0.4 70:0.33333333 72:1 78:1 80:1 83:1 85:1 92:1 98:0.84133432 
-256 1:0.290768 2:0.49122203 3:0.57906094 4:0.36346063 5:0.78571429 6:0.25 7:0.42857143 8:0.33333333 9:0.42857143 10:0.5 11:0.5 12:0.2 13:0.44444444 15:0.14285714 16:0.14285714 17:0.5 19:0.14285714 20:0.16666667 21:0.2 22:0.25 23:0.16666667 24:0.11111111 25:0.33333333 26:0.33333333 27:0.5 28:0.16666667 29:0.33333333 30:0.25 32:0.25 34:0.25 35:0.33333333 36:0.5 37:0.16666667 38:0.25 40:0.4 44:0.25 46:0.33333333 50:0.25 51:0.2 52:0.25 56:0.33333333 58:0.2 60:0.25 63:0.25 68:0.33333333 70:0.38888889 81:1 84:1 85:1 98:0.71700341 
256 1:0.31694513 2:0.25140606 3:0.358556 4:0.2880883 5:0.78571429 6:0.25 7:0.28571429 8:0.46666667 9:0.71428571 10:0.125 11:0.16666667 12:0.6 13:0.44444444 15:0.28571429 18:0.33333333 20:0.33333333 21:0.4 22:0.25 23:0.16666667 24:0.22222222 26:0.33333333 27:1 28:0.16666667 34:0.25 35:0.66666667 36:0.5 37:0.16666667 40:0.4 45:0.25 54:0.25 58:0.2 59:0.5 61:0.2 62:0.2 65:0.33333333 67:0.25 70:0.27777778 72:1 76:1 87:1 98:0.64965728 
-256 1:0.31694513 2:0.44605938 3:0.44123508 4:0.35121313 5:0.42857143 6:0.4375 7:0.21428571 8:0.66666667 9:0.14285714 10:0.25 11:0.16666667 12:0.4 13:0.44444444 14:0.090909091 16:0.42857143 17:0.16666667 18:0.16666667 20:0.16666667 22:0.5 23:0.33333333 24:0.44444444 27:0.5 31:0.66666667 33:0.5 35:0.66666667 36:0.25 37:0.16666667 38:0.25 39:0.25 40:0.6 48:0.66666667 49:0.33333333 51:0.2 58:0.2 61:0.6 63:0.25 64:0.33333333 66:0.33333333 67:0.75 69:0.2 70:0.38888889 72:1 73:1 78:1 87:1 90:1 92:1 98:0.041983516 
256 1:0.33522084 2:0.91094522 3:0.4441937 4:0.56178194 5:0.78571429 6:0.3125 7:0.5 8:0.2 9:0.42857143 10:0.25 11:0.5 12:0.4 13:0.44444444 14:0.090909091 15:0.28571429 17:0.5 18:0.33333333 19:0.28571429 22:0.25 24:0.11111111 26:0.33333333 29:0.16666667 30:0.25 32:0.5 33:0.5 35:0.33333333 36:0.25 37:0.33333333 38:0.25 40:0.4 41:0.11111111 50:0.25 52:0.25 53:0.33333333 55:0.33333333 56:0.33333333 60:0.25 61:0.2 67:0.25 70:0.5 71:1 74:1 83:1 84:1 87:1 88:1 98:0.99161152 
-256 1:0.33522084 2:0.52507508 3:0.46490125 4:0.48533678 5:0.78571429 6:0.6875 7:0.14285714 8:0.13333333 9:0.71428571 10:0.5 11:0.33333333 13:0.55555556 14:0.54545455 16:0.14285714 17:0.16666667 20:0.16666667 22:0.25 25:0.66666667 26:0.33333333 28:0.33333333 29:0.16666667 32:0.25 34:0.25 36:0.5 37:0.33333333 38:0.25 40:0.6 41:0.55555556 47:0.2 50:0.25 58:0.2 61:0.4 70:0.55555556 72:1 74:1 78:1 81:1 87:1 88:1 90:1 98:0.99035409 
-256 1:0.48229319 2:0.53713649 3:0.33943843 4:0.32202135 5:0.78571429 6:0.25 7:0.28571429 8:0.46666667 9:0.42857143 10:0.375 11:0.33333333 12:0.4 13:0.22222222 14:0.18181818 15:0.14285714 16:0.14285714 17:0.66666667 21:0.2 22:0.125 23:0.16666667 24:0.44444444 25:0.33333333 26:0.33333333 29:0.33333333 31:0.33333333 32:0.5 38:0.25 39:0.25 40:0.4 41:0.11111111 42:0.2 44:0.25 49:0.33333333 50:0.25 51:0.4 53:0.33333333 61:0.2 64:0.33333333 68:0.33333333 69:0.6 70:0.27777778 71:1 73:1 75:1 85:1 89:1 98:0.78174664 
46.26649769522174 1:0.44513165 2:0.36521781 3:0.53701896 4:0.51506788 5:0.71428571 6:0.3125 7:0.57142857 8:0.2 9:0.42857143 10:0.625 11:0.33333333 13:0.33333333 14:0.090909091 16:0.28571429 17:0.66666667 18:0.16666667 19:0.42857143 23:0.5 25:0.66666667 28:0.16666667 29:0.33333333 31:0.66666667 32:0.25 33:0.5 37:0.33333333 38:0.25 40:0.4 48:0.66666667 50:0.5 51:0.2 52:0.25 54:0.25 56:1 70:0.55555556 80:1 84:1 90:1 93:1 98:0.97153619 
-256 1:0.44513165 2:0.38313067 3:0.64755591 4:0.57493249 5:0.35714286 6:0.5 7:0.42857143 8:0.46666667 9:0.14285714 10:0.25 11:0.33333333 13:0.22222222 14:0.27272727 15:0.14285714 16:0.42857143 17:0.16666667 18:0.5 19:0.14285714 20:0.16666667 21:0.2 22:0.25 23:0.16666667 24:0.33333333 25:0.33333333 29:0.16666667 31:0.33333333 32:0.25 33:0.5 37:0.16666667 38:0.25 40:0.4 43:0.5 47:0.2 49:0.66666667 50:0.25 54:0.5 55:0.33333333 61:0.4 66:0.33333333 67:0.25 68:0.33333333 70:0.61111111 84:1 90:1 91:1 98:0.10313163 
256 1:0.44513165 2:0.54827405 3:0.53613833 4:0.49142461 5:0.35714286 6:0.4375 7:0.35714286 8:0.6 9:0.14285714 10:0.375 11:0.16666667 13:0.11111111 14:0.27272727 15:0.14285714 16:0.42857143 17:0.33333333 18:0.16666667 19:0.14285714 20:0.16666667 21:0.2 22:0.25 23:0.33333333 24:0.44444444 25:0.33333333 29:0.33333333 31:0.33333333 32:0.25 38:0.25 40:0.2 41:0.11111111 42:0.2 43:0.5 45:0.25 46:0.33333333 47:0.2 49:0.33333333 50:0.25 51:0.2 54:0.25 61:0.2 64:0.33333333 67:0.25 68:0.66666667 69:0.2 70:0.5 74:1 79:1 87:1 88:1 89:1 90:1 97:1 
256 1:0.5737647 2:0.71593769 3:0.53277974 4:0.66175187 5:0.42857143 6:0.5 7:0.5 8:0.33333333 9:0.14285714 10:0.25 11:0.33333333 13:0.22222222 14:0.36363636 15:0.28571429 16:0.28571429 17:0.33333333 18:0.16666667 19:0.42857143 20:0.16666667 21:0.2 22:0.25 24:0.22222222 25:0.33333333 29:0.33333333 32:0.25 36:0.25 38:0.25 40:0.2 41:0.11111111 42:0.4 43:0.5 47:0.2 49:0.33333333 51:0.2 52:0.25 54:0.25 56:0.33333333 57:0.25 61:0.4 67:0.25 70:0.66666667 72:1 73:1 75:1 81:1 83:1 89:1 96:1 98:0.97358488 
256 1:0.5737647 2:0.51411416 3:0.6443844 4:0.65651911 5:0.42857143 6:0.5625 7:0.35714286 8:0.4 9:0.14285714 10:0.25 11:0.33333333 13:0.22222222 14:0.27272727 15:0.14285714 16:0.71428571 17:0.33333333 18:0.16666667 19:0.28571429 22:0.625 24:0.11111111 25:0.33333333 28:0.16666667 29:0.16666667 32:0.25 36:0.25 38:0.25 40:0.2 42:0.2 43:0.75 47:0.8 49:0.33333333 52:0.25 56:0.33333333 61:0.8 63:0.25 67:0.25 70:0.61111111 71:1 75:1 78:1 87:1 94:1 96:1 98:0.047309356 
-256 1:0.42831999 2:0.53674612 3:0.30343437 4:0.5077276 5:0.57142857 6:0.375 7:0.42857143 8:0.4 9:0.14285714 10:0.25 11:0.5 12:0.2 13:0.55555556 14:0.18181818 16:0.14285714 17:0.33333333 18:0.33333333 19:0.14285714 20:0.16666667 22:0.25 23:0.33333333 24:0.22222222 26:0.33333333 28:0.16666667 29:0.16666667 32:0.5 34:0.25 35:0.33333333 36:0.25 37:0.16666667 38:0.25 39:0.25 40:0.6 41:0.11111111 48:0.33333333 51:0.2 52:0.25 54:0.5 58:0.2 60:0.25 63:0.25 65:0.33333333 68:0.33333333 69:0.2 70:0.5 76:1 78:1 79:1 80:1 82:1 98:1 
256 1:0.42831999 2:0.60161107 3:0.6443844 4:0.68560592 5:0.35714286 6:0.75 7:0.28571429 8:0.33333333 9:0.14285714 10:0.125 11:0.33333333 12:0.2 13:0.22222222 14:0.63636364 15:0.28571429 16:0.28571429 17:0.33333333 20:0.33333333 22:0.625 27:0.5 29:0.16666667 32:0.25 34:0.25 37:0.16666667 38:0.25 40:0.4 41:0.44444444 42:0.4 43:0.25 44:0.25 45:0.25 47:0.4 50:0.25 52:0.25 58:0.4 61:0.6 63:0.25 70:0.72222222 72:1 78:1 79:1 80:1 82:1 87:1 89:1 90:1 91:1 97:1 98:0.99664016 
-256 1:0.63479026 2:0.69878904 3:0.52267638 4:0.63267216 5:0.5 6:0.5625 7:0.35714286 8:0.33333333 10:0.5 11:0.16666667 12:0.2 13:0.22222222 14:0.27272727 15:0.42857143 16:0.42857143 17:0.5 18:0.16666667 20:0.16666667 21:0.2 22:0.375 23:0.16666667 29:0.33333333 30:0.25 31:0.33333333 32:0.25 37:0.16666667 38:0.25 40:0.2 42:0.4 43:0.5 44:0.25 45:0.25 47:0.4 48:0.33333333 51:0.4 53:0.33333333 54:0.25 60:0.25 61:0.4 64:0.33333333 70:0.61111111 71:1 85:1 89:1 91:1 98:0.12620107 
-256 1:0.53694314 2:0.39165412 3:0.21542841 4:0.30346476 5:0.78571429 6:0.3125 7:0.35714286 8:0.33333333 9:0.71428571 10:0.5 11:0.16666667 12:0.2 13:0.33333333 14:0.27272727 17:0.16666667 19:0.14285714 20:0.5 21:0.4 23:0.5 25:0.66666667 27:0.5 29:0.66666667 32:0.25 36:0.25 37:0.16666667 38:0.25 40:0.6 41:0.11111111 51:0.2 59:1 66:0.66666667 70:0.38888889 73:1 75:1 78:1 83:1 85:1 90:1 92:1 98:0.88122485 
-256 1:0.53694314 2:0.70469119 3:0.55697137 4:0.79239975 5:0.5 6:0.625 7:0.57142857 8:0.066666667 10:0.375 11:0.66666667 13:0.55555556 14:0.54545455 15:0.14285714 17:0.33333333 18:0.5 19:0.28571429 23:0.16666667 28:0.16666667 29:0.16666667 30:0.25 32:0.25 33:0.5 37:0.33333333 38:0.75 40:0.6 41:0.55555556 51:0.2 52:0.25 54:0.5 56:0.33333333 57:0.25 65:0.33333333 70:0.83333333 78:1 79:1 82:1 86:1 88:1 92:1 95:1 98:0.96777581 
-256 1:0.42831999 2:0.40980888 3:0.38416511 4:0.40186925 5:0.57142857 6:0.25 7:0.5 8:0.46666667 9:0.28571429 10:0.125 11:0.66666667 12:0.2 13:0.33333333 14:0.090909091 16:0.28571429 17:0.5 18:0.16666667 20:0.33333333 22:0.25 23:0.5 24:0.22222222 26:0.66666667 31:0.33333333 32:0.75 34:0.25 36:0.25 38:0.25 39:0.25 40:0.4 43:0.25 47:0.2 48:0.33333333 50:0.25 51:0.2 52:0.25 54:0.25 60:0.25 61:0.2 65:0.33333333 66:0.33333333 67:0.25 68:0.33333333 70:0.44444444 72:1 76:1 78:1 79:1 80:1 87:1 89:1 98:0.96759387 
256 1:0.42831999 2:0.59660963 3:0.69503483 4:0.60689847 5:0.5 6:0.6875 7:0.28571429 8:0.26666667 9:0.14285714 10:0.625 11:0.16666667 13:0.55555556 14:0.18181818 15:0.28571429 16:0.42857143 17:0.16666667 18:0.16666667 19:0.14285714 20:0.16666667 22:0.5 25:0.33333333 28:0.16666667 29:0.5 31:0.33333333 32:0.25 36:0.25 37:0.5 38:0.25 40:0.2 43:0.5 47:0.6 51:0.2 55:0.33333333 58:0.2 60:0.5 61:0.2 62:0.2 70:0.66666667 72:1 73:1 78:1 81:1 83:1 84:1 85:1 90:1 98:0.94455186 
-256 1:0.21880087 2:0.72728321 3:0.61370245 4:0.55981643 5:0.64285714 6:0.3125 7:0.57142857 8:0.26666667 9:0.14285714 10:0.375 11:0.33333333 12:0.6 13:0.22222222 14:0.090909091 15:0.42857143 16:0.14285714 17:0.66666667 18:0.16666667 19:0.28571429 21:0.2 22:0.25 23:0.16666667 25:0.33333333 29:0.33333333 30:0.25 32:0.25 38:0.25 39:0.25 40:0.2 42:0.2 43:0.25 44:0.25 47:0.2 50:0.25 51:0.4 53:0.33333333 56:0.33333333 61:0.2 62:0.2 64:0.33333333 70:0.55555556 71:1 74:1 83:1 85:1 98:0.93034894 
256 1:0.42293091 2:0.39695509 3:0.56389849 4:0.61477374 5:0.5 6:0.1875 7:0.78571429 8:0.33333333 9:0.14285714 10:0.25 11:0.5 12:0.2 13:0.22222222 15:0.28571429 17:0.5 18:0.5 19:0.42857143 20:0.33333333 23:0.5 24:0.22222222 26:0.33333333 29:0.16666667 30:0.25 32:0.25 33:0.5 37:0.16666667 38:0.25 40:0.2 42:0.2 45:0.25 50:0.25 51:0.2 53:0.33333333 54:0.25 57:0.25 64:0.66666667 66:0.33333333 68:0.66666667 70:0.61111111 71:1 90:1 94:1 98:0.011382927 
-256 1:0.42293091 2:0.38531421 3:0.32392033 4:0.43426122 5:0.42857143 6:0.125 7:0.64285714 8:0.6 10:0.125 11:0.5 12:0.4 13:0.33333333 14:0.090909091 17:0.5 18:0.33333333 19:0.28571429 20:0.33333333 23:0.5 24:0.55555556 29:0.16666667 32:0.25 34:0.25 35:0.33333333 37:0.16666667 38:0.5 40:0.6 52:0.25 53:0.66666667 54:0.5 56:0.66666667 65:0.33333333 66:0.33333333 68:0.66666667 69:0.6 70:0.44444444 79:1 80:1 91:1 98:0.057314556 
-256 1:0.44844587 2:0.38962297 3:0.480906 4:0.54772558 5:0.42857143 6:0.3125 7:0.57142857 8:0.46666667 9:0.28571429 10:0.125 11:0.33333333 12:0.2 13:0.22222222 14:0.18181818 15:0.28571429 16:0.14285714 17:0.33333333 19:0.28571429 20:0.66666667 22:0.375 23:0.33333333 24:0.11111111 26:0.33333333 29:0.16666667 32:0.25 34:0.25 36:0.25 38:0.25 40:0.2 41:0.11111111 42:0.2 43:0.25 45:0.25 49:0.33333333 51:0.2 53:0.33333333 56:0.33333333 58:0.2 60:0.25 61:0.4 66:0.33333333 67:0.25 70:0.55555556 72:1 78:1 80:1 83:1 85:1 92:1 98:0.15368613 
-256 1:0.44844587 2:0.63578533 3:0.61054367 4:0.63495725 5:0.28571429 6:0.5 7:0.42857143 8:0.53333333 10:0.25 11:0.16666667 12:0.2 13:0.11111111 14:0.18181818 15:0.42857143 16:0.57142857 17:0.5 18:0.16666667 20:0.33333333 22:0.625 23:0.16666667 24:0.11111111 29:0.16666667 30:0.25 32:0.25 38:0.25 40:0.2 41:0.11111111 42:0.2 43:0.25 44:0.5 45:0.25 47:0.2 48:0.33333333 49:0.33333333 51:0.4 53:0.33333333 55:0.33333333 58:0.4 61:0.4 63:0.75 66:0.33333333 67:0.25 70:0.61111111 81:1 87:1 98:0.47937894 
-256 1:0.5737647 2:0.4672879 3:0.51111903 4:0.58663976 5:0.64285714 6:0.4375 7:0.5 8:0.2 9:0.14285714 10:0.5 11:0.66666667 13:0.44444444 14:0.36363636 16:0.14285714 17:0.5 19:0.28571429 20:0.33333333 22:0.125 23:0.16666667 25:0.33333333 28:0.16666667 29:0.5 32:0.25 34:0.5 36:0.25 37:0.33333333 38:0.25 40:0.6 41:0.22222222 43:0.25 52:0.75 56:0.66666667 58:0.2 61:0.2 70:0.61111111 71:1 79:1 85:1 88:1 91:1 95:1 98:0.98882182 
256 1:0.5737647 2:0.37239778 3:0.38983471 4:0.53437076 5:0.57142857 6:0.1875 7:0.71428571 8:0.33333333 10:0.375 11:0.5 12:0.4 13:0.22222222 15:0.14285714 16:0.28571429 17:0.83333333 18:0.16666667 19:0.57142857 21:0.2 22:0.125 23:0.16666667 24:0.11111111 29:0.16666667 31:0.66666667 32:0.25 35:0.33333333 37:0.16666667 38:0.25 40:0.4 44:0.25 46:0.33333333 51:0.4 52:0.5 53:0.33333333 55:0.33333333 56:1 57:0.25 61:0.2 67:0.25 70:0.55555556 83:1 84:1 87:1 98:0.093244107 
-14.17393652170962 1:0.38755321 2:0.55846474 3:0.58121897 4:0.64232464 5:0.35714286 6:0.375 7:0.64285714 8:0.4 11:0.33333333 12:0.6 13:0.11111111 14:0.27272727 15:0.28571429 16:0.14285714 17:0.66666667 18:0.16666667 19:0.42857143 20:0.16666667 22:0.375 23:0.33333333 24:0.11111111 35:0.33333333 38:0.25 40:0.2 41:0.11111111 42:0.4 44:0.25 48:0.33333333 52:0.25 53:1 54:0.25 56:0.66666667 57:0.25 58:0.2 61:0.6 64:0.33333333 66:0.33333333 67:0.25 70:0.66666667 72:1 74:1 79:1 82:1 84:1 87:1 90:1 98:0.9901377 
-256 1:0.38755321 2:0.57795765 3:0.69503483 4:0.69663523 5:0.28571429 6:0.5625 7:0.42857143 8:0.46666667 10:0.25 11:0.16666667 12:0.2 13:0.22222222 14:0.18181818 15:0.57142857 16:0.42857143 17:0.16666667 18:0.16666667 19:0.14285714 20:0.33333333 22:0.75 24:0.11111111 28:0.16666667 29:0.16666667 35:0.33333333 37:0.16666667 38:0.25 40:0.2 41:0.11111111 42:0.2 43:0.25 45:0.5 47:0.6 53:0.33333333 55:0.33333333 56:0.33333333 58:0.4 61:0.4 62:0.4 63:0.5 67:0.25 70:0.66666667 71:1 75:1 87:1 96:1 98:0.42759055 
32.1236304255546 1:0.52705912 2:0.62852385 3:0.52319537 4:0.54215557 5:0.42857143 6:0.4375 7:0.5 8:0.4 9:0.14285714 10:0.375 11:0.33333333 13:0.22222222 14:0.36363636 16:0.42857143 17:0.16666667 18:0.16666667 19:0.42857143 20:0.16666667 21:0.4 22:0.125 23:0.33333333 24:0.11111111 26:0.33333333 29:0.5 36:0.25 38:0.25 40:0.4 41:0.22222222 43:0.5 46:0.33333333 47:0.2 49:0.33333333 51:0.2 56:0.33333333 57:0.25 61:0.2 66:0.33333333 68:0.33333333 70:0.61111111 78:1 86:1 89:1 98:0.99330564 
167.0596862549783 1:0.7418737 2:0.68091402 3:0.20233963 4:0.57325744 5:0.42857143 6:0.125 7:0.85714286 8:0.4 9:0.14285714 11:0.5 12:0.4 13:0.11111111 15:0.42857143 17:0.5 18:0.33333333 19:0.28571429 20:0.66666667 21:0.2 22:0.25 23:0.5 27:0.5 34:0.5 38:0.25 40:0.2 42:0.2 44:0.5 45:0.25 50:0.25 52:0.5 55:0.66666667 57:0.25 58:0.4 61:0.4 65:0.33333333 66:0.33333333 70:0.61111111 73:1 87:1 89:1 98:0.19523939 
-18.49349543081436 1:0.7418737 2:0.30389234 3:0.68762033 4:0.68671224 5:0.42857143 6:0.4375 7:0.57142857 8:0.33333333 9:0.14285714 10:0.375 11:0.33333333 13:0.22222222 14:0.27272727 15:0.42857143 16:0.14285714 17:0.16666667 18:0.33333333 19:0.28571429 20:0.5 21:0.2 22:0.125 23:0.16666667 24:0.11111111 25:0.33333333 29:0.33333333 30:0.25 33:0.5 36:0.25 38:0.25 40:0.4 41:0.22222222 42:0.2 44:0.25 45:0.5 49:0.33333333 51:0.2 54:0.25 55:0.33333333 57:0.25 58:0.2 63:0.25 66:0.33333333 68:0.33333333 70:0.66666667 71:1 85:1 88:1 94:1 98:0.95942402 
-256 1:0.51133292 2:0.59853708 3:0.4254219 4:0.46025767 5:0.57142857 6:0.3125 7:0.42857143 8:0.46666667 9:0.28571429 10:0.375 11:0.33333333 13:0.11111111 14:0.090909091 15:0.28571429 16:0.42857143 17:0.5 19:0.14285714 20:0.33333333 21:0.4 22:0.375 23:0.16666667 24:0.11111111 25:0.33333333 26:0.33333333 30:0.5 31:0.33333333 34:0.25 38:0.25 40:0.2 43:0.5 44:0.5 46:0.33333333 47:0.2 49:0.33333333 50:0.25 51:0.4 58:0.2 59:0.5 61:0.6 64:0.33333333 70:0.44444444 80:1 87:1 89:1 91:1 93:1 98:0.49232483 
256 1:0.51133292 2:0.48977351 3:0.3431175 4:0.5968817 5:0.35714286 6:0.3125 7:0.64285714 8:0.46666667 9:0.14285714 10:0.25 11:0.33333333 13:0.22222222 14:0.090909091 15:0.28571429 16:0.28571429 17:0.33333333 18:0.16666667 19:0.57142857 20:0.16666667 22:0.25 23:0.16666667 24:0.44444444 25:0.33333333 29:0.16666667 30:0.25 32:0.25 37:0.16666667 38:0.25 40:0.4 43:0.25 49:0.66666667 50:0.25 52:0.25 54:0.25 56:0.33333333 57:0.25 61:0.2 63:0.25 67:0.5 69:0.4 70:0.61111111 72:1 76:1 80:1 87:1 93:1 98:0.94280491 
-256 1:0.53694314 2:0.32927754 3:0.77885235 4:0.61727872 5:0.42857143 6:0.4375 7:0.57142857 8:0.33333333 9:0.14285714 10:0.375 11:0.16666667 13:0.44444444 14:0.18181818 15:0.14285714 16:0.28571429 17:0.16666667 18:0.16666667 19:0.42857143 20:0.5 22:0.375 23:0.33333333 25:0.33333333 28:0.33333333 31:0.33333333 36:0.25 37:0.33333333 38:0.25 40:0.2 41:0.11111111 42:0.2 43:0.25 47:0.2 48:0.33333333 54:0.25 57:0.25 58:0.4 60:0.25 61:0.4 64:0.33333333 66:0.33333333 70:0.66666667 74:1 80:1 84:1 86:1 98:0.26373198 
256 1:0.53694314 2:0.77887044 3:0.61054367 4:0.77574468 5:0.57142857 6:0.5 7:0.64285714 8:0.066666667 10:0.625 11:0.5 13:0.33333333 14:0.27272727 15:0.57142857 17:0.66666667 18:0.16666667 19:0.28571429 20:0.16666667 22:0.125 29:0.33333333 30:0.75 32:0.5 37:0.16666667 38:0.5 40:0.6 41:0.22222222 44:0.5 51:0.6 52:0.25 54:0.25 58:0.2 62:0.2 70:0.77777778 71:1 81:1 83:1 85:1 98:0.84819308 
256 1:0.52761317 2:0.75709291 3:0.80673839 4:0.6523532 5:0.57142857 6:0.5 7:0.42857143 8:0.26666667 9:0.42857143 10:0.25 11:0.33333333 13:0.55555556 14:0.090909091 15:0.42857143 16:0.14285714 18:0.83333333 20:0.16666667 22:0.25 24:0.22222222 26:0.33333333 28:0.16666667 31:0.33333333 33:1 36:0.25 37:0.33333333 38:0.25 40:0.6 47:0.2 54:0.5 55:0.66666667 61:0.2 62:0.2 67:0.25 69:0.2 70:0.61111111 74:1 98:0.032475214 
256 1:0.52761317 2:0.75341077 3:0.53277974 4:0.71740457 5:0.42857143 6:0.5 7:0.57142857 8:0.26666667 9:0.14285714 10:0.25 11:0.5 13:0.33333333 14:0.27272727 15:0.28571429 16:0.14285714 17:0.16666667 18:0.66666667 19:0.14285714 20:0.33333333 22:0.125 23:0.33333333 24:0.11111111 25:0.33333333 29:0.16666667 30:0.25 32:0.25 33:1 36:0.25 37:0.16666667 38:0.25 40:0.4 42:0.2 43:0.25 48:0.33333333 52:0.25 54:0.75 61:0.2 65:0.33333333 66:0.33333333 67:0.25 70:0.72222222 71:1 75:1 76:1 78:1 85:1 90:1 96:1 98:0.71272186 
-25.53804331962623 1:0.65949231 2:0.4917293 3:0.38667873 4:0.62309712 5:0.57142857 6:0.6875 7:0.28571429 8:0.2 10:0.5 11:0.5 13:0.66666667 14:0.36363636 15:0.14285714 16:0.28571429 17:0.16666667 18:0.5 21:0.2 22:0.125 24:0.11111111 28:0.16666667 29:0.5 32:0.25 33:1 37:0.5 38:0.5 40:0.6 41:0.11111111 42:0.2 43:0.25 46:0.33333333 49:0.33333333 51:0.2 54:0.25 61:0.2 67:0.25 70:0.66666667 72:1 74:1 75:1 76:1 81:1 82:1 86:1 98:0.14350779 
160.5794434808906 1:0.4895708 2:0.69922917 3:0.68556354 4:0.67273455 5:0.5 6:0.5625 7:0.42857143 8:0.26666667 9:0.14285714 10:0.5 11:0.16666667 12:0.2 13:0.55555556 14:0.27272727 15:0.14285714 16:0.28571429 18:0.5 19:0.42857143 22:0.125 23:0.16666667 24:0.11111111 25:0.33333333 28:0.16666667 29:0.16666667 30:0.25 31:0.33333333 33:0.5 37:0.5 38:0.25 39:0.25 40:0.2 41:0.33333333 43:0.25 47:0.2 49:0.33333333 57:0.5 61:0.2 65:0.33333333 70:0.66666667 71:1 73:1 80:1 83:1 87:1 88:1 89:1 98:0.87123777 
256 1:0.83029765 2:0.33980159 3:0.53277974 4:0.52583918 5:0.85714286 6:0.4375 7:0.42857143 8:0.066666667 9:0.42857143 10:0.625 11:0.5 12:0.2 13:0.66666667 14:0.18181818 15:0.14285714 17:0.33333333 18:0.16666667 19:0.28571429 22:0.125 25:1 28:0.16666667 29:0.66666667 32:0.25 33:0.5 36:0.5 37:0.16666667 38:0.75 40:0.8 50:0.25 53:0.33333333 55:0.33333333 56:0.33333333 60:0.25 70:0.55555556 71:1 75:1 80:1 85:1 96:1 98:0.36147145 
-42.03998271362201 1:0.7418737 2:0.50746299 3:0.60752713 4:0.70427181 5:0.21428571 6:0.625 7:0.35714286 8:0.53333333 11:0.33333333 12:0.2 13:0.33333333 14:0.45454545 15:0.14285714 16:0.42857143 18:0.66666667 20:0.16666667 22:0.375 23:0.33333333 24:0.22222222 33:0.5 34:0.25 35:0.33333333 38:0.5 39:0.25 40:0.6 41:0.22222222 42:0.2 43:0.25 47:0.4 54:0.75 61:0.4 63:0.25 65:0.66666667 68:0.66666667 70:0.66666667 76:1 79:1 81:1 87:1 91:1 98:0.098140395 
-256 1:0.7418737 2:0.51120317 3:0.60222828 4:0.61567177 5:0.64285714 6:0.625 7:0.28571429 8:0.2 9:0.28571429 10:0.5 11:0.5 13:0.44444444 14:0.45454545 15:0.14285714 16:0.28571429 17:0.33333333 18:0.33333333 21:0.2 22:0.125 26:0.33333333 28:0.5 29:0.16666667 32:0.25 33:1 36:0.25 37:0.16666667 38:0.5 40:0.2 41:0.44444444 42:0.2 43:0.25 44:0.25 47:0.2 51:0.4 54:0.25 61:0.2 70:0.61111111 73:1 78:1 80:1 83:1 87:1 88:1 92:1 95:1 98:0.99438128 
-256 1:0.64347853 2:0.53674612 3:0.38667873 4:0.62926037 5:0.42857143 6:0.8125 7:0.071428571 8:0.4 9:0.28571429 10:0.25 11:0.16666667 13:0.44444444 14:0.63636364 16:0.57142857 18:0.16666667 22:0.625 24:0.11111111 25:0.33333333 29:0.33333333 33:0.5 36:0.5 37:0.16666667 38:0.25 40:0.8 41:0.22222222 43:0.75 47:0.6 49:0.33333333 54:0.25 61:0.8 63:0.25 67:0.25 70:0.61111111 78:1 80:1 82:1 86:1 88:1 91:1 98:0.88239067 
-256 1:0.65949231 2:0.73695406 3:0.41846411 4:0.64399038 5:0.28571429 6:0.625 7:0.35714286 8:0.46666667 10:0.25 11:0.33333333 13:0.22222222 14:0.45454545 16:0.57142857 17:0.16666667 18:0.33333333 19:0.14285714 20:0.16666667 22:0.375 23:0.33333333 24:0.22222222 29:0.16666667 31:0.33333333 33:0.5 37:0.16666667 38:0.25 40:0.4 41:0.22222222 43:0.5 47:0.2 48:0.33333333 49:0.66666667 52:0.25 54:0.25 58:0.2 61:0.6 64:0.33333333 66:0.33333333 67:0.25 68:0.33333333 70:0.66666667 71:1 81:1 82:1 86:1 90:1 98:0.11853616 
256 1:0.54900569 2:0.56242758 3:0.6443844 4:0.51047188 5:0.42857143 6:0.625 7:0.21428571 8:0.46666667 9:0.14285714 10:0.375 11:0.16666667 12:0.2 13:0.33333333 14:0.36363636 16:0.57142857 18:0.16666667 19:0.14285714 20:0.16666667 21:0.2 22:0.5 23:0.16666667 24:0.11111111 27:0.5 29:0.5 33:0.5 37:0.33333333 38:0.25 40:0.4 43:0.75 47:0.6 49:0.33333333 58:0.2 60:0.25 61:0.6 68:0.33333333 70:0.55555556 71:1 73:1 81:1 87:1 90:1 96:1 98:0.38586853 
256 1:0.51133292 2:0.45497201 3:0.52505164 4:0.61083707 5:0.28571429 6:0.75 7:0.21428571 8:0.46666667 9:0.14285714 10:0.125 11:0.16666667 12:0.2 13:0.33333333 14:0.72727273 16:0.28571429 18:0.16666667 19:0.14285714 20:0.16666667 22:0.375 23:0.16666667 24:0.33333333 25:0.33333333 29:0.16666667 34:0.25 36:0.25 38:0.25 39:0.25 40:0.4 41:0.66666667 43:0.25 47:0.2 49:0.33333333 54:0.25 61:0.4 63:0.25 67:0.25 69:0.4 70:0.66666667 72:1 73:1 75:1 78:1 87:1 88:1 90:1 96:1 98:0.84709547 
256 1:0.36052166 2:0.37476505 3:0.52319537 4:0.46474165 5:0.57142857 6:0.25 7:0.57142857 8:0.4 10:0.375 11:0.5 12:0.2 13:0.33333333 14:0.090909091 15:0.14285714 16:0.14285714 17:0.5 19:0.14285714 20:0.66666667 21:0.2 22:0.25 23:0.5 29:0.33333333 30:0.25 32:0.25 34:0.5 37:0.16666667 38:0.5 40:0.6 44:0.25 46:0.33333333 51:0.2 52:0.25 58:0.4 61:0.2 63:0.25 64:0.33333333 66:0.33333333 70:0.5 71:1 83:1 85:1 96:1 98:0.077126401 
256 1:0.40571692 2:0.54107234 3:0.47790352 4:0.64749312 5:0.28571429 6:0.5625 7:0.35714286 8:0.53333333 9:0.14285714 11:0.33333333 12:0.2 13:0.22222222 14:0.27272727 15:0.28571429 16:0.42857143 17:0.16666667 18:0.5 20:0.16666667 22:0.625 23:0.16666667 24:0.22222222 27:0.5 32:0.25 34:0.25 38:0.5 40:0.2 41:0.22222222 43:0.5 47:0.2 49:0.66666667 50:0.25 54:0.5 55:0.33333333 58:0.2 60:0.25 61:0.2 62:0.2 63:0.25 65:0.33333333 67:0.5 70:0.61111111 76:1 81:1 82:1 89:1 90:1 97:1 98:0.64941967 
256 1:0.53694314 2:0.4917293 3:0.42141644 4:0.61385665 5:0.57142857 6:0.75 7:0.21428571 8:0.2 9:0.14285714 10:0.5 11:0.16666667 12:0.2 13:0.66666667 14:0.54545455 15:0.14285714 16:0.14285714 17:0.16666667 19:0.14285714 20:0.16666667 22:0.375 28:0.16666667 29:0.5 34:0.25 36:0.25 37:0.5 38:0.25 39:0.25 40:1 41:0.33333333 47:0.2 51:0.2 56:0.33333333 58:0.2 61:0.4 63:0.25 70:0.66666667 72:1 81:1 82:1 86:1 88:1 98:0.85802286 
-256 1:0.53694314 2:0.40449774 3:0.61829971 4:0.51047188 5:0.64285714 6:0.5 7:0.35714286 8:0.26666667 9:0.28571429 10:0.375 11:0.33333333 12:0.2 13:0.66666667 14:0.27272727 16:0.14285714 17:0.16666667 18:0.16666667 19:0.28571429 20:0.16666667 22:0.25 23:0.16666667 24:0.11111111 25:0.33333333 28:0.33333333 29:0.16666667 34:0.25 36:0.25 37:0.16666667 38:0.5 39:0.25 40:0.6 41:0.22222222 49:0.33333333 51:0.2 56:0.33333333 58:0.2 61:0.4 67:0.25 70:0.55555556 72:1 73:1 75:1 82:1 84:1 87:1 88:1 98:0.30979025 
256 1:0.53694314 2:0.57695035 3:0.5316808 4:0.68757061 5:0.5 6:0.4375 7:0.64285714 8:0.2 9:0.28571429 10:0.375 11:0.16666667 12:0.2 13:0.11111111 14:0.36363636 15:0.42857143 16:0.14285714 17:0.66666667 19:0.42857143 20:0.16666667 22:0.125 23:0.33333333 25:0.33333333 29:0.5 34:0.25 38:0.25 40:0.2 41:0.22222222 42:0.4 43:0.25 44:0.5 48:0.33333333 50:0.25 51:0.4 53:0.33333333 56:0.66666667 58:0.2 61:0.2 70:0.72222222 72:1 78:1 82:1 86:1 92:1 98:0.77972631 
256 1:0.53694314 2:0.38655553 3:0.34118031 4:0.45595159 5:0.35714286 6:0.6875 7:0.071428571 8:0.6 10:0.375 11:0.16666667 12:0.2 13:0.44444444 14:0.54545455 16:0.42857143 20:0.16666667 21:0.2 22:0.375 24:0.44444444 29:0.5 34:0.25 35:0.33333333 37:0.33333333 38:0.25 39:0.25 40:0.8 41:0.22222222 43:0.5 47:0.2 49:0.66666667 58:0.2 61:0.4 63:0.25 67:0.25 69:0.2 70:0.5 72:1 75:1 81:1 85:1 88:1 89:1 96:1 98:0.69786083 
256 1:0.53694314 2:0.45360694 3:0.63561719 4:0.6470171 5:0.28571429 6:0.6875 7:0.35714286 8:0.4 10:0.25 11:0.33333333 13:0.44444444 14:0.45454545 15:0.14285714 16:0.28571429 18:0.16666667 19:0.14285714 20:0.5 22:0.5 23:0.16666667 24:0.11111111 31:0.33333333 33:0.5 34:0.25 37:0.33333333 38:0.5 40:0.4 41:0.44444444 43:0.25 45:0.25 48:0.33333333 49:0.33333333 54:0.25 58:0.6 60:0.5 61:0.4 67:0.25 70:0.72222222 72:1 81:1 83:1 86:1 88:1 90:1 95:1 98:0.78013822 
256 1:0.42831999 2:0.70499602 3:0.28479522 4:0.60587769 5:0.35714286 6:0.6875 7:0.28571429 8:0.4 9:0.14285714 11:0.33333333 12:0.4 13:0.33333333 14:0.63636364 15:0.14285714 16:0.14285714 18:0.33333333 20:0.33333333 21:0.2 22:0.375 23:0.16666667 24:0.11111111 27:0.5 33:0.5 34:0.25 35:0.33333333 36:0.25 38:0.5 40:0.2 41:0.77777778 45:0.25 46:0.33333333 55:0.33333333 58:0.4 60:0.25 61:0.2 63:0.25 65:0.33333333 67:0.25 70:0.66666667 72:1 80:1 83:1 87:1 88:1 90:1 91:1 95:1 98:0.67188132 
-256 1:0.42831999 2:0.67940642 3:0.21542841 4:0.50140866 5:0.5 6:0.5625 7:0.28571429 8:0.4 9:0.14285714 10:0.625 11:0.16666667 13:0.33333333 14:0.27272727 15:0.14285714 16:0.57142857 17:0.33333333 20:0.33333333 21:0.2 22:0.375 23:0.16666667 25:0.33333333 28:0.33333333 29:0.5 34:0.25 36:0.25 37:0.16666667 38:0.25 40:0.2 41:0.11111111 42:0.2 43:0.5 45:0.25 46:0.33333333 47:0.2 48:0.33333333 51:0.4 58:0.4 61:0.2 63:0.5 64:0.33333333 70:0.55555556 73:1 82:1 86:1 98:0.92610606 
256 1:0.42831999 2:0.27168358 3:0.59777282 4:0.31335816 5:0.5 6:0.1875 7:0.35714286 8:0.73333333 9:0.14285714 10:0.125 11:0.16666667 12:0.8 13:0.33333333 15:0.14285714 16:0.14285714 17:0.33333333 18:0.16666667 19:0.14285714 20:0.16666667 21:0.2 22:0.375 23:0.33333333 24:0.44444444 27:0.5 29:0.16666667 34:0.25 35:0.33333333 38:0.25 39:0.5 40:0.4 44:0.25 48:0.33333333 51:0.2 53:0.33333333 58:0.2 59:0.5 61:0.2 62:0.2 63:0.25 64:0.33333333 67:0.25 69:0.4 70:0.27777778 74:1 80:1 83:1 85:1 89:1 98:0.84998306 
256 1:0.42831999 2:0.58206408 3:0.4547451 4:0.59277679 5:0.42857143 6:0.5 7:0.42857143 8:0.4 10:0.125 11:0.5 12:0.2 13:0.55555556 14:0.27272727 15:0.14285714 16:0.14285714 17:0.16666667 18:0.33333333 19:0.14285714 20:0.33333333 22:0.375 23:0.16666667 24:0.22222222 29:0.16666667 32:0.25 34:0.25 38:0.75 39:0.25 40:0.6 41:0.22222222 48:0.33333333 51:0.2 54:0.5 58:0.2 60:0.25 62:0.2 63:0.25 65:0.33333333 67:0.25 69:0.2 70:0.61111111 72:1 73:1 83:1 88:1 98:0.7681516 
256 1:0.42831999 2:0.42632712 3:0.69503483 4:0.55268621 5:0.42857143 6:0.375 7:0.5 8:0.46666667 9:0.14285714 10:0.125 11:0.5 13:0.44444444 14:0.090909091 15:0.14285714 16:0.28571429 18:0.16666667 19:0.14285714 20:0.83333333 22:0.625 23:0.33333333 26:0.33333333 28:0.16666667 33:0.5 34:0.25 36:0.25 37:0.16666667 38:0.25 40:0.4 42:0.2 45:0.25 47:0.2 48:0.33333333 54:0.25 58:0.8 60:0.25 61:0.4 63:0.5 66:0.66666667 70:0.55555556 71:1 81:1 83:1 84:1 87:1 98:0.66835389 
-256 1:0.28947959 2:0.52907332 3:0.61370245 4:0.39169971 5:0.57142857 6:0.375 7:0.28571429 8:0.53333333 9:0.28571429 10:0.5 11:0.16666667 13:0.33333333 15:0.28571429 16:0.42857143 17:0.33333333 20:0.33333333 21:0.2 22:0.5 24:0.33333333 25:0.33333333 28:0.16666667 29:0.33333333 31:0.33333333 34:0.25 37:0.33333333 38:0.25 40:0.2 43:0.25 44:0.25 45:0.25 47:0.4 49:0.33333333 50:0.25 51:0.2 58:0.2 60:0.25 62:0.4 63:0.25 67:0.25 69:0.2 70:0.38888889 73:1 78:1 79:1 80:1 82:1 84:1 85:1 89:1 98:0.52883822 
256 1:0.26651318 2:0.62408947 3:0.62300177 4:0.65672183 5:0.5 6:0.5 7:0.5 8:0.26666667 9:0.42857143 10:0.375 11:0.16666667 13:0.22222222 14:0.18181818 15:0.42857143 16:0.28571429 17:0.33333333 18:0.33333333 19:0.28571429 20:0.16666667 22:0.25 23:0.16666667 24:0.11111111 26:0.33333333 28:0.16666667 29:0.16666667 34:0.25 36:0.25 37:0.16666667 40:0.2 41:0.11111111 42:0.2 43:0.25 44:0.25 47:0.2 48:0.33333333 51:0.4 54:0.5 57:0.25 62:0.4 64:0.33333333 67:0.25 70:0.66666667 72:1 74:1 76:1 81:1 83:1 85:1 90:1 98:0.60503631 
25.27321316918864 1:0.26651318 2:0.90391613 3:0.35681947 4:0.50430182 5:0.5 6:0.375 7:0.42857143 8:0.46666667 9:0.42857143 10:0.25 12:0.4 13:0.33333333 15:0.28571429 16:0.28571429 18:0.33333333 19:0.42857143 20:0.16666667 21:0.2 22:0.5 23:0.16666667 24:0.11111111 25:0.33333333 28:0.16666667 30:0.25 36:0.25 37:0.16666667 39:0.25 40:0.2 43:0.25 48:0.33333333 49:0.33333333 55:0.33333333 57:0.5 60:0.25 61:0.4 66:0.33333333 67:0.25 70:0.5 75:1 83:1 84:1 87:1 89:1 90:1 97:1 98:0.74822548 
-256 1:0.26651318 2:0.60015738 3:0.55697137 4:0.4705076 5:0.85714286 6:0.5 7:0.28571429 8:0.13333333 9:0.57142857 10:0.875 11:0.16666667 13:0.66666667 14:0.090909091 15:0.28571429 17:0.33333333 19:0.14285714 20:0.16666667 22:0.25 25:0.66666667 26:0.33333333 28:0.5 29:0.16666667 30:0.5 36:0.75 37:0.5 40:0.6 44:0.25 45:0.25 51:0.4 56:0.33333333 58:0.2 61:0.4 70:0.5 87:1 90:1 91:1 95:1 98:0.90320876 
-256 1:0.26651318 2:0.46029006 3:0.6443844 4:0.50821432 5:0.57142857 6:0.5625 7:0.21428571 8:0.4 9:0.28571429 10:0.5 11:0.16666667 12:0.2 13:0.33333333 14:0.27272727 15:0.14285714 16:0.57142857 17:0.33333333 19:0.14285714 21:0.2 22:0.5 26:0.33333333 28:0.16666667 29:0.16666667 30:0.25 31:0.33333333 36:0.25 37:0.33333333 40:0.4 41:0.11111111 43:0.5 44:0.25 47:0.6 51:0.2 53:0.33333333 56:0.33333333 61:0.6 63:0.25 70:0.5 87:1 96:1 98:0.18724045 
-256 1:0.26651318 2:0.35776438 3:0.53701896 4:0.38643427 5:0.64285714 6:0.5625 7:0.14285714 8:0.4 9:0.57142857 10:0.5 11:0.16666667 13:0.44444444 14:0.18181818 15:0.14285714 16:0.42857143 20:0.33333333 21:0.2 22:0.5 24:0.11111111 25:0.66666667 26:0.33333333 28:0.16666667 29:0.33333333 31:0.33333333 34:0.25 36:0.5 37:0.33333333 40:0.4 41:0.11111111 42:0.2 45:0.25 46:0.33333333 47:0.4 58:0.2 59:0.5 60:0.25 61:0.2 63:0.25 67:0.25 70:0.44444444 72:1 74:1 75:1 80:1 86:1 89:1 90:1 97:1 98:0.94787183 
256 1:0.26651318 2:0.32223058 3:0.63561719 4:0.42552511 5:0.85714286 6:0.5625 7:0.14285714 8:0.2 9:0.71428571 10:0.625 11:0.16666667 12:0.2 13:0.77777778 14:0.18181818 15:0.14285714 16:0.14285714 18:0.16666667 22:0.375 25:0.66666667 28:0.5 29:0.16666667 30:0.25 36:0.5 37:0.5 38:0.25 39:0.25 40:0.6 41:0.11111111 47:0.2 60:0.25 61:0.4 70:0.44444444 78:1 80:1 82:1 87:1 88:1 91:1 98:0.99981239 
256 1:0.41962372 2:0.33268465 3:0.61552358 4:0.44806018 5:0.64285714 6:0.375 7:0.35714286 8:0.4 9:0.14285714 10:0.625 11:0.33333333 12:0.2 13:0.55555556 14:0.090909091 15:0.28571429 17:0.33333333 20:0.5 22:0.25 23:0.16666667 24:0.22222222 26:0.33333333 28:0.5 29:0.33333333 32:0.25 34:0.25 36:0.25 37:0.5 39:0.25 40:0.2 41:0.11111111 42:0.2 45:0.5 51:0.2 52:0.25 60:0.25 62:0.2 64:0.33333333 67:0.25 70:0.44444444 71:1 75:1 79:1 80:1 85:1 89:1 98:0.72424121 
256 1:0.41962372 2:0.56030682 3:0.69503483 4:0.52583882 5:0.5 6:0.5 7:0.28571429 8:0.46666667 9:0.28571429 10:0.375 11:0.33333333 13:0.22222222 14:0.18181818 15:0.28571429 16:0.42857143 17:0.5 20:0.16666667 22:0.625 24:0.22222222 25:0.33333333 26:0.33333333 28:0.16666667 29:0.33333333 32:0.5 36:0.25 37:0.16666667 40:0.2 42:0.4 43:0.25 44:0.25 45:0.25 47:0.2 49:0.66666667 50:0.25 51:0.2 52:0.25 58:0.2 61:0.4 63:0.5 67:0.5 70:0.5 79:1 80:1 84:1 87:1 89:1 90:1 97:1 98:0.7794695 
-256 1:0.41962372 2:0.35784207 3:0.16910392 4:0.21072503 5:0.71428571 6:0.25 7:0.28571429 8:0.53333333 9:0.28571429 10:0.25 11:0.5 12:0.6 13:0.33333333 16:0.42857143 17:0.16666667 18:0.16666667 20:0.16666667 21:0.8 22:0.375 23:0.16666667 25:0.33333333 26:0.33333333 28:0.16666667 29:0.16666667 32:0.25 34:0.25 36:0.5 37:0.16666667 40:0.2 43:0.25 46:1 53:0.33333333 60:0.25 61:0.2 63:0.25 65:0.33333333 70:0.27777778 75:1 80:1 82:1 84:1 87:1 98:0.91664187 
230.260501185616 1:0.41962372 2:0.49748992 3:0.42509053 4:0.54918385 5:0.42857143 6:0.4375 7:0.5 8:0.4 9:0.14285714 10:0.125 11:0.33333333 12:0.4 13:0.55555556 14:0.090909091 16:0.42857143 18:0.33333333 19:0.42857143 20:0.16666667 22:0.625 23:0.16666667 26:0.33333333 28:0.16666667 33:0.5 36:0.25 37:0.16666667 38:0.25 39:0.5 40:0.4 43:0.25 47:0.6 58:0.2 60:0.25 61:0.6 63:0.25 70:0.61111111 78:1 79:1 82:1 87:1 95:1 98:0.65883571 
256 1:0.38120216 2:0.40113129 3:0.3836975 4:0.33422705 5:0.85714286 6:0.4375 7:0.21428571 8:0.26666667 9:0.28571429 10:0.875 12:0.4 13:0.88888889 14:0.090909091 17:0.16666667 19:0.14285714 20:0.16666667 22:0.125 23:0.33333333 24:0.11111111 25:0.66666667 28:0.83333333 29:0.33333333 35:0.33333333 36:0.5 37:0.66666667 39:0.25 40:0.6 51:0.2 58:0.2 61:0.2 64:0.33333333 68:0.33333333 70:0.38888889 71:1 74:1 81:1 82:1 87:1 98:0.67743241 
-256 1:0.38120216 2:0.60500311 3:0.59203639 4:0.60403691 5:0.57142857 6:0.5625 7:0.42857143 8:0.2 9:0.14285714 10:0.75 12:0.2 13:0.55555556 14:0.18181818 15:0.42857143 16:0.14285714 17:0.33333333 18:0.16666667 19:0.14285714 20:0.16666667 22:0.25 23:0.16666667 25:0.33333333 28:0.16666667 29:0.16666667 30:0.75 31:0.33333333 36:0.25 37:0.5 39:0.25 40:0.6 41:0.11111111 44:0.5 48:0.33333333 51:0.4 54:0.25 58:0.2 60:0.25 61:0.2 65:0.33333333 70:0.66666667 85:1 95:1 98:0.017887273 
256 1:0.38120216 2:0.40113129 3:0.61358266 4:0.48212595 5:0.5 6:0.25 7:0.64285714 8:0.4 9:0.14285714 10:0.5 11:0.16666667 13:0.44444444 15:0.28571429 17:0.16666667 19:0.42857143 20:0.83333333 21:0.2 22:0.125 23:0.5 24:0.11111111 25:0.33333333 28:0.33333333 29:0.16666667 30:0.25 34:0.25 36:0.25 37:0.33333333 38:0.25 40:0.2 42:0.2 45:0.5 51:0.2 56:0.33333333 57:0.25 58:0.2 61:0.2 66:0.33333333 68:0.33333333 70:0.55555556 72:1 73:1 79:1 84:1 85:1 89:1 98:0.91211341 
-256 1:0.38120216 2:0.51777187 3:0.21840861 4:0.4808053 5:0.64285714 6:0.4375 7:0.28571429 8:0.4 9:0.42857143 10:0.375 11:0.16666667 12:0.4 13:0.44444444 15:0.28571429 16:0.42857143 18:0.5 20:0.16666667 21:0.2 22:0.375 23:0.16666667 25:0.66666667 26:0.33333333 28:0.16666667 29:0.16666667 31:0.33333333 34:0.25 36:0.75 37:0.16666667 40:0.2 42:0.2 46:0.33333333 48:0.33333333 54:0.25 58:0.2 60:0.25 62:0.2 63:0.25 65:0.33333333 70:0.44444444 71:1 74:1 76:1 80:1 82:1 85:1 98:0.75683861 
-256 1:0.22243322 2:0.35791462 3:0.41846411 4:0.34185939 5:0.71428571 6:0.625 8:0.4 9:0.42857143 10:0.5 12:0.4 13:0.66666667 14:0.27272727 16:0.42857143 21:0.2 22:0.5 24:0.11111111 25:0.66666667 27:0.5 28:0.5 31:0.33333333 36:0.5 37:0.33333333 39:0.25 40:0.4 41:0.11111111 43:0.5 47:0.4 49:0.33333333 59:0.5 60:0.25 61:0.6 67:0.25 70:0.38888889 72:1 87:1 98:0.77297935 
-256 1:0.22243322 2:0.7208245 3:0.19591328 4:0.37605357 5:0.64285714 6:0.375 7:0.28571429 8:0.46666667 9:0.14285714 10:0.25 11:0.33333333 12:0.6 13:0.44444444 14:0.18181818 15:0.14285714 16:0.14285714 17:0.16666667 18:0.16666667 20:0.33333333 21:0.4 22:0.375 23:0.16666667 24:0.11111111 27:0.5 28:0.16666667 31:0.33333333 34:0.5 36:0.25 37:0.33333333 39:0.25 40:0.6 41:0.11111111 48:0.33333333 53:0.33333333 54:0.25 58:0.2 61:0.4 62:0.2 64:0.33333333 67:0.25 70:0.38888889 71:1 78:1 80:1 83:1 86:1 89:1 98:0.14979271 
256 1:0.40571692 2:0.63132187 3:0.6443844 4:0.55606391 5:0.64285714 6:0.6875 7:0.21428571 8:0.2 9:0.14285714 10:0.75 11:0.33333333 13:0.55555556 14:0.36363636 15:0.14285714 16:0.28571429 17:0.33333333 18:0.16666667 21:0.2 22:0.25 25:0.33333333 28:0.33333333 29:0.5 30:0.25 32:0.5 36:0.25 37:0.5 38:0.25 40:0.6 41:0.11111111 43:0.25 46:0.33333333 47:0.2 51:0.2 52:0.25 54:0.25 61:0.2 63:0.25 70:0.61111111 80:1 82:1 85:1 90:1 96:1 98:0.92837163 
-256 1:0.40571692 2:0.5281612 3:0.32392033 4:0.513083 5:0.21428571 6:0.375 7:0.42857143 8:0.73333333 10:0.125 11:0.33333333 13:0.22222222 14:0.18181818 15:0.28571429 16:0.14285714 17:0.16666667 18:0.16666667 20:0.66666667 22:0.5 23:0.33333333 24:0.55555556 28:0.16666667 32:0.25 34:0.25 37:0.16666667 38:0.25 40:0.2 41:0.22222222 42:0.2 45:0.5 49:0.33333333 52:0.25 54:0.25 58:0.6 61:0.2 62:0.2 63:0.25 65:0.33333333 66:0.33333333 67:0.25 68:0.33333333 69:0.6 70:0.5 79:1 87:1 89:1 90:1 97:1 98:0.73650019 
-182.3845543627566 1:0.40571692 2:0.14815188 3:0.30343437 4:0.32058376 5:0.85714286 6:0.4375 7:0.14285714 8:0.33333333 9:0.71428571 10:0.5 11:0.16666667 12:0.4 13:0.33333333 14:0.27272727 15:0.14285714 16:0.14285714 17:0.16666667 18:0.16666667 21:0.4 22:0.125 24:0.22222222 25:0.66666667 27:0.5 28:0.16666667 29:0.33333333 31:0.33333333 32:0.25 35:0.33333333 36:0.25 37:0.16666667 38:0.25 40:0.4 41:0.22222222 42:0.2 46:0.33333333 51:0.2 59:0.5 61:0.2 67:0.25 69:0.2 70:0.33333333 71:1 73:1 75:1 78:1 80:1 82:1 87:1 88:1 90:1 98:0.83680103 
-256 1:0.40571692 2:0.60347191 3:0.52505164 4:0.54212836 5:0.35714286 6:0.625 7:0.21428571 8:0.53333333 10:0.25 11:0.16666667 12:0.4 13:0.44444444 14:0.45454545 15:0.14285714 16:0.14285714 17:0.16666667 18:0.16666667 20:0.16666667 22:0.5 23:0.16666667 24:0.33333333 28:0.16666667 29:0.16666667 32:0.25 35:0.33333333 37:0.33333333 38:0.25 39:0.25 40:0.4 41:0.44444444 49:0.33333333 53:0.33333333 58:0.2 60:0.25 61:0.4 62:0.2 66:0.33333333 67:0.25 68:0.33333333 69:0.2 70:0.55555556 75:1 81:1 86:1 90:1 96:1 98:0.68075058 
-37.64885024369751 1:0.6254754 2:0.51220734 3:0.67433756 4:0.54938149 5:0.57142857 6:0.625 7:0.28571429 8:0.26666667 9:0.14285714 10:0.625 11:0.33333333 13:0.55555556 14:0.27272727 15:0.14285714 16:0.28571429 18:0.16666667 19:0.14285714 20:0.33333333 21:0.2 22:0.375 26:0.33333333 28:0.33333333 29:0.16666667 30:0.25 33:0.5 34:0.25 37:0.66666667 38:0.25 40:0.6 43:0.5 46:0.33333333 47:0.2 54:0.25 58:0.4 61:0.6 70:0.61111111 71:1 73:1 78:1 81:1 82:1 87:1 90:1 92:1 98:0.91994162 
256 1:0.36052166 2:0.37111068 3:0.53701896 4:0.41927421 5:0.64285714 6:0.4375 7:0.35714286 8:0.33333333 9:0.14285714 10:0.5 11:0.33333333 12:0.2 13:0.55555556 14:0.18181818 16:0.28571429 17:0.33333333 19:0.14285714 20:0.33333333 21:0.2 22:0.25 23:0.33333333 27:0.5 28:0.33333333 29:0.33333333 32:0.25 34:0.25 36:0.25 37:0.33333333 38:0.25 40:0.6 41:0.11111111 47:0.4 51:0.2 52:0.25 56:0.33333333 61:0.2 63:0.25 66:0.33333333 70:0.5 72:1 74:1 81:1 84:1 85:1 98:0.95341216 
256 1:0.36052166 2:0.65958401 3:0.37999556 4:0.51126871 5:0.42857143 6:0.625 7:0.21428571 8:0.46666667 10:0.375 11:0.16666667 12:0.2 13:0.55555556 14:0.18181818 15:0.28571429 16:0.42857143 20:0.5 21:0.2 22:0.75 28:0.16666667 31:0.66666667 34:0.25 37:0.33333333 38:0.25 39:0.25 40:0.4 41:0.22222222 45:0.5 46:0.33333333 47:0.4 58:0.6 60:0.25 61:0.4 62:0.4 63:0.25 70:0.55555556 72:1 73:1 78:1 87:1 88:1 98:0.96844367 
256 1:0.33744283 2:0.57884798 3:0.480906 4:0.44148674 5:0.85714286 6:0.5625 7:0.21428571 8:0.13333333 9:0.28571429 10:1 11:0.16666667 13:1 14:0.18181818 18:0.16666667 19:0.14285714 20:0.16666667 23:0.16666667 24:0.11111111 25:0.66666667 28:1 29:0.33333333 36:0.25 37:1 38:0.25 40:0.6 41:0.11111111 54:0.25 65:0.33333333 68:0.33333333 70:0.5 71:1 73:1 78:1 79:1 82:1 85:1 95:1 98:0.99093989 
256 1:0.57477884 2:0.49482365 3:0.480906 4:0.56555778 5:0.64285714 6:0.625 7:0.28571429 8:0.2 10:0.875 11:0.16666667 12:0.2 13:0.55555556 14:0.27272727 15:0.28571429 16:0.14285714 17:0.66666667 22:0.25 23:0.16666667 28:0.33333333 29:0.66666667 30:0.25 32:0.25 37:0.66666667 39:0.25 40:0.6 43:0.25 44:0.5 48:0.33333333 51:0.6 52:0.25 61:0.2 62:0.2 64:0.33333333 70:0.61111111 87:1 90:1 95:1 98:0.88250961 
-256 1:0.57477884 2:0.32582187 3:0.36591927 4:0.47770931 5:0.5 6:0.3125 7:0.5 8:0.46666667 9:0.28571429 10:0.375 11:0.16666667 13:0.22222222 14:0.090909091 15:0.28571429 16:0.28571429 17:0.33333333 19:0.28571429 20:0.5 21:0.2 22:0.25 23:0.33333333 24:0.22222222 26:0.33333333 28:0.16666667 30:0.25 31:0.33333333 37:0.33333333 40:0.2 41:0.11111111 42:0.2 44:0.5 46:0.33333333 48:0.33333333 51:0.2 58:0.2 59:0.5 61:0.4 66:0.33333333 67:0.25 69:0.2 70:0.5 72:1 74:1 80:1 83:1 84:1 87:1 88:1 98:0.47941462 
256 1:0.57477884 2:0.68091402 3:0.59203639 4:0.56799048 5:0.64285714 6:0.5625 7:0.28571429 8:0.26666667 9:0.14285714 10:0.625 11:0.16666667 12:0.4 13:0.44444444 14:0.27272727 15:0.42857143 16:0.14285714 17:0.33333333 18:0.16666667 20:0.16666667 21:0.2 22:0.25 27:0.5 28:0.33333333 29:0.33333333 30:0.25 33:0.5 37:0.33333333 38:0.25 39:0.25 40:0.2 41:0.22222222 42:0.2 43:0.25 44:0.5 45:0.25 51:0.4 55:0.33333333 58:0.2 60:0.25 61:0.2 70:0.55555556 71:1 73:1 79:1 81:1 82:1 87:1 88:1 98:0.94106876 
-256 1:0.57477884 2:0.79452845 3:0.78816598 4:0.97027737 5:0.28571429 6:0.5625 7:0.85714286 8:0.066666667 10:0.375 11:0.16666667 13:0.33333333 14:0.27272727 15:0.71428571 17:0.16666667 18:0.5 19:0.85714286 20:0.16666667 22:0.125 28:0.16666667 29:0.16666667 30:0.25 33:0.5 37:0.5 40:0.2 41:0.11111111 42:0.6 44:0.25 45:0.25 52:0.25 54:0.5 57:0.75 58:0.2 62:0.2 70:1 72:1 76:1 82:1 84:1 85:1 93:1 98:0.54670941 
20.49997986562584 1:0.57477884 2:0.71746918 3:0.58784235 4:0.80046507 5:0.28571429 6:0.75 7:0.42857143 8:0.26666667 10:0.5 13:0.22222222 14:0.63636364 15:0.28571429 16:0.28571429 17:0.33333333 19:0.42857143 20:0.16666667 22:0.375 23:0.16666667 28:0.16666667 29:0.33333333 30:0.25 37:0.33333333 40:0.2 41:0.55555556 43:0.5 44:0.25 45:0.25 47:0.2 48:0.33333333 51:0.4 56:0.33333333 57:0.5 58:0.2 61:0.4 62:0.2 70:0.83333333 81:1 82:1 84:1 85:1 88:1 90:1 91:1 93:1 98:0.31966006 
256 1:0.47323578 2:0.5342615 3:0.480906 4:0.58531372 5:0.35714286 6:0.6875 7:0.28571429 8:0.4 10:0.375 11:0.33333333 13:0.55555556 14:0.45454545 16:0.28571429 18:0.33333333 20:0.33333333 22:0.375 23:0.16666667 24:0.22222222 28:0.33333333 29:0.16666667 33:1 37:0.5 38:0.5 40:0.6 41:0.33333333 43:0.25 48:0.33333333 49:0.33333333 54:0.25 58:0.2 61:0.4 66:0.33333333 67:0.5 70:0.66666667 74:1 82:1 89:1 90:1 95:1 97:1 98:0.84358369 
256 1:0.47323578 2:0.62159494 3:0.358556 4:0.41680182 5:0.5 6:0.625 7:0.071428571 8:0.53333333 9:0.28571429 10:0.625 13:0.33333333 14:0.27272727 15:0.14285714 16:0.57142857 18:0.16666667 21:0.4 22:0.375 24:0.33333333 25:0.33333333 28:0.16666667 29:0.5 31:0.33333333 37:0.5 40:0.2 42:0.2 43:0.5 47:0.6 49:0.33333333 59:0.5 61:0.4 63:0.25 69:0.4 70:0.44444444 73:1 75:1 85:1 90:1 98:0.99718667 
256 1:0.47323578 2:0.62539102 3:0.47790352 4:0.62570509 5:0.57142857 6:0.6875 7:0.28571429 8:0.2 9:0.28571429 10:0.5 11:0.33333333 13:0.33333333 14:0.63636364 15:0.14285714 16:0.28571429 17:0.33333333 18:0.16666667 21:0.2 22:0.125 23:0.16666667 26:0.66666667 28:0.16666667 29:0.33333333 31:0.33333333 32:0.25 33:0.5 37:0.5 40:0.4 41:0.55555556 42:0.2 43:0.25 44:0.25 47:0.2 48:0.33333333 50:0.25 51:0.2 54:0.25 59:0.5 61:0.2 70:0.66666667 73:1 75:1 76:1 78:1 82:1 86:1 88:1 89:1 92:1 98:0.92250575 
256 1:0.47323578 2:0.42856535 3:0.23619655 4:0.46335122 5:0.64285714 6:0.6875 7:0.071428571 8:0.33333333 10:1 13:0.66666667 14:0.27272727 15:0.14285714 16:0.42857143 17:0.16666667 21:0.2 22:0.25 24:0.22222222 28:0.5 29:0.33333333 30:0.25 31:0.66666667 37:0.83333333 40:0.6 41:0.11111111 43:0.25 44:0.25 46:0.33333333 49:0.66666667 51:0.2 61:0.4 67:0.5 70:0.5 71:1 80:1 82:1 86:1 98:0.76525713 
256 1:0.36052166 2:0.51599126 3:0.42141644 4:0.41903552 5:0.57142857 6:0.5625 7:0.14285714 8:0.46666667 10:0.75 12:0.2 13:0.66666667 14:0.090909091 15:0.14285714 16:0.42857143 18:0.16666667 20:0.16666667 21:0.2 22:0.375 23:0.16666667 24:0.22222222 28:0.5 30:0.25 31:0.66666667 37:0.66666667 39:0.25 40:0.6 45:0.25 46:0.33333333 48:0.33333333 49:0.33333333 54:0.25 61:0.4 63:0.25 65:0.33333333 67:0.5 70:0.44444444 71:1 76:1 87:1 94:1 98:0.7809287 
-256 1:0.36052166 2:0.8150714 3:0.63561719 4:0.54740603 5:0.42857143 6:0.625 7:0.21428571 8:0.46666667 10:0.5 11:0.16666667 12:0.2 13:0.55555556 14:0.27272727 15:0.14285714 16:0.28571429 18:0.5 22:0.25 23:0.16666667 24:0.44444444 28:0.16666667 29:0.33333333 31:0.33333333 33:0.5 35:0.33333333 37:0.66666667 38:0.25 40:0.4 42:0.2 43:0.25 47:0.2 49:0.33333333 54:0.5 60:0.25 61:0.2 65:0.33333333 67:0.25 68:0.33333333 69:0.4 70:0.55555556 71:1 74:1 81:1 82:1 85:1 90:1 95:1 98:0.70609131 
-256 1:0.35835747 2:0.3405565 3:0.80673839 4:0.54849551 5:0.64285714 6:0.4375 7:0.5 8:0.2 9:0.28571429 10:0.375 11:0.5 12:0.2 13:0.55555556 14:0.18181818 15:0.14285714 16:0.14285714 17:0.33333333 18:0.16666667 19:0.28571429 20:0.16666667 22:0.25 23:0.16666667 25:0.33333333 28:0.5 32:0.25 33:0.5 36:0.25 37:0.16666667 38:0.5 39:0.25 40:0.4 41:0.11111111 43:0.25 45:0.25 47:0.2 51:0.2 52:0.25 55:0.33333333 56:0.33333333 58:0.2 61:0.4 70:0.61111111 72:1 80:1 84:1 87:1 98:0.43622789 
256 1:0.35835747 2:0.42856535 3:0.44123508 4:0.51161899 5:0.57142857 6:0.5 7:0.35714286 8:0.33333333 9:0.28571429 10:0.5 11:0.16666667 12:0.2 13:0.44444444 14:0.36363636 15:0.14285714 16:0.14285714 17:0.16666667 19:0.14285714 20:0.33333333 22:0.25 23:0.33333333 24:0.11111111 25:0.33333333 26:0.33333333 28:0.16666667 29:0.33333333 31:0.33333333 32:0.25 36:0.25 37:0.33333333 39:0.25 40:0.4 41:0.33333333 42:0.2 45:0.25 47:0.2 50:0.25 60:0.25 61:0.2 67:0.25 70:0.55555556 71:1 80:1 87:1 89:1 91:1 98:0.84008395 
256 1:0.38451562 2:0.57264782 3:0.64755591 4:0.53321018 5:0.57142857 6:0.5 7:0.28571429 8:0.4 9:0.28571429 10:0.625 12:0.2 13:0.44444444 15:0.57142857 16:0.28571429 17:0.16666667 18:0.16666667 20:0.33333333 21:0.2 22:0.5 25:0.66666667 28:0.16666667 29:0.33333333 30:0.25 31:0.33333333 36:0.25 37:0.33333333 39:0.25 40:0.4 44:0.25 45:0.5 46:0.33333333 51:0.2 58:0.4 59:0.5 60:0.25 62:0.6 70:0.5 79:1 85:1 98:0.37274729 
256 1:0.38451562 2:0.59497616 3:0.51111903 4:0.47533387 5:0.78571429 6:0.5 7:0.28571429 8:0.2 9:0.42857143 10:0.625 11:0.16666667 12:0.4 13:0.66666667 14:0.18181818 15:0.28571429 17:0.16666667 18:0.16666667 20:0.16666667 22:0.25 23:0.16666667 25:0.66666667 28:0.33333333 29:0.5 33:0.5 36:0.25 37:0.33333333 38:0.25 39:0.5 40:0.6 42:0.2 44:0.25 45:0.25 50:0.25 55:0.33333333 60:0.25 61:0.2 70:0.5 71:1 75:1 79:1 80:1 82:1 85:1 89:1 96:1 98:0.9673512 
256 1:0.38451562 2:0.39362024 3:0.55606605 4:0.34560451 5:0.42857143 6:0.5 7:0.14285714 8:0.66666667 10:0.375 12:0.6 13:0.55555556 14:0.18181818 16:0.42857143 18:0.16666667 20:0.16666667 21:0.2 22:0.5 23:0.16666667 24:0.33333333 28:0.16666667 29:0.16666667 31:0.33333333 35:0.33333333 37:0.33333333 39:0.75 40:0.4 41:0.11111111 43:0.25 47:0.2 49:0.33333333 54:0.25 60:0.5 61:0.2 63:0.25 65:0.33333333 67:0.25 68:0.33333333 70:0.38888889 74:1 82:1 87:1 98:0.78161472 
-256 1:0.38451562 2:0.3440831 3:0.61370245 4:0.49851899 5:0.5 6:0.375 7:0.42857143 8:0.46666667 9:0.28571429 10:0.25 12:0.6 13:0.33333333 15:0.57142857 16:0.14285714 17:0.33333333 18:0.16666667 20:0.33333333 22:0.5 23:0.33333333 24:0.11111111 25:0.33333333 28:0.33333333 37:0.16666667 39:0.5 40:0.2 43:0.25 44:0.5 45:0.5 49:0.33333333 50:0.25 53:0.33333333 54:0.25 58:0.2 61:0.2 62:0.6 65:0.33333333 68:0.33333333 70:0.5 72:1 76:1 81:1 82:1 87:1 89:1 98:0.23717654 
244.1453363781744 1:0.38451562 2:0.48971789 3:0.56494924 4:0.45618351 5:0.64285714 6:0.375 7:0.35714286 8:0.4 9:0.28571429 10:0.25 11:0.5 12:0.4 13:0.33333333 15:0.28571429 16:0.28571429 17:0.5 18:0.16666667 20:0.16666667 21:0.2 22:0.625 25:0.33333333 28:0.16666667 29:0.16666667 32:0.25 33:0.5 34:0.25 37:0.16666667 38:0.25 39:0.25 40:0.4 44:0.5 47:0.4 52:0.5 53:0.33333333 58:0.2 59:0.5 61:0.2 62:0.4 63:0.5 70:0.44444444 73:1 75:1 82:1 84:1 87:1 90:1 93:1 98:0.82160499 
-256 1:0.38451562 2:0.41368468 3:0.33943843 4:0.47668303 5:0.78571429 6:0.3125 7:0.42857143 8:0.26666667 9:0.42857143 10:0.375 12:0.8 13:0.44444444 14:0.090909091 15:0.28571429 17:0.5 18:0.16666667 19:0.28571429 22:0.25 23:0.33333333 27:0.5 28:0.16666667 29:0.33333333 36:0.25 37:0.33333333 39:0.25 40:0.4 42:0.2 53:0.66666667 56:0.66666667 61:0.2 62:0.2 64:0.33333333 65:0.33333333 70:0.44444444 71:1 83:1 87:1 91:1 98:0.90680049 
-256 1:0.38451562 2:0.45691402 3:0.47440926 4:0.57881733 5:0.42857143 6:0.5625 7:0.28571429 8:0.46666667 10:0.375 12:0.4 13:0.33333333 14:0.27272727 15:0.42857143 16:0.28571429 17:0.5 19:0.14285714 22:0.5 24:0.33333333 28:0.16666667 29:0.16666667 31:0.33333333 35:0.33333333 37:0.33333333 39:0.25 40:0.4 41:0.11111111 42:0.4 44:0.5 47:0.2 49:0.33333333 51:0.2 53:0.33333333 56:0.33333333 61:0.4 62:0.2 63:0.25 67:0.5 69:0.2 70:0.55555556 72:1 87:1 88:1 94:1 98:0.93592897 
-200.3637742755248 1:0.38451562 2:0.47249893 3:0.49911361 4:0.47026045 5:0.5 6:0.625 7:0.071428571 8:0.53333333 9:0.14285714 10:0.375 12:0.4 13:0.55555556 14:0.36363636 15:0.14285714 16:0.28571429 17:0.16666667 22:0.625 24:0.33333333 27:0.5 28:0.33333333 30:0.25 37:0.5 39:0.25 40:0.4 41:0.33333333 43:0.25 44:0.25 47:0.4 50:0.25 60:0.25 61:0.6 63:0.25 67:0.25 69:0.4 70:0.44444444 74:1 78:1 81:1 86:1 88:1 92:1 98:0.6699699 
-256 1:0.22243322 2:0.92611442 3:0.86189425 4:0.78148631 5:0.21428571 6:0.4375 7:0.64285714 8:0.46666667 10:0.125 12:0.4 13:0.22222222 14:0.27272727 15:0.42857143 16:0.14285714 18:0.5 19:0.71428571 20:0.16666667 22:0.25 23:0.16666667 24:0.33333333 28:0.16666667 35:0.33333333 37:0.16666667 39:0.25 40:0.2 41:0.11111111 42:0.4 43:0.25 49:0.33333333 54:0.5 55:0.33333333 57:0.75 58:0.2 61:0.4 66:0.33333333 67:0.25 69:0.2 70:0.72222222 71:1 74:1 79:1 81:1 83:1 88:1 89:1 98:0.90400453 
-256 1:0.49750355 2:0.59977168 3:0.55631082 4:0.5884382 5:0.64285714 6:0.4375 7:0.5 8:0.2 9:0.14285714 10:0.625 11:0.33333333 12:0.2 13:0.33333333 14:0.18181818 15:0.42857143 16:0.14285714 17:0.66666667 18:0.16666667 19:0.14285714 20:0.16666667 21:0.2 23:0.16666667 26:0.33333333 28:0.16666667 29:0.33333333 30:0.5 32:0.5 37:0.5 40:0.2 41:0.11111111 42:0.2 43:0.25 44:0.5 45:0.25 46:0.33333333 50:0.25 51:0.2 52:0.25 53:0.33333333 54:0.25 70:0.61111111 72:1 73:1 82:1 85:1 88:1 93:1 98:0.21869187 
-256 1:0.49750355 2:0.79945869 3:0.5038825 4:0.85669017 5:0.28571429 6:0.8125 7:0.35714286 8:0.26666667 9:0.14285714 10:0.375 13:0.22222222 14:0.54545455 15:0.71428571 16:0.14285714 17:0.16666667 18:0.33333333 20:0.33333333 22:0.5 25:0.33333333 29:0.33333333 30:0.25 37:0.33333333 40:0.2 41:0.22222222 42:0.6 43:0.25 44:0.25 45:0.5 47:0.2 50:0.25 54:0.5 58:0.4 60:0.25 61:0.4 62:0.2 70:0.83333333 78:1 81:1 83:1 90:1 95:1 96:1 98:0.90125602 
256 1:0.63479026 2:0.49600295 3:0.3022842 4:0.39209393 5:0.42857143 6:0.25 7:0.35714286 8:0.73333333 9:0.14285714 10:0.25 11:0.16666667 12:0.4 13:0.22222222 14:0.090909091 15:0.28571429 16:0.14285714 17:0.5 20:0.33333333 22:0.375 23:0.33333333 24:0.55555556 25:0.33333333 30:0.25 31:0.33333333 34:0.25 35:0.33333333 37:0.16666667 39:0.25 40:0.4 41:0.11111111 44:0.5 49:0.33333333 50:0.25 52:0.25 53:0.33333333 58:0.2 61:0.4 62:0.2 64:0.33333333 66:0.33333333 67:0.5 69:0.4 70:0.33333333 74:1 83:1 87:1 89:1 98:0.14669614 
256 1:0.59952346 2:0.32927754 3:0.49110261 4:0.45153394 5:0.42857143 6:0.25 7:0.5 8:0.6 10:0.5 12:0.4 13:0.22222222 15:0.42857143 16:0.14285714 17:0.5 19:0.14285714 20:0.5 21:0.2 22:0.25 23:0.5 24:0.22222222 28:0.16666667 29:0.16666667 30:0.25 31:0.33333333 37:0.33333333 40:0.2 42:0.2 44:0.75 48:0.33333333 51:0.2 53:0.66666667 58:0.2 61:0.2 62:0.2 66:0.66666667 67:0.25 69:0.2 70:0.44444444 79:1 84:1 85:1 98:0.74123764 
256 1:0.59952346 2:0.37918917 3:0.22662396 4:0.42813123 5:0.57142857 6:0.5 7:0.28571429 8:0.4 10:0.625 12:0.6 13:0.44444444 15:0.42857143 16:0.28571429 17:0.33333333 18:0.16666667 20:0.16666667 21:0.4 22:0.375 23:0.16666667 28:0.16666667 29:0.16666667 30:0.5 37:0.5 39:0.25 40:0.2 42:0.2 44:0.5 46:0.33333333 48:0.33333333 51:0.4 54:0.25 58:0.2 60:0.25 63:0.5 66:0.33333333 70:0.5 72:1 73:1 76:1 85:1 90:1 98:0.93237849 
-223.4746105173405 1:0.59952346 2:0.73576856 3:0.57432306 4:0.83257885 5:0.64285714 6:0.4375 7:0.71428571 9:0.14285714 10:0.5 11:0.5 13:0.33333333 14:0.18181818 15:0.57142857 17:0.66666667 18:0.5 19:0.42857143 26:0.33333333 30:1 32:0.25 37:0.16666667 38:0.25 40:0.4 41:0.22222222 44:0.75 51:0.6 52:0.25 54:0.5 70:0.77777778 71:1 73:1 76:1 79:1 80:1 83:1 84:1 88:1 98:0.44245085 
256 1:0.59952346 2:0.68213654 3:0.40604948 4:0.51126871 5:0.57142857 6:0.4375 7:0.35714286 8:0.4 10:0.75 12:0.2 13:0.44444444 15:0.42857143 16:0.28571429 17:0.33333333 18:0.16666667 19:0.14285714 20:0.16666667 21:0.2 22:0.25 23:0.16666667 24:0.22222222 28:0.33333333 29:0.16666667 30:0.5 31:0.33333333 37:0.33333333 39:0.25 40:0.4 44:0.25 45:0.25 46:0.33333333 49:0.33333333 51:0.4 58:0.2 61:0.2 62:0.2 64:0.33333333 68:0.33333333 69:0.2 70:0.5 71:1 75:1 79:1 85:1 98:0.84566973 
-256 1:0.59952346 2:0.67936416 3:0.67433756 4:0.76309424 5:0.35714286 6:0.9375 7:0.14285714 8:0.26666667 9:0.14285714 10:0.5 13:0.33333333 14:0.72727273 15:0.28571429 16:0.42857143 17:0.16666667 18:0.16666667 22:0.5 25:0.33333333 29:0.33333333 30:0.5 36:0.25 37:0.33333333 40:0.4 41:0.44444444 43:0.75 44:0.25 47:0.6 51:0.2 54:0.25 60:0.25 61:0.6 70:0.77777778 75:1 78:1 86:1 90:1 92:1 95:1 98:0.93498456 
-87.41116203666846 1:0.59952346 2:0.48789206 3:0.50033308 4:0.62536598 5:0.42857143 6:0.4375 7:0.57142857 8:0.33333333 10:0.5 11:0.33333333 13:0.22222222 14:0.18181818 15:0.28571429 16:0.28571429 17:0.5 19:0.42857143 20:0.33333333 21:0.2 22:0.375 23:0.16666667 29:0.33333333 30:0.25 31:0.33333333 37:0.16666667 38:0.25 40:0.4 42:0.2 43:0.25 44:0.25 45:0.25 46:0.33333333 47:0.2 51:0.4 52:0.25 56:0.33333333 57:0.25 58:0.2 61:0.4 64:0.33333333 70:0.66666667 80:1 83:1 84:1 85:1 89:1 90:1 91:1 97:1 98:0.63642525 
-256 1:0.45784823 2:0.49461923 3:0.48798757 4:0.41204386 5:0.78571429 6:0.3125 7:0.35714286 8:0.33333333 9:0.42857143 10:0.5 11:0.16666667 12:0.4 13:0.22222222 14:0.18181818 15:0.42857143 17:0.66666667 20:0.16666667 21:0.4 22:0.125 23:0.16666667 24:0.11111111 25:0.66666667 29:0.33333333 30:0.5 32:0.25 37:0.16666667 38:0.25 40:0.4 41:0.11111111 42:0.2 44:0.5 45:0.25 51:0.2 53:0.66666667 59:1 61:0.2 64:0.33333333 68:0.33333333 70:0.38888889 73:1 75:1 78:1 86:1 94:1 98:0.9790136 
-256 1:0.59405326 2:0.45341806 3:0.55697137 4:0.64110924 5:0.57142857 6:0.3125 7:0.71428571 8:0.2 10:0.5 11:0.33333333 12:0.2 13:0.44444444 15:0.42857143 17:0.66666667 18:0.16666667 19:0.42857143 20:0.33333333 22:0.125 23:0.33333333 28:0.33333333 30:0.5 32:0.5 37:0.33333333 39:0.25 40:0.4 45:0.25 51:0.4 52:0.5 54:0.25 56:0.33333333 58:0.2 61:0.2 64:0.33333333 70:0.66666667 72:1 78:1 79:1 80:1 83:1 84:1 98:0.957276 
256 1:0.69372 2:0.64040891 3:0.78011255 4:0.79678085 5:0.42857143 6:0.3125 7:0.92857143 8:0.13333333 10:0.375 11:0.5 13:0.11111111 14:0.18181818 15:0.42857143 16:0.14285714 17:0.83333333 18:0.16666667 19:0.71428571 20:0.16666667 22:0.125 23:0.16666667 30:0.75 32:0.25 34:0.25 37:0.16666667 40:0.2 41:0.22222222 43:0.25 48:0.33333333 51:0.4 52:0.75 54:0.25 56:1 57:0.25 58:0.2 61:0.2 70:0.83333333 73:1 83:1 86:1 98:0.48550905 
-256 1:0.69372 2:0.87915353 3:0.7877595 4:1 5:0.14285714 6:0.875 7:0.5 8:0.2 10:0.25 13:0.11111111 14:0.90909091 15:0.42857143 16:0.28571429 17:0.16666667 18:0.33333333 19:0.42857143 20:0.16666667 22:0.25 29:0.16666667 30:0.25 37:0.16666667 40:0.2 41:1 42:0.2 43:0.25 45:0.25 47:0.2 51:0.2 54:0.5 56:0.33333333 57:0.25 58:0.2 62:0.2 63:0.25 70:1 75:1 78:1 81:1 83:1 84:1 86:1 96:1 98:0.010932834 
-256 1:0.79801804 2:0.68213654 3:0.5038825 4:0.87973518 5:0.28571429 6:0.3125 7:1 8:0.2 9:0.14285714 10:0.375 13:0.11111111 15:0.71428571 16:0.14285714 17:0.33333333 18:0.66666667 19:0.85714286 20:0.16666667 23:0.33333333 24:0.11111111 25:0.33333333 29:0.16666667 30:0.25 31:0.33333333 37:0.16666667 40:0.2 42:0.2 44:0.25 49:0.33333333 50:0.25 51:0.2 54:0.25 55:1 56:0.33333333 57:0.5 66:0.33333333 68:0.33333333 70:0.88888889 76:1 79:1 80:1 84:1 85:1 98:0.72592559 
256 1:0.55144178 2:0.42994667 3:0.59505313 4:0.62649978 5:0.35714286 6:0.8125 7:0.14285714 8:0.4 10:0.375 12:0.2 13:0.55555556 14:0.45454545 15:0.14285714 16:0.57142857 19:0.14285714 20:0.16666667 22:0.75 29:0.16666667 30:0.25 31:0.33333333 37:0.5 39:0.25 40:0.6 41:0.44444444 47:0.8 58:0.2 60:0.5 61:0.4 63:0.5 70:0.66666667 72:1 74:1 78:1 81:1 86:1 88:1 98:0.48308285 
-256 1:0.55144178 2:0.41105324 3:0.28178205 4:0.57992773 5:0.5 6:0.5 7:0.42857143 8:0.33333333 9:0.28571429 10:0.375 11:0.16666667 12:0.2 13:0.33333333 14:0.36363636 15:0.14285714 16:0.28571429 17:0.33333333 18:0.16666667 19:0.14285714 20:0.33333333 22:0.25 23:0.33333333 25:0.33333333 28:0.16666667 29:0.16666667 30:0.25 33:0.5 37:0.16666667 38:0.25 39:0.25 40:0.2 41:0.44444444 43:0.25 47:0.2 50:0.25 51:0.2 54:0.25 58:0.2 60:0.25 63:0.25 64:0.33333333 66:0.33333333 70:0.61111111 73:1 78:1 83:1 88:1 98:0.84191857 
-256 1:0.55144178 2:0.56449634 3:0.3431175 4:0.41805513 5:0.42857143 6:0.375 7:0.28571429 8:0.66666667 9:0.14285714 10:0.375 12:0.4 13:0.44444444 15:0.28571429 16:0.28571429 17:0.16666667 18:0.16666667 19:0.14285714 20:0.16666667 22:0.5 24:0.55555556 27:0.5 28:0.16666667 30:0.25 31:0.33333333 35:0.33333333 36:0.25 37:0.33333333 39:0.25 40:0.4 47:0.2 49:0.33333333 51:0.2 61:0.4 62:0.2 63:0.25 67:0.75 69:0.4 70:0.38888889 73:1 80:1 87:1 98:0.99965604 
115.2331764613096 1:0.88257635 2:0.45277583 3:0.69503483 4:0.61884288 5:0.5 6:0.4375 7:0.5 8:0.33333333 9:0.14285714 10:0.375 11:0.16666667 12:0.2 13:0.44444444 14:0.18181818 15:0.42857143 17:0.16666667 18:0.33333333 20:0.66666667 22:0.25 23:0.5 26:0.33333333 28:0.16666667 29:0.16666667 30:0.25 34:0.25 37:0.5 40:0.6 42:0.2 44:0.25 45:0.25 53:0.33333333 54:0.25 55:0.33333333 58:0.4 61:0.4 65:0.33333333 66:0.66666667 70:0.61111111 71:1 73:1 82:1 85:1 96:1 98:0.38069405 
256 1:0.79801804 2:0.60186973 3:0.5038825 4:0.75233686 5:0.57142857 6:0.75 7:0.28571429 8:0.13333333 9:0.14285714 10:0.75 12:0.2 13:0.44444444 14:0.54545455 15:0.57142857 17:0.5 18:0.16666667 22:0.125 25:0.33333333 29:0.83333333 30:0.25 36:0.25 37:0.5 40:0.6 41:0.22222222 42:0.6 44:0.75 51:0.4 53:0.33333333 54:0.25 60:0.25 70:0.72222222 75:1 80:1 82:1 86:1 98:0.91658871 
256 1:0.79801804 2:0.44605938 3:0.58784235 4:0.5953743 5:0.28571429 6:0.4375 7:0.5 8:0.53333333 10:0.375 13:0.22222222 14:0.27272727 15:0.14285714 16:0.42857143 17:0.16666667 18:0.16666667 19:0.42857143 20:0.33333333 21:0.2 22:0.25 23:0.5 24:0.22222222 29:0.16666667 30:0.25 31:0.33333333 37:0.33333333 40:0.2 41:0.22222222 43:0.5 48:0.66666667 49:0.33333333 51:0.2 54:0.25 57:0.5 58:0.2 60:0.25 61:0.2 64:0.33333333 66:0.33333333 68:0.33333333 70:0.61111111 75:1 78:1 81:1 84:1 87:1 89:1 92:1 93:1 98:0.99898266 
256 1:0.38204341 2:0.69878904 3:0.24243179 4:0.5074642 5:0.5 6:0.3125 7:0.57142857 8:0.4 10:0.5 12:0.4 13:0.33333333 14:0.090909091 15:0.28571429 16:0.14285714 17:0.5 19:0.42857143 20:0.33333333 21:0.2 22:0.25 23:0.33333333 24:0.11111111 28:0.16666667 29:0.16666667 30:0.5 35:0.33333333 37:0.33333333 40:0.2 41:0.11111111 43:0.25 45:0.25 47:0.2 51:0.4 53:0.33333333 56:0.33333333 57:0.5 58:0.2 60:0.25 61:0.2 64:0.33333333 66:0.33333333 68:0.33333333 70:0.55555556 73:1 83:1 86:1 98:0.86356417 
-256 1:0.59952346 2:0.51599126 3:0.47077004 4:0.65025727 5:0.57142857 6:0.75 7:0.28571429 8:0.13333333 9:0.14285714 10:0.875 13:0.55555556 14:0.36363636 15:0.57142857 16:0.14285714 17:0.16666667 18:0.16666667 20:0.16666667 21:0.2 22:0.125 25:0.33333333 29:0.5 30:0.75 31:0.33333333 36:0.25 37:0.66666667 40:0.8 41:0.11111111 42:0.2 44:0.25 45:0.25 46:0.33333333 51:0.2 54:0.25 58:0.2 60:0.25 70:0.72222222 72:1 80:1 91:1 96:1 98:0.019431339 
256 1:0.59952346 2:0.60015738 3:0.7877595 4:0.61542322 5:0.42857143 6:0.4375 7:0.5 8:0.4 10:0.625 11:0.16666667 13:0.22222222 14:0.18181818 15:0.57142857 16:0.14285714 17:0.5 18:0.16666667 19:0.14285714 20:0.16666667 21:0.2 22:0.125 23:0.16666667 24:0.33333333 29:0.5 30:0.5 33:0.5 37:0.33333333 40:0.4 41:0.11111111 43:0.25 44:0.5 45:0.25 49:0.33333333 51:0.4 52:0.25 55:0.33333333 56:0.33333333 58:0.2 62:0.2 68:0.33333333 69:0.2 70:0.61111111 74:1 80:1 84:1 86:1 89:1 98:0.29854295 
256 1:0.59952346 2:0.80459953 3:0.69503483 4:0.85535558 5:0.28571429 6:0.6875 7:0.5 8:0.26666667 10:0.5 13:0.33333333 14:0.27272727 15:1 18:0.33333333 20:0.66666667 22:0.5 29:0.33333333 30:0.5 37:0.5 40:0.6 42:0.4 45:1 54:0.25 55:0.33333333 58:0.8 61:0.4 62:0.4 70:0.83333333 71:1 76:1 85:1 91:1 96:1 98:0.41277855 
-142.8102471388309 1:0.59952346 2:0.461233 3:0.5038825 4:0.69305418 5:0.42857143 6:0.5 7:0.57142857 8:0.26666667 10:0.25 11:0.5 13:0.33333333 14:0.27272727 15:0.28571429 16:0.28571429 17:0.33333333 18:0.16666667 19:0.42857143 20:0.33333333 21:0.2 22:0.375 29:0.16666667 30:0.25 34:0.25 37:0.33333333 38:0.25 40:0.4 41:0.11111111 42:0.2 43:0.25 45:0.25 46:0.33333333 47:0.2 52:0.25 54:0.25 56:0.66666667 58:0.4 61:0.4 63:0.25 70:0.72222222 72:1 73:1 76:1 78:1 80:1 86:1 92:1 98:0.93366749 
256 1:0.59952346 2:0.47579773 3:0.23619655 4:0.4274157 5:0.57142857 6:0.5 7:0.21428571 8:0.46666667 9:0.28571429 10:0.625 12:0.2 13:0.22222222 14:0.090909091 15:0.42857143 16:0.42857143 17:0.16666667 20:0.33333333 21:0.4 22:0.5 24:0.11111111 25:0.33333333 28:0.16666667 29:0.16666667 30:0.5 31:0.33333333 35:0.33333333 37:0.33333333 40:0.2 41:0.11111111 42:0.2 44:0.25 45:0.5 46:0.66666667 47:0.2 51:0.2 58:0.4 59:0.5 61:0.2 63:0.5 67:0.25 70:0.44444444 71:1 74:1 81:1 82:1 85:1 89:1 90:1 97:1 98:0.48732507 
-256 1:0.45434541 2:0.46501119 3:0.61358266 4:0.64122728 5:0.64285714 6:0.5625 7:0.42857143 8:0.13333333 10:0.875 11:0.33333333 13:0.44444444 14:0.27272727 15:0.57142857 17:0.5 18:0.16666667 20:0.16666667 21:0.2 24:0.11111111 28:0.16666667 29:0.5 30:0.75 32:0.5 37:0.5 38:0.25 40:0.6 41:0.11111111 42:0.2 44:0.25 45:0.25 51:0.6 54:0.25 70:0.66666667 71:1 76:1 80:1 82:1 85:1 91:1 96:1 98:0.99884785 
-256 1:0.45434541 2:0.45011911 3:0.67433756 4:0.5790016 5:0.35714286 6:0.4375 7:0.5 8:0.46666667 10:0.5 11:0.16666667 13:0.33333333 14:0.27272727 15:0.28571429 17:0.33333333 18:0.16666667 19:0.14285714 20:0.5 22:0.125 23:0.5 24:0.33333333 29:0.33333333 30:0.5 34:0.25 37:0.5 40:0.6 41:0.11111111 45:0.5 51:0.2 52:0.25 54:0.25 56:0.33333333 58:0.2 61:0.2 64:0.33333333 65:0.33333333 68:0.66666667 69:0.2 70:0.61111111 75:1 79:1 83:1 87:1 90:1 95:1 98:0.98419791 
-256 1:0.45434541 2:0.87279231 3:0.59203639 4:0.74354364 5:0.42857143 6:0.5 7:0.64285714 8:0.2 9:0.14285714 10:0.5 11:0.16666667 13:0.33333333 14:0.27272727 15:0.57142857 17:0.33333333 18:0.33333333 19:0.28571429 20:0.33333333 22:0.125 23:0.16666667 24:0.11111111 25:0.33333333 28:0.16666667 29:0.16666667 30:0.5 37:0.33333333 38:0.25 40:0.4 41:0.22222222 42:0.2 44:0.25 45:0.5 50:0.25 51:0.2 54:0.25 55:0.33333333 56:0.33333333 58:0.2 61:0.2 65:0.33333333 68:0.33333333 70:0.77777778 81:1 85:1 98:0.84406321 
-145.8964249810471 1:0.45434541 2:0.29298019 3:0.73404041 4:0.39822493 5:0.5 6:0.4375 7:0.28571429 8:0.53333333 9:0.42857143 10:0.375 12:0.2 13:0.33333333 14:0.090909091 15:0.14285714 16:0.57142857 18:0.33333333 20:0.16666667 21:0.2 22:0.25 23:0.5 24:0.22222222 27:0.5 28:0.16666667 29:0.16666667 30:0.25 37:0.5 40:0.2 43:0.5 45:0.25 46:0.33333333 47:0.4 49:0.33333333 54:0.25 59:0.5 61:0.2 63:0.25 65:0.66666667 68:0.66666667 70:0.44444444 72:1 73:1 80:1 87:1 89:1 98:0.93413059 
256 1:0.45434541 2:0.40388169 3:0.72397299 4:0.52590763 5:0.21428571 6:0.4375 7:0.5 8:0.6 10:0.375 13:0.33333333 14:0.090909091 15:0.28571429 16:0.42857143 19:0.14285714 20:0.83333333 22:0.5 23:0.66666667 24:0.11111111 30:0.25 31:0.66666667 37:0.5 40:0.2 41:0.11111111 43:0.25 45:0.25 47:0.4 48:0.33333333 58:0.4 60:0.25 61:0.4 62:0.2 66:1 68:0.33333333 70:0.61111111 72:1 73:1 87:1 88:1 89:1 98:0.97832273 
-21.75197048709365 1:0.36076326 2:0.58195629 3:0.76078885 4:0.66853255 5:0.64285714 6:0.4375 7:0.57142857 8:0.13333333 9:0.28571429 10:0.5 11:0.33333333 12:0.2 13:0.44444444 14:0.18181818 15:0.42857143 17:0.5 18:0.5 19:0.14285714 20:0.16666667 23:0.16666667 25:0.33333333 26:0.33333333 28:0.16666667 29:0.33333333 30:0.25 32:0.25 36:0.25 37:0.5 40:0.4 41:0.11111111 42:0.2 44:0.25 45:0.25 50:0.25 52:0.25 53:0.33333333 54:0.25 55:0.33333333 65:0.33333333 70:0.66666667 73:1 76:1 79:1 81:1 85:1 88:1 98:0.95338221 
256 1:0.36076326 2:0.59169309 3:0.6443844 4:0.56660477 5:0.5 6:0.75 7:0.14285714 8:0.33333333 9:0.14285714 10:0.375 11:0.16666667 12:0.4 13:0.66666667 14:0.45454545 16:0.28571429 18:0.16666667 19:0.14285714 22:0.625 26:0.33333333 29:0.5 36:0.25 37:0.5 39:0.5 40:0.8 43:0.5 47:0.4 60:0.25 61:0.8 70:0.61111111 75:1 87:1 90:1 96:1 98:0.40552599 
256 1:0.36076326 2:0.53612351 3:0.69503483 4:0.58884049 5:0.5 6:0.8125 7:0.14285714 8:0.26666667 9:0.14285714 10:0.5 11:0.16666667 12:0.2 13:0.55555556 14:0.54545455 15:0.14285714 16:0.28571429 17:0.16666667 20:0.16666667 22:0.5 26:0.33333333 29:0.5 31:0.33333333 34:0.25 36:0.25 37:0.5 39:0.25 40:0.8 41:0.11111111 42:0.2 43:0.25 44:0.25 47:0.4 51:0.2 58:0.2 60:0.25 61:0.6 70:0.66666667 72:1 75:1 81:1 84:1 87:1 90:1 98:0.3989735 
256 1:0.36076326 2:0.50271682 3:0.60222828 4:0.48645966 5:0.85714286 6:0.5625 7:0.21428571 8:0.13333333 9:0.28571429 10:0.625 11:0.5 12:0.2 13:0.88888889 14:0.18181818 16:0.14285714 17:0.16666667 18:0.33333333 22:0.25 25:0.66666667 28:0.33333333 29:0.5 32:0.25 33:1 36:0.5 37:0.33333333 38:0.75 39:0.25 40:0.8 47:0.2 60:0.25 61:0.2 70:0.5 71:1 78:1 80:1 87:1 91:1 95:1 98:0.87910845 
-121.3528932756212 1:0.36076326 2:0.57179253 3:0.6443844 4:0.56331152 5:0.57142857 6:0.625 7:0.21428571 8:0.33333333 9:0.28571429 10:0.5 12:0.2 13:0.44444444 14:0.36363636 15:0.42857143 16:0.14285714 17:0.33333333 20:0.16666667 22:0.375 24:0.22222222 25:0.33333333 29:0.33333333 30:0.5 36:0.5 37:0.33333333 40:0.8 41:0.11111111 43:0.25 44:0.5 45:0.25 47:0.2 51:0.2 53:0.33333333 61:0.6 67:0.25 69:0.2 70:0.55555556 72:1 75:1 78:1 85:1 88:1 96:1 98:0.96238018 
11.17828148556604 1:0.36076326 2:0.69380889 3:0.46490125 4:0.45156261 5:0.5 6:0.5625 7:0.21428571 8:0.46666667 9:0.14285714 10:0.5 12:0.4 13:0.44444444 14:0.27272727 15:0.14285714 16:0.28571429 17:0.33333333 18:0.16666667 22:0.25 23:0.33333333 24:0.33333333 27:0.5 29:0.5 31:0.33333333 35:0.33333333 36:0.25 37:0.33333333 39:0.25 40:0.6 42:0.2 44:0.25 47:0.2 49:0.33333333 51:0.4 54:0.25 61:0.2 63:0.25 64:0.33333333 65:0.33333333 67:0.25 68:0.33333333 69:0.2 70:0.5 72:1 73:1 85:1 90:1 98:0.69593211 
